30 101 6
weigvec 3030
-0.367423
-0.054087
0.092906
0.325808
0.198557
-0.029522
-0.144111
0.044398
0.398849
0.653593
0.478321
-0.061398
-0.431172
-0.333074
0.093242
0.222177
-0.001454
-0.146103
-0.304027
-0.480461
-0.605496
-0.564516
-0.228913
0.254265
0.479015
0.677476
0.181013
0.017398
-0.020732
-0.159955
0.886751
0.738772
0.343621
-0.319193
-0.660196
-0.659676
-0.723718
-0.486520
-0.417129
-0.274492
-0.166855
0.001165
-0.011611
-0.010887
0.021297
0.114595
0.108015
0.100749
0.079820
0.054416
-0.082187
0.132756
0.177196
0.080995
0.069346
0.355668
0.180401
0.199753
0.238966
-0.226563
0.014221
0.016668
0.096634
0.097321
-0.132968
-0.018189
0.046314
0.058628
-0.071676
0.017832
0.053533
0.185019
0.123729
-0.008071
0.115361
0.073314
-0.119502
0.027789
-0.065044
0.586123
0.515177
0.558431
0.175531
-0.104197
0.446137
0.971185
0.020695
-0.558349
-0.746021
-1.310602
-0.128946
-0.016970
-0.016171
-0.036656
-0.053621
-0.003724
0.047591
-0.073842
-0.102254
-0.000015
-0.011156
-0.069909
0.005988
-0.059245
0.054570
-0.031128
0.026882
-0.066744
-0.068087
-0.044947
0.138893
0.088379
0.013445
-0.022460
-0.156893
-0.270295
-0.041369
-0.023428
0.221283
0.221882
0.073113
0.032142
-0.152972
-0.172215
-0.011770
0.127503
0.147399
0.011503
0.073461
0.079103
0.075219
-0.035923
0.070112
0.102945
0.327886
0.330893
0.338543
0.191472
-0.197926
-0.387566
-0.313582
0.041005
0.233105
0.221914
0.069662
0.163442
-0.031978
-0.148917
-0.270063
-0.123068
-0.081466
-0.004134
0.062866
0.102082
0.191011
0.044744
0.164354
0.010746
0.145963
0.086504
0.007004
0.100674
0.104963
0.092457
0.044364
0.129177
0.112073
0.084804
-0.070573
-0.020477
-0.020960
-0.214926
-0.109454
0.067323
0.028558
0.150077
0.077220
-0.286092
-0.522341
0.034398
-0.065137
-0.064067
0.076644
0.138517
0.088436
-0.104694
-0.057373
-0.061236
-0.103445
0.004108
-0.155686
-0.181848
0.001380
0.099440
0.212294
0.107524
0.010503
-0.098684
-0.203059
-0.191638
-0.190665
-0.039111
-0.025087
0.015118
0.109256
0.260984
0.101649
0.094218
0.002695
-0.086170
0.215261
0.188142
-0.003163
-0.007337
-0.198100
0.071751
0.110718
0.266450
0.045167
-0.043228
0.066333
0.032720
0.117616
0.388934
0.301980
0.122664
-0.275999
-0.756141
-1.106836
-0.610974
0.019461
0.420969
0.157922
0.234203
0.463483
0.414981
0.097418
0.040166
-0.055058
-0.545927
-0.010039
-0.083613
0.015834
-0.068987
0.116394
0.153217
0.171289
0.074777
-0.058154
-0.064875
0.035576
-0.065171
0.014484
-0.021118
0.084929
0.146458
0.099698
0.075489
0.000932
-0.128351
-0.177487
-0.109676
-0.174458
-0.003008
-0.027941
0.076456
0.102101
0.038251
0.004077
-0.017399
0.580337
0.379384
0.119961
-0.245135
-0.479340
-0.029914
0.728809
1.159132
0.336618
-1.050143
-2.119997
-1.644604
-0.519507
-0.023287
0.174930
0.010825
0.370632
0.261542
0.422494
0.059088
-0.028965
0.362979
-0.032249
-0.242355
-0.285462
0.207034
0.330406
0.250159
0.192859
0.277384
0.062400
0.078260
0.054525
0.072248
0.082551
0.114465
-0.016716
0.050535
0.013108
-0.001523
-0.038058
-0.082672
-0.051361
-0.034413
-0.014442
-0.002113
-0.030059
-0.047611
0.031924
0.045503
0.008091
-0.130556
0.014655
-0.048237
-0.097588
-0.128272
-0.038138
0.004764
-0.056018
0.120991
0.042068
0.010676
0.129059
0.054155
-0.029526
-0.165946
-0.154685
-0.004218
-0.023766
0.010483
-0.139943
-0.048008
-0.052030
0.078273
0.140523
0.115594
-0.012424
-0.011896
-0.157466
-0.141391
-0.182590
-0.117577
-0.091111
0.027223
0.102865
0.169391
0.100770
0.032072
0.025147
0.084668
-0.372305
-0.532529
-0.413633
-0.166853
-0.051395
-0.045333
-0.096762
-0.183519
-0.178235
-0.317619
-0.263209
-0.195283
-0.078640
0.201255
0.433146
0.453824
0.611292
0.330917
0.221898
0.076493
-0.207000
-0.075314
-0.277255
-0.447329
-0.077147
0.468459
0.415879
0.332986
0.099719
0.123932
-0.237914
-0.075890
-0.027366
-0.011970
-0.030601
-0.130070
0.023094
-0.047283
-0.186207
-0.061061
-0.040261
-0.182565
-0.135827
-0.170387
-0.202469
0.055764
-0.397505
-0.155032
-0.182021
1.015956
-0.496393
-0.646074
-0.287306
0.227355
-0.157308
0.023512
0.875082
-0.049900
-1.144639
1.836777
0.115173
0.072487
0.360718
0.632902
0.463917
-0.356435
-1.362271
-2.290741
-2.270671
-1.060255
0.234900
0.978079
1.491240
0.992117
-0.181606
-0.346992
0.180181
0.037376
0.306509
0.260396
0.256052
0.224183
0.370659
0.072357
0.152229
-0.009330
0.045596
0.060355
0.092306
0.314780
-0.291420
-0.455712
-0.495782
-0.364563
-0.259978
-0.111738
0.061973
0.175581
0.308719
0.238863
0.175637
0.204013
0.088116
0.030103
0.066335
0.235150
0.342682
0.338091
0.263197
0.034552
-0.042449
-0.132799
-0.295158
-0.410918
-0.338342
-0.184206
-0.327369
0.251765
-0.015806
0.602742
-0.093498
-0.017854
-0.154108
-0.070757
-0.035028
-0.048218
0.102431
-0.002597
-0.023800
0.070606
-0.076194
0.021687
0.056577
0.018545
0.155341
0.023506
0.055114
0.067442
-0.105965
-0.077753
-0.159451
-0.076978
-0.012648
-0.021842
0.079800
0.222897
0.106069
0.024441
-0.090903
-0.054856
0.330210
0.326483
0.334179
0.166113
0.138839
0.227984
0.149129
0.131137
-0.088950
-0.241839
-0.251173
-0.287367
-0.220476
-0.155789
-0.169248
-0.054406
-0.000980
-0.040796
-0.127278
-0.082971
-0.346225
-0.246971
0.049784
0.114329
0.305024
0.421535
0.218799
0.075100
0.027194
-0.191711
0.157290
0.024123
0.054054
0.058240
0.021264
0.114995
-0.062154
-0.002647
-0.053804
0.004768
-0.044419
0.017912
-0.075613
0.049874
0.053889
-0.119963
0.091129
-0.084312
0.033980
-0.029356
-0.064262
-0.135883
-0.103545
-0.080696
-0.003742
-0.143634
-0.020361
-0.126205
0.034217
0.107954
-0.016089
-0.056012
0.039270
-0.078387
-0.049663
0.109465
0.131644
-0.091995
0.052800
-0.109851
-0.093851
0.001197
-0.081593
0.109013
0.035015
-0.023865
-0.058420
-0.029903
0.059608
0.033132
0.045381
0.071474
0.118273
-0.027870
0.025120
0.114589
0.079160
-0.207455
-0.270986
0.097482
0.375405
0.489157
0.301460
-0.102973
-0.550591
-0.630645
-0.359550
-0.094229
0.168777
0.107450
0.087649
-0.001822
0.086065
0.121561
0.087691
-0.025316
0.057317
0.030422
-0.075284
-0.039553
0.189504
0.154670
-0.022112
-0.279697
-0.217917
-0.099242
-0.345751
-0.164796
0.012467
0.513437
-0.034862
0.251192
0.340117
0.240820
-0.083103
-0.308782
-0.192029
-0.046769
0.176822
0.213681
0.057977
-0.275997
-0.271966
-0.028369
0.527142
0.593183
0.633036
0.200838
-0.545633
-1.090922
-0.630771
0.020319
0.220543
0.240454
-0.093049
0.059343
0.096692
0.082487
-0.148736
-0.026649
-0.254518
-0.093746
-0.054023
0.070350
0.029146
0.110493
0.028032
-0.015691
0.079814
0.068936
-0.048286
0.054729
0.044599
-0.030102
-0.173797
-0.153121
-0.046850
0.026266
0.212384
0.168500
0.065169
-0.047593
-0.013196
0.025805
0.267212
0.375561
-0.001248
-0.184040
-0.109958
-0.075706
-0.244087
-0.035850
0.018758
0.013985
-0.152555
0.045547
-0.085444
0.062749
0.055982
-0.208741
0.089518
0.022863
-0.047145
-0.039511
-0.258270
0.080971
-0.141962
-0.265769
0.390586
-0.264964
-0.280011
-0.964203
-0.328702
0.742459
1.372075
-0.559218
-0.512513
0.778527
0.396881
0.393337
0.032645
0.084484
0.105620
0.043958
-0.047455
0.005856
-0.199862
-0.146463
-0.047774
-0.099864
-0.016620
0.018103
0.013021
-0.013025
-0.048485
-0.072832
0.049199
0.015874
0.022548
0.131540
0.125255
-0.017624
0.147583
0.111421
0.171524
0.251906
-0.045352
-0.262543
-0.155322
-0.214533
0.054442
0.154520
0.128475
0.019187
0.145715
-0.035956
-0.060993
0.009873
-0.182789
-0.221385
-0.060327
-0.113450
0.154436
0.088857
0.026192
-0.060297
-0.114310
0.073648
-0.146892
-0.176050
-0.153693
-0.192974
-0.134151
-0.008329
0.105967
0.459335
0.152259
0.028261
-0.040790
-0.122154
-0.003847
0.134749
-0.080491
-0.034853
0.064502
0.216729
0.248646
0.056455
-0.113720
0.083262
0.170039
0.331397
0.104051
-0.307885
-0.615519
-0.677189
-0.638168
-0.309338
-0.111212
0.154221
0.210633
0.205096
0.244845
0.374922
0.442902
0.469136
0.123305
-0.002751
-0.181392
-0.494692
-0.028594
-0.067010
-0.079705
0.062743
0.049871
0.039681
-0.085678
-0.109019
-0.025439
-0.060081
-0.005077
0.121851
0.139077
0.102064
-0.046496
-0.062850
0.055720
-0.107295
-0.035583
-0.020660
-0.004777
-0.001847
0.091541
0.060986
0.145965
0.160266
0.047751
-0.100336
-0.065384
-0.150136
0.024732
-0.015260
-0.219384
-0.302114
-0.220095
-0.095572
-0.021234
-0.005838
0.156776
0.053920
-0.299556
-0.648847
0.057112
0.694064
1.027031
0.425033
-0.282064
-0.660270
-0.504644
-0.144586
-0.283631
-0.406921
-0.395980
-0.086924
0.506101
0.487181
-0.143224
0.136290
0.185609
0.446742
-0.320274
0.050503
0.419360
0.371763
0.112008
-0.355717
-0.725391
-0.645407
-0.176332
0.280474
0.423865
0.589610
0.264919
-0.230827
-0.587370
-0.585035
-0.323349
-0.278866
-0.127208
-0.116756
-0.089021
0.137963
0.122575
0.074039
0.060972
0.295771
0.243355
0.343170
0.247681
0.171493
0.662803
-0.189751
-0.938392
-1.177507
-1.016651
-0.603378
-0.052237
0.223859
0.396460
0.573196
0.351775
0.018511
-0.355413
-0.342903
-0.241821
-0.593276
-0.127468
-0.252188
0.040849
-0.058769
0.172004
0.321977
0.429734
0.124356
0.375428
0.343570
0.271189
0.473850
0.342100
0.682990
-0.026552
0.064720
0.005395
0.138214
0.024097
0.140222
0.034756
-0.002204
-0.064634
-0.081642
-0.062188
0.010040
0.022738
0.146603
0.074632
0.154837
0.151110
0.134962
0.153513
-0.045931
-0.070392
-0.271422
-0.306618
-0.139054
0.131295
-0.131915
-0.102328
-0.061457
-0.183678
0.222399
-0.104213
-0.166427
-0.150220
-0.097249
0.027757
0.089121
-0.012052
0.014021
0.102914
0.144693
0.138360
0.157678
0.010868
0.136640
0.062935
0.120832
0.112012
0.101625
-0.036868
-0.097593
-0.131723
-0.140316
-0.155820
-0.089584
-0.118704
-0.023747
-0.170558
-0.125606
-0.014391
0.251263
-0.004134
0.031669
-0.022442
-0.003444
-0.037879
0.092491
0.013387
0.084888
-0.105272
-0.114872
0.048446
-0.063720
-0.037417
-0.040433
0.027922
0.075648
-0.077794
0.103465
0.035783
-0.143311
-0.047177
0.147835
0.045951
0.082623
0.001479
0.235218
-0.045206
-0.200324
-0.139909
0.099318
-0.128397
0.061638
-0.030631
-0.111026
-0.081574
-0.226857
-0.003930
-0.197835
0.102232
0.024084
-0.129277
-0.080486
-0.092168
0.227950
-0.321752
-0.191115
0.250709
0.108218
-0.224477
-0.087361
1.050001
-0.374195
-1.598066
-0.834894
1.218507
0.967073
-0.320471
0.022172
0.268826
0.139637
-0.038027
-0.034191
-0.078308
-0.100906
0.095338
-0.073511
-0.086821
0.035156
0.029803
0.062290
-0.024786
-0.013964
0.013031
-0.003077
-0.022932
-0.012581
0.074088
-0.098371
0.034071
-0.099034
-0.034900
-0.000144
0.100118
0.080196
-0.014784
0.026386
0.018805
0.040415
-0.140670
-0.156395
0.003814
-0.030616
0.015107
0.067948
0.046955
-0.091414
0.018204
0.012667
-0.104678
0.044438
-0.101540
-0.076966
0.069074
0.060421
-0.054869
-0.086308
0.079941
-0.120437
-0.011036
0.137307
0.105706
-0.056467
0.008586
0.116008
0.052102
-0.018090
0.051975
0.046987
-0.131141
0.098619
0.187560
-0.250448
0.165845
0.291648
0.236041
0.132484
0.073515
0.023982
-0.060717
-0.075814
-0.191721
-0.121061
0.103144
0.118944
-0.196334
-0.385905
-0.476516
0.590903
0.609110
0.969104
0.446644
-0.395969
-1.041909
-1.224957
0.105621
0.752580
-0.565853
-0.100330
-0.050302
0.079690
0.063014
-0.053343
-0.072244
0.036224
0.038264
-0.058975
-0.059234
-0.026963
0.037300
-0.073412
0.097410
0.058222
0.043394
-0.007216
-0.038490
0.010204
-0.128224
-0.055975
-0.042769
-0.090204
-0.065545
-0.066053
-0.094854
0.054454
-0.038179
-0.240589
-0.069456
-0.032094
0.156279
0.143922
0.090618
0.271046
0.159228
0.137593
0.197101
0.069166
-0.171982
-0.235139
-0.338284
-0.558712
-0.444465
-0.218954
-0.228471
0.030651
0.220717
0.256175
0.381358
0.338624
0.337899
0.226662
0.372364
0.371973
0.023657
-0.637317
-0.795671
-0.307147
-0.367678
0.153954
0.064770
0.538531
-0.053083
-0.093060
-0.124496
-0.083474
-0.073180
-0.088988
0.039971
-0.033076
0.068925
0.114876
0.206485
0.384643
0.309754
0.267451
-0.000967
-0.071397
-0.184970
-0.132986
0.085409
-0.018463
0.152676
-0.060352
-0.430252
-0.534433
0.162486
-0.000106
-0.252181
0.094449
0.070923
0.320298
0.095677
0.115927
0.113870
0.127026
0.069168
0.097224
0.056111
-0.124352
-0.029802
-0.195144
-0.040960
-0.044700
0.167629
0.187039
0.140856
0.038235
0.211246
0.208482
0.051576
-0.059828
0.059312
-0.311619
-0.534771
-0.379463
0.263576
-0.056885
-0.589202
-0.373297
0.168793
0.755872
1.472158
-1.630443
0.935506
0.831188
-0.226681
-0.151030
0.427742
0.070909
-0.127036
0.279714
0.027201
-0.035584
0.155800
0.000646
-0.170810
-0.204003
0.274121
-0.005924
-0.229111
-0.430523
1.096013
-1.070181
0.144587
0.142545
-0.127808
0.215754
-0.478587
-0.486907
0.710273
-1.214438
0.089320
-0.030800
0.063983
0.087180
-0.053487
0.077574
-0.051603
-0.032705
0.066967
-0.048972
-0.023784
-0.050464
0.041293
0.076284
0.007539
0.130300
0.000507
0.034351
-0.087172
-0.071327
-0.004404
0.177880
0.186032
0.142086
0.134158
0.030550
-0.101470
-0.089103
-0.010969
-0.154990
-0.324227
0.159237
-0.089198
-0.072236
-0.066490
0.073183
-0.145854
0.099178
-0.061627
-0.014754
0.124118
0.093034
-0.110428
0.049467
0.087833
-0.011888
-0.146079
0.158770
-0.059852
-0.137038
0.090929
-0.150934
-0.520277
1.902709
1.670565
-4.883948
1.753774
1.865372
-1.262792
0.109360
-0.143489
-0.198179
-0.133529
-0.052434
-0.044875
-0.038132
-0.000561
0.115612
0.151534
0.085580
0.125183
0.250679
0.328767
0.264407
0.224324
0.145849
-0.130698
-0.297488
-0.286285
-0.069237
0.335728
0.469211
0.233436
-0.519368
-0.939468
-0.415672
-0.224088
0.237220
0.102989
0.233296
-0.095200
0.081102
0.057136
0.103502
-0.017485
-0.022981
-0.087971
-0.023718
0.061636
0.013933
-0.077164
0.111378
0.064099
-0.030037
0.050416
-0.018980
-0.031395
-0.037636
-0.121472
-0.057461
0.070528
0.054961
0.022035
0.034251
0.019669
0.026906
0.108013
0.009209
-0.044794
-0.175932
0.038356
-0.063979
-0.010088
-0.042578
0.123001
-0.012106
-0.065094
-0.109410
-0.025203
0.082696
-0.019022
-0.029407
-0.055621
0.097892
-0.049009
0.000262
-0.047621
0.024818
0.111477
-0.060884
-0.068491
0.041943
0.021853
0.018228
0.147882
0.140367
0.011473
-0.079308
-0.187195
-0.087931
-2.208403
-1.288198
-0.637642
-0.147368
0.268928
0.439473
0.565439
0.449182
0.249226
0.167833
-0.044649
0.020093
-0.261778
-0.462913
-0.391007
-0.439586
0.064915
-0.057314
0.231074
0.149733
0.231939
0.302379
0.437992
0.174243
0.259162
0.182272
0.196021
0.336151
0.350407
0.657693
0.062527
-0.056162
0.017035
0.004869
0.049877
-0.018175
0.077394
0.083709
0.052347
0.041331
-0.020469
-0.064614
0.013556
-0.000121
0.002034
-0.060929
0.036079
-0.055611
0.031015
0.015581
0.075470
-0.060689
-0.043669
-0.160569
-0.175476
-0.115679
0.064568
0.123240
-0.039557
0.128749
0.155453
0.137709
0.081886
0.239897
0.053971
-0.001853
0.011703
-0.079855
0.117258
0.095338
0.182993
0.163475
0.145508
0.068788
0.169374
0.035786
-0.033113
0.403759
0.099303
0.180316
-0.139825
-0.015710
0.027048
0.876685
1.857211
0.409391
-2.353716
-1.548617
-0.588710
-0.211863
0.841589
0.636439
0.512221
0.182283
0.205006
0.025543
-0.029316
-0.014670
0.191764
-0.028567
0.168305
0.003487
0.068225
0.067181
0.028458
0.129305
0.178790
-0.227747
0.057012
-0.437218
-0.326942
0.056002
-0.004715
-0.565186
-0.637650
-0.603749
-0.484078
0.165994
0.302809
-0.219156
0.073513
0.068446
-0.041072
0.020150
-0.055465
0.041037
-0.072236
-0.083006
0.004447
0.064273
-0.043078
0.054828
0.065986
0.015286
0.038899
0.067670
0.070834
0.021793
-0.102564
0.063767
0.058439
0.070864
-0.136893
-0.007941
-0.104425
-0.004973
-0.004597
-0.071366
-0.012625
0.114198
-0.115667
0.315109
0.415181
0.069893
-0.173937
-0.233782
0.148285
0.501024
0.379523
0.048636
-0.177427
0.409132
0.850685
0.407193
-0.255222
-1.248820
-1.282306
-1.003436
-0.683724
-0.538006
-0.181651
-0.325122
0.407909
0.615214
1.067789
0.511204
-0.181282
0.161968
0.218084
0.287960
-0.171654
-0.328214
-0.122400
0.138023
0.275714
0.490158
0.453660
0.381044
0.085997
-0.005427
0.024582
-0.031431
-0.101520
0.039624
-0.086101
-0.255421
-0.111382
-0.113341
-0.028963
-0.107960
0.017293
-0.003698
-0.294687
-0.570030
-0.149222
0.136140
-0.309190
-0.033370
0.048525
0.434441
0.287384
0.094394
-0.374655
-0.782287
-0.827078
-0.778351
-0.498726
0.181946
0.435737
0.247267
0.130199
0.148243
0.209523
0.016108
0.164769
0.108131
0.009361
0.347838
0.097627
-0.047931
-0.138382
0.308182
0.284497
0.157002
0.679375
1.067543
-0.175518
-0.495498
0.379939
-1.038201
0.033460
-0.052071
-0.114116
0.058906
0.094038
-0.055322
0.069426
0.067846
-0.080306
-0.060155
0.067798
0.043959
0.069634
-0.082281
0.018006
0.019896
0.018813
-0.100576
0.065863
-0.076382
-0.093198
0.068467
0.026741
-0.044883
0.097306
0.074971
-0.019942
-0.056461
-0.097123
-0.079751
-0.321704
-0.091418
-0.086606
0.012829
0.032026
0.057740
0.058980
0.001824
0.075352
0.055038
0.087663
-0.012652
-0.258869
-0.264730
-0.108968
-0.016272
0.157456
0.196447
0.142713
0.203553
0.041209
-0.092388
-0.004348
0.035369
0.151271
0.425334
0.273423
0.073379
-0.016550
-0.112366
0.154651
0.323110
0.352773
0.286690
0.053424
-0.139625
-0.022370
-0.103578
-0.084771
0.080282
0.270089
0.256907
-0.578411
-1.083965
-0.586307
0.483549
0.865769
0.543377
0.203508
0.021591
-0.754170
-0.878484
-0.787215
-0.194970
0.313232
0.205198
-0.073926
0.373136
0.109118
0.235997
-0.074593
0.025427
0.021911
-0.101718
-0.042804
-0.050987
-0.090023
0.089473
0.030209
0.118929
-0.012828
0.090042
0.152728
0.112314
0.021858
0.073313
0.009136
-0.095013
-0.107072
-0.076538
0.069530
0.050821
0.026486
0.001373
-0.138153
-0.128689
-0.169853
0.044926
-0.046262
0.165244
0.193026
0.085162
0.034367
-0.008598
0.095657
0.071713
0.166663
0.116403
0.193047
0.080185
0.082735
0.030581
-0.024591
0.005535
0.075147
0.070000
0.072075
0.123984
0.333345
0.177766
0.041830
0.161514
0.347058
-0.146243
-0.838661
-0.992947
-0.303234
0.269012
0.047671
-0.112527
-0.462576
-0.242952
-0.092261
-0.167956
-0.277926
-0.295349
-0.424470
-0.248806
0.082175
0.217959
0.013233
-0.178535
-0.444646
-0.374895
-0.179919
-0.135813
0.344168
0.299470
0.571969
0.423585
0.375909
0.480894
0.195376
-0.148254
-0.181689
-0.031310
-0.059606
0.169333
0.175801
0.532203
-0.450687
0.092211
-0.202045
0.005040
-0.147019
-0.056503
-0.257442
0.004991
-0.155993
-0.085040
-0.090435
-0.349848
-0.282367
0.476110
-0.646385
-1.054085
1.970772
-1.558028
1.839631
-2.168075
0.363818
0.833117
0.209476
-0.004501
-0.522451
0.076350
0.397225
0.487432
0.030563
0.838376
-0.012212
-0.076926
-0.120845
0.069992
-0.049916
-0.150307
-0.051969
-0.097090
-0.055283
-0.051144
-0.173831
0.002005
-0.136102
-0.151691
-0.026357
-0.129184
-0.429859
0.169508
0.621433
-0.056700
-0.156502
-0.392070
0.080248
0.225947
0.246873
0.207698
0.298190
-0.077572
-0.039290
0.246007
0.179855
0.050208
-0.119956
-0.015385
0.033325
0.149049
0.162015
0.124520
-0.015702
-0.189390
-0.037883
0.265560
0.165496
0.105693
-0.028483
0.007124
0.105295
0.302599
-0.069562
-0.015330
-0.402025
-0.697795
-0.949929
-0.982705
-0.166924
2.100770
0.409807
-0.304503
0.119680
-0.202632
0.022502
0.040669
-0.026863
-0.087321
-0.099137
0.013726
0.082514
-0.080061
0.016316
-0.050166
0.006952
0.028694
0.015671
0.132301
0.073097
0.131789
0.042429
-0.067025
-0.002700
0.023252
0.089422
0.070271
0.096448
0.043681
-0.114937
-0.251039
-0.066146
-0.091447
0.055334
-0.084928
0.044653
-0.086482
-0.038637
-0.074674
0.058399
0.093925
-0.002011
-0.051976
-0.054178
0.075303
0.035377
0.092335
0.073961
-0.033282
-0.118769
-0.060764
-0.079817
-0.063361
0.073969
0.057322
0.049897
0.054882
-0.071794
-0.072135
0.096618
0.164335
-0.037281
0.050868
0.090736
0.044100
-0.083735
-0.016398
-0.187233
-0.081129
-0.019659
0.246080
0.359354
0.361523
0.319504
0.243079
0.073335
0.051999
-0.086999
-0.043724
-0.090894
-0.173784
-0.255733
-0.129974
-0.162139
-0.187048
-0.152370
-0.058576
0.003827
0.127457
0.255744
0.432298
0.171071
0.114750
0.060203
-0.006638
-0.518637
0.104125
0.228572
0.052299
-0.269579
-0.374988
-0.336460
0.027390
0.158474
0.051542
-0.144963
-0.114459
-0.093714
-0.156139
-0.579874
-0.809971
-1.112716
-0.721233
-0.652091
-0.170834
0.189152
-0.018882
0.660513
0.812483
0.675383
1.054898
0.194715
0.489251
0.436442
0.882277
-0.046968
-0.046521
-0.188304
0.025001
0.103020
0.038860
0.082444
0.044781
0.073900
-0.091108
-0.264379
-0.268420
-0.207862
-0.243720
-0.086238
0.147565
0.202027
0.243383
0.163394
0.066485
0.059704
0.139105
0.119146
0.172319
0.300463
0.365596
0.051665
-0.110232
-0.035301
-0.205842
-0.159577
0.005229
0.073829
0.081143
0.007609
0.088813
-0.071246
-0.090439
-0.067159
-0.016514
-0.082255
-0.109442
0.061869
-0.024718
0.088822
-0.063706
0.002835
0.128903
0.050262
0.123235
-0.053238
-0.241657
-0.091877
-0.067084
0.079289
0.135434
0.144695
-0.079568
-0.025411
-0.009310
0.116201
0.043046
0.045365
-0.034167
-0.104381
-0.071724
-0.013840
0.056019
0.018205
0.064228
-0.123818
-0.131850
-0.098474
-0.062892
-0.154417
-0.206919
-0.196004
-0.131101
-0.074574
0.065997
0.204053
0.317400
0.415994
0.108957
-0.300702
-0.243967
0.117241
-0.164895
-0.237406
-0.146758
-0.183403
0.206936
0.298531
0.318328
0.299543
-0.022599
-0.488740
-0.496622
-0.696771
-0.811087
-0.633764
-0.341054
0.098292
0.206166
0.208096
0.207662
-0.002083
0.218402
0.153426
0.406271
0.050420
0.051491
0.304076
0.237824
0.373070
0.587684
0.051871
-0.227736
0.318385
-0.920399
-0.176251
-0.138167
-0.070373
0.045715
0.064249
0.077909
0.103380
0.113388
0.047942
-0.148223
-0.363696
-0.561471
-0.542442
-0.203477
0.098702
0.197097
0.133048
0.154209
0.132232
0.179332
-0.024283
0.167374
0.307609
0.298929
0.419711
0.527028
0.063061
-0.215518
-0.235639
-0.740516
0.046760
0.090773
0.230135
0.122701
0.145952
0.116829
0.071380
0.092935
0.318257
0.392780
0.355716
-0.040269
-0.409667
-0.425594
-0.449492
-0.404570
-0.307256
-0.208818
0.093589
0.137550
0.403617
0.524369
0.025992
-0.676424
-0.981148
-0.366499
0.143932
0.189153
-0.008725
0.394984
-0.154110
-0.122122
-0.043977
0.067369
-0.022078
-0.104460
-0.039564
-0.030692
-0.242051
0.143834
-0.043203
-0.221325
0.066059
-0.113547
-0.165405
0.130423
-0.186235
0.026990
0.014747
0.023144
0.091303
-0.315358
0.802320
0.486582
-2.839009
0.930493
2.519835
-2.176243
0.418068
0.381684
-0.344649
-0.032073
-0.099402
-0.132661
0.009983
-0.177376
0.023568
-0.001943
-0.036444
-0.162385
-0.139541
-0.089161
-0.005721
-0.019123
-0.052575
-0.223692
-0.265577
0.810092
-0.456077
-0.142629
0.289812
0.727933
-0.509926
-0.262995
-0.214168
-0.837662
-0.567518
0.394556
0.485054
1.240295
0.239658
0.688565
0.260866
-0.140164
0.519710
0.328056
-0.049896
0.239386
0.409934
-0.086096
0.267230
0.332894
0.075802
0.235348
0.067115
-0.029867
-0.242095
0.026916
0.297426
-0.213230
-0.309881
0.216182
-0.360209
-0.443049
0.117683
0.056998
-0.231922
-1.160515
-0.593783
-0.119901
0.058506
-0.063351
-0.028448
0.078682
-0.065598
-0.035703
-0.080797
-0.002457
0.009821
0.055692
0.076388
0.112044
0.089365
0.031803
-0.116635
-0.115263
-0.097605
-0.159545
-0.028159
-0.109572
-0.119354
-0.128371
0.053144
-0.027725
0.068652
0.223473
0.058639
-0.033129
0.067531
-0.065120
-0.600582
-0.332294
-0.441757
-0.374588
-0.229040
-0.115666
-0.209819
-0.037258
0.044714
0.120945
0.304095
0.532598
0.550977
0.333630
0.113270
-0.030313
-0.137704
-0.150992
-0.206063
-0.044057
-0.402884
-0.207764
-0.006285
0.023465
0.314225
0.620184
0.205837
0.198577
0.027971
-0.203751
-0.715537
-0.259716
0.088185
0.699077
0.832589
0.714179
0.096284
-0.550016
-0.823286
-0.698675
-0.342362
-0.070603
0.172638
0.294983
0.200444
-0.165475
-0.191606
-0.204208
-0.134817
-0.286438
-0.129669
-0.039581
0.050230
0.293203
0.257672
0.175763
0.028968
0.149001
0.184607
0.458171
0.260467
0.172761
-0.117927
0.039543
0.284188
0.618341
0.460715
0.023033
-0.422443
-0.585556
-0.425547
-0.252028
-0.115335
-0.323719
-0.381424
-0.276482
-0.136541
0.022499
0.047101
0.040034
-0.074714
0.257081
0.290902
0.182296
0.421634
0.358164
0.049630
0.028143
0.221543
-0.318601
-0.066967
-0.002279
0.042463
-0.053443
-0.076876
-0.032877
-0.073049
-0.051165
0.010244
-0.086215
0.081213
0.064120
0.016237
-0.020620
-0.097497
0.086974
-0.039041
0.041765
0.058519
0.067123
-0.001310
0.076649
-0.011651
-0.001148
0.001300
-0.030978
0.069356
-0.117386
0.059355
-0.022213
0.024654
-0.039812
0.070314
-0.064953
0.066562
0.039605
-0.074104
-0.005164
-0.015388
-0.073366
-0.075402
0.022860
-0.000974
0.028741
-0.063162
-0.014140
-0.078427
0.054189
-0.028768
-0.031362
0.031370
0.058988
-0.017160
0.122428
0.031849
0.002597
0.034668
-0.053408
-0.120897
-0.103158
0.086031
0.054136
0.030640
0.076763
-0.031105
-0.047174
-0.017984
0.103313
-0.047460
-0.058335
-0.088664
-0.056512
-0.136045
-0.063701
-0.032407
-0.001452
0.061821
-0.022582
-0.050847
-0.021764
-0.190213
-0.056572
0.018053
-0.046572
0.197864
0.261387
0.021496
0.063855
-0.062505
-0.033217
-0.216199
-0.110368
-0.154731
-0.093210
-0.089380
-0.062005
-0.075069
0.069915
0.110391
0.101178
-0.036620
-0.135934
-0.247444
-0.248362
-0.170680
-0.044801
0.101995
0.235584
0.206552
0.326386
0.177743
0.230479
0.179823
0.154174
0.443719
0.497577
-0.129237
-0.379945
-0.261005
-0.446138
0.015127
0.143592
0.120611
0.059155
-0.169489
-0.400606
-0.361125
-0.339799
-0.401617
-0.118024
0.103457
0.286052
0.295053
0.143902
0.143874
0.166038
0.105902
0.065843
-0.084490
-0.173880
-0.108889
0.076592
0.197649
0.243490
0.316903
0.430820
0.268732
-0.005249
-0.153899
-0.272009
0.126790
0.055277
0.083055
0.069069
0.168671
-0.034575
-0.036070
-0.005537
-0.059418
-0.133866
-0.310720
-0.278925
-0.159582
-0.212703
-0.245173
0.050299
-0.116237
0.131904
0.230544
0.192275
-0.096942
-0.409936
-0.155421
-0.037043
0.248801
0.549065
0.148664
-0.075881
0.074170
-0.153563
0.051046
-0.068566
0.043378
-0.058210
0.033594
0.095398
0.015630
-0.033960
-0.063885
-0.013416
-0.037084
-0.034396
0.101390
0.054117
-0.104341
0.082217
-0.057409
0.112518
-0.082532
0.015752
0.075963
-0.042187
-0.072093
0.046190
0.137577
0.053933
-0.003851
-0.150503
-0.143127
0.015005
0.004615
-0.012471
-0.011632
-0.014064
-0.009098
0.058908
0.030116
0.006208
-0.046126
0.018516
-0.059038
-0.102989
-0.107204
-0.005053
-0.007648
-0.040477
-0.042572
0.010860
0.044419
0.091399
-0.043708
-0.035377
-0.177081
0.037767
0.124479
0.062001
0.014407
-0.023988
-0.055328
0.042480
-0.181021
0.015096
0.064912
-0.132470
-0.103051
-0.010834
-0.143790
-0.155205
0.304125
-0.074562
-0.333505
0.207092
0.061600
-0.485659
0.356589
0.092024
-0.639187
0.762088
-0.929911
1.372987
-1.399301
0.933917
0.492339
-1.751462
0.671837
2.357416
-2.698817
1.395874
0.175203
-0.347623
-1.619180
-0.800335
-0.652120
-0.249206
0.316059
0.309391
0.294642
0.227341
0.241105
0.048274
0.114512
0.089263
0.029451
0.044852
0.184811
0.184311
-0.068286
0.163998
0.074987
0.162736
0.077412
-0.016095
0.259331
0.321822
0.160950
0.512168
0.295742
0.080490
0.194913
-0.731408
0.033679
0.077401
-0.054716
0.024574
0.042445
-0.096959
0.043667
-0.048430
-0.085949
-0.032574
-0.051180
0.044897
-0.040789
0.087273
0.064613
0.081217
-0.050984
-0.101054
-0.039142
-0.080512
0.082364
-0.016558
-0.021146
0.034726
-0.010337
0.058801
0.072153
-0.031615
0.055115
-0.037919
0.073091
0.026980
0.074843
0.111966
-0.043616
0.035555
0.038367
0.029760
0.108592
-0.085553
-0.085300
-0.093807
-0.068119
-0.185986
-0.204703
-0.125421
0.032721
-0.149316
-0.257467
-0.114621
0.643658
0.332052
1.241272
0.755258
-0.146801
-1.023938
-1.071406
-0.481896
0.280570
0.080968
-0.039601
0.151221
0.114418
-0.139303
0.082930
0.136051
0.273198
0.455968
0.149201
-0.170225
-0.130654
-0.142201
-0.027185
0.042313
-0.241197
-0.582087
-0.640313
-0.329401
-0.252300
0.003943
-0.018590
0.011626
-0.121745
-0.107215
0.695755
1.452042
0.048322
-0.377591
0.078090
-0.741034
-0.135796
0.082900
-0.160532
0.032352
0.127593
0.234179
-0.041837
-0.206491
-0.160154
0.023912
0.180331
0.255050
-0.028851
-0.365217
-0.551250
-0.449449
0.084982
0.343231
0.186710
0.461283
0.199059
-0.100020
-0.171677
0.069364
0.183076
0.357050
-0.121920
-0.680063
-0.518757
0.629673
-0.187906
0.303681
0.358400
0.317719
0.190128
-0.290335
-0.473818
0.007569
0.523091
0.618610
0.166966
-0.526151
-0.985133
-0.858827
-0.512268
-0.350590
-0.268341
-0.055250
0.036226
0.309236
0.124945
0.133015
0.023659
0.253354
0.308333
0.243391
0.339584
0.302692
0.377938
-0.571805
0.074844
0.052982
-0.032424
0.034920
0.068293
0.076694
0.076062
-0.082859
-0.026638
0.001234
0.063720
-0.024432
0.092896
-0.059212
-0.034368
-0.056831
-0.068769
-0.056745
0.087161
0.039815
0.054310
0.083109
-0.018690
0.118531
0.068131
0.086303
0.013113
-0.068614
-0.035890
0.017863
-0.090874
0.027437
-0.020268
0.003456
-0.087523
-0.201139
-0.169283
-0.274943
-0.342970
-0.379350
-0.354472
-0.368047
-0.045092
0.125923
0.120283
0.017295
0.031990
0.216986
0.196359
0.326582
-0.084275
-0.446001
-0.130917
0.260064
0.512475
1.148757
0.382994
-0.050498
0.006402
0.015289
0.026209
-0.035007
0.115793
0.005623
0.080408
-0.028086
0.041838
0.037603
-0.051756
-0.076193
-0.017451
-0.034161
-0.015165
-0.008168
-0.006284
-0.027009
0.031458
-0.115069
0.009839
0.160595
0.125837
-0.056421
-0.255106
-0.129405
0.043833
0.136771
0.044562
0.052447
0.126396
0.037635
-0.109507
0.037317
-0.072257
0.034394
-0.084653
0.082376
-0.015080
-0.050338
0.088049
0.048275
-0.037527
-0.099297
0.014503
0.105963
0.069418
-0.108311
0.108635
0.079381
0.014692
0.097682
0.004974
-0.037722
-0.023104
-0.121795
0.025844
0.106973
-0.014564
0.042518
-0.133199
-0.020554
weigvec 606
0.233973
-0.125875
-0.203550
0.212488
-0.085446
-0.302482
-0.055176
-0.742263
0.038902
0.126550
0.121030
0.062577
0.632931
-0.714482
0.272653
0.673088
-0.141487
0.155431
0.081116
-0.248146
0.374384
0.280300
-0.189279
1.130223
-0.361258
-0.183119
-0.565508
-0.203735
0.722280
-0.030875
0.402476
0.102426
0.167500
-0.251355
0.904896
-0.220020
-0.153256
1.079967
0.217399
0.772028
0.606982
0.090932
-0.612848
-0.140913
0.912514
0.951430
-0.171811
-0.233170
0.257606
0.272311
0.159044
0.565387
0.077703
0.325253
0.973109
-0.729773
-0.170631
-0.086564
0.627837
0.118858
0.709390
0.831927
-0.600910
-0.111548
0.729167
0.137067
0.026358
0.067117
-0.344293
-0.318165
-0.042771
-0.151889
-1.421295
-0.453293
1.043400
1.480399
-0.293995
-0.539942
0.012072
0.399564
0.359944
-0.335061
-0.023522
-0.223112
-0.051424
-0.200729
-0.405304
0.094507
-0.183438
0.006181
1.360186
-1.150041
-0.023885
1.447439
-0.192914
-0.406090
-0.565656
-0.124726
0.043600
0.182694
-0.030463
-0.267721
0.352331
0.919001
-0.171532
0.057255
-0.049450
0.010668
0.640262
-0.092843
0.446810
-0.170637
-0.119669
-0.003204
-0.730398
0.177082
-0.352266
-0.021558
-0.061516
-0.107600
-0.102396
-0.195760
0.088951
-0.168865
-0.697973
-0.062432
-0.113146
0.581001
0.076679
-0.345914
0.542041
0.362394
-0.069468
-0.149118
-0.182268
-0.748157
0.067866
-0.069751
-0.823621
-0.079826
-0.038491
-0.228154
-0.329643
-0.377920
-0.005951
1.873341
-0.317180
0.071411
0.008766
0.531021
-0.041134
-1.314206
-0.383073
-0.166757
0.662190
-0.694375
0.469435
-0.107318
0.040705
-0.541150
-0.157879
0.055326
0.163056
-0.573993
-0.189133
-1.031842
0.111791
-0.124697
0.020909
-0.848774
-0.049973
-0.030892
0.214679
0.844199
0.271701
-0.465954
0.077166
-1.003194
-0.456132
-0.124323
-0.246513
0.040824
0.456796
0.047665
-0.034679
-0.174071
0.086840
-0.032070
-0.254591
-0.009651
-0.106509
-1.517999
0.810556
0.030332
0.301482
-0.050700
0.119893
1.338501
0.022246
-0.649559
-0.084457
-0.061402
-0.136203
-0.332345
-0.185482
-0.113227
0.049265
0.468840
0.133002
-0.110681
0.184584
0.192429
0.001434
0.030369
-0.112812
0.110218
0.041632
0.356386
0.103742
-0.402089
0.057025
0.282782
0.610141
0.035596
-0.089362
-0.344645
-0.116183
-0.064930
-0.205352
0.001334
0.104369
-0.018434
0.212987
0.400798
0.337744
0.054647
-0.477646
-0.091701
0.010224
0.537578
0.001969
0.228145
0.181717
0.682443
0.073242
-0.157426
-0.373643
-0.300064
0.047042
0.106996
-0.081954
-0.022234
-0.589811
-0.318985
0.040946
0.018480
0.278055
-0.351613
0.040544
0.104378
0.498809
-0.081960
-0.592729
0.132765
-0.673736
-0.009915
-0.269713
-0.099367
-0.101764
-0.354440
-0.046352
-0.039543
0.178641
0.231864
-0.493485
-0.003934
0.183385
-0.243413
-0.741321
0.336890
-0.157143
-0.350537
0.152345
-0.411559
0.058087
0.004526
-0.056676
-0.244447
-0.180539
-0.167208
0.081083
0.025953
0.372169
-0.141958
0.041702
-0.003244
0.082922
0.587714
-0.273985
0.081487
0.570406
-0.074363
0.140692
-0.269357
0.176584
-0.476502
0.168694
0.312525
-0.085359
-0.003698
-0.030278
-0.138778
0.307726
-0.077794
-0.067885
0.128362
-0.527929
0.063792
-0.097929
-0.080962
-0.281926
-0.137718
0.108830
0.221924
0.215743
-0.283541
-0.324552
0.012023
-0.371608
0.041034
0.028373
0.240407
-0.065027
0.244586
-0.247189
0.108856
0.089582
-0.326826
0.026146
0.018345
0.065731
-0.000516
0.399566
-0.208530
-0.489108
-0.098479
0.232796
-0.591834
0.490918
0.071442
-0.010960
0.487437
-0.007250
0.713036
-0.106132
0.067837
0.417721
-0.285804
-0.018633
0.074684
-0.409083
0.184078
0.167234
-0.023272
0.214546
-0.915604
-0.181240
-0.143050
0.200316
-0.057620
-0.049396
-0.335698
-0.083250
-0.228335
0.285489
0.160755
-0.035883
0.564258
-0.519550
-0.383256
-0.084169
0.036365
-0.017695
0.125389
0.360990
0.092661
0.094271
-0.237910
-0.210666
0.003294
-0.445473
-0.054835
-0.159765
-0.922385
-0.140981
0.051762
0.359519
-0.960182
-0.236155
0.132705
0.083151
-0.794711
-0.159239
-0.140326
0.929315
0.590494
0.647966
-0.125666
0.322975
-0.059520
0.408897
0.665790
0.141961
0.327706
-0.124967
0.290847
0.679508
-0.571590
0.268731
-0.219738
0.239149
0.532550
-0.159823
-0.059001
-0.428153
0.485954
0.306986
-0.502441
0.215062
0.356393
0.568680
0.233204
0.639486
0.789221
0.617815
-0.041384
-0.011236
0.044288
-0.391267
0.010713
-0.100670
0.523915
-0.153539
-0.562792
-0.110335
-0.185114
-0.538277
0.100410
-1.649854
-0.150493
0.090288
0.130525
0.370191
-0.004093
1.193509
-0.348456
-0.089314
0.222799
-0.250121
0.624861
0.016087
0.410154
0.575580
-0.165299
-0.340590
0.016805
-1.060503
-0.269570
1.043046
-0.131780
0.109886
0.537080
0.109629
0.396335
0.243002
-0.297878
0.723333
0.774119
-0.112254
-1.277508
0.310787
-0.115728
0.261462
1.207815
0.524242
0.415795
0.029429
0.005845
0.212887
0.655170
0.591481
0.312028
0.009932
0.070657
-1.502398
0.579733
0.107333
-0.288895
0.850076
0.460962
0.596824
0.058475
0.585844
0.068792
-0.020234
-0.495952
-0.515248
-0.788973
0.194157
-0.496113
0.079538
-0.105132
-0.240976
-0.171482
-1.159070
0.039280
-0.122224
-1.085401
2.331261
-0.931619
-0.510068
-0.133883
0.155959
0.108236
0.042743
-0.612733
-1.159005
0.222490
0.639174
0.094804
0.118998
-0.534341
0.056040
-1.563995
-1.287603
-1.893455
-0.015449
-0.154904
0.121856
1.304976
-0.054771
0.192972
-1.368132
0.010881
-0.669992
-0.156336
0.225600
1.656960
-0.111452
-0.165356
-0.799502
0.052052
0.154762
-1.544035
0.011286
-0.344267
0.725098
0.013107
-1.546043
-0.070243
0.194175
0.042986
0.132857
-1.378217
-0.138388
-0.038726
-1.291248
3.945278
0.625826
-0.368531
-0.027309
-0.007913
-0.017333
1.305282
0.098091
0.034900
-0.324867
0.241466
-0.343641
-1.144137
0.668180
2.026695
1.121713
0.091057
-0.847260
-1.086327
-0.601104
0.049423
0.082802
0.117042
0.120427
-0.099237
0.429350
0.099705
0.114234
2.177263
0.095830
0.064217
-1.858947
0.359679
-0.360092
-1.357138
0.059892
0.377503
0.189801
0.040495
biasvec 101
-4.055756
-4.482642
-4.200095
-3.871763
-3.876745
-3.814844
-3.996944
-3.912546
-4.061701
-4.941632
-3.974156
-4.019200
-4.939198
-4.849051
-3.803841
-4.237501
-3.913130
-3.908850
-4.047259
-3.884512
-4.156095
-3.911657
-3.982150
-4.076049
-3.869341
-3.848674
-4.034005
-3.939316
-4.633188
-5.011136
-6.970562
-3.851924
-4.004789
-3.968499
-4.076145
-4.036278
-3.959197
-4.785906
-3.942856
-4.268949
-3.892256
-3.783270
-4.349540
-3.914720
-2.493008
-4.393785
-4.045305
-3.909144
-6.368257
-4.073131
-4.277634
-4.231233
-4.073831
-4.366370
-4.304330
-4.302527
-3.987493
-3.788967
-4.961291
-3.943307
-4.075478
-4.900545
-6.626286
-3.951872
-3.648350
-4.053084
-4.000832
-3.948892
-4.206719
-3.870011
-4.028014
-3.847793
-5.288407
-4.309237
-4.620131
-3.094900
-5.147974
-4.479248
-3.998285
-4.718287
-4.217803
-4.281874
-4.030795
-4.065860
-3.998127
-3.891423
-3.880063
-3.866716
-4.089781
-4.058788
-3.494173
-4.327620
-4.010850
-4.614431
-4.078132
-3.938193
-5.161786
-4.071898
-3.590337
-4.011967
-3.967013
biasvec 6
-4.667459
-6.934226
-2.629933
-3.930349
-3.759954
-2.022197
