60 101 6
weigvec 6060
-0.236580
0.053470
-0.158348
0.010523
0.048262
0.142842
0.125392
0.066636
0.208078
0.248372
0.203624
0.135634
0.114947
-0.081918
-0.156254
-0.151749
-0.136813
-0.111910
-0.046650
-0.221048
-0.250600
-0.350923
-0.202236
-0.099332
0.052902
0.199188
0.155377
0.037523
0.089777
0.111619
0.121857
-0.076788
-0.054966
-0.083686
0.027298
-0.083416
-0.300631
-0.038614
0.216086
0.285488
0.208527
0.106037
-0.266436
-0.456698
-0.427965
-0.219603
-0.233849
0.059172
0.233098
0.194292
0.182515
-0.052920
-0.039419
0.144924
0.177678
0.163195
-0.025850
0.056008
0.289731
0.155269
1.599296
-0.852188
-0.354795
0.521564
0.259248
0.000023
-0.023138
0.247124
0.142722
0.073733
0.023622
0.276539
0.297497
0.129128
0.107544
-0.015484
0.174671
0.128905
0.053558
0.340099
0.390804
0.240497
0.105251
0.041374
0.021110
0.195133
0.177984
0.233030
0.192397
0.157488
-0.204816
-0.040724
0.177147
0.224775
-0.077890
0.041284
0.130234
0.022765
-0.024474
0.034541
0.230560
-0.119310
-0.099930
-0.191032
-0.061816
-0.070878
0.079090
0.010867
-0.087151
-0.268282
-0.347764
-0.393645
-0.048489
0.330975
0.140048
-0.279920
0.013946
0.518932
0.079080
-3.600186
0.182976
-0.001178
-0.206113
-0.246225
-0.105524
0.050134
0.132512
0.017661
0.156796
0.103603
0.031897
-0.074069
0.075814
0.065800
0.104629
0.036484
0.128688
0.158310
0.080026
0.048151
0.024070
0.066996
0.111019
0.042165
-0.047542
0.097978
-0.060139
0.068929
0.079808
0.119688
0.025856
0.008811
0.040132
0.007598
0.065234
-0.050474
0.050515
-0.078980
0.053165
0.002367
-0.035115
0.063187
0.050072
-0.020619
-0.064408
0.049993
0.062132
0.073854
-0.022703
0.036322
0.068068
-0.003207
0.031824
0.047881
-0.014546
0.014263
-0.029727
-0.054824
-0.203601
-0.175194
-0.554137
0.126324
0.237631
0.187345
0.178610
0.032955
0.010436
-0.077703
-0.087702
0.131065
0.074066
0.063823
0.119010
-0.033354
0.007699
0.069321
0.167550
0.143072
-0.032599
-0.187163
-0.337501
-0.211724
-0.062636
0.082328
0.200984
0.180987
0.052759
0.102016
0.070167
-0.031002
0.059431
0.093492
0.168944
0.313870
0.038568
-0.047611
-0.187061
-0.044870
-0.036263
0.114987
0.122886
0.369247
0.121026
0.101605
0.092342
0.230077
0.210227
0.146512
0.192614
0.095399
-0.137064
-0.265651
-0.136759
0.192318
0.484404
0.271938
0.068703
0.307448
0.075258
-2.980570
0.086720
0.284835
0.126543
0.011834
0.309656
0.305968
0.217089
0.149083
0.061864
-0.025544
-0.097266
-0.311931
-0.191670
-0.152933
-0.010223
0.016492
-0.145490
-0.146631
-0.074049
-0.040649
0.055577
0.315466
0.325612
0.321640
0.032918
-0.129305
-0.222085
-0.306841
-0.225288
-0.072106
-0.201375
-0.224861
0.037792
0.352961
0.707166
0.197091
-0.243638
-0.062549
0.053302
-0.425867
-0.976722
-0.665935
-0.128140
0.255255
0.166221
0.065807
0.089535
0.034612
-0.094112
-0.210477
-0.061128
-0.030146
0.001732
0.134845
0.213691
0.235662
-0.017953
0.040728
0.159024
-0.023411
-0.215151
0.174874
0.011702
-0.082728
-0.001912
0.091402
-0.021639
0.058641
0.112726
0.177223
0.115979
-0.115398
-0.186683
-0.127889
0.067049
0.196969
-0.037805
-0.215192
-0.150066
0.052647
0.082478
-0.094422
-0.001981
-0.024842
-0.107967
-0.128002
-0.011480
-0.134849
-0.187976
0.111879
0.021609
-0.274572
0.010081
0.172400
0.135842
-0.320918
-0.209312
0.368293
-0.055716
-0.273377
0.092957
0.235275
0.318368
0.182920
0.315730
0.526885
0.412906
0.420445
0.009076
-0.858662
-1.711203
-1.334591
0.029340
1.370568
1.680638
1.167269
0.152030
-1.312239
-1.838816
1.050849
0.851658
-0.344377
-0.054301
0.211994
0.012656
-0.011580
0.006548
0.162260
0.268284
-0.023427
0.030943
-0.038000
0.056644
0.104257
-0.011090
0.141384
0.267827
0.259968
0.154935
0.321158
0.109006
0.070534
0.089097
-0.004151
0.057836
0.023709
-0.046407
0.046046
0.066905
0.131103
0.078263
0.010746
0.263537
0.251548
0.020074
-0.022307
0.108597
0.092889
0.082025
0.238149
0.266782
-0.093836
-0.137549
-0.087828
0.007518
-0.046626
-0.045461
-0.294022
-0.181414
0.063861
-0.105084
-0.428739
-0.706258
-0.767151
-0.795342
-0.636490
-0.213444
0.078288
-0.126985
-0.419625
-0.013968
-0.104847
-0.102341
-0.065848
-0.027774
-0.060540
-0.029415
0.013543
-0.010670
-0.030016
0.082016
0.067177
0.049792
-0.088639
-0.138129
-0.062810
-0.033667
0.084295
0.159388
0.120276
0.288489
0.447616
0.448423
0.360162
0.225232
0.012617
0.103081
-0.024485
-0.022067
-0.095529
-0.039690
-0.078854
-0.229033
-0.311990
-0.253815
-0.278879
-0.274405
-0.052548
0.074985
-0.044966
-0.017579
0.151894
0.102753
0.089518
0.230450
0.183558
0.125653
0.048706
-0.017932
-0.099808
-0.221513
-0.137125
-0.086350
-0.148053
-0.400958
-0.157078
-0.001722
-0.018720
-0.350807
0.428168
-0.299336
-0.092617
-0.155176
-0.019076
0.051337
0.005152
0.093498
-0.089207
-0.113938
0.021475
-0.110705
0.019650
0.066730
0.000873
0.155063
0.052973
0.133963
0.213260
0.029003
0.046391
-0.055715
-0.027447
-0.058626
-0.214026
-0.122473
0.022840
-0.002432
0.106266
0.022944
-0.061016
-0.089198
-0.038467
0.055812
0.036011
0.080021
0.183979
0.014154
-0.072027
-0.215832
-0.224475
-0.141492
-0.167747
-0.147127
-0.046733
0.131131
0.285054
0.300066
0.120506
0.085705
0.228195
0.107366
0.090001
0.203062
0.287000
0.423041
0.123201
-0.071550
0.056392
0.138200
-0.719657
0.014885
-0.088376
-0.024362
0.011995
-0.023283
0.054904
-0.162555
-0.126018
-0.128308
0.014840
0.048603
0.179633
0.137805
0.228706
0.209234
0.015123
0.172773
-0.028782
-0.046910
-0.251784
-0.392725
-0.390084
-0.189795
-0.032361
0.095952
0.039482
0.145497
-0.048514
-0.001951
-0.069364
-0.046617
-0.060525
0.047005
-0.081982
-0.064583
0.087524
0.162823
0.010791
0.179682
0.077972
0.136374
0.251668
0.131092
0.192684
0.028896
-0.112129
-0.270264
-0.309229
-0.139932
-0.040980
0.064789
0.187584
0.276314
0.127920
0.141950
0.059312
0.032197
-0.026513
-0.212221
-0.421906
-0.068655
-0.012256
-0.005962
0.063576
-0.016580
-0.000764
-0.102005
-0.093449
0.059523
0.039379
0.126193
0.147180
0.155064
0.109180
0.242769
0.098389
0.162713
0.114796
-0.069356
-0.139304
-0.184926
-0.166400
-0.159697
-0.241588
-0.115441
-0.074533
-0.093381
-0.007345
-0.031961
0.026755
-0.041880
0.100075
0.023711
-0.086576
-0.099668
-0.192441
-0.088130
-0.179625
-0.028664
-0.028938
-0.016584
-0.087928
-0.034401
-0.079983
0.034813
0.125089
0.133596
0.052641
0.160331
0.032252
0.062133
0.135339
0.139315
0.228746
0.192443
0.219360
-0.016979
0.014921
-0.023308
-0.218999
-0.159787
-0.109994
-0.136538
-0.050765
-0.138857
-0.055662
-0.095165
-0.144103
-0.045987
-0.057140
-0.158725
-0.018030
0.034653
0.018135
-0.083704
-0.059153
0.032846
0.016841
0.156183
0.091741
0.042255
0.014600
0.038671
0.011835
0.170641
0.159484
0.010409
0.034090
-0.017843
-0.015211
-0.028947
-0.049427
-0.075050
0.067677
-0.044005
0.147073
-0.044260
-0.032893
0.055868
-0.151046
-0.040326
-0.157831
-0.214090
-0.206289
-0.025779
0.248776
0.293581
0.278173
0.261249
0.219015
0.132442
0.002128
0.048424
0.070730
0.192019
0.022817
0.027916
0.040389
0.017249
-0.043639
0.285673
0.199954
0.205236
0.156253
0.068435
0.149384
-0.039386
-0.068877
-0.050782
-0.167795
-0.135635
-0.150583
-0.169902
-0.167454
-0.141277
-0.099236
0.066539
0.018241
0.079288
0.203132
0.251258
0.102815
0.175330
-0.008785
-0.125262
-0.113511
-0.184638
-0.204372
-0.152055
-0.197749
-0.112091
-0.044835
-0.057239
-0.117848
0.076949
-0.047003
-0.018278
0.076434
-0.060270
-0.040201
0.094187
-0.068483
0.148492
0.098666
0.113456
0.041119
-0.011855
0.112783
-0.169972
-0.318152
-0.291686
-0.171880
0.035363
0.153727
-0.008212
0.041330
0.003271
0.058376
-0.092897
0.279594
0.000818
0.031072
-0.117168
0.060033
0.029878
-0.023633
0.083480
-0.073366
-0.084549
0.094312
-0.023233
0.104594
-0.004946
-0.076963
0.041337
0.041894
-0.081675
-0.011442
0.054433
-0.011401
-0.063806
-0.040799
0.113854
0.072210
-0.042710
-0.049344
-0.076082
0.088968
0.059173
-0.067184
0.049744
-0.015464
-0.057631
0.065789
0.043829
0.062035
-0.041159
-0.077833
0.029744
-0.032108
-0.013163
0.099154
0.097514
0.053232
-0.117876
-0.119792
0.043055
-0.146740
-0.078993
-0.130739
-0.137260
-0.116782
0.045923
0.047361
0.093981
0.016561
-0.026987
-0.050208
0.067012
0.167276
0.002596
0.011533
-0.019332
-0.220300
-0.344046
-0.432618
-0.286178
-0.287400
-0.310110
-0.323919
-0.211423
-0.160846
-0.123278
-0.170908
-0.120406
-0.227607
-0.247244
-0.357871
-0.067411
0.197676
0.264429
0.089110
-0.013409
0.050286
-0.009652
0.083063
0.382284
0.145796
0.515283
0.891648
-0.024274
-0.479226
-0.546014
-0.258756
-0.177539
-0.665528
-0.761452
-0.058134
0.157036
-0.170287
-0.342637
-0.276087
0.195622
0.229795
-0.006239
0.114456
0.306436
0.403472
0.367295
0.495425
0.562072
0.365406
0.125933
0.179529
0.155281
0.015952
-0.397340
0.031224
0.728029
0.226683
0.277542
-0.031371
0.090124
-0.012919
0.020829
-0.001917
0.122932
0.168907
0.216617
0.186261
0.110864
0.247508
0.117267
0.034012
0.121961
0.141348
0.004407
0.099637
-0.033757
0.058867
-0.006296
0.024374
0.096788
0.113348
0.114609
0.049077
-0.028219
-0.005148
-0.054632
-0.059863
-0.093150
-0.034910
-0.102572
-0.023718
-0.157863
-0.021723
-0.138450
-0.133619
-0.141308
-0.068351
-0.027215
-0.018063
0.030648
0.180757
0.127091
0.141499
0.063743
0.103678
0.233851
0.114563
0.089295
-0.084851
-0.270498
-0.529921
-0.551835
-0.592351
-0.197677
-0.092705
-0.262368
0.521665
-0.657913
-0.298013
-0.239723
-0.231604
-0.078967
0.033378
-0.053211
-0.001643
0.075486
0.077330
0.048312
0.044200
-0.178391
-0.074898
-0.096693
0.045078
0.067153
0.088118
-0.008689
-0.023629
-0.068668
-0.021829
0.038488
0.170029
0.155443
0.256361
0.083077
0.028303
0.060791
0.164668
0.088062
0.147869
0.108176
0.044352
0.042086
-0.058376
-0.219929
-0.174294
-0.326148
-0.289205
-0.098632
-0.140621
-0.104209
-0.098200
-0.009259
0.085571
-0.010566
0.182355
0.217129
0.108853
0.117626
0.098456
-0.080538
0.044739
0.048254
0.173791
-0.108556
0.067322
0.446310
0.189316
-0.040725
0.096275
0.079737
-0.002318
-0.046746
-0.008655
0.128923
-0.000820
0.123717
0.085101
0.069892
0.072141
0.020135
-0.000384
0.060241
0.126938
0.153984
0.054233
-0.007540
-0.205986
-0.287291
-0.272517
-0.310795
-0.208525
-0.074130
-0.042697
0.099903
0.033484
0.080181
0.059565
-0.026504
-0.063609
-0.124810
-0.161236
0.027028
-0.139307
-0.120731
0.036245
0.049740
0.107928
0.063437
0.091258
0.130528
0.120177
0.105346
0.102061
0.145540
-0.084897
0.021975
-0.162565
-0.143322
-0.155335
-0.051492
-0.036789
-0.097327
-0.047376
-0.030419
0.005608
-0.201607
-0.137065
0.447344
0.019819
-0.053254
-0.041112
-0.060833
-0.237507
-0.222959
-0.242660
-0.280221
-0.070532
-0.196996
-0.223557
-0.166930
-0.159142
-0.128070
-0.020412
0.200190
0.009237
0.000282
0.023540
0.042739
0.011991
0.039554
0.080844
0.075276
0.077809
0.196624
0.276788
0.144245
0.290531
0.200407
0.291482
0.166755
0.134591
0.185447
0.168312
0.064738
0.020569
-0.067976
0.052785
0.080187
-0.008372
0.022053
0.026825
-0.049388
-0.145613
0.023168
0.019243
-0.014059
-0.204619
-0.425652
-0.238105
-0.081376
0.061496
-0.218895
-0.230525
-0.095659
-0.091683
-0.171621
0.580632
0.380045
0.020224
-0.174016
-0.097558
-0.074101
-0.142053
-0.127255
-0.012843
0.163001
0.102907
0.233146
0.122318
0.031494
-0.067689
-0.058125
0.084408
0.049538
0.148507
0.094922
0.019726
0.019063
0.069003
0.090478
0.227992
0.125169
0.014378
0.104628
0.027867
0.179472
0.094894
-0.034904
0.068931
-0.090906
-0.046775
-0.084880
0.013929
-0.047824
0.185891
0.143081
-0.063019
-0.127721
-0.163186
-0.337704
-0.284465
-0.358589
-0.154979
0.037605
0.280291
0.321395
0.242467
0.161778
-0.044815
-0.124013
-0.026200
0.081836
0.024069
-0.178807
-0.226454
-0.363062
-0.562666
-0.105918
0.005409
-0.051159
0.020093
0.067007
0.019453
0.075724
-0.084016
0.003850
0.043262
0.018155
0.091877
-0.018220
0.032374
0.026948
0.126602
0.077209
0.153153
0.151720
-0.026268
-0.003950
-0.022102
-0.036513
-0.032364
0.191873
0.074506
0.111024
0.045877
-0.088941
-0.153323
-0.261709
-0.257929
-0.180137
-0.102762
-0.009450
0.279402
0.393474
0.275239
0.333856
-0.003121
-0.110418
-0.213912
0.020663
0.057080
0.135872
0.058508
0.149392
0.178423
0.016024
0.006902
0.106491
0.057747
0.067958
0.006237
0.165522
-0.100471
-0.304204
-0.285044
-0.108325
-0.334425
0.096716
0.195057
0.169481
0.080959
0.093053
0.121826
0.098954
0.100352
-0.021821
0.027542
-0.066233
-0.171262
-0.114179
-0.179537
-0.132907
-0.194250
-0.071373
-0.032791
0.013472
-0.004287
0.020015
0.090126
-0.032571
-0.079890
-0.173649
-0.115405
-0.164329
-0.066705
0.067695
0.096169
0.199516
0.086141
0.207445
0.283840
0.233726
0.351045
0.190070
0.115308
0.116946
-0.067892
-0.058201
-0.147727
-0.127250
-0.112864
-0.184642
-0.027690
-0.165896
-0.066255
-0.116406
-0.180773
-0.227510
-0.079307
0.032546
0.020198
-0.079669
-0.143384
0.061364
0.266733
0.158919
0.179006
-0.274296
-0.057173
-0.044625
-0.064499
-0.024337
0.042318
-0.065327
-0.142959
-0.078035
-0.071005
0.004057
0.031902
0.074094
0.018027
-0.030050
0.037102
0.074953
0.079591
-0.140125
-0.042900
-0.026183
-0.052008
-0.024690
0.177944
0.115614
0.081423
0.065752
-0.115172
0.004559
-0.113247
-0.008405
-0.018671
-0.064415
0.027833
0.070743
0.226808
0.291079
0.375293
0.375507
0.371552
0.317931
0.331448
0.142673
0.030215
0.023689
-0.061086
-0.103620
-0.044728
-0.197276
-0.345378
-0.486760
-0.465208
-0.298432
-0.141204
-0.127618
-0.018084
0.133376
0.127019
-0.248134
0.372417
1.402890
-0.360577
0.020788
0.506037
0.277098
0.105600
0.097947
0.241100
0.270010
0.123534
-0.004972
0.198789
0.158642
0.012777
0.013142
-0.082514
-0.055601
-0.023182
-0.069105
-0.046540
0.041064
-0.009694
-0.023686
-0.003599
-0.076563
-0.186719
-0.055030
0.009108
-0.032859
-0.106895
0.007478
-0.077027
0.141931
0.005840
-0.231765
-0.067019
0.046312
-0.192067
-0.220818
-0.070419
-0.298785
-0.459881
-0.096920
0.286237
-0.249370
-0.610447
-0.355419
0.130544
-0.046229
-0.687429
-0.559954
0.054700
0.252195
0.150828
0.161679
-0.033614
-0.106881
0.110305
0.148541
-0.022439
-0.324149
0.014605
0.045786
0.111916
0.201060
0.243817
0.336426
0.283577
0.224107
0.126685
0.015187
0.092948
-0.187172
-0.241056
-0.179257
-0.169333
-0.189694
-0.112794
-0.188070
-0.127898
-0.012010
-0.087704
-0.006287
0.020706
-0.049107
-0.011638
-0.114890
0.039974
-0.064017
-0.136450
-0.076832
-0.186573
-0.135040
-0.151751
-0.049967
-0.081023
0.069081
0.114137
0.028907
-0.043313
-0.169247
-0.245376
-0.156805
-0.089083
0.044243
0.102263
0.227546
0.085303
0.117145
0.099078
0.107926
-0.070581
0.028438
0.117237
0.214810
0.187653
0.121249
0.097156
0.020249
-0.253002
-0.228375
0.251428
0.100973
-0.071304
0.088586
0.071804
0.131911
0.075835
0.020582
-0.137961
-0.077547
-0.110061
0.059255
0.042146
0.070379
-0.010574
-0.107818
-0.002197
-0.163322
-0.018025
-0.071324
0.114571
0.012662
-0.064639
-0.139640
-0.073226
-0.113500
0.071183
0.068782
0.006984
-0.000245
-0.114333
-0.198670
0.031269
0.195187
-0.038653
0.038427
0.348393
0.044357
0.028404
0.426922
0.384853
-0.110566
-0.567437
-0.417111
-0.373724
-0.721853
-0.858468
-0.097184
0.800615
1.096242
1.114938
1.140022
0.492891
-0.853060
-1.564312
-1.244749
-0.341729
0.391787
1.471469
0.251235
0.161329
-0.087240
-0.132214
-0.307314
-0.190997
-0.321216
-0.453584
-0.488137
-0.415892
-0.338103
-0.142339
-0.137373
-0.233440
-0.193850
-0.031038
0.098777
0.148330
0.060777
0.197031
0.130528
0.185198
0.072802
0.237612
0.094399
0.052044
0.022882
0.014483
0.088359
0.127536
0.134670
0.120116
0.224865
0.014524
0.080352
0.057599
-0.010204
-0.027265
0.083881
0.186433
0.191430
0.137153
-0.024191
-0.214152
-0.054037
-0.103160
0.008051
0.173044
0.152075
0.151583
0.378103
0.333673
0.358318
0.548880
0.522404
0.079919
-0.186125
0.034501
0.504988
-1.270172
-0.730189
0.420935
0.283573
0.106747
-0.141352
-0.054527
-0.053673
0.263795
0.238795
0.095895
-0.025924
-0.114722
-0.059023
0.085623
-0.067166
-0.082020
0.059896
0.096787
0.074410
-0.019654
-0.199671
-0.110368
-0.111471
-0.014132
0.042744
0.116768
0.099970
0.095451
0.013991
-0.027924
0.070147
0.058723
0.018435
-0.219921
-0.157574
-0.112030
0.045873
-0.031601
-0.102610
-0.127214
-0.013837
0.053317
-0.038580
-0.020542
0.134137
0.116712
-0.320807
-0.697230
-0.494602
-0.277239
-0.005973
0.546049
1.212520
1.926785
1.551118
-0.151017
-1.539080
-0.672468
0.737040
-1.612604
-0.042168
0.060712
0.044229
0.164712
0.112312
-0.047281
0.094867
0.162213
0.065888
-0.114521
-0.221349
-0.305736
-0.192774
-0.256145
-0.247594
-0.403281
-0.546690
-0.657600
-0.281547
-0.129405
0.013210
0.123378
-0.072838
-0.231242
-0.036260
-0.091418
-0.032305
0.182562
0.172477
0.081842
-0.002150
0.085455
-0.058392
0.007995
0.092984
0.258191
0.215306
-0.032150
-0.038438
-0.022253
0.124766
0.146216
-0.011216
0.086441
0.214051
0.078798
0.061602
0.004376
0.091500
0.255634
0.165303
0.064886
0.204541
0.382019
0.379036
0.155808
0.035486
0.643587
0.970266
-1.460825
-0.004156
-0.191130
-0.023406
-0.099467
-0.071364
-0.004003
-0.022072
-0.032855
0.056616
0.007705
0.109299
0.160179
0.181018
0.199505
0.150527
0.083946
0.051414
0.067129
0.009903
-0.085249
-0.055398
-0.004653
-0.016845
0.031720
0.082265
0.107921
0.006319
0.104261
0.039720
0.115136
-0.068911
0.021123
0.010233
-0.112775
-0.034453
-0.032220
-0.117868
0.018613
-0.034756
0.058288
-0.111220
0.000874
0.072622
0.043473
-0.053075
-0.007318
-0.085010
-0.226646
-0.304813
-0.298302
-0.105333
-0.024936
0.108309
0.179294
-0.020935
-0.084471
-0.120753
0.093188
-0.045090
0.309830
1.034906
-0.348742
0.189590
0.586254
0.225972
-0.178104
0.048215
0.197248
0.284387
0.198745
0.214784
0.210949
0.171591
0.102882
0.076364
0.177199
0.119041
0.003307
0.122164
0.254389
0.216161
-0.054856
0.099967
0.087738
0.114159
0.127449
0.078723
0.097809
0.036633
-0.103259
-0.109180
-0.041698
0.017117
0.049789
-0.064372
0.159565
-0.018673
-0.062356
-0.063102
0.175370
0.319430
-0.205985
-0.061209
0.148307
0.095026
-0.007550
-0.048774
-0.084171
-0.229992
-0.113256
-0.149170
-0.173056
-0.082072
0.071157
-0.098772
-0.428676
-0.582055
-0.477441
-0.382726
-1.046723
0.183705
0.179517
-0.103876
0.008502
-0.042123
0.185416
0.055322
0.045476
0.075092
-0.148299
-0.233742
-0.296837
-0.138540
-0.086238
0.028718
-0.009673
0.171385
0.029242
0.116608
0.001754
-0.075974
0.054880
0.017990
-0.052732
0.040263
0.195520
0.295643
0.190056
0.276474
0.272730
0.052697
-0.276545
-0.483755
-0.309264
-0.116753
-0.286405
-0.085248
0.355320
0.592045
0.392799
-0.099335
0.040148
-0.391704
-0.657657
-0.525883
-0.297277
-0.079864
0.071435
0.131881
-0.093887
0.026547
-0.033057
0.088108
0.012935
0.048771
-0.113949
-0.008419
-0.008042
0.218981
0.090959
0.137467
-0.121555
-0.047556
-0.051434
-0.002914
0.044289
0.134891
0.222782
0.303182
0.158512
0.109894
-0.111705
-0.124511
-0.408204
-0.278984
-0.333721
-0.173685
-0.177535
-0.214098
-0.206024
0.053964
0.165838
0.190886
0.084660
-0.003513
0.037428
0.049648
0.020408
-0.071962
0.121990
0.117650
0.121854
-0.034554
-0.171871
-0.182921
0.183542
0.309139
-0.013768
0.035894
0.058302
0.232458
0.167703
0.146782
0.165191
-0.150057
-0.306590
-0.358112
-0.256240
-0.015948
0.126115
0.291770
0.336898
0.392151
0.291631
-0.003488
-0.279292
-0.204310
-0.255042
-0.121065
-0.065127
-0.028878
0.239296
0.010043
-0.226937
-0.142279
-0.106938
-0.177668
-0.183428
-0.145603
-0.013561
-0.067144
0.000662
0.062931
0.077817
0.092085
0.176193
0.103921
0.001116
0.047526
-0.062239
-0.012289
0.108442
0.027898
-0.023417
0.018748
0.042662
-0.077179
0.044705
0.040324
0.144431
0.149648
0.166107
0.231942
0.354005
0.605757
0.428220
0.147915
0.169861
-0.008273
-0.227733
-0.368003
-0.405067
-0.480355
-0.294253
-0.030165
0.055577
-0.149824
-0.137112
0.048824
0.084790
0.050713
0.017397
0.016249
0.101034
0.186991
0.253796
0.055819
-0.007542
-0.003344
0.329309
0.038210
0.010683
0.009550
-0.135325
-0.056460
-0.055716
-0.189749
-0.084264
-0.111419
0.112083
0.186343
0.255183
0.142802
0.170583
-0.024086
0.014499
-0.108731
-0.317737
-0.397595
-0.461820
-0.509943
-0.468039
-0.356765
-0.001536
0.065060
0.155332
0.124158
0.253673
0.190525
0.124204
0.053547
0.098719
-0.031222
0.103212
0.200246
0.102646
0.091896
-0.032310
0.005250
-0.066034
-0.175323
-0.035232
0.145819
0.055328
0.072157
0.154132
0.135017
0.144240
0.178760
0.127314
0.243867
0.295377
0.242089
0.448170
0.472524
-0.080623
-0.345134
0.134026
0.504040
-0.934085
0.254787
0.455372
0.067424
-0.085989
-0.125380
-0.057471
-0.238024
-0.157560
0.003517
0.118664
0.092333
0.083023
0.148815
-0.171337
-0.164213
-0.269358
-0.091041
0.082240
0.017764
0.218523
0.253526
0.208102
0.236260
-0.139764
-0.381531
-0.435906
-0.294000
-0.392801
-0.091060
0.421329
0.346238
0.399569
0.601739
0.776676
0.351934
-0.800606
-1.224284
-0.744569
-0.321082
-0.215907
-0.248639
0.070435
0.442666
0.224499
-0.201420
-0.233723
-0.117635
-0.087341
-0.132670
-0.102529
-0.129712
-0.166087
-0.028912
0.082198
0.265130
0.177499
0.015068
-0.159071
0.146170
0.089710
0.243247
0.056234
-0.008145
0.135369
0.225909
0.064831
-0.141644
-0.043075
0.208410
0.248876
0.153817
-0.064035
-0.097086
-0.244616
-0.168022
0.106228
0.259045
0.182435
0.092602
0.041897
-0.007284
-0.110425
-0.088216
-0.032576
0.180933
0.168323
0.225820
-0.007338
-0.254716
-0.520036
-0.485048
-0.343379
-0.197436
0.052017
0.113495
0.150439
-0.107283
-0.475600
-0.698611
-0.587297
-0.297535
-0.141299
-0.145607
0.075069
0.177751
0.212642
0.120713
-0.061357
-0.105995
-0.010367
0.198406
0.256046
0.328945
0.527100
0.337775
-0.130487
-0.216769
0.202465
0.665012
-1.169358
0.022777
0.207300
0.184634
0.125830
0.104347
0.106301
0.111723
-0.103692
-0.039783
-0.230631
-0.089452
-0.129510
-0.063406
0.002151
-0.243249
-0.262002
-0.305768
-0.351963
-0.333464
-0.169747
-0.165633
-0.098311
-0.035059
0.035395
0.115906
0.132622
0.195559
0.057605
0.002654
0.071383
-0.068918
-0.040962
0.015889
-0.038392
0.027510
-0.110456
-0.040986
0.187289
0.080592
0.084555
0.235013
0.096615
0.248255
0.157067
0.225600
0.214619
-0.003301
-0.270971
-0.278659
-0.287589
-0.310888
0.026575
0.121896
0.028963
-0.209562
-0.257194
0.008963
-0.100637
-0.085050
0.464792
0.001235
0.515587
0.062770
-0.270271
-0.126637
-0.137386
0.017760
-0.129626
-0.026641
0.046557
-0.039303
-0.080905
0.026170
0.171835
0.099797
-0.037318
0.024373
-0.110410
-0.057413
0.070927
0.147569
0.166934
-0.064328
-0.104112
-0.053990
0.183116
0.090196
-0.126024
-0.192586
-0.019861
0.062859
-0.002794
-0.052054
-0.048517
0.345082
0.199608
-0.096510
-0.164635
-0.223608
-0.298885
-0.138793
-0.902611
-0.584011
-0.114131
0.470976
1.138392
1.294359
1.347443
0.536800
-0.584686
-1.050808
-0.393122
-0.181152
-0.491285
-0.695217
-0.538318
-0.383505
-0.799181
-0.561531
2.322706
0.046687
-0.107244
-0.064066
0.057027
-0.062014
0.009937
-0.029603
-0.066587
-0.144051
-0.059899
0.010415
0.021748
0.000171
-0.017835
-0.117447
-0.059718
0.009551
-0.014833
0.163766
0.038843
-0.030957
-0.107568
0.113518
0.049035
0.038802
0.070999
0.003015
-0.055265
-0.014501
-0.011111
0.003489
0.019005
-0.189243
-0.047342
0.044511
0.198517
0.017683
0.075699
-0.011324
-0.109234
0.016080
-0.117224
0.042579
0.003465
-0.315920
-0.093380
0.044388
0.321906
0.157615
-0.488767
-1.073639
-1.079738
-0.448378
0.577419
1.412939
1.282531
0.407317
-0.795546
-1.013371
0.675761
-0.284916
0.303200
0.016376
-0.044109
0.041860
0.118078
-0.064849
-0.103956
0.040296
0.153844
0.204355
-0.038237
-0.111654
-0.015872
-0.101196
0.046388
-0.099345
-0.047508
-0.044727
0.099679
0.052656
0.003359
-0.209507
-0.112955
-0.069233
0.035431
0.076636
-0.011238
0.071864
0.037731
0.042731
0.120997
-0.168832
-0.326549
-0.188528
-0.094783
0.026325
0.235013
0.102319
-0.028344
0.004653
-0.118785
0.064710
-0.080965
-0.330925
-0.600365
-0.591786
-0.495205
-0.475205
-0.789800
-0.931375
-0.680359
-0.048365
0.761373
1.455889
1.528666
1.267609
0.533232
0.102765
-0.123350
-0.057058
0.008529
-0.007449
-0.165231
-0.145548
-0.030509
-0.060305
-0.087629
-0.016984
-0.026901
0.154273
0.028671
-0.119134
-0.108404
-0.038948
0.206399
0.010763
-0.004986
-0.027099
-0.010225
-0.035655
0.109314
0.115822
0.138706
0.102225
-0.036797
0.049826
-0.031917
0.127509
-0.030091
-0.055028
-0.175586
-0.004695
-0.118858
-0.117075
0.135682
-0.022446
-0.130235
0.049229
0.114372
-0.004972
-0.095892
0.000357
0.029919
-0.400462
-0.704952
-0.687940
-0.290053
-0.200291
-0.011043
0.392147
0.660089
0.562686
0.546241
0.296385
0.063314
-0.021201
-0.131678
-0.179345
0.020439
0.044154
0.016500
0.013234
0.066678
-0.031025
-0.044906
-0.025441
0.085591
-0.054387
-0.039171
-0.041801
-0.001275
-0.093496
-0.049628
-0.011837
-0.014677
0.045285
-0.039969
-0.030767
0.015311
-0.100290
0.033938
0.061989
-0.052786
0.083122
-0.010640
-0.084693
0.090104
-0.067091
0.029378
-0.013620
0.006710
-0.049119
0.021038
-0.003263
0.004687
-0.044057
0.054523
0.071159
0.104059
0.039838
0.042454
0.093045
0.096764
0.038947
0.015826
0.077888
0.022217
-0.030613
-0.014873
-0.149357
-0.070886
-0.170419
-0.228437
-0.036808
-0.018907
-0.023474
-0.022198
-0.086429
0.116718
0.830368
-0.233520
-0.144891
0.143845
0.208407
0.202410
0.409777
0.341689
0.005091
-0.062529
-0.119571
0.098592
0.334658
0.251777
0.124231
0.059651
-0.082904
-0.148738
-0.212415
-0.282301
-0.036117
0.036153
0.041166
0.055594
0.050800
-0.103690
-0.163185
-0.091705
-0.045664
-0.064049
0.079886
-0.077467
0.028976
-0.127672
-0.333645
-0.212324
-0.072988
-0.164024
-0.087844
0.098249
0.035171
-0.465019
-0.312691
-0.189786
-0.126237
-0.168036
-0.424826
-0.183603
0.182075
0.506289
0.310640
-0.137943
-0.100871
0.193648
0.573084
0.326090
-0.040199
0.169035
0.331272
-0.947162
-0.001849
-0.125937
-0.019461
-0.104622
-0.001365
0.067798
-0.004036
-0.048147
-0.063079
-0.007825
-0.031130
-0.027431
0.097906
0.060667
-0.063343
0.130021
-0.011620
0.133541
-0.053579
0.014182
0.051158
-0.030786
-0.059334
0.023967
0.082448
-0.077298
-0.102738
-0.122388
-0.096879
0.009824
-0.024102
-0.021145
-0.025188
-0.037871
-0.024624
0.048493
0.031866
0.027860
-0.002503
0.071112
-0.041817
-0.128989
-0.185545
-0.099259
-0.052523
-0.019031
0.018837
0.054773
0.053563
0.097092
0.014714
0.108836
0.016099
0.220980
0.231120
0.054560
-0.008247
-0.025258
-0.061486
-0.171488
0.132652
0.168292
0.215946
0.312220
0.362839
0.442017
0.410583
0.202789
-0.023026
-0.043513
0.011668
-0.037630
0.011907
-0.078551
-0.175999
-0.016901
-0.016847
-0.221384
-0.178656
-0.008379
-0.066288
-0.051733
-0.097015
0.024516
-0.089347
-0.047020
-0.053102
-0.087317
-0.082586
0.032873
-0.097711
-0.121141
-0.090290
-0.041486
0.005764
-0.015704
0.038375
-0.095587
-0.074265
-0.076341
0.127705
-0.074143
-0.036511
0.029269
0.019031
-0.045638
-0.000265
-0.005672
-0.067141
-0.326353
-0.523280
-0.473974
-0.243328
-0.018751
-0.094579
0.143245
0.281502
0.118275
-0.222115
0.354321
-0.439642
-0.040396
-0.138265
-0.125219
-0.161411
-0.312362
-0.122212
-0.122870
-0.060915
0.060747
0.092123
0.255388
0.241010
0.398370
0.328791
0.286008
0.143625
0.079126
0.071956
-0.072661
-0.000728
-0.165316
-0.162886
-0.044046
-0.093476
-0.038832
-0.054307
-0.183975
-0.061050
-0.107912
-0.138678
-0.262444
-0.118059
-0.029460
-0.000890
0.017099
-0.036096
0.033955
-0.074817
-0.103369
0.114406
0.068361
0.149076
0.160700
0.098883
0.155856
0.107774
0.207024
0.265313
0.145253
-0.028528
-0.154631
-0.273615
-0.502743
-0.500995
-0.107106
0.292734
0.303302
0.106623
0.348823
0.211243
-0.110088
-0.029239
0.032758
0.107771
-0.019595
0.067563
-0.062391
0.070957
0.055073
-0.000643
0.068129
0.014676
-0.029248
0.111140
-0.050228
-0.066059
-0.116726
-0.063466
-0.125148
-0.068621
0.048448
0.089514
0.011930
0.157872
0.121704
0.112626
0.087897
0.257252
0.102415
-0.045318
0.043280
-0.089055
0.098189
0.053905
0.115964
-0.029886
0.029684
0.102102
0.095419
0.184257
0.182809
0.123233
0.088236
0.083284
0.053820
0.157494
0.071161
-0.001061
-0.038725
-0.134304
-0.090787
-0.119727
-0.097697
-0.128346
-0.131317
-0.346815
-0.343226
-0.511941
-0.658227
-0.478840
-0.345265
-0.158721
-0.259758
-0.186568
-0.272730
-0.212761
-0.257360
-0.256049
-0.300416
-0.284469
-0.143680
-0.178466
-0.186243
-0.157046
-0.045173
-0.218911
-0.192499
-0.077044
-0.067182
-0.019980
0.068050
0.034536
0.012951
-0.006187
0.034342
0.092308
0.062290
0.116418
0.139011
0.146667
0.125099
0.158448
0.090716
0.195561
0.011863
0.114073
0.257540
0.190565
0.106711
0.189175
0.216349
0.323723
-0.004125
0.040017
0.171135
0.134592
-0.001008
0.133950
0.141615
0.131863
0.048317
-0.104141
0.136867
0.249901
0.243925
0.043244
-0.021946
0.219267
0.437920
0.212698
0.035464
-0.064585
-0.052155
-0.145295
-0.190926
-0.127439
-0.209083
-0.236606
-0.142049
0.082746
-0.000779
0.133955
0.059321
0.086618
-0.008295
0.111450
0.112932
0.057124
0.160543
0.047099
-0.063950
-0.007166
-0.003711
-0.059865
0.053506
-0.007925
0.080471
0.030039
0.135286
0.052348
0.030045
0.080273
-0.132076
-0.038941
-0.046933
0.075506
0.001691
-0.151907
-0.110280
-0.005811
-0.099369
-0.195279
-0.189450
-0.086056
-0.029082
0.079049
-0.044552
-0.012139
0.018072
-0.021847
-0.008915
0.026164
0.316053
0.451453
0.402997
0.230473
0.134993
0.140320
-0.371527
-0.030773
0.383994
-0.067735
-0.070024
-0.039098
0.228274
0.061472
-0.113501
-0.126704
-0.302017
-0.476538
-0.567820
-0.391008
-0.135597
0.099893
0.215922
0.669273
0.897865
1.001881
0.911138
0.346850
-0.140078
-0.418506
-0.616645
-0.446359
-0.183777
-0.092761
0.110330
0.013430
-0.139755
-0.231444
-0.148305
-0.069908
-0.107858
-0.362601
-0.507764
-0.163180
0.491304
0.149976
-0.244899
-0.148012
0.124858
0.085933
-0.252944
-0.340281
-0.290209
-0.074925
-0.006075
0.073597
0.338810
0.250726
0.045505
-0.102812
0.059690
0.104219
0.066860
-0.051532
0.007777
0.325528
0.280807
0.216615
0.182923
-0.054301
0.029292
0.172538
-0.001563
0.016016
0.109715
0.142520
0.063442
0.099437
-0.061525
0.033373
-0.019637
-0.006015
-0.034890
-0.052554
0.107730
0.157949
-0.060780
-0.003545
0.071253
0.085606
0.135296
0.099840
-0.015577
-0.067355
0.062634
0.086366
0.070515
-0.122139
-0.048175
-0.029622
0.058372
0.093659
0.095401
0.097530
-0.018816
-0.127966
0.019325
-0.147937
0.160972
0.047042
0.090103
0.153987
0.109069
-0.217500
-0.328449
-0.091304
0.075761
0.023911
0.194718
0.331504
0.467821
0.580741
0.718798
0.537095
-0.225344
-1.417130
-1.989609
-0.099394
-0.046248
-0.269050
-0.436359
-0.355212
-0.447903
-0.323356
-0.173008
0.041769
0.006267
0.131257
0.192893
0.292272
0.317805
0.416633
0.223334
0.051501
0.043237
-0.187503
-0.103699
-0.099831
-0.124895
0.004847
0.174062
0.178566
0.214780
0.200052
0.017182
-0.147879
-0.218810
-0.429066
-0.464436
-0.320824
-0.138012
0.060161
-0.088487
-0.121326
-0.043018
0.009346
-0.022165
0.039987
0.063641
-0.066560
0.052334
-0.018389
0.187501
0.062888
-0.076027
0.040061
0.090769
0.275483
0.302938
0.174154
0.330709
0.407869
0.243570
0.059885
0.083209
0.357435
-0.571191
-0.577304
-0.042180
0.335127
0.239677
-0.157347
-0.266309
-0.234133
-0.149037
0.227375
0.296894
0.018397
-0.302446
-0.189447
0.089282
0.194299
-0.077925
-0.217035
-0.193963
0.252019
0.256197
0.115478
-0.202008
-0.386109
-0.077889
0.178822
0.155791
-0.020702
-0.159921
-0.030338
0.053159
0.009735
-0.277189
0.185200
0.203067
-0.315831
0.015662
0.088728
-0.353219
-0.135859
0.214205
0.207110
-0.140215
-0.362384
0.113019
0.456824
0.170052
0.006162
-0.201261
-0.618111
-0.966893
-0.212361
1.490804
2.456741
0.990425
-1.481599
-2.021552
0.110908
1.554292
0.441635
-0.074462
0.113319
0.073611
-0.097960
-0.045759
-0.194721
-0.190044
-0.230103
-0.012662
0.280948
0.307444
0.251004
-0.021989
-0.192993
-0.440721
-0.598224
-0.402647
-0.207094
0.143155
0.231602
0.305472
0.070194
0.013097
-0.032379
0.081868
0.046573
-0.092016
-0.022753
-0.028006
-0.007872
0.006889
0.163567
0.020919
0.058697
-0.077425
-0.039591
-0.131439
0.007570
0.136981
0.312213
0.237304
0.103872
0.115042
-0.118081
-0.029492
-0.143920
0.088637
0.034202
0.117375
0.053804
0.247930
0.115109
0.031489
0.008342
0.046666
0.121978
0.051256
-0.106415
-0.158856
-0.237508
-0.241042
-0.304579
0.282883
0.209478
0.156029
0.363443
0.471302
0.358299
0.038384
-0.146323
-0.095203
-0.053137
0.148512
0.292761
0.227146
0.145679
-0.063183
-0.149568
-0.190204
-0.493839
-0.575754
-0.234871
-0.013041
0.200141
0.312358
0.242095
0.132482
-0.057521
-0.183328
-0.090339
0.296573
-0.175237
-0.443285
-0.586253
-0.535058
-0.472941
-0.753534
-0.614731
0.042417
0.049107
-0.289073
-0.428255
-0.146339
0.066456
-0.087429
-0.155180
0.082853
-0.056483
0.073667
0.118112
0.336206
0.277799
0.219374
0.354938
0.375916
0.435933
0.101013
-0.154010
-0.135552
0.268657
0.409684
-0.451668
-0.201343
-0.234545
-0.156136
-0.000739
0.015827
-0.093370
-0.064630
-0.071338
-0.003510
0.104066
-0.038401
0.042429
-0.143208
0.015762
0.053929
0.024328
0.065279
0.140143
0.323072
0.437121
0.456015
0.290283
0.232643
0.100172
-0.070307
-0.093924
-0.236101
-0.128913
-0.115484
-0.113011
0.081978
-0.014050
0.082027
0.014611
-0.053137
-0.194073
-0.256927
-0.130831
-0.069659
0.062607
0.022078
-0.021153
-0.041334
-0.109441
-0.166999
-0.105512
-0.077805
0.046594
0.104167
0.306246
0.141574
0.102466
0.173984
0.033546
0.113215
0.054973
0.084364
0.270465
-0.184102
0.151137
-0.018990
-0.064784
-0.019995
0.018038
0.111182
0.164668
0.062903
-0.008933
-0.084310
0.053115
0.008854
-0.047024
0.033204
-0.015506
0.128879
0.039863
0.096352
0.003816
-0.109574
0.012991
0.013947
-0.080790
0.113035
-0.040394
-0.092268
0.042787
0.068259
0.090207
-0.033910
-0.011835
0.167369
-0.035196
-0.178320
-0.342639
0.190660
0.214156
-0.368236
0.019613
0.111780
-0.181232
0.009645
0.116965
0.178564
-0.491495
-0.590402
0.141576
0.577319
-0.008537
-0.669140
-0.336753
0.107150
0.028629
-0.352262
-0.495625
-0.176777
0.194592
-0.026474
0.010326
1.571184
0.095608
0.013936
-0.096978
-0.094634
-0.198407
0.025417
0.080390
0.102771
-0.124388
-0.266246
-0.179540
-0.235343
-0.076764
0.070053
-0.000092
0.127299
0.100833
-0.063648
-0.328885
-0.223791
-0.041285
0.119504
0.247846
0.279728
-0.031430
-0.096309
0.048906
0.204541
0.102472
-0.066663
-0.233250
-0.303975
-0.385010
-0.085578
-0.334640
0.048413
0.073974
-0.185192
-0.159447
0.219657
0.110530
-0.049527
-0.132212
-0.219260
-0.498288
-0.551558
-0.247982
0.190454
0.522434
0.759835
0.638227
0.462935
0.009362
-0.256653
-0.388281
-0.002537
0.362051
0.264376
-0.148981
0.851564
-0.001580
0.037998
0.012078
-0.072747
0.083642
0.024387
0.053352
0.129596
0.014962
0.006904
-0.088023
-0.072728
-0.007392
-0.141759
-0.033105
-0.066024
-0.070655
-0.014591
-0.044563
-0.034320
0.025125
0.103886
0.125262
0.020460
0.120905
0.120234
0.003606
-0.022778
-0.047374
-0.009807
-0.103202
-0.060730
0.018938
-0.000394
0.004363
-0.129062
-0.245089
-0.386332
-0.276907
-0.154865
-0.023768
0.213360
0.251776
0.292637
0.262788
0.137226
-0.004996
-0.085802
0.056825
0.090677
0.148297
0.006408
0.119920
0.070695
0.122801
0.094869
0.135968
-0.015330
-0.084936
-0.154868
0.047341
-0.624998
-0.361155
0.148996
0.482779
0.339206
-0.215648
-0.365472
-0.284712
-0.075992
0.162122
0.301783
0.148815
-0.038239
-0.152397
0.041489
-0.026313
-0.131201
-0.396209
-0.152290
0.361720
0.470050
0.210910
-0.357727
-0.414287
-0.300058
0.065350
0.200578
-0.074479
0.014541
0.163919
-0.368076
-0.208903
0.472671
-0.009669
-0.287798
-0.141017
0.076623
-0.128040
-0.073463
0.299827
0.492564
-0.478643
-0.359355
0.266373
0.499102
-0.035426
-0.191516
0.410461
0.703013
-0.614775
-1.410474
-0.286900
1.547235
1.734123
0.797500
-0.328464
-1.137513
-1.076385
1.206755
-0.268767
0.177892
0.057686
0.015652
0.067561
0.135172
0.140817
0.131018
0.124102
-0.012467
0.112623
0.041863
0.285784
0.166549
0.068942
-0.005999
0.036333
-0.022337
-0.031457
0.077216
0.207136
0.075401
0.102786
0.066613
-0.169494
-0.292838
-0.460919
-0.388046
-0.341485
-0.378001
-0.179022
-0.032840
-0.058150
0.074824
0.094129
-0.064575
-0.168315
-0.076321
0.117637
0.131746
0.039290
0.219654
-0.035487
-0.018829
0.020954
0.098726
0.142941
0.130861
0.115650
0.182119
0.181814
0.276779
0.237727
0.468554
0.474555
0.020966
-0.529163
-0.211579
0.250089
-1.386344
-0.015254
0.052998
-0.009762
0.188692
0.094700
0.182013
0.190441
0.172826
0.187107
-0.043480
0.059107
-0.164081
-0.111481
-0.142627
-0.040094
-0.077551
-0.068276
-0.015908
-0.142741
-0.129177
-0.113287
-0.169672
-0.128604
-0.235086
-0.069464
-0.113524
-0.062215
-0.043040
0.023198
-0.063992
-0.036738
-0.062358
-0.045150
0.024882
0.183054
0.220463
0.062130
0.113561
0.071910
0.008654
0.030581
0.074512
0.070003
0.069077
0.032438
0.192700
0.120134
0.108615
0.135521
-0.012816
-0.104101
-0.171399
-0.276904
-0.231753
-0.247095
-0.040045
0.188408
0.051200
-0.099076
0.172131
-0.228869
0.122197
0.074382
-0.099076
-0.168320
-0.046993
0.262388
0.036389
-0.021333
-0.127265
-0.061280
0.064212
0.029089
-0.008953
-0.161178
-0.184852
0.130806
0.184255
0.054708
-0.246571
-0.059372
0.053835
0.119657
0.013245
-0.037421
-0.116491
-0.000748
-0.024750
0.022751
-0.123413
-0.092540
-0.023455
0.203045
-0.066690
-0.054559
-0.030804
-0.172586
0.015625
0.058563
0.067289
-0.035156
-0.383868
0.025538
0.334511
0.109415
-0.359721
-0.685329
-0.438001
0.568850
1.367052
1.812508
1.004100
-1.224046
-3.076943
-2.298257
1.024147
3.368521
1.696182
-1.955478
-0.642462
0.013955
0.093597
0.073091
0.061531
0.077969
0.098621
0.065904
0.002073
-0.030809
0.016877
0.004464
0.081308
0.037116
-0.052617
0.007375
-0.150165
0.013658
-0.061345
-0.003681
0.104435
0.120857
-0.141539
-0.186599
-0.384545
-0.395465
-0.398884
-0.256316
0.005808
0.041195
0.157183
0.084787
0.241284
0.163370
0.016185
-0.078333
-0.031256
-0.067840
-0.106163
-0.022743
-0.045803
-0.105044
-0.163105
-0.021895
0.022486
0.164116
0.151337
0.066836
0.005060
0.030180
0.120032
0.073048
0.157142
0.097551
0.200651
0.118749
0.044349
-0.186988
-0.240953
-0.059077
-0.606382
0.046766
-0.091376
-0.016652
0.057374
0.126112
-0.001762
0.014692
0.007777
0.013270
-0.047225
0.050758
0.010166
-0.046831
0.031748
0.081179
0.038663
-0.028876
-0.027170
0.001450
0.027389
-0.059757
0.083833
-0.061739
0.099337
0.065684
-0.036689
0.074979
0.095873
0.056134
0.015356
-0.044771
0.012310
0.050884
0.029590
-0.067532
0.052830
-0.059680
0.011251
-0.051187
0.089609
0.012563
-0.056755
-0.054236
0.057313
-0.040714
0.020615
-0.085462
0.059247
0.030315
-0.045864
-0.000862
-0.094437
-0.008876
0.017769
-0.016774
-0.105417
-0.043045
-0.139128
-0.046143
0.123652
-0.227652
0.099601
-0.027697
-0.114761
-0.000499
-0.013775
0.104761
0.162081
0.304056
0.405507
0.369186
0.257620
0.090856
-0.179430
-0.206712
-0.417728
-0.280786
-0.245508
-0.040054
0.202121
0.245889
0.326077
0.134589
-0.145821
-0.238737
-0.386716
-0.350858
-0.252718
-0.071134
0.057299
0.018884
0.013320
0.094269
0.005331
-0.051636
-0.092194
-0.055397
0.114448
0.156320
0.143930
0.023251
0.135578
0.193222
0.123465
0.066477
-0.000877
-0.281956
-0.507476
-0.291497
-0.215624
-0.115910
0.230462
0.115011
0.117642
0.052713
0.073684
0.034246
-0.000804
0.122902
0.105569
0.085156
-0.049352
-0.125610
-0.175486
-0.061891
-0.116030
0.054247
0.076133
0.046281
-0.072639
0.038353
0.179566
0.210979
0.233644
0.072249
-0.156596
-0.039947
0.039436
0.027189
0.136681
0.085896
-0.021488
-0.152454
-0.209288
-0.355656
-0.328331
-0.350300
-0.164683
-0.154012
-0.117633
-0.181088
0.020876
0.043983
0.047405
0.109894
0.086910
0.013844
0.089310
0.160979
0.228424
0.211138
0.144414
-0.254090
-0.213868
-0.139852
0.090347
0.077704
0.053584
0.084984
0.203308
0.121345
0.200069
0.198699
0.551728
0.604351
0.356712
0.029641
-0.005172
0.172025
-0.836866
-0.363049
-0.122621
-0.050416
-0.038647
-0.090756
-0.187991
0.054011
-0.012862
-0.047063
-0.072885
-0.132189
-0.067665
-0.167385
-0.199647
-0.236428
-0.109724
-0.149336
-0.197667
-0.105353
-0.109759
-0.072253
-0.227144
-0.131750
0.065847
-0.108432
-0.158925
-0.066158
-0.125192
-0.180138
0.107616
-0.187773
-0.155022
0.019959
0.091090
0.221181
-0.187481
-0.078823
0.333838
0.279873
0.126849
-0.030893
0.022660
0.392374
0.188782
-0.027574
0.050767
0.127869
0.091796
0.093283
0.223093
0.206977
0.135971
-0.025010
0.137839
0.289178
0.202136
-0.033458
-0.113451
0.092181
0.253883
-0.017709
0.612042
0.070197
-0.094521
0.097259
0.168262
0.088444
0.137034
-0.001710
0.010677
-0.003599
0.058318
0.151071
0.095712
0.054737
0.079229
0.033723
0.072818
0.112781
0.090485
0.171818
-0.011664
0.025082
0.113835
0.093985
0.083261
0.027381
-0.006377
0.022477
-0.023726
-0.121766
0.013712
-0.047049
0.047016
0.239313
0.064185
0.142261
0.184118
0.096501
0.040099
-0.317781
-0.036704
0.139266
-0.056462
-0.245164
-0.309262
-0.096620
0.137338
0.414758
1.034923
1.342598
1.295356
0.713185
-0.085246
-0.511728
-0.768058
-1.109898
-1.231470
-1.153916
-0.941602
-0.078412
-0.235787
-0.125365
-0.147837
0.015111
0.087073
0.188533
0.033870
0.140890
0.122205
0.096948
0.188877
0.323993
0.190643
0.318863
0.309049
0.256244
0.174524
0.166971
0.097185
-0.005507
-0.033736
-0.149550
0.004346
-0.172448
-0.126240
-0.052233
-0.097367
-0.113608
-0.101584
-0.198129
-0.092767
-0.040703
-0.090160
0.108345
0.062380
0.001351
0.077334
0.064435
0.077699
0.093825
-0.051851
0.151308
0.063992
0.112668
0.054979
0.040130
-0.017144
-0.075257
-0.425082
-0.395212
-0.415620
0.019845
-0.023360
-0.271112
-0.198937
-0.001980
0.220828
-0.051073
0.437981
0.024366
0.286760
-0.172923
-0.206141
0.006664
0.106910
0.198706
0.182434
0.202381
0.138642
-0.069633
-0.217226
-0.066249
-0.157084
-0.082738
-0.308686
-0.185424
-0.094084
-0.011765
0.128319
0.030732
0.043565
0.035889
0.021700
0.127670
0.183644
0.373561
0.508619
0.597159
0.399053
0.119472
-0.004151
-0.326556
-0.333687
-0.184725
-0.121992
-0.166480
0.048593
-0.136014
-0.004803
0.222275
0.421976
0.139041
-0.175819
-0.127269
-0.129726
-0.591722
-0.626685
-0.344624
-0.120105
0.064443
0.109495
0.094422
0.051481
0.025059
-0.022870
-0.114218
0.094321
0.101401
0.170077
-0.050887
0.009939
0.101152
0.238986
0.101718
0.133104
0.048045
0.064318
0.082014
0.130249
-0.005974
-0.059097
0.060426
0.218066
0.161984
-0.067063
-0.265223
-0.090866
-0.004089
0.180416
0.327620
0.356312
0.106109
0.027020
-0.141788
-0.197613
-0.168334
-0.019725
0.253272
0.238329
0.233400
-0.052391
-0.298468
-0.448294
-0.668952
-0.574365
-0.420488
-0.196512
0.270721
0.280863
0.091926
-0.224711
-0.281607
-0.144453
0.088265
0.119294
0.124736
0.057750
-0.027771
0.115257
0.324970
0.322644
0.304175
0.212965
0.189788
-0.211375
-0.262018
0.339719
0.705709
-1.441990
0.087809
0.420587
0.067916
0.042797
0.153143
0.133416
-0.155441
-0.187896
-0.212991
-0.115024
0.002593
0.006633
0.196230
0.077500
0.088505
-0.066763
-0.059113
0.016896
0.017343
-0.087743
0.024481
0.212012
0.259468
0.488176
0.530924
0.597579
0.215076
-0.189728
-0.494901
-0.960497
-0.959076
-0.544289
0.111354
0.341864
0.609404
0.379709
0.283095
0.431937
0.021996
-0.169818
-0.111131
0.095644
-0.182971
-0.668529
-0.553342
-0.345953
-0.364410
-0.235056
0.082623
0.049399
-0.061378
-0.262043
-0.071485
0.200341
0.228739
0.167756
0.028135
-0.031486
0.273741
0.159646
-0.375367
0.417011
0.203953
-0.417916
-0.455582
0.352357
0.314301
-0.200347
-0.563135
0.120791
0.430106
0.063475
-0.430216
-0.276849
0.107108
0.222948
0.095957
-0.002871
-0.159694
-0.156180
0.043428
0.178885
-0.071242
-0.061189
0.094200
-0.162894
-0.377720
0.135509
1.281140
-1.121850
-0.991000
1.183022
0.428905
-0.722356
-0.350542
0.460550
0.989759
-1.948088
-0.409367
3.117122
-0.812013
-2.026818
-0.187840
2.063504
1.039552
-1.606169
-1.546797
1.037620
1.917402
-0.151240
-1.706006
-0.129689
1.650006
0.413075
-1.168809
-0.376482
1.304060
0.181769
-1.728774
1.055760
-0.124018
0.084963
0.036303
-0.162951
-0.153592
-0.044853
-0.065657
-0.060692
0.013446
0.057331
0.106021
0.079465
0.104475
0.082580
-0.001775
-0.197010
-0.080366
0.045627
-0.003473
0.072979
-0.102655
0.028338
0.037638
-0.124418
0.020756
-0.023513
-0.052223
-0.031546
0.001569
-0.108406
-0.008270
0.006625
-0.050002
-0.080313
0.028404
0.072768
-0.015177
-0.013632
0.081758
0.087317
0.259423
0.046639
0.092940
0.199043
0.236247
0.205741
0.445820
0.445028
0.447279
0.286061
0.011238
-0.205825
-0.619184
-0.821815
-0.648448
0.272522
0.788510
0.477220
-0.383999
-0.178535
0.003968
-0.167438
-0.076096
0.097337
0.167988
-0.032351
-0.362299
-0.282223
0.302618
0.356400
-0.232128
-0.420563
0.015190
0.247869
0.214241
-0.053503
-0.191868
-0.257030
-0.079935
0.284191
0.122211
-0.156572
-0.031367
-0.147025
-0.180174
0.125467
0.297736
0.100493
-0.740719
-0.154311
0.464106
0.644828
-0.906393
-1.245260
1.913284
0.168252
-2.370097
0.828204
2.853154
-1.777365
-2.665856
2.251325
1.669551
-0.386273
-2.247622
-0.215334
2.280752
0.794628
-1.612922
-1.014884
1.040638
1.111587
-0.504176
-0.875474
0.225524
0.842979
0.476168
-0.691846
-1.339320
1.516974
-0.064001
-0.047387
-0.036893
-0.063511
0.087012
-0.015602
-0.080455
-0.035932
0.037993
0.102077
-0.007919
0.106221
0.057378
0.074050
-0.072736
-0.032929
-0.083953
0.031544
0.027752
0.053119
-0.060770
-0.029172
-0.024911
-0.069798
0.036744
0.027376
0.016594
0.036845
-0.038930
-0.023192
0.099266
-0.089537
-0.003625
-0.061258
-0.053141
0.043083
-0.056840
-0.039024
0.023331
0.012574
-0.023155
0.061582
0.138930
-0.018515
0.090902
0.080682
-0.041380
-0.018619
-0.084255
-0.039437
0.067020
0.003135
-0.051012
-0.121967
-0.122387
-0.075477
0.006084
0.000543
0.031783
-0.049681
-0.047716
0.012206
-0.022552
-0.145908
-0.140043
-0.069843
-0.008495
0.016790
0.009094
0.137342
0.092714
0.015815
0.062703
-0.060507
0.078960
-0.009841
0.016472
0.038283
0.003688
0.089112
-0.039606
-0.037485
0.053360
0.020567
-0.079871
0.033834
-0.055887
0.121012
0.107743
0.037073
-0.031915
-0.041215
-0.053328
-0.063060
-0.025085
-0.064989
0.087113
0.004822
0.032957
0.019769
-0.036858
-0.022227
0.014145
-0.053043
0.042147
0.088412
-0.064895
0.053852
-0.006890
0.022158
0.004139
0.028971
0.058718
-0.078349
0.030072
0.074819
-0.000452
-0.051298
-0.151497
-0.293096
-0.227773
0.045838
0.487340
0.128114
-0.489612
-0.559965
0.204108
0.665175
0.115308
-0.593622
-0.427346
0.230124
0.397393
0.015844
-0.408338
-0.331834
0.013845
0.346984
0.192334
0.029002
-0.255242
-0.200369
-0.082701
0.094224
0.563676
-0.071448
-0.356445
-0.390681
0.254511
0.681367
0.601906
-1.534370
-0.353279
1.610493
-0.085941
-1.627621
1.098561
0.917604
-0.307076
-2.601082
2.186886
1.394112
-1.185322
-1.813520
0.824141
2.370450
-0.088208
-2.249114
-0.489192
2.129832
0.884308
-1.386825
-0.768346
0.950873
0.803592
-0.414562
-0.350500
0.164420
-0.417555
0.407231
-0.483414
0.402754
0.379268
0.187174
0.156024
0.161121
0.116609
0.042420
0.104388
0.051417
0.006485
-0.139988
-0.103534
-0.101794
0.033684
0.020984
0.100114
0.037135
-0.032703
-0.219515
-0.407729
-0.472021
-0.521143
-0.343473
-0.326525
-0.292582
-0.139462
-0.065007
-0.102697
0.061619
0.010978
0.077310
-0.023910
-0.083027
0.221348
0.099214
0.101293
0.049759
0.001597
-0.141889
-0.033253
-0.167799
-0.180168
-0.100923
-0.086736
-0.005438
0.076690
-0.037842
0.079563
0.276697
0.307819
0.146838
-0.041632
0.129802
0.227990
0.118067
-0.298012
0.183588
0.836621
-0.277193
0.953068
-0.482530
0.015083
0.154122
-0.035657
-0.252575
0.026082
0.033012
0.025005
0.029657
0.209705
-0.005104
-0.050930
0.000401
0.127514
0.304323
0.299462
0.490014
0.393461
0.318071
0.142982
0.229402
0.190568
0.096312
0.115513
-0.046978
0.002627
-0.022023
0.007438
0.081559
0.002757
0.113062
0.116076
0.135613
-0.057195
0.070728
-0.056835
-0.121794
-0.206525
-0.051513
0.063550
-0.335982
-0.007822
0.076888
-0.170710
-0.700377
-0.611533
-0.484720
-0.376725
-0.137878
0.003438
0.095498
0.344848
0.176469
-0.280374
-0.622158
-0.548589
-0.261522
0.084750
0.313431
-0.051885
-0.183846
-0.202594
-0.089590
-0.072804
-0.140398
-0.119384
-0.088535
0.012777
-0.000880
-0.024035
-0.011741
-0.040632
0.007929
-0.034178
0.040418
-0.036393
-0.176180
-0.067868
-0.017734
0.075973
0.047285
0.057707
0.156952
0.160451
0.169174
0.170092
0.041223
0.149949
-0.057274
-0.032289
-0.031506
-0.096652
0.037397
-0.004132
-0.024009
0.033899
-0.082106
0.071067
0.066328
-0.045357
0.062032
-0.077404
-0.114547
-0.036405
-0.184728
-0.151879
-0.084689
-0.176665
-0.090281
0.051546
0.010350
0.016333
-0.084600
-0.131708
-0.101879
0.131067
0.279909
0.258731
0.160880
0.141822
0.354166
-0.043721
-0.004027
0.007863
-0.006456
-0.010087
-0.206679
-0.076293
-0.083462
0.082359
0.045159
0.179874
0.297228
0.237241
0.202725
0.081313
0.023515
-0.192526
-0.209457
-0.277649
-0.096695
-0.210173
-0.149646
-0.181718
-0.007657
-0.030152
-0.007778
0.297754
0.261048
0.158988
0.100523
0.244126
0.162417
-0.110963
-0.462776
-0.282803
0.118465
-0.066519
-0.262326
-0.169940
-0.039513
0.300273
0.051524
0.143237
0.185715
-0.018622
-0.412365
-0.527760
-0.509901
-0.314326
0.068263
0.131017
0.285661
0.031378
0.030533
0.151217
-0.069952
-0.081902
0.530353
-0.038660
0.203859
0.036328
0.015182
0.050292
0.074596
0.027984
0.074538
-0.056439
0.096525
-0.031948
0.048848
-0.040331
0.001594
-0.036449
-0.088021
0.105938
-0.014479
-0.002155
-0.032461
0.008059
-0.002705
0.034580
-0.008221
0.070264
0.110436
-0.022013
0.157928
0.074786
0.117402
0.061877
-0.073847
-0.078686
0.002647
-0.001041
-0.101333
-0.050776
-0.026310
-0.002402
0.161863
-0.011748
0.189235
0.237503
0.224349
0.114394
0.166388
0.141599
-0.049863
-0.004810
0.224702
0.457817
0.725842
0.614176
0.221205
-0.503939
-0.761776
-0.732582
-0.178239
0.203793
-0.811725
-0.371583
-0.152535
-0.163484
-0.214441
-0.130316
-0.207284
-0.106941
-0.130075
-0.075823
-0.120382
-0.087184
0.013769
0.007003
0.072339
0.090236
0.117735
0.272912
0.265755
0.305912
0.073180
0.068902
-0.039799
-0.120584
-0.015342
0.034670
-0.162927
-0.135845
-0.040006
0.130614
0.073490
0.083126
0.051412
0.064636
-0.002011
0.167046
0.038834
0.097475
0.294186
0.177312
0.203883
0.228968
0.231952
0.337321
0.245122
0.206863
0.181542
-0.122646
-0.295567
-0.488886
-0.380605
-0.225534
-0.086213
0.087120
0.129354
-0.078762
-0.016146
0.061015
0.076771
-0.177555
-0.011362
-0.268712
0.056731
0.241268
0.180719
0.038254
0.025847
-0.075308
-0.046285
-0.067943
-0.190378
0.005687
0.076165
-0.012346
-0.034915
-0.002911
-0.171934
-0.156518
0.073714
0.125675
-0.030214
-0.235826
-0.244656
-0.273684
0.006357
0.305527
0.163033
0.155925
0.107358
0.003437
-0.047148
-0.182373
-0.012207
0.117329
-0.234227
-0.669867
-0.039661
0.148212
-0.302438
0.238595
0.577255
0.284548
-0.251067
0.055087
0.423772
-0.036696
-0.643434
-0.218694
0.434248
0.328927
-0.359292
-0.274410
0.339068
0.533498
0.426393
0.093094
0.100685
-0.027311
-0.262761
-0.287532
0.433119
0.023909
0.079867
0.050952
0.035551
-0.053163
0.020250
0.044162
-0.026737
-0.124682
-0.025631
-0.109068
-0.049514
0.069092
0.116029
-0.033336
0.001716
-0.004405
-0.068959
0.087396
0.036000
0.055464
-0.065970
0.040301
-0.019809
-0.041346
0.123267
0.112094
-0.017905
0.010513
-0.080316
-0.048219
-0.034331
-0.027462
-0.046400
0.048258
-0.086960
-0.071459
0.014124
-0.083727
-0.045094
-0.089574
0.077703
0.065094
-0.059220
0.062915
-0.044922
0.088769
0.069613
-0.045829
0.030854
0.049644
0.058725
0.007928
0.119262
0.107451
0.030477
-0.011638
-0.018908
0.066256
-0.138254
-0.277314
-0.123736
0.020418
0.088432
0.288223
0.262792
0.209737
0.227040
-0.027372
-0.253094
-0.550649
-0.524112
-0.316859
-0.018778
0.181548
0.159596
0.060605
0.034645
-0.028682
0.002384
0.031905
0.171621
0.194078
-0.010309
-0.170618
-0.057310
0.064719
0.269360
0.146673
-0.034150
-0.089336
0.057546
0.057724
0.154222
0.073490
0.147474
0.129211
0.183138
0.008505
0.022376
-0.016049
0.015980
-0.152075
-0.081017
-0.005837
0.010007
0.072752
0.259388
0.282167
0.247460
0.046489
-0.195663
-0.262223
0.106529
0.216794
0.031836
-0.098759
0.058393
0.206955
-0.851799
-0.213064
-0.216291
-0.079838
-0.088621
-0.163364
-0.083018
-0.163132
-0.144717
0.053179
0.191537
0.287866
0.257110
0.305813
0.234962
-0.025675
-0.014417
-0.122750
-0.229659
-0.172316
-0.252800
-0.161211
-0.210147
-0.116784
0.029561
0.096346
0.038687
0.163918
0.157130
0.165734
0.031725
0.152677
-0.071923
0.061046
-0.051389
0.094479
0.043606
0.133937
0.119759
0.052979
0.092248
0.131814
0.133457
0.003466
0.014507
0.024221
0.034277
-0.132664
0.016295
-0.169062
-0.111645
-0.178717
-0.119729
0.002926
-0.064566
-0.218175
-0.120468
-0.002500
0.214537
0.214544
0.282756
-0.512732
-0.113818
0.069663
0.011622
-0.116001
-0.046766
-0.049482
-0.128616
-0.100263
-0.117405
-0.088123
-0.017419
0.008828
-0.107143
-0.097763
-0.109768
-0.078524
-0.021329
0.062198
-0.197613
-0.018201
-0.166624
-0.109628
-0.008903
0.101757
-0.163705
-0.363299
-0.203436
0.078350
-0.406113
0.187496
-0.032471
-0.009514
-0.076235
-0.372386
-0.032470
-0.136817
-0.377809
-0.421531
-0.176554
0.075485
0.103167
-0.464172
0.045992
0.521329
0.266749
-0.140698
-0.090688
0.277823
0.345867
-0.060863
-0.094344
0.181052
0.152697
-0.135778
0.327367
1.293436
1.067122
-0.463311
0.465295
0.125138
0.129206
-0.003222
0.035514
-0.025807
0.067024
0.008127
0.059192
0.118288
0.030189
-0.092156
-0.054202
-0.148553
-0.118429
0.072407
-0.015029
-0.000767
-0.071405
-0.077961
0.024038
0.189042
0.116871
0.192597
0.057903
0.185306
0.124993
-0.052323
-0.052023
0.085942
0.003043
0.085070
0.085773
-0.103144
-0.062512
0.048110
0.074839
0.061809
-0.258747
-0.243066
-0.062569
0.088036
0.091696
-0.139527
-0.225680
-0.339442
-0.170339
-0.254445
-0.123297
-0.100912
-0.023778
-0.124536
0.036348
0.006276
0.299805
0.587049
0.501390
0.241575
0.008898
0.047599
-0.602159
-0.057423
-0.146292
-0.099194
-0.017288
0.008917
0.005481
-0.014127
-0.031891
0.020063
-0.090466
0.031461
-0.084340
-0.011438
0.003090
-0.044925
-0.052064
-0.036577
-0.030112
-0.060842
-0.049165
-0.105709
0.002333
-0.032562
-0.067725
-0.070241
0.042730
-0.079770
0.093644
0.136582
0.162426
0.133063
0.346968
0.299673
0.217385
0.272722
0.143989
0.062152
-0.092544
-0.023464
-0.068497
-0.132302
-0.088226
0.049119
-0.076002
0.055498
0.022155
-0.034783
0.067293
-0.052197
-0.053959
-0.205162
-0.403410
-0.289334
-0.296314
-0.296060
0.045803
0.163052
0.173650
-0.019923
0.066178
-0.258549
-0.468511
-0.269325
-0.106867
-0.133827
-0.191410
-0.136459
-0.050114
-0.123694
-0.316109
-0.124182
-0.095727
-0.031587
-0.114797
-0.102661
-0.095490
0.131400
0.114042
0.121745
0.132421
0.092741
0.059183
0.120832
0.110088
-0.022865
-0.006842
-0.013684
0.003292
0.069237
-0.029379
0.147466
0.140477
0.251249
0.127787
0.101079
0.168418
0.033783
0.011750
-0.056995
0.151930
0.190823
0.195161
0.291728
0.288697
0.300056
0.076465
0.067190
0.230181
0.044973
-0.155249
-0.449575
-0.317252
-0.293338
-0.268613
-0.176503
0.127049
0.211826
-0.274705
-0.532935
0.696550
-0.585847
-0.033617
0.036244
-0.019735
-0.068434
-0.085346
-0.106989
-0.129441
-0.240223
-0.166543
-0.048988
0.005490
-0.057971
-0.037718
-0.032428
-0.129306
-0.065992
-0.131491
-0.059758
-0.050567
-0.165676
-0.072586
0.065821
-0.070920
-0.141649
-0.089077
0.122257
0.198587
-0.345346
-0.016022
0.392284
-0.934694
-0.155626
0.753503
0.058719
-0.186513
0.342787
0.048544
0.098221
-0.522557
0.403533
0.858272
-1.114859
-1.021900
0.390024
0.949838
-0.555461
-1.292627
-0.070719
1.080217
0.169032
-0.830217
-0.280725
0.443383
0.225705
-0.020334
0.434736
0.396412
0.034165
1.951777
-1.941377
-0.724839
-0.299771
-0.121696
-0.006333
0.060765
0.023296
-0.066752
0.104072
0.303597
0.127029
-0.036612
-0.023911
0.059009
0.151852
0.118095
-0.081438
0.082386
0.065439
0.121128
0.178514
0.043218
0.052877
-0.013972
-0.086783
-0.144013
-0.137652
0.063365
0.141561
0.161300
0.037212
-0.067490
-0.139707
-0.172658
0.080188
0.221659
0.029979
0.035112
0.086983
0.060710
0.031032
0.015762
-0.096105
-0.036670
0.127713
0.165778
0.092126
0.098855
0.128229
0.200775
0.105718
-0.059320
0.007560
0.332683
0.537737
0.136089
-0.097200
0.347422
1.000441
-0.934666
0.022302
-0.195828
-0.052950
-0.132740
-0.040862
-0.045835
0.080146
-0.005273
0.025775
0.047269
-0.032195
0.072896
-0.059708
0.004597
0.081443
0.029488
0.019483
-0.023124
0.123522
0.172153
0.201171
0.365692
0.312319
0.263418
0.175265
0.209421
0.126515
0.252311
0.015704
0.085016
-0.034737
-0.023588
0.046370
-0.028524
-0.075513
-0.120031
-0.120405
-0.171760
-0.007292
0.038560
-0.021449
-0.115451
-0.134673
-0.115333
-0.049184
-0.130093
-0.073263
-0.059284
-0.207935
-0.466470
-0.537862
-0.340752
-0.137341
-0.101254
-0.125954
-0.006884
0.174186
0.211872
0.014562
0.422986
-0.058562
-0.113370
0.028673
0.090364
0.195131
0.184004
0.180919
0.074613
0.039253
-0.085192
-0.021562
0.048820
0.056463
0.034914
-0.081278
-0.054529
-0.039482
-0.120544
-0.243607
-0.313305
-0.143045
-0.097971
-0.189832
0.021670
0.069032
0.091526
0.102689
0.179805
0.177259
0.127366
0.077355
0.070470
0.117595
-0.000936
0.104079
0.133736
0.157895
0.139548
0.120966
0.279226
0.094290
0.045680
0.032888
-0.225186
-0.251334
-0.272976
-0.150682
0.114155
0.088377
0.052034
0.122094
0.129443
0.243771
0.261116
0.077867
-0.008043
-0.290995
-0.320129
-0.153378
-0.096507
-0.336788
-0.128117
0.000187
0.001266
0.098090
0.084942
0.050140
0.085665
-0.012442
-0.059059
-0.168223
-0.156526
-0.013156
-0.023372
0.038895
-0.098807
0.007299
0.034418
0.207798
0.047814
-0.064261
-0.004567
-0.000241
0.201865
0.102350
-0.015576
-0.065258
0.124973
0.204998
0.049529
0.025266
-0.117070
-0.185309
-0.052462
-0.059921
-0.026253
0.089623
-0.075716
0.084520
0.053949
0.004672
-0.061572
-0.358803
-0.544504
-0.332249
-0.113282
0.462041
1.044342
1.534267
1.096657
0.203386
-0.468511
-0.972599
-1.189429
-0.845222
-0.322465
0.395251
0.273364
-0.322913
0.378601
0.166518
0.145475
0.214561
0.233058
0.165519
0.035521
-0.051464
-0.218385
-0.244587
-0.294769
-0.335001
-0.263947
-0.187359
-0.085135
-0.152148
-0.058457
-0.124479
-0.118660
-0.111033
-0.164074
-0.097086
-0.081616
-0.133652
-0.064896
-0.076842
-0.111676
-0.036975
-0.021879
0.070617
-0.040208
-0.033253
0.123812
0.061730
0.073685
0.141105
-0.043480
-0.052947
-0.038702
-0.117674
-0.095943
0.018576
0.083419
0.024806
0.005503
0.017445
-0.087752
0.069947
-0.019338
0.057653
0.244184
0.154645
0.020440
-0.127866
0.061990
0.334914
0.256017
0.080549
0.010091
0.311187
0.017488
0.150628
0.362683
0.087116
0.059724
0.006009
0.102848
0.022069
0.106910
0.156784
0.076270
-0.040294
-0.011091
-0.072549
-0.126742
-0.090286
-0.234199
-0.179174
-0.099860
-0.011681
0.052023
0.102187
-0.005728
-0.034378
-0.069080
0.122688
0.006986
0.011538
0.139613
-0.020301
-0.106087
-0.383901
-0.399537
-0.374518
-0.239037
-0.090762
-0.083634
-0.071775
0.041959
0.213687
0.200190
0.318264
0.289345
0.277872
0.016042
0.153739
0.027277
-0.009265
-0.064957
0.015814
0.129171
0.120853
-0.070285
-0.072578
-0.083533
0.047525
0.171915
-0.022356
-0.040308
-0.122416
-0.777593
weigvec 606
0.496832
-0.376591
-0.243115
-0.774977
-0.097530
0.679865
0.508786
0.561295
-0.345534
-0.064883
-0.084924
0.195440
0.376709
0.178247
-0.011161
0.743426
-0.012078
0.069466
0.417386
-0.471370
-0.314620
0.535938
0.855860
-0.074646
0.028143
0.804927
-0.629950
0.351109
-0.886355
0.417037
-0.159330
0.129688
-0.402909
0.404982
-0.496759
0.054718
-0.757579
0.471961
0.661466
0.676078
0.613060
0.449071
0.185319
-0.369865
-0.112489
0.639711
0.344445
-0.030456
0.644031
-0.402065
0.104934
0.518098
-0.452476
0.819853
-0.602508
0.262995
0.170961
-0.554358
0.222192
-0.175564
0.561811
-0.628446
0.195322
0.551636
-0.501334
-0.013304
0.358412
-0.482681
0.779607
0.224894
0.635307
0.391746
-0.865604
0.156451
-1.325379
0.361653
-1.144705
0.027189
-0.209501
-1.100395
-0.207195
0.016888
0.371135
0.691920
0.552484
0.623111
-0.480969
-0.120703
-0.964121
0.548248
0.155419
-0.453114
0.545423
0.586605
-0.869301
-0.846036
0.435727
-0.233730
0.723580
0.306896
0.076204
-0.211400
0.045291
-0.057709
0.718514
0.443536
-0.014214
-0.884881
-0.557263
0.086519
-0.165810
0.045463
-0.148854
-0.025249
-0.144586
0.435234
-0.653214
0.723798
0.012761
-0.453050
-0.291178
0.002277
-0.181492
-0.606453
-0.134652
0.150402
0.272877
0.487009
-0.809996
1.064896
-0.236154
-0.208413
0.144255
-0.144427
0.063275
0.227255
0.298898
0.726990
-0.637715
-0.353907
0.138793
-0.505904
-0.599686
-0.001296
-0.440058
-0.150811
-0.312838
0.531692
-0.352697
0.405179
-0.141852
0.321790
-0.252981
0.687010
0.440854
0.170389
0.204680
0.350691
-0.553005
-0.534541
0.035444
-0.424502
0.637417
0.262812
1.525782
0.332692
-0.171539
-0.072971
0.209502
-0.449100
-0.656823
-0.450291
0.100315
0.890099
0.195614
-1.205991
0.733544
-1.320933
-0.071943
0.087026
-1.183135
0.772202
-0.243234
-0.121734
-0.351080
-0.060445
-0.200533
-0.400679
0.032722
0.273418
-0.070970
-0.701469
-0.157817
0.034681
-0.658600
-0.941381
0.422933
-0.330727
-0.141429
-0.060619
0.007440
0.566879
-0.085495
-0.039357
0.183504
0.290435
0.011136
0.409178
-0.374011
0.082511
0.034421
0.454808
-0.080618
-0.200353
0.166357
-0.091205
0.010523
0.150098
-0.160193
0.181012
0.197373
0.405645
-0.257018
0.305329
0.014554
-0.281625
-0.229649
0.188236
-0.117677
0.310967
-0.085344
0.023405
-0.091775
0.138590
0.399841
0.056748
0.094581
0.099780
-0.062618
0.263396
0.078798
-0.808002
0.190133
-0.410170
-0.154973
-0.167532
0.092280
0.072309
-0.391834
-0.499044
-0.126586
0.479696
0.027962
0.638255
0.153162
-0.412614
0.078469
0.210716
-0.173448
-0.455058
-0.390548
-0.384501
-0.122872
0.127494
-0.081556
-0.329691
-0.052527
0.058301
0.239850
0.401071
0.169257
-0.074840
0.215867
0.002432
-0.024599
0.191108
0.660061
0.241120
0.525827
-0.072723
0.116887
0.296983
0.046073
0.045496
-0.027233
-0.083417
-0.302149
0.470803
-0.212610
0.046828
0.192129
0.126342
0.646196
0.273705
-0.036759
0.119026
0.093898
0.174115
-0.026216
0.575981
-0.227711
-0.154282
0.088646
-0.021478
-0.290563
0.115188
0.042528
0.240480
-0.358298
-0.207671
0.569012
-0.487425
-0.026446
-0.345187
-0.150045
-0.171190
-0.105023
-0.079821
-0.257487
0.127796
0.287392
0.071304
0.177107
0.242412
-0.080942
0.052018
-0.268247
-0.182424
-0.264984
-0.107861
-0.395114
-0.174747
-0.224646
-0.003903
-0.105091
-0.169199
0.041986
-0.022726
0.144802
-0.167533
0.370931
0.225261
-0.354403
-0.156359
0.008697
0.157977
-0.428259
-0.216693
-0.215978
0.238614
0.494387
-0.178258
-0.366525
0.122502
0.178853
-0.237166
-0.371310
0.558815
0.152341
-0.074206
-0.459434
0.205922
0.091234
-0.346691
-0.075701
0.339109
-0.458877
0.032711
0.006220
0.064990
-0.378345
0.315218
0.492623
0.095124
0.133129
-0.224703
0.014316
-0.462334
-0.287171
-0.690637
0.085880
0.160799
-0.511820
0.046832
-0.220249
-0.362971
0.337428
-0.454727
0.263232
-0.142192
0.028351
0.184171
-0.119511
-0.122715
-0.374808
-0.068609
0.348414
-0.535760
0.002990
-0.138378
-0.151963
-0.050507
0.073792
-0.188638
0.475453
-0.245083
-0.055284
0.309381
0.426482
-0.272049
0.258581
-0.172744
0.382324
-0.138685
0.344034
0.196940
-0.366714
-0.033307
0.222898
-0.387340
0.268612
-0.015442
-0.385329
0.283452
0.372279
-0.073425
0.109967
-0.277110
0.437589
-0.138058
0.472556
0.751293
0.221246
-0.068347
-0.594289
0.375825
-0.217587
0.407198
0.407956
0.261753
0.055854
-0.100641
-0.077322
-0.131832
0.286758
0.010028
-0.088453
0.279499
0.263523
-0.446914
-0.273623
0.062497
0.184158
0.213999
0.137640
-0.050043
0.394483
-0.996510
0.028590
0.166011
0.422155
-0.436893
-0.650266
0.105947
-0.889034
0.513468
-0.357217
-0.703959
0.352424
-0.120218
0.067051
0.488918
0.099466
0.224273
-0.440009
0.228770
0.103164
0.218662
-1.141484
-0.570629
-1.254065
-0.087606
0.054359
-0.767278
0.249250
-0.159454
0.074722
0.221388
0.407258
-0.060494
-0.080496
0.182138
0.024390
-0.218772
-1.101435
0.458528
-0.187301
-0.379470
-0.830997
0.505215
-0.287375
0.047547
-0.349886
0.525411
0.441663
-0.898755
0.877153
0.082513
-0.444588
-0.949153
-0.490191
0.573870
-0.521895
0.237805
-0.136142
-0.284820
0.434374
-0.203320
0.114133
-0.846501
0.481551
-0.743493
-0.395944
0.290815
-0.046033
0.062222
-0.329247
-0.160569
1.002650
-0.116780
-0.667582
-0.163400
-0.267711
0.036798
0.128305
1.075649
-0.819377
0.390805
-1.147234
-0.090190
-0.837344
0.325310
-0.443653
-0.591964
0.435441
-0.519339
0.405815
-0.045101
1.098325
0.091108
0.170619
-0.418836
0.175598
-0.652022
-0.019783
-0.713094
-1.121621
-0.590232
0.607800
-0.283707
-0.935894
-0.397789
2.194938
0.934278
0.242220
1.234827
-0.517605
-0.373546
-0.380895
0.059627
0.102831
-0.628889
-0.135416
-1.068840
-0.372795
-0.215227
-0.727187
0.002176
-0.924704
3.499751
-0.372686
3.740330
-0.150044
-0.038489
3.261343
-0.788054
0.717669
0.152404
-0.861433
-0.098448
-0.858724
1.612477
0.020215
0.231757
-0.214765
1.129624
0.262828
-0.241374
-0.049499
3.018921
-0.310444
0.404624
-0.014718
-0.279476
-0.569409
-0.954715
biasvec 101
-4.878282
-5.137530
-3.998671
-4.644337
-5.403797
-4.039245
-5.921456
-5.071416
-4.250731
-4.217277
-4.215102
-3.912742
-4.280859
-3.975210
-5.774049
-5.001773
-5.049163
-4.084339
-5.161052
-4.023952
-4.113492
-4.367671
-4.693433
-5.866854
-4.357056
-3.252868
-4.977079
-2.127240
-5.478008
-3.981918
-6.340138
-4.624976
-4.626041
-5.639511
-5.000854
-4.734815
-4.757288
-5.101127
-3.623740
-4.160524
-2.231892
-4.336846
-4.088189
-5.141568
-4.036147
-5.070037
-4.310190
-4.523279
-5.996964
-3.906643
-4.588364
-5.244328
-5.003253
-4.324814
-4.321638
-5.691937
-4.606910
-5.769578
-5.282729
-4.089544
-4.837029
-5.226534
-4.259154
-2.941413
-4.125422
-3.945280
-4.431055
-4.527559
-6.623041
-4.823859
-4.717014
-5.150006
-4.485634
-5.068280
-4.586921
-4.859374
-4.669656
-4.002089
-4.004703
-4.271552
-5.908974
-5.404938
-3.988472
-4.958412
-4.874547
-5.494786
-4.737859
-4.068741
-4.562033
-4.113602
-7.418285
-3.994536
-4.082218
-4.823585
-7.763943
-5.445632
-4.802361
-4.191235
-4.177288
-4.804296
-4.718756
biasvec 6
-4.426800
-6.999790
-3.309873
-3.824823
-2.839027
-2.700461
