60 101 6
weigvec 6060
-0.347117
0.169974
0.026007
0.172232
0.170141
0.234990
0.185308
0.074065
0.137778
0.082733
0.007535
-0.005056
0.086013
0.000180
0.033869
0.115797
0.135000
0.065586
0.051556
-0.118440
-0.074522
-0.142253
-0.037159
-0.074904
-0.059735
0.040824
0.141752
0.160120
0.172897
0.122263
0.152702
-0.033420
-0.062904
-0.279227
-0.355075
0.006726
0.008830
0.065861
0.183763
0.185950
0.152501
0.075101
-0.262260
-0.404991
-0.461021
-0.408785
-0.387366
0.091378
0.344583
0.236291
0.128845
-0.164674
-0.217568
-0.107598
-0.047853
0.103026
0.077381
0.109556
0.087039
-0.133433
2.027312
-1.060236
-0.646490
0.311740
0.125772
-0.026248
0.062190
0.437668
0.371024
0.199810
-0.111065
-0.095318
-0.002714
0.218384
0.498571
0.226940
0.037265
-0.184313
-0.168415
0.165419
0.136558
0.000544
0.053613
0.122066
0.072394
0.162169
0.101410
0.107242
0.066381
0.026951
-0.129163
0.168872
0.283609
0.104302
-0.089679
-0.158470
-0.050958
0.096429
-0.104561
0.145038
0.203239
0.057160
0.094360
-0.221790
-0.194444
-0.058220
0.130461
-0.120698
-0.073283
0.249062
0.355725
-0.161365
-0.445476
-0.129520
0.062471
-0.111983
0.171992
0.703416
0.337080
-3.524071
0.194494
-0.000462
-0.239570
-0.311477
-0.175748
0.007306
0.131062
0.045805
0.187538
0.112593
0.007075
-0.131954
0.000398
0.001995
0.080710
0.058426
0.173335
0.191727
0.078363
0.012570
-0.022799
0.035058
0.108861
0.066516
-0.006037
0.149485
-0.011984
0.095226
0.093808
0.124542
0.035544
0.020487
0.060947
0.031850
0.089038
-0.051450
0.035235
-0.093570
0.044146
-0.027274
-0.091530
0.003497
0.007036
-0.021268
-0.017265
0.124087
0.130576
0.114422
-0.015866
0.018041
0.046935
-0.006139
0.049662
0.070760
-0.002518
0.012072
-0.043072
-0.073155
-0.199637
-0.084862
-0.433179
-0.048956
0.155568
0.168238
0.140452
0.030592
0.078502
-0.024294
-0.164625
-0.083021
-0.113621
0.010723
0.179161
0.089453
0.099505
0.040513
-0.054360
-0.274562
-0.495701
-0.572696
-0.536403
-0.200412
0.006377
0.086163
0.127684
0.107518
-0.036575
0.042309
0.020832
-0.051524
0.169804
0.166015
0.108587
0.129072
-0.102042
0.030313
-0.037252
-0.022267
-0.091638
-0.017819
0.047004
0.171072
0.059314
0.151401
0.136475
0.219664
0.217718
0.203689
0.244806
0.141728
-0.081496
-0.201229
-0.034803
0.347514
0.644692
0.313021
-0.026414
0.357090
0.636194
-1.994338
0.205548
0.114792
0.161174
-0.004434
-0.018779
-0.178360
-0.148959
-0.120293
-0.266955
-0.378930
-0.260952
-0.250405
-0.108452
-0.211847
-0.141661
-0.041801
-0.083531
-0.059510
-0.042670
-0.071780
-0.060173
0.046048
-0.025453
0.091295
0.050634
0.083841
0.044948
-0.097696
0.259917
0.199644
0.277628
0.405975
0.459754
0.429629
-0.025171
0.170723
0.311811
0.203832
-0.082766
-0.104172
-0.016679
-0.147818
-0.501979
-0.472572
-0.347477
-0.380148
-0.391618
-0.172400
0.137077
0.212598
0.198738
0.006611
-0.011996
0.133132
0.138045
0.069502
-0.101058
0.179835
0.424980
0.162564
-0.369813
0.156926
-0.003317
0.014461
0.095616
0.084645
-0.092560
-0.059624
-0.061884
-0.003137
0.037252
0.041150
0.065382
-0.047245
-0.083700
0.005540
0.050757
0.053982
-0.078966
-0.110328
-0.006900
0.038928
0.136981
-0.054347
-0.090043
-0.034390
0.156855
-0.061626
-0.186793
0.083062
0.149345
-0.106676
-0.014568
0.129607
-0.088838
-0.155655
0.078781
0.293801
-0.037258
-0.290252
0.043298
-0.123648
-0.028366
0.186797
0.594164
0.789762
0.539650
0.415156
-0.079083
-0.941634
-1.876301
-1.581290
-0.013419
1.687667
2.039684
1.091446
-0.406304
-1.948370
-2.050129
1.918447
0.028124
0.133374
-0.147606
-0.030240
0.109682
0.082328
-0.121145
-0.098131
0.131921
-0.002939
-0.004996
-0.117874
0.058689
0.166655
-0.021093
-0.089237
-0.031164
0.009312
-0.064773
0.070466
-0.098147
-0.032145
0.083241
0.159531
0.202839
-0.020019
-0.215224
-0.044058
0.009978
-0.064896
-0.067013
-0.054014
0.053260
-0.004435
-0.192712
-0.018742
0.069080
-0.092516
0.079822
0.253789
0.086194
-0.175740
-0.743340
-0.807752
-0.493425
-0.234500
0.391182
1.124625
1.775609
1.401347
0.120264
-0.811607
-1.094798
-0.965029
-0.763312
-0.314628
0.094083
-0.240177
-0.731262
1.295418
-0.461636
-0.094662
-0.099663
-0.181685
-0.231856
-0.294876
-0.208743
-0.075698
-0.070249
-0.163710
-0.126418
-0.103482
0.045911
0.094258
0.104234
0.094624
0.056652
0.117082
0.158386
0.101041
0.107052
0.093255
0.059966
0.041848
0.004638
-0.212310
-0.125046
-0.046586
0.088856
-0.088753
-0.076902
0.040787
0.034605
0.063787
0.059517
0.130660
-0.006104
-0.036951
0.001561
0.141701
0.347070
0.034598
0.188420
0.198254
0.277943
0.224721
0.275989
0.307122
0.180802
-0.081298
-0.332767
-0.344849
-0.398003
-0.410257
-0.407151
0.090301
0.322503
0.243096
-0.197564
0.345586
-0.313788
0.062675
0.072083
0.119898
0.075111
-0.030720
0.083884
-0.025396
0.056874
0.289042
0.145988
0.216334
0.200547
0.102016
0.214472
-0.011481
-0.077028
-0.071819
-0.144826
0.012741
-0.059997
-0.057965
-0.034102
-0.120649
-0.064835
-0.001295
-0.060299
0.062621
0.037912
-0.040402
-0.100176
-0.267618
-0.105732
-0.170552
0.345616
0.316661
0.094802
0.037753
-0.231355
-0.428549
-0.346815
-0.121719
0.035030
-0.108460
-0.262454
-0.097719
0.131269
0.016405
-0.107857
-0.009874
-0.073795
0.014597
0.244806
0.431150
0.604905
0.245708
-0.033983
0.097809
0.256320
-0.575008
0.005274
-0.057920
-0.009773
0.018774
0.003797
0.128713
-0.017862
0.076657
0.059150
0.104865
0.000112
0.001054
-0.103078
0.027344
0.105454
0.001813
0.178493
-0.056094
-0.087094
-0.242294
-0.314396
-0.284053
-0.096215
0.023100
0.149201
0.089566
0.175199
-0.024771
0.027840
-0.048648
-0.070562
-0.142007
-0.016767
-0.076254
-0.032055
0.096090
0.095895
-0.095318
0.125939
0.055891
0.108404
0.203607
0.082744
0.167144
0.016737
-0.103750
-0.200439
-0.177660
-0.000152
0.067861
0.128475
0.183533
0.199223
0.021364
0.045148
-0.062850
-0.160870
-0.209108
-0.199193
-0.145123
-0.194155
-0.119740
-0.151163
-0.094057
-0.136726
-0.054572
-0.094350
-0.069265
0.054004
-0.011653
0.052230
0.078068
0.093465
0.043258
0.166206
0.040234
0.149073
0.152923
0.003447
-0.061970
-0.098566
-0.057740
-0.063710
-0.178094
-0.101295
-0.075462
-0.101994
0.074229
0.078399
0.136749
-0.007691
0.028481
-0.078822
-0.152844
-0.194459
-0.227212
-0.088076
-0.149837
0.051503
0.030581
-0.019563
-0.147261
-0.109896
-0.168863
-0.079423
-0.001905
0.035674
-0.004001
0.121092
0.017587
0.106003
0.235959
0.253193
0.325639
0.288252
0.328519
0.096435
0.155398
0.165428
-0.125468
-0.182832
-0.047289
-0.073257
0.005294
-0.075223
-0.039965
-0.128228
-0.170451
-0.023226
-0.004379
-0.146559
-0.052260
0.005285
0.039798
-0.067044
-0.105874
-0.083610
-0.114903
0.048604
-0.007652
-0.061749
-0.085004
-0.032455
-0.049859
0.068791
0.078078
-0.027378
0.061881
0.024811
0.045438
0.024979
-0.022879
0.018158
0.127224
0.114773
0.096247
-0.112750
0.177720
0.340548
-0.006647
-0.003335
-0.110787
-0.222262
-0.338346
-0.218670
0.132293
0.145314
-0.111347
-0.277264
-0.162858
0.017837
0.015713
0.119314
0.312402
0.627641
0.410630
0.153885
0.059645
0.193365
0.030442
0.090488
0.073498
0.059771
0.024210
-0.013773
0.121351
-0.006250
0.034090
0.108205
0.013403
0.049970
0.048879
0.043487
0.031444
-0.001884
-0.039373
0.054446
-0.042900
-0.017700
0.089456
0.155510
0.074071
0.239678
0.126849
0.039805
0.034361
-0.085759
-0.163311
-0.168411
-0.230477
-0.148022
-0.076669
-0.124478
-0.226027
-0.056288
-0.168844
-0.101649
0.075317
-0.000216
0.077708
0.244296
0.084274
0.249398
0.134599
0.110324
0.018838
-0.058785
0.059230
-0.166362
-0.234165
-0.221803
-0.254364
-0.224688
-0.135628
-0.148408
0.075552
0.088957
0.077608
-0.162281
0.122789
0.007548
0.002649
-0.178007
-0.006751
-0.020322
-0.073171
0.004567
-0.181491
-0.191265
-0.001255
-0.131056
-0.018035
-0.112934
-0.141049
0.017191
0.038290
-0.072874
0.015525
0.101979
0.045259
-0.003562
0.011992
0.147623
0.075856
-0.066875
-0.065108
-0.078877
0.089159
0.056447
-0.074463
0.032666
-0.044687
-0.059661
0.115169
0.139685
0.081823
-0.084138
-0.060003
0.081042
0.057742
0.144913
0.324291
0.252415
0.049317
-0.233452
-0.211632
0.009092
-0.195760
-0.167260
-0.196625
-0.121776
-0.012353
0.217717
0.247387
0.253928
0.069282
-0.081330
-0.131213
0.031561
0.162026
-1.860616
-0.847301
-0.441427
-0.228483
0.023914
0.053373
0.149685
0.161866
0.243103
0.157423
0.104764
-0.010925
-0.034350
-0.085992
-0.089059
-0.172295
-0.082577
-0.111390
0.018408
-0.020836
-0.033050
0.007772
-0.046168
0.011564
0.010241
0.026669
0.081325
0.042103
0.201388
-0.077269
-0.065207
-0.056162
0.007944
-0.012489
-0.079214
0.069241
0.205823
0.022064
-0.052695
0.004035
0.174473
0.154282
-0.102073
0.069901
0.179732
0.215183
0.087166
0.004095
-0.048679
0.162206
0.319593
0.177302
0.066857
0.358774
0.461153
0.151330
-0.431503
0.239682
1.093953
-0.725881
0.033242
0.046779
0.011603
-0.114746
0.008680
-0.049602
-0.036223
-0.012153
0.110772
0.155623
0.081786
0.217868
0.136821
0.078276
0.102456
0.030192
-0.145640
0.013415
-0.034957
0.072084
-0.035624
-0.047532
-0.006070
-0.021938
-0.019964
-0.055100
-0.058900
0.052435
0.221891
0.313585
0.360071
0.437469
0.243703
0.191070
-0.164979
-0.096890
-0.204965
-0.241816
-0.220342
-0.112756
0.053378
-0.066319
0.038186
0.180377
0.149004
0.179094
0.065561
0.020334
-0.061061
-0.468900
-0.582535
-0.499662
-0.206663
0.020099
0.319701
0.285626
0.276346
-0.295709
-0.861536
0.525210
-0.722576
0.140852
0.033066
-0.183176
-0.093259
0.036960
-0.027545
0.075227
0.257406
0.359716
0.391384
0.446122
0.280177
0.314657
0.065279
-0.060669
-0.175543
-0.175342
-0.249788
-0.234831
-0.260609
-0.199341
-0.207833
-0.138427
-0.166686
-0.056814
-0.194767
0.010793
0.028819
-0.218842
-0.316210
-0.013207
-0.032159
-0.238720
-0.649156
-0.243202
0.104191
0.039243
-0.423429
-0.247010
0.266955
0.113126
0.075601
-0.050946
0.077028
0.188639
0.021922
0.162770
0.184099
0.083570
0.132520
0.168733
-0.006190
0.053392
0.023182
0.201680
-0.031888
0.110831
0.473484
0.351098
-0.046163
0.052199
0.024671
-0.058126
-0.094238
-0.037228
0.117660
-0.006785
0.104497
0.037176
-0.012975
-0.048723
-0.126575
-0.135927
-0.024147
0.120107
0.221648
0.171338
0.125821
-0.088382
-0.200351
-0.220948
-0.293675
-0.212213
-0.068448
-0.020741
0.129858
0.056962
0.082546
0.053394
-0.021305
-0.059510
-0.121896
-0.142366
0.063180
-0.086641
-0.103301
-0.010621
-0.009830
0.052297
0.009141
0.034713
0.085837
0.100815
0.090612
0.080114
0.134328
-0.074260
0.050092
-0.105404
-0.048337
-0.052063
0.018539
-0.007399
-0.088349
-0.051548
-0.045939
0.015535
-0.138245
-0.114991
0.376805
-0.022208
-0.277822
-0.263369
-0.237843
-0.366283
-0.309128
-0.299423
-0.351255
-0.195905
-0.314719
-0.224332
0.008759
0.135708
0.156733
0.163720
0.315902
0.114438
0.118653
0.118122
0.082748
0.014946
0.049610
0.109296
0.090418
0.021271
0.067647
0.161020
0.080334
0.247556
0.097784
0.195294
-0.007588
0.012900
0.053144
0.169454
0.176070
0.166084
0.116175
0.225433
0.303972
-0.057430
-0.017644
0.056968
0.145209
0.087522
0.079903
-0.124486
-0.261016
-0.465091
-0.613301
-0.345555
-0.180129
-0.048322
-0.248998
-0.117459
0.081211
-0.007946
-0.150957
0.921965
0.006489
0.117816
0.091168
0.229972
0.225902
0.039319
-0.081361
-0.090447
-0.010940
-0.112346
0.083777
0.163197
0.266316
0.206162
0.079694
-0.013520
-0.283417
-0.354707
-0.459949
-0.417802
-0.178454
0.104504
0.236300
0.369922
0.201133
-0.020571
-0.088080
-0.297916
-0.156967
-0.104022
0.006711
0.283838
0.232996
0.212565
0.041018
0.054414
-0.112845
0.025560
0.020367
-0.059251
0.026069
0.079645
-0.043016
0.085039
-0.011166
-0.007478
-0.059904
0.064666
0.118213
0.109683
0.135823
0.048275
0.017010
0.043069
0.055459
-0.005413
-0.190081
-0.325512
-0.499258
-0.292625
-0.381148
-0.041992
-0.052544
-0.009011
0.008607
-0.045538
0.034558
-0.093280
0.009593
0.047169
0.021017
0.126376
0.073951
0.176723
0.166817
0.208335
0.126694
0.207540
0.227780
0.062489
0.077475
0.066704
0.019734
-0.059758
0.016181
-0.215865
-0.232327
-0.213286
-0.222471
-0.109670
-0.078988
0.021444
0.105152
0.072849
-0.028120
0.043638
-0.023528
-0.206088
-0.040854
-0.152571
-0.059800
-0.097546
0.071606
0.039695
0.107165
0.038324
0.102018
0.085631
-0.064664
0.032738
0.264233
0.254014
0.188779
0.047036
0.219356
0.028821
-0.119086
-0.062895
0.127053
-0.282564
-0.276131
0.101531
-0.013069
-0.085446
0.050669
0.204230
0.275609
0.334499
0.261618
0.324803
0.192327
-0.009290
-0.091621
-0.304527
-0.377479
-0.521172
-0.393862
-0.247103
-0.004972
0.173639
0.213734
0.218136
0.081464
0.064080
-0.011998
0.003801
-0.075813
-0.003920
0.012980
-0.042175
0.013190
0.002618
0.027764
0.016055
-0.124112
0.331921
0.492842
0.375473
0.317217
0.225910
0.330956
0.107309
-0.052247
-0.186436
-0.344388
-0.287928
-0.429811
-0.175282
-0.077804
-0.123774
-0.232116
-0.120171
-0.015903
-0.045451
-0.138447
-0.159769
0.041286
0.175767
0.089150
0.359439
0.211581
-0.109063
0.009966
0.035003
-0.049122
-0.034692
-0.033299
0.023174
0.091749
0.005374
0.004756
0.035325
0.120422
0.091556
0.041969
0.082004
0.086388
0.093767
-0.058990
0.135645
0.216415
0.169317
0.087665
0.128134
-0.023272
-0.010663
0.129067
0.044434
0.146703
-0.059365
-0.004872
-0.030767
-0.089401
-0.052962
-0.145617
-0.103038
-0.154508
-0.147301
-0.170460
-0.043686
-0.007770
0.038537
-0.044157
-0.078925
-0.059374
-0.151681
-0.244091
-0.253060
-0.364271
-0.317393
-0.229267
0.006847
0.391114
0.604424
0.268676
-0.213900
-0.366005
-0.111413
-0.078277
0.406061
1.053228
-0.771589
-0.168459
0.462625
0.248935
0.097219
0.122696
0.222716
0.171504
0.053967
0.070595
0.324463
0.148469
-0.117816
-0.021785
0.101082
0.203457
0.105241
-0.129523
-0.140991
0.064561
0.140564
0.086980
0.001471
-0.074296
-0.069320
0.071450
-0.040651
-0.037538
-0.220721
0.016405
-0.095064
-0.036485
-0.164624
0.195280
0.158858
0.163332
0.074844
-0.172753
0.137900
0.176684
0.051396
0.237655
0.113301
-0.442906
-0.372069
0.038508
0.289230
0.007598
-0.603938
-0.630430
-0.138391
0.259865
0.350612
0.071071
-0.580802
-0.637206
-0.014130
0.102126
-0.561822
-0.013590
0.199621
0.095853
0.037990
0.012015
0.019310
0.175488
0.163805
0.104064
-0.016159
-0.105373
0.015782
-0.189736
-0.237640
-0.271800
-0.339846
-0.324810
-0.162816
-0.234029
-0.267546
-0.253993
-0.317552
-0.256977
-0.079267
-0.066425
0.037950
-0.122290
0.088617
-0.040662
-0.157186
-0.089654
-0.026862
0.088427
0.054709
-0.118818
0.008682
0.231762
0.128078
-0.031969
-0.000034
0.071846
0.034192
0.174537
0.155945
0.108697
-0.044641
-0.008067
-0.082470
0.044683
0.085590
0.147080
0.006749
0.094782
0.150849
0.242744
0.189290
0.056247
0.101066
0.277647
-0.074271
-0.193546
0.274314
0.069863
-0.162613
-0.013160
-0.001152
0.110197
0.063333
0.020135
-0.108172
-0.046594
-0.074850
0.063145
0.027022
0.091847
0.061780
-0.016862
0.057454
-0.122756
0.005393
-0.070770
0.043312
0.010855
0.040648
-0.007899
-0.059052
-0.055465
0.218850
-0.000877
-0.138529
-0.114111
0.126912
0.119085
0.082719
-0.253028
0.038338
0.130857
-0.247237
-0.222492
0.188914
0.444631
0.727531
0.650709
0.257736
-0.194200
-0.878450
-1.184419
-0.997198
-0.427578
0.265182
0.834329
1.193564
1.326921
0.813909
-0.220710
-0.843881
-1.045703
-0.965612
-0.517829
1.339799
-0.053245
0.191533
0.060447
0.055494
-0.100336
-0.029742
-0.077253
0.055916
0.217128
0.227781
0.035411
0.070306
0.072755
0.036062
0.040486
0.059942
0.083052
0.099022
0.011512
0.097460
-0.055153
0.017705
0.009651
0.334395
0.218941
0.138026
-0.102919
-0.422226
-0.652817
-0.642794
-0.415478
-0.197504
0.112230
0.012204
0.016285
0.053388
-0.143932
-0.332008
-0.192728
0.004968
0.138836
0.173872
0.126111
-0.046835
0.010902
-0.172638
-0.098353
0.096531
0.077871
0.070987
0.306754
0.209766
0.096870
0.218932
0.371155
0.251375
0.112893
0.167962
0.548334
-0.798377
-0.680687
0.618731
0.210060
-0.074594
-0.121962
0.110366
0.065131
0.153667
0.004813
-0.096861
0.049052
0.184502
0.172042
0.137863
-0.106275
-0.224249
-0.107279
0.015394
0.149195
0.138956
-0.073848
-0.053275
-0.106526
0.009160
0.030928
-0.001924
-0.098283
0.052422
0.151415
0.075653
-0.066630
-0.110994
0.066923
0.191024
-0.129994
-0.183816
-0.056556
0.033973
0.248181
0.097972
-0.072163
-0.373468
-0.380712
-0.122286
0.179436
0.297548
0.130209
-0.116083
-0.259958
-0.607738
-0.544066
0.252042
1.222025
2.045767
1.735651
0.145828
-1.244810
-0.526457
0.600024
-2.620193
-0.107094
0.559860
-0.126565
-0.156768
0.193989
0.191240
0.152439
0.041287
0.032759
0.089941
0.128535
0.039161
0.106744
-0.045558
0.022981
0.017811
0.080098
0.055656
0.194718
-0.030828
-0.125907
0.018107
0.019306
-0.063431
0.173877
0.207419
0.196479
0.110927
-0.094541
-0.147860
0.070505
0.162477
0.012752
-0.141225
-0.172705
0.265905
0.449342
0.169523
-0.024756
-0.298069
-0.136391
0.121280
0.010490
0.073172
0.159580
-0.084005
-0.171964
-0.078812
0.317734
0.876670
1.322540
1.553935
1.255224
0.322571
-0.659363
-1.222452
-1.523641
-1.438382
-0.982734
-0.672685
0.246523
-0.066652
0.059596
-0.071721
-0.025921
0.081861
0.060709
-0.007902
0.061224
0.009438
0.009780
-0.068506
-0.097994
-0.024775
0.018207
0.037177
0.048323
0.085604
-0.004477
-0.160311
-0.161678
-0.097956
-0.079102
-0.108280
-0.222977
-0.189105
-0.176811
-0.047701
-0.094367
0.025373
-0.101635
-0.034447
-0.015587
-0.008791
0.197509
-0.209273
-0.582193
0.136398
0.090468
0.041197
0.016941
0.502861
0.493424
0.201117
-0.064446
0.061851
-0.030227
-0.355814
-0.464687
-0.340322
-0.078894
0.152115
0.622199
0.857811
0.299035
-0.355170
-0.596512
-0.150063
-0.076967
0.575028
1.597390
-0.399639
-0.211482
0.220671
0.112531
-0.105535
0.074880
0.039046
0.035304
0.028265
0.168249
0.179070
0.053105
-0.051458
0.020992
0.301965
0.384206
0.292860
0.314276
0.293128
0.151617
-0.078730
0.151522
0.133629
0.117432
0.073025
0.049577
0.031806
0.161526
-0.091475
0.014261
0.200338
0.235508
0.014780
-0.035379
-0.034574
-0.122598
-0.015665
-0.314198
-0.428415
-0.464315
-0.364968
-0.039701
-0.166920
-0.600893
-0.631235
-0.329298
-0.169183
-0.234763
-0.013363
-0.000343
-0.105460
-0.048992
0.322184
0.385355
-0.017330
-0.349908
-0.062052
0.384353
-0.650782
-0.076844
0.027091
-0.131380
0.041279
-0.057674
0.049892
-0.124975
-0.108335
-0.000026
-0.140429
-0.170321
-0.260977
-0.202310
-0.244844
-0.145726
-0.146391
0.068779
-0.024253
0.191069
0.275418
0.367020
0.550776
0.442979
0.267464
0.204196
0.123501
0.042588
0.013976
0.174070
0.050323
-0.002408
-0.099132
-0.129680
-0.043428
-0.377586
-0.513741
-0.417486
-0.408155
-0.309407
-0.215273
-0.216130
-0.052732
-0.079142
-0.067299
0.068648
-0.024971
-0.174593
-0.202776
-0.117472
-0.163196
0.169443
0.225225
0.328835
0.169220
0.169498
0.041571
0.149404
0.066448
0.266829
0.317545
0.037892
-0.304049
-0.106543
-0.027069
-0.021742
-0.061084
0.043934
0.097969
0.075639
-0.078934
-0.003395
-0.055176
0.063647
-0.157534
-0.024601
-0.156705
-0.100796
-0.108325
-0.045665
0.018384
0.147965
0.063354
0.030243
0.025917
0.017510
0.060875
0.091476
0.124751
0.021928
0.188987
0.151720
0.289081
0.341440
0.329842
0.225133
0.138755
0.047030
-0.167569
-0.061751
-0.102337
-0.081592
-0.078806
-0.072829
0.093527
0.037477
0.106616
0.082177
0.048469
0.085628
-0.059035
-0.199615
-0.324042
-0.270039
-0.287845
-0.395458
-0.294687
0.149784
0.061760
-0.090265
0.460023
0.094354
0.462280
-0.046434
-0.273112
0.038363
0.208595
0.134899
0.125936
0.150784
0.198686
0.020962
0.013652
0.027594
-0.021582
-0.027837
0.108106
0.114196
0.034663
0.021282
-0.059817
0.015580
0.225118
0.251995
0.184311
0.009573
-0.258804
-0.683895
-0.624113
-0.839354
-0.367728
0.047843
0.402944
0.748306
1.057510
0.376888
0.413345
0.439480
0.073773
-0.253770
-0.369673
-0.265446
0.085261
-0.336167
-0.221772
-0.006849
-0.413369
-0.922592
-0.547562
-0.007620
0.126507
0.275044
0.457285
0.423136
0.191520
0.017174
0.060297
-0.086033
-0.121398
-0.021903
0.363901
-0.235104
0.283299
0.157321
-0.007611
0.154094
0.157938
0.013527
0.148516
-0.000976
-0.054419
-0.185657
-0.075690
-0.030794
0.168335
0.085790
0.143019
0.177449
0.260330
0.315423
0.138758
-0.097333
-0.355885
-0.711287
-0.807233
-0.761003
-0.206014
0.144083
0.383453
1.022805
0.711342
0.567297
0.253739
0.285141
0.442780
0.007841
-0.385223
-0.303738
-0.065715
0.135636
-0.182504
-0.527354
-0.428715
-0.447797
-0.421488
-0.136805
0.046327
0.016123
0.089831
0.126387
-0.079732
-0.048451
0.079578
0.037927
0.120109
0.241216
0.122918
0.028749
-0.015284
0.045718
0.152680
-0.627395
-0.040518
-0.097798
-0.267979
-0.294235
-0.077955
-0.170616
-0.171631
-0.132071
-0.055062
-0.106398
-0.133929
0.039394
-0.040782
0.128391
-0.001948
0.052063
0.181489
0.164770
0.361108
0.301042
0.169810
0.243679
0.064651
0.034871
-0.009902
0.032220
-0.042710
-0.001866
-0.036166
-0.151847
-0.233648
-0.098642
-0.015001
-0.056616
-0.085948
-0.133039
-0.173196
-0.192838
0.048945
-0.022172
-0.037724
-0.148517
-0.194741
-0.237203
-0.118021
-0.001378
0.094531
0.149936
0.211888
0.119185
0.007737
0.159429
0.287668
0.301209
-0.063573
-0.112583
0.393051
0.909799
-1.047596
0.700086
0.284831
0.115759
0.132767
0.169585
0.105230
0.051209
0.127467
0.175713
-0.025584
-0.194673
-0.268851
-0.073407
-0.078779
-0.090390
-0.026335
0.019139
-0.021887
-0.075934
-0.126203
-0.226993
-0.250552
-0.044678
0.072991
0.075007
-0.128901
-0.087143
-0.148348
-0.092467
-0.173670
-0.187115
-0.225295
-0.135360
0.071361
0.079344
-0.099929
-0.215251
-0.241871
-0.307509
-0.246339
-0.016104
0.115429
0.023265
-0.128643
-0.360262
-0.290215
-0.056365
0.069209
0.172538
0.301576
0.438255
0.283608
0.094638
0.199140
0.146768
-0.158696
-0.203460
0.217360
0.732221
-1.053662
0.708423
0.079603
0.323506
0.389191
0.202228
0.099019
0.168744
0.037717
0.160461
-0.001133
0.113868
-0.025582
-0.047040
0.065331
-0.064523
-0.039174
-0.131193
-0.195208
-0.135508
0.004135
-0.120121
-0.144656
-0.090347
-0.064384
-0.078757
-0.194421
-0.123677
-0.128617
-0.073451
0.040545
-0.060805
0.046209
0.137531
0.063019
0.134110
0.073222
0.079681
0.064336
-0.155945
-0.138769
0.063185
0.010046
-0.007855
-0.085146
-0.060204
-0.077660
-0.111172
-0.155153
-0.135373
-0.336338
-0.661453
-0.493147
-0.173668
0.228263
0.255749
-0.034555
-0.216040
-0.492458
-0.268680
0.647761
-0.480543
0.329225
0.171427
-0.014871
0.115175
0.060381
0.205536
0.048154
0.022413
0.048037
0.013659
0.096667
0.154771
0.094851
-0.099204
-0.191852
-0.019895
-0.170438
-0.313105
-0.349114
-0.390211
-0.396621
-0.422007
-0.309278
-0.236016
-0.243886
-0.239398
0.058476
0.237085
-0.094581
-0.158228
0.075260
0.064570
0.169136
0.190715
0.346788
0.179065
0.051337
0.090271
0.158256
0.613151
-0.682518
0.282060
0.438557
0.297507
0.439516
0.360750
0.378562
-0.236690
-0.885973
-0.921361
-0.165462
0.002858
-0.194910
-0.200512
0.009415
0.227791
0.042913
-0.004336
0.847386
-0.325745
-0.112804
0.085623
0.199793
-0.049595
-0.051134
-0.075995
-0.056628
-0.109136
-0.031473
0.020688
0.018586
-0.011054
0.010373
-0.007830
0.042340
0.003557
-0.153955
0.042495
0.017282
-0.015349
-0.109252
0.076963
-0.012296
-0.068130
-0.042251
-0.061183
-0.069917
-0.000524
0.010682
-0.035506
-0.104590
-0.159271
0.120548
0.063250
0.001952
-0.069526
0.174851
-0.038325
-0.227514
0.014095
-0.035477
0.039943
-0.051432
-0.275581
0.083682
0.207475
0.428768
0.371741
-0.094786
-0.730220
-1.095517
-0.800989
0.293748
1.544116
1.654111
0.462975
-1.288687
-1.513661
1.124635
-0.350535
0.574449
-0.100263
-0.256219
0.010730
0.226769
0.090485
-0.001843
-0.008184
-0.068299
-0.034946
-0.143336
-0.045974
0.120976
0.043279
0.150721
-0.057780
-0.086771
-0.215817
-0.161893
-0.067558
0.205642
0.121894
0.112766
-0.060084
-0.142554
-0.051142
-0.148007
0.152300
-0.015402
0.185624
0.187014
-0.083082
-0.029987
-0.202898
0.048253
0.008903
-0.046601
0.015957
0.116358
0.279515
-0.229491
-0.249324
-0.295846
-0.237891
-0.539365
-0.977839
-1.263673
-1.134706
-0.883456
-0.602497
-0.398129
-0.034765
0.593620
1.309495
1.439756
1.238009
0.748841
0.681909
0.399880
0.445417
0.180895
0.041551
-0.132402
-0.201822
-0.188814
-0.234028
-0.193748
-0.110048
-0.186268
0.020551
0.073501
0.078560
0.060167
-0.010792
0.186307
0.063174
0.120490
0.139387
0.199744
0.195930
0.274768
0.070109
-0.066725
-0.111010
-0.082940
0.056449
-0.199780
-0.181568
-0.279122
-0.077907
-0.046517
0.050225
-0.086428
0.078094
0.162372
0.070367
0.037673
-0.003283
-0.008927
-0.031173
-0.067346
-0.205380
-0.136830
-0.107328
-0.026992
-0.139685
-0.062169
-0.142716
-0.199678
-0.165524
-0.005090
0.143580
0.322125
0.002329
-0.260090
-0.131855
-0.049752
-0.072426
0.503684
0.054869
0.017699
0.011754
0.054222
-0.054834
-0.068191
-0.037400
0.091403
-0.029983
-0.000324
-0.001656
0.027535
-0.080823
-0.050846
-0.023497
-0.032791
0.029718
-0.039652
-0.007242
0.054385
-0.059878
0.068188
0.093772
-0.016923
0.126445
0.032235
-0.047447
0.118693
-0.047284
0.041445
-0.003429
0.021217
-0.034950
0.026660
-0.015930
-0.020646
-0.082660
-0.001155
-0.002315
0.022486
-0.043981
-0.038560
0.025566
0.053745
0.020880
0.013670
0.081793
0.028508
-0.021654
-0.003501
-0.133072
-0.041126
-0.123537
-0.180381
-0.013800
-0.029419
-0.051054
-0.049952
-0.108333
0.121719
-0.507022
0.058655
0.028044
-0.061260
-0.101032
-0.142112
0.071582
0.089773
-0.069929
-0.015732
-0.107493
-0.098824
-0.046094
-0.143709
-0.129249
0.002858
0.030601
0.073679
0.023028
-0.106039
-0.080058
-0.113137
-0.131100
0.031951
0.093839
0.006304
-0.102724
0.055099
0.027661
0.002574
0.101889
0.093274
0.143116
-0.013387
-0.100769
-0.160881
-0.063930
-0.071065
-0.127537
-0.027070
-0.034623
-0.090838
-0.053180
-0.126673
-0.095716
-0.028413
-0.336701
-0.393978
-0.387082
-0.247844
-0.233225
-0.164556
0.431290
1.159367
1.687162
1.142537
0.045521
-0.362144
0.016282
-0.257578
-0.069034
-0.153042
-0.057708
-0.168494
-0.091824
-0.031908
-0.083243
-0.110036
-0.133058
-0.104332
-0.138447
-0.128395
0.024941
0.045359
-0.016551
0.218485
0.083843
0.194510
-0.035536
-0.003095
0.005503
-0.065834
-0.110119
-0.048142
-0.011636
-0.169076
-0.210299
-0.237645
-0.223181
-0.082929
-0.070857
-0.032034
-0.005644
-0.000427
-0.015723
0.110368
0.119007
0.104219
0.084633
0.176363
0.077451
-0.037184
-0.144750
-0.088246
-0.039957
0.006045
0.055683
0.086611
0.061121
0.099042
0.056767
0.205171
0.152819
0.395115
0.425065
0.194618
0.019587
-0.036362
-0.022926
-0.281618
0.274602
0.576851
0.309530
0.211493
0.219911
0.231244
0.161823
0.049133
-0.082322
-0.202023
-0.343472
-0.505031
-0.399288
-0.337314
-0.285434
0.001277
0.155231
0.087774
0.159644
0.224420
0.009531
-0.096899
-0.183319
-0.040245
-0.071160
-0.005930
0.000188
-0.031411
-0.007297
0.092088
-0.036345
-0.000155
-0.017369
0.019150
-0.062588
-0.055868
-0.024970
-0.133209
-0.058830
0.017275
0.256002
-0.055193
0.017109
0.098765
0.101947
0.002651
-0.030916
-0.075312
-0.090111
-0.204015
-0.201147
-0.057659
0.037880
-0.029308
-0.377830
-0.286386
-0.117945
-0.036083
-0.031332
0.549677
-0.151062
-0.039506
-0.097290
-0.004477
-0.035665
-0.182767
0.065770
0.071666
0.040387
0.053360
0.019092
0.114996
-0.024324
0.019702
-0.047963
0.027693
0.032280
0.129843
0.265350
0.188878
0.287336
0.146107
0.178305
0.303045
0.226384
0.173335
0.130876
0.015310
0.085918
-0.005679
-0.043555
-0.144490
-0.086642
-0.114202
-0.263633
-0.257115
-0.306441
-0.156199
-0.177889
-0.138347
0.054389
-0.014809
0.001402
0.089388
0.121733
0.191091
0.083543
0.121477
0.120029
-0.094642
-0.328562
-0.317046
-0.117560
-0.131508
-0.221307
-0.097993
0.052491
-0.143649
-0.389534
0.489685
0.052432
-0.057903
0.036594
0.053800
0.113124
0.020066
0.119976
0.007682
0.131482
0.042321
-0.087018
-0.053331
-0.086832
-0.111881
-0.025078
-0.282978
-0.322062
-0.262372
-0.045247
-0.032982
-0.010821
0.069401
0.120732
0.052566
0.169918
0.098278
0.065199
0.029617
0.206726
0.050945
-0.090128
0.037172
-0.046396
0.174340
0.106873
0.015798
-0.194088
-0.038806
0.183212
0.195321
0.185778
0.140453
-0.089462
-0.300574
-0.386030
-0.302893
0.047136
0.197745
0.271522
0.284078
0.170102
0.155534
0.060359
0.025122
-0.082451
-0.183086
-0.405959
-0.215566
-0.151501
-0.355293
-0.169440
-0.408830
-0.275284
-0.233383
-0.012863
-0.090738
-0.055874
-0.052522
0.007499
-0.064437
-0.078214
0.074450
0.052144
-0.002069
-0.052850
0.015569
-0.127303
-0.104261
-0.062596
-0.166572
-0.166018
-0.020209
0.050630
0.090478
0.133236
0.149882
0.205410
0.169594
0.253441
0.028686
0.068376
0.021155
-0.056109
0.111642
0.137379
0.260661
0.231025
0.000439
0.067038
0.135941
0.172946
-0.058911
-0.024393
-0.068539
0.094657
0.005824
-0.188765
-0.267723
-0.131281
-0.208810
-0.140270
0.088642
0.171904
0.248605
-0.014968
-0.082214
0.043646
0.113014
0.052832
0.482727
-0.031169
-0.015509
0.032850
0.108383
-0.029474
-0.205997
-0.292643
-0.502773
-0.617627
-0.527763
-0.176543
-0.089835
0.142654
0.091847
0.110773
0.009756
0.101251
0.051000
-0.014434
0.124745
0.085339
0.058541
0.145926
0.100772
-0.038509
-0.032848
-0.181800
-0.102453
-0.067733
0.099090
0.109899
0.136263
0.228418
0.074328
0.053904
0.016353
0.113563
0.077880
0.033771
0.116721
0.205339
0.072025
-0.047932
-0.025700
0.133102
0.242969
0.329993
0.062884
-0.059836
-0.002509
0.149728
0.262101
0.170245
0.253128
0.269404
0.149029
-0.098171
-0.132147
0.082048
-0.527008
-0.827706
0.086006
-0.125931
-0.096985
-0.157152
-0.044628
-0.219818
-0.218713
0.004587
0.013310
-0.051522
-0.108947
-0.018758
0.055656
0.137702
0.156617
0.490253
0.524605
0.402348
0.366834
0.165532
0.173977
0.154661
-0.003322
-0.054174
-0.118233
-0.263528
-0.012156
-0.020123
-0.289282
-0.366970
-0.147098
-0.098684
-0.399212
-0.894655
-0.388555
0.275061
0.223978
-0.535970
-0.539980
0.092809
0.065917
0.004791
-0.153942
0.017551
0.060564
0.125675
0.080141
0.015150
0.215834
0.290587
0.289967
0.155726
0.196548
0.181283
0.164394
0.005882
0.009091
0.433938
0.472765
-0.665193
-0.717626
0.326521
1.000986
0.765454
-0.009085
-0.320387
-0.336273
-0.253522
-0.071866
0.354384
0.415511
0.416751
0.075642
-0.153461
-0.235522
-0.123876
0.197354
0.290242
0.007792
0.006568
0.069972
0.066685
0.089527
0.071013
0.050729
0.087791
0.175499
0.100536
0.044016
-0.068119
0.069662
0.100583
0.058138
-0.078340
-0.139344
-0.055001
-0.033068
-0.155506
0.023748
-0.149511
-0.164536
0.090641
0.119966
0.040798
0.103694
0.045735
-0.022824
0.048391
0.101582
-0.073120
-0.077296
-0.004120
0.177509
0.185413
0.011978
-0.146404
-0.084607
-0.235312
-0.973346
0.183946
-0.028932
-0.045219
-0.021134
0.074033
-0.093572
-0.101076
-0.150519
-0.174497
-0.423299
-0.376043
-0.333023
-0.253547
-0.262425
-0.160231
-0.185647
-0.093816
0.081045
-0.021644
0.091605
0.037116
-0.033778
-0.013002
0.085728
0.030191
-0.019236
-0.061552
0.013270
-0.060119
0.001845
0.019453
0.113781
0.124751
-0.023388
-0.067320
-0.027180
0.048815
0.020849
0.017574
-0.037413
0.092814
0.166821
0.015754
0.124528
-0.013502
0.142188
0.081591
0.054012
0.217661
0.245607
0.360621
0.289288
0.091066
0.234691
0.290262
0.035273
-0.152430
0.168882
0.686707
-1.062363
0.067219
-0.450764
-0.057606
0.254713
0.012662
-0.093689
-0.110134
-0.058593
0.133854
0.023462
-0.152327
-0.096342
0.133389
0.147868
-0.061762
-0.125169
0.042660
-0.054212
0.057660
-0.077328
0.114437
0.044630
-0.200818
-0.131922
0.122971
0.118466
0.000665
-0.172907
-0.238147
0.338693
0.183891
-0.113850
-0.245755
0.004316
0.360391
0.042141
-0.346551
-0.042689
0.179069
0.102235
-0.135799
0.107448
0.108391
-0.143739
-0.288476
0.203056
0.895199
0.305148
-0.923509
-1.377093
-0.251279
1.694845
2.604403
0.699781
-2.332926
-2.693712
0.599641
2.767361
0.643993
-1.291906
0.105448
0.287915
-0.080275
-0.084593
-0.087842
0.016183
-0.036486
0.028060
0.145508
0.072296
0.081449
0.070852
0.224188
0.130604
-0.177447
-0.328365
-0.437816
-0.194319
-0.005761
0.322497
0.391881
0.476007
0.264693
0.000243
-0.340625
-0.509085
-0.226560
0.076225
0.310092
0.332877
0.391521
0.021846
-0.178773
-0.388274
-0.232265
-0.043710
0.211019
0.238994
0.324713
0.153445
-0.118370
-0.262994
-0.597338
-0.220015
0.063158
0.489338
0.389421
0.287539
-0.056342
-0.147696
-0.420115
-0.473965
-0.390286
-0.210207
0.062441
0.190743
0.099629
-0.050296
-0.189995
0.012547
-0.243951
0.420256
0.163328
-0.058155
-0.010266
-0.044778
-0.053601
-0.037060
0.127359
0.294773
0.163795
0.093093
0.103636
0.080881
0.107211
-0.108538
-0.297999
-0.393975
-0.555701
-0.552843
-0.307218
-0.232344
-0.000231
0.305465
0.573618
0.668984
0.662499
0.599586
0.402866
0.039156
-0.212485
0.046511
-0.012884
-0.196324
-0.466713
-0.068308
0.305038
-0.114570
-0.755800
-0.641725
-0.159228
-0.126255
-0.364844
-0.269815
0.063088
0.234338
-0.163494
-0.047828
0.045865
0.183384
-0.003054
-0.160827
-0.120494
-0.153157
0.050570
0.038187
0.059862
0.090163
0.293627
0.344008
0.099854
0.287343
0.073708
-0.016211
0.028175
0.049328
0.015336
0.084791
0.026871
0.008133
0.125381
0.073880
0.205845
-0.030303
0.016661
-0.002904
-0.008745
-0.021531
-0.072065
-0.006107
0.069997
0.172797
0.049170
-0.027047
-0.189156
-0.388594
-0.415232
-0.477925
-0.224234
-0.176378
-0.045310
0.170971
0.082314
0.120187
-0.058974
-0.033181
-0.090856
-0.136136
0.034990
0.125556
0.251271
0.195425
0.143922
0.156795
0.081570
-0.028721
0.025268
0.106853
0.261941
0.293849
0.461761
0.278396
0.220845
0.234617
-0.058508
-0.220643
-0.454886
-0.341416
0.040723
-0.705773
-0.326794
0.023435
0.097605
0.002660
-0.117416
-0.049535
0.047948
0.053537
0.071440
-0.013929
-0.000658
-0.116624
-0.117982
0.082332
0.058754
0.121828
-0.115648
-0.076869
-0.071137
-0.085620
0.083100
-0.022013
-0.173213
-0.064818
-0.201248
0.010085
0.165910
0.090797
0.058856
-0.133650
-0.021948
-0.239292
-0.005854
-0.196294
0.673035
0.230467
-0.223712
-0.042160
0.181018
-0.215987
-0.483406
0.570687
0.050443
-0.422597
-0.614165
0.032050
0.318004
-0.210665
-0.398064
0.262242
0.812618
0.161000
-0.695801
-0.811525
-0.406447
0.137126
0.599555
0.409422
0.108695
1.162883
-0.406821
-0.183261
0.037697
0.200263
-0.014762
-0.000109
-0.154107
-0.114411
-0.052806
0.049167
0.061224
-0.182903
-0.096262
0.075355
-0.027092
-0.047510
-0.145140
-0.107154
-0.087154
0.063483
-0.048014
-0.193245
-0.038282
0.027109
-0.165414
-0.063857
0.164744
0.002315
-0.492175
-0.136081
0.423766
-0.353612
-0.239850
-0.235619
0.807805
-0.483385
-1.135443
0.230921
0.930562
-0.309199
-1.319324
0.252915
0.723782
-0.111780
-0.986112
-0.273431
0.701987
0.364365
-0.432012
-0.269892
0.273813
0.526681
0.094420
-0.140311
-0.006105
0.737486
1.167695
0.501984
-0.671350
1.042396
0.212236
0.200272
0.214741
0.048582
0.072413
-0.046221
0.024758
0.180372
0.121164
0.135478
0.035312
0.039764
0.103769
-0.025424
0.074204
0.012168
-0.002250
0.089471
0.087066
0.074188
0.073638
0.067600
0.025192
-0.081322
0.065715
0.142576
0.087725
0.076590
0.128693
0.191785
0.101480
0.072211
0.065069
-0.023832
0.008145
0.021053
0.054445
-0.063967
-0.061026
-0.098258
-0.106566
-0.035736
-0.025792
0.044563
0.126725
0.135533
0.076473
0.006539
0.083687
-0.008474
-0.046524
-0.170269
0.002402
-0.110871
-0.235485
-0.348392
-0.243028
-0.389660
-0.506249
-0.072414
0.830685
-0.603397
-0.090827
0.337922
0.203696
0.031896
0.008649
0.282954
0.225302
-0.003808
-0.034394
0.135321
0.132079
0.102766
-0.002214
0.165351
0.094254
0.180625
0.104817
0.126526
0.151807
0.010173
0.086088
0.051821
0.093697
0.032538
0.102122
0.072018
-0.060692
0.076284
0.137004
0.015110
-0.023758
0.013194
0.019148
-0.040048
0.053926
0.087798
-0.003151
0.309701
0.251346
-0.170375
-0.272465
0.108853
0.416914
0.340416
-0.216060
-0.467101
0.018592
0.700989
0.211264
-0.645660
-1.135007
-0.972103
-0.848121
-0.301255
0.437331
0.712627
0.128715
-0.915259
-0.448181
0.218087
0.168043
0.061532
0.037980
0.073303
0.079714
0.088307
0.110306
-0.001082
0.129734
0.017825
0.197054
0.073546
-0.049800
-0.128157
-0.000733
-0.015510
-0.075457
-0.179217
-0.185516
-0.321533
-0.320283
-0.370195
-0.520007
-0.441840
-0.455012
-0.258387
-0.117930
-0.207794
0.016409
-0.011768
-0.051414
0.043413
-0.044345
0.191013
0.238325
0.015377
0.024278
-0.005362
0.048023
0.100452
-0.006600
0.176615
0.238148
0.128749
0.017902
-0.003747
0.035432
0.212640
0.313981
0.393622
0.243073
0.360165
0.328470
-0.103282
-0.538712
0.158042
1.083012
-0.896105
-0.006126
0.092319
-0.028991
0.118482
-0.027568
0.008554
-0.010200
0.038486
0.193299
0.089892
0.264992
0.084642
0.158735
0.125091
0.201712
0.143044
0.142298
0.187362
0.046193
0.052296
0.056954
-0.039302
-0.062605
-0.243210
-0.130862
-0.199301
-0.179857
-0.174216
-0.107023
-0.144106
-0.044087
-0.028092
-0.074039
-0.096713
-0.004591
0.084570
-0.011077
0.073481
0.007343
-0.075386
-0.064788
-0.012608
0.007509
0.041148
0.036818
0.194753
0.095036
0.085120
0.131566
-0.043945
-0.194001
-0.249642
-0.298273
-0.312408
-0.501078
-0.351887
0.062812
0.148715
0.050830
0.450814
-0.079227
0.111073
-0.069702
-0.145863
-0.040610
0.108716
0.238597
-0.104375
-0.112977
-0.040115
0.008128
-0.002104
-0.031044
0.084094
0.026081
-0.089389
-0.072399
0.038720
0.106837
-0.049904
-0.008578
-0.084778
0.056073
0.096818
0.005786
-0.204416
0.017460
0.101035
0.167790
-0.262804
-0.134549
0.128752
0.222618
-0.079419
-0.161284
0.048760
-0.046501
-0.050337
-0.025755
0.155904
0.227280
-0.315708
-0.128584
0.218412
0.170274
-0.240804
-0.602013
-0.352655
0.543920
1.065981
1.396567
0.813446
-1.146982
-2.967573
-2.162266
1.447766
3.903821
1.568153
-2.828150
-0.730091
-0.029787
0.098693
0.054688
0.015524
0.023418
0.064446
0.077575
0.032402
-0.032898
-0.031249
-0.047468
0.051365
0.018745
-0.062070
0.061268
0.024130
0.267273
0.140205
0.050191
-0.003695
-0.079643
-0.342231
-0.340966
-0.453561
-0.349050
-0.246991
-0.082792
0.185174
0.188918
0.208862
0.021986
0.030711
-0.093261
-0.206225
-0.200342
0.004133
0.070994
0.027417
0.059133
-0.022896
-0.107056
-0.195711
-0.135266
-0.134473
0.047520
0.154004
0.213659
0.225251
0.195818
0.161978
0.026914
0.066767
-0.036118
0.044797
0.020140
0.058412
-0.106305
-0.167073
0.016540
-0.498422
0.129780
-0.033114
0.033045
0.083948
0.137434
0.023545
0.068447
0.080662
0.089649
0.028418
0.122794
0.070349
-0.006009
0.054235
0.089471
0.036404
-0.036970
-0.030825
0.012492
0.056301
-0.017016
0.132226
-0.017213
0.133230
0.089561
-0.017804
0.082025
0.080808
0.031615
-0.009258
-0.062560
0.001710
0.045227
0.033978
-0.044553
0.059812
-0.061183
0.008643
-0.068823
0.041638
-0.047957
-0.097560
-0.068334
0.053978
-0.039076
0.024096
-0.096317
0.025229
-0.011319
-0.081217
-0.036186
-0.137243
-0.053062
-0.024940
-0.073158
-0.188150
-0.142067
-0.236537
-0.123189
0.121572
0.098095
0.319363
0.040040
-0.024730
0.067067
-0.094759
-0.079160
0.026970
0.197306
0.208375
0.090529
0.041653
0.038538
-0.084329
-0.015849
-0.136615
0.095693
0.113165
0.078173
0.004816
-0.091655
0.139846
0.162122
0.049596
0.085190
-0.072196
-0.276747
-0.276043
0.037195
0.072206
0.313047
0.644338
0.756095
0.201943
-0.673692
-0.941716
-0.830807
-0.636118
-0.279198
0.301492
0.649279
0.592359
0.221399
-0.129910
-0.224632
-0.148264
-0.114804
-0.022537
0.256761
0.128917
-0.074438
-0.020834
-0.342927
-0.344317
-0.214503
0.008541
0.070975
0.173286
0.357627
-0.515804
-0.068410
-0.244043
-0.421486
-0.602516
-0.626313
-0.737411
-0.484804
-0.286037
-0.107164
-0.049491
0.173457
0.318967
0.306155
0.346573
0.217089
-0.075103
-0.060366
-0.052324
-0.060335
0.041206
-0.041508
-0.064095
-0.085940
0.041467
0.006996
0.070600
-0.084887
0.193544
0.272074
0.206475
0.109350
0.243481
0.179034
0.086435
-0.153858
0.129947
0.185929
0.011678
-0.094079
-0.023477
0.151548
0.172250
-0.100003
0.015973
0.065677
0.151786
0.036370
0.012741
0.071953
0.241964
0.223595
0.270512
0.075751
0.204411
0.244929
0.196663
0.056112
0.109885
0.427430
-0.362427
-0.314132
0.002619
-0.053406
0.083360
0.203114
0.028568
0.057413
-0.109191
-0.035701
-0.043192
-0.125688
0.051479
0.130259
0.143643
-0.034016
-0.075642
-0.106889
-0.056845
0.064641
-0.043909
-0.008896
-0.044479
-0.005866
0.069148
0.019894
-0.062153
0.123816
0.136788
0.061446
-0.045419
-0.023109
0.161121
0.115560
-0.110400
-0.189605
-0.125716
0.124763
0.080781
-0.070304
-0.009618
0.091786
0.197813
0.047509
-0.065428
0.019948
0.223263
0.263600
0.124979
0.030606
0.222336
0.456843
0.639863
0.482936
0.225513
-0.357506
-0.983475
-0.982527
-0.187676
0.368535
-0.858838
-0.397533
0.211686
0.078388
0.007363
0.029012
0.041133
-0.014845
0.098779
0.003151
0.050757
-0.049003
-0.061615
0.032488
0.064612
0.069049
0.083971
0.026415
0.005089
0.041758
0.030900
0.149271
0.031801
-0.042334
-0.007383
0.101563
0.178005
0.207349
0.279214
0.180455
-0.104704
-0.471352
-0.501898
-0.428754
-0.348301
-0.335932
-0.062187
0.329586
0.310632
0.117175
0.117606
-0.088633
-0.003183
0.062073
0.102576
0.255426
0.237663
0.212631
0.089604
-0.038151
0.212861
0.236244
0.177586
0.124991
0.198219
0.283718
-0.113565
-0.491914
0.175072
0.715455
-1.664920
0.068550
-0.289563
-0.281848
-0.235271
-0.014959
0.016492
0.062742
-0.063571
0.110723
0.131289
0.121744
0.231071
0.375311
0.222163
0.311458
0.278696
0.210280
0.095442
0.062449
0.005028
-0.051717
-0.036189
-0.124347
0.053423
-0.085096
-0.012505
0.033652
-0.052048
-0.106047
0.006322
-0.009772
0.083990
0.040086
-0.045356
0.125221
0.179509
0.127620
0.101368
0.015439
0.015282
-0.002096
-0.181959
-0.019769
-0.061689
0.005258
-0.143055
-0.245171
-0.231448
-0.064925
-0.184444
-0.060712
-0.112738
0.239347
0.096390
-0.232861
-0.196154
-0.021011
0.123176
-0.226031
0.408911
-0.125731
0.067442
-0.204678
-0.139244
0.030937
-0.041985
-0.128037
-0.278840
-0.224519
-0.090014
-0.043971
-0.031260
0.187077
0.092467
0.099223
-0.247897
-0.239755
-0.279759
-0.336862
-0.198311
-0.072297
0.085482
0.107812
0.385770
0.669251
0.542480
0.564292
0.489533
0.559703
-0.010069
-0.394141
-0.464853
-0.565712
-0.525314
-0.606001
-0.418798
-0.328511
-0.406583
-0.547101
-0.464053
-0.274929
-0.331759
-0.023661
0.032824
0.096044
0.233196
0.306398
0.693122
0.784375
0.510623
0.344919
0.198748
0.097424
0.080178
0.072959
-0.050850
-0.203986
0.156938
0.442555
0.370741
-0.279027
0.311166
0.260239
0.237475
0.161799
0.309756
0.295961
0.190514
0.013009
-0.051720
-0.174772
-0.292179
-0.362989
-0.363273
-0.342825
-0.307614
-0.256285
0.030611
0.084097
0.164460
0.162679
0.206735
0.032882
0.051440
-0.069298
-0.080907
-0.178070
-0.153157
0.066130
-0.140956
-0.233240
-0.175829
-0.024822
-0.017486
-0.402590
-0.281608
-0.045188
-0.101490
-0.096060
-0.100262
0.099930
0.059786
0.082268
0.004289
0.002440
-0.137208
-0.145710
-0.040422
0.026184
0.115981
0.163162
0.076194
0.123767
0.213952
0.435669
0.180729
-0.052896
0.236645
0.807277
-0.412100
-0.065356
0.718769
0.205133
-0.050536
-0.003560
0.042881
-0.138022
-0.060751
-0.047211
0.027836
0.122175
0.072769
0.174923
-0.027841
0.015508
-0.000304
0.087311
0.103110
0.067373
0.039690
0.023608
-0.012436
-0.149012
-0.016710
0.087648
0.385073
0.450924
0.453709
-0.248946
-0.805626
-1.096566
-0.728910
-0.284171
0.089177
0.019002
0.688395
0.934619
0.456896
0.214340
0.279190
0.300157
0.057486
-0.502799
-0.576254
-0.154907
-0.197932
-0.350179
-0.067893
0.111168
-0.284079
-0.529823
-0.597533
-0.233773
0.143956
0.336591
0.507190
0.393137
-0.006648
-0.089744
-0.161421
0.004459
0.078084
0.131276
-0.261018
-0.268009
0.442943
0.388396
-0.149821
-0.607345
-0.001181
0.328884
0.242021
-0.326425
-0.210688
0.213602
0.277236
-0.353285
-0.555161
0.088948
0.609846
0.001937
-0.593687
-0.135956
0.116673
0.029177
0.136491
-0.293331
0.393855
-0.024996
-1.175189
0.692001
0.456099
0.961039
-1.342170
-0.977101
1.886839
0.047536
-1.890885
1.796775
1.213231
-2.324243
-0.533436
0.965353
1.883866
-0.454799
-2.364177
-0.032817
2.120833
0.603841
-1.520132
-0.945056
1.273589
1.268331
-0.867472
-1.060094
0.611091
1.370733
-0.551879
-1.953006
1.320076
-0.206734
0.175603
0.141961
-0.026876
-0.000684
0.085194
0.134872
0.184194
0.197714
0.124904
0.011391
-0.104163
-0.160876
-0.152513
-0.122751
-0.172104
-0.045240
-0.042526
-0.207854
-0.077971
-0.143091
-0.045127
-0.107984
-0.170409
0.140551
0.065811
-0.142450
-0.168610
0.001529
-0.010604
0.038080
-0.015587
-0.138471
-0.104528
0.063308
0.280770
0.218237
0.156916
0.113328
0.057448
0.235862
0.062508
0.057695
0.213862
0.310841
0.206980
0.310931
0.319679
0.480806
0.450975
0.202881
-0.009022
-0.476941
-0.933847
-1.083046
-0.207777
0.620696
0.579117
-0.288840
-0.024885
0.062694
-0.471443
0.347021
0.349897
-0.101543
-0.292035
-0.219631
0.114339
0.360556
0.235047
-0.413177
-0.464537
0.256070
0.592749
-0.071469
-0.739919
-0.316357
0.464154
0.424084
-0.171363
-0.404511
-0.094019
0.214619
-0.322952
0.287604
-0.097036
0.190285
-0.227963
-0.534855
0.127339
1.620917
-1.261034
-1.086978
1.827887
0.166370
-2.164613
0.320991
3.079724
-1.028933
-3.108498
0.860987
3.310558
-0.961154
-2.562451
0.159463
2.551211
0.348246
-2.446988
-0.602866
2.022415
0.906222
-1.254432
-0.759443
0.958280
0.690374
-0.328687
0.037562
-0.012394
-1.210106
0.967708
-0.089117
-0.079675
-0.087975
-0.132210
0.011724
-0.083897
-0.132616
-0.071489
0.014559
0.084984
-0.024356
0.088265
0.042476
0.068917
-0.061826
-0.004328
-0.042829
0.070828
0.048519
0.048045
-0.083265
-0.049406
-0.023677
-0.036713
0.098731
0.101153
0.090495
0.106834
0.018116
0.017968
0.134436
-0.052166
0.030011
-0.033304
-0.036391
0.059722
-0.059204
-0.077020
-0.040624
-0.058567
-0.095319
-0.017587
0.071621
-0.047176
0.109905
0.130025
0.012028
0.018713
-0.074845
-0.060116
0.027521
-0.034975
-0.071425
-0.121529
-0.107181
-0.051421
0.036697
0.037190
0.075516
0.001928
-0.087206
-0.010275
-0.031982
-0.176789
-0.202894
-0.144007
-0.068977
-0.016332
0.008784
0.166741
0.135561
0.041700
0.053688
-0.091901
0.051952
-0.018650
0.024492
0.057315
0.025854
0.105326
-0.031227
-0.022531
0.091692
0.077731
-0.018765
0.096144
0.005757
0.174263
0.144153
0.053417
-0.026755
-0.042939
-0.046894
-0.041325
0.005724
-0.048371
0.086822
0.002712
0.047222
0.031900
-0.041967
-0.041144
0.005662
-0.038955
0.078722
0.142168
-0.007745
0.088832
-0.010803
-0.008458
-0.027231
0.010679
0.052156
-0.079788
0.025519
0.054084
-0.046853
-0.115007
-0.213998
-0.353311
-0.078150
-0.010710
0.025202
-0.011437
0.041937
0.034923
-0.105275
-0.107101
-0.045043
0.044147
0.059062
-0.062994
-0.087552
0.064115
-0.017713
-0.045383
-0.020254
0.107485
0.043570
0.087555
-0.158102
-0.150419
0.102923
0.202020
-0.071855
0.011206
-0.176174
-0.061278
0.017890
-0.032759
0.282109
0.021259
-0.235107
-0.455751
0.242098
0.387764
-0.351624
-0.031128
0.599056
0.139385
-0.942629
1.163665
0.284777
-0.437687
-0.610336
0.376225
1.159144
0.414890
-0.762543
-0.564701
-0.214431
-0.318118
-0.669390
-0.694488
0.073965
0.700433
0.395327
-0.646301
-0.836974
2.266579
-0.248287
0.104771
0.066123
-0.084625
-0.171672
-0.130847
0.014249
0.083233
0.163389
0.039424
-0.027178
-0.123557
-0.101450
-0.187949
-0.122875
-0.200866
-0.207817
-0.330059
-0.308910
-0.281384
-0.217593
-0.107128
-0.142837
-0.050563
-0.127995
-0.068510
0.045416
0.164218
0.057090
0.104069
0.122652
0.100576
0.089203
0.041668
0.232934
0.006991
-0.003613
-0.070766
0.037459
-0.066581
0.124412
0.074066
0.085942
0.156055
0.067342
0.060950
0.178111
0.097716
0.106034
0.157333
0.170872
0.184070
0.279313
0.616337
0.557218
0.035787
-0.580463
0.167422
0.870474
-1.461266
0.874357
-0.187907
0.199752
0.254693
0.072648
-0.166640
0.023097
-0.020459
-0.019279
-0.007159
0.194618
0.078564
0.149286
0.184150
0.098755
0.001867
-0.150747
0.079573
0.128457
0.175332
0.060913
0.172963
0.133106
0.032539
0.086417
-0.006996
0.081379
0.011942
0.075835
0.029811
0.083952
0.252277
0.212980
0.139880
0.144379
0.138810
0.096594
0.164185
0.013845
-0.058515
-0.145165
-0.175179
-0.022154
-0.035638
-0.005487
-0.210917
-0.251363
-0.562231
-0.723612
-0.610387
-0.581237
-0.482659
-0.036770
0.113499
-0.067547
-0.277844
-0.278151
-0.273267
-0.121633
0.692239
0.059643
-0.126830
-0.140193
0.002765
0.057402
-0.005048
-0.051648
-0.109809
-0.024441
0.040534
0.078209
0.057616
-0.084106
-0.126339
-0.158462
0.016758
0.036095
-0.091612
-0.052455
-0.074160
0.012599
-0.031175
-0.071309
-0.025861
-0.037995
0.040099
0.102668
-0.056352
0.017290
-0.107354
-0.071661
-0.000044
-0.050400
-0.021069
-0.022449
-0.220277
-0.082570
0.083826
0.223964
0.016374
-0.191992
-0.036616
-0.139094
-0.301283
-0.376299
-0.557600
-0.520054
-0.394610
-0.203621
0.324800
0.762239
0.731986
0.562294
0.196059
-0.143320
-0.294314
-0.037699
0.193154
0.197666
0.373851
-0.064749
0.312021
-0.084814
0.034952
0.106352
0.080999
0.051548
-0.150817
-0.032674
-0.059642
0.086825
0.033173
0.138687
0.202613
0.093154
0.053508
-0.039541
-0.053525
-0.230363
-0.236154
-0.301101
-0.104504
-0.070759
0.176055
0.254343
0.182739
-0.060713
-0.052260
0.044679
0.035757
0.047585
0.210594
0.077080
-0.094418
-0.314160
-0.130093
0.109088
0.035334
-0.029741
0.337749
0.652238
0.262510
0.508160
0.458069
0.486027
0.120057
-0.288907
-0.509427
-0.475653
-0.495876
-0.390164
-0.048580
-0.019249
0.042352
-0.297242
-0.248944
0.054932
-0.053672
-0.232601
-0.009168
-0.006363
-0.018282
-0.090241
-0.040692
-0.008891
0.052396
0.124265
0.231887
0.006998
-0.051585
-0.325050
-0.353027
-0.572212
-0.537145
-0.386427
-0.159745
0.160939
0.045989
0.039327
-0.007784
0.029216
0.071312
0.136863
0.066928
0.033680
0.022614
-0.140681
0.022051
-0.078049
-0.048643
0.012905
0.050657
0.069828
0.043360
0.048617
0.118381
0.236983
0.152174
0.114723
0.288582
0.091114
0.171098
0.090790
0.048147
-0.035690
0.052989
0.106854
0.046450
0.182662
0.307002
0.177139
0.049458
-0.025261
0.266026
0.395014
0.401609
0.005552
0.134902
0.426356
-1.137742
-0.353180
-0.207288
0.013032
-0.046223
-0.242583
-0.469848
-0.227058
-0.230463
-0.371310
-0.517144
-0.401505
-0.215931
-0.247047
-0.250148
-0.285026
-0.324650
-0.138704
-0.038522
0.111085
0.020983
0.074661
0.004332
-0.116731
0.027854
0.062239
-0.107639
-0.138458
-0.068750
0.192768
-0.043599
-0.014474
0.315905
0.288499
0.169712
-0.062790
0.191890
0.474860
0.331858
0.097251
0.212820
0.388684
0.115229
0.187799
0.191298
0.233211
0.178087
0.004518
0.170602
0.162995
0.141435
0.030439
-0.050311
0.029723
0.115483
0.014031
0.128753
0.128834
0.045712
-0.074585
0.478084
-0.079596
-0.030119
-0.027178
-0.081599
-0.125223
-0.032148
-0.061294
0.028105
0.035685
-0.105298
0.024010
0.031343
-0.085829
-0.059335
0.076624
0.000251
-0.013734
0.071724
0.005934
-0.096253
-0.098966
0.063164
-0.072725
-0.014324
0.000867
-0.092422
-0.004115
0.061344
0.027404
0.053396
-0.108073
0.022692
0.086661
-0.029267
-0.018150
-0.014461
0.167076
0.038996
0.208642
0.172146
0.137249
0.017532
0.049247
0.024845
-0.094812
-0.205899
-0.117928
-0.021048
0.076982
-0.100406
-0.066658
0.074576
0.072478
0.182631
0.073919
0.144132
0.096817
0.035483
0.020184
0.156154
-0.003497
0.061056
0.054434
0.050253
-0.043953
0.010534
0.015820
-0.069239
-0.181082
-0.101726
-0.200655
-0.144108
-0.010670
0.066832
-0.047018
0.015932
0.026272
-0.036235
0.110075
0.046682
0.055881
-0.063345
0.047670
0.001538
-0.022676
0.140562
0.117779
-0.003941
0.011336
-0.098117
-0.083527
-0.064088
-0.035393
-0.045258
0.034846
-0.107040
-0.090368
-0.008933
-0.109728
-0.078590
-0.120559
0.063257
0.063134
-0.045781
0.091351
-0.003314
0.131035
0.090818
-0.047227
0.038258
0.090471
0.116077
0.049026
0.137964
0.125892
0.062889
0.030592
0.037505
0.143091
-0.091143
-0.270566
0.266581
0.055944
-0.024952
0.240919
0.172163
-0.012939
-0.011591
-0.037509
0.082580
0.081563
0.154279
0.120668
0.044521
-0.014771
-0.109653
-0.112515
0.054913
0.132767
0.188767
0.088354
0.038211
0.018052
-0.010176
0.056714
0.200280
0.127789
0.188150
0.030175
-0.297685
-0.351874
-0.139233
0.209425
0.695728
0.780696
0.730138
0.095567
-0.559525
-1.070671
-1.029307
-0.743098
-0.424543
0.220290
0.706587
0.668055
0.309290
0.048885
0.020086
-0.130263
-0.138370
-0.001253
0.034100
-0.190712
-0.164822
-0.094306
-0.107701
-0.277532
-0.249307
0.246472
-0.050566
-0.035891
-0.031044
0.135040
0.101512
-0.045947
-0.034812
-0.160150
-0.171415
-0.027454
-0.001697
-0.053004
-0.179816
-0.108075
-0.058191
-0.182782
-0.072449
-0.121933
-0.186414
-0.081130
-0.098684
0.070770
0.077174
0.169889
0.230945
0.198558
0.081522
0.200187
0.177488
0.137917
-0.042055
0.081460
-0.100850
0.084557
-0.023793
0.088405
0.003160
0.076198
0.054069
0.005997
0.060243
0.098476
0.089302
-0.045747
-0.014660
0.019505
0.043901
-0.126047
0.011130
-0.156615
-0.039814
-0.066580
-0.028227
0.078660
0.071560
-0.018146
0.011189
-0.054014
0.043345
0.041690
-0.008648
-0.228999
0.098581
-0.012648
-0.188147
-0.125322
0.167276
0.068692
-0.131730
-0.126291
-0.000499
0.026715
0.032717
-0.045395
-0.241349
-0.199740
0.096350
0.262579
0.101969
-0.281623
-0.302410
0.352765
0.033764
-0.486238
0.288137
0.308314
-0.356183
-0.440716
0.198888
0.774397
0.408866
-2.342664
1.001850
1.398646
-1.047331
-1.281226
0.677274
1.525203
-1.157712
-1.968060
1.302119
1.733389
-1.314016
-1.567958
0.783564
1.521915
-0.603137
-1.696209
0.124655
1.673427
0.386141
-1.387957
-0.468443
1.170526
0.751538
-0.556193
-0.314378
0.594282
-0.139247
-1.429267
1.893386
-0.025942
0.080516
-0.055690
-0.040860
-0.094200
-0.015196
-0.088691
-0.066622
-0.038617
-0.145368
-0.231376
-0.111983
-0.145411
-0.106347
0.056074
-0.051517
-0.037597
-0.094171
-0.089955
-0.001784
0.124578
0.072742
0.197014
0.177745
0.350476
0.370634
0.155263
0.151161
0.138002
-0.030796
-0.093127
-0.098557
-0.109991
0.071183
0.055226
-0.106278
-0.138081
-0.308013
-0.193931
-0.092542
-0.013203
0.056862
-0.058291
-0.078183
-0.173628
0.011339
-0.071084
0.006021
-0.043914
0.037352
0.019064
0.222057
0.128444
0.302919
0.471716
0.278365
0.003983
-0.015754
0.329849
-0.457399
0.089355
-0.005792
0.036646
0.059756
0.028682
0.029387
0.044499
0.038764
0.064505
-0.092586
-0.009723
-0.148307
-0.080357
-0.058104
-0.095609
-0.089362
-0.052379
-0.008471
0.000465
0.029955
-0.036621
0.069780
0.073025
0.089357
0.112973
0.195830
0.035759
0.149297
0.116031
0.063807
-0.032122
0.148531
0.040409
-0.121163
-0.133061
-0.254418
-0.243974
-0.250997
-0.055744
-0.006404
-0.024787
0.021125
0.106126
-0.034980
0.114564
0.070903
-0.062103
-0.054189
-0.218129
-0.208889
-0.308508
-0.411240
-0.194196
-0.190919
-0.307977
-0.070946
0.107173
0.289538
0.222952
0.444779
-0.717596
-0.288111
-0.028849
-0.000991
-0.104634
-0.150497
-0.107160
-0.042039
-0.108781
-0.271518
-0.108291
-0.209243
-0.200912
-0.280682
-0.220708
-0.315933
-0.125612
-0.129399
-0.210524
-0.251810
-0.255612
-0.236992
-0.109989
-0.119343
-0.138244
-0.190356
-0.124007
-0.304698
0.035250
-0.168342
0.031125
0.113319
0.253084
0.107273
-0.393684
-0.084839
0.297671
0.236502
-0.186899
-0.144246
0.269783
0.051043
0.301581
0.111269
0.201422
0.124297
0.107303
0.333772
0.381257
0.357943
0.090024
0.220241
0.343193
0.504527
0.534352
0.503920
0.166651
-0.581310
-0.719879
1.206498
-0.430875
0.154387
0.715828
0.147296
-0.695888
-0.449725
0.537342
0.738483
-0.197969
-0.711874
-0.190475
0.520379
0.391804
-0.256511
-0.511319
-0.040855
0.483436
0.151927
-0.321992
-0.512637
-0.014267
0.501672
0.202149
-0.334980
-0.528782
0.148214
0.093517
-0.032478
0.065722
0.663302
-0.975340
-0.749258
1.500115
0.238519
-0.467293
-0.216612
0.581874
-0.016850
-1.733243
1.689428
1.549614
-1.207973
-1.974153
0.407937
2.078100
0.600379
-1.882147
-1.196291
1.283472
1.562703
-0.785782
-1.507269
0.424939
1.381324
0.102345
-0.798479
0.049803
0.430357
-0.420506
-0.025840
0.074983
-0.046091
0.086637
0.084163
-0.020181
0.003724
0.055326
-0.092403
-0.051774
0.185972
0.177900
0.103680
0.008082
-0.042728
0.081753
0.154915
-0.002356
0.073541
-0.021997
0.075922
0.236375
0.129048
0.163838
-0.015533
-0.166109
0.058208
0.210226
0.111722
0.060266
0.275392
0.041939
-0.326168
-0.401711
-0.354302
-0.310678
-0.423998
-0.639441
-0.415719
-0.225488
-0.260165
-0.189907
-0.104863
-0.165931
-0.067003
0.168192
0.239987
0.127469
0.079067
0.101867
0.223033
0.194203
0.140641
0.311857
0.566685
0.501537
-0.146002
-0.328603
0.345136
0.941538
-1.489034
-0.401202
-0.112101
-0.085185
-0.123325
0.114448
0.155026
0.286038
0.252258
0.288891
0.188272
-0.045517
-0.005066
-0.122769
-0.052570
0.035783
0.062091
0.161048
0.152284
0.206986
0.128487
0.040296
0.089496
-0.044698
-0.107691
-0.174216
-0.152716
-0.214631
-0.016081
-0.182403
-0.004944
-0.042800
0.016453
-0.084445
-0.162626
-0.141100
-0.023582
0.006229
-0.102238
-0.004104
0.157653
0.286552
0.024589
0.119366
0.181334
0.309967
0.193578
0.092528
-0.007465
-0.158827
-0.390687
-0.450381
-0.246004
-0.074463
-0.130453
-0.226689
-0.089610
0.135208
0.118050
-0.171071
0.400974
0.065551
0.141929
0.236548
0.128834
0.065286
-0.016704
0.043347
0.063390
0.123305
0.040405
0.098616
0.127435
0.065795
-0.023775
-0.184284
-0.167553
-0.121172
-0.126155
-0.160074
-0.179074
-0.011217
0.002385
-0.129351
0.023379
0.045185
0.039460
-0.013046
0.018843
0.034929
0.039895
-0.006041
-0.063822
0.014379
0.003020
0.121132
0.093784
0.024935
-0.001106
0.076685
0.264847
0.065904
0.002615
-0.000020
-0.189972
-0.151850
-0.176412
-0.097915
0.116260
0.023622
-0.068341
0.026516
0.137425
0.310188
0.204892
-0.237422
-0.487966
-0.659148
-0.348456
0.266267
0.928174
-0.020528
-0.024279
0.105156
0.042809
0.049318
0.038607
0.014441
0.043871
-0.073721
-0.076176
-0.054392
0.063111
0.196263
0.075008
0.067751
-0.054769
-0.020831
-0.141223
-0.006930
0.005439
0.118883
0.150519
-0.073364
-0.037913
0.002811
0.087798
-0.043208
-0.066865
0.015076
0.063129
0.111986
-0.048171
-0.190720
-0.016725
0.006723
0.014685
0.031646
-0.185630
-0.053385
-0.015224
0.008875
0.036759
-0.057246
-0.085611
0.138124
0.132916
0.245853
0.353623
0.711574
0.623274
0.296570
0.015249
-0.423402
-0.777880
-0.662752
-0.474144
-0.102860
-0.303558
-0.573028
0.600427
0.273675
0.416626
0.333544
0.198115
0.068137
-0.103387
-0.236241
-0.411431
-0.415841
-0.409064
-0.317647
-0.081307
0.100438
0.224963
0.131035
0.194116
0.169924
0.182502
0.110444
-0.085652
-0.134992
-0.193684
-0.330563
-0.261519
-0.162117
-0.119365
-0.132339
-0.175510
-0.041398
-0.162090
-0.042252
0.081373
-0.035055
0.053872
-0.030969
-0.076098
-0.070325
-0.098779
-0.142716
-0.118877
-0.029234
-0.028235
0.016829
0.093720
0.108854
-0.080131
0.035959
-0.014879
0.076800
0.224961
0.126450
0.042762
-0.102841
-0.046482
0.075157
0.003942
-0.029477
0.015680
0.407494
0.353931
0.084293
0.297049
-0.170063
-0.121810
0.038124
0.207822
0.064606
0.076074
0.072747
-0.048293
-0.138035
-0.035864
0.008621
0.027092
0.137462
0.063319
0.110524
0.047437
-0.031757
0.001743
0.154550
0.111839
-0.004561
-0.197214
0.024329
0.032632
0.104645
0.198825
-0.064680
0.017923
0.072419
0.143930
-0.074188
-0.258519
-0.143782
0.239553
0.173978
-0.218152
-0.035847
0.051241
0.138666
-0.009390
0.005634
0.065774
0.267988
-0.054615
-0.010537
0.234223
0.250344
-0.083750
-0.332879
-0.341385
-0.029036
0.201209
0.588729
1.023848
0.798336
-0.008131
-1.281427
-2.283753
weigvec 606
0.356654
-0.578954
-0.248228
-0.651629
0.232681
0.641074
0.778201
0.668644
-0.249032
-0.243389
-0.221745
-0.384613
0.531545
0.066169
-0.666637
0.731418
0.538496
-0.234425
0.562942
-0.084292
-0.124997
0.390770
0.840281
-0.207605
0.018405
0.828766
-0.535914
0.248192
0.211287
0.552673
-0.287737
0.140261
0.632026
0.182426
0.119022
0.047279
-0.284953
0.588456
0.412578
0.774278
0.303693
0.400581
0.113367
0.405778
-0.059794
0.296358
0.656357
-0.655543
0.674889
-0.909815
0.204140
-0.562800
-0.556152
0.537354
-0.569649
0.207758
-0.266137
-0.372637
-0.484238
0.345079
0.301940
-0.581655
0.389569
0.546208
-0.441238
0.054071
-0.301385
-0.198784
0.579386
-0.606709
0.728738
0.111655
0.174145
0.174205
-0.956514
0.419756
-1.113647
-0.005398
-0.308640
-0.332681
-0.480793
0.262370
0.691442
0.365973
-0.885047
0.863218
0.225543
-0.159012
-0.056599
0.147726
-0.789255
-0.133737
0.420885
1.119169
-0.602595
-0.939141
0.500352
-0.167962
0.849755
0.383994
0.014850
-0.112753
-0.293710
-0.150866
0.695392
0.306749
0.336549
-0.239343
0.253090
0.114552
0.015530
-0.000449
0.037344
-0.023120
-0.131022
0.370215
-0.300476
0.424314
0.052090
-0.585091
-0.081104
0.008423
0.249460
-0.685760
-0.114023
0.371987
-0.788642
0.067020
-0.520721
-0.506807
-0.568498
0.031536
0.154195
-0.675579
0.269121
0.358487
0.545517
0.214621
-0.370904
-0.348029
0.576125
-0.293781
-0.392409
-0.008542
-0.896549
-0.078955
-0.330905
-0.544303
-0.214881
-0.333471
0.266846
0.257402
-0.042537
1.103630
1.238903
0.223807
0.103748
0.523436
-0.618060
-0.846991
-0.235195
-0.429075
0.740610
0.110290
1.838621
0.231529
-0.166525
0.476706
0.673383
-0.340320
0.869005
-0.424822
0.276621
0.789275
0.106407
-1.004684
0.718587
-1.343748
-0.072868
0.068880
-0.876997
0.566775
-0.476077
-0.185728
-0.480093
0.488589
0.053813
-0.155062
0.009669
0.255652
-0.145333
-0.863465
0.073762
-0.190817
-1.081830
-0.823096
0.576022
-0.321332
-0.087496
-0.947120
0.364811
0.404147
0.030041
0.160066
0.281436
0.171029
0.241236
0.120264
-0.093669
0.039378
-0.139354
0.353446
0.184212
-0.275267
-0.038471
-0.250891
-0.010604
-0.060476
-0.174807
0.154844
0.187323
0.099092
-0.363727
0.148504
0.024495
-0.336969
-0.094312
0.482470
0.199307
0.253588
-0.147849
0.106816
0.081875
0.042280
-0.098147
0.019662
0.036841
-0.357148
-0.467933
-0.115901
0.236329
-0.905171
0.137701
0.361040
-0.056475
-0.204168
0.188488
0.270675
0.094229
0.106528
0.317302
0.070312
-0.030263
0.352381
-0.728638
-0.390186
0.103877
0.024913
0.081773
-0.491285
1.386943
-0.146640
-0.337694
0.020681
0.008071
-0.311898
0.113683
0.093441
0.014120
-0.067845
-0.834176
-0.126511
0.284509
0.070722
-0.173911
0.070495
0.162204
-0.268682
0.624199
-0.117576
0.157776
-0.363396
-0.297976
-0.154523
-0.559477
0.157109
0.441757
0.004759
0.001825
-0.077219
0.058686
0.159244
0.796857
-0.162156
-0.058278
0.224931
-0.224236
-0.076518
0.267360
0.799615
0.222166
-0.116491
0.401040
-0.539153
0.029168
0.181540
-0.266037
-0.214947
-0.181718
0.375758
0.406658
-0.795831
0.002993
-0.428064
-0.016555
-0.063968
-0.212897
-0.071189
0.044344
0.147333
0.203117
0.299233
0.597769
0.013405
0.082146
-0.250317
-0.050405
0.123925
-0.066250
-0.071488
-0.463008
0.552711
-0.990613
-0.422136
0.127132
0.293965
-0.005234
0.185234
-0.698252
-0.444773
-0.317504
0.422498
-0.244870
-0.001181
-0.102271
0.142470
0.137403
-0.486484
0.480642
0.444484
0.164843
-0.111952
-0.061973
0.350037
0.045322
0.090019
-0.524464
0.346554
0.110194
0.184297
-0.401599
0.039641
0.191393
-0.522031
-0.277548
0.364443
-0.351577
0.255538
0.057190
0.020725
-0.053462
-0.169571
-0.207199
-0.185558
0.204301
-0.287354
0.045979
-0.562817
0.051460
-0.676018
0.186534
0.232199
-0.929668
-0.718485
0.086255
0.137662
0.396441
-0.207818
0.132554
-0.157662
0.022481
0.119615
-0.034046
-0.607130
-0.519221
0.183476
0.414427
-0.216182
-0.487653
0.297194
-0.429237
-0.143261
0.127672
0.201841
0.506692
-0.175427
-0.072996
0.091309
0.311401
-0.297227
-0.089724
-0.213218
0.403950
-0.029669
0.470007
0.466221
-0.413820
0.024836
0.439036
-0.121611
0.112943
0.166991
-0.099690
0.130631
0.546346
-0.031614
-0.082863
-0.471113
0.558860
0.180696
0.483478
0.692209
0.517791
-0.379180
0.012582
0.181941
-0.443810
0.188292
0.161635
0.438466
0.183828
-0.161696
-0.074732
-0.814674
0.382927
-0.107919
-0.183364
0.568205
0.451283
-0.113604
-0.450549
0.259301
-0.028471
0.158873
0.139202
-0.453614
0.439330
-1.056124
0.544801
0.226170
0.378992
-0.570143
-1.318234
-0.675886
0.564680
0.340263
-0.635988
-1.002473
0.416677
-0.295832
0.503218
0.317243
0.899019
0.381420
-0.098319
0.087200
0.441939
0.232689
-1.005535
-0.222264
-1.024345
-0.088521
-0.030655
0.395780
0.569643
-0.009683
-0.272990
0.296043
0.278476
0.133459
0.248937
0.307121
0.341949
-0.280358
-1.145013
0.603671
-0.551938
-0.350149
-0.666844
0.050719
0.070153
-0.178257
-0.904789
0.309274
0.290400
-0.473995
0.848233
0.038089
0.124573
-0.779908
-0.647322
-0.848557
-1.159291
0.590269
-0.175710
-0.406530
0.506916
-0.210587
0.425753
-0.310875
-0.199182
-0.818722
-0.202207
-0.195953
-0.588724
0.030126
-0.646503
0.455636
1.170856
-0.874157
-0.419309
-0.194801
-0.256105
-0.437740
1.387536
0.617175
-0.768290
0.187115
-0.812564
-0.721874
0.080546
0.944741
0.324207
-0.684776
0.593672
-0.608353
-0.284330
0.046797
-0.021846
-0.043647
-0.668715
-0.134090
0.197023
-0.227945
0.252560
-0.898338
0.583446
-0.343716
0.337076
-0.678046
-0.603112
-0.582240
2.291501
1.096085
0.446261
0.468798
-0.158655
-0.243711
-0.465946
-0.345870
0.122912
-0.666385
-0.547894
-0.274451
-0.449203
-0.440448
-0.608038
-1.023524
-0.767076
3.464167
-0.566325
3.460704
-0.169978
0.053534
2.199416
0.520455
0.461894
0.289378
-0.753173
-0.050187
-0.932793
0.134079
0.086894
-0.764309
0.207326
2.675922
0.160880
0.249142
-0.307286
2.478708
0.862163
-0.728079
0.152109
0.716292
-0.860843
-1.256411
biasvec 101
-4.303475
-4.396080
-3.934102
-4.319226
-5.706555
-3.610492
-3.425409
-5.346478
-4.491742
-4.008706
-4.147086
-4.275202
-4.007916
-3.932634
-5.775364
-4.858284
-5.082829
-4.133650
-4.495559
-4.552606
-4.168500
-4.387814
-4.707530
-5.446366
-4.707862
-2.996715
-4.554905
-2.269246
-4.005401
-4.881080
-5.060123
-4.770033
-4.980271
-5.131925
-4.599607
-5.232159
-5.551737
-4.986598
-4.796597
-3.762054
-2.563293
-4.161965
-4.053868
-3.352545
-4.039046
-4.829541
-5.053139
-4.278543
-4.498781
-4.267440
-5.716232
-4.606119
-5.474318
-3.440740
-4.789973
-4.804531
-4.439043
-6.105067
-7.757491
-4.445943
-5.626436
-5.421100
-4.470787
-2.829957
-4.143370
-3.910054
-4.431699
-4.426060
-5.202753
-4.818056
-4.570538
-4.643177
-5.538071
-5.179254
-4.065168
-4.733310
-3.691981
-3.962746
-3.965495
-5.673528
-5.672479
-4.168728
-4.209885
-4.510245
-5.063358
-6.150734
-3.912052
-4.048028
-4.357045
-4.011129
-4.167623
-4.406843
-4.139484
-6.481927
-3.844805
-5.329591
-4.765652
-4.202826
-5.363012
-4.478002
-4.701998
biasvec 6
-4.743923
-7.023005
-3.151886
-4.151837
-2.918976
-2.042816
