30 101 6
weigvec 3030
-0.408688
-0.044802
-0.038471
0.138064
0.089716
0.102516
0.236321
0.253820
0.332657
0.265494
0.223550
-0.056354
-0.544303
-0.573389
-0.240873
0.154234
0.103506
-0.180720
-0.283934
-0.245313
0.006066
0.081008
-0.047163
0.040400
0.230304
0.534157
0.395499
0.077587
0.028248
-0.414326
0.295888
0.146458
0.268125
0.085915
-0.022933
0.149889
-0.070255
-0.083942
-0.117733
-0.161132
-0.037031
0.061419
-0.035272
-0.140118
-0.242265
-0.103613
-0.239105
-0.067138
-0.133178
-0.239458
-0.042981
-0.057779
0.144502
0.238145
0.190224
0.299479
0.192272
0.072807
-0.069261
-0.267833
-0.194149
0.159111
0.095223
0.041263
-0.283895
-0.187300
-0.238443
-0.232008
-0.189925
0.068870
0.000536
0.197339
0.242469
0.027617
0.104633
-0.024223
0.016923
0.092441
0.067746
0.247365
0.324970
0.410782
0.230421
0.298064
0.625612
0.329463
-0.316413
-0.384173
-0.300219
-0.430097
0.046848
0.124378
0.205322
0.191008
0.152306
0.091126
0.029956
-0.083959
-0.073843
0.007438
0.048417
0.024989
0.063767
-0.002345
0.028079
-0.042838
-0.044809
-0.199197
-0.187461
-0.159811
0.119907
0.197931
0.100956
-0.127631
-0.359799
-0.544544
-0.289074
-0.081750
0.152363
0.130460
0.283050
0.162742
-0.155139
-0.353630
-0.157942
0.125206
0.291304
0.217899
0.246002
0.035715
-0.297042
-0.614734
-0.268226
0.143303
0.268557
0.162480
0.127375
0.021629
-0.235908
-0.295868
0.055619
0.282370
0.211463
0.243862
0.145705
0.183021
0.058901
0.031026
-0.046119
-0.125648
0.005281
0.051266
0.114588
0.037118
0.078098
-0.042757
0.054354
-0.043511
0.088175
0.045206
0.038785
0.178259
0.134553
0.015294
-0.027039
0.089380
0.079348
0.073838
0.015503
0.065876
0.039244
-0.133873
-0.026145
0.101898
0.062266
0.185537
0.073753
-0.160859
-0.442391
-0.213816
-0.075491
-0.016704
0.121403
0.170889
0.110981
-0.071422
0.031724
0.039485
-0.080117
-0.006699
-0.215932
-0.239796
0.057759
0.193498
0.245384
0.110246
0.005976
-0.128575
-0.332763
-0.362489
-0.213544
-0.000460
-0.016198
0.037400
0.052503
0.145143
0.059464
0.074624
0.049016
-0.070679
-0.106766
-0.083347
-0.044657
0.085782
-0.182972
-0.110697
-0.226624
-0.237496
-0.344681
-0.104148
0.072248
0.155156
0.193726
0.250179
0.143873
0.224022
0.082334
-0.137708
-0.224861
-0.128173
0.043358
0.120593
0.118912
0.124181
0.276242
0.432232
0.299411
-0.003983
-0.033901
-0.424677
-0.004725
-0.064257
0.027942
-0.096605
0.087756
0.133877
0.163765
0.081094
-0.073431
-0.094376
0.017461
-0.076656
0.002573
-0.046211
0.067463
0.148010
0.088121
0.068485
0.008638
-0.113528
-0.162901
-0.058169
-0.116959
0.006136
-0.035059
0.080229
0.080141
0.039944
0.046910
-0.014189
0.009170
0.183341
0.238799
0.202477
-0.066315
-0.193483
-0.209828
-0.241287
-0.557827
-0.719021
-0.607094
-0.377179
-0.203558
0.085088
-0.020561
0.099742
0.185282
0.259208
0.176910
0.072150
0.220440
0.364108
0.122573
0.237463
0.261596
0.224076
0.306965
0.144387
0.216116
-0.562636
0.046111
0.070761
0.057872
0.070300
0.068646
0.102476
-0.015262
0.054117
0.034955
0.036624
-0.014623
-0.050295
-0.030129
-0.033430
-0.010348
0.009331
0.001634
-0.007028
0.045724
0.073233
0.012197
-0.158643
-0.034050
-0.093007
-0.105887
-0.102595
-0.069055
-0.031401
-0.072608
0.099832
0.096645
0.162862
0.281869
0.171481
0.019586
-0.131696
-0.053739
0.132930
0.053839
-0.020886
-0.265658
-0.221163
-0.173161
0.060559
0.190849
0.172755
-0.017073
-0.012065
-0.198238
-0.243836
-0.309146
-0.248402
-0.131027
0.088746
0.084131
0.049155
0.075347
0.025910
0.029970
0.078171
-0.195592
-0.018305
-0.020770
-0.031213
-0.081144
-0.079738
-0.299668
-0.317749
-0.133683
-0.199422
0.003799
0.015295
0.157077
0.128269
-0.064434
0.035239
0.103367
0.126847
0.013713
0.064298
-0.064526
-0.027079
-0.017752
-0.007370
0.123547
0.221737
0.111956
0.021701
0.029815
0.147036
-0.188941
0.032538
0.102474
-0.046340
-0.047820
-0.059517
0.022767
-0.039948
-0.089629
0.051901
0.030085
-0.078561
-0.159580
-0.050327
-0.162811
-0.414475
0.038918
-0.096413
-0.665982
-0.085988
1.046113
-0.681628
-0.795891
-0.241183
-0.439909
-0.248870
0.452064
0.407196
0.136151
1.214820
-2.017676
-1.323198
-0.685382
-0.756504
-0.871295
-0.688348
-0.402234
-0.215855
-0.213684
-0.017617
0.166680
0.501271
0.852715
0.336593
-0.018477
-0.163757
0.157079
0.368192
0.335930
0.545229
0.451337
0.681961
0.551787
0.280180
0.261970
0.294716
0.381093
0.446633
0.381264
0.675780
-0.060074
-0.015882
0.015637
-0.015394
-0.049644
-0.038231
-0.100351
-0.042184
0.052373
0.068546
-0.096838
0.013110
0.029996
0.224902
0.483188
0.443642
0.327870
0.117135
-0.057873
-0.076005
-0.036612
-0.004467
-0.169005
-0.561840
-0.601351
-0.161933
-0.144475
0.231641
-0.112499
0.087887
-0.092407
0.011303
-0.120112
-0.075764
-0.046858
-0.048936
0.115189
-0.008761
-0.038514
0.042477
-0.118696
-0.001632
0.080047
0.029881
0.132696
0.008865
0.030188
0.065976
-0.111035
-0.081278
-0.120687
-0.020333
0.007108
0.002004
0.095715
0.187032
0.070016
0.024122
-0.050996
-0.084225
0.188819
0.086523
0.140965
-0.012544
0.034526
0.260437
0.215543
0.181384
-0.086669
-0.186612
-0.064390
-0.101512
-0.075992
-0.115113
-0.203237
-0.093726
0.000738
-0.043142
-0.087601
0.008538
-0.202741
-0.082244
0.129772
0.074238
0.119481
0.168485
0.265612
0.136922
-0.015580
-0.112451
0.130552
-0.010456
0.029302
0.045033
0.022193
0.137192
-0.018857
0.049583
0.007162
0.059537
-0.022984
0.032278
-0.054708
0.047207
0.063553
-0.106524
0.083796
-0.083356
0.017607
-0.040054
-0.110869
-0.178010
-0.126665
-0.103854
-0.026963
-0.106623
0.010042
-0.121012
0.013537
0.058080
-0.000313
-0.054612
0.078551
-0.045508
-0.048504
0.099448
0.119237
-0.091206
0.058908
-0.069321
-0.040995
0.066054
-0.050836
0.071742
0.018477
0.019818
0.004198
0.001448
0.103544
0.055832
0.043260
0.052334
0.036718
-0.146767
-0.034729
0.064037
-0.034773
-0.210262
-0.191625
0.057507
0.076213
0.015165
0.019992
0.061276
-0.082682
-0.093533
-0.157992
-0.084527
0.090394
0.077306
0.146185
0.132100
0.087282
-0.011006
0.105317
-0.036171
0.063378
0.070010
-0.009487
-0.000546
0.006299
0.034627
0.015129
-0.148576
-0.056164
0.032095
-0.118320
-0.143366
-0.134788
0.054407
-0.023597
0.214700
0.165689
0.007252
-0.091715
-0.196275
-0.032073
0.098288
0.337483
0.221767
-0.016134
-0.362734
-0.274585
0.089806
0.411275
0.407537
0.381560
0.059608
-0.414755
-0.885247
-0.400674
0.135059
0.132817
0.108854
-0.082651
0.069248
0.137731
0.118650
-0.034740
-0.103274
-0.291116
-0.127904
-0.154945
-0.141125
-0.196671
-0.013195
0.030875
0.023256
0.122127
0.151211
0.033721
0.145330
0.284784
0.167359
-0.199355
-0.366737
-0.290127
-0.117661
0.213908
0.066811
-0.071519
-0.004615
0.115913
0.164300
0.439160
0.519981
0.086060
-0.138959
-0.125369
-0.009954
0.028208
-0.059405
0.006372
0.128484
0.093507
0.217242
0.095933
-0.042494
0.014557
-0.068948
-0.040404
-0.008816
-0.095916
-0.012863
-0.031912
0.070029
0.077174
0.022906
0.137051
-0.100067
-0.365040
-0.566504
-0.220933
0.061248
0.588292
-0.493293
-1.171361
0.162282
0.729210
0.802626
0.016360
0.051462
0.069118
0.022079
-0.034433
0.086923
-0.106700
-0.089004
-0.029356
-0.075063
0.041547
0.066255
0.057760
0.018368
0.005907
-0.009166
0.096830
0.009438
0.007603
0.018173
0.002037
-0.106538
0.144151
0.122721
0.061678
0.145370
-0.020113
-0.229226
-0.202867
-0.188353
-0.008321
0.114590
0.124706
-0.005978
0.086110
-0.002794
0.051687
0.123917
-0.117453
-0.175547
0.045154
-0.034156
0.258276
0.102853
-0.125516
-0.180210
-0.112492
0.108552
-0.275707
-0.396360
-0.236512
-0.102660
-0.052161
-0.035141
0.009886
0.379061
0.294656
0.127567
-0.028154
-0.170067
-0.094862
0.011927
-0.049031
0.208557
0.186383
0.132581
0.170304
-0.057461
-0.123786
0.109294
0.013539
0.048948
-0.135089
-0.220632
-0.118202
-0.122236
-0.254991
-0.142079
-0.009840
-0.047461
-0.086868
0.025580
0.175712
0.179014
0.178530
0.229208
0.098930
0.022728
-0.051818
-0.280262
-0.087373
-0.057377
-0.049020
0.077886
0.050160
0.053738
-0.087676
-0.138510
-0.063359
-0.095425
-0.028552
0.140426
0.194279
0.085524
-0.138071
-0.119667
0.046343
-0.106551
-0.036891
-0.066675
-0.023828
0.005380
0.086572
0.074151
0.150407
0.187604
0.122927
-0.025046
-0.016923
-0.135047
0.432990
0.215946
-0.201179
-0.633903
-0.893378
-0.691735
-0.255769
-0.057538
0.124464
-0.090499
-0.018078
-0.145408
0.061457
0.469925
0.618691
0.452988
0.143615
-0.055642
-0.282972
-0.167185
-0.371247
-0.398690
-0.555247
-0.164359
0.265177
0.427034
0.225803
0.271843
0.182125
0.486699
-0.277922
0.210543
0.502271
0.640886
0.409602
-0.165686
-0.782796
-1.178983
-0.609776
0.287121
0.546223
0.341750
0.002299
-0.069014
-0.377451
-0.431522
-0.303125
-0.229875
-0.199750
-0.026094
0.051828
0.120594
0.073092
0.055040
0.058956
0.017368
0.083556
0.202062
0.272747
0.343422
-0.431424
-0.449542
-0.567829
-0.644590
-0.608891
-0.391544
-0.215470
-0.021718
0.377968
0.751608
0.798051
0.681513
0.352494
0.109988
-0.200481
-0.720894
-0.753221
-0.632035
-0.586109
-0.396195
-0.103931
0.111154
0.358233
0.230944
0.630625
0.563484
0.298046
0.336415
0.381570
0.758154
-0.008437
0.102653
0.044296
0.090231
-0.060782
0.085053
-0.012437
-0.038120
-0.094493
-0.092644
-0.047270
0.041839
0.019248
0.061921
-0.012429
0.080291
0.089643
0.101775
0.191112
0.057312
0.001111
-0.164362
-0.170364
-0.105429
0.122460
-0.009927
-0.023727
-0.050696
-0.194849
0.084558
-0.047353
-0.097010
-0.062218
-0.058608
0.023325
0.074177
-0.042148
-0.005540
0.085925
0.104314
0.062533
0.099944
-0.057793
0.067897
0.012490
0.080292
0.070538
0.073740
-0.019391
-0.018950
-0.035364
-0.018913
-0.033024
-0.057937
-0.140424
-0.016048
-0.200503
-0.139240
0.007537
0.137095
0.007344
0.030983
-0.008230
0.014984
-0.029553
0.098981
0.027127
0.089129
-0.099527
-0.077900
0.089365
-0.055168
-0.040845
-0.057643
0.010121
0.074419
-0.077157
0.098014
0.034835
-0.178019
-0.074850
0.149836
0.081447
0.126493
-0.013598
0.169333
-0.074341
-0.207096
-0.150496
0.088506
-0.239197
-0.096060
0.029810
0.004128
-0.064811
-0.046270
-0.029776
-0.151672
-0.054609
-0.050517
-0.033046
-0.068624
-0.027979
-0.013728
-0.265950
-0.141982
-0.176083
0.089434
0.144504
0.007881
-0.917145
0.454803
-0.450511
0.561363
0.001937
-0.669393
-0.406203
-0.044481
0.501006
1.287793
-0.045168
-0.042389
-0.079283
-0.093931
0.101204
-0.082991
-0.102870
0.035106
0.033576
0.053596
-0.048587
-0.064960
-0.034342
-0.019385
-0.042682
-0.017494
0.074813
-0.101096
0.026361
-0.127411
-0.035402
0.018232
0.096763
0.093428
0.012929
0.045177
0.074046
0.085493
-0.108685
-0.145359
-0.010367
-0.056322
0.012466
0.061469
0.035464
-0.082529
0.021010
0.027525
-0.072094
0.073616
-0.065775
-0.055953
0.052740
0.036977
-0.046635
-0.091750
0.054483
-0.115018
-0.023050
0.049818
0.047084
-0.007518
0.064235
0.119893
0.029387
-0.045240
0.041448
0.067625
-0.095251
0.116899
0.011579
0.293877
0.087731
0.000015
0.056823
0.073459
0.184982
0.183598
-0.114173
-0.190430
-0.031868
0.245067
0.260046
0.403651
-0.011361
-0.832757
-1.185177
0.023796
0.749431
0.984742
0.541198
-0.129123
-0.483145
-0.720751
-0.611513
-0.291900
-0.276114
0.283272
0.025121
0.147654
0.056766
-0.064593
-0.082172
0.033743
0.054741
-0.017013
-0.024432
-0.013161
0.074188
-0.027152
0.088561
0.048452
0.031474
-0.015371
-0.042403
0.006235
-0.111158
-0.035995
-0.043117
-0.080020
-0.097065
-0.114013
-0.133195
0.015047
-0.061536
-0.182757
-0.024473
-0.028066
0.125580
0.102688
0.002859
0.400215
0.296924
0.197169
0.059112
0.109444
-0.040659
-0.103820
-0.443294
-0.599806
-0.570794
-0.407527
-0.273966
-0.100938
-0.029058
0.245244
0.428185
0.202548
0.269276
0.339989
0.302728
0.281789
-0.044591
-0.655096
-0.471579
-0.122628
-0.369764
0.303514
0.134582
0.556486
0.093339
-0.109533
-0.010210
-0.043362
-0.018667
0.037342
0.027573
-0.038902
0.029167
-0.006961
-0.078621
-0.052805
-0.029260
0.151156
-0.038960
-0.020299
-0.016366
-0.161337
0.186876
0.384929
0.693231
0.057190
-1.153821
-1.387286
1.028988
1.039271
-0.366271
0.310424
-0.408430
0.024187
-0.010280
0.031931
0.074836
0.004766
-0.005397
0.160715
0.180986
0.034017
0.161205
-0.000854
0.036096
-0.056302
0.040521
0.009850
0.089093
0.037059
0.143907
0.165047
0.064517
0.000084
-0.041496
-0.201352
-0.198797
-0.307368
0.058590
0.027143
-0.323796
-0.248854
0.058806
0.343210
-0.224465
0.059137
-0.057441
-0.016903
-0.131847
0.040372
-0.075024
0.069151
0.082831
-0.043103
0.098498
-0.121912
0.043908
-0.202810
-0.046910
0.012818
-0.040394
0.048402
-0.007462
-0.095638
-0.017609
-0.362361
-0.539036
2.106653
1.468756
-3.976894
1.171258
1.726967
-0.764756
-0.105531
0.104373
-0.036472
0.058019
0.153244
0.026364
0.120587
-0.044299
-0.060664
0.032560
-0.069522
-0.090040
-0.246899
-0.118106
0.087065
0.094907
0.237535
0.097055
0.102621
-0.047478
-0.057829
0.078492
0.260722
0.286054
0.161785
0.006481
-0.119523
-0.124915
-0.129844
-0.044311
-0.167240
-0.028563
-0.105974
-0.133424
-0.187932
-0.275121
-0.227461
-0.070841
0.161003
0.156020
0.178141
0.382597
0.477170
0.457652
0.484273
0.232187
0.047151
-0.033770
0.019661
0.025492
0.075919
0.067300
0.251662
0.040326
-0.352131
-0.654025
-0.394110
-0.338720
-0.264413
0.118370
0.094486
0.038811
0.023347
0.052214
-0.003551
-0.007277
0.130427
0.095794
0.087050
0.193060
0.084601
0.012732
0.082557
-0.026578
0.158271
-0.031811
-0.006621
-0.069852
-0.109972
-0.058025
-0.076843
-0.036668
0.268468
0.445608
0.366148
0.100053
-0.772859
-1.000035
-0.129770
0.089498
0.004703
-0.103000
0.078720
0.055102
0.099484
-0.033404
-0.033259
-0.085350
-0.015638
0.062569
0.005356
-0.091040
0.099967
0.059083
-0.046597
0.028847
-0.017018
-0.008505
-0.037809
-0.144975
-0.102371
0.050610
0.061196
0.022271
0.054853
0.046325
0.050831
0.138681
0.046988
-0.013382
-0.189679
0.036890
-0.067557
-0.013695
-0.081351
0.085490
-0.030531
-0.073500
-0.109700
-0.028771
0.103919
0.015930
-0.011226
-0.048296
0.090196
-0.052080
-0.000052
-0.044866
0.033352
0.112527
-0.117311
-0.105467
0.070784
0.070483
0.057690
0.153159
0.128651
0.034647
-0.040416
-0.195878
-0.119019
-1.124158
-0.533875
-0.409097
-0.013856
0.301098
0.708642
0.877523
0.779047
0.525404
0.195732
-0.481193
-0.940011
-0.983992
-0.458256
-0.352804
-0.357975
-0.234537
-0.010614
-0.006495
0.183382
0.216855
0.247207
0.457528
0.170216
0.247863
-0.043089
0.002332
0.014930
0.130957
0.513875
0.008990
-0.104807
-0.021529
0.031865
0.137246
0.101922
0.186826
0.158261
0.127461
0.096632
-0.014587
-0.063539
0.018304
0.024782
0.038092
-0.041944
0.029389
-0.075321
-0.009472
0.010218
0.035032
-0.113644
-0.136144
-0.343418
-0.412694
-0.139645
0.199747
0.163758
-0.047862
0.159385
-0.250309
0.260460
0.005234
-0.020447
0.296550
0.172795
0.066212
0.106599
-0.111037
-0.313477
-0.241381
-0.406648
-0.431097
-0.350262
0.124022
0.239868
-0.084485
-0.055452
0.063782
0.268795
0.273262
-0.012118
0.045828
0.482993
0.748063
1.282366
-0.096010
-0.718275
-0.286134
-0.632901
0.983284
0.295001
0.501742
0.276576
0.395489
0.065811
0.222793
-0.005748
0.173904
0.059763
0.193291
0.160609
0.125140
0.038000
-0.026749
0.006150
-0.031862
0.071629
0.112183
-0.082266
0.164357
-0.151297
-0.287495
-0.467116
-0.386881
-0.311852
-0.514451
-0.324201
-0.184032
-0.613828
0.131588
0.121248
0.006221
0.036294
-0.077712
-0.013001
-0.124879
-0.124696
-0.033771
0.076820
-0.004959
0.087214
0.083085
0.035553
0.059133
0.089497
0.094328
0.060353
-0.032447
0.122663
0.077458
0.045090
-0.190762
-0.114154
-0.164162
0.008998
-0.060217
-0.124878
-0.037296
0.137681
0.168556
0.234440
-0.050582
-0.036279
0.135357
0.086952
0.020676
0.142409
-0.039598
-0.040214
0.028723
0.252593
0.054001
-0.198749
-0.008021
0.187945
0.044422
-0.050342
0.063074
-0.072956
-0.284441
-0.284680
0.618665
1.751560
1.172256
-0.996210
-1.790159
-0.754446
0.161538
0.165304
0.258828
0.120674
0.365200
0.048369
0.187377
0.272067
0.229840
0.357173
0.239430
-0.026342
-0.010580
0.225899
0.227777
0.202843
0.256521
-0.119954
0.038490
0.114612
0.131366
0.313240
0.142244
-0.595933
-0.259190
0.096900
-0.242316
-0.508176
-0.343321
-0.813769
-0.228288
-0.653405
-0.141155
-0.274915
-0.280713
-0.696336
-0.739183
-0.525469
-0.323725
-0.004736
0.211258
0.180957
0.217644
0.190509
0.237511
0.127790
0.118136
0.034328
0.048482
0.158318
0.038668
0.128935
0.210208
-0.045152
0.300391
0.363621
0.319975
0.507559
0.477495
-0.036770
0.277199
-0.853139
0.030524
-0.053605
-0.106055
0.055400
0.075014
-0.060016
0.068831
0.064710
-0.101848
-0.077819
0.073497
0.055698
0.065530
-0.111762
0.001697
0.021552
0.026386
-0.084884
0.088103
-0.070699
-0.095147
0.062255
0.045197
-0.004936
0.112298
0.078316
-0.014445
-0.049896
-0.098630
-0.105112
-0.157495
0.040821
0.014265
0.030159
-0.002748
0.054211
0.101392
0.043393
0.083742
0.019657
0.103101
0.058437
-0.099294
-0.068132
0.003408
-0.051832
0.057195
0.064499
0.048961
0.044261
-0.111906
-0.133008
-0.016054
-0.004152
0.031243
0.222480
0.200101
0.085724
-0.030108
-0.005582
-0.081111
0.040778
0.198991
0.112760
0.068457
0.034593
-0.067451
-0.071661
0.055694
-0.026719
0.099469
0.338400
-0.120656
-0.698228
-0.739995
0.311594
0.786002
1.013348
0.065175
0.228770
-0.206580
-0.628582
-1.403691
-0.565522
0.478885
0.644763
-0.131123
-0.057229
-0.226509
0.480211
-0.042088
0.077678
0.096358
-0.040381
-0.029253
-0.057779
-0.102532
0.083394
0.027189
0.107554
-0.051415
0.039785
0.099685
0.075724
-0.008122
0.053251
-0.006140
-0.109680
-0.106941
-0.038723
0.119942
0.078671
0.034964
-0.006399
-0.125063
-0.112736
-0.198359
0.018576
-0.053690
0.142663
-0.149335
-0.148992
0.042461
0.150662
0.432221
0.483177
0.570457
0.483660
0.353962
0.123797
0.024423
-0.124663
-0.141192
-0.151989
-0.189422
-0.020174
-0.042337
0.119421
0.131143
0.097256
-0.059774
0.145184
0.102057
-0.469073
-0.574311
-0.227442
-0.544044
-0.137921
0.364938
-0.152848
-0.087759
-0.120752
-0.296137
-0.255844
-0.311853
-0.286936
-0.375857
-0.275024
0.139324
0.362881
0.069800
-0.197325
-0.510743
-0.317642
-0.001121
0.250855
0.415467
0.488401
0.382183
0.396722
0.048672
0.103067
-0.057201
-0.226679
-0.459236
-0.124882
0.256689
0.260449
0.179718
0.463240
-0.450638
0.019216
-0.121284
-0.216623
-0.121093
-0.063259
-0.256815
-0.058448
-0.072355
-0.068333
-0.328808
-0.156097
-0.206304
-0.088290
-0.587171
-0.555384
1.450597
-0.930412
0.840178
-1.643165
-0.187354
0.823097
0.669113
-0.063806
-0.960123
0.349178
0.916183
0.419407
0.073672
1.074479
0.043099
-0.082726
-0.095552
0.077160
-0.005022
-0.073949
0.006257
-0.055912
-0.007367
0.002914
-0.117897
0.071289
-0.016688
-0.061295
-0.005948
-0.073831
-0.115318
0.017795
0.152626
-0.113150
-0.040159
-0.169577
0.076941
0.099364
0.108334
-0.021043
0.145254
-0.014502
-0.050053
0.091221
-0.105676
0.150898
-0.039239
-0.005581
0.017811
0.031044
-0.117951
0.064164
0.037024
-0.078705
-0.123309
-0.166294
0.040410
0.163164
0.132174
-0.021144
-0.192643
-0.167263
-0.047988
-0.140115
-0.223299
-0.197131
-0.401955
-0.633615
0.732781
2.773251
-0.038865
-0.644278
0.115594
-0.666523
0.037424
0.056266
-0.000814
-0.057218
-0.080848
0.003616
0.059551
-0.091354
0.006939
-0.060920
-0.028783
-0.037318
-0.033447
0.127524
0.058199
0.132213
0.051387
-0.073175
-0.015226
0.032027
0.144382
0.127197
0.109140
0.024624
-0.114995
-0.250548
-0.090286
-0.098748
0.071462
-0.055898
0.063105
-0.063062
-0.035208
-0.080074
0.048396
0.092504
0.007398
-0.054803
-0.071629
0.055428
0.028422
0.091851
0.076946
-0.018929
-0.100323
-0.049339
-0.072026
-0.057158
0.078989
0.065343
0.052577
0.048180
-0.067926
-0.067706
0.056858
0.081403
-0.073213
0.044657
0.084800
0.124601
0.009178
0.070951
-0.115069
-0.007264
-0.036834
0.172780
0.242719
0.176529
0.108837
0.111807
0.058478
0.031466
-0.124886
0.023423
0.042260
-0.064593
-0.197017
-0.057005
-0.026538
-0.081336
-0.046366
0.011749
0.041121
0.152890
0.205650
0.290536
0.115561
0.062215
-0.029726
-0.054759
-2.018602
-0.662756
-0.629185
-0.773110
-0.696736
-0.516766
-0.451798
-0.332446
-0.180860
0.095024
0.060998
0.251491
0.457181
0.152811
-0.055766
-0.154390
0.041473
0.119983
0.321131
0.309286
0.329187
0.440959
0.335950
0.386460
0.110148
0.515235
0.412943
0.825019
0.627627
1.012425
0.012862
0.017764
-0.124042
0.053406
0.090129
0.011248
0.058544
0.031102
0.104182
-0.024348
-0.152829
-0.078872
0.049097
-0.112484
-0.070802
0.099436
0.119722
0.100775
0.017296
-0.125488
-0.005666
0.100394
0.014966
0.107916
0.178894
0.131022
0.083000
0.004296
-0.050539
-0.095009
-0.144325
0.058592
0.127981
0.065636
-0.035366
0.061107
-0.086596
-0.109259
-0.101471
-0.046940
-0.081612
-0.072044
0.118757
-0.006877
0.067225
-0.095547
-0.007567
0.154728
0.102175
0.164417
-0.044303
-0.215109
-0.070502
-0.067156
0.077792
0.103803
0.068319
-0.124693
-0.042979
0.003032
-0.102019
-0.122296
-0.011857
0.068625
-0.069841
-0.118628
-0.179241
-0.109216
-0.117110
0.002973
-0.048130
-0.159063
-0.156851
-0.057331
-0.203906
0.000308
0.071442
-0.074174
0.018141
0.184969
0.487133
0.560336
0.628955
0.243340
-0.355521
-0.771967
-0.407153
-0.116920
0.099320
-0.081613
-0.023209
0.205865
-0.122170
-0.027663
-0.075988
0.115443
0.257200
0.168085
-0.201114
-0.417978
-0.273138
0.062171
0.520707
0.417869
0.228906
-0.303175
-0.587000
-0.095290
0.168074
0.256413
0.171217
0.478269
0.122633
0.101319
0.102295
0.184634
0.375802
-0.095465
-0.522578
-1.231465
-0.071181
-0.049930
-0.012903
0.041373
-0.041531
-0.064199
-0.025737
0.006978
-0.087716
-0.166367
-0.175570
-0.229303
-0.130410
0.140148
0.127060
0.043610
-0.001127
-0.022585
-0.040881
-0.071403
0.001742
0.038138
-0.013838
0.065612
0.051871
0.048143
0.120250
0.005372
0.083076
-0.122575
0.135700
0.056749
0.175405
0.178092
0.078836
-0.043874
0.035776
0.087591
0.295261
0.446082
0.398480
0.130328
-0.127201
-0.411957
-0.493642
-0.244693
-0.217050
-0.216196
-0.283413
0.061636
0.248865
0.271811
0.153283
-0.360211
-0.907253
-0.336538
0.129237
0.216490
0.121736
0.083139
0.182374
-0.310641
-0.016159
0.049077
0.109929
0.039867
0.083204
-0.012173
-0.110706
-0.129243
0.047886
-0.101873
-0.066410
0.039864
-0.065139
-0.008076
0.135275
-0.052261
-0.049018
-0.123805
0.020162
0.431284
0.556740
-0.969648
-2.176919
0.335397
0.372567
0.169278
0.238842
0.518709
-0.186043
0.034308
-0.117506
-0.013472
-0.086941
-0.193212
-0.026860
-0.083185
-0.143466
-0.156526
-0.069290
-0.169788
-0.021933
-0.200786
0.208704
-0.325902
0.088569
-0.130219
0.175503
-0.474490
0.595881
0.142397
-0.366640
-1.027094
1.059013
1.357304
-1.783561
0.503655
1.079124
-0.189865
1.080424
-0.338208
0.059929
0.304169
0.502455
0.263198
0.293528
0.361470
0.227830
0.166256
0.160230
-0.004840
0.122118
0.049083
-0.113336
-0.154633
-0.249198
-0.198305
-0.358664
-0.221624
-0.232860
-0.462925
0.102328
-0.047927
-0.026189
0.550212
0.066564
-0.350804
0.001566
-1.151902
0.060836
-0.051388
-0.023927
0.060295
-0.112966
-0.034345
-0.033236
0.025895
-0.012867
0.015079
0.060196
0.104614
0.126700
0.068843
-0.171814
-0.211348
-0.161416
-0.136058
0.035027
-0.126927
-0.175273
-0.160457
0.093547
0.035369
0.045315
0.177943
0.144095
0.034249
0.064773
-0.054253
-0.374564
-0.165213
-0.281541
-0.201862
-0.192745
0.004165
-0.026516
0.050506
0.086234
0.231081
0.529328
0.424135
0.213564
0.013638
-0.241959
0.012995
-0.034431
0.077313
-0.053918
-0.262560
-0.498728
-0.464456
-0.193105
-0.096796
0.145063
0.510417
0.427115
0.066912
0.041260
-0.153063
-0.686759
-0.380687
-0.403062
0.098751
0.458277
0.564211
0.208456
-0.117158
-0.537257
-0.821716
-0.522517
0.207885
0.693512
0.820219
0.480961
0.207166
-0.050072
-0.348258
-0.394941
-0.420200
-0.291233
-0.110503
-0.153499
0.025113
0.179841
0.303602
0.157090
0.229702
0.230376
0.489079
-0.093811
-0.045462
-0.218035
0.063550
0.238689
0.283888
0.150453
0.057472
-0.075619
-0.156403
-0.162457
-0.306545
-0.091798
0.027410
0.017125
-0.125169
-0.042300
0.137339
0.207559
0.038728
0.060875
0.268405
0.373283
0.394299
0.531154
-0.040029
-0.278440
-0.267727
-0.145440
-0.267913
-0.051095
0.011461
0.056867
-0.045582
-0.081259
-0.040612
-0.080284
-0.052584
0.014872
-0.063786
0.107028
0.081787
0.013440
-0.035784
-0.102468
0.096378
-0.024556
0.047664
0.080515
0.099480
0.035069
0.079006
-0.042724
-0.054465
-0.038501
-0.053160
0.019232
-0.144363
0.061651
-0.005509
0.007170
-0.063600
0.062892
-0.060276
0.063604
0.043317
-0.068023
-0.007521
-0.026855
-0.070026
-0.067981
0.009332
-0.018799
0.014287
-0.062786
0.002950
-0.051626
0.069708
-0.024322
-0.059914
0.011230
0.060596
0.005553
0.145013
0.025318
-0.010511
0.051806
-0.030746
-0.117978
-0.101435
0.069894
0.038578
0.010729
0.031879
-0.061096
-0.019850
0.036387
0.159399
-0.033406
-0.042393
-0.012781
0.013217
-0.102819
-0.076209
-0.045218
-0.011019
0.043679
-0.043685
-0.075620
-0.060142
-0.206712
-0.056607
0.025839
-0.013517
0.145498
0.172776
0.067250
0.092720
-0.091205
-0.043371
-0.048668
0.044079
-0.092116
-0.169936
-0.237865
-0.120624
0.032287
0.207409
0.201216
0.159479
-0.037369
-0.196480
-0.334091
-0.320214
-0.181305
-0.025801
0.037288
0.090231
0.040613
0.054548
0.023489
0.196855
0.197332
0.241871
0.405932
0.389276
0.142287
-0.158642
-0.363992
-0.341117
-0.072267
0.246831
0.200769
0.000569
-0.264581
-0.378881
-0.241593
-0.150648
-0.192901
0.082344
0.245079
0.372296
0.299071
-0.068366
-0.053192
0.231826
0.251186
0.198569
-0.019051
-0.195567
0.047920
0.223137
0.146434
0.174576
0.249417
0.334903
0.202083
-0.219314
-0.485336
-0.430660
0.082326
-0.073824
-0.016993
-0.040305
0.086138
-0.021751
0.015689
0.036470
0.004460
-0.013342
-0.108307
-0.096599
-0.001647
-0.093916
-0.137637
0.033282
-0.116078
-0.022585
-0.022964
0.026090
-0.068400
-0.207617
-0.022325
-0.002739
0.144236
0.223524
0.102201
0.001907
0.000309
-0.074832
0.052270
-0.069322
0.038794
-0.071765
0.013659
0.082160
0.010853
-0.034402
-0.069623
-0.023124
-0.038463
-0.025900
0.110610
0.041988
-0.106073
0.087858
-0.053167
0.100507
-0.104038
-0.023966
0.043250
-0.028684
-0.037616
0.072041
0.150282
0.058503
0.000294
-0.115258
-0.109970
0.008649
0.018208
-0.006981
-0.009166
-0.017982
-0.006669
0.071738
0.050059
0.027414
-0.028595
0.033939
-0.035744
-0.063020
-0.071774
0.009049
-0.000322
-0.042779
-0.041860
0.008480
0.041660
0.077360
-0.068781
-0.049391
-0.185613
0.015059
0.074177
-0.019652
-0.033645
-0.033764
-0.059182
0.090204
-0.232715
0.052528
-0.208954
0.030690
-0.099216
0.013830
-0.133561
-0.066053
-0.025276
-0.175281
-0.169386
-0.080800
-0.102702
-0.046650
-0.554679
0.618173
-1.437696
0.869374
-0.714688
1.683914
-1.032329
-0.070970
-0.391039
0.053591
0.056755
0.503901
0.349340
0.183141
-1.274846
1.905049
-1.466507
-0.871911
-0.312345
0.038494
0.248876
0.338810
0.298231
-0.091715
0.059385
0.069752
0.042898
-0.053023
0.333723
0.434573
0.022439
-0.110166
-0.029966
0.093183
0.020860
-0.125903
-0.059569
0.190077
0.055779
0.172876
0.412615
0.664817
0.294809
-0.098373
0.142072
-0.536298
0.041801
0.085147
-0.052771
0.022770
0.027493
-0.097929
0.066295
-0.019263
-0.077546
-0.044555
-0.062694
0.025094
-0.053993
0.094862
0.074708
0.085891
-0.062039
-0.129626
-0.083327
-0.119779
0.053129
-0.020702
-0.017893
0.056955
-0.006319
0.041342
0.090803
0.000949
0.084380
-0.019978
-0.129730
0.254211
-0.215897
-0.000625
-0.017913
0.061374
-0.085814
0.048841
-0.092372
0.015563
-0.150544
-0.079542
-0.069838
-0.204675
0.075803
-0.125253
-0.005843
0.029979
-0.169171
-0.043363
0.133999
0.236518
1.146927
0.106038
-2.649359
0.443679
2.246905
-1.184496
-0.162332
0.238573
0.165348
-0.020505
0.091908
0.133461
0.038225
-0.001426
0.013640
0.181352
0.180631
0.209936
0.078713
-0.191308
-0.113185
0.056319
0.255531
0.045283
-0.614710
-1.088023
-0.636946
0.109100
0.151523
-0.074868
-0.198045
0.260014
0.427851
0.330909
0.179788
0.051123
0.193520
-0.686540
-0.127361
0.079307
0.004614
0.140001
0.057965
-0.032828
-0.308099
-0.205230
-0.032474
0.080661
0.256220
0.302509
-0.014732
-0.335277
-0.394384
-0.203151
0.137322
0.301746
0.329820
0.278225
-0.131239
-0.202414
-0.197852
0.109535
0.193948
0.345909
-0.106642
-0.386905
-0.350950
0.230202
0.064696
0.306197
0.092169
0.051244
-0.041423
-0.115167
-0.106445
0.165691
0.160245
0.084231
-0.034187
0.340758
0.190048
-0.712787
-1.108984
-0.581751
-0.027956
0.222909
-0.038132
-0.202234
0.067586
0.381768
-0.066169
0.050686
0.411219
0.347158
0.442614
0.214133
0.118254
-0.779896
0.057832
0.040110
-0.029987
0.044793
0.075699
0.090601
0.081905
-0.084668
-0.038501
-0.000238
0.070831
-0.025828
0.080277
-0.081017
-0.044632
-0.055901
-0.064527
-0.055769
0.081905
0.018160
0.034183
0.081450
-0.006996
0.129454
0.070647
0.088669
0.031566
-0.034754
-0.015573
0.003530
0.380112
0.266953
0.274153
0.260753
0.065056
0.078063
0.174619
0.064655
-0.125357
-0.201208
-0.022925
-0.036210
0.107313
-0.008295
-0.067958
-0.248924
-0.143302
0.011413
-0.001311
-0.057731
-0.493755
-0.637284
-0.221956
0.108430
0.148736
0.340895
0.305600
0.186462
-0.089473
-0.161563
0.030269
-0.038641
0.116141
0.043721
0.150062
0.052364
0.099161
0.068854
-0.011153
-0.028346
0.017984
-0.012740
0.005385
0.026239
0.024593
-0.045107
-0.010303
-0.121619
-0.005878
0.078511
0.010818
-0.110725
-0.275855
-0.184231
-0.058780
0.070220
0.088137
0.064716
0.085712
0.078594
-0.097912
0.031550
-0.085281
-0.033458
-0.154025
0.046050
0.001893
0.003888
0.120721
0.092118
0.025354
-0.013296
0.046744
0.067902
0.064574
-0.055915
0.167647
0.145046
0.107080
0.195607
0.054470
-0.065772
-0.121116
-0.304394
-0.043870
0.138185
-0.092754
0.034136
-0.155941
-0.056149
weigvec 606
-0.093581
-0.295235
-0.193503
0.480321
-0.201912
-0.323771
-0.009952
-0.554911
0.073223
-0.696174
0.121896
0.313743
-0.135498
-0.370342
1.017432
0.691223
-0.129867
-0.177324
0.094668
-0.127319
-0.070605
0.106607
-0.264674
0.773965
-0.332856
-0.274803
-0.427548
-0.232423
0.438456
0.283758
0.195106
0.035574
0.175084
-0.217432
-0.147324
-0.268989
-0.121457
0.684250
0.202803
0.596392
1.159259
0.147254
0.962770
-0.090420
0.493179
0.994106
-0.195164
-0.262447
0.055291
0.476263
-0.667054
0.159805
0.130556
0.602991
-0.451025
-1.125858
-0.199038
0.021430
0.917874
0.069363
0.426740
0.629943
-0.902066
-0.088575
0.973255
0.127353
0.065049
-0.103084
-0.252158
-0.208513
0.036375
0.554334
-0.662431
-0.147738
0.787876
0.973073
0.609283
-0.497492
-0.035565
0.676716
0.374437
0.095570
0.035450
-0.224744
-0.102055
-0.317637
-0.651044
-0.069157
-0.151118
0.071552
-0.409535
-0.637447
-0.024913
0.978115
-0.661410
-0.078929
-0.649916
-0.128987
0.604516
0.277470
0.096361
-0.065990
0.102413
0.313240
-0.196677
0.129955
0.004790
0.097874
0.115864
-0.050170
1.078208
-0.172206
-0.073600
-0.109342
-0.614204
0.184596
-0.250778
-0.006023
-0.003005
-0.097555
-0.134691
-0.122943
0.027691
-0.219420
-0.524959
-0.148397
-0.065223
0.121366
0.063807
-0.158327
0.479023
0.394348
-0.033412
-0.143703
-0.211685
-0.921043
0.055812
-0.066148
-0.420740
-0.076369
-0.109489
-0.508458
-0.278377
2.179585
0.023202
-0.547548
-0.486157
0.094433
-0.000855
0.559746
-0.038617
0.222159
-0.188907
-0.194100
-1.183124
-0.861977
1.106333
-0.108859
0.005667
-0.788818
-0.175566
-0.330958
0.041693
-0.770848
-0.126462
-1.427343
0.082467
-0.130603
-0.013051
-0.707221
-0.095733
-0.016653
0.380684
0.895189
0.116846
-0.026620
-0.830261
-0.498169
0.070658
-0.155980
-0.275028
0.341168
0.272582
0.013819
-0.041989
-0.158391
-0.007040
-0.100090
-0.153589
-0.030158
-0.121176
-1.036492
0.743334
0.057276
0.874905
0.885092
-0.057282
1.308206
0.043562
-0.280795
-0.044754
-0.078913
-0.175337
-0.240077
-0.337754
-0.143950
0.086798
0.357088
0.107066
-0.106582
0.094384
0.046750
0.025922
-0.062663
0.200982
-0.639453
0.126408
-0.106647
0.063380
-0.182945
-0.022852
0.224021
0.185775
0.218133
-0.242009
0.237805
0.057420
-0.202564
-0.173299
0.011263
0.252044
-0.035789
0.157182
0.281211
0.186789
0.023355
-0.231823
-0.096133
-0.053507
0.148086
-0.081590
0.286047
0.206347
0.339646
-0.662350
-0.185172
-0.071613
-0.355311
0.075883
0.094209
0.034317
-0.108301
0.250402
-0.436410
0.137785
-0.229361
-0.295108
-0.385917
0.062929
0.048811
0.275955
-0.031143
-0.126812
0.125036
-0.829986
-0.112682
0.246306
-0.047253
-0.040972
-0.121328
-0.170167
0.044642
0.248413
-0.017128
0.160889
0.081525
-0.101727
-0.382934
-0.280139
0.384418
-0.175625
-0.321106
0.170233
-0.542732
0.144283
-0.000805
-0.059903
0.006825
0.368756
-0.073595
0.036185
0.025258
0.021316
-0.103584
0.026548
-0.105834
-0.226186
0.617490
-0.104840
0.065379
-0.340306
-0.087099
0.237524
-0.378264
-0.068670
-0.465119
0.299667
0.308807
-0.006075
0.002995
0.065374
-0.176658
-0.224341
-0.087722
-0.098267
-0.037722
-0.189999
0.391119
-0.130129
-0.134967
-0.073165
-0.174826
0.158290
0.172919
0.080972
-0.228868
-0.452108
0.090161
-0.313676
0.049016
-0.008856
-0.037710
0.060696
0.470329
-0.150374
0.086674
0.149066
-0.380106
0.028420
0.106263
0.252578
-0.054931
0.389931
-0.314008
-0.228386
-0.620104
0.419328
0.362563
-0.044434
0.038176
0.017927
0.239658
-0.128908
-0.784450
-0.319823
0.083055
0.788130
-0.010241
-0.270006
0.044585
-0.226733
0.212174
0.163647
-0.037527
0.195777
-1.006526
-0.023210
-0.846410
0.250465
-0.009705
-0.068593
-0.532157
0.011014
-0.249739
0.218414
0.079946
0.059448
0.400285
0.225619
-0.659883
-0.294891
0.035134
-0.573580
0.160064
0.143105
0.118489
0.123933
-0.166751
-0.025210
0.069849
-0.166092
-0.052013
-0.130567
-1.185676
-0.336051
0.076101
-0.331107
-0.172403
0.092518
-0.251170
0.085013
-0.524468
-0.146168
-0.143098
0.811650
0.326939
0.669541
-0.274173
0.400778
-0.101792
0.421200
0.451832
0.151396
0.613694
-0.146334
0.276411
0.391918
-0.234771
0.428312
-0.379198
0.228850
0.382761
-0.088769
-0.135483
-0.223949
0.313428
0.425296
-0.096673
0.020904
0.402211
0.268368
0.297488
0.403472
0.329343
0.196038
-0.082647
-0.101713
0.030401
-0.308669
0.058306
-0.061448
0.391194
-0.019641
-0.353331
-0.436857
-0.225612
-1.359349
-0.017180
-0.550870
-0.310718
0.141942
0.166306
0.253659
-0.011488
0.696663
-0.694710
-0.240949
0.739731
0.309948
0.313708
0.059331
0.260162
0.324427
-0.164698
-0.769501
0.242681
-0.824197
0.012662
0.940539
-0.137945
0.035479
0.389453
-0.632668
0.228119
0.148904
-0.520211
0.235436
0.232775
-0.574902
0.302411
-1.466727
-0.088145
0.317726
0.481283
0.261153
0.274046
-0.058647
0.019616
0.237972
0.605617
0.345313
0.203337
0.069058
0.031118
-1.018246
0.481453
0.168016
-1.044041
0.432480
0.039727
0.460676
0.088690
0.362437
0.013274
-0.234090
-0.104462
0.319856
-0.075264
-0.000271
-0.564011
0.121357
-0.230596
0.209502
-0.129820
-0.576889
0.046782
-0.281591
-0.072281
1.945741
-2.248931
0.023818
-0.056360
0.152081
0.130565
0.039996
0.028366
-0.799421
0.328100
-0.038636
0.094814
0.196629
0.047231
0.060622
-1.101833
-1.188250
-1.466917
0.079415
0.095687
0.103062
2.256332
-0.039188
0.094158
-1.043268
0.026087
-0.681583
-0.021009
0.240495
-0.394505
-0.232295
0.318896
0.076570
0.005171
0.141772
-1.124397
0.019950
0.095501
1.615650
0.027180
-0.619187
1.261223
0.551226
0.037398
0.083127
-0.978019
-0.119071
0.607677
-1.167892
4.470221
0.202677
0.071344
-0.084379
-0.074995
0.120529
2.138445
0.023948
-0.012784
-0.658573
-0.657485
-0.134141
-0.418310
-0.101917
2.209092
0.687408
0.133822
0.156534
-1.190339
-0.357252
0.000347
0.053642
0.058979
-0.055955
-0.155147
0.227702
0.070848
0.074570
3.601181
-0.095756
-0.031579
-0.420309
-0.167594
-0.447305
-0.894400
0.026876
0.311312
0.110504
0.050985
biasvec 101
-4.272097
-3.928180
-4.312517
-3.794039
-3.842650
-3.840035
-3.990397
-3.828025
-4.070184
-5.068403
-3.971970
-3.988273
-4.021832
-5.239268
-7.150594
-4.098783
-3.922179
-3.912554
-4.051163
-3.908400
-3.982155
-3.870795
-3.948788
-3.405089
-3.882886
-3.821169
-3.894076
-3.923600
-4.740545
-4.566049
-6.572266
-3.894169
-4.018754
-3.970181
-5.221778
-4.024830
-3.973931
-4.194904
-3.951592
-4.028953
-3.422912
-3.878275
-2.780651
-3.863921
-4.427378
-4.091066
-4.032213
-3.902206
-4.747909
-4.015357
-3.639373
-6.140492
-4.042779
-3.548362
-4.940587
-4.414176
-3.981235
-3.881475
-4.123464
-3.946905
-4.553424
-4.521178
-7.920366
-3.954305
-2.029505
-4.048962
-4.007585
-3.963446
-5.652516
-3.883617
-4.031639
-3.840378
-3.769575
-3.982301
-4.429969
-3.135625
-4.815674
-4.204308
-3.974544
-4.056057
-4.271133
-3.997777
-4.031135
-4.064770
-4.011203
-3.906436
-3.835580
-3.988853
-4.095733
-4.066158
-5.863258
-4.109962
-4.002303
-3.186163
-4.058589
-3.946981
-4.392653
-4.065680
-3.853275
-4.009221
-3.932168
biasvec 6
-4.693675
-6.877682
-2.721715
-3.814265
-2.899458
-2.937271
