30 101 6
weigvec 3030
-0.391218
0.018039
-0.062054
0.004316
-0.119278
0.048367
0.109749
0.179122
0.440435
0.434234
0.157730
-0.132076
-0.311488
-0.241922
-0.023172
0.375569
0.270673
-0.219422
-0.425874
-0.393572
-0.070126
-0.029226
0.001818
0.139738
0.125250
0.328372
0.382050
0.084962
0.019445
-0.447594
0.121894
0.030916
0.052805
-0.114228
-0.145230
-0.081868
-0.305504
-0.268983
-0.237309
-0.226226
-0.057746
0.119643
0.072654
0.014637
-0.117362
0.083695
0.034970
0.191087
0.022507
-0.101123
0.086141
0.065279
0.237011
0.227485
-0.029663
0.306036
0.347965
0.130210
-0.044706
-0.311832
-0.026983
0.255556
-0.003177
0.068131
-0.098091
-0.139735
-0.280448
-0.279740
-0.416380
-0.311987
-0.249315
0.157690
0.358119
0.226431
0.040576
-0.074960
-0.015774
-0.100975
-0.268806
0.348663
0.382760
0.400225
0.298953
0.448324
0.358257
0.409732
0.030058
-0.176509
-0.092552
-0.539335
-0.049564
0.163682
0.236007
0.228380
0.184485
0.178999
0.057923
-0.085660
-0.177581
-0.077242
0.016429
-0.048543
-0.066287
-0.134745
-0.036357
-0.041864
0.055414
-0.035158
-0.021298
-0.113533
-0.036373
0.107998
0.227605
0.097990
-0.321747
-0.670529
-0.400787
-0.045935
0.226123
0.106157
0.148887
0.037645
-0.203682
-0.306607
-0.105976
0.117191
0.160268
0.000037
0.112161
0.055726
-0.113702
-0.257839
-0.031010
0.111238
0.259901
0.225777
0.210857
0.092846
-0.141462
-0.172035
-0.008788
0.108350
0.140600
0.229381
0.065601
0.208184
0.085274
-0.013131
-0.091583
-0.114176
0.053689
0.009850
0.083115
0.109092
0.198236
0.065458
0.145952
-0.018456
0.117014
0.097399
0.075305
0.184152
0.150180
0.060494
0.011602
0.078210
0.053508
0.034949
-0.105719
-0.103531
-0.059534
-0.127112
0.013769
0.149722
0.169535
0.258865
0.009961
-0.314293
-0.566867
-0.259850
0.067726
0.075154
0.213414
0.289534
0.159976
-0.007469
0.094173
0.086817
-0.008340
-0.008890
-0.283810
-0.357129
-0.060208
0.283555
0.474961
0.298391
-0.094202
-0.398387
-0.561924
-0.456089
-0.131775
0.097262
-0.036022
-0.033098
-0.063348
0.111704
0.142037
0.019572
-0.103683
-0.146365
0.022313
0.067547
0.005229
0.156686
-0.076616
0.057812
-0.050693
-0.162000
-0.192929
0.073206
0.261214
0.248798
0.033098
0.105552
0.073494
0.159265
-0.090145
-0.529751
-0.691465
-0.268517
0.091864
0.188071
0.112809
0.123241
0.115952
0.347370
0.284437
-0.078817
-0.025015
-0.248706
0.028789
-0.055701
0.023328
-0.091231
0.084129
0.120159
0.138487
0.050522
-0.081285
-0.077111
0.042626
-0.058305
0.015563
-0.050496
0.026919
0.106740
0.067072
0.078732
0.034825
-0.091151
-0.135696
-0.035347
-0.105678
0.017641
-0.031057
0.074176
0.079071
0.025641
0.038005
-0.042740
-0.216734
0.323075
0.071881
0.167298
0.270729
0.227652
0.068048
0.105006
0.016733
-0.105134
-0.362848
-0.654525
-0.750599
-0.429662
-0.135517
0.115232
-0.112529
0.113178
0.051621
0.062464
0.003057
0.149573
0.266772
0.525449
0.438313
0.640110
0.190376
-0.363557
-0.300590
-0.446239
0.052063
0.116251
0.120029
0.139133
0.133681
0.134665
-0.038143
0.005643
-0.026194
-0.008108
-0.039971
-0.082127
-0.066115
-0.067401
-0.013395
0.042106
0.044885
0.027428
0.044845
0.047040
-0.003499
-0.148479
-0.030265
-0.131193
-0.178229
-0.198814
-0.087776
0.047222
-0.016849
0.107425
-0.011252
0.168233
0.344899
0.303871
0.150645
-0.040160
0.037521
0.156613
-0.034186
-0.280051
-0.450697
-0.224510
-0.039693
0.257932
0.273241
0.077850
-0.309455
-0.238163
-0.194953
-0.235707
-0.404522
-0.354686
-0.184412
0.131526
0.095737
0.040271
0.141627
0.106495
0.151850
0.224704
-0.161003
-0.021368
-0.044112
-0.047543
-0.083561
-0.099764
-0.375774
-0.379941
-0.151298
-0.201790
-0.038770
-0.042235
0.115341
0.142150
-0.063352
0.030442
0.129141
0.161784
0.032733
0.187794
0.012153
-0.029019
0.069937
0.126599
0.126331
0.238091
0.184171
-0.012123
-0.042949
0.025608
-0.120323
0.093095
0.148360
-0.064091
-0.047969
0.031181
0.047565
-0.101297
-0.241687
-0.000615
-0.004714
-0.104506
-0.185367
-0.205636
-0.160473
-0.208662
-0.239297
-0.185486
-0.199048
-0.093682
-0.440445
-0.036144
-0.074365
0.017231
-0.313202
-0.487975
-0.243141
0.247948
0.730029
1.285846
-0.803799
-0.793078
-0.587997
-0.595673
-0.721825
-0.559837
-0.425220
-0.257935
-0.347538
-0.096788
0.203090
0.445529
-0.181713
-0.366597
-0.145837
0.152501
0.340172
0.461135
0.546500
0.583173
0.386790
0.538212
0.389625
-0.031849
-0.022788
-0.026247
0.336055
0.361871
0.401957
0.822725
0.532815
0.440968
0.103717
-0.021537
-0.097221
-0.153403
-0.268662
-0.279063
-0.278712
-0.161669
-0.083092
0.046405
0.119193
0.108085
0.100689
0.111517
0.128498
-0.002675
-0.006057
-0.051925
-0.093314
-0.022767
-0.100000
-0.464149
-0.520579
-0.176326
-0.119524
0.276391
0.078914
0.327044
-0.062154
0.007267
-0.147808
-0.072871
-0.029403
-0.019928
0.131854
0.005123
-0.029682
0.078732
-0.079438
0.032482
0.072343
0.009329
0.108352
-0.040263
-0.003465
0.081756
-0.071538
-0.028319
-0.093784
-0.039841
0.017537
0.032185
0.073926
0.160920
0.051753
-0.023157
-0.100960
-0.117301
0.112306
0.087857
0.105954
-0.068074
-0.045274
0.097666
0.027613
0.057980
-0.065011
-0.107828
-0.012328
-0.069052
-0.061731
-0.052210
-0.101284
0.008557
0.078911
0.010812
-0.013683
0.095223
-0.150929
-0.049630
0.189160
0.086482
0.032036
0.147933
0.266600
0.115575
-0.054121
-0.102537
0.107708
-0.011153
0.022732
0.039105
0.015588
0.115518
-0.058111
0.001838
-0.030667
0.033368
-0.030235
0.008122
-0.082890
0.028251
0.054319
-0.093640
0.091963
-0.071337
0.019585
-0.034482
-0.099797
-0.153533
-0.094933
-0.071535
-0.000576
-0.103030
0.037416
-0.066352
0.055849
0.056592
-0.015808
-0.105815
0.014502
-0.081908
-0.040508
0.124874
0.133897
-0.092850
0.058117
-0.084782
-0.063876
0.041748
-0.052685
0.074704
0.027075
0.001015
-0.027357
-0.003893
0.102206
0.077492
0.082272
0.067803
0.040341
-0.138362
-0.006303
0.090136
-0.008703
-0.179928
-0.176116
0.074172
0.112530
0.048281
0.047252
0.084386
-0.065346
-0.095764
-0.184076
-0.127617
0.075607
0.072226
0.154039
0.152741
0.123925
0.032411
0.151404
-0.019879
0.066258
0.044426
-0.077312
-0.107367
-0.030242
0.082797
0.084594
-0.128494
-0.042582
0.014815
-0.160586
-0.181082
-0.179550
0.062419
-0.101355
0.084581
0.045371
-0.090635
-0.128594
-0.183891
-0.055294
-0.080370
0.086007
0.015745
-0.069426
-0.177269
-0.017079
0.057164
0.170220
0.222791
0.168492
0.053982
0.005589
-0.233812
-0.147348
0.039757
0.052062
0.169091
0.038784
0.217634
0.160053
0.079865
-0.056465
-0.100226
-0.153058
0.005228
-0.004858
-0.018173
-0.083755
0.051144
0.004633
0.032464
0.141352
0.114920
0.034639
0.164406
0.243439
0.136583
-0.188858
-0.398293
-0.362645
-0.041572
0.361767
0.310688
0.102001
0.000329
0.119005
0.242203
0.370777
0.253534
-0.319406
-0.421586
-0.235912
-0.091707
-0.121012
-0.051473
-0.051887
-0.047007
-0.037562
0.287366
-0.000252
0.048349
-0.014682
-0.054328
0.122148
0.124622
0.079490
0.040712
-0.109114
0.002931
0.058010
-0.043044
0.139917
-0.008110
-0.044320
0.062579
0.658882
0.929635
0.187635
-1.301403
-1.269573
0.120013
0.331468
0.221240
0.019868
0.049327
0.060076
0.006550
-0.034171
0.077932
-0.095601
-0.072227
0.006709
-0.054270
0.040209
0.082004
0.086211
0.047259
-0.025187
-0.087573
0.042393
0.011232
0.023846
0.043362
0.007026
-0.098515
0.181333
0.156564
0.068607
0.157462
-0.062466
-0.296126
-0.215944
-0.166105
-0.135089
0.057442
0.044154
-0.143455
-0.008343
-0.089368
-0.083729
0.011083
-0.137643
-0.112929
0.120228
0.142805
0.410201
0.281518
-0.058776
-0.297995
-0.227748
0.292405
0.006477
-0.372154
-0.374859
-0.177736
0.003629
-0.025610
-0.181589
0.419681
0.477564
0.211583
0.011511
-0.244901
-0.015967
0.073106
-0.118765
0.089237
0.089346
0.071513
0.167192
-0.012308
-0.102827
0.053674
0.017705
0.103135
-0.072930
-0.085363
0.043698
0.018150
-0.217090
-0.174033
-0.089700
-0.090888
-0.042763
0.048761
0.147536
0.169997
0.097770
0.187882
0.054600
-0.065187
-0.103223
-0.237387
-0.029047
-0.032126
-0.088943
0.022654
0.036531
0.068887
-0.034463
-0.063294
-0.011179
-0.081264
0.004820
0.176301
0.178159
0.086504
-0.129859
-0.147893
0.005182
-0.118936
0.010606
0.043968
0.022641
-0.025676
0.101795
0.117464
0.128262
0.136369
0.047043
-0.135940
-0.106432
-0.152242
-0.550126
-0.638483
-0.500671
-0.176144
0.246652
0.440714
0.239792
-0.312082
-0.489923
-0.337508
-0.075987
0.110569
0.120916
0.233695
0.536061
0.415888
0.225747
-0.178922
-0.254721
-0.491409
-0.350381
-0.054307
-0.072244
0.032806
0.192773
0.235918
0.119332
0.098031
0.227986
0.594442
-0.383313
0.303227
0.477163
0.439492
0.237631
-0.371984
-0.926470
-1.087438
-0.551774
0.156632
0.489718
0.486724
0.007612
-0.172360
-0.171320
-0.179013
-0.122864
-0.069184
0.014195
-0.004464
-0.126715
0.039111
0.069660
0.142179
-0.077540
0.040430
0.104042
0.185344
0.135014
0.495743
-0.332960
-0.399286
-0.566081
-0.726309
-0.737099
-0.748508
-0.381439
-0.103452
0.351700
0.424332
0.212296
-0.251912
0.241516
1.639699
0.825700
-1.024445
-1.136994
-0.648734
-0.543943
-0.340233
0.141168
0.101200
0.537423
0.619078
0.874240
0.530714
0.180830
0.130323
0.306590
0.855302
-0.031534
0.041205
-0.003838
0.094345
-0.052078
0.085911
-0.027928
-0.070328
-0.122012
-0.105551
-0.068794
-0.023877
-0.057419
0.014255
-0.015516
0.108251
0.121230
0.132555
0.215145
0.081209
0.055294
-0.125316
-0.174679
-0.086995
0.223272
0.068587
0.016735
-0.031013
-0.209717
0.053452
-0.043334
-0.088993
-0.058267
-0.052268
0.036659
0.078244
-0.067160
-0.040050
0.051771
0.081176
0.066326
0.102617
-0.047133
0.068431
0.007467
0.061498
0.043955
0.045586
-0.044953
-0.041128
-0.016473
0.032325
-0.004986
-0.060988
-0.141826
-0.039815
-0.192260
-0.093363
0.037191
0.151968
0.026749
0.049318
-0.016759
-0.003060
-0.037212
0.089012
0.043933
0.122732
-0.068804
-0.077609
0.055858
-0.088343
-0.064270
-0.052545
0.028118
0.075743
-0.094036
0.095795
0.016044
-0.198500
-0.079978
0.187214
0.164099
0.186178
-0.037215
0.163501
-0.083054
-0.226914
-0.178281
0.058373
-0.249241
0.077775
-0.101175
-0.223723
-0.069030
-0.075863
0.045585
-0.268142
-0.099894
0.135622
0.069973
-0.025475
-0.136938
0.015003
-0.143891
-0.381258
-0.050630
-0.480779
0.726934
0.061132
-0.980204
-0.421231
0.741187
0.931424
-0.246288
0.125268
0.572556
-0.337635
-0.069929
0.304338
-0.045645
-0.033909
-0.079604
-0.112746
0.090091
-0.080667
-0.085677
0.053999
0.044790
0.048466
-0.055407
-0.049466
-0.021456
-0.013022
-0.031625
0.000525
0.086351
-0.101793
0.026704
-0.120564
-0.038514
-0.001677
0.097376
0.099793
-0.016277
0.043052
0.057097
0.050825
-0.123823
-0.124874
-0.003544
-0.028462
0.022231
0.046863
0.025776
-0.097866
0.005574
0.011549
-0.082282
0.062803
-0.075886
-0.058640
0.045618
0.032125
-0.038479
-0.095045
0.044426
-0.124381
-0.033402
0.056722
0.056749
0.009930
0.081693
0.114977
0.016381
-0.032093
0.051067
0.072880
-0.087347
0.132642
-0.193131
0.080806
0.074645
0.013677
-0.012472
0.037925
-0.055307
0.051445
-0.038244
-0.107208
-0.020472
0.180730
0.184603
0.101564
-0.169152
-0.239794
-0.293886
0.524717
0.430858
0.682834
0.215395
-0.211685
-1.448224
-1.125132
0.775887
0.624093
-0.743554
0.148538
-0.039968
0.299283
0.042144
-0.056238
-0.062158
0.061736
0.082780
-0.000897
-0.046553
-0.046137
0.020996
-0.066130
0.070608
0.043589
0.043436
-0.025550
-0.058504
0.015519
-0.083533
-0.029846
-0.060238
-0.106555
-0.112949
-0.105852
-0.136116
0.001559
-0.053598
-0.200886
-0.054062
0.002288
0.194285
0.140612
-0.243267
0.039802
0.064586
0.048205
-0.030140
0.161804
-0.067160
-0.042923
-0.327129
-0.274636
-0.261240
-0.048924
0.201887
0.124377
0.020014
0.164619
0.078067
-0.117803
0.151834
0.259861
0.460781
0.602531
0.390986
-0.235460
-0.729551
-0.409421
-0.122676
0.111363
-0.036052
0.205371
-0.217480
-0.302504
-0.120709
0.096856
0.135102
0.147481
0.095356
0.066638
0.238174
0.294017
0.233554
0.290678
0.110556
0.073453
0.033105
0.044314
0.058163
0.006083
-0.033838
-0.270077
-0.035484
0.009524
-0.589773
-0.991705
0.326510
0.273722
-0.248577
0.363849
-0.058598
0.106504
0.012927
0.048031
0.071676
0.036700
0.013330
0.127171
0.078918
-0.106507
0.024772
-0.097610
-0.015031
-0.094082
0.009663
-0.041251
0.061462
0.027327
0.131745
0.129661
0.042756
0.003692
0.037996
-0.085965
-0.187336
-0.293906
0.148230
0.044777
-0.214914
-0.060412
0.143019
0.292692
-0.228508
-0.015002
0.116536
-0.209315
0.027960
-0.059739
0.000870
-0.027226
-0.058180
0.067478
0.050245
-0.015102
0.119892
-0.201461
-0.032539
0.028549
-0.166757
0.030948
-0.025525
-0.157302
0.075072
-0.442347
-0.488790
2.456425
0.847504
-3.558290
1.208468
1.586279
-0.807249
-0.028675
0.071007
-0.040027
0.054758
0.122140
-0.007145
0.106697
-0.005598
-0.008665
0.058395
-0.075958
-0.098057
-0.185971
-0.032684
0.101120
0.092383
0.237969
0.097727
0.050407
-0.131413
-0.083703
0.078372
0.244855
0.270033
0.148184
-0.050134
-0.096599
-0.096862
-0.120143
-0.033611
-0.122593
-0.116250
-0.319354
-0.278774
-0.246653
-0.306970
-0.300339
-0.079720
0.131154
0.226688
0.080004
0.036635
-0.007449
0.204552
0.321773
0.451147
0.524118
0.436583
0.233993
0.207186
0.004032
-0.057762
0.354741
-0.042529
-0.435602
-0.367429
-0.368284
-0.312316
0.105540
0.222007
-0.040000
-0.003349
0.062480
0.022733
-0.007553
-0.134680
-0.073639
-0.112017
0.003538
0.095618
0.293868
0.393720
0.383052
0.176355
0.084960
0.024998
-0.048706
-0.137833
-0.135848
-0.070687
-0.037248
0.095588
0.254635
0.248689
0.053437
-0.319989
-0.603380
-0.535531
-0.111054
-0.016869
0.060171
-0.082988
0.092544
0.057205
0.089810
-0.037024
-0.030926
-0.080691
-0.013161
0.073641
0.025206
-0.077964
0.111601
0.070260
-0.027489
0.040720
-0.021921
-0.020974
-0.037727
-0.138611
-0.088590
0.041065
0.038709
0.022116
0.058004
0.035104
0.047035
0.115834
-0.000799
-0.040814
-0.176316
0.063110
-0.074088
-0.018193
-0.067173
0.114495
0.010424
-0.041130
-0.104075
-0.037987
0.098959
0.029100
-0.006821
-0.036782
0.116749
-0.040871
-0.016401
-0.066672
0.062549
0.162008
-0.087432
-0.127142
0.021087
0.073293
0.099723
0.174097
0.160197
-0.011824
-0.153612
-0.274839
-0.137776
0.148578
0.440138
0.116924
0.183002
0.289756
0.128045
0.097264
0.229450
0.659658
0.428646
-0.599451
-1.429101
-1.795339
-0.922198
-0.261754
-0.224305
-0.061723
0.340008
0.454752
0.470039
0.450870
0.233544
0.349171
-0.008653
-0.110877
-0.365775
-0.146430
-0.098383
-0.013954
0.377959
0.036417
-0.037690
0.041507
0.074734
0.152569
0.091359
0.117358
0.064013
0.008771
-0.008308
-0.060999
-0.056761
0.053662
0.042097
0.064205
0.035592
0.118131
0.020175
0.048569
0.015217
0.028838
-0.112181
-0.142552
-0.356203
-0.393934
-0.210770
0.093120
0.176482
-0.025948
0.128494
-0.094325
0.104759
0.005421
0.125733
0.067238
-0.036653
0.082422
0.111936
-0.037755
-0.065799
-0.128056
-0.075851
0.096027
0.127749
0.135852
0.020408
-0.064245
0.017459
-0.001213
0.185666
0.046614
0.186864
0.456745
0.391052
0.132463
0.107698
0.755360
0.479501
0.078027
-2.454710
0.895593
0.463543
0.306273
0.258478
0.301100
0.064858
0.145833
-0.022981
0.025012
0.040587
0.050580
-0.034999
-0.103228
-0.171212
-0.316287
-0.332388
-0.106284
-0.149358
-0.162959
-0.072481
0.047557
0.135334
0.233929
-0.060463
-0.208427
-0.305109
-0.415330
-0.062825
0.054677
-0.247430
0.108691
0.095029
-0.019231
0.028925
-0.058950
0.014312
-0.113757
-0.129638
-0.038756
0.060222
-0.006215
0.078618
0.074873
0.022221
0.056304
0.095123
0.094381
0.061520
-0.041740
0.083989
0.084151
0.089730
-0.154653
-0.111890
-0.144411
0.000897
-0.058629
-0.099560
-0.034574
0.136708
-1.293373
-0.612853
-0.076897
0.196754
0.400388
0.591310
0.322503
-0.158425
-0.101444
0.400869
0.540643
0.389083
-0.121357
-0.516109
-0.562212
-0.344423
-0.256598
-0.136354
-0.065666
0.022453
0.084706
0.196546
0.122162
0.304425
0.290749
0.269414
0.271934
0.057439
0.174402
0.307981
0.351939
-0.097812
0.478527
0.080181
0.237111
0.263480
0.275020
0.395397
0.275994
0.259317
0.220446
0.031389
0.134600
0.099446
0.219273
0.251470
0.113961
0.241833
0.128986
0.150316
0.214773
-0.469543
-0.011971
-0.045943
-0.233512
-0.486033
-0.530242
-0.693945
-0.184372
-1.422884
-0.039114
-0.237714
-0.543261
-0.644142
-0.590060
-0.512220
-0.321040
0.099148
0.175993
0.279558
0.266755
0.071809
0.036312
0.130175
0.158711
0.292156
0.073261
0.088649
0.008768
0.216091
0.003574
0.055869
0.146365
0.485869
0.340814
0.568647
0.424776
-0.099083
-0.003245
-0.692384
0.055199
-0.058632
-0.131307
0.050865
0.100684
-0.026598
0.109325
0.093962
-0.084399
-0.063792
0.102476
0.081097
0.076602
-0.093348
0.004629
0.004791
0.000224
-0.093035
0.093927
-0.067458
-0.109439
0.040479
0.056480
0.015940
0.113166
0.090428
-0.034178
-0.117294
-0.167151
-0.129821
-0.133845
0.042713
0.000448
0.033219
-0.007594
0.043504
0.074412
0.007158
0.068711
0.029759
0.127884
0.061349
-0.120513
-0.085104
-0.016615
-0.055644
0.073603
0.107304
0.127941
0.115087
-0.081139
-0.140530
-0.014280
0.010286
0.011829
0.207604
0.201258
0.049061
-0.067764
-0.027617
-0.055639
-0.003425
-0.219866
-0.308001
-0.314758
-0.294127
0.098797
0.304348
0.311703
-0.140701
-0.499898
-0.541167
-0.118857
0.097422
0.351234
0.608314
0.511943
0.446261
0.049532
0.100870
-0.352706
-0.582062
-0.678445
-0.275485
0.279885
0.326051
-0.019229
0.355563
0.020402
0.463208
-0.042366
0.081925
0.085485
-0.066029
-0.050919
-0.059409
-0.089111
0.101355
0.030651
0.108846
-0.047202
0.051364
0.140072
0.103122
0.004346
0.048560
-0.019771
-0.119861
-0.099672
-0.040008
0.116257
0.078962
0.031685
-0.025131
-0.153092
-0.127976
-0.191308
0.025511
-0.052400
0.144728
-0.328522
-0.065649
0.184324
0.313610
0.387403
0.421441
0.427778
0.256299
0.148968
0.035986
-0.079442
-0.165424
-0.241866
-0.255580
-0.107560
-0.050647
-0.011598
0.072640
0.081024
0.124255
0.211417
0.180038
0.193164
-0.335124
-0.595387
-0.391684
-0.374369
0.171104
0.159045
0.069173
0.009307
0.074105
-0.019907
-0.103336
-0.147182
0.004311
-0.078376
-0.046476
0.028996
0.073188
-0.064458
-0.027973
-0.051315
0.107027
0.113557
0.072150
0.053351
0.042497
0.007595
0.122465
0.136771
0.100525
-0.075975
-0.228896
-0.207691
-0.075040
-0.037847
-0.003131
0.079399
0.122109
-0.382213
-0.057870
-0.229845
-0.031229
-0.113922
-0.148415
-0.208687
0.005983
-0.179451
-0.093911
-0.198031
-0.128152
-0.053461
-0.140020
-0.440515
-0.827362
1.295475
-0.830473
0.981466
-1.829456
0.128209
0.941104
0.196767
-0.095362
-0.486813
0.119867
0.624601
0.535872
-0.307747
1.412413
0.043831
-0.061490
-0.095416
0.060334
-0.013949
-0.088414
-0.020107
-0.081288
-0.018935
0.003910
-0.116935
0.051049
-0.046030
-0.068850
0.004586
-0.077527
-0.122405
0.027619
0.172357
-0.085347
-0.051104
-0.152082
0.138110
0.140064
0.093838
0.004543
0.166257
-0.037170
-0.068737
0.076635
-0.044107
0.127872
-0.055401
-0.026414
-0.144688
0.021407
0.037902
0.028772
0.032940
-0.112693
-0.080749
-0.004007
0.091843
-0.004807
0.055815
-0.100624
0.024202
-0.203675
0.099923
-0.065424
0.059591
-0.356494
-0.759906
-0.286837
1.267613
2.372543
-0.276369
-0.501463
-0.013527
-0.855590
0.037892
0.068943
0.001890
-0.073202
-0.101930
0.003719
0.066025
-0.082802
-0.001761
-0.082012
-0.051337
-0.017902
0.028120
0.173067
0.112512
0.158438
0.059069
-0.081472
-0.030252
0.012774
0.132867
0.133082
0.111202
0.006845
-0.172147
-0.312896
-0.110067
-0.079129
0.081885
-0.039378
0.072832
-0.057380
-0.025085
-0.073193
0.058596
0.108313
0.018731
-0.047321
-0.065767
0.068304
0.034351
0.093879
0.086279
-0.011771
-0.095596
-0.044330
-0.076840
-0.067711
0.077811
0.065806
0.069378
0.062111
-0.068353
-0.087531
0.041838
0.073534
-0.100470
0.010145
0.058390
0.118842
0.114881
0.117657
-0.137034
-0.016386
-0.032218
0.201921
0.315052
0.286374
0.215306
0.125611
-0.063058
-0.099378
-0.165343
0.103092
0.200425
-0.023864
-0.390255
-0.260562
-0.178119
-0.154149
-0.054531
0.049833
0.093842
0.241715
0.195905
0.293575
0.134569
0.006254
-0.057418
-0.015430
-1.435735
-0.404626
-0.583135
-0.593361
-0.482240
-0.282035
-0.475052
-0.335998
-0.423094
-0.139391
0.073140
-0.032658
-0.130925
0.153060
-0.021087
-0.138578
0.010389
0.144944
0.122749
0.289080
0.292466
0.293198
0.586605
0.283127
0.255238
0.578941
0.361115
0.701927
0.656494
0.897221
0.001310
0.015926
-0.146936
0.039487
0.120562
0.022464
0.062623
0.038845
0.107719
0.003814
-0.119078
-0.056979
0.060923
-0.086563
-0.045658
0.102348
0.098776
0.114410
0.052028
-0.080655
-0.011402
0.066933
0.051864
0.157010
0.168368
0.135133
0.042709
-0.092363
-0.124790
-0.116265
-0.164396
0.022496
0.117401
0.095842
-0.015380
0.085921
-0.075749
-0.118153
-0.091103
-0.028927
-0.097794
-0.152073
0.023074
-0.077751
0.034744
-0.086345
0.010634
0.188907
0.150109
0.224517
0.020592
-0.188499
-0.075715
-0.061068
0.112096
0.144918
0.092448
-0.156232
-0.061901
-0.033086
-0.046126
-0.057425
-0.034877
-0.116568
-0.237042
-0.246178
-0.252493
-0.162397
-0.083486
0.099002
-0.097220
-0.144134
-0.110366
-0.093496
-0.148861
-0.079764
0.017142
0.043736
0.132014
0.166824
0.283654
0.411755
0.484635
0.121474
-0.285182
-0.408120
-0.031375
-0.071678
-0.029137
0.035162
0.045515
0.251524
-0.074883
0.013271
0.020723
0.099531
0.040434
0.123293
0.040617
-0.020298
0.093977
0.058171
0.028752
-0.002409
0.126602
0.284041
0.164698
0.098755
-0.020015
0.012163
0.060836
0.153573
0.437924
1.204304
0.824626
-0.643522
-1.361923
-1.087282
-0.539643
-0.457311
-0.055074
-0.086003
-0.070675
-0.049129
-0.197536
-0.261251
-0.220722
-0.171298
-0.242446
-0.285562
-0.274794
-0.251886
-0.055941
0.240560
0.206991
0.194226
0.174852
0.149247
0.033371
-0.060448
-0.003952
0.074705
0.088003
0.185701
0.032855
0.155518
0.350223
0.073688
0.088970
-0.269544
-0.211630
-0.230728
-0.086518
-0.133477
-0.037233
0.120692
0.098582
0.162760
0.425662
0.449213
0.277174
0.102916
-0.075188
-0.237523
-0.318968
-0.193026
-0.211340
-0.057005
0.103377
0.166858
0.270538
0.267905
0.306868
-0.252765
-0.735790
-0.419279
-0.239286
0.075975
0.197671
0.205478
-0.016139
-0.284155
-0.102265
-0.016464
0.037391
0.022905
0.074562
0.035964
0.003703
-0.075135
0.022490
-0.009989
0.089163
0.069110
0.044577
-0.041958
0.250172
-0.220099
0.260073
-0.016711
0.293082
0.430713
0.167731
-1.520114
-1.771216
0.640876
0.112426
0.264154
0.157116
0.347972
-0.322480
-0.091885
-0.029198
-0.020917
-0.120277
-0.256262
0.026397
0.006615
-0.128616
-0.315425
0.033841
0.082108
-0.127054
-0.077224
-0.326929
0.154698
0.216256
0.176813
-0.930511
-0.198391
0.814664
0.313203
-0.778646
-0.459756
0.934113
0.896351
-1.045106
0.129530
1.133021
-0.186252
1.126875
0.136812
0.204277
0.236189
0.202988
0.140903
0.186079
0.152670
0.341696
0.109840
0.068587
0.060197
-0.011171
-0.099125
-0.156231
0.100871
0.062811
0.034355
0.141067
-0.101304
-0.253799
0.041812
-0.581269
-0.687996
-0.001006
-0.005720
-0.409284
-0.365347
-0.005495
-0.454939
0.064289
-0.051118
-0.028968
0.058058
-0.106983
-0.036692
-0.039815
0.032822
-0.005725
0.008865
0.060466
0.084010
0.084607
0.074896
-0.106955
-0.157643
-0.154379
-0.132523
0.059657
-0.073428
-0.119064
-0.150654
0.114582
0.074272
0.018175
0.151381
0.092242
-0.052247
0.007264
-0.059298
0.236917
0.178541
-0.061986
-0.131008
-0.371333
-0.279244
-0.177319
0.039367
0.187482
0.344368
0.625174
0.316169
-0.248789
-0.567044
-0.310719
0.422377
0.597824
0.452426
0.039596
-0.819879
-0.896093
-0.448596
-0.031232
0.143946
-0.134649
-0.039698
0.282656
0.112839
0.119737
-0.128777
-0.023410
-0.048889
0.004432
0.196452
0.037394
0.251802
0.228206
-0.294656
-1.012040
-1.128149
-0.503452
-0.158324
0.190458
0.336939
0.002271
-0.111914
-0.019882
0.056170
-0.090422
-0.063270
-0.006920
0.127779
0.183066
0.407417
0.254898
0.240873
0.233307
0.033325
0.009902
0.609715
-0.163922
0.032262
-0.051550
0.136062
0.120141
0.126783
0.173361
0.218525
0.017997
-0.167535
-0.145526
-0.238985
-0.034457
-0.027681
-0.090783
-0.197085
-0.088364
0.052527
0.096332
0.028621
0.118102
0.276136
0.383724
0.381459
0.264762
-0.124610
-0.164064
-0.159021
-0.069329
-0.217968
-0.054170
-0.004085
0.047743
-0.048274
-0.075362
-0.030981
-0.075985
-0.062263
0.003180
-0.080309
0.086187
0.067374
0.016033
-0.025557
-0.086188
0.098786
-0.029013
0.042133
0.070064
0.085789
0.037058
0.090882
-0.042166
-0.072246
-0.036956
-0.045734
0.030397
-0.121697
0.076000
0.017044
0.020284
-0.054831
0.060695
-0.072151
0.055996
0.029280
-0.071322
-0.005527
-0.020843
-0.067683
-0.071193
0.021675
0.004434
0.037737
-0.057495
-0.019600
-0.066171
0.072004
-0.010309
-0.040246
0.008702
0.045824
0.007096
0.152135
0.023916
0.012161
0.045735
-0.067279
-0.142415
-0.094992
0.064771
0.034903
-0.007416
0.036652
-0.046922
-0.034520
0.004543
0.123550
-0.036615
-0.021314
0.001620
0.007782
-0.114421
-0.058867
-0.036874
-0.013812
0.030343
-0.035407
-0.048482
-0.018420
-0.189496
-0.026944
0.091848
0.012436
0.112159
0.155485
0.042061
0.059862
-0.119688
-0.044763
-0.163808
-0.031497
-0.051915
-0.023477
-0.056209
-0.015973
-0.064019
0.070002
0.102836
0.150339
0.086295
-0.004205
-0.072083
-0.185220
-0.227637
-0.073155
0.073746
0.144617
0.084057
0.141988
0.004165
0.063665
0.087356
0.151991
0.252446
0.244944
-0.060487
-0.312834
-0.292023
-0.180073
0.125225
0.185655
0.085962
-0.046632
-0.249652
-0.382665
-0.204547
-0.219756
-0.296018
0.038200
0.176481
0.323098
0.306309
-0.021921
-0.062081
0.154180
0.258811
0.348235
0.151788
-0.034397
-0.019185
0.004016
0.136319
0.284876
0.259214
0.320098
0.123650
-0.310815
-0.399653
-0.332434
0.073905
-0.064401
-0.036436
-0.061286
0.071355
-0.052636
-0.037613
-0.013723
-0.022583
-0.025276
-0.104903
-0.109423
-0.032634
-0.095119
-0.116416
0.052378
-0.107294
0.017617
0.049408
0.096352
-0.028613
-0.166640
0.049412
0.033578
0.122537
0.258187
0.101482
-0.076364
-0.061404
-0.076480
0.063078
-0.065078
0.032934
-0.075101
0.018814
0.087043
0.020291
-0.025190
-0.051488
-0.004367
-0.030794
-0.025678
0.102245
0.046872
-0.106737
0.070433
-0.069151
0.096704
-0.100387
-0.012277
0.045260
-0.022083
-0.012040
0.092876
0.149736
0.053933
-0.018016
-0.151494
-0.134444
-0.005162
0.026528
0.005896
0.001761
-0.004993
0.003731
0.072685
0.038156
0.009408
-0.039476
0.034337
-0.027718
-0.070587
-0.091758
-0.005602
-0.009198
-0.035420
-0.033231
0.018314
0.047841
0.078115
-0.066951
-0.039224
-0.172846
0.023335
0.071999
-0.034883
-0.043911
-0.038071
-0.055530
0.078607
-0.153558
-0.012189
0.013783
0.029347
-0.255280
-0.009181
-0.087465
-0.099470
-0.149348
-0.195445
-0.234952
0.095136
-0.134377
-0.113036
-0.387868
0.365013
-1.408760
0.702724
-0.590015
1.141393
-0.180766
-0.431239
-0.607955
-0.050685
0.499263
0.491304
-0.094744
0.426495
-1.163203
2.016203
-1.594994
-0.575478
-0.369008
-0.159688
0.126087
0.169769
0.300046
0.263159
0.186411
-0.108522
-0.144013
0.035327
0.175157
0.240048
-0.049380
-0.067832
0.118745
0.182801
0.029924
0.059791
-0.174542
0.011823
0.069531
0.339436
0.162133
0.423699
0.490412
0.121052
0.114276
-0.265319
0.085569
0.114355
-0.041526
0.024154
0.024413
-0.105442
0.070773
-0.006103
-0.061075
-0.046511
-0.077444
0.013122
-0.058729
0.130707
0.137354
0.129086
-0.089347
-0.192500
-0.132800
-0.135770
0.056341
-0.013306
-0.004789
0.058795
-0.042907
0.042825
0.114185
-0.027695
0.054050
-0.038346
-0.273965
0.309628
-0.172662
-0.028311
0.117370
0.005409
-0.104824
-0.089609
-0.063388
0.115459
0.008211
-0.112744
-0.182852
-0.108254
-0.086156
-0.136865
-0.060312
0.075082
-0.191663
0.119987
0.094564
0.288656
1.091950
-0.287686
-2.461841
0.735299
2.096475
-0.945229
-0.329345
0.241201
0.501828
0.211358
0.239239
0.181545
0.072234
0.164752
0.184114
-0.020973
0.105596
0.056217
-0.129054
-0.126187
-0.294589
-0.231895
-0.243115
-0.467088
-0.559159
-0.326126
-0.169126
-0.159570
0.072641
-0.363254
0.204580
0.334282
0.074657
0.662358
0.603766
-0.175720
-0.259672
-0.673746
-0.163722
0.159828
0.100562
0.130316
0.000853
0.044639
-0.085898
-0.026976
0.073351
0.070471
0.153394
0.199378
-0.004222
-0.425788
-0.699743
-0.454580
-0.031953
0.299581
0.335880
0.232197
-0.052041
0.016077
0.083954
0.185076
0.086257
0.321569
0.122078
-0.259319
-0.449282
-0.094275
0.824880
0.652914
0.083082
-0.150385
-0.143278
0.011596
0.110657
0.063194
-0.101636
-0.092273
0.011882
0.297625
0.330646
-0.527530
-1.275136
-1.146856
-0.847482
-0.344994
-0.390638
-0.239084
0.041762
0.098217
0.364013
0.650033
0.634705
0.291105
0.027078
-0.144027
0.002721
0.341243
0.090228
0.043418
-0.032273
0.042582
0.073167
0.091764
0.098739
-0.066420
-0.025384
0.005697
0.081846
-0.006513
0.099806
-0.062904
-0.045174
-0.086316
-0.099481
-0.060985
0.107238
0.055348
0.039861
0.062623
-0.011743
0.133630
0.067064
0.107129
0.022218
-0.087544
-0.065285
-0.014828
0.125656
0.148505
0.166797
0.173445
0.018732
0.058086
0.175508
0.034507
-0.127420
-0.148191
0.145302
0.094220
0.182542
0.090204
-0.117497
-0.363628
-0.204549
0.080329
0.148004
-0.045644
-0.530236
-0.679709
-0.240546
0.088157
-0.042024
0.284487
0.352201
0.274617
0.106092
-0.010193
0.028939
-0.013841
0.127702
0.051943
0.162964
0.062393
0.084496
0.033076
-0.070959
-0.084909
-0.006883
-0.012790
0.013802
0.019540
0.020809
-0.014911
0.033324
-0.092032
-0.031332
0.030153
-0.009091
-0.106442
-0.288943
-0.190261
-0.021290
0.044899
0.047694
0.100996
0.150334
0.111429
-0.113498
0.003374
-0.101664
0.009961
-0.100823
0.075683
-0.010959
-0.052902
0.062954
0.011668
-0.048650
-0.117345
-0.061057
0.006836
0.072434
-0.017628
0.183311
0.129212
0.115971
0.227539
0.161119
0.029000
-0.140856
-0.327791
0.033229
0.182690
-0.042608
0.095249
-0.142828
-0.067128
weigvec 606
-0.269708
-0.388299
-0.481025
0.625824
-0.317492
-0.377476
0.081155
-0.582922
0.060605
-0.991750
0.259341
0.586979
-0.290970
-0.104390
0.964028
0.694515
-0.167707
-0.208981
0.095740
-0.152179
-0.089589
-0.268581
-0.298347
1.295583
-0.372631
-0.127588
-0.378216
-0.238144
0.582187
0.276067
0.359828
0.040813
0.179847
-0.247595
0.040797
-0.248238
-0.110221
1.309749
0.256169
0.419862
0.579391
0.292215
0.873622
-0.086075
0.510277
0.494804
-0.171154
-0.327089
0.283988
0.482424
-0.688940
-0.005747
0.138614
-0.160942
-0.276762
-0.715747
-0.245070
-0.013914
0.618353
0.078309
0.515443
0.245772
-1.135263
-0.125748
0.937194
0.185006
0.071448
-0.197805
-0.155024
-0.240705
-0.025279
0.230144
0.136669
-0.363369
0.714742
1.140590
0.242893
-0.055188
-0.052215
0.490535
-0.046958
0.061430
0.019731
-0.227426
-0.136728
-0.306668
-0.715416
-0.149766
-0.168101
0.065419
0.004746
-0.479121
-0.015787
1.108591
-0.789574
-0.396258
0.195890
-0.160746
0.513608
0.330065
0.082414
0.033464
0.059978
0.369255
-0.234432
0.047859
-0.020925
0.152108
0.100449
-0.050710
0.407212
-0.189629
-0.052073
-0.053820
-0.457805
0.498990
-0.171203
-0.012478
-0.024791
-0.077022
-0.142688
-0.120282
-0.030374
-0.217440
-0.532968
-0.203580
-0.126128
-0.013643
0.019729
0.085667
0.234327
0.432450
-0.011552
-0.130911
-0.240778
-0.697800
0.028043
-0.067646
-0.746750
-0.045926
0.198215
-0.288966
-0.224598
1.894022
-0.029270
-0.234666
-0.409104
0.078581
-0.041995
0.542821
-0.038317
1.398829
-0.279091
-0.185944
0.674348
-0.708972
0.618244
-0.128654
0.000337
-0.206424
-0.160335
-0.204628
-0.074781
-0.646757
-0.131538
-1.103268
0.078395
-0.138718
-0.010002
-0.627968
-0.117664
-0.026657
0.283366
-0.700946
0.211449
-0.223907
-0.905521
-0.563851
-0.401564
-0.172751
-0.042212
0.362858
0.104049
0.002828
-0.073269
-0.163696
-0.070192
0.002177
-0.172049
-0.046434
-0.126209
-1.164190
0.622620
0.066809
0.576976
0.299445
0.017862
0.576398
0.013371
-0.354241
-0.041646
-0.070886
-0.048771
-0.174169
-0.329268
-0.043129
0.088580
0.461929
0.083485
-0.117019
0.094005
0.354430
-0.029873
-0.155240
0.191746
-0.168978
0.178013
0.044251
0.119175
-0.084941
-0.049415
0.226470
0.175872
0.095580
-0.173043
-0.227606
0.055177
-0.333217
0.000229
0.054076
0.099834
0.107096
0.238926
0.307564
0.155540
-0.036362
-0.162007
-0.107408
-0.057061
0.432128
-0.038347
0.164105
-0.030553
0.197242
-0.589602
-0.238268
-0.035471
-0.214753
0.053923
0.212790
0.026306
-0.079235
0.410830
-0.114796
0.084114
-0.042839
-0.382942
-0.362131
0.133434
0.132325
0.375791
-0.073041
0.068047
0.073615
-0.538022
-0.074030
0.406934
-0.156298
0.037263
-0.035134
-0.214981
0.114016
0.330592
-0.035799
-0.015946
-0.042255
0.097227
-0.126543
-0.384782
0.039921
-0.094812
0.184031
0.337722
-0.458106
0.128142
0.003703
-0.009914
0.084396
0.380045
0.089912
0.067758
0.035752
-0.171266
-0.040513
-0.059716
-0.107098
-0.103217
0.222067
0.027453
0.109129
-0.182533
-0.060092
0.258559
-0.253269
-0.006252
-0.363958
0.147814
0.222922
0.015946
0.100841
0.196378
-0.146060
-0.301214
-0.096071
-0.230646
0.009282
-0.566591
0.246127
-0.150145
-0.132850
-0.057499
-0.134824
0.162802
0.222505
0.035523
-0.194407
-0.376262
0.114961
-0.384645
0.047663
0.015499
-0.028454
0.074451
0.233381
-0.179956
0.109137
0.195817
0.046509
0.021643
0.127587
-0.064255
-0.081941
0.435237
-0.581029
-0.142235
-0.680753
0.361028
0.125548
0.374743
0.060668
-0.021866
0.156462
-0.075055
-0.226284
-0.136119
0.097562
0.215388
-0.116819
-0.055860
0.043002
-0.266523
-0.130901
0.204045
0.022346
0.112304
-0.754941
-0.014868
-0.932841
0.281293
-0.000570
-0.001806
-0.660767
-0.004969
-0.251876
0.304340
0.445741
0.077376
0.554769
0.124787
-0.496716
-0.423746
0.066738
-0.032527
0.161152
0.190069
0.111321
0.117665
-0.157081
-0.101389
0.158541
-0.187624
-0.042738
-0.122856
-1.312663
-0.011441
0.117265
-0.734914
-0.369246
0.016524
0.097786
0.076706
-0.457469
-0.121728
-0.160854
0.750048
0.407171
0.624658
-0.316217
0.306165
-0.176410
0.494276
0.532504
0.108332
0.899331
-0.147034
0.304453
0.364324
-0.865667
0.383531
-0.323272
0.175460
0.198087
-0.055121
-0.058282
-0.242519
0.283031
0.584900
0.018862
0.065878
0.530211
0.250160
0.287074
0.193042
0.378357
0.283236
-0.102168
-0.074006
0.084573
-0.470475
0.067111
-0.085163
0.061969
-0.075164
-0.441629
-0.188115
-0.209326
-1.218989
0.068337
-0.665155
-0.389677
0.125932
0.132908
-0.021733
-0.048985
-0.045903
-0.476002
-0.191202
0.439580
-0.218760
0.545584
0.070344
0.217062
0.238228
-0.144459
-0.725810
-0.048917
-0.822440
-0.021521
0.669454
-0.097958
-0.016089
0.527689
-0.567891
0.176557
0.125015
-0.461104
0.555743
0.418640
-0.528473
0.254523
-1.114049
-0.287175
0.273312
0.632919
0.404459
0.171483
-0.019162
0.045480
0.169374
0.417593
0.027065
0.103961
0.075772
0.032924
-0.839002
0.626454
0.221734
-0.955960
0.269714
0.613332
0.222492
0.128958
0.428265
-0.047270
-0.228507
-0.217795
0.246776
0.091346
-0.014960
-0.187600
0.148512
-0.523311
0.051681
-0.103840
-0.129302
-0.008402
-0.379456
0.017488
2.059518
-2.370471
-0.245908
-0.016584
0.276514
0.061875
-0.011318
0.023566
-0.167764
0.096778
-0.277671
0.122243
0.183983
-0.021042
0.053666
-1.137676
-1.142457
-1.601534
0.075033
0.059208
0.121090
1.508565
-0.022931
0.090360
-0.981306
-0.018432
-0.648343
0.594518
0.081722
-0.175285
-0.158273
0.303577
0.017932
0.012483
0.202176
-0.971236
-0.031946
-1.034097
1.145267
0.000389
-1.028890
1.659100
0.157400
0.023297
0.123197
-0.932506
-0.161985
0.093717
-0.241193
4.025085
0.232134
-0.019845
-0.099737
-0.109081
-0.079014
2.071556
0.076248
0.002731
-0.363522
-0.369086
-0.093127
-0.547723
-0.302136
2.230738
1.392047
0.099236
-1.088006
-1.102003
-0.183694
0.010877
0.063492
0.107893
0.182842
0.025225
0.284156
0.056531
0.065714
3.456138
-0.666096
-0.058848
0.063563
0.782230
-0.307386
-1.253020
0.013093
0.185033
0.063907
0.048019
biasvec 101
-4.163126
-3.912893
-4.368439
-3.840219
-3.909007
-3.784492
-3.951660
-3.931561
-4.080762
-4.715062
-3.953718
-4.025126
-4.037547
-5.362484
-7.753128
-4.051929
-3.923295
-3.921171
-4.062346
-3.911413
-3.975595
-4.031023
-3.933675
-3.914203
-3.854515
-3.848892
-3.923783
-3.926360
-4.514496
-4.417280
-6.676258
-3.880066
-4.027209
-3.947421
-4.219033
-4.030847
-3.972147
-3.963368
-3.941243
-4.165068
-3.986428
-3.922463
-2.748045
-3.880996
-4.450260
-4.005216
-4.040299
-3.863778
-3.879921
-4.017869
-3.041147
-5.178806
-4.057556
-4.594921
-5.774759
-4.434862
-3.964548
-3.872143
-4.417107
-3.938704
-4.264894
-3.971358
-7.222260
-3.949348
-2.205924
-4.029510
-4.003832
-3.948493
-5.164194
-3.879579
-4.013989
-3.887088
-4.258387
-4.045783
-4.477277
-3.361621
-5.124976
-5.543370
-3.993392
-4.088130
-4.822952
-3.917411
-4.036614
-4.061668
-4.017874
-3.866851
-3.850331
-3.974276
-4.092614
-4.068195
-5.949359
-4.440804
-3.989230
-3.541266
-3.878422
-3.960001
-4.673615
-4.056412
-3.731786
-4.002077
-3.928557
biasvec 6
-4.451921
-7.103315
-2.983480
-3.664951
-2.696592
-3.043074
