30 101 6
weigvec 3030
-0.094287
0.012812
-0.115493
0.025318
-0.015846
0.038338
-0.029700
-0.084350
0.133299
0.220251
0.138740
0.012786
-0.193289
-0.159519
0.341684
0.497706
0.407522
0.251342
0.214889
-0.706611
-0.984237
-0.587653
-0.188966
-0.024264
0.234211
0.337101
0.028764
0.129428
0.111473
0.120775
0.116378
-0.007995
0.050946
-0.084702
-0.083703
0.112090
-0.068632
-0.053930
-0.017265
-0.068076
0.011812
0.076422
-0.026757
-0.056883
-0.067297
-0.002590
-0.184001
-0.005382
0.013764
-0.070714
0.073694
0.039332
0.100014
0.119635
0.053056
0.195714
0.066232
-0.046625
-0.102668
-0.023312
0.079476
0.139547
-0.019955
0.081796
-0.103252
0.007856
0.096146
0.267573
0.053246
-0.050170
-0.042191
0.105056
0.103967
0.142437
0.220608
-0.085747
-0.461748
-0.762395
-0.587265
0.324110
0.402617
-0.065186
-0.040422
0.102735
0.258142
0.404114
-0.008193
-0.079875
-0.017688
0.037268
1.102540
-0.065979
0.121586
0.227423
0.208750
0.071789
-0.023016
-0.100022
-0.106549
-0.100678
-0.011465
0.075184
0.073939
-0.206579
-0.050261
-0.161494
-0.086503
-0.310737
-0.190354
-0.264104
-0.229822
-0.306271
-0.194074
-0.024489
0.035857
0.194320
0.353294
-0.244789
-0.115038
-0.219589
0.774325
0.152018
-0.614444
-1.186382
-0.872100
0.000058
0.396433
0.392551
0.243369
-0.110200
-0.389120
-0.340505
-0.055184
0.001599
0.135302
0.146112
0.285898
0.175583
-0.036960
-0.090719
-0.024366
0.070952
-0.044663
0.060829
0.188837
0.451652
0.221122
0.277057
0.081699
0.289160
-0.101397
-0.020054
0.032655
0.018187
0.099846
-0.007745
0.077215
-0.080015
0.064950
0.027268
0.012793
0.158772
0.115469
-0.014993
-0.073040
0.042919
0.043697
0.049258
-0.122978
-0.121212
0.003423
0.077874
0.098300
0.143631
0.187276
0.246076
0.173198
0.004494
-0.335944
-0.268681
-0.062311
-0.074476
0.028155
0.077336
0.079000
-0.062466
0.020050
-0.004302
-0.060330
0.028821
-0.183483
-0.189689
0.041384
0.120940
0.179969
0.037250
-0.113335
-0.156819
-0.162606
-0.157448
-0.140442
0.039161
0.023323
0.025321
0.150603
0.264681
0.078854
0.088443
-0.044941
-0.152841
0.006440
-0.073406
-0.141139
0.043248
-0.037833
0.130139
0.042691
0.040529
-0.097713
-0.031808
0.087833
0.112905
-0.025479
0.113988
0.143114
0.103031
-0.185604
-0.364231
-0.290021
-0.121176
0.067988
0.199379
0.151550
0.110051
0.240475
0.262983
0.141130
-0.085216
-0.153685
-0.216626
-0.025277
-0.072813
-0.024978
-0.168566
0.060620
0.149797
0.129050
-0.037339
-0.184111
-0.152211
-0.053646
-0.128814
-0.067722
-0.088111
0.089644
0.200549
0.117710
0.058053
0.031509
-0.127886
-0.196847
-0.010724
-0.102884
0.061981
0.236912
0.369401
0.224266
0.141201
-0.005367
-0.195271
-0.375579
0.340642
0.416335
0.449537
-0.061965
-0.343592
-0.158644
0.266158
0.508799
0.243756
-0.680177
-1.201319
-0.867906
-0.070948
0.071323
-0.014762
-0.021491
0.016931
0.044472
0.088081
0.095895
0.115896
-0.056720
0.168969
0.331927
0.379927
0.000043
-0.054187
0.030080
0.080580
0.045696
0.067362
0.054285
0.064926
0.067861
0.092835
-0.047338
0.039422
0.022590
0.014626
-0.034100
-0.085141
-0.047451
-0.016698
0.020645
0.024391
-0.029557
-0.058793
0.024657
0.068402
-0.004644
-0.138593
0.070504
0.019890
-0.103318
-0.143629
-0.063134
-0.013821
-0.043471
0.084503
0.078762
0.014815
0.129888
0.090004
0.057910
-0.077805
-0.074209
0.073639
0.005117
-0.006092
-0.171676
-0.089214
-0.064040
0.123031
0.185349
0.093490
-0.093942
-0.013953
-0.105269
-0.122186
-0.270534
-0.250447
-0.162975
0.001946
0.027058
0.056499
0.028009
0.013733
0.058506
0.209841
-0.222311
-0.037839
-0.016636
0.036786
0.033481
0.075529
-0.123847
-0.122923
0.061453
-0.038225
0.092996
0.074160
0.177166
0.076848
-0.248974
-0.140395
0.130735
0.209729
0.030532
0.033597
-0.041645
0.071300
0.150184
0.102733
0.176965
0.124898
-0.169549
-0.284286
-0.206767
-0.110255
-0.166681
-0.061133
-0.095614
-0.231104
-0.093962
-0.062786
-0.139360
-0.033309
-0.043477
-0.169837
-0.140207
-0.010662
-0.068003
0.015106
-0.103265
-0.446626
0.001791
0.041878
0.032667
-0.303351
-0.571667
0.642275
-0.259005
0.028203
-0.293827
-0.482275
-0.470918
0.364474
0.208887
1.760160
-0.178505
0.096376
0.251275
0.381579
0.462039
0.024884
-1.243604
-1.546169
-0.693941
0.064343
0.337944
0.029012
-0.034117
0.078170
-0.036633
-0.138447
-0.071741
0.015809
0.129470
0.021796
0.039632
0.240607
0.032024
-0.000378
0.103913
0.235414
0.349986
0.398760
0.151047
0.310291
-0.310685
-0.318518
-0.178652
-0.114694
0.046900
0.060764
-0.056905
-0.260052
-0.268906
-0.091606
0.028725
0.171201
0.176681
0.198691
0.361107
0.501739
0.399026
0.145906
-0.039210
0.003412
0.038739
0.083841
-0.058975
-0.726691
-0.731865
0.215563
-0.172432
0.151539
0.272208
0.211290
-0.118071
-0.059532
-0.234853
-0.123741
0.000889
0.054136
0.192835
0.017921
0.021208
0.096134
-0.134651
0.011983
0.067606
-0.004582
0.124223
0.011356
-0.000375
-0.038299
-0.205253
-0.230432
-0.227372
-0.012509
-0.009950
-0.016358
0.229603
0.386719
0.249825
0.188474
-0.094798
-0.235198
0.103732
0.076569
0.105917
-0.063477
-0.050474
0.105964
0.065301
0.073267
-0.049223
-0.061600
0.041541
0.000597
-0.004288
-0.024750
-0.049613
-0.021941
-0.027386
-0.136961
-0.091407
0.082973
-0.131799
0.000502
0.150347
0.009354
0.100718
0.144742
0.134596
0.025229
-0.057329
0.083298
0.139117
-0.006832
0.022707
0.031565
0.003938
0.110873
-0.063774
0.002478
-0.031658
0.033577
-0.033042
0.024545
-0.063520
0.032789
0.046398
-0.117125
0.065183
-0.123513
-0.026055
-0.057811
-0.098709
-0.140321
-0.048941
-0.009277
0.034793
-0.046158
0.079610
-0.085084
0.007998
0.012822
0.182878
0.083339
0.141652
-0.028356
0.021808
0.065680
0.177337
-0.029994
0.080333
0.125261
0.189232
0.291940
0.154273
0.154490
0.117696
0.050461
0.005615
0.284028
0.417587
0.116235
-0.110361
-0.103079
0.144994
-0.077573
-0.102459
-0.000249
-0.304763
-0.758300
-0.550022
-0.537450
-0.005931
-0.033321
-0.007846
0.044033
-0.072171
-0.063303
-0.118728
-0.061835
0.095047
0.062289
0.123188
0.112001
0.104663
0.015346
0.118056
-0.017063
0.098807
0.105536
-0.029732
-0.069671
-0.034344
0.040798
0.058177
-0.066005
-0.019671
-0.058262
-0.150889
-0.092949
-0.073762
0.025156
0.066950
0.169266
-0.023944
-0.252744
-0.404629
-0.414181
-0.248219
-0.289264
-0.080952
-0.082826
-0.085286
-0.035500
0.144697
0.185774
0.257496
0.224790
0.220154
0.101533
0.121714
-0.277460
-0.337060
0.011212
-0.094367
-0.005206
0.269010
0.527335
0.337736
0.392953
-0.003266
-0.208077
-0.104501
-0.005377
0.001067
0.084883
-0.018793
0.064297
0.046653
0.012778
0.108882
0.075402
-0.082565
0.070539
0.153102
0.064116
-0.193749
-0.277768
-0.169585
-0.056991
0.142509
0.014743
-0.098365
-0.044190
0.065038
0.016238
0.179506
0.262260
0.012157
-0.076466
-0.080434
0.062261
-0.080058
-0.056373
0.074408
0.144884
0.037503
0.123728
-0.043733
0.055004
0.052639
-0.022437
0.128064
-0.032480
-0.105190
-0.056979
-0.002897
0.055454
0.021463
-0.113572
0.032706
-0.124204
-0.016869
0.196662
1.142862
0.805524
-0.392638
-1.019924
-0.972767
-0.328575
0.337408
0.364486
0.126565
0.117479
0.036130
0.011909
0.044084
0.146889
0.003707
0.022097
0.055770
-0.027953
-0.015568
-0.038110
-0.120857
-0.186803
-0.073593
0.040235
0.216260
0.081311
0.078005
0.351201
0.414533
0.274329
0.393083
0.017912
-0.078216
0.066910
-0.290129
-0.575776
-0.481960
-0.496226
-0.026960
0.056022
0.030976
-0.088063
0.075843
-0.042294
0.015734
0.146166
-0.017424
-0.054632
0.054401
-0.076204
0.186413
0.124658
-0.014548
-0.167206
-0.269638
-0.090615
-0.259846
-0.294826
-0.143058
-0.004786
0.004176
0.016731
0.147756
0.409700
0.183227
0.090975
-0.132135
-0.076948
-0.033198
0.042447
-0.118853
0.107036
0.113189
0.058471
0.147958
-0.114708
-0.157150
0.102996
0.003474
0.086785
-0.080539
-0.149395
0.004992
-0.035338
-0.253128
-0.096263
0.118930
0.057417
-0.044544
0.021851
0.145257
0.089371
0.075420
0.166264
-0.004675
-0.044003
-0.085808
-0.137341
-0.070928
-0.096122
-0.113680
0.057276
0.101698
0.129760
-0.009447
-0.071619
-0.021267
-0.075087
-0.009590
0.141372
0.165186
0.096720
-0.122719
-0.146661
-0.001865
-0.141175
-0.046053
-0.070400
-0.008554
0.056901
0.104816
0.048936
0.195391
0.214798
0.075580
-0.085707
-0.108027
-0.160371
0.076808
0.034854
-0.022768
0.116193
-0.039104
-0.095142
-0.060769
0.052123
-0.019096
-0.073745
-0.139492
-0.091357
-0.079387
-0.057089
0.105635
0.106300
-0.180695
-0.452198
0.509581
0.434273
0.365517
-0.856834
-1.792449
-0.236051
1.157272
1.767333
-0.034099
-0.799361
-0.320799
0.236923
-0.399206
-0.030373
-0.034574
-0.239540
-0.394871
-0.395922
0.013173
0.157743
-0.035584
-0.051749
0.193995
0.487159
0.837829
0.676689
-0.158817
-0.783129
-0.958206
-0.762076
-0.633732
-0.501804
-0.108432
-0.015357
0.259667
0.518673
0.593042
0.534407
-0.042245
0.138383
0.252356
0.503287
-1.560073
-1.638439
-1.084467
-0.548035
0.009384
-0.161996
-0.446409
-0.366836
-0.149704
-0.077086
-0.317957
-0.167209
0.244564
1.444310
0.617137
-0.278876
-0.073995
0.145711
0.239529
0.380112
0.559660
0.356802
0.619009
0.379233
0.280656
0.236596
0.281426
0.382718
0.423877
0.670233
0.037808
0.161923
0.056568
0.069383
-0.091679
0.077716
-0.027340
-0.107843
-0.185580
-0.204456
-0.159433
-0.016628
-0.004491
0.057300
-0.012247
0.108589
0.128533
0.136617
0.178869
0.030692
0.036505
-0.124403
-0.215009
-0.053558
0.299304
0.174386
0.253492
0.116038
-0.321485
-0.250999
-0.047694
-0.089592
-0.057906
-0.046868
0.049210
0.080867
-0.076791
-0.055268
0.048963
0.079068
0.052166
0.079615
-0.073347
0.052181
-0.008127
0.061514
0.055095
0.058929
-0.054902
-0.072463
-0.052196
0.017255
0.023614
0.041901
-0.060447
0.007253
-0.143754
-0.099249
0.006127
0.076312
-0.000699
0.029294
-0.024004
-0.005296
-0.042771
0.085668
0.037621
0.116144
-0.061214
-0.034393
0.128339
-0.014021
-0.025340
-0.048839
0.029628
0.056855
-0.136173
0.064690
0.047721
-0.149078
-0.046126
0.217188
0.143669
0.131533
-0.060864
0.135046
-0.122014
-0.291888
-0.244009
0.145081
-0.228018
-0.092590
-0.009086
0.014846
0.015525
-0.065785
-0.017992
-0.152168
-0.062969
-0.115939
-0.105019
-0.124781
-0.155762
-0.184837
-0.151955
-0.137366
-0.236393
-0.283796
-0.087630
-0.139952
-0.107377
0.066960
0.013100
-0.080341
-0.281336
-0.059535
0.531094
0.572349
0.552319
0.348705
-0.066233
-0.055313
-0.096495
-0.107059
0.099340
-0.072732
-0.076154
0.051297
0.039791
0.061920
-0.039946
-0.049014
-0.026689
-0.028145
-0.037265
-0.010198
0.087029
-0.077046
0.072410
-0.079719
-0.032571
-0.008117
0.065604
0.042662
-0.022981
0.031437
0.023249
0.040665
-0.117773
-0.058780
0.020229
-0.016336
0.026085
0.060719
0.042752
-0.080434
0.010747
0.012645
-0.083179
0.058711
-0.069804
-0.054265
0.046890
0.041676
-0.027740
-0.089386
0.027282
-0.153928
-0.045527
0.071316
0.071171
-0.015121
0.057235
0.100141
-0.000791
-0.052441
0.011400
0.034497
-0.079078
0.190230
0.025764
0.185187
0.079829
0.051137
-0.069638
-0.224712
-0.109989
0.025027
-0.031463
-0.061831
-0.046334
0.102671
0.440785
0.556590
0.239652
-0.310986
-0.597778
-0.119775
0.427614
0.748513
0.105964
-0.363888
-0.795326
-0.690811
-0.271000
0.039250
-0.044203
0.185663
0.177988
0.047682
0.083739
-0.042287
-0.073922
0.033604
0.045284
-0.046401
-0.072278
-0.042386
0.040569
-0.070338
0.063375
0.020567
0.010782
-0.038522
-0.045866
0.030108
-0.075426
-0.018710
-0.057866
-0.082642
-0.073902
-0.069173
-0.076069
0.077787
-0.032168
-0.133568
0.004939
-0.056173
0.096190
0.051658
-0.018801
0.172940
0.123984
0.201888
0.129360
0.113830
-0.115114
-0.026327
-0.088306
-0.172017
-0.112262
-0.143787
-0.188697
-0.050782
-0.078419
0.056492
0.105117
0.142772
0.078184
0.032226
0.040917
0.048319
0.011574
-0.135712
-0.205149
-0.175911
-0.188219
0.076133
0.192194
0.197317
0.532077
0.059742
0.171215
0.060240
0.273061
0.099695
0.202005
0.116600
0.046436
0.028910
-0.010718
0.057544
-0.009436
0.181290
-0.025516
-0.026975
0.054638
0.026372
0.083126
-0.088103
0.162583
0.081283
-0.737004
-1.663465
-0.260183
-0.159315
-1.194643
0.293885
0.607005
0.774928
0.018204
0.042761
0.047442
-0.023391
-0.060216
0.070671
0.064379
-0.094032
0.049631
-0.089163
-0.020235
-0.085157
0.068166
0.002825
0.035777
-0.041775
0.052771
0.100282
-0.019541
-0.029880
0.040231
-0.023073
-0.044396
-0.111147
0.174241
0.052586
-0.089481
-0.028624
0.099689
0.164422
-0.171171
0.146071
-0.027263
-0.234122
0.048858
-0.022795
0.013437
-0.033043
-0.052483
0.022788
0.035001
0.028593
-0.098180
-0.050445
-0.073609
0.070486
-0.160131
0.026695
-0.106802
-0.034699
-0.081909
-0.477508
-0.133737
2.452674
0.511580
-3.669947
1.780780
1.078475
-0.765737
0.047126
-0.008676
-0.108189
0.017846
0.096554
-0.022016
0.134527
0.004181
-0.010076
0.077936
-0.052942
-0.033474
-0.088093
0.003928
0.077890
-0.004946
0.093375
-0.042740
0.051644
-0.003599
0.019084
0.062244
0.131934
0.134816
0.134225
0.129019
0.066177
-0.070781
-0.122500
-0.037850
-0.083554
0.234501
0.053067
0.146078
0.102364
-0.115082
-0.064651
0.077866
0.053832
0.144206
0.073594
-0.014468
0.028876
-0.116799
-0.017070
-0.101320
0.125213
0.135382
-0.094594
0.003741
0.124036
0.385371
0.940582
0.466591
0.058769
-0.682650
-2.328788
-0.059737
0.317722
-0.046679
0.222393
-0.250476
-0.245932
-0.221930
-0.140579
-0.186058
-0.068944
0.020078
0.109424
0.140925
0.247653
0.249610
0.455076
0.354970
0.239112
0.157326
0.073689
0.086071
0.071573
0.002720
-0.057169
-0.010735
0.154809
0.024653
-0.379686
-0.432018
-0.207553
-0.379390
0.000720
0.145473
0.008412
-0.110113
0.070892
0.040798
0.090537
-0.022095
-0.000717
-0.052771
-0.000550
0.078574
0.013241
-0.082613
0.103359
0.049130
-0.045263
0.034755
-0.022765
-0.028139
-0.036777
-0.130014
-0.099334
0.040568
0.053404
0.005071
0.030015
0.073589
0.077622
0.132016
0.033226
-0.052448
-0.193907
0.185125
-0.005984
-0.103465
-0.169157
0.065034
0.038645
-0.026375
-0.105928
-0.037427
0.075826
0.013727
0.043569
-0.001880
0.101462
-0.040694
-0.019789
-0.034668
0.064880
0.063636
-0.255799
-0.281274
0.027057
0.258528
0.595055
0.710540
0.417400
-0.096100
-0.437681
-0.602499
-0.427764
-0.027451
0.117276
0.002574
0.048830
-0.057215
-0.061783
0.090055
0.095724
0.095212
-0.107890
0.064873
0.045086
0.138321
0.294530
-0.153964
-0.393133
-0.753900
-0.254656
-0.067604
-0.016815
0.362695
0.584925
-0.249601
-0.011997
0.478423
0.321472
0.508376
0.341451
0.220930
-1.719624
-0.343701
-0.278719
-0.082991
-0.022506
0.176710
0.339904
0.443565
0.386694
0.272847
0.074217
-0.158560
-0.299521
-0.160232
-0.045934
-0.002435
0.026596
0.050246
0.049977
0.106450
0.148273
0.083667
-0.038230
-0.219994
-0.480608
-0.413814
-0.104072
0.027859
0.224051
0.062423
0.221708
-0.112027
-0.033311
0.077079
0.079293
-0.075443
-0.118696
-0.009941
-0.108220
0.157627
-0.144339
-0.112088
-0.005729
-0.023924
-0.191135
-0.037199
0.069345
-0.200785
-0.140442
0.107478
0.123485
-0.101238
-0.112395
0.260840
-0.409859
-0.211322
2.544424
0.020534
-1.387968
0.656768
-0.320658
-0.117559
-0.324713
-0.221331
-0.052740
0.016976
0.095644
0.113063
0.034497
0.288060
0.374041
0.472519
0.265958
0.187966
0.069378
-0.004990
-0.101417
0.077743
-0.038778
-0.057616
-0.059349
0.099287
-0.131296
-0.171650
-0.247867
-0.359563
0.079238
0.182978
0.028010
0.064117
-0.063593
0.095944
0.105954
-0.006232
-0.035782
-0.179013
-0.150407
-0.232206
-0.208587
-0.099299
0.057776
0.041445
0.199980
0.244854
0.175893
0.162063
0.225354
0.255010
0.215539
0.057513
0.074664
-0.011127
0.003262
-0.183424
-0.200515
-0.315733
-0.045746
-0.034032
-0.093731
0.004104
0.085049
-0.234220
-0.291178
-0.188603
0.105964
0.346313
0.046639
-0.120515
-0.056098
0.256540
0.621376
0.642076
0.205896
-0.826294
-1.308397
-0.830411
-0.485034
-0.310280
-0.114130
0.035700
0.073232
0.378242
0.405279
0.346532
0.246064
0.338920
0.223559
0.230368
0.125790
0.051458
0.518061
0.950709
-0.105705
0.483085
0.130503
0.302161
0.212194
0.482560
0.242935
0.267789
0.193986
0.110224
0.286316
0.122579
0.030829
0.045032
0.054969
0.205477
-0.017645
-0.121795
-0.073577
0.302662
-0.567868
-0.132823
0.019245
-0.645458
-0.493077
0.124830
-0.415589
0.049803
-1.879583
-0.081192
-0.265975
-0.294503
-0.169985
0.007165
-0.153294
-0.336640
-0.281220
-0.016643
-0.069774
-0.146845
-0.276723
-0.000563
0.467396
0.446729
-0.112473
-0.037367
-0.067127
-0.142013
0.413251
0.317627
-0.372760
0.393756
0.606032
0.245288
0.590601
0.581819
-0.186546
-0.089327
-0.760972
0.020479
-0.075991
-0.143402
0.039899
0.090562
-0.042092
0.081564
0.051666
-0.105485
-0.064929
0.086182
0.071679
0.074157
-0.106266
-0.008821
0.008459
0.005134
-0.083197
0.102422
-0.079910
-0.108841
0.075890
0.054291
0.004042
0.149308
0.097965
-0.016186
-0.045719
-0.111437
-0.120535
-0.096758
0.078001
0.017444
0.032557
-0.004421
0.039113
0.066731
0.002520
0.079113
0.044436
0.099013
0.042709
-0.132175
-0.115159
-0.013843
-0.067630
0.040282
0.067160
0.088229
0.081242
-0.082105
-0.051540
0.056437
0.017171
0.044022
0.194819
0.123312
0.016365
-0.070650
0.024938
-0.144647
0.052257
0.126290
-0.138095
-0.074649
-0.032831
-0.032670
0.136456
-0.041535
-0.064021
-0.000901
0.003406
-0.071792
0.159419
0.089079
-0.222000
0.158891
-0.109042
0.087317
-0.138345
0.065780
0.122036
-0.761465
-1.068497
2.596042
0.357721
-1.872752
1.872314
-0.534129
-0.395236
-0.039168
0.054943
0.063638
-0.075157
-0.050728
-0.066858
-0.099205
0.078209
0.009344
0.112274
-0.040329
0.051405
0.131437
0.113149
0.045173
0.098313
0.033589
-0.064780
-0.070069
-0.061162
0.075171
0.040137
0.053913
0.007106
-0.170044
-0.147781
-0.224223
-0.003964
-0.025844
0.147403
-0.052952
-0.052165
0.156052
0.226407
0.192870
0.141010
0.179282
0.146071
0.219956
0.198391
0.194430
0.026882
-0.188168
-0.198877
-0.165635
-0.178910
-0.159956
-0.078712
0.086142
0.105116
0.229031
0.320736
0.440692
-0.205278
-0.715583
-0.492723
-0.344970
0.255220
0.346470
-0.192961
-0.070779
0.238256
0.121040
-0.317761
-0.830209
-0.850016
-0.577426
-0.158819
0.133776
0.218427
0.116876
-0.163365
-0.381364
-0.372357
-0.139948
0.160692
0.284106
0.390651
0.425985
0.537422
0.241489
0.235820
0.073864
-0.285885
-0.357551
-0.023704
0.085441
0.332815
0.307139
0.466556
-0.329049
0.004465
-0.171305
-0.133369
-0.075551
-0.119323
-0.203181
-0.200089
-0.194853
0.027483
-0.176929
-0.298643
-0.077994
-0.005019
-0.497700
-0.822659
1.519225
-1.060355
1.138662
-1.492725
-0.161904
0.547100
0.690175
-0.099676
-0.622529
-0.109950
1.151598
0.609393
-0.299647
0.996805
0.094926
-0.040078
-0.077692
0.091077
0.007733
-0.078797
-0.009239
-0.063175
-0.003843
0.008607
-0.101149
0.087957
-0.018463
-0.063249
0.011185
-0.073660
-0.134892
-0.028756
0.104112
-0.118992
-0.047983
-0.137656
0.111355
0.076135
0.063610
-0.034825
0.117891
-0.048530
-0.065703
0.126090
-0.171183
0.014933
0.123292
-0.124773
0.001908
0.096271
-0.026507
-0.072846
0.072702
-0.196300
-0.041171
-0.062532
0.140491
-0.101430
-0.368215
0.002070
0.475103
0.435104
-0.333238
-1.336036
0.016737
1.399925
-0.608312
-0.331090
0.386702
0.343823
0.314047
-0.083418
-0.307765
0.371372
0.033263
0.059759
0.008648
-0.047890
-0.073180
0.017813
0.096201
-0.055220
0.019020
-0.052551
-0.026345
-0.028047
-0.017503
0.132236
0.073915
0.119750
0.018793
-0.086142
-0.012789
0.020111
0.079490
0.022492
0.065334
0.020169
-0.137988
-0.246479
-0.083070
-0.101218
0.101769
0.007781
0.054981
0.025306
0.095092
0.045606
0.142686
0.133847
-0.019303
-0.160415
-0.211547
-0.025672
0.068095
0.236645
0.248737
0.085827
-0.085774
-0.141983
-0.253419
-0.182316
0.093451
0.256248
0.170557
0.056842
-0.203485
-0.328456
-0.149510
-0.029087
-0.169611
0.106546
0.217361
0.164948
0.149815
0.163111
-0.024528
0.074682
0.008938
0.184284
0.238487
0.144072
0.102474
0.117549
0.025775
-0.026658
-0.233805
0.059154
0.275751
0.054266
-0.435151
-0.402640
-0.220772
-0.139152
-0.034457
0.008812
-0.014131
0.043674
0.219764
0.394094
0.144873
0.086888
-0.048901
0.079162
-1.622462
-0.708814
-0.794044
-0.701483
-0.584308
-0.598995
-0.623609
-0.329868
-0.301943
-0.121945
-0.076740
0.019704
0.326808
0.599967
0.250114
-0.052250
0.034109
0.087270
0.231286
0.151476
0.208911
0.335442
0.479752
0.402006
0.081110
0.723333
0.236177
0.875247
0.659726
1.047930
-0.004686
0.003006
-0.150862
0.061178
0.125818
0.029183
0.056009
0.011563
0.126213
0.026902
-0.125291
-0.040144
0.062013
-0.129320
-0.082423
0.095185
0.123457
0.114919
0.041274
-0.117349
0.009262
0.182217
0.099800
0.104060
0.177155
0.132643
0.001651
-0.076769
-0.136591
-0.132206
-0.167334
0.056247
0.101542
0.046925
-0.029526
0.102299
-0.089237
-0.210868
-0.224419
-0.184047
-0.270183
-0.211012
0.064857
0.009386
0.123597
-0.010476
0.080008
0.206161
0.126336
0.140766
-0.053076
-0.148436
-0.039029
0.006438
0.290323
0.317071
0.248384
-0.034402
-0.123589
-0.244924
-0.007073
-0.043536
0.012903
-0.044508
-0.134749
-0.146195
-0.118587
-0.049873
-0.015266
0.108793
-0.070291
-0.100402
-0.059007
0.037100
-0.024336
-0.064637
-0.110269
-0.075917
-0.023885
0.082893
0.055489
0.006400
0.117413
0.051808
0.027016
-0.022039
0.014445
-0.163665
-0.109715
-0.062564
-0.039643
0.168332
0.082245
-0.001908
0.055660
0.088843
0.079019
0.071575
0.000503
0.115668
0.157031
0.030545
0.018968
-0.040844
0.167776
0.135300
0.001071
0.063069
0.071887
0.321071
-0.043405
0.020306
0.095724
0.461691
1.570830
1.235989
-0.651897
-0.968020
-1.023460
-1.898849
-0.095963
-0.074541
-0.058438
0.005540
-0.037315
-0.027746
-0.023442
-0.030342
-0.130989
-0.225253
-0.228101
-0.251520
-0.145498
0.159659
0.184016
0.079952
-0.002106
-0.019560
0.030494
0.030958
0.089578
0.094005
0.036090
0.105208
0.128021
0.124099
0.099773
-0.070450
-0.021135
-0.217708
-0.211830
-0.131876
0.015703
0.035215
0.103306
0.181060
0.194416
0.016260
0.127674
0.011227
0.159011
0.240816
0.268783
0.263228
0.013108
-0.126058
-0.269459
-0.269426
-0.102147
0.205713
0.238664
0.268858
-0.007405
-0.541578
-0.682483
-0.267885
0.218222
0.309730
-0.073945
-0.292317
-0.061693
0.156188
0.329663
0.000894
-0.024878
-0.033079
-0.055502
-0.068851
-0.176348
-0.203345
-0.276604
-0.240795
-0.125144
-0.146997
-0.074742
-0.178662
-0.052797
0.107880
0.153668
0.376211
0.396246
0.581560
0.313592
-0.536893
-1.107111
-0.299924
-0.039987
0.292177
0.424627
-0.138815
-0.350589
0.017142
-0.132658
-0.120058
-0.112037
-0.182767
-0.100324
-0.177866
-0.050650
-0.123644
-0.151676
-0.027199
-0.382687
-0.187246
0.078517
0.085136
-0.372880
0.606935
-1.114575
-0.287456
1.417470
0.113040
-0.405059
-0.668667
0.119225
1.016250
-0.453491
0.286455
0.721999
0.319761
0.435853
0.272021
0.170908
0.266008
0.314835
0.357386
0.330198
0.290159
0.219614
0.009363
0.216071
0.232289
0.162329
0.068565
-0.108909
0.146314
-0.015606
-0.043146
-0.102991
-0.188713
-0.413412
-0.269873
-0.399360
-0.263311
0.042447
0.048375
-0.130035
-0.601318
-0.531739
-0.173865
0.115585
-0.036174
-0.014667
0.100356
-0.056184
-0.023037
-0.035951
0.021516
-0.017056
0.004677
0.022536
0.041236
0.046547
0.046266
-0.086255
-0.112846
-0.113245
-0.140077
0.071704
-0.046167
-0.122113
-0.138506
0.150966
0.022191
-0.048050
0.077042
0.000506
-0.101261
-0.004539
0.056119
-0.192131
-0.082773
-0.157869
-0.054585
-0.136153
-0.019860
-0.043811
0.203817
0.175177
0.094269
0.130800
-0.054486
-0.053904
0.008245
-0.032428
0.188080
0.014966
-0.057062
-0.090803
-0.288161
-0.463924
-0.294474
-0.206644
-0.079640
0.331828
0.413104
0.166091
0.089992
-0.003131
0.001458
0.198754
0.116479
-0.047946
-0.029742
0.126633
0.473026
0.529684
0.213232
-0.776749
-1.786759
-0.945142
0.058766
0.277455
0.089235
-0.078532
-0.013686
0.065677
-0.079895
-0.058721
0.010063
0.141351
0.191561
0.195653
0.143494
0.235678
0.071879
-0.112264
-0.027593
0.193660
0.539593
-0.196040
0.093203
0.010869
0.169282
0.180956
0.235602
0.170426
0.127993
0.033324
-0.049599
-0.127385
-0.193713
0.188703
0.213909
-0.217192
-0.742765
-0.576302
0.071310
0.446097
0.232526
-0.072572
-0.075420
0.150884
0.176867
0.183179
0.004521
-0.041514
-0.078520
0.013582
0.040136
-0.069784
-0.007515
0.050694
-0.038506
-0.068171
-0.037433
-0.086202
-0.074631
-0.011049
-0.084705
0.089342
0.076373
0.027993
-0.020680
-0.098159
0.094578
-0.012744
0.059555
0.067356
0.072624
0.020082
0.088264
-0.015721
-0.073621
-0.106586
-0.127330
0.012469
-0.063418
0.168589
0.029318
0.003197
-0.065230
0.048718
-0.071968
0.058894
0.037919
-0.066702
-0.009241
-0.027055
-0.070055
-0.065940
0.021194
-0.007726
0.032239
-0.053530
-0.020134
-0.080982
0.062428
-0.006913
-0.033525
0.028347
0.073306
0.003081
0.135993
0.055507
0.029739
0.033124
-0.064825
-0.141005
-0.099584
0.066211
0.028121
0.005975
0.051348
-0.043521
-0.033007
0.005456
0.110329
-0.027967
-0.014464
-0.017687
0.030331
-0.093101
-0.068318
-0.033372
-0.026704
-0.007554
-0.122527
-0.113182
-0.086570
-0.242713
0.015919
0.117290
-0.031829
0.169840
0.263323
0.103141
0.098070
-0.148198
-0.040903
-0.225765
-0.146715
-0.195443
-0.213121
-0.327252
-0.279728
-0.116172
0.184599
0.280380
0.325642
0.208860
0.106975
-0.033802
-0.239099
-0.342642
-0.170415
0.074978
0.110306
0.005539
-0.062968
-0.094893
0.113758
0.087960
-0.003481
0.225808
0.391474
0.194998
0.036749
-0.112863
-0.026496
0.053682
0.213365
0.130855
-0.200981
-0.847015
-1.065639
-0.457608
0.063994
0.079291
0.124976
0.217664
0.251442
0.102247
-0.162687
-0.167938
0.068193
0.170941
0.259456
0.232187
-0.029942
0.079433
0.249586
0.117374
0.215647
0.498327
0.562387
0.240825
0.051604
-0.138970
-0.293123
0.111955
-0.052839
-0.022890
-0.040265
0.086104
-0.048663
-0.032836
-0.025090
-0.007580
0.009253
-0.089000
-0.073010
-0.000438
-0.087707
-0.082410
0.056710
-0.143426
-0.095278
-0.076818
0.031102
-0.030441
-0.104897
0.057709
-0.005003
0.142030
0.222134
0.055026
-0.044975
-0.056965
-0.037120
0.057814
-0.070063
0.025780
-0.074775
0.028760
0.103136
0.024564
-0.034169
-0.069353
-0.023253
-0.041194
-0.022514
0.100663
0.036916
-0.113567
0.063334
-0.080853
0.069648
-0.125916
-0.019391
0.077242
0.031167
0.004623
0.067994
0.152286
0.088813
0.012286
-0.127197
-0.141274
-0.028903
0.031157
0.005289
0.005718
-0.001983
0.007326
0.077051
0.044550
0.022973
-0.028008
0.031638
-0.046217
-0.080259
-0.086412
0.007012
0.006674
-0.044473
-0.068920
-0.024982
0.028112
0.092062
-0.045583
0.001733
-0.124060
0.034048
0.040446
-0.060299
-0.056179
-0.044556
-0.063798
0.081908
-0.376024
0.053255
-0.199218
-0.164478
-0.246426
-0.170833
0.009072
-0.184143
-0.042701
-0.096301
-0.096964
-0.275976
-0.187820
0.122008
-0.681596
0.783861
-1.746321
0.682915
-0.291512
1.509892
-0.586046
-0.389358
-0.909228
0.921444
-0.025461
0.287063
0.441514
0.316936
-0.758678
1.768358
-1.672493
-0.863681
-0.321640
-0.166426
0.252282
0.296131
0.136260
-0.094363
-0.076386
0.079332
0.076436
0.086884
0.192698
0.324644
0.144828
0.016591
0.071391
0.028644
-0.019371
-0.072159
-0.054207
0.048086
-0.101318
0.162566
0.615941
0.770258
0.196509
0.027146
-0.050388
0.036110
0.035280
0.082854
-0.051487
0.037102
0.056518
-0.083520
0.079165
-0.014193
-0.064740
-0.020364
-0.037933
0.027372
-0.073779
0.100609
0.122938
0.105576
-0.133726
-0.216946
-0.079783
-0.056659
0.106778
-0.036649
-0.042344
0.030975
-0.018837
0.053343
0.060247
-0.063296
0.044015
0.033731
-0.051527
0.162714
-0.184240
0.037367
0.004704
0.023175
-0.174432
-0.084803
0.076784
0.051681
0.018968
-0.179312
-0.058609
-0.023963
0.023585
-0.084818
0.108058
0.075377
-0.075513
-0.223598
0.187862
0.661622
0.441783
-0.812099
-2.169148
1.383027
1.886297
-0.700911
-0.712991
0.106784
0.163743
-0.016758
-0.003493
0.122544
0.127154
0.038005
-0.162371
-0.179907
0.251208
0.234441
0.026477
-0.109848
-0.369929
0.130236
0.484104
0.376069
0.730136
-0.400722
-1.422909
-1.135062
0.180633
0.404081
0.181266
-0.160278
-0.279084
0.021562
0.070355
0.126895
0.046694
-0.058183
0.115094
0.178543
0.040029
0.028733
-0.032012
0.176678
0.241488
-0.108486
-0.304407
-0.035176
0.366590
0.946404
0.455452
-0.816661
-1.367240
-0.094232
0.635872
0.684973
0.313986
-0.703352
-0.725124
-0.171759
-0.056667
0.116019
-0.207927
-0.201016
0.031983
0.194665
0.038315
-0.020071
0.192318
0.019083
0.070402
-0.001392
0.167130
0.125757
0.181026
-0.010454
0.017278
-0.002165
-0.024710
-0.029557
-0.413775
-0.690034
-0.582942
-0.166862
-0.129167
0.056778
0.128960
-0.001728
0.059379
0.272783
0.068693
0.047599
0.409365
0.529256
0.293565
0.000501
-0.099088
-0.576832
0.097002
0.061680
-0.033828
0.049943
0.102417
0.119516
0.115765
-0.094098
-0.060920
0.008553
0.082609
-0.025761
0.065455
-0.087265
-0.076496
-0.147007
-0.193543
-0.112303
0.110546
0.061805
0.044247
0.100242
0.022572
0.148176
0.137699
0.174652
0.027755
-0.074927
-0.056531
-0.023484
0.279952
0.125950
0.167073
0.241307
0.121432
0.045332
0.044217
-0.117125
-0.217072
-0.162419
0.010847
0.020908
0.295918
0.243854
-0.031771
-0.384802
-0.242427
-0.022075
-0.021479
-0.195527
-0.629109
-0.507890
0.074213
0.125760
0.167530
0.502156
0.079941
0.157544
0.023587
0.039644
0.052946
-0.011331
0.136947
0.034110
0.121165
0.036082
0.089608
0.066152
-0.032316
-0.070437
-0.015602
-0.031649
-0.000986
0.017722
0.031047
-0.006434
0.049953
-0.073785
-0.001187
0.088981
0.051131
-0.033233
-0.191969
-0.124406
-0.047954
0.003951
-0.036217
0.000217
0.066388
0.058707
-0.097001
0.042258
-0.069647
0.025170
-0.093014
0.075805
-0.032170
-0.072851
0.070905
0.036215
-0.039068
-0.068759
0.040403
0.090243
0.044859
-0.105649
0.114374
0.076059
-0.005818
0.052348
-0.020458
0.013159
0.002446
-0.113662
0.056293
0.133221
0.049537
0.142903
-0.113035
-0.179351
weigvec 606
0.458683
-0.159074
-0.542825
-0.200764
0.012273
-0.353857
-0.047362
-0.461200
-0.074024
-0.176438
0.133239
0.264850
-0.297842
-0.774932
-0.058991
0.604281
-0.161976
-0.107735
0.026059
-0.287122
-0.086427
-0.076811
-0.140443
0.962922
-0.337971
-0.221926
-0.283703
-0.201801
1.122187
0.433366
0.595931
-0.115638
0.042326
-0.217114
0.035315
-0.184251
-0.057446
0.362524
0.106802
0.342637
0.763894
0.133344
1.022990
-0.218783
0.183237
0.307749
-0.161003
-0.419350
-0.833476
0.616479
1.245349
0.322004
0.219872
0.207721
-0.395507
-0.928541
-0.205934
0.022977
1.659316
0.060955
0.421818
0.740033
-0.646817
-0.041487
-0.679274
0.146619
0.314950
-0.164520
0.039144
-0.192254
-0.192032
-0.206543
0.173325
-0.246939
0.560225
0.649620
-0.373239
-0.308225
0.036698
0.230768
0.099941
-0.206849
0.109062
-0.219469
-0.107034
-0.160247
-0.846846
-0.080386
-0.179244
0.092356
-1.102579
-0.419130
-0.019981
1.432654
0.073496
0.548535
-0.758059
-0.205799
0.444293
0.238411
-0.094534
-0.061490
-0.011085
0.135371
-0.081041
0.342354
-0.034112
0.015204
-0.034437
-0.101168
0.640472
-0.137273
-0.099658
-0.108212
-0.661128
0.490905
-0.143752
-0.092275
-0.067392
-0.064006
-0.152599
-0.108712
-0.132597
-0.236617
-0.836865
-0.011693
-0.177251
-0.068769
-0.019354
-1.152523
-0.059156
0.530322
0.033606
-0.106592
-0.284618
-0.460288
0.007085
-0.101410
-0.205292
-0.039277
-0.069368
-0.883346
-0.159577
2.062471
-0.108797
0.083244
-0.171665
0.039219
-0.336143
1.495063
-0.050080
-0.552180
-0.078762
-0.147276
0.537395
0.212481
0.346836
-0.142964
0.034541
-0.241407
-0.155454
-0.028196
0.280449
-0.235978
-0.153640
-0.405678
0.062679
-0.113385
-0.085394
-0.791138
-0.131510
-0.008328
0.047723
-0.459481
0.094499
0.123428
0.161748
-0.719175
-0.224595
-0.201335
-0.261862
0.313708
0.149935
0.029853
-0.087610
-0.221026
0.027349
0.298855
-0.166564
-0.040457
-0.090447
-0.699664
0.515665
0.037064
0.188547
0.310797
0.083937
0.120694
0.007127
-0.433150
-0.004621
-0.031468
0.052846
-0.049305
-0.164296
-0.161696
0.327713
0.361919
0.228132
0.276377
0.304534
0.542671
-0.158169
-0.145069
0.257343
-0.348001
0.466929
-0.069674
0.371729
-0.053972
-0.104776
-0.624529
0.080557
0.459061
0.048011
0.028032
-0.399936
0.171419
-0.021626
0.283098
0.597508
0.079524
0.078681
0.471259
0.113616
-0.099297
0.351993
-0.052818
-0.159210
-0.089349
-0.071858
0.017856
-0.129471
0.055513
-0.679610
0.017897
-0.506223
-0.028405
0.155685
0.966284
0.402937
-0.058228
0.593951
-0.197807
0.146638
0.094134
0.021691
0.132670
0.135523
0.073832
-0.172475
-0.098470
0.043275
0.126712
-0.720988
-0.128976
-0.137360
-0.091278
-0.094886
0.066376
-0.599329
0.147417
0.434608
-0.133902
0.426152
0.127273
0.131559
0.055751
-0.625342
0.092674
-0.116458
0.244813
0.366650
-0.233927
0.059624
0.039456
0.073030
0.048081
0.412766
0.018359
0.079619
-0.078669
-1.018108
0.274427
-0.082581
-0.000498
0.307893
0.179093
0.462945
0.065925
0.024152
-0.081973
0.186246
-0.201406
-0.052625
-0.026540
-0.524303
0.186912
-0.173937
-0.169315
-0.119941
-0.368504
-0.201343
0.001598
-0.011153
0.139337
-0.738006
0.076916
0.297940
-0.368348
-0.048442
-0.103974
0.490851
0.200083
-0.289887
-0.223709
0.535043
-0.299907
-0.404111
-0.043206
-0.146027
-0.335864
0.300135
0.583812
-0.228509
0.170927
0.160936
0.363792
-0.034400
0.129978
0.419294
0.006291
0.249070
0.229093
-0.059219
-0.381509
0.138078
0.792387
0.194388
-0.064426
-0.016037
-0.700886
0.413609
-2.184615
-0.056475
0.196045
0.344465
-0.520895
-0.760261
-0.033128
-0.194286
-0.857312
0.211091
0.140302
0.364415
-0.686548
-0.021488
-0.614017
0.211250
0.117202
-0.168917
-0.523493
-0.048085
-0.370232
0.137864
0.323452
-0.102227
0.103521
0.185228
-0.341997
-0.139677
0.071140
-0.330644
0.073624
0.170224
0.176802
0.034980
-0.275830
-0.236018
-0.281449
-0.169229
-0.099542
-0.062985
-1.030091
-0.392577
0.090112
0.009711
0.190722
0.142312
-0.613954
-0.000281
-0.591729
-0.013650
-0.160914
0.526286
0.219181
0.581324
0.074849
0.345255
0.065982
0.353203
0.320411
0.283729
0.623830
-0.026895
0.219069
0.318643
-0.516715
0.545086
-0.362539
0.261027
0.195966
-0.018534
0.103412
-0.149392
0.479981
0.335597
-0.293329
0.508249
0.305795
0.277890
0.257308
0.253581
0.295483
0.240685
-0.098020
0.027273
0.108876
-0.628466
0.041563
-0.001230
0.481247
-0.045360
-0.117382
-0.141388
-0.019564
-1.310723
0.132946
-0.455931
-0.580236
0.092826
-0.226344
0.069279
-0.096015
-1.158651
-0.333629
-0.402318
0.149680
-0.513435
0.133918
0.103903
0.199510
-1.390116
-0.195133
-0.785853
-0.197444
-1.626157
0.040602
0.690324
-0.093126
0.021589
0.567767
-0.403544
0.241489
0.214999
0.096876
0.613803
0.316903
-0.356659
-0.446198
-1.318996
-0.135127
0.183911
0.428019
0.500342
0.490355
-0.088581
0.064210
0.219883
0.604288
0.614283
0.175720
0.108526
0.069571
-0.775098
0.613295
0.220898
-0.884126
0.501501
0.424244
0.496796
0.271047
0.525455
-0.025051
-0.017881
-0.780860
0.198120
-0.072194
1.058072
-1.053747
0.185605
0.008709
0.199831
-0.082247
-1.189837
-0.024161
-0.154010
-0.071240
2.940583
-1.627367
-0.477857
-0.045146
0.179970
0.106475
0.495113
0.033454
-0.492308
0.015568
-0.496283
0.323316
0.068708
0.024565
0.018684
-0.689746
-1.120486
-2.080185
0.067036
0.051250
0.207982
0.602963
-0.038948
0.087179
-0.958116
0.039753
-0.295748
0.248556
0.044519
-0.608918
-0.043864
-0.092545
0.151974
0.098119
0.188592
-0.415790
-0.616815
1.870386
0.476568
-0.069437
-1.235562
1.149307
1.262531
0.038971
0.055894
0.963732
-0.080449
-0.022251
-1.245462
4.038934
0.169400
1.102672
-0.045441
-0.401218
-0.011356
2.120662
-0.013556
0.075504
0.015364
-1.025912
0.019202
-0.495710
-0.421911
3.297666
0.976131
0.145553
-0.166440
-1.236556
-0.484537
-0.033019
0.098062
0.120817
-0.076860
-0.319771
0.190706
0.073891
0.020927
4.620455
-0.540288
0.025932
-0.795659
-1.294980
-1.211592
0.155730
0.042506
0.163639
0.010128
0.047306
biasvec 101
-4.020182
-3.999686
-3.824726
-4.692443
-4.130330
-3.800321
-3.998172
-3.810920
-3.974470
-4.481130
-3.975356
-4.003810
-3.981459
-6.329054
-5.213886
-4.249556
-3.826954
-3.956764
-4.065493
-4.213428
-4.001065
-3.961711
-4.008542
-3.784816
-3.960235
-3.844616
-3.941025
-3.905211
-2.891595
-4.658092
-6.690953
-3.822021
-4.038102
-3.931516
-4.244699
-4.048783
-3.967222
-3.945944
-3.964906
-3.927441
-2.781048
-4.005428
-2.653930
-3.928741
-2.191124
-4.127677
-4.033925
-3.900985
-3.100093
-4.191062
-4.606290
-4.371588
-4.038402
-4.755718
-4.887983
-3.526722
-3.967887
-3.900489
-3.956476
-3.942337
-4.139391
-5.022568
-7.316194
-3.957087
-4.079733
-4.061132
-3.931842
-3.909870
-5.588381
-3.876618
-3.929997
-3.950855
-4.019293
-3.952318
-4.004747
-3.634518
-6.702312
-4.418043
-3.998424
-3.835485
-4.468940
-3.870908
-4.024767
-4.065238
-3.980520
-3.889728
-4.400620
-3.999913
-4.082628
-4.071569
-7.551751
-4.203617
-3.991090
-3.504179
-4.460809
-4.283139
-3.942811
-4.033988
-3.720494
-4.034369
-3.954554
biasvec 6
-4.429322
-6.866248
-3.267035
-4.312838
-2.330793
-2.737054
