30 101 6
weigvec 3030
-0.036044
0.166908
-0.095651
0.092656
0.001477
-0.020789
0.098043
0.271380
0.465605
0.448986
0.196180
-0.189537
-0.456902
-0.516767
-0.054813
0.318383
0.308250
-0.087065
-0.307725
-0.355812
-0.229675
-0.077782
-0.091668
-0.166209
0.116670
0.543264
0.425564
0.139142
-0.194840
-0.495438
0.067898
-0.219586
-0.192803
-0.240229
-0.212165
0.028006
-0.315248
-0.591546
-0.512105
-0.313077
0.023332
0.293763
0.261792
0.275752
0.326392
0.264303
0.015626
0.171561
0.183099
0.049981
0.073691
-0.102953
-0.050175
0.086344
0.430354
0.591344
0.098215
0.062926
-0.098145
-0.273405
-0.055549
-0.034457
-0.198372
-0.058184
-0.197019
-0.085189
-0.097747
0.047588
-0.071180
-0.071206
-0.005110
0.366802
0.466614
0.375373
0.298048
-0.064916
-0.199009
-0.340881
-0.329356
0.079514
0.201318
0.143532
0.069279
0.104782
0.213600
0.312964
0.192238
0.115923
-0.155074
-0.344203
-0.107480
-0.085821
0.016723
-0.035146
-0.034657
0.000430
0.062460
-0.065913
-0.097422
0.014452
-0.032118
-0.097042
-0.009405
-0.075224
0.063203
0.047434
0.154621
-0.037058
-0.245284
-0.081981
0.138057
0.338210
0.578339
-0.306325
-1.442971
-0.473306
0.722201
-0.005746
-0.058536
0.589708
-0.065186
-0.287247
-0.558290
-0.404782
0.060387
0.388686
0.404599
0.217523
0.249819
0.166920
0.101309
-0.009749
0.051341
0.047112
0.215293
0.222384
0.199360
0.101471
0.011410
-0.029347
-0.073008
-0.055590
0.009001
0.150515
0.186001
0.283201
-0.047308
-0.082032
-0.197423
-0.298802
-0.189152
-0.074981
-0.026087
-0.052504
0.039303
-0.045583
0.119044
0.072129
0.246889
0.225770
0.166631
0.272712
0.240126
0.163184
0.133395
0.279312
0.281582
0.237381
0.117396
0.051071
-0.162545
-0.424670
-0.283629
-0.057064
-0.057862
-0.048758
-0.158256
-0.168698
-0.253700
-0.096013
-0.043150
-0.017295
0.108752
0.159403
0.121192
-0.030058
0.044233
0.013610
-0.057748
0.039346
-0.132989
-0.140304
0.054364
0.094297
0.186456
0.105340
0.004074
-0.098997
-0.193099
-0.187723
-0.171000
-0.024913
-0.007094
0.023872
0.098329
0.155054
-0.039082
0.023763
-0.088665
-0.245731
0.092069
-0.067327
-0.186292
-0.011268
-0.048745
0.185862
0.081877
0.048403
-0.113687
-0.061087
0.067146
0.183684
0.152124
0.226612
0.126265
0.074074
-0.141909
-0.299230
-0.222782
-0.058338
0.040375
0.084560
0.051788
0.005017
0.214464
0.268572
0.049985
-0.062210
-0.117866
-0.357075
0.004875
-0.060292
0.036388
-0.074280
0.094310
0.104024
0.107327
0.037460
-0.067097
-0.067564
0.019714
-0.080720
0.030809
-0.008664
0.085266
0.152870
0.079567
0.042254
-0.022505
-0.102248
-0.103910
0.015508
-0.058749
0.016621
-0.090086
-0.013223
0.048699
0.033937
0.061846
-0.029552
0.325533
0.149022
-0.050209
-0.130021
0.080848
0.266168
0.370387
0.084113
-0.194908
-0.766167
-1.395896
-1.193337
-0.349412
0.063335
0.192033
0.117123
0.271148
0.272884
0.081479
0.175975
-0.002042
-0.091897
-0.011382
0.193743
0.495987
0.367892
0.136379
0.219691
-0.059375
0.088790
0.042395
0.034120
0.018461
0.038902
0.049553
0.090647
-0.033770
0.045246
0.023228
0.021152
-0.031327
-0.094744
-0.069640
-0.052879
-0.020764
0.003462
-0.021347
-0.022250
0.052957
0.090680
0.037217
-0.098277
0.071063
-0.017750
-0.129360
-0.148660
-0.035779
-0.009727
-0.035724
0.143024
0.037778
-0.017245
0.084369
0.023393
-0.018778
-0.110962
-0.055089
0.101715
0.048746
0.040408
-0.125738
-0.036571
-0.002161
0.169410
0.234035
0.172183
-0.044159
-0.147448
-0.374409
-0.345912
-0.353341
-0.224800
-0.114339
0.083626
0.188526
0.179860
0.110551
0.064204
0.029511
0.172260
-0.120509
0.060226
0.062317
0.118653
0.076436
0.078043
-0.157099
-0.125176
0.133588
0.020664
0.114599
0.038166
0.085240
0.038082
-0.097661
-0.032096
0.011777
-0.041518
-0.095243
0.229237
0.321388
0.254791
0.164289
0.148743
0.438716
0.021316
-0.987181
-0.838480
-0.247858
0.190167
-0.296736
-0.012220
-0.104959
-0.040931
-0.006751
0.035241
-0.142407
-0.210948
-0.079391
-0.030032
-0.043243
-0.058822
-0.079769
0.041993
-0.092895
-0.002333
0.044671
-0.256659
0.026394
-0.029709
-0.223277
-0.290538
-0.154295
0.318694
-0.721800
-1.464703
3.149203
1.667103
-0.902310
-0.612365
-0.770339
-0.592111
-0.668943
-0.699911
-0.725843
-0.687903
-0.660229
-0.545655
-0.490136
-0.345190
-0.065001
-0.018200
0.331779
0.288349
0.898943
-0.137047
-0.050487
0.013736
0.134454
0.501318
0.482491
0.307272
0.570028
0.297171
0.584153
0.267798
0.286354
0.178071
0.476455
0.799204
0.161765
0.059745
-0.073305
-0.101841
0.048955
0.167844
-0.026966
0.018205
-0.101277
-0.254006
-0.253827
-0.285659
-0.239060
0.054327
0.422761
0.853506
0.934729
0.447722
-0.078605
-0.273921
-0.438907
-0.182413
0.105671
-0.017731
-0.402213
-0.419782
-0.330215
-0.142364
-0.076707
0.151062
-0.096454
-0.025836
-0.167079
-0.065138
0.004184
0.036218
0.186146
0.067479
0.044861
0.117483
-0.056735
0.041037
0.087067
0.030021
0.161319
0.027240
0.014387
-0.000722
-0.155412
-0.082347
-0.095419
-0.011905
0.034516
0.030049
0.102496
0.139624
-0.019772
-0.029903
-0.147385
-0.223956
0.375008
0.305146
0.237050
-0.044327
-0.035951
0.203379
0.169489
0.103011
-0.135201
-0.161996
-0.019976
-0.079614
-0.105911
-0.149216
-0.130782
-0.034104
0.028400
-0.106096
-0.112706
0.097021
-0.138169
-0.124626
0.018895
-0.047646
0.232285
0.230170
0.115361
0.067511
-0.139136
-0.092919
0.114104
-0.045743
-0.004554
0.012881
-0.011882
0.095525
-0.073136
-0.005843
-0.038602
0.034155
-0.037349
0.001303
-0.107100
0.003856
0.028939
-0.138084
0.064966
-0.100004
0.013863
-0.015853
-0.058021
-0.096915
-0.028500
-0.019888
-0.026884
-0.116378
0.088339
-0.065348
0.079890
0.120665
-0.025286
0.054226
0.011103
-0.006128
-0.035088
-0.074172
-0.018855
-0.071565
-0.148978
-0.082565
-0.041178
0.022194
-0.114016
-0.126684
-0.140350
-0.044845
-0.037787
0.002545
0.372620
0.760782
1.133860
0.612196
-0.310437
-0.345605
-0.106554
0.072724
-0.824129
-1.182342
-0.234129
0.785232
-0.005285
0.006885
0.032137
0.083594
-0.033996
-0.044453
-0.118441
-0.076010
0.069116
0.029364
0.098459
0.102273
0.110063
0.054092
0.154397
-0.006591
0.049732
0.044192
-0.033353
-0.023824
-0.003136
0.044296
0.064865
-0.065452
-0.012585
-0.011097
-0.153882
-0.152748
-0.150951
-0.013899
-0.065651
0.181675
0.128906
0.039500
0.007730
-0.059712
0.064680
0.023069
0.158791
0.059208
-0.006926
-0.091893
0.024137
0.045601
0.184877
0.244504
0.190796
-0.002086
-0.076293
-0.299002
-0.250477
-0.067705
0.022170
0.144707
0.099749
0.139497
-0.075581
-0.057732
-0.181053
-0.247427
-0.206717
-0.100888
-0.075004
0.043954
-0.032626
0.097555
0.056984
0.002361
0.132615
0.134226
0.023699
0.150205
0.160853
0.018978
-0.215732
-0.216407
-0.029446
0.014821
0.155155
0.057544
-0.052492
-0.118801
-0.129358
-0.053554
0.300133
0.338687
-0.023310
-0.096103
-0.094865
0.035440
-0.397954
-0.055938
-0.166106
-0.067492
-0.312098
-0.105232
-0.002667
-0.014331
-0.090324
-0.228697
0.005433
-0.063382
-0.119442
-0.118428
-0.217036
0.090929
-0.175149
-0.166494
0.145765
-0.075132
-0.105030
-0.303273
0.308855
0.813796
0.048946
-0.894553
-0.704792
0.795469
1.742838
0.376529
-0.008020
0.058308
0.069554
0.011722
-0.010252
0.136049
-0.035382
0.028901
0.136512
0.005409
0.033001
0.071785
0.102712
0.061823
-0.028606
-0.072613
0.061245
-0.015976
0.032098
0.207704
0.277548
0.127425
0.165285
0.013380
0.099655
0.058029
-0.511075
-0.604662
-0.274339
-0.185049
0.046169
0.112343
0.019211
-0.114509
0.043625
-0.052573
0.055354
0.185626
-0.026738
-0.077030
0.074586
-0.056721
0.152717
0.030325
-0.050356
-0.131357
-0.129431
0.021775
-0.175792
-0.169300
-0.086321
-0.077782
-0.101905
-0.001644
0.107494
0.298934
0.062321
0.065710
-0.114587
-0.110681
0.192624
0.125551
-0.319836
-0.084313
0.080171
0.247286
0.361849
-0.006941
-0.353605
-0.091810
0.266422
0.488033
0.333518
-0.002258
-0.425905
-0.790337
-0.797684
-0.195225
0.145267
0.198283
0.210427
0.253531
0.009434
0.040019
0.294390
0.214267
0.336879
0.253713
-0.198594
-0.709315
-0.020740
-0.062902
-0.090802
0.064015
0.072317
0.091960
-0.019944
-0.052057
0.020388
-0.031681
0.022621
0.141471
0.149186
0.100306
-0.068147
-0.092502
0.031403
-0.135510
-0.022902
-0.010858
-0.011181
-0.031147
0.021976
0.001798
0.140111
0.103798
-0.010884
-0.076161
-0.061442
-0.146492
-0.325419
-0.723813
-1.058846
-1.054710
-0.753451
-0.213054
0.073230
0.139907
0.445951
0.482576
0.365081
0.169930
0.066826
-0.179656
-0.051962
-0.188181
-0.183984
-0.157648
-0.125604
0.139190
0.081557
0.066597
0.189700
0.197297
0.270994
0.145066
0.270061
0.328677
0.114379
0.972686
-0.284739
0.240582
0.357777
0.115556
-0.479645
-0.898069
-1.150314
-0.932175
0.052361
0.331303
0.213845
0.305710
0.396887
0.308419
0.153487
-0.082441
-0.093970
-0.089989
-0.255385
-0.119063
-0.120696
-0.080725
-0.153986
0.039308
0.282502
0.283656
0.238253
0.442900
-0.011069
0.589689
-0.588344
0.229515
-0.099235
-0.109892
-0.074346
0.101839
-0.129051
-0.037221
-0.167570
-0.092298
-0.119600
-0.119035
0.008137
-0.039139
-0.174911
0.071547
-0.282660
0.002266
0.099269
-0.127719
-0.210910
-0.057821
-0.037098
-0.843855
0.821201
4.361992
-1.036541
-0.512171
0.314034
-0.728192
-0.057083
0.070560
0.033645
0.119234
-0.034517
0.068828
-0.050973
-0.054339
-0.076563
-0.067524
-0.042343
0.031068
0.033779
0.111060
0.047704
0.139079
0.125714
0.127626
0.182973
0.014718
-0.037078
-0.149442
-0.133250
-0.101776
0.034890
-0.128776
-0.048053
0.001901
-0.104939
0.036286
-0.106356
-0.145280
-0.101038
-0.075524
0.042503
0.110436
-0.012091
0.004529
0.062395
0.068412
0.032882
0.057909
-0.046949
0.133827
0.119014
0.191010
0.130606
0.059946
-0.096986
-0.103217
-0.060567
0.060704
0.092838
-0.008968
-0.219564
-0.139902
-0.202677
-0.144096
-0.009754
0.162740
0.035462
0.045867
-0.007010
0.001336
-0.033023
0.132332
0.061352
0.098048
-0.109909
-0.099636
0.075547
-0.067230
-0.058687
-0.056000
0.018059
0.080381
-0.064423
0.130838
0.097599
-0.121460
-0.013095
0.164251
0.035532
0.014854
-0.052537
0.211507
-0.149229
-0.244735
-0.148895
0.074462
0.021167
0.083730
0.085700
0.000529
-0.058449
-0.009581
0.136687
-0.081423
0.010546
-0.033026
-0.028354
-0.008893
-0.104107
-0.176302
-0.157721
-0.054662
0.047478
-0.000971
0.017369
-0.105766
-0.068600
0.009229
-0.143587
-0.108876
0.046434
0.074570
0.098399
-0.080463
-0.036404
0.073585
-0.040247
-0.030415
-0.078708
-0.095128
0.110420
-0.052676
-0.060482
0.060027
0.043720
0.060922
-0.030271
-0.030603
-0.006131
-0.005783
-0.016369
-0.005344
0.072578
-0.117192
0.015337
-0.120257
-0.039354
-0.016257
0.051612
0.055523
0.024878
0.055713
0.022342
0.064140
-0.147063
-0.170616
0.032668
-0.033924
0.016719
0.061758
0.035332
-0.100983
0.021462
0.027760
-0.077300
0.070067
-0.102617
-0.071803
0.064832
0.046145
-0.070613
-0.108666
0.057963
-0.152917
-0.028571
0.114538
0.097547
-0.039358
0.005812
0.068647
0.060188
0.035396
0.047156
0.056984
-0.121505
0.125187
0.138320
-0.083143
-0.042067
0.031640
-0.027176
-0.033596
0.028823
0.064440
-0.079123
0.042525
-0.075489
-0.061848
-0.010238
0.025762
0.147677
-0.082515
-0.002808
0.177329
0.069453
0.211476
-0.243512
0.040631
-0.651237
-2.767129
-1.178811
2.824749
-0.130818
0.208319
-0.087926
0.975396
0.019294
-0.104298
-0.107346
0.012965
0.033194
-0.041563
-0.036274
-0.006683
0.062258
-0.057270
0.076934
0.035989
0.026674
-0.026022
-0.041045
0.015515
-0.108618
-0.035260
-0.082828
-0.109367
-0.100378
-0.075406
-0.044589
0.097969
-0.148311
-0.268300
0.061787
-0.018803
0.167345
0.214421
-0.081334
0.013750
-0.054375
0.032388
-0.023755
0.046314
-0.020578
-0.022430
0.044677
-0.079051
-0.053682
0.102260
-0.062521
0.098393
0.091148
0.004083
-0.020947
0.040659
0.023514
0.185567
0.065032
-0.170142
0.126141
2.218408
1.002985
-1.569233
-1.149898
-0.182078
-0.294473
-0.007601
-0.156770
-0.088367
-0.065343
-0.013323
0.014122
-0.034756
0.035612
-0.095696
-0.019965
-0.065955
-0.073864
0.142274
0.098084
0.170674
0.089562
0.001656
-0.157385
-0.110854
0.031567
0.208306
0.378152
-0.129648
-0.965709
-0.829440
0.352128
0.472535
0.149455
-0.053969
0.174097
0.515966
-0.053310
-0.006074
0.077285
0.098546
0.023670
0.013784
-0.076642
-0.237955
-0.137633
-0.229391
-0.084649
-0.083456
0.092730
0.095479
0.169756
0.124774
0.230263
0.337604
0.325730
0.318696
0.181120
-0.195786
-0.459825
-0.522230
-0.072108
-0.143584
-0.316463
-0.080353
0.357978
0.496884
0.234915
-0.189185
0.161444
-0.059893
0.116440
0.015868
0.247708
-0.092227
0.178346
0.000992
0.236101
0.054857
0.049391
0.104962
-0.186009
0.135816
0.221144
-0.028781
0.148032
-0.000203
0.486338
-0.516867
-0.267775
1.649707
0.547419
-4.188748
-0.229545
1.233948
-0.684678
0.580395
0.012531
-0.026819
0.097705
0.146888
0.024319
0.167381
0.021429
-0.001881
0.083848
-0.022368
0.020586
-0.009741
0.085393
0.134231
0.045844
0.134690
-0.058109
-0.057730
-0.118799
-0.037554
0.051633
0.151723
0.106123
0.057339
0.093114
0.046197
-0.111806
-0.136940
-0.102376
-0.225678
0.257862
0.042083
0.199683
0.062694
-0.132428
-0.234369
-0.297817
-0.296696
-0.096042
0.191466
0.380113
0.610239
1.086282
0.604229
-0.010505
0.027718
-0.150827
-0.361376
-0.170411
-0.082179
-0.158679
-0.035224
-0.034059
-0.461636
-0.397588
-0.107320
-0.322590
-0.326115
-0.020199
0.280856
-0.159683
-0.022381
0.013852
0.031869
-0.016632
0.009286
0.027903
0.032779
-0.022038
0.079494
0.077781
0.068079
0.024411
0.259629
0.223806
0.104169
0.218246
0.035554
-0.636873
-1.237706
-0.061420
0.386667
0.981701
0.801050
0.012513
-0.626386
-0.742348
-0.695262
-0.060660
0.683996
-0.082775
0.142049
0.115912
0.138764
-0.004975
-0.012074
-0.070724
-0.002065
0.086782
0.025220
-0.088072
0.091420
0.057720
-0.026330
0.046922
-0.020174
-0.038825
-0.060605
-0.131915
-0.076716
0.055442
0.048012
0.003792
0.016362
0.036393
0.023947
0.069188
0.007483
-0.066439
-0.231647
0.065119
-0.066807
-0.019168
-0.055413
0.102514
-0.018950
-0.047281
-0.084805
-0.000067
0.099638
-0.005480
-0.017433
-0.057190
0.079227
-0.056078
0.004318
-0.037784
0.014733
0.114071
-0.062440
-0.060740
0.050931
0.006015
-0.008402
0.160065
0.081336
-0.068886
-0.020248
-0.146474
-0.103850
-0.077832
0.378267
-0.077469
-0.053940
0.048919
0.018521
-0.227213
0.013355
0.396477
0.325941
0.260797
-0.006201
-0.451876
-1.079391
-1.628039
-0.864235
-0.031906
0.484949
0.493884
0.694917
0.629937
0.395958
0.524484
-0.099540
-0.135693
-0.370077
-0.214383
-0.104065
0.086777
0.188767
0.017411
-0.107887
-0.017747
-0.002125
0.057264
-0.018729
0.062131
0.064573
0.027164
0.002301
-0.068005
-0.111627
-0.013683
-0.017695
-0.018485
-0.071061
0.046918
-0.032693
0.044502
0.084181
0.108415
-0.113778
-0.111965
-0.163884
-0.148558
-0.022500
0.195305
0.140161
-0.005599
0.186896
0.170512
0.130417
0.091741
0.114183
0.054611
0.113440
0.175287
0.148509
0.139513
0.072956
0.037087
0.094494
0.053939
0.075541
0.148086
0.106689
-0.136703
-0.018976
0.226332
0.321235
-0.118237
-0.144046
-0.138479
0.578636
1.211196
1.287591
0.038045
-0.604738
-1.365243
-1.970699
0.145894
-0.111121
0.140132
0.516578
0.837910
0.686905
0.260422
-0.019316
-0.200107
-0.371657
-0.385611
-0.319905
-0.132006
-0.030626
-0.081571
0.021824
0.103108
-0.000759
0.107693
0.119337
0.230738
0.243119
0.181202
-0.220327
-0.637305
-0.338480
-0.483481
-0.484424
0.017005
0.499156
0.076890
0.060738
-0.043507
0.022468
-0.045569
0.054413
-0.069423
-0.087099
-0.000533
0.065356
-0.048079
0.040508
0.053195
0.007857
0.041350
0.092108
0.103410
0.048631
-0.090827
0.085304
0.086392
0.109707
-0.088390
0.016569
-0.108609
-0.014485
-0.058138
-0.154132
-0.055525
0.095567
-0.119904
0.107703
-0.036169
-0.109041
-0.026243
-0.242543
-0.165372
0.126915
0.144346
-0.020414
-0.039681
0.198773
0.332509
0.076169
-0.327188
-0.968652
-0.767951
-0.718550
-0.590378
-0.270223
-0.121886
-0.005212
0.586231
0.378910
0.931781
0.645000
0.238019
-0.014228
0.144160
0.928324
-0.017240
-0.151578
-0.147755
-0.055207
-0.082339
0.176452
0.243492
0.373657
0.543198
0.829542
0.525515
0.214113
-0.054670
-0.124312
-0.206365
-0.290863
-0.233660
-0.194074
-0.080035
-0.076752
0.019504
0.043150
-0.075323
-0.192593
-0.391729
-0.333873
-0.571397
-0.215576
0.117278
0.170590
0.436376
-0.191549
-0.374118
-0.748652
-1.126782
-0.934292
-0.270510
0.134217
0.028748
0.069633
0.077366
-0.049821
0.154641
0.162979
0.141900
0.076040
0.238487
0.252319
0.112540
0.199030
0.025003
0.161815
0.111745
-0.123419
0.637156
0.934625
0.104558
0.159556
-0.036371
-0.324049
0.058897
-0.043448
-0.113182
0.062315
0.118820
0.001343
0.118642
0.094975
-0.072771
-0.063236
0.075216
0.056875
0.087862
-0.075229
0.008798
0.025899
0.028090
-0.098694
0.097472
-0.036584
-0.049367
0.079248
0.003814
-0.084162
0.107764
0.072316
-0.121802
-0.113325
-0.143292
-0.168196
-0.100894
0.104473
0.063636
0.090741
0.031573
0.039678
0.050415
-0.017564
0.076502
0.054702
0.128680
0.074429
-0.103305
-0.129817
-0.055792
-0.093603
0.069707
0.072100
0.036048
0.056760
-0.045152
-0.076270
-0.002801
-0.012284
-0.001558
0.186126
0.223149
0.099039
-0.086069
-0.091264
0.173562
0.084787
-0.069440
-0.094449
-0.103641
-0.096358
-0.049711
0.263316
0.196445
-0.016848
-0.143571
-0.192552
-0.184969
-0.230089
-0.095325
0.283392
0.562683
0.891385
0.627427
0.227788
-0.462439
-0.613733
-1.045113
-0.638523
-0.007170
0.119436
0.070698
0.166843
0.104197
0.204022
-0.064055
0.047873
0.053524
-0.081323
-0.026042
-0.033902
-0.084357
0.091717
0.017861
0.079009
-0.102083
-0.006825
0.083319
0.066534
-0.024061
0.036808
-0.010443
-0.083642
-0.075408
-0.020697
0.127199
0.046165
0.004987
0.006883
-0.080166
-0.035141
-0.126382
0.027559
-0.059637
0.181415
0.038459
0.005533
-0.005607
0.102866
0.172629
0.138879
0.290730
0.241636
0.237782
0.085312
-0.030195
-0.131691
-0.161600
-0.137275
-0.140724
-0.056082
-0.062910
-0.118058
-0.077351
0.013900
0.100180
0.049546
0.223601
-0.117693
-0.328641
-0.245186
-0.084800
0.052254
0.102605
0.195149
0.000980
0.093911
0.019478
-0.050426
-0.092009
0.048513
-0.056241
-0.040149
0.026491
0.064635
-0.073308
-0.063407
-0.109217
0.080126
0.130413
0.103568
0.072206
0.063011
-0.045635
0.041432
0.043701
0.056983
0.000515
-0.013120
-0.025552
-0.004867
-0.050678
-0.110720
-0.045360
-0.029286
-0.347144
-0.082687
-0.060647
-0.284969
-0.009898
-0.036626
-0.379113
-0.028926
-0.096019
0.000950
-0.124721
-0.404051
0.254039
-0.375145
0.309720
-0.484348
-0.121229
0.399024
-1.092408
0.975022
-0.500354
-0.199812
0.327486
-0.460397
0.818156
-0.756521
1.017273
0.374767
-2.106625
2.851454
0.147373
-0.057382
-0.095926
0.117444
0.013817
-0.087295
0.009414
-0.053480
0.003999
0.001267
-0.136324
0.078593
-0.058894
-0.117011
0.002672
-0.061587
-0.138855
0.000132
0.179737
-0.093588
-0.039445
-0.161940
0.075465
0.052727
0.081697
-0.010270
0.132242
-0.060844
-0.082305
0.116366
-0.105919
0.082952
-0.116410
0.011260
0.069871
0.044613
0.104221
-0.026042
0.119291
-0.059819
-0.039917
-0.038558
0.022581
-0.190018
0.207333
0.423748
0.423549
-0.006593
-0.189019
-0.046180
-0.761171
-0.971085
-0.823146
-0.037685
0.768561
1.208952
-0.265674
0.286512
-0.053322
0.041820
0.018486
0.049291
-0.013067
-0.071078
-0.074372
0.039950
0.109628
-0.055767
0.014198
-0.065011
-0.031533
-0.032853
-0.029430
0.120604
0.054846
0.097271
0.009292
-0.093964
-0.044978
-0.009991
0.076257
0.062016
0.103020
0.058257
-0.084865
-0.209541
-0.048834
-0.098050
0.066900
0.012292
0.087570
-0.100145
-0.087058
-0.101921
0.087121
0.167276
0.056289
-0.046926
-0.068965
0.106555
0.119301
0.170732
0.130976
-0.022297
-0.178868
-0.156634
-0.167600
-0.120066
0.065640
0.064841
0.069289
0.089414
-0.023781
-0.018917
0.144760
0.162051
-0.068157
-0.028446
-0.028332
0.030051
0.186292
0.227092
0.004064
-0.034266
-0.074761
0.117095
0.174747
0.221529
0.168013
0.031785
-0.070107
0.007974
0.030559
0.389499
0.340718
0.165355
-0.178582
-0.621400
-0.834962
-0.477590
-0.218152
0.052567
0.080513
0.143770
0.429414
0.374497
0.197817
0.292695
-0.096979
-0.015437
-0.222028
-0.293932
0.138081
0.023250
-0.187263
-0.188992
-0.054179
0.085086
-0.033293
-0.062857
-0.065549
0.112310
0.052565
0.037964
-0.309911
0.309478
-0.081072
-0.226714
-0.197024
0.720552
0.783010
-1.127664
-0.518884
0.636227
0.910148
0.954181
-0.363110
0.169504
-0.085535
-0.428956
0.039894
0.037761
-0.081606
0.119560
0.157823
0.078943
0.108629
0.043292
0.133290
0.042321
-0.132284
-0.153788
-0.032180
-0.119983
0.021675
0.209190
0.181933
0.127303
0.129470
0.040584
0.086825
0.106481
-0.058117
-0.008940
0.215938
0.161254
-0.127040
-0.173883
-0.227802
-0.285400
-0.147362
0.059121
0.129624
0.105420
-0.010180
0.067102
-0.069874
-0.081505
-0.040416
0.017441
-0.046328
-0.058982
0.107973
-0.023426
0.071491
-0.086067
-0.021271
0.105375
0.048951
0.131190
0.007881
-0.136440
-0.023942
-0.064156
0.008195
0.004299
0.058339
-0.094773
-0.050038
-0.118982
-0.056370
0.134170
0.064231
0.069469
-0.021597
-0.017260
-0.023663
-0.053143
-0.132032
-0.042664
-0.076844
0.001406
-0.022773
0.133492
-0.027391
-0.196110
-0.174142
-0.120798
-0.238662
-0.393433
0.014019
0.666586
0.978252
0.685865
0.029500
-0.087513
-0.181622
-0.345551
-0.257615
-0.976920
0.188329
0.012860
-0.078461
0.195781
0.439474
0.069689
-0.396372
-1.005230
-1.353435
-0.987194
-0.256994
0.188157
0.119184
0.094557
0.035013
0.028530
0.266068
0.248366
0.039880
0.011927
0.078057
0.198387
0.152733
-0.112494
0.215472
0.404165
0.282524
0.251456
-0.000630
0.143480
-0.162974
-0.087200
-0.006847
0.067782
-0.021145
-0.078592
-0.110630
-0.108080
-0.174192
-0.227827
-0.236983
-0.273657
-0.194235
0.071773
0.178421
0.169025
0.131070
0.090525
0.077240
0.048159
0.110481
0.114855
0.091493
0.174306
0.188423
0.134245
0.077840
-0.078834
-0.089357
-0.315431
0.097667
0.125064
0.054611
-0.076764
0.030138
0.160223
0.235877
0.231356
0.021639
-0.156131
-0.213626
-0.039378
0.272058
0.459351
0.380363
-0.137553
-0.707172
-0.760207
0.089118
0.657747
0.445900
0.265189
-0.394182
-0.849912
-0.710883
-0.261560
-0.077683
0.151077
0.091922
0.271134
1.033751
-0.351809
0.401466
0.162903
0.150568
0.198413
0.256445
0.106193
0.151920
-0.015320
0.103169
0.104390
0.082391
0.262378
0.095855
-0.127725
0.133688
0.036413
0.011430
-0.034662
-0.337467
-0.257988
-0.378754
-0.546815
-0.122824
0.666744
-0.329243
-0.824004
-0.084959
-0.991555
-0.251840
-0.063366
-0.111519
-0.160083
0.023149
-0.131792
0.032051
-0.316044
0.018509
0.095145
-0.257812
-0.229651
-0.074451
0.444855
-0.287028
-0.370471
-0.087295
0.480614
0.777003
-1.522806
-0.225839
1.488472
0.275108
-0.456746
-0.375784
0.271018
0.359768
0.042539
-0.322440
0.442418
0.326983
-0.107110
0.361462
0.130857
0.251660
0.370276
0.452856
0.572555
0.405986
0.275606
0.282530
0.220629
0.027432
-0.155616
-0.155869
-0.110966
-0.353186
-0.161837
-0.132673
-0.023546
-0.574172
0.021265
0.245888
-0.138301
-0.342679
0.165621
-0.204744
-0.651635
-0.223130
-0.396873
0.072739
-0.104426
-0.067551
0.092142
-0.033939
0.022479
0.009054
0.036614
0.004905
0.090792
0.220803
0.309121
0.274566
0.074323
-0.322541
-0.435011
-0.312493
-0.273887
-0.113674
-0.228042
-0.276009
-0.257260
-0.033366
-0.009245
0.144941
0.238679
0.147248
0.063638
0.094438
0.186790
-0.013799
0.060019
-0.013617
0.031002
0.060680
0.158662
-0.053178
-0.067643
-0.117603
-0.095083
0.019880
0.057090
0.123321
0.018536
0.119884
0.027319
0.082266
-0.008795
-0.406498
-0.492199
-0.539920
-0.264295
-0.570094
-0.554005
0.004025
0.643064
1.017003
0.682168
0.047300
-0.473787
-1.651051
-0.211084
0.307719
0.666860
0.589220
0.390265
0.003889
-0.224581
-0.251352
-0.255511
-0.216445
-0.123841
0.148810
0.171249
0.061052
0.115386
-0.087474
-0.077390
-0.064832
0.031602
0.027644
0.102585
0.063118
0.138265
0.086114
-0.004870
0.147726
0.204593
0.166058
0.056585
-0.349343
-0.014345
0.021721
0.276438
0.310021
0.306944
0.208422
0.148905
-0.120489
-0.309647
-0.162614
-0.134599
0.113462
0.092532
-0.038684
-0.218562
-0.227529
-0.153796
-0.025279
-0.000422
0.069174
0.100610
0.080802
0.125659
0.247015
0.102578
0.213892
0.103326
-0.020430
-0.281705
-0.098025
-0.020308
0.034663
-0.055520
-0.072715
-0.025055
-0.067270
-0.043607
0.021461
-0.079231
0.081157
0.065880
0.021977
-0.007290
-0.080769
0.111546
-0.015909
0.065317
0.099765
0.106689
0.031397
0.096863
-0.004068
-0.002046
0.018718
-0.023571
-0.004129
-0.184555
0.027030
-0.072888
0.020705
-0.036291
0.080703
-0.055270
0.073914
0.059088
-0.049087
0.012531
-0.001460
-0.055901
-0.065088
0.023779
-0.001192
0.032019
-0.058872
-0.004243
-0.061533
0.055363
-0.010569
-0.016634
0.044351
0.055053
-0.048180
0.068753
0.034035
0.014992
-0.029987
-0.090424
-0.144305
-0.109152
0.134365
0.055129
0.018727
0.067901
-0.037864
-0.040186
0.009136
0.137032
-0.016544
-0.008622
-0.010030
0.016312
-0.105633
-0.082888
-0.049492
-0.038475
0.043234
-0.047309
-0.041766
0.008124
-0.157223
-0.038836
-0.022143
-0.111102
0.173639
0.155361
-0.040503
0.081905
-0.128027
-0.013326
-0.085568
-0.027820
-0.090855
-0.023078
-0.049466
-0.009951
-0.039216
0.093472
0.134557
0.145945
0.011376
-0.053033
-0.037643
-0.068099
-0.100933
-0.037704
0.112267
0.059559
-0.004132
0.051096
-0.047042
0.022047
-0.074325
-0.060825
0.240411
0.246779
-0.024859
-0.108384
-0.206144
-0.180625
0.009814
0.086048
0.047153
0.100356
0.087193
0.016202
0.057982
0.038079
-0.013616
0.081994
0.080363
0.128338
0.188531
-0.059256
-0.081895
0.095205
0.095276
0.056565
-0.005351
0.065698
0.391989
0.316411
0.051180
0.089877
0.673802
0.186138
-1.107692
-0.880609
-0.228773
0.082007
0.192883
-0.059579
-0.028438
-0.004716
0.141898
-0.026014
-0.023048
0.006051
0.022898
0.017069
-0.131156
-0.124402
-0.019172
-0.151055
-0.135028
0.101891
-0.084529
-0.052260
-0.043411
0.112427
0.038532
-0.177130
-0.039184
-0.069622
0.277526
0.327192
-0.073660
-0.111350
-0.114789
-0.120365
0.068008
-0.065241
0.043422
-0.059685
0.028077
0.094781
0.022290
-0.023663
-0.045860
0.000913
-0.030363
-0.024737
0.100518
0.040792
-0.107329
0.081833
-0.058929
0.090068
-0.094430
0.004081
0.066523
-0.022070
-0.058706
0.029016
0.133581
0.018189
-0.055613
-0.111249
-0.099236
-0.002972
0.039658
-0.004988
-0.004857
-0.008138
-0.002276
0.067364
0.036406
-0.000223
-0.046093
0.043516
-0.027724
-0.078391
-0.097462
-0.014251
-0.015682
-0.054114
-0.046947
0.004369
0.026812
0.076650
-0.048160
-0.003294
-0.154824
0.026769
0.069639
-0.016222
0.002188
-0.022506
-0.069023
0.065974
-1.343035
-0.305842
-0.492079
-0.520584
-0.474377
-0.267592
-0.205465
-0.249568
-0.108961
-0.196102
-0.084349
-0.014054
-0.148364
0.020302
0.114336
-0.239994
-0.189546
-0.174947
0.038303
-0.041102
0.196021
0.278193
0.337284
0.542344
0.244808
0.943014
0.015873
0.585694
0.502778
0.954520
-1.754830
-1.025805
-0.544590
-0.098054
0.060793
0.240709
0.258958
0.311817
0.090281
-0.064754
-0.055436
-0.251615
-0.119254
0.047876
0.128612
0.022174
0.134228
0.220502
0.135434
0.188754
0.055202
0.002441
0.013645
-0.029797
0.152613
0.218906
0.511159
0.563882
0.067666
0.431350
0.055652
0.092719
-0.057061
0.021863
0.046331
-0.084175
0.069480
-0.031343
-0.078145
-0.026740
-0.046393
0.047995
-0.040118
0.093662
0.069446
0.079199
-0.064942
-0.117537
-0.042865
-0.086408
0.090338
-0.014063
-0.022421
0.035924
0.004771
0.065661
0.054921
-0.054549
0.012177
-0.060575
-0.195586
0.094971
-0.059235
-0.102136
-0.063892
-0.037366
-0.105227
0.024944
-0.037854
-0.012115
-0.047237
-0.021597
-0.104852
0.050053
-0.050934
-0.012882
-0.042529
0.275129
-0.070317
0.081097
0.492739
1.699966
1.468051
-0.473194
-1.634412
-0.555860
0.128214
-0.162422
-0.632703
-0.050758
0.814095
-0.269657
-0.454517
-0.058914
0.186481
-0.058341
-0.452954
-0.138000
0.250972
-0.144586
-0.330975
-0.073497
0.085616
-0.024629
-0.198102
-0.547049
0.302148
0.244495
-0.256665
-0.268638
-0.159255
0.466193
0.108894
-0.870267
0.868287
1.847828
-1.153949
-0.313733
0.597738
-0.515041
-0.685049
0.174698
0.300621
0.372288
0.139696
0.070167
-0.199456
-0.201545
-0.017551
0.265661
0.421905
0.434939
0.381436
-0.084278
-0.573221
-0.587494
0.011788
0.370680
0.400419
0.045872
-0.372146
-0.379840
-0.405388
-0.119672
-0.100213
0.141005
0.103603
0.156003
-0.084498
-0.119878
0.020268
-0.023495
0.109490
0.107668
-0.002332
-0.214249
-0.089140
0.195346
0.410122
0.231708
-0.071231
-0.658434
-1.073565
-1.020939
-0.566564
-0.252261
-0.087337
0.059330
0.021117
0.214677
0.280892
0.351962
0.215554
-0.044746
0.351560
0.455642
0.523629
0.301639
0.089906
-0.078593
0.073979
0.057197
-0.024385
0.047234
0.083730
0.100899
0.097427
-0.064972
-0.008820
0.019592
0.085208
-0.005626
0.103641
-0.067532
-0.060085
-0.079629
-0.093979
-0.086344
0.086190
0.054635
0.079138
0.100334
-0.023473
0.086158
0.082912
0.098945
-0.040149
-0.077085
-0.042483
-0.026980
0.150959
0.066839
0.063079
0.092321
-0.014402
0.000607
0.154784
0.035696
-0.096865
-0.085955
0.095062
-0.033650
0.066037
-0.055040
-0.062598
-0.178466
0.015641
0.060021
-0.010652
0.109502
-0.098341
-0.309326
-0.192057
-0.031196
0.069979
0.285397
0.069164
0.038329
-0.056373
0.148015
0.013354
-0.081534
0.092049
0.010223
0.094975
-0.009288
0.076860
0.055676
-0.074102
-0.105024
-0.010461
-0.020275
-0.017689
-0.013027
-0.006430
-0.046516
0.028802
-0.106794
-0.012798
0.153403
0.129138
-0.060034
-0.308188
-0.160039
-0.019542
0.107597
0.162405
0.085872
0.130495
0.113211
-0.280355
-0.102083
-0.183497
-0.069497
-0.177204
-0.021333
-0.084456
-0.078986
0.065182
0.072374
0.025023
-0.020147
0.059445
0.096989
0.085254
0.013888
0.296985
0.315307
0.292022
0.353607
0.182725
0.058584
0.031337
-0.100196
-0.075120
-0.078928
-0.211245
-0.055789
-0.148349
-0.117688
weigvec 606
-0.060271
-0.635121
-0.471328
0.511104
-0.300233
0.090745
-0.203557
-0.465447
0.059137
-0.523719
0.120740
0.083581
-0.325139
0.989469
1.560981
0.593511
-0.230645
-0.288855
0.086210
0.750868
-0.079748
-0.290009
-0.155190
1.013623
-0.349846
-0.269874
-0.588346
-0.172047
0.189833
-0.464171
0.010159
-0.004512
0.303382
-0.212622
0.061643
-0.256120
-0.138723
1.645873
0.278062
2.120291
1.048346
0.365484
0.569224
-0.272113
1.023451
0.793021
-0.211365
-0.191284
0.514490
0.328048
0.059567
0.887419
0.042503
0.282944
0.759108
-1.153891
-0.269988
-0.023775
0.925894
0.004269
0.349975
-0.020921
-0.146684
-0.070540
0.079029
0.108501
-0.157564
-0.414480
-0.093486
-0.329494
-0.048378
-0.137826
-0.221497
-0.336542
0.584211
-0.382258
-0.122821
0.062680
0.176313
0.783730
-0.274375
-0.188844
-0.075172
-0.221394
-0.143427
-0.268810
-0.327617
-0.205979
-0.138312
0.028900
-0.899547
-0.249194
-0.068854
1.608286
-0.801833
0.051810
-0.673617
-0.177788
0.170037
0.275285
-0.011825
0.108460
0.176967
0.362704
0.040544
0.011769
-0.200851
0.120415
0.130784
-0.022117
1.193589
-0.176652
0.031534
-0.493044
0.988667
-0.077845
-0.541580
0.057110
0.047298
-0.049278
-1.968421
-0.187988
-0.031118
-0.209337
-0.316586
-0.370303
0.017892
1.054845
0.088551
0.657326
0.896894
-0.879746
-0.056751
-0.182508
-0.229760
-0.015916
0.109941
-0.047197
-2.730119
0.019994
-0.999912
-0.145166
-0.343937
0.904055
-0.055901
-1.381677
-0.666383
0.135620
-0.003568
0.417653
0.038297
-0.385968
-1.267843
-0.219928
0.615051
-1.201360
0.868111
-0.126889
0.121857
-0.734543
-0.143052
-0.181713
-0.098215
-1.361387
-0.073365
0.064981
0.042890
-0.080263
0.580176
-0.281278
-0.190844
0.005305
0.619272
0.835370
0.158094
-0.386687
-1.733448
-0.326378
-0.770158
-0.095340
0.022188
0.626116
0.361676
-0.009861
-0.064003
-0.110206
-0.033319
-0.662215
-0.148067
-0.031155
-0.090538
-0.482925
1.152926
0.086178
-0.481694
-0.256970
-0.097705
1.147118
0.028194
-0.156402
0.021497
-0.184467
-0.147077
-0.293835
-0.313265
-1.076839
0.465822
0.506402
0.197768
0.004750
0.059026
-0.422276
-0.074469
-0.054934
-0.223546
1.203691
0.783284
0.426824
0.149948
-0.234112
-0.122096
1.356529
0.173132
0.300312
-0.192974
0.759376
-0.200835
-0.173037
-0.393542
0.002882
-0.305029
-0.311504
-0.287890
0.255494
0.124508
-0.052851
-0.188872
-0.068014
-0.105393
1.946810
-0.188539
0.675268
-0.337258
0.567832
0.937882
0.057098
0.944967
0.447117
0.053745
0.072554
0.259653
-0.130844
0.384305
0.930204
0.001054
0.883909
0.747312
-0.435126
0.002932
-0.084802
0.800708
-0.103175
-0.130968
0.030056
0.758057
-0.161518
-1.094019
-0.007573
-0.199465
-0.322734
-0.490500
-0.006485
0.135391
0.868297
-0.160033
0.265342
0.284166
0.229908
-1.220078
1.025382
-0.470688
0.669137
-0.138583
-0.145253
0.145330
-0.004326
-0.126860
0.026069
-0.563100
-0.146618
-0.012220
-0.092415
0.168038
-0.355930
-0.013756
1.644001
-0.242802
0.056507
-0.182675
0.023076
-0.177815
-0.167133
0.431474
-0.450209
-0.098581
0.143115
0.000510
0.034655
-0.421053
0.122791
0.261892
-0.026663
0.607557
0.011601
0.139821
0.368285
-2.058044
0.446765
0.461430
0.006405
-0.073003
-0.076118
0.421728
0.159631
0.138764
-0.159593
-0.569992
0.250447
-0.171017
-0.107549
0.087563
0.517372
0.404247
-1.351432
-0.051799
0.185186
0.201876
-0.028427
-0.023721
0.052170
-0.524804
-0.097711
-1.810819
-0.327426
-0.309540
-1.023961
0.248118
0.518113
0.687907
0.039690
0.003690
0.517580
-0.075921
1.040776
0.030253
0.130702
0.947636
0.267895
0.359319
0.139302
-0.190154
0.069683
0.144727
0.162494
0.175989
-0.345534
-0.053282
1.405392
0.215574
0.122203
0.248966
-0.955274
0.149904
-0.106975
0.007743
0.561645
-0.059476
0.449615
-0.111621
-0.189685
-0.030497
0.167018
0.110940
0.257480
-0.137175
0.089894
0.099810
-0.140182
-0.058712
0.370799
-0.130715
0.005115
-0.052199
-0.819694
0.652312
0.085962
-1.216358
-0.874327
0.191278
0.579860
0.130641
-0.221160
-0.122819
-0.101552
1.007618
0.798855
0.403593
0.170896
0.401376
-0.046531
0.252305
0.349875
0.039374
1.304143
-0.099700
0.277245
0.925711
-1.867777
-0.347226
-0.431015
0.165139
0.288027
-0.107067
-0.225857
-0.101786
0.086117
0.423455
-1.719822
0.313330
0.312290
0.702612
0.248245
0.894054
1.159253
1.589725
-0.005232
-0.091030
-0.006065
0.162957
0.043281
-0.077663
-0.898577
-0.130303
0.216644
-0.352218
-0.353056
-1.585590
0.107426
-1.002751
0.041240
0.148003
0.145001
-0.032713
-0.030562
0.421863
-0.868535
-0.059550
0.739559
-0.730894
1.205902
0.131380
0.268071
0.283774
-0.117761
-0.341507
0.100371
-2.151046
-0.066746
0.676393
-0.092427
0.207301
0.901256
-0.325362
0.349398
0.200654
-0.647149
0.775402
0.248804
0.652832
0.869309
-0.718953
-1.271227
0.425796
0.286794
0.775075
0.312234
0.021977
0.062736
0.193360
0.395926
1.060449
0.198619
0.061808
0.056106
-0.792915
1.071390
0.109505
-1.096562
-0.138986
0.810017
0.907636
0.133621
0.294960
-0.063839
-0.189113
-0.464166
0.197573
-0.213348
0.519209
-0.452901
0.123101
-0.101062
-0.100633
-0.146396
-1.907454
0.007009
-0.403170
-0.013201
0.644904
-2.462546
-0.658751
-0.182885
0.359127
0.109605
-0.302850
0.006524
-0.256598
0.092349
0.734406
0.140015
0.026418
-0.779923
-0.063190
-2.149040
-1.749598
0.865080
-0.007448
-0.040507
0.176377
0.273814
-0.067072
0.214693
0.578988
0.114855
-0.062690
0.199231
0.069065
0.302489
-0.167114
-0.089862
-1.425594
-0.005130
0.130544
-1.656072
0.079887
-1.702700
0.427512
0.048962
-3.358150
0.114319
-0.649099
0.019767
0.101348
-1.376616
-0.042258
-0.088923
-0.120405
3.373281
0.289923
-1.170508
-0.076234
-0.047860
-0.787595
1.981323
0.031302
-0.031440
-0.751252
-1.732986
-0.067247
-1.513201
1.318638
2.494941
1.253846
-0.083488
-1.724999
-1.128461
-0.316750
0.081572
0.056885
0.137230
0.145500
0.000922
0.401585
0.057573
0.100960
2.804806
-2.206977
0.072476
-0.496133
2.405288
-0.845299
-1.901914
0.042819
0.223212
0.180238
-0.015478
biasvec 101
-3.835041
-4.055927
-3.841117
-3.596973
-3.818161
-3.840580
-3.994679
-3.790820
-4.104143
-5.601792
-3.968201
-3.973518
-4.011225
-4.474321
-6.448704
-3.797935
-3.896698
-3.839560
-4.044788
-3.839690
-3.985404
-3.985189
-3.966790
-3.980636
-3.803913
-3.875611
-4.055464
-3.931964
-6.001194
-5.160137
-1.901487
-3.902976
-3.982618
-3.941408
-3.870907
-4.022465
-3.948221
-0.222625
-3.898223
-5.126271
-3.693462
-3.797850
-1.071783
-3.883977
-4.622821
-3.557329
-4.022368
-3.916435
-4.024098
-4.035602
-4.374405
-4.760795
-4.057045
-6.393466
-4.369223
-5.696257
-3.948061
-3.866460
-4.164327
-3.954555
-3.985336
-3.991488
-4.835351
-3.921903
-4.785541
-4.056067
-3.958652
-4.263204
-3.841705
-3.805843
-4.056300
-3.663346
-5.021568
-3.919801
-4.546669
-3.559591
-4.605798
-5.772498
-3.889947
-4.452171
-3.683298
-3.830642
-4.008643
-4.076002
-4.004312
-3.850406
-4.149586
-3.912297
-4.103561
-4.073057
-3.888100
-5.602887
-3.997335
-5.581182
-3.947444
-3.794773
-5.670562
-4.051654
-3.844189
-3.985536
-3.917139
biasvec 6
-5.095485
-5.500094
-5.230738
-3.416520
-2.913505
-1.782628
