60 101 6
weigvec 6060
-0.445807
0.157600
0.068230
0.223874
0.193510
0.243011
0.238033
0.199276
0.323034
0.292268
0.180533
0.077238
0.060754
-0.130830
-0.170852
-0.112892
-0.050436
-0.051236
-0.002008
-0.168175
-0.113489
-0.142491
-0.019418
-0.045243
-0.082350
-0.033706
-0.097956
-0.152206
-0.201546
-0.060022
0.150224
0.121034
0.018439
-0.076100
-0.057460
0.165651
-0.080221
-0.129191
-0.010606
0.096610
0.138905
0.127171
-0.058670
-0.118994
-0.178822
-0.242877
-0.479500
-0.252378
-0.052769
-0.007794
0.154458
0.131038
0.200031
0.174773
-0.061701
-0.099473
-0.090433
0.068087
0.170048
0.208712
0.229580
-0.115434
0.017780
0.495896
0.281658
0.035273
-0.134257
0.098569
0.145689
0.174166
0.049722
0.099311
0.054777
-0.048901
0.030399
0.031876
0.297777
0.243540
0.012890
-0.002536
-0.063340
0.022239
0.156753
0.108299
0.085218
0.218313
0.080839
0.041763
0.072954
0.215553
0.062757
0.142852
0.098435
0.016086
-0.069594
0.047211
0.187153
0.216056
0.139271
0.180264
0.090029
-0.064184
0.040120
0.027105
0.157867
0.142268
0.227780
-0.029721
-0.120487
0.151081
0.718808
0.942209
0.960284
0.828465
0.163879
-0.896015
-1.233823
-0.581648
-0.108500
-3.877066
0.267884
-0.121207
-0.391498
-0.357217
0.010886
0.393134
0.493446
0.166781
0.032291
-0.185975
-0.255111
-0.207594
0.176730
0.344058
0.410239
0.207183
0.113396
0.041198
-0.020042
0.011235
0.004877
0.026530
0.083210
0.103476
0.113322
0.282386
0.043694
0.057970
0.034099
0.119982
0.091917
0.098286
0.105448
0.000803
-0.027894
-0.203186
-0.080851
-0.155370
0.021568
-0.036676
-0.095456
-0.081918
-0.188881
-0.300414
-0.249223
0.053956
0.206312
0.222632
0.039497
0.025489
0.069361
0.097342
0.248713
0.294991
0.138930
0.030509
-0.082934
-0.111193
-0.319568
-0.459714
-0.355373
0.327932
0.169750
0.030240
0.050374
-0.080982
0.006432
0.019166
0.012892
0.152534
-0.020011
-0.020439
0.075394
0.184962
0.209657
0.095854
0.081255
0.010382
-0.058467
-0.150026
-0.208008
-0.167166
-0.309200
-0.552941
-0.566892
-0.420466
-0.320761
-0.185635
-0.113521
-0.082322
0.202410
0.159819
0.084313
0.198805
0.098818
0.143921
-0.045219
-0.008710
0.049094
0.192292
0.182744
0.229752
0.024992
0.076169
0.058215
0.149803
0.131429
0.101920
0.213284
0.291353
0.231129
0.056109
0.045791
0.393316
0.690433
0.079491
-0.584535
0.145710
1.162013
-2.337186
-0.103941
0.396893
0.248398
-0.019668
0.132911
0.100130
0.058704
0.072797
0.047810
0.005124
0.000839
-0.091375
0.077104
0.018121
0.020422
0.060736
0.078190
0.120936
0.089731
-0.048192
-0.041193
0.180266
0.125018
0.204629
0.124942
0.030419
-0.069331
-0.331908
-0.172539
0.058711
0.383378
0.485802
0.129776
0.135915
0.120618
0.026892
-0.421558
-0.767409
-0.991957
-0.963502
-1.094351
-0.725578
-0.305741
0.284840
0.470749
0.369637
0.260754
0.194532
0.161870
0.161000
0.420033
0.536652
0.568984
0.498484
0.123666
-0.329041
-0.547201
0.200632
0.655798
-1.218666
-0.091969
-0.039080
0.023864
0.131175
0.134927
-0.003445
-0.219811
-0.031319
0.055273
0.091422
-0.072921
-0.121565
0.051050
0.091712
-0.055516
-0.096582
0.024086
0.127694
0.151461
-0.031834
-0.138082
-0.097093
0.245772
0.158030
-0.202512
-0.239478
0.025894
0.004581
-0.058328
0.018306
0.040382
0.028451
0.056937
0.018805
-0.081312
-0.167183
0.057998
0.234151
-0.104285
-0.150486
0.103181
-0.313666
0.118695
0.663763
0.961962
0.576149
-0.206477
-0.249216
-0.221081
-0.689890
-1.501181
-1.249185
0.141256
1.622179
1.933758
1.202473
-0.111846
-1.811554
-2.333809
1.550037
0.649447
-0.518647
-0.226164
0.158856
0.107381
0.136168
0.104494
0.188482
0.241118
-0.089011
0.000509
0.029487
0.161857
0.123207
-0.061588
0.090698
0.226560
0.174295
0.009460
0.173365
-0.013463
-0.007554
0.069416
0.034080
0.134485
0.065523
-0.027805
0.032697
0.036077
-0.005006
-0.002245
-0.074779
0.086755
-0.084665
-0.079795
0.007216
0.139828
0.079443
-0.001680
0.150515
0.197983
0.085806
-0.015552
-0.016606
0.000260
-0.125539
-0.089042
-0.241947
-0.012133
0.342390
0.218248
-0.198888
-0.819960
-1.318083
-1.392751
-0.677825
0.392103
0.729055
0.084126
-0.223239
0.222771
0.300279
0.070746
-0.007670
0.073472
0.032540
0.003657
0.052624
0.081657
0.063470
0.108988
0.085049
0.155402
0.114421
0.080210
0.086833
0.029596
0.088652
0.118369
0.017949
0.071043
0.098627
0.014966
-0.023685
0.048650
0.058407
0.229827
0.186824
0.143324
0.075904
0.030489
-0.106272
-0.418942
-0.497286
-0.506929
-0.459761
-0.474765
-0.290480
-0.124432
-0.031824
0.175785
0.215534
0.199760
0.220465
0.340317
0.216764
0.123688
0.095254
0.016563
-0.226806
-0.488160
-0.363945
-0.153125
-0.050370
-0.192470
0.085224
0.169184
-0.040405
-0.580481
0.153185
-0.271165
0.332880
0.130153
0.096885
0.078217
-0.011815
0.117870
0.056446
0.187312
0.350771
0.111895
0.169767
0.183461
0.134478
0.188472
-0.048317
-0.030794
-0.005693
-0.243324
-0.291014
-0.406566
-0.279281
-0.170180
-0.245536
-0.117297
-0.073244
-0.100306
-0.066002
-0.090520
-0.079812
-0.039698
-0.140845
-0.141604
-0.197922
-0.137640
-0.021860
-0.053338
0.067056
0.037671
-0.014647
-0.014410
-0.014911
0.062232
0.076756
0.022010
-0.005552
0.021151
-0.028487
0.056569
0.299805
0.270777
0.214588
0.138850
0.099402
0.303874
0.083891
-0.154997
0.078553
0.518686
-0.565953
0.061001
0.003816
0.054215
0.084893
0.055372
0.130364
-0.095496
-0.090483
-0.156129
-0.081330
-0.104451
0.003881
-0.014397
0.147115
0.188993
0.011483
0.128991
-0.114678
-0.105632
-0.196295
-0.226881
-0.191652
-0.028338
0.087161
0.218467
0.145062
0.187558
-0.047276
-0.010487
-0.093956
-0.156852
-0.275379
-0.182522
-0.235453
-0.134609
0.094814
0.217532
0.090881
0.261856
0.076576
0.029303
0.080048
-0.048238
0.069899
0.008982
0.017223
0.012626
0.023264
0.096317
0.037069
0.015940
0.055569
0.103374
-0.016325
0.075295
0.020708
-0.064560
-0.144322
-0.185994
-0.186595
-0.289211
-0.050574
-0.043408
0.007708
-0.061645
-0.023268
-0.103819
-0.094888
0.055778
0.050543
0.178630
0.269838
0.320121
0.308681
0.426842
0.241445
0.264914
0.175028
-0.050884
-0.154212
-0.201843
-0.147806
-0.104079
-0.175188
-0.048689
-0.051069
-0.115138
-0.019141
-0.036238
0.085929
-0.010030
0.055396
-0.066506
-0.145141
-0.117481
-0.168453
-0.062991
-0.164679
-0.017542
-0.047502
-0.054852
-0.129571
-0.063089
-0.100000
0.005985
0.085249
0.092736
0.006390
0.106729
-0.000258
0.064693
0.125295
0.078412
0.176822
0.242630
0.340180
0.037085
-0.037703
-0.097273
-0.389480
-0.045153
-0.016732
-0.032193
0.063708
-0.029835
0.045937
-0.003232
-0.061963
0.023219
0.002486
-0.108613
0.017206
0.045758
0.000741
-0.119476
-0.113700
-0.042401
-0.073112
0.078200
0.033197
-0.003344
-0.049257
-0.053091
-0.090437
0.066037
0.047033
-0.131529
-0.120890
-0.096171
0.011738
0.040855
0.005611
0.007447
0.132779
0.031244
0.170956
-0.025500
0.009540
0.098587
-0.104860
0.020848
-0.057488
-0.109048
-0.141741
-0.041607
0.152191
0.134835
0.075453
0.051814
0.064964
0.074800
0.015010
0.064539
0.051187
0.151866
-0.002804
0.033067
0.079160
0.092856
0.055790
0.410493
0.018793
0.224330
0.270161
0.100953
0.135447
0.022613
0.105577
0.166264
0.033680
0.058107
0.058516
0.043466
0.023492
0.009435
0.006223
0.124529
0.018441
-0.020477
-0.033594
-0.084748
-0.202161
0.023561
0.000297
-0.027775
-0.003046
-0.064199
-0.039408
0.094116
0.061318
0.148015
0.178817
0.109760
-0.041273
0.167398
0.039756
0.017333
0.072553
-0.126287
-0.174733
-0.070109
-0.199245
0.074717
-0.025514
-0.170410
-0.245064
-0.056990
0.253965
-0.080375
-0.328898
-0.346879
-0.360868
-0.357666
-0.244515
-0.174270
0.023032
-0.095720
-0.063797
-0.039563
0.195828
-0.016662
-0.010102
-0.170776
0.032450
0.058746
0.029355
0.091383
-0.124304
-0.153954
0.053943
-0.056032
0.046161
-0.091185
-0.186617
-0.092332
-0.119788
-0.247304
-0.123649
0.013402
-0.011091
-0.083881
-0.131869
0.014815
0.026806
0.036398
0.136430
0.140259
0.255207
0.130240
-0.123213
-0.041901
-0.113955
-0.125694
0.066686
0.163243
0.152887
-0.103554
-0.231103
-0.133441
-0.144109
0.035170
0.467913
0.468514
0.240287
-0.181748
-0.281856
-0.093821
-0.300154
-0.252770
-0.180081
0.021152
0.154069
0.312074
0.296828
0.341298
0.192807
-0.012619
-0.175382
-0.077867
0.072856
-2.969636
-1.778123
-1.229252
-0.694029
-0.048538
0.398948
0.676555
0.456967
0.321946
0.257526
0.329466
0.222729
0.028375
0.086634
0.211731
0.178828
0.282556
0.091074
0.191797
0.056344
0.124761
0.229655
0.167448
0.080799
-0.020934
-0.099186
0.191948
-0.038649
0.157430
0.048938
0.100438
0.088575
-0.006639
0.019516
0.095390
0.114459
0.077522
-0.020487
0.068419
0.061130
0.122069
0.011569
-0.077459
0.093440
0.068727
0.037387
-0.003229
0.067357
0.066716
0.171756
0.227951
0.128207
0.079620
0.258071
0.201464
-0.012172
-0.336923
0.293171
0.874608
-0.533378
-0.456993
0.226721
-0.041493
-0.291439
-0.057980
-0.040935
-0.076871
-0.080728
0.104209
0.235030
0.191902
0.359826
0.291528
0.310650
0.291363
0.126448
-0.113950
-0.161835
-0.531475
-0.589913
-0.516593
-0.028915
0.293558
0.160721
-0.081384
-0.171715
0.415427
0.319397
0.093727
-0.550319
-0.119109
0.662851
0.345771
-0.652335
-1.117805
-0.021390
0.727784
0.101268
-0.825641
-0.375058
0.496820
0.468039
-0.161057
-0.369340
-0.211917
0.003518
-0.122214
-0.084425
0.166815
0.119345
0.157984
0.071069
0.005554
-0.022574
0.201485
0.115182
0.124078
0.026768
0.116677
0.616043
-0.937531
-0.449147
-0.476410
-0.480941
-0.335779
-0.191281
-0.097374
0.091479
0.317988
0.298968
0.205396
0.194108
-0.070089
-0.027972
-0.127042
-0.066307
0.006972
-0.029222
-0.024240
-0.070885
-0.039729
0.036120
0.055268
-0.002999
-0.133258
-0.109186
-0.129874
-0.049429
-0.081510
-0.026163
-0.049213
0.129630
0.043408
0.063282
-0.001363
0.151939
0.080499
0.099319
-0.075102
-0.027329
0.159459
0.098968
0.117997
0.070134
0.091819
0.137669
0.026925
0.188228
0.171093
0.085261
0.207453
0.265840
0.081727
0.196226
0.176237
0.159051
-0.241166
0.175801
0.813221
-0.545996
-0.034993
0.073744
0.075267
0.008139
-0.025165
0.020588
0.141504
-0.049782
-0.011525
-0.125591
-0.178688
-0.174130
-0.190757
-0.147156
-0.011649
0.123244
0.199602
0.134982
0.110330
-0.041935
-0.079447
-0.047093
-0.109341
-0.053179
0.052872
0.069947
0.178558
0.056387
0.051720
0.015409
-0.075465
-0.121680
-0.164643
-0.146238
0.094165
-0.035492
-0.011922
0.122807
0.109703
0.112251
-0.003052
-0.028983
-0.035267
-0.057830
-0.062280
-0.022452
0.094422
-0.070031
0.069004
-0.100632
-0.067839
-0.074360
0.019136
0.011380
-0.074997
-0.049785
-0.048974
-0.007931
-0.196949
-0.131867
0.397737
0.177676
0.088604
-0.022533
-0.301575
-0.658741
-0.619215
-0.523691
-0.537981
-0.349780
-0.393146
-0.276286
-0.133419
-0.023541
-0.006113
0.036822
0.213965
0.006425
0.084168
0.124351
0.155169
0.147235
0.213892
0.220133
0.103551
-0.029815
-0.022507
-0.011033
-0.196515
-0.027053
-0.162258
0.025486
-0.022210
0.128756
0.315435
0.428560
0.334843
0.212293
0.099986
0.189405
0.291898
-0.027922
0.059191
0.109500
0.228345
0.211960
0.139147
-0.145072
-0.232132
-0.374597
-0.538493
-0.236044
0.016905
0.122594
-0.229701
-0.161757
0.146122
0.148862
-0.093114
0.807743
-0.197742
0.142500
0.055761
0.167956
0.117193
-0.103955
-0.160309
-0.036862
0.130425
-0.014457
0.025029
0.005479
0.032207
0.031663
-0.065798
-0.006438
0.002664
0.088297
-0.038385
-0.213270
-0.126916
0.113783
0.157246
0.078797
-0.058103
-0.076268
0.034330
-0.105302
0.043911
0.075186
0.076563
0.156007
-0.192108
-0.141513
-0.198767
0.030436
-0.016011
0.094438
0.040778
-0.068179
-0.123889
0.130075
0.095226
0.398922
0.379722
0.290807
0.071991
0.029282
-0.068548
-0.101954
0.152414
0.377317
0.512197
0.515017
0.245248
-0.372628
-0.930531
-0.594068
0.020514
-0.879071
-0.006957
0.032122
-0.071969
-0.039005
0.005637
-0.005807
0.097921
-0.034595
0.059895
0.098855
0.065664
0.140245
0.027903
0.072353
0.035120
0.080106
0.010644
0.125841
0.200827
0.072721
0.116869
0.079489
0.012775
-0.058398
0.081910
-0.094427
-0.100654
-0.176427
-0.249166
-0.171277
-0.116913
-0.036335
0.026505
-0.002483
-0.021237
0.099253
0.039165
-0.184325
-0.101152
-0.312413
-0.260786
-0.234395
0.056513
0.107302
0.170053
0.071491
0.149979
0.170384
0.009399
0.026160
0.159467
0.109138
0.069213
-0.037401
0.162645
0.028657
-0.056308
-0.029645
0.097325
-0.053568
-0.409137
-0.349930
-0.192817
-0.212819
-0.245022
-0.227438
-0.176618
-0.094848
-0.159683
-0.050678
-0.038194
-0.023212
0.088488
0.090829
0.136078
0.049110
0.105191
0.037470
-0.043242
-0.155106
-0.180745
-0.089799
-0.138262
-0.069453
-0.060903
0.049242
0.009667
0.063017
0.132234
0.118087
0.184204
0.078188
0.146061
0.182794
0.106151
0.318213
0.179512
0.099647
0.174640
0.133661
0.232898
0.088662
0.093963
0.117482
0.055718
0.182098
-0.007755
0.054836
-0.018083
-0.131820
-0.274956
-0.223653
-0.127688
-0.039644
0.000217
-0.020818
0.074255
0.122101
0.066825
0.659174
-0.435455
-0.346603
-0.267658
-0.186390
-0.070002
0.075966
0.051931
0.046620
0.149650
0.148726
0.197164
0.224650
0.304967
0.326725
0.263977
0.240295
0.175827
0.139721
-0.060322
0.033442
-0.006111
-0.114694
-0.187396
-0.097820
-0.209701
-0.194224
-0.072404
-0.083608
0.105365
0.026782
0.070238
0.072783
0.009491
0.125050
0.086952
0.161002
0.062709
-0.045190
-0.028172
0.057483
0.041905
0.054067
-0.045168
0.089086
0.285539
0.170846
-0.056403
-0.075243
-0.151777
-0.229522
-0.312823
-0.176207
0.067280
0.086088
-0.178034
-0.188302
0.032500
-0.024124
-0.551835
0.523019
0.607480
0.115627
0.202647
0.125844
-0.272049
-0.212871
0.103541
0.380407
0.302632
0.006805
-0.100426
0.236874
0.228042
0.030341
0.013378
-0.041299
-0.034405
-0.037348
0.006503
0.255471
0.419035
0.142803
-0.208013
-0.298677
-0.137077
0.048072
0.241490
0.093415
-0.056685
-0.336484
-0.138341
-0.112239
0.122097
0.084067
0.181840
-0.000412
-0.091697
-0.227793
-0.229397
0.016023
0.159906
0.005918
-0.074753
-0.231996
-0.679147
-0.539899
-0.041805
0.424582
0.327588
-0.280236
-0.418585
-0.115994
0.073529
0.169065
0.259151
-0.001754
-0.130175
0.072412
0.002327
-0.572001
-0.211369
-0.073981
-0.101905
-0.065226
-0.059290
-0.118696
-0.074927
-0.105646
-0.082728
-0.104172
-0.135824
0.029648
-0.168240
-0.146975
-0.050388
-0.061143
-0.102199
-0.030917
-0.066920
0.011586
0.143244
0.005833
0.046636
0.107786
0.091449
0.170115
0.072706
0.219509
0.117365
0.097978
0.196328
0.030110
0.024129
0.039064
0.097940
0.086873
0.182033
0.175656
0.165347
0.198327
0.127368
0.018516
-0.020062
-0.143705
-0.217903
-0.296900
-0.154442
-0.159568
0.003987
0.044569
0.065244
-0.094021
0.015148
0.058830
0.108018
0.116085
0.122592
0.052819
-0.147660
-0.233310
0.094115
0.483505
0.119421
-0.066701
0.125376
0.008177
0.004502
0.005286
0.164110
0.133798
0.166386
0.004869
0.070896
0.037775
0.069205
0.019189
0.005636
0.189687
0.058723
0.086388
-0.126147
-0.011459
0.018029
0.135933
0.166363
0.153555
0.090622
0.268178
0.089813
0.112476
-0.120584
-0.018869
-0.153064
-0.026913
-0.091547
-0.000349
0.176327
0.103337
0.132316
0.074237
-0.118063
-0.391299
-0.847826
-1.047399
-0.912308
-0.939489
-0.929731
-0.664148
-0.075339
0.396324
0.578213
0.658809
0.908275
0.998275
0.625451
0.103470
-0.451977
-0.372816
0.160602
-0.007605
-0.308623
0.066556
-0.041381
0.031789
-0.025075
0.057363
-0.066194
-0.040583
0.101836
0.159207
0.023288
0.117096
0.115496
0.020879
-0.000030
0.049312
0.149545
0.173260
0.049100
0.117291
0.071408
0.177337
0.134287
0.343115
0.221997
0.188322
0.005747
-0.214848
-0.285098
-0.169572
-0.135779
-0.142675
0.057638
-0.017665
-0.017499
0.083519
0.078801
0.029537
-0.028298
-0.129463
-0.175033
-0.144143
-0.162291
-0.212865
-0.006430
-0.132744
-0.113389
0.013414
-0.034362
-0.066198
0.169619
0.163321
0.194872
0.422350
0.613736
0.471744
0.159422
-0.161779
-0.036146
-0.881776
-0.706269
0.370556
0.092501
-0.034799
-0.155038
0.007303
-0.047041
0.124134
-0.049920
-0.122921
-0.056135
-0.015976
-0.021810
0.112388
0.005884
-0.074948
-0.069080
-0.106177
0.035929
0.057048
0.013008
-0.021614
-0.203407
-0.112613
-0.053417
0.073189
0.139831
0.008313
-0.142136
-0.198892
0.133998
0.118561
-0.011405
-0.180506
-0.011183
0.163552
0.022192
-0.135545
-0.015289
-0.003505
0.016284
-0.163627
-0.062064
0.055231
0.043117
0.097779
0.112478
-0.069187
-0.273221
-0.649785
-0.686869
0.023924
1.185619
2.350566
1.953902
-0.313179
-2.047456
-0.482670
1.874649
-1.836491
-0.321886
0.631631
-0.040322
-0.045859
0.199134
0.040825
-0.015029
0.024345
0.074513
0.103127
0.145208
0.133142
0.181470
-0.007483
-0.004852
-0.043213
0.024933
-0.067157
0.113445
-0.137703
-0.049741
0.373261
0.389977
0.046990
-0.019473
-0.094319
-0.075360
0.003213
-0.002922
0.006569
0.271109
0.363573
0.022544
-0.045074
-0.105049
0.017863
0.088940
-0.022013
0.298059
0.061320
-0.146050
-0.020042
-0.357257
-0.326256
-0.133245
-0.271050
-0.318139
-0.070088
0.535585
1.032986
1.178263
1.112626
0.703441
-0.097858
-0.857173
-1.247525
-1.387076
-1.062274
-0.271739
0.309089
-0.147712
-0.550813
0.297422
0.484150
0.225053
-0.019907
-0.257770
-0.352725
-0.173380
-0.005889
0.363293
0.406752
0.131201
-0.195242
-0.440456
-0.292055
0.008183
0.454643
0.468669
0.083705
-0.462340
-0.614742
-0.502772
0.287723
1.017049
0.813219
-0.467781
-1.240484
-0.736802
0.317596
1.347755
0.369966
-0.191387
-0.422363
0.202856
-0.915734
-0.870777
1.170130
1.760236
-0.562785
-2.056293
-0.098819
1.422051
0.607957
-1.064479
-0.569230
0.989041
0.781671
-0.814624
-1.059317
0.482846
1.202088
0.333810
-0.570573
-0.336731
0.578602
0.527069
-0.379077
-1.269755
0.606948
0.457780
-0.391169
-0.004427
0.397967
0.251060
-0.105219
-0.083412
-0.124927
0.019728
0.154632
0.284892
0.157297
-0.075287
-0.071053
0.250834
0.508679
0.108202
-0.485016
-0.388776
0.231592
0.585543
0.247338
0.070478
-0.164531
-0.084030
0.059679
0.140763
0.183972
0.121701
-0.056171
0.024999
0.142234
0.097739
-0.059826
-0.143479
0.049291
-0.027309
-0.067981
-0.038765
0.147057
0.335950
-0.013850
-0.077321
0.055475
0.214610
0.399027
0.379324
0.093333
-0.222281
-0.037075
0.025135
-0.094075
-0.188277
-0.055976
-0.066261
-0.245055
-0.367688
-0.288903
-0.234078
-1.023789
-0.627791
-0.260994
-0.114131
0.155928
0.020635
0.155757
0.013440
-0.029157
-0.004419
-0.132630
-0.095805
-0.128500
-0.128834
-0.155702
-0.102496
-0.117571
0.148790
0.035398
0.180132
0.079692
-0.042376
0.015628
-0.081675
-0.148527
-0.106908
-0.151653
-0.103151
-0.101679
0.004450
0.287692
0.195138
0.365501
0.239630
0.173867
-0.311716
-0.472796
-0.382699
-0.306836
-0.277764
-0.260262
-0.301564
-0.206378
-0.272122
-0.261904
-0.073088
-0.081523
-0.108843
0.049173
0.311274
0.244479
0.331852
0.164628
0.313227
0.429494
0.619295
0.371366
0.203929
0.020573
0.273232
0.057883
-0.186489
0.220118
0.019762
0.008648
0.153648
0.086407
-0.000227
-0.003741
0.060369
-0.084458
-0.073075
-0.091067
0.146407
0.026266
0.173402
0.009850
0.058101
0.038124
0.020713
-0.022710
0.107682
0.164219
0.339141
0.465874
0.465236
0.455643
0.349180
0.314861
-0.028542
0.175534
-0.089330
0.020124
-0.221973
-0.134583
-0.013784
-0.001974
-0.147497
-0.404276
-0.149737
-0.021327
-0.070069
-0.082602
-0.151163
-0.017309
-0.039277
-0.015957
-0.197520
-0.232041
-0.076883
-0.176266
-0.192208
-0.103628
0.011438
-0.090192
-0.175075
-0.004577
0.225849
-0.341339
-0.680620
0.325745
-0.052444
0.175049
0.103928
0.066599
0.165893
0.118277
0.032837
0.075708
0.115797
0.114989
-0.075518
-0.053297
-0.032861
-0.029952
-0.122736
-0.052370
-0.027179
-0.046111
-0.098122
-0.354583
-0.337203
-0.138504
-0.051264
-0.010230
0.033468
0.057671
-0.123075
0.008046
-0.134628
0.028078
0.074782
0.298213
0.185195
0.498541
0.376495
0.528583
0.602920
0.398167
0.046132
-0.159733
-0.355968
-0.148701
-0.531930
-0.567452
-0.200179
0.064593
-0.044373
0.069680
0.161385
-0.037647
-0.103659
-0.028947
0.058482
0.176903
0.299754
0.395198
0.117260
-0.142038
-0.258835
0.212467
0.373051
0.032230
-0.257038
-0.515175
-0.500414
-0.558644
-0.684337
-0.513126
-0.473734
-0.233212
-0.087037
0.177272
0.247925
0.443833
0.258657
0.255440
0.156233
-0.053576
-0.108787
-0.134712
-0.106992
-0.052772
-0.092920
-0.050133
-0.032382
0.094053
0.145866
0.151828
0.059522
0.005783
0.014689
0.025058
-0.108571
0.085962
0.149414
0.154857
0.181697
0.062900
0.114306
0.067501
-0.021413
0.139865
0.272520
0.121383
0.078477
0.128435
0.134874
0.184455
0.208854
0.104709
0.145133
0.099994
0.003010
0.304316
0.493048
-0.003035
-0.270121
0.385978
0.930461
-1.230141
-0.269025
0.601372
0.329502
0.103925
0.034399
0.100711
-0.101046
-0.098244
-0.004571
0.113363
0.104780
0.089619
0.155271
-0.092768
-0.119076
-0.194203
0.035830
0.116116
0.064977
0.183285
0.208423
0.263077
0.152687
-0.408447
-0.840410
-0.741245
-0.551095
-0.398300
0.021657
0.190242
0.670199
0.608788
-0.093111
-0.102701
0.374334
0.594423
-0.304422
-1.012101
-0.534869
0.161570
-0.359596
-0.493932
-0.446096
-0.048270
0.070745
-0.004171
-0.158626
-0.132897
-0.010638
0.043593
-0.088776
-0.224689
-0.109343
0.053469
0.306350
0.251468
0.067109
-0.115035
0.273129
0.293933
-0.522010
0.606270
0.051991
-0.237067
-0.087945
-0.005335
-0.052110
0.007112
0.063028
-0.059294
-0.101824
-0.079124
0.058121
-0.014389
-0.045146
0.064149
0.081471
-0.062771
-0.112105
-0.095310
-0.012240
-0.032137
0.006084
0.053187
-0.030091
-0.306118
-0.101057
-0.052783
0.196602
-0.008592
0.004184
0.044994
0.230114
0.165506
-0.173383
-0.070575
0.269753
-0.040463
-0.214032
-0.071232
0.014121
-0.081594
-0.393588
-0.151561
0.027892
-0.451354
-1.286931
-1.445537
-0.917154
-0.641344
-0.690272
-0.772290
-0.417770
0.488721
1.302889
1.549949
1.129942
0.425590
0.587810
0.723970
0.630702
0.150908
0.239477
0.266082
0.171820
0.119620
0.155599
-0.022984
0.042573
-0.199617
-0.146542
-0.290692
-0.306443
-0.210725
-0.327074
-0.192076
-0.119835
-0.103210
-0.056248
0.096036
0.034880
0.026451
-0.005898
-0.079938
-0.073302
-0.085548
0.042479
-0.019283
-0.083535
0.026784
-0.087331
-0.008675
0.004514
-0.061851
0.026726
0.023455
0.004454
-0.101133
-0.219791
-0.089722
0.189260
-0.006291
-0.085100
-0.084347
0.083213
0.082036
-0.087910
-0.253971
-0.238957
-0.328560
-0.437533
-0.051876
0.239862
0.269052
-0.072522
-0.266798
0.022170
0.002530
-0.011776
0.604899
-0.405078
0.433659
0.186151
-0.049416
0.097049
0.065014
0.186517
-0.000287
-0.018202
-0.031204
-0.152857
-0.051704
0.024764
0.113236
0.072049
0.279346
0.549276
0.408935
0.118140
-0.313848
-0.818998
-1.067154
-1.192459
-0.913446
-0.546812
-0.307508
0.047396
0.334112
0.698560
0.553395
0.589066
0.558522
0.429319
0.286829
0.204501
0.366231
0.427196
0.107413
-0.183576
-0.150087
0.183524
-0.165366
-0.057981
-0.166376
-0.199559
-0.117159
-0.440149
-0.244846
-0.116931
-0.067224
-0.062903
0.099107
-0.247508
-0.381907
-0.050631
0.179790
0.135553
-0.009290
0.211811
0.242310
-0.056627
-0.077744
-0.030680
0.124366
-0.051950
-0.039855
-0.008438
0.079907
0.019044
-0.061655
-0.061919
0.027276
0.052549
0.069784
-0.091425
-0.060229
0.057013
-0.023394
0.074625
-0.060839
0.010833
0.019452
0.118046
-0.085744
-0.123016
-0.014370
0.004409
-0.019350
0.029248
0.037700
-0.037887
0.034529
-0.104229
0.035511
-0.003554
0.119809
-0.061153
0.002378
0.057242
0.080459
0.098255
-0.200850
-0.093408
0.107525
-0.043789
0.005335
-0.248001
-0.257837
-0.446684
-0.880629
-1.170300
-0.999054
-0.285682
0.913673
1.897888
1.513271
0.094151
-1.112168
-0.622740
0.816459
-0.287548
0.146106
0.041757
0.043008
-0.066511
-0.106118
-0.190975
-0.156683
-0.093319
-0.105377
-0.011788
-0.085893
-0.152413
-0.105693
-0.276522
-0.078127
-0.122251
-0.026490
-0.084963
-0.093208
-0.096198
0.095172
0.111696
0.166207
0.003656
-0.153861
0.108068
0.155281
0.487427
0.358861
0.255608
0.534697
0.624973
0.355648
-0.306474
-0.508278
-0.154781
-0.049053
-0.478911
-0.616613
-0.113213
0.154457
0.219884
0.015457
0.062106
-0.016872
-0.247368
-0.403364
-0.184871
-0.001323
0.120648
0.123406
0.166991
0.255202
0.276432
-0.011617
-0.057321
-0.036462
0.400081
0.545647
-0.121691
0.074778
0.061743
-0.037500
-0.055097
-0.049170
-0.114281
-0.084753
-0.050025
-0.215159
-0.083378
-0.054149
-0.020100
0.035187
-0.046622
0.177365
0.175048
0.281812
0.205523
0.020090
-0.148395
-0.076329
-0.155721
-0.111171
-0.086967
-0.127889
-0.080333
-0.194270
-0.083629
0.047765
0.147474
0.073317
-0.006479
-0.151782
-0.137917
-0.146357
-0.193126
-0.024715
0.058492
0.098217
0.217592
0.425793
0.327800
0.220340
-0.044580
-0.380224
-0.938199
-0.938287
-0.546440
0.076102
0.560367
0.766761
0.630612
0.435209
-0.117691
-0.411486
-0.179667
0.076442
0.141871
0.280749
0.073797
-0.036237
-0.029908
0.034200
-0.065083
-0.069619
-0.036964
0.078757
-0.059787
-0.029617
-0.006811
0.049699
-0.045792
-0.015635
0.007972
-0.005140
0.048495
-0.032032
-0.007496
0.054854
-0.056446
0.075811
0.106951
0.008177
0.174876
0.114882
0.069000
0.266980
0.125001
0.234053
0.202117
0.217370
0.122096
0.131336
0.044697
-0.005276
-0.133371
-0.103042
-0.103865
-0.033134
-0.058109
-0.047178
0.018762
0.057203
0.037024
0.037182
0.109140
0.052169
-0.020847
-0.053684
-0.252945
-0.222859
-0.324499
-0.359192
-0.141751
-0.095355
-0.076908
-0.092069
-0.204866
0.028005
0.884106
0.235893
0.020916
0.085153
0.172713
0.193173
0.294092
0.111863
-0.161832
-0.038167
0.027348
0.146149
0.118782
-0.109533
-0.134040
0.078075
0.124336
0.112208
0.012594
-0.095989
0.080743
0.078117
-0.006113
-0.080020
-0.111569
-0.253411
-0.237471
-0.132989
-0.035717
-0.090979
0.052104
-0.108309
-0.077271
-0.156028
0.031354
-0.054132
-0.056608
-0.154642
-0.245003
-0.215089
-0.218166
-0.116884
-0.029236
-0.119162
-0.074010
0.093266
-0.151373
-0.253506
-0.230510
0.119389
0.299532
0.141477
0.099058
0.152660
0.423942
0.220541
-0.113303
0.147819
0.441648
-1.044121
0.007140
-0.103243
0.003435
-0.092655
0.000684
0.069569
0.005474
-0.041382
-0.069558
-0.023529
-0.042025
-0.027768
0.087707
0.020800
-0.129760
0.047714
-0.094091
0.055913
-0.108030
-0.013550
0.038195
-0.046837
-0.078380
0.017759
0.095061
-0.062690
-0.111398
-0.149705
-0.115978
0.013980
-0.016493
-0.015285
0.004795
0.011651
0.017477
0.088945
0.064506
0.042509
-0.007487
0.058937
-0.025647
-0.074122
-0.108735
-0.045553
-0.056791
-0.078885
-0.059305
-0.005899
0.021500
0.092815
0.032710
0.135237
0.030766
0.216428
0.228453
0.078622
0.032428
0.000049
-0.042950
-0.082193
-0.223209
0.064615
0.071693
0.090340
0.020604
-0.021793
0.003816
0.043948
0.080574
0.138053
0.130441
0.000753
0.029653
0.012042
-0.088112
0.082888
0.220293
0.086909
0.016777
-0.025322
-0.142687
0.008784
-0.003348
-0.005958
-0.232814
-0.194579
-0.196272
-0.270927
-0.330002
-0.143197
-0.172378
-0.117391
-0.176705
-0.186842
-0.166231
-0.073631
0.052291
-0.052251
-0.050303
0.025670
0.387204
0.058178
0.307043
0.456323
0.432951
0.333911
0.383644
0.404731
0.328185
0.022488
-0.205301
-0.283039
-0.361576
-0.415985
-0.499132
-0.075568
0.183434
0.009325
-0.333578
0.197405
0.778267
0.622711
0.333439
0.211192
0.039113
-0.191906
-0.031898
-0.074034
-0.082790
-0.016995
-0.032253
0.050157
-0.064183
0.044184
0.006619
0.030716
-0.078485
-0.117811
-0.063722
-0.126178
0.050820
-0.049353
-0.078880
-0.071324
-0.167151
-0.106928
-0.018944
-0.053456
0.061122
0.020708
0.031305
-0.025717
0.111275
0.123931
0.039582
0.032154
-0.065325
-0.004557
-0.126382
-0.157949
0.016210
-0.031688
-0.034212
0.010320
-0.002235
0.065310
0.017472
0.162678
0.294524
0.168750
-0.121393
-0.288498
-0.233844
-0.242429
-0.247979
-0.108791
0.018017
-0.104147
-0.351267
-0.144379
0.407960
0.260238
0.231934
0.111206
0.006891
-0.263529
-0.239070
-0.339940
-0.132538
-0.113529
-0.190681
-0.128004
-0.158320
-0.115815
0.111230
-0.006661
-0.054619
-0.194444
-0.224565
-0.313852
-0.247706
-0.095609
-0.024506
-0.091157
0.069525
0.047233
0.065102
0.007392
0.057257
-0.131340
-0.201625
-0.063933
-0.158728
0.025182
0.063181
0.192234
0.040387
0.010303
-0.024750
-0.186141
-0.229969
-0.063818
-0.066528
0.009624
0.075819
0.107012
0.303030
0.288773
0.211560
0.108102
-0.072217
-0.136646
-0.244728
-0.133380
0.100196
0.327649
0.169692
0.212267
0.173608
-0.111622
-1.046870
-0.604802
-0.023389
0.037900
0.076011
-0.060833
0.025615
-0.007254
-0.012860
-0.135798
-0.135752
-0.038130
-0.215356
-0.176828
-0.331504
-0.201509
-0.115384
-0.096801
-0.114884
-0.362248
-0.235553
-0.039934
-0.065566
-0.064686
-0.119578
-0.272538
-0.014867
-0.048717
-0.026717
-0.016443
-0.038364
0.212406
-0.042293
0.026044
0.042069
0.253063
0.244121
0.016664
-0.003551
0.169131
0.438856
-0.078807
0.214163
0.177007
0.373542
0.341561
0.122099
0.058035
0.320449
0.260694
0.151008
0.172581
0.182178
0.334517
0.189312
0.168740
0.196610
0.064773
-0.112080
0.408203
0.014461
0.006544
0.019600
0.056869
-0.040776
-0.066768
0.025983
-0.075376
-0.177578
-0.178996
-0.031167
-0.146216
-0.016068
-0.064402
0.008678
-0.058330
0.054527
0.010036
-0.076598
0.026689
-0.048092
-0.092878
0.039830
0.106050
0.077339
0.162249
0.040208
0.076515
0.002454
0.122261
0.009190
-0.034052
0.121339
0.042025
0.110395
0.021593
0.095436
0.069014
-0.055996
-0.092890
-0.036037
-0.067320
-0.069309
-0.061919
-0.042326
-0.069433
0.006208
-0.109169
-0.040707
0.056746
0.079663
0.093814
0.042309
0.194327
0.240018
0.209093
0.108141
0.051294
0.105886
-0.165291
-0.472060
0.499718
0.210000
0.183880
0.131775
0.253375
0.010587
-0.081211
0.093111
0.092523
0.005771
-0.124553
-0.118956
-0.030292
0.119408
0.289640
0.717763
0.578306
0.299834
0.187971
0.109746
0.129427
0.029497
-0.198768
-0.242607
-0.379847
-0.482432
-0.441041
-0.433101
-0.469279
-0.464888
-0.571971
-0.690565
-0.745564
-0.758449
-0.467195
-0.250034
-0.261287
-0.422457
-0.184900
0.362396
-0.273041
0.038157
0.019407
0.153552
0.253978
0.510391
0.603844
0.429505
0.274188
0.074774
0.130144
0.244366
0.400853
0.243285
0.044087
-0.090040
-0.013719
0.317666
0.429705
0.258805
0.076304
-0.097029
0.047096
0.205696
0.046283
0.029167
0.052423
0.064633
0.051136
0.215111
0.116026
0.146351
-0.001751
0.011342
0.013130
-0.013035
0.082981
0.096390
-0.083385
0.085270
0.204610
0.116068
0.050185
-0.012454
-0.003863
-0.020883
0.099985
0.050098
0.080829
-0.082397
0.121454
0.138866
0.024328
-0.227487
-0.039063
0.272069
0.077447
-0.225651
-0.113765
-0.077990
0.233886
-0.121185
-0.198021
0.018264
0.173764
-0.076314
-0.226682
-0.079450
0.042203
0.066299
0.394537
0.529399
0.375901
0.261079
0.660411
1.039752
0.298621
-1.687396
-2.667005
0.161265
0.120121
-0.011889
-0.025106
0.135269
0.033350
0.028931
-0.014573
0.053168
-0.087319
-0.014896
0.032360
0.066643
0.054729
0.151079
-0.020676
-0.085854
0.076358
0.015960
0.179623
0.207867
0.116797
0.113131
-0.045866
-0.044994
-0.009714
0.159213
0.040795
0.023542
0.108025
-0.061935
-0.402099
-0.501929
-0.475159
-0.436670
-0.679884
-0.756923
-0.556135
-0.118076
0.085781
0.129113
0.459359
0.192944
0.199092
-0.047786
0.098457
0.137378
0.165443
0.230293
0.083344
0.087085
0.065820
0.065823
0.385964
0.414366
-0.014869
-0.227315
0.342949
0.982024
-1.423371
-0.121528
-0.246224
0.292633
0.081423
-0.357468
-0.128228
0.244927
0.169410
0.042598
-0.109872
-0.139076
-0.074195
0.086954
0.196438
0.054123
-0.135469
-0.119787
-0.082833
0.013169
-0.021647
0.236444
0.125112
-0.278976
-0.144044
0.077503
0.264397
0.032553
-0.104268
-0.223588
0.108648
0.100845
-0.145544
0.140624
0.054830
0.006045
-0.127239
-0.046040
0.191079
0.053884
-0.176722
-0.092792
0.246316
0.101065
-0.076615
-0.153231
0.000128
0.441068
0.378272
-0.240245
-1.080851
-0.855092
1.210512
3.186193
1.529765
-2.588534
-3.780727
0.220725
3.590349
1.261057
-2.130354
-0.172687
0.126653
-0.065617
0.041280
0.124128
0.346137
0.276798
0.203172
0.127995
-0.128130
-0.277747
-0.469275
-0.470120
-0.558623
-0.618017
-0.373229
-0.184466
0.039924
-0.017161
0.071552
0.066617
0.234049
0.204345
0.185185
0.052882
-0.039730
0.105071
0.167717
0.224071
0.188937
0.252884
-0.001539
-0.070030
-0.159988
-0.003253
0.069802
0.179278
0.119419
0.127329
0.114910
0.073438
0.163816
0.061905
0.232911
0.118985
0.235551
0.038360
0.079372
0.012952
0.133505
-0.058773
-0.082325
-0.073055
-0.212838
-0.341936
-0.306838
-0.171136
-0.224852
-0.429156
0.497986
-0.921994
0.144705
0.282995
0.274473
0.335993
0.308150
0.318358
0.272389
0.350599
0.398894
0.136887
-0.036988
-0.125004
-0.280320
-0.261645
-0.364331
-0.329339
-0.219682
-0.314251
-0.333873
-0.082627
-0.058672
0.026913
0.124081
0.162696
0.112929
0.294173
0.216743
-0.198253
-0.299708
-0.187906
-0.258522
-0.587696
-0.338796
0.256955
0.382299
-0.218997
-0.555441
-0.106831
0.297832
-0.037556
-0.405300
-0.193135
0.130381
0.149421
0.123825
-0.057218
0.237461
0.204790
0.114345
-0.171421
-0.263936
-0.074434
0.047578
0.308487
0.184105
0.032130
0.071353
0.441079
0.209835
-0.594874
-0.130536
-0.168435
-0.126750
-0.009334
-0.023684
-0.081611
0.029234
0.047937
0.029935
0.074861
-0.002596
0.141358
-0.054596
0.004003
0.003759
0.035639
0.100675
0.066147
0.057310
0.034288
0.040287
-0.041312
0.131117
0.287563
0.260743
0.386084
0.282986
0.316402
0.172272
-0.003522
-0.026821
-0.315747
-0.311691
-0.392391
-0.286123
-0.199630
-0.089277
0.104279
0.080148
0.001520
-0.210578
-0.268960
-0.141453
-0.059880
-0.023678
0.107387
0.153563
0.200915
0.131184
0.242874
0.028359
-0.032682
0.093065
0.069246
0.190125
0.044349
0.037019
0.318942
-0.315173
-0.315554
0.010367
-0.012889
-0.115759
-0.131717
0.036510
0.125873
0.063466
0.009919
-0.122532
-0.065085
-0.115098
-0.057929
0.038294
-0.036501
-0.011371
-0.162640
0.058921
0.074459
-0.120784
-0.043343
0.007002
-0.054591
0.001200
-0.231878
0.245156
0.070651
-0.358949
-0.065027
0.094972
0.352964
-0.178290
-0.194362
0.232208
0.327429
-0.534014
-0.526587
0.396835
0.433624
-0.673835
-0.868313
0.301017
0.440765
-0.163235
-0.690382
-0.135553
0.419540
0.164801
-0.321562
-0.250903
0.342156
0.411941
-0.003005
-0.347484
-0.180752
0.640007
1.379919
0.740656
-0.470201
0.306625
-0.439136
0.188369
0.180922
0.006579
-0.172200
0.093792
0.080114
0.029632
-0.092857
-0.032080
0.053371
-0.159932
-0.041866
0.080820
0.047482
0.042224
-0.106313
0.007131
-0.064836
0.023439
-0.058691
0.053957
0.090084
-0.072478
-0.269442
0.104604
0.022471
-0.070131
-0.054419
-0.140817
0.189018
0.184760
-0.486232
-0.516896
0.685174
0.193243
-0.314809
0.219439
0.403812
-0.222448
-0.826316
0.796517
0.787327
-0.374315
-1.412681
-0.311446
1.175398
0.482090
-1.013241
-0.634887
0.594271
0.649311
-0.568777
-0.907756
-0.205601
0.605065
0.355888
-0.419622
-0.464999
1.812736
-0.205758
0.121735
0.152215
0.064324
0.064951
-0.195544
-0.250028
-0.151606
-0.172920
-0.135952
-0.186854
-0.137894
-0.111583
-0.298918
-0.172339
-0.163682
-0.112794
-0.018252
0.023618
0.083447
0.157083
0.273537
0.319598
0.378958
0.466632
0.326863
0.169806
-0.025358
-0.313956
-0.301270
-0.349173
-0.104050
-0.072841
-0.208171
-0.217708
0.003468
0.196262
0.021947
-0.160866
-0.183848
-0.073045
0.028877
0.033440
0.067717
0.105729
0.056346
-0.035484
-0.094241
0.023137
0.037603
0.189998
0.182482
0.292358
0.121016
0.101623
0.095169
0.144601
0.028338
0.171680
0.242816
1.025317
-0.475840
-0.206570
0.194499
0.226363
0.058084
-0.203665
-0.076993
0.008582
0.065359
0.149356
0.220068
0.048467
0.003186
0.033519
0.274374
0.120620
0.079063
-0.036437
0.069218
0.169087
0.031554
0.065354
0.040887
0.121867
0.043643
0.082631
0.017363
-0.118040
0.008119
0.169638
0.021409
-0.067383
-0.053270
-0.086741
-0.020781
0.166504
0.158638
0.052486
0.162013
0.107357
0.202731
0.089331
0.140337
0.013425
0.042094
0.046614
-0.254951
-0.861251
-1.053429
-0.914632
-0.102634
0.550193
0.464787
-0.553401
-1.047412
-0.729280
-0.347832
-0.060741
1.936845
-2.058247
-0.834973
-0.119062
0.283523
0.332232
0.194878
0.029543
-0.002080
0.108574
-0.024370
-0.055252
-0.236857
0.039678
0.106484
0.220959
0.160393
0.102027
-0.044916
-0.093076
-0.048470
0.081567
-0.067778
-0.044799
-0.003977
-0.002593
0.079879
0.072949
0.046584
0.134027
-0.011627
0.174314
0.051717
-0.114305
-0.032048
0.037244
0.132314
0.163383
0.081064
0.161978
0.075238
0.053661
0.171277
0.018104
0.075937
0.124208
0.200890
0.229951
0.126341
-0.009522
0.033298
0.005711
-0.012623
-0.121014
0.198340
0.404628
0.110993
-0.297881
0.266238
0.914361
-1.116407
0.052272
-0.086310
-0.081742
0.158197
0.014759
0.059381
0.047878
0.037131
0.085993
-0.074256
0.111681
-0.045313
0.032997
0.005946
0.104454
0.075964
0.126030
0.250561
0.194293
0.245672
0.256533
0.187037
0.215719
0.056533
0.126832
-0.046917
-0.114966
-0.175092
-0.149216
-0.197762
-0.071587
-0.006550
-0.035651
-0.116551
-0.091882
-0.078796
-0.206400
-0.107031
-0.104197
-0.091463
-0.003610
0.027938
-0.062649
-0.124666
-0.146646
0.091004
0.104005
0.127930
0.106735
-0.162625
-0.366185
-0.421614
-0.365826
-0.125953
-0.042811
0.154805
0.326939
0.107754
-0.134417
0.165656
-0.067903
-0.205488
0.105631
0.114377
-0.054303
-0.007268
0.100146
-0.144162
-0.102249
0.069971
0.136807
-0.001906
-0.092327
-0.026449
0.013649
-0.034350
0.018772
0.087082
-0.028630
-0.115589
0.060317
-0.109097
-0.099564
0.113277
0.208100
-0.024502
-0.045854
-0.162243
-0.056002
0.042717
0.097784
0.043704
-0.001264
-0.191467
0.018911
0.195290
-0.086731
-0.066458
0.023947
0.150392
0.036852
-0.422092
-0.155493
0.261682
0.223717
-0.130089
-0.449587
-0.311451
0.470449
1.115752
1.683912
0.957169
-1.668535
-3.923775
-2.443070
2.408455
4.991663
1.257213
-4.083207
0.017766
-0.258019
-0.092413
-0.021539
0.028980
-0.005987
-0.088945
-0.122581
-0.119373
-0.070690
-0.009737
-0.057223
0.003882
-0.050941
-0.125608
-0.034106
-0.131582
0.098446
-0.017933
-0.064040
-0.075672
0.001269
-0.021376
0.149011
0.023390
-0.012411
-0.081998
-0.071027
0.032249
-0.021059
0.130608
0.085165
0.167370
0.016628
-0.082738
-0.027120
0.171584
0.183239
0.100040
0.152335
0.125412
0.065250
-0.012575
0.076374
0.049831
0.102317
0.031549
-0.005799
0.056425
0.169889
0.284241
0.257416
0.328221
0.108055
-0.085976
-0.389335
-0.431344
-0.442882
-0.287770
0.013421
-0.468840
0.230136
-0.206010
-0.040259
0.118272
0.201082
0.108914
0.189243
0.216269
0.212895
0.141848
0.231903
0.156075
0.046548
0.099913
0.148664
0.087359
-0.026465
-0.058320
-0.033321
-0.021244
-0.165428
-0.070097
-0.201227
0.009170
-0.002885
-0.118146
-0.016095
-0.001891
-0.050458
-0.116482
-0.153578
-0.037788
0.056275
0.056938
-0.021814
0.108458
-0.007864
0.033917
-0.054021
0.095180
0.059072
-0.083971
-0.125436
-0.017554
-0.047091
0.090263
-0.015382
0.046777
-0.098180
-0.286522
-0.318349
-0.383876
-0.144695
0.046992
0.059289
-0.065077
-0.002275
-0.073560
0.004178
0.296153
0.105976
0.438873
0.239228
0.128923
0.190640
0.031752
-0.001999
-0.039366
0.029242
0.064685
0.035222
0.054477
0.124357
0.147686
0.261704
0.112615
0.214352
-0.011765
-0.320826
-0.573522
-0.719411
-0.392647
-0.184719
-0.082504
0.166271
0.211360
0.108089
-0.102541
-0.105183
-0.000109
-0.034535
-0.021357
0.072762
0.101231
0.185779
0.267578
0.112751
-0.126148
-0.233931
-0.212756
-0.137437
-0.177678
0.071495
0.276389
0.354838
0.340023
0.215317
0.139726
0.219121
-0.104089
-0.314275
0.004926
0.010903
0.109743
0.068550
0.060654
-0.095798
-0.368149
-0.463529
-0.337789
0.044649
0.000718
0.000387
-0.005183
0.121726
0.031494
0.127605
0.104630
0.103903
0.025388
0.067363
0.077892
-0.018108
0.008692
-0.026249
-0.202037
-0.092223
-0.074726
-0.092602
0.023163
-0.045059
-0.166315
-0.249233
-0.184452
-0.134353
0.060803
0.062572
0.195364
0.153800
0.178711
0.088555
0.155778
0.117472
0.071987
-0.085688
-0.041060
-0.036778
0.090335
0.156017
0.107617
0.112455
0.113703
-0.165329
-0.177530
-0.277171
-0.184071
-0.186752
-0.134906
-0.068757
0.075744
0.050051
0.187401
0.161183
0.394264
0.402527
0.280383
0.058650
-0.106989
-0.021622
-0.363191
-0.108008
-0.051906
-0.212194
-0.218910
-0.313346
-0.590180
-0.401469
-0.342708
-0.199539
-0.240156
-0.299906
-0.080631
-0.082229
0.034795
0.037550
0.292792
0.479790
0.357685
0.369531
0.160016
0.252502
0.131071
-0.023705
-0.087829
-0.074920
-0.299522
0.110014
-0.069655
0.012906
-0.045629
0.016828
-0.009750
-0.350500
-0.374979
-0.132203
-0.041494
-0.172413
-0.267734
-0.055075
0.182754
0.162911
-0.092017
0.025465
0.111987
0.090062
0.020795
-0.029620
0.030810
0.154236
0.286674
0.229096
0.134883
-0.025929
0.178213
0.357292
0.182068
-0.093702
0.162628
0.682818
-0.368454
0.231371
0.340028
0.040068
0.062733
0.019399
-0.143018
-0.261880
-0.205297
-0.460700
-0.629095
-0.738375
-0.552690
-0.344728
-0.337696
-0.392210
-0.274352
-0.103665
0.076677
0.267719
0.236042
0.335414
0.129575
0.126756
0.056510
0.038366
-0.049311
0.030650
0.085857
0.158048
0.014185
0.086217
0.182826
0.125336
0.084827
0.086035
0.037332
0.128175
0.083810
0.010566
0.175886
-0.056511
0.000798
0.041190
0.040568
0.182705
0.235804
0.270537
0.125841
-0.030280
0.256625
0.343382
0.332538
0.349942
0.508690
0.532112
-0.142999
-0.634026
0.480576
1.398420
-2.369272
0.022740
-0.102704
0.059594
0.009921
0.117519
0.174174
0.275145
0.078997
0.091071
-0.004320
-0.043278
0.078379
0.221643
0.036476
0.073014
-0.000342
-0.013568
0.059591
0.219962
0.195617
0.004780
-0.114951
-0.186416
0.114457
0.058046
0.134021
0.184319
0.105416
0.054346
0.063197
0.006290
0.150712
0.154546
-0.037345
0.024599
-0.024252
-0.001367
0.115886
0.078369
0.079425
0.123989
-0.072787
0.042962
-0.135219
-0.125947
-0.200839
-0.261145
-0.323129
-0.220402
-0.279263
-0.065562
-0.153327
0.086227
-0.056405
-0.310612
-0.337067
-0.312820
-0.059654
-0.016515
0.635598
-0.032241
0.223507
0.164111
0.164966
-0.052505
-0.354680
-0.346830
-0.326765
-0.257852
-0.235218
-0.235724
-0.194359
-0.125531
-0.152414
-0.015421
-0.069306
0.148590
0.092428
-0.139167
-0.226036
-0.358142
-0.297488
-0.304404
-0.155043
0.239103
0.327628
0.800551
0.373088
0.921254
0.002851
-0.200451
-0.346514
-0.574955
-0.864137
-0.795689
-0.393377
-0.077801
-0.273728
-0.257417
0.029959
0.539362
-0.366176
0.073996
0.053737
0.195531
0.411708
0.356433
0.476641
0.357703
0.104139
0.167745
0.121122
-0.055258
0.043382
0.358116
0.332722
-0.013236
0.306380
0.725569
-0.081550
-0.121181
0.448360
0.517919
0.520202
0.270942
0.207561
0.052272
-0.061825
-0.254495
-0.303946
-0.373412
-0.450654
-0.569616
-0.512927
-0.369981
-0.139656
0.075604
0.205564
0.072606
-0.071666
-0.006478
0.110044
0.004588
-0.015072
-0.294395
-0.416477
-0.121130
-0.125717
0.033902
0.005585
0.062814
0.049882
-0.217507
-0.237878
-0.001311
0.190137
-0.040274
-0.264233
0.007915
0.233808
0.414795
-0.110983
0.117259
0.143199
0.102228
-0.126169
-0.183478
-0.023621
0.110055
0.138430
0.068000
-0.070790
-0.076809
-0.058892
0.236414
0.216250
0.067520
0.053044
0.448876
0.200859
0.032626
0.334891
0.127085
0.054618
-0.129880
-0.298489
-0.371116
-0.011529
0.267013
0.526703
0.580491
0.391111
0.217455
-0.328358
-0.665251
-0.953517
-1.002684
-0.990355
-0.918412
-0.687435
-0.209946
0.322536
0.436213
0.309186
0.015195
0.005784
0.210774
0.178463
0.138929
0.206192
0.193377
0.152459
-0.125212
-0.034349
-0.003971
0.035955
-0.115778
-0.009970
0.302996
0.421921
0.180800
-0.005450
-0.110609
-0.215145
-0.025108
0.034616
0.046095
0.245141
0.429787
0.291660
0.215477
-0.047895
-0.006623
0.261054
0.335230
0.103388
-0.187987
0.134281
0.794536
-0.894430
0.458383
-1.356642
0.186071
1.306113
0.498704
-0.826511
-1.142939
0.217204
0.961583
0.640394
-0.513244
-0.648634
0.044751
0.204501
0.165375
-0.084372
-0.198002
0.455571
0.153406
-0.500252
-0.881356
0.307464
1.552967
0.136567
-1.570095
-0.171123
0.253365
0.735313
0.322972
-1.066379
-0.427211
2.110322
-0.631828
-2.335476
1.124879
2.585898
-1.158177
-3.038367
1.545213
2.767826
-0.957635
-3.333271
0.502754
3.482954
0.471059
-3.116538
-1.173723
2.059197
1.592759
-0.879957
-1.685436
0.346300
1.665312
0.044647
-1.213487
-0.192597
1.296049
0.109831
-1.665510
0.746405
-0.118542
-0.051140
0.070247
0.053643
0.058749
0.078002
0.005392
-0.012632
0.023776
0.035324
0.071144
0.024865
-0.029194
0.039041
0.069341
0.020103
0.109014
0.072437
-0.051708
0.042700
-0.068471
0.125521
0.128899
-0.062079
0.060823
0.018035
-0.008128
0.033997
0.008037
-0.045722
0.050433
0.100267
-0.033019
-0.077103
0.053200
0.138117
-0.051910
-0.116100
-0.074550
-0.084746
0.115207
0.103765
0.128960
0.231532
0.246905
0.124705
0.267014
0.327887
0.570848
0.606430
0.313016
-0.022396
-0.523453
-0.905345
-1.064335
-0.381738
0.275800
0.290652
-0.372382
0.063518
-0.599533
0.261583
0.978252
-0.067844
-0.993088
-0.095905
0.684831
0.260295
-0.418508
-0.235746
0.235913
0.284047
0.191867
-0.474642
-0.320430
0.100029
0.461126
0.394729
-0.344404
-0.729087
-0.039424
0.326978
0.373650
0.075386
-0.123872
-0.176851
-0.478166
0.283994
-0.123659
-0.267668
1.767659
-0.607678
-2.114169
2.026252
0.068914
-1.405489
0.145826
2.621188
-1.075970
-2.907295
0.755271
3.501487
-0.863974
-3.042125
0.145575
3.152585
0.471680
-3.037285
-0.933522
2.422110
1.375624
-1.553103
-1.334209
1.188747
1.159892
-0.738834
-0.628829
0.546399
-0.080869
-0.194283
-0.016406
-0.046937
-0.037353
-0.056908
0.064480
-0.081248
-0.149367
-0.052894
0.076978
0.144120
-0.009076
0.060968
-0.007239
0.016872
-0.096903
-0.018978
-0.036484
0.071517
0.041917
0.037624
-0.089450
-0.040116
-0.000893
-0.034124
0.052654
-0.002640
-0.026119
0.022837
-0.049381
-0.022434
0.182840
-0.013383
0.006889
-0.102062
-0.016919
0.180160
0.026965
-0.117080
-0.177542
-0.260352
-0.262274
0.089781
0.364729
0.400630
0.501988
0.259340
-0.171674
-0.331890
-0.336255
-0.084749
0.110116
-0.077467
-0.302607
-0.419815
-0.340172
-0.194323
-0.027610
0.126528
0.389763
0.323798
-0.078794
0.021148
0.023152
-0.087016
-0.083040
-0.027771
0.000770
-0.015919
-0.046011
0.094358
0.068064
-0.002248
0.050306
-0.059188
0.090226
-0.016251
-0.017888
0.002312
-0.005749
0.107634
-0.021263
-0.025749
0.075035
0.059388
-0.037274
0.064741
-0.048855
0.110839
0.081635
0.002180
-0.063581
-0.056767
-0.039401
-0.029268
0.010683
-0.036208
0.114436
0.032856
0.062585
0.038756
-0.031356
-0.040578
-0.024139
-0.104217
0.000626
0.077685
-0.049711
0.064315
-0.024899
-0.014491
-0.024670
0.022634
0.068333
-0.070044
0.029651
0.072196
-0.001974
-0.061866
-0.172656
-0.277121
-0.255826
0.383240
0.160418
0.075872
0.184077
0.186454
0.068677
0.131656
0.166214
0.161883
0.227373
0.195695
0.109141
0.114018
-0.091396
-0.193498
-0.228428
-0.184675
-0.213791
-0.039251
0.001856
0.044383
-0.007719
-0.087578
-0.219389
-0.178493
-0.191374
-0.107967
-0.060729
0.253225
0.078909
0.242622
-0.191028
-0.221976
-0.210766
-0.108174
-0.052293
0.144581
0.306678
0.342364
0.589134
0.083179
0.396344
0.313588
0.293153
0.105540
-0.368253
-0.546914
-0.471428
-0.297430
-0.366717
0.006835
0.273507
0.000280
-0.110779
-0.044658
0.006529
-0.107752
-0.167249
0.364628
-0.587410
0.058198
0.186926
0.238805
0.219109
0.260348
0.326275
0.203474
0.137284
-0.052872
-0.148705
-0.291908
-0.355140
-0.423872
-0.335230
-0.356283
-0.299430
-0.318741
-0.253456
-0.278069
-0.293170
-0.263967
-0.227458
-0.102929
-0.035911
-0.079753
0.011563
-0.022407
-0.016031
-0.099093
0.045160
0.016341
0.129285
0.092701
0.211901
0.025475
0.088872
0.059161
0.191101
0.053262
0.145283
0.067401
0.092608
0.178691
0.049915
-0.015216
0.122772
0.133072
0.199824
0.249224
0.223253
0.113967
0.052595
0.389650
0.538349
0.211340
-0.404897
0.323340
1.118698
-1.541124
2.202687
-1.193044
-0.627542
0.260666
0.523494
0.204248
0.198371
0.115882
0.156248
0.100160
0.178411
0.052261
0.260641
0.387074
0.192552
-0.081302
-0.176238
0.319219
0.476495
0.299670
-0.113673
-0.025644
0.225689
0.326774
0.366884
0.088759
0.090837
0.007068
0.111523
-0.112441
-0.126092
0.041466
0.144010
0.081493
0.030578
0.123270
0.067582
0.195120
0.027408
-0.068290
0.355441
-0.238201
-0.063855
0.044133
0.160598
-0.162957
-0.367567
-0.577297
-0.244422
0.336706
0.137002
-0.484372
-0.419015
-0.016304
0.106912
-0.219783
-0.302285
0.128798
0.028330
-2.859441
-0.035848
-0.188313
-0.179449
-0.075108
-0.022958
-0.009468
0.062665
-0.016628
-0.061207
-0.100101
-0.026730
0.066615
0.040855
0.019301
-0.127695
-0.017367
0.046097
0.020556
0.012070
-0.078361
-0.033190
-0.077601
0.016868
0.077008
0.004937
-0.136998
-0.079432
-0.015973
0.165559
-0.146993
-0.027111
-0.072128
-0.115847
-0.056857
-0.063621
-0.027378
0.093204
-0.032740
0.022510
-0.014382
-0.107820
-0.065111
-0.282404
-0.380770
-0.366475
-0.617788
-0.631231
-0.282791
0.314354
1.041542
1.143433
0.372935
-0.411091
-0.722434
-0.250031
0.524642
0.949879
0.464877
-0.270879
0.029725
0.037156
0.325197
-0.077552
0.081343
0.148623
0.100484
0.119360
0.026018
0.190327
0.089150
0.126094
-0.025947
0.037496
0.067213
-0.024606
0.022724
0.114803
0.225232
0.090608
-0.029717
-0.147705
0.023382
-0.135905
-0.200737
-0.219171
0.184135
0.308044
0.237852
-0.191632
-0.400999
-0.512606
-0.456433
-0.326737
0.046589
0.071774
0.404490
0.640977
0.467292
0.223783
0.232691
0.227919
0.410649
-0.152660
-0.714954
-0.634946
-0.567260
-0.521587
-0.337604
0.003574
-0.006064
-0.103199
0.043790
-0.045818
-0.035761
-0.317782
-0.069967
0.430617
0.333586
-0.004595
0.047665
-0.105209
0.266207
0.102721
0.119619
0.087303
0.048601
0.047832
0.173457
0.102341
0.175608
-0.071454
-0.043521
-0.151815
-0.137197
-0.243561
-0.370788
-0.168326
-0.235497
-0.194638
-0.185086
-0.016424
0.123477
0.205739
0.092077
0.122965
0.035551
0.018012
0.186927
0.107335
0.147895
0.102383
0.117834
0.052714
0.030183
-0.003766
-0.070026
-0.112503
-0.328760
-0.426987
-0.142700
-0.139030
0.057522
0.041191
0.068954
0.033109
0.090005
0.075317
-0.026237
0.064871
0.154535
0.152745
0.273265
0.310800
0.456848
0.337401
0.215597
-0.194798
-0.045998
0.404690
-0.781671
0.005292
0.262065
-0.018374
-0.079892
0.047720
-0.083755
-0.011488
0.008551
0.112127
0.069527
0.128361
0.208119
0.081608
-0.054194
-0.199775
-0.213079
-0.106098
-0.103014
0.029445
0.017500
0.537430
0.836889
0.516023
0.334057
0.042803
-0.453813
-0.816369
-0.972613
-1.149094
-0.914251
-0.553207
-0.125113
0.040333
0.209088
0.296637
0.272027
0.285015
0.141978
0.093528
0.105846
0.290931
-0.236555
0.300398
0.357157
0.188116
-0.037213
-0.287714
-0.117455
-0.071536
0.053122
0.192812
0.150262
-0.040695
-0.138455
-0.126183
0.088788
0.046290
0.129750
0.303770
0.078720
-0.086352
-0.036109
-0.017548
-0.065610
-0.109358
-0.013009
-0.051207
0.021496
0.013751
-0.136006
-0.014377
-0.018363
-0.149732
-0.136990
0.000717
-0.083289
-0.104878
-0.010179
-0.051189
-0.129157
-0.108321
0.064329
-0.053419
0.024596
0.056281
-0.035822
0.066555
0.143491
0.102407
0.085912
-0.092542
0.033914
0.087436
-0.070167
-0.074978
-0.050335
0.163934
0.041545
0.220219
0.162559
0.109198
-0.012852
0.030718
0.010491
-0.122725
-0.246536
-0.151892
-0.039011
0.085095
-0.035713
0.066804
0.237565
0.206825
0.263712
0.119593
0.177257
0.111934
0.008100
-0.046923
0.115168
0.059762
0.111206
0.082237
0.053954
-0.055275
0.005361
0.031779
-0.030513
-0.124646
-0.035456
-0.138532
-0.094189
0.019633
0.074338
-0.057847
-0.010304
-0.012706
-0.084608
0.063009
0.011639
0.045649
-0.056677
0.063185
0.002799
-0.026302
0.116665
0.090217
-0.054514
-0.028318
-0.110909
-0.048854
-0.022934
-0.005745
-0.021261
0.074512
-0.067489
-0.071330
-0.008380
-0.114838
-0.085580
-0.138331
0.065726
0.079355
-0.017658
0.118838
0.022636
0.163024
0.125323
-0.025540
0.033237
0.053318
0.055217
-0.021951
0.060991
0.045686
-0.005670
-0.011611
0.011418
0.118220
-0.079499
-0.378964
-0.057333
-0.105067
-0.146561
-0.059488
-0.226469
-0.276312
-0.146319
-0.107056
-0.038882
-0.108145
-0.046648
-0.122211
-0.113764
-0.053882
-0.031114
-0.013728
-0.009003
-0.073539
-0.114872
-0.157347
-0.038083
0.086848
0.168289
0.217277
0.202108
0.083977
0.034547
0.116459
0.153153
0.135144
0.227243
0.116814
0.311702
0.152823
0.227132
0.156512
0.102249
-0.140409
-0.152487
-0.211353
-0.096423
-0.286137
-0.172910
-0.027753
-0.036807
-0.104872
-0.039696
-0.027800
0.091149
0.196369
0.201931
0.151087
0.412186
0.452449
0.186726
-0.108895
0.039974
0.518168
-0.449669
0.126675
0.046956
0.032801
-0.064211
-0.220559
-0.217049
-0.282988
-0.186156
0.053668
0.137625
0.151244
0.085569
0.158581
0.157823
-0.025772
0.070892
0.055806
0.000786
0.074784
-0.001109
0.116856
0.098212
0.159256
0.190914
0.097276
-0.116396
-0.114586
-0.142130
-0.072533
-0.030790
0.238075
0.097825
0.214220
0.043871
0.083609
0.006764
0.118709
0.127994
0.071559
0.079923
0.060391
0.080909
-0.223750
-0.376268
-0.424720
-0.305816
-0.246081
0.112735
0.057901
0.204883
0.190548
0.185516
0.131094
-0.061758
-0.202900
-0.092041
-0.097033
-0.035374
-0.072469
-0.075113
-0.199485
-0.016683
-0.097987
-0.017582
0.214922
0.372057
-0.074611
-0.465302
-0.274971
0.171399
0.291141
0.042572
-0.131103
-0.178298
-0.069863
-0.044865
-0.107760
0.053289
-0.070769
0.098947
0.245562
-0.154319
-0.521355
0.033206
0.302463
0.169658
-0.557100
0.067495
0.638294
0.024950
-1.298338
-0.283358
2.096553
-0.335230
-1.978963
0.716663
1.982769
-1.217688
-2.482390
1.603343
2.558006
-1.443281
-2.548915
0.498036
2.474860
0.162001
-2.138538
-0.681878
1.515083
0.844357
-1.002246
-0.676158
0.739469
0.701844
-0.399343
-0.363814
0.527720
0.194394
-1.037283
0.994366
-0.100998
0.007819
-0.089250
-0.052220
-0.108375
0.037922
0.012096
0.030581
0.011959
-0.108121
-0.181760
-0.023635
-0.056231
-0.049304
0.130346
0.043925
0.068614
-0.004704
-0.007902
0.012522
0.039048
-0.152516
-0.108343
-0.118381
0.200173
0.263781
0.024981
-0.051215
0.080177
-0.081857
-0.220098
-0.221534
-0.202702
0.028656
-0.010271
-0.136511
-0.008480
-0.056849
-0.012972
-0.077478
-0.064767
0.081504
0.025373
-0.048553
-0.239926
-0.089736
-0.118977
0.046281
0.039216
0.084791
0.014593
0.233641
0.198366
0.384434
0.544199
0.439325
0.283677
0.149769
0.170644
-0.551260
-0.454090
-0.394465
-0.191850
-0.031688
0.002273
-0.032530
-0.088479
-0.114962
-0.041527
-0.121741
-0.003523
-0.105989
-0.019251
0.015563
-0.028653
-0.057506
-0.080254
-0.093400
-0.123825
-0.093352
-0.118219
-0.006061
-0.001511
-0.023285
-0.050627
0.036469
-0.107928
0.078304
0.032619
-0.109874
-0.087994
0.086970
0.044223
-0.102991
-0.026653
-0.029593
0.059073
0.001564
0.171372
0.122767
-0.058804
0.012556
-0.047058
-0.102896
0.225492
0.297976
0.159618
0.135413
0.068159
0.234698
0.042045
-0.462668
-0.575761
-0.452599
-0.083652
0.491638
0.496107
0.257015
0.067618
0.496380
-0.427978
0.246609
0.028266
0.025485
0.118482
0.076712
-0.010021
0.042031
0.121635
-0.034177
0.010371
-0.081067
-0.018674
0.066050
0.077601
-0.024248
0.089008
-0.016699
0.053990
0.074531
0.049810
0.048232
0.172975
0.175303
-0.131313
-0.179385
-0.068452
0.140771
0.253795
-0.307938
-0.084406
0.181729
0.107617
-0.048131
0.076071
0.380557
0.188716
-0.338696
-0.293550
0.055275
-0.125066
-0.865306
-0.554797
-0.200547
0.282386
0.373898
0.604019
1.245644
1.366137
0.750174
-0.209585
-0.574819
-1.045424
-1.424902
-1.223865
-0.292583
0.204806
-0.587330
-0.981408
1.820019
-0.078292
-0.218780
-0.030692
0.015222
-0.024502
-0.042570
-0.022847
0.054163
-0.020166
-0.000699
0.028875
-0.088489
-0.122514
-0.074201
0.170444
0.101349
-0.095777
-0.262899
-0.212216
0.052546
0.126401
0.100112
-0.067461
-0.293018
-0.142086
0.167792
0.147383
0.041698
-0.248027
0.023784
0.110916
-0.265641
-0.131957
0.118590
0.410241
-0.058439
-0.656369
0.126901
0.331098
-0.217009
-0.656948
0.674257
0.407368
-0.231273
-0.835123
-0.132241
0.614246
0.649211
0.326643
0.143481
-0.724372
-1.509519
-0.705891
1.358184
2.464327
1.163245
-1.228739
-2.516165
-1.160250
2.944077
-0.695119
0.366308
0.267356
0.096899
0.087088
0.124055
0.118002
-0.042215
0.012542
0.182275
0.058809
-0.021985
-0.092424
-0.163729
-0.075371
0.086953
0.155893
0.369488
0.279261
0.128269
0.099058
-0.053664
-0.014033
-0.137461
-0.117684
-0.177165
-0.301122
-0.359335
-0.374376
-0.356908
-0.253761
-0.328380
-0.260940
-0.290386
-0.201992
-0.049763
-0.024851
0.183499
0.332656
0.095208
-0.025055
0.077736
0.033879
-0.003222
0.066781
0.147767
0.137141
0.048409
-0.052806
0.158800
0.405950
0.331829
0.133760
0.235051
0.466942
0.042940
-0.384766
0.130084
1.106992
-1.517239
-0.499177
-0.504003
-0.347236
-0.292023
-0.095840
-0.116673
-0.008421
-0.036583
0.046650
0.073005
-0.015887
0.108143
0.001326
0.075026
0.148700
0.120245
0.183073
0.202631
0.331638
0.239821
0.102290
0.171842
0.133106
0.143057
0.076037
0.106471
0.020942
0.198067
0.056639
0.174241
-0.038235
-0.129459
-0.174565
-0.157510
-0.023014
0.037195
0.053425
-0.015072
0.064737
0.064565
0.046452
-0.089975
-0.111001
-0.078863
0.068230
-0.001142
-0.067849
-0.123127
-0.151688
-0.255202
-0.303333
-0.160864
-0.005098
-0.022091
-0.113217
-0.034110
0.125218
0.100449
-0.099976
0.680931
-0.283909
-0.295211
-0.107840
-0.045171
0.046508
0.070969
0.189611
0.221107
0.250669
0.121310
0.131674
0.098098
-0.046983
-0.196173
-0.362524
-0.295799
-0.193912
-0.178329
-0.201425
-0.182442
0.021245
0.055697
-0.043247
0.175472
0.218682
0.205991
0.154934
0.195749
0.198261
0.181061
0.139739
0.143558
0.206749
0.101438
0.169790
0.127458
0.075933
0.015550
-0.018041
0.129056
-0.036982
-0.066213
0.013204
-0.080214
0.053851
0.024768
-0.065974
-0.050810
-0.209463
-0.284597
-0.218276
-0.149915
0.072443
0.142757
-0.035918
-0.018362
-0.106254
-0.091726
0.006598
0.560339
-0.016950
-0.071399
0.043746
0.074620
0.125019
0.072612
-0.004798
0.053206
0.004375
0.022990
-0.015659
0.001116
0.078517
-0.003934
0.036203
-0.076443
-0.014120
-0.100290
0.001939
-0.114861
-0.087503
0.066763
0.000935
0.023376
-0.048367
-0.003200
-0.016536
0.018158
-0.012047
-0.027803
0.135059
0.077985
-0.098274
-0.056488
-0.091819
0.017826
0.215947
0.140812
0.301892
0.331139
0.386849
0.371057
0.134522
-0.060233
0.060471
0.008151
0.060097
0.039758
0.192225
-0.114624
-0.517662
-0.627685
-0.678986
-0.571187
-0.112749
0.187769
0.458252
0.047005
-0.534689
0.075484
0.110302
-0.000740
0.022495
-0.018175
-0.184287
-0.383262
-0.372323
-0.344027
-0.158473
-0.056886
-0.041172
0.028774
0.008990
0.128660
-0.009054
0.039377
0.055329
0.010132
-0.063826
-0.247146
-0.188976
-0.100254
-0.149285
-0.076747
-0.058212
-0.143315
-0.159800
-0.250140
-0.148469
-0.086832
-0.007010
0.162325
-0.062649
0.037368
0.132696
0.195279
0.161278
0.125853
0.135285
0.217622
0.245422
0.135909
0.040219
0.102119
0.111208
-0.117984
-0.044976
-0.115014
-0.021784
0.134521
0.064941
0.052081
0.011861
0.177017
0.344247
0.201735
0.046076
0.028230
0.302637
-0.256298
-0.389116
0.329538
0.107534
0.131472
0.058450
0.034205
-0.172772
-0.100967
0.042481
0.044058
-0.034969
-0.000996
-0.038550
-0.005760
0.074339
-0.017572
0.127895
0.145774
-0.038410
-0.243010
-0.107057
0.085515
0.232159
0.040312
0.084143
-0.105541
-0.107907
0.000706
-0.002356
0.279017
0.285770
0.183192
-0.093058
-0.138499
-0.031709
-0.003158
-0.144894
-0.225253
0.122764
0.341662
0.661031
0.619050
0.732725
0.594676
0.559911
-0.015738
-0.388816
-0.555895
-0.596154
-0.572778
-0.317391
0.056632
0.417985
0.292564
0.069448
-0.063342
-0.356193
-0.389583
-0.429472
-1.074613
weigvec 606
0.680786
-0.253259
-0.610230
-0.993456
-0.301008
0.876774
0.175229
0.505012
-0.337769
-0.348571
0.163168
0.006864
0.115910
0.109360
-0.139620
0.487393
-0.750394
-0.266734
0.419675
0.345348
-0.180913
0.732080
0.788322
-0.597454
0.357629
0.241614
-0.039873
0.254036
0.634419
-0.504875
-0.733511
0.030686
0.507475
0.519483
-0.682566
0.240297
0.450692
0.470076
0.096989
0.064698
0.712949
0.976151
0.506684
-0.256638
-0.083806
0.321667
0.467748
0.031474
1.197714
-0.195473
0.218213
0.352723
-1.106040
0.918584
0.134100
0.350198
0.072984
-0.272622
-1.453669
0.320868
0.629192
-1.209974
0.690698
0.498838
0.393042
0.412323
-0.033851
-0.383781
0.026364
-0.738366
-0.139148
0.254452
0.191183
-0.178815
-0.647781
1.224772
-1.045940
-0.295901
-0.179134
0.488616
-0.932313
-0.374189
1.155662
0.474735
-0.500050
0.122914
0.173987
-0.151701
0.008853
0.035365
-1.246775
-0.627495
0.567199
0.565146
0.741719
-0.877735
0.471534
0.350198
0.580164
0.314539
-0.003383
-0.164266
-0.140596
-0.007771
1.071713
0.764765
-0.077266
-0.087202
-0.148906
0.347297
0.121061
0.121505
-0.093606
-0.156951
-0.282021
0.374687
0.219630
0.685957
0.118788
0.040585
0.025089
-0.080111
-0.173990
-0.467275
-0.073841
-0.139641
0.242346
-0.131429
-1.245429
-0.799101
-0.993885
0.003591
0.096192
-0.080851
0.095132
0.920841
0.381034
-0.413528
-0.427944
0.219286
-0.471740
0.093757
-0.649952
0.099838
-0.062933
-0.142373
0.389355
0.011241
-0.200561
-0.202227
-0.188333
0.038074
-0.124162
0.832886
1.175441
0.268651
0.370987
0.463163
-0.771157
-0.369104
0.226425
-0.741077
0.449908
-0.013465
1.589929
0.067662
-0.206740
0.345176
-0.064741
0.358848
0.454365
-0.104303
0.373041
0.673752
0.482399
-1.187669
-0.080137
-1.433204
-0.316313
0.129593
-0.421090
0.624455
-0.033084
-0.406974
0.060502
0.280044
0.345540
-0.247509
-0.008241
0.394403
-0.040556
-0.886156
-0.203140
-0.369915
-0.342934
-0.255562
0.800799
-0.243047
-0.197122
0.567231
-0.071169
0.128262
-0.031895
-0.351313
0.442170
-0.188348
-0.080273
0.356815
-0.717328
0.287381
-0.785743
0.221530
-0.606213
0.127416
-0.367606
-0.495236
-0.252527
0.345906
-0.116144
0.237052
0.276697
-0.800539
-0.253397
0.042869
0.570588
0.311525
0.271127
-0.178783
-0.167151
-0.159300
0.124315
0.467229
0.027180
-0.175617
-0.025962
0.078371
-0.115010
0.106088
0.183691
0.388865
0.042113
-0.954317
0.068893
0.102119
-0.332982
-0.509240
0.135289
-0.170474
-0.148711
-0.545860
0.675170
0.047531
0.123458
0.975556
-0.311452
-0.309314
0.129130
-0.118255
-0.554147
1.432695
0.006169
-0.204791
0.268914
0.118111
-0.225849
-0.076058
-0.405116
0.041008
0.281214
-0.108628
-0.406236
-0.250844
0.506183
0.205320
-0.232291
-0.071756
0.656765
0.453626
0.463012
-0.569259
0.147303
0.450313
-0.660646
-0.075457
-0.812487
0.325871
-0.232616
0.070745
0.062508
-0.061750
-0.525770
0.286860
0.696458
0.865579
-0.799111
0.049348
0.153654
-0.345229
0.456510
0.329064
-0.280251
-0.022215
0.232417
-0.271383
0.217887
-0.132284
-0.024394
-0.048582
-0.247675
-0.269062
0.197355
0.113139
-0.124198
-0.391426
-0.121580
-0.127373
-0.086309
-0.019225
0.062835
0.083077
0.055762
0.133065
-0.350570
0.141678
0.253363
0.165088
-0.406910
-0.627076
-0.114942
-0.481862
-0.380330
0.567616
0.054134
-0.106791
-0.024962
0.157953
-0.007045
0.071350
-0.021276
-0.002411
-0.051301
0.120881
0.389280
0.061740
-0.406755
0.115645
-0.521861
-0.240875
0.368494
0.126240
-0.125081
0.111567
-0.210088
0.214070
0.383324
-0.318309
-0.548971
0.117829
-0.033054
0.331147
0.071157
-0.436843
0.085955
-0.116651
0.139610
0.048927
-0.409630
-0.148165
-0.196694
0.179883
-0.176378
0.101843
-0.027201
-0.332578
0.029185
0.002381
-0.012945
-0.151063
-0.420991
-0.278235
0.311173
-0.043141
0.245372
-0.065921
-0.191298
-0.129545
0.024878
0.127573
0.045449
-0.252564
0.087372
-0.086847
-0.011192
-0.225727
-0.367335
-0.221114
0.401081
-0.332381
-0.201995
-0.094157
0.221843
-0.017132
-0.151140
-0.067432
0.082356
0.652943
-0.203829
0.607612
0.315849
-0.438139
0.332276
-0.072426
0.697654
0.282036
0.474934
0.218040
-0.206375
-0.092340
0.249570
0.373457
0.919565
0.099443
-0.102206
1.107408
0.339657
-0.317935
-0.144441
-0.046809
0.268747
0.435026
0.784905
0.962940
0.304958
-0.531503
-0.298582
0.628103
0.093361
0.302693
0.181851
0.263428
0.472240
-0.358455
0.148067
0.730031
0.200600
0.025144
-0.223170
0.483473
0.213699
-0.125776
-0.303252
0.433538
-0.273104
0.293366
0.055785
-0.470854
0.455457
-1.705971
-0.083384
0.393643
0.462942
-1.376617
-0.497313
0.504672
-0.240432
0.363832
-0.547909
-1.184653
0.610230
-0.530786
0.262125
0.541502
0.546515
0.334766
-0.271225
0.237238
0.417953
0.227131
-1.067278
-0.702608
-1.082452
0.533894
0.052138
0.363259
0.669577
-0.127789
-0.330151
0.232852
0.951945
0.335224
0.233955
0.191077
0.782016
0.344467
-1.649037
0.445048
0.151766
-0.007432
-1.304032
0.737641
-0.221257
-0.308809
-0.800974
0.774425
0.485807
-0.514630
-0.152897
0.546836
-0.280355
-0.553133
-0.503712
0.453008
-0.787993
-0.099795
-0.226334
-0.156529
0.191579
0.533475
0.776811
-0.475692
-1.372873
-0.583554
-0.102500
-0.614362
-0.251058
0.142938
-0.343183
-0.610202
0.798018
-0.026481
-0.419295
-0.019709
0.547882
-0.624680
1.591248
1.145819
-0.677606
-0.768469
-1.131428
-0.228642
-0.924471
-0.559821
-0.087486
-0.675422
0.218568
-1.194500
-0.151835
-0.104673
0.868125
0.088702
-0.854218
-0.120150
0.265457
-1.178873
0.020245
-0.640130
-1.167502
0.446039
0.612438
-0.599568
-0.880792
-0.452521
0.719258
2.643574
-0.994950
0.237399
0.222600
0.038294
-0.180951
-0.286541
0.351486
-0.983116
0.298948
-0.767458
0.075882
0.189910
-0.946346
-1.136220
-0.581157
2.489334
-0.347031
3.295906
0.082829
0.067407
-1.083052
0.515423
0.971869
0.662624
-1.137034
-0.557133
-0.669797
0.328329
0.133198
-0.598306
-0.556193
3.373753
-0.089901
0.744476
-0.677791
0.908909
-0.132390
-0.298907
-0.301319
-0.267733
-0.639336
-0.732383
biasvec 101
-4.895937
-4.199936
-4.020395
-5.907863
-4.362046
-3.455725
-5.989927
-5.198462
-5.423341
-3.987850
-4.463481
-3.934915
-4.299451
-3.930254
-4.319769
-5.477474
-5.623545
-4.111439
-4.795424
-5.145007
-3.956870
-4.415791
-5.166135
-4.400687
-4.256637
-4.824094
-4.180990
-2.074465
-5.050848
-3.475210
-4.986852
-4.292370
-5.224319
-5.510650
-5.060425
-5.431351
-2.716918
-4.678547
-4.346620
-3.891147
-5.870741
-4.079784
-4.064043
-5.134786
-4.112362
-4.600130
-4.130665
-4.356675
-6.298793
-3.881669
-5.421716
-5.429269
-5.638091
-3.344462
-4.568548
-5.547524
-5.064129
-6.340047
-5.238701
-5.131519
-2.988296
-5.224940
-4.347960
-2.785677
-4.108801
-3.992303
-5.095405
-4.044608
-5.816503
-5.519629
-4.172950
-6.064475
-5.582432
-4.602051
-3.358618
-4.955974
-3.053284
-3.968739
-4.042130
-6.050434
-6.547590
-6.307686
-5.137345
-5.219035
-5.294704
-4.184913
-3.876635
-4.126636
-5.815845
-4.272018
-3.486867
-4.414199
-4.374743
-4.313379
-3.445408
-5.688740
-4.529980
-4.074586
-5.010064
-4.599345
-4.737974
biasvec 6
-4.812332
-7.233378
-2.911030
-3.867097
-3.320528
-1.886081
