60 101 6
weigvec 6060
-0.068368
0.053906
-0.070824
0.092932
0.041800
0.085322
0.067173
0.005380
0.112210
0.094561
0.043522
0.030246
0.102095
-0.005196
0.003614
0.063132
0.063226
0.004276
0.035113
-0.086009
-0.013915
-0.091670
-0.015131
-0.048872
-0.009123
0.076006
0.066892
-0.063624
-0.037046
-0.043975
0.079937
-0.022155
0.057532
-0.061887
-0.068681
0.095467
-0.099563
-0.062832
-0.008232
-0.059115
-0.002274
0.052291
-0.083523
-0.170275
-0.197522
-0.108148
-0.217913
-0.056705
-0.036873
-0.089379
0.069847
0.047484
0.138629
0.224241
0.128228
0.109733
-0.001188
0.016428
0.020125
-0.012916
1.327966
-0.645927
-0.465868
0.321644
0.273124
0.186617
0.106129
0.229943
0.019003
-0.053334
-0.060972
0.230453
0.273984
0.130895
0.131610
-0.001260
0.208560
0.207475
0.108339
0.253267
0.187853
0.106258
0.152540
0.189399
0.157654
0.218867
0.012432
-0.074174
-0.027161
0.152938
-0.001150
0.115662
0.088246
0.052717
0.028101
-0.014881
0.005860
-0.008007
-0.043133
-0.000275
0.014323
0.037522
0.168297
-0.113068
-0.233802
-0.232663
0.051899
-0.003438
-0.057881
-0.048222
0.076251
-0.072939
-0.175057
-0.083546
-0.075519
-0.121869
0.147911
0.224840
-0.229270
-2.555959
0.028637
-0.043272
-0.200696
-0.247356
-0.156883
-0.071282
-0.037944
-0.152973
0.037856
0.060984
0.052717
-0.016240
0.151905
0.154083
0.196526
0.112613
0.170012
0.160581
0.057509
0.022045
0.002729
0.047950
0.094177
0.034590
-0.037039
0.127459
-0.024063
0.100848
0.113994
0.170566
0.095650
0.088240
0.123697
0.089976
0.142931
0.003951
0.082750
-0.055573
0.083138
0.030811
-0.017969
0.064932
0.041436
-0.023600
-0.057866
0.054224
0.055599
0.059683
-0.044422
0.003120
0.030910
-0.031165
0.007863
0.005832
-0.079281
-0.046940
-0.063489
-0.065668
-0.183961
-0.048410
-0.139365
0.084814
0.090538
0.036134
0.029787
-0.095810
-0.033165
-0.084487
-0.140328
0.040593
-0.020534
0.034668
0.168521
0.090608
0.106049
0.129816
0.191638
0.183444
0.022596
-0.207311
-0.532322
-0.635165
-0.649589
-0.486270
-0.227920
-0.007010
-0.075196
-0.030767
-0.011163
-0.036952
0.194726
0.133116
0.154333
0.193229
-0.025804
0.074792
0.087313
0.106811
-0.030790
-0.068601
-0.010537
0.118522
0.081388
0.177305
0.159284
0.223449
0.140331
0.035520
0.112803
0.205563
0.174419
0.064742
0.036564
0.154634
0.332903
0.130123
-0.038260
0.252543
0.429556
-1.360208
0.048084
0.358083
0.230586
-0.115575
-0.010533
-0.025221
-0.011653
0.021590
0.040976
0.091394
0.134252
-0.055792
-0.059922
-0.211678
-0.182113
-0.039411
0.043909
0.275084
0.428989
0.330337
0.068824
-0.150340
-0.589179
-0.701719
-0.719504
-0.374349
-0.034917
0.159283
0.661164
0.416851
0.417998
0.287694
0.224784
0.030013
-0.389634
-0.452691
-0.142452
0.110030
0.004258
-0.042221
-0.082115
-0.071385
-0.380325
-0.441799
-0.395629
-0.249062
-0.018285
0.182904
0.263054
0.162792
0.136086
0.012796
0.053725
0.206797
0.141678
-0.037250
-0.262502
0.027811
0.300084
0.221542
-0.261602
0.128084
0.109503
0.064535
0.004702
-0.006736
-0.108397
0.014148
0.031085
0.045926
0.014682
-0.031668
0.004365
-0.008324
-0.008812
-0.006206
-0.100345
-0.103923
0.021468
0.102434
0.084449
-0.093404
0.004391
-0.026291
-0.064964
-0.063782
0.015237
-0.040159
-0.095624
0.031866
-0.054577
-0.108297
0.146558
0.193819
0.005151
-0.208024
-0.068885
0.120934
-0.101456
-0.338125
0.073557
0.162318
0.386967
0.553922
0.658496
0.530759
0.054801
-0.255037
-0.701994
-0.999930
-1.169306
-0.633199
0.425088
1.360588
1.370590
0.705538
-0.145205
-1.016675
-1.187835
0.515402
0.790235
-0.378424
-0.241148
0.133969
0.144596
0.154217
0.076794
0.182244
0.304629
-0.002546
0.031073
0.015677
0.203587
0.226512
-0.038969
-0.041598
0.063464
0.109878
0.039555
0.196856
-0.011362
0.000707
0.068239
0.001506
0.098536
0.097119
0.001114
0.026653
0.067224
0.157763
0.178590
0.040364
0.128428
0.042574
0.041572
-0.007085
0.094461
0.013507
-0.050578
-0.045440
-0.105515
0.057454
0.085249
0.076278
0.055968
-0.055903
-0.042765
-0.290576
-0.186535
0.102836
0.114792
-0.027595
-0.398484
-0.757345
-0.975283
-0.776993
-0.217371
0.187258
0.005706
-0.463600
-0.111732
-0.210506
0.003647
0.097942
0.092512
0.032491
0.075648
0.131986
0.103165
0.093636
0.222672
0.217411
0.201455
0.054870
-0.027906
-0.023392
-0.067559
0.009245
0.087084
0.016751
0.093461
0.182987
0.226533
0.241372
0.228397
0.071468
0.204068
0.128512
0.130130
0.041616
0.027860
-0.070663
-0.196283
-0.167868
-0.089603
-0.122811
-0.307945
-0.257981
-0.172619
-0.217714
-0.167953
0.034004
-0.080465
-0.097469
0.046899
0.063775
0.173717
0.271323
0.243656
0.027175
-0.311258
-0.366318
-0.270620
-0.166940
-0.346119
-0.220419
-0.175835
-0.030115
-0.105562
0.291296
-0.278807
-0.037768
-0.107543
0.010310
0.090219
0.095525
0.267827
0.162322
0.187725
0.312954
0.128509
0.186576
0.138880
-0.018092
0.065296
-0.112639
-0.103829
-0.084295
-0.243560
-0.165107
-0.225334
-0.118822
-0.004516
0.001542
0.150296
0.256867
0.105729
0.054250
-0.064118
-0.134494
-0.134553
-0.190770
-0.080160
-0.107549
-0.026353
0.151894
0.095927
0.044944
-0.186343
-0.320833
-0.261749
-0.213366
-0.114584
-0.040078
0.049464
0.148777
0.187232
0.054694
0.010904
0.103527
-0.017025
0.020647
0.137956
0.138014
0.237135
0.056704
0.000182
0.093542
0.166115
-0.089516
0.039596
-0.050522
-0.014372
0.005766
-0.016588
0.095263
-0.072639
-0.006997
-0.034835
0.039200
-0.026683
0.016945
-0.061222
0.065510
0.103848
-0.055061
0.096432
-0.104574
-0.047873
-0.099832
-0.118686
-0.120157
-0.028952
-0.002774
0.059428
-0.016415
0.092050
-0.059305
0.039974
0.001680
-0.002783
-0.069982
0.030852
-0.073100
-0.058819
0.074562
0.108244
-0.072338
0.101060
-0.043913
-0.037165
0.042541
-0.058587
0.075607
0.014196
0.000178
-0.033612
-0.032396
0.059738
0.027257
0.013190
0.041498
0.077924
-0.044952
0.055920
0.030874
-0.012368
-0.071638
-0.118001
-0.073814
-0.000525
-0.009302
-0.007768
0.041644
-0.055172
-0.020434
-0.082047
-0.057405
0.075155
0.012049
0.063822
0.066796
0.059809
-0.008905
0.106092
-0.047375
0.042159
0.053691
-0.049258
-0.056424
-0.060934
-0.029735
-0.028125
-0.130433
-0.032808
-0.010998
-0.049827
0.008519
-0.038189
0.029590
-0.036316
0.080816
0.013839
-0.041608
-0.009707
-0.077964
0.024779
-0.078436
0.057480
-0.005221
-0.023024
-0.078000
0.018195
-0.042076
0.004603
0.038861
0.043325
-0.016350
0.095266
-0.045976
-0.021827
0.070376
0.081688
0.120787
0.035383
0.113619
-0.000026
0.072766
-0.005867
-0.005764
-0.074882
-0.032226
-0.042080
0.053575
-0.041136
0.034092
-0.007200
-0.048218
0.052461
0.034993
-0.080607
0.037050
0.062157
0.022879
-0.092140
-0.079141
-0.003904
-0.038436
0.100620
0.051457
0.027185
0.001675
0.002748
-0.044927
0.096309
0.081326
-0.088773
-0.082006
-0.064521
0.026352
0.043794
-0.004406
-0.019872
0.104486
0.015679
0.163925
-0.035163
-0.020221
0.056985
-0.129990
0.012846
-0.061495
-0.121220
-0.171064
-0.085233
0.090280
0.053838
-0.001684
-0.002958
0.022338
0.035530
-0.010011
0.064144
0.069011
0.173294
0.015644
0.045681
0.074992
0.073390
0.074568
0.042229
0.022240
0.034344
0.009655
-0.040970
0.070466
-0.076776
-0.044533
0.030735
-0.056883
-0.009531
-0.001271
-0.003764
-0.014400
-0.043884
-0.072109
0.047348
-0.019725
0.007797
0.064666
0.057219
-0.073422
0.091650
0.024878
0.003817
0.052407
-0.032752
-0.071004
-0.017737
-0.063842
-0.002610
0.044718
0.007680
-0.085957
0.072288
-0.073732
-0.032847
0.104042
-0.045132
-0.038182
0.089023
-0.047417
0.147081
0.031593
-0.011635
-0.085354
-0.096808
0.087149
-0.099761
-0.119010
-0.031854
-0.034961
-0.061200
-0.049251
-0.107597
0.059948
-0.000192
0.027165
-0.052304
0.140620
0.016099
0.039764
-0.111986
0.071159
0.041579
-0.023576
0.068719
-0.093389
-0.105009
0.068710
-0.053553
0.075074
-0.031074
-0.103134
0.012901
0.020105
-0.087127
-0.004975
0.062011
-0.009415
-0.070314
-0.059352
0.084276
0.045725
-0.056247
-0.050890
-0.075015
0.089582
0.064374
-0.068287
0.030594
-0.044088
-0.078059
0.058567
0.049532
0.052762
-0.044927
-0.053968
0.033151
-0.039688
-0.023557
0.104068
0.102232
0.052594
-0.111116
-0.106315
0.049393
-0.132466
-0.023587
-0.037060
-0.042129
-0.052159
0.073522
0.053839
0.097892
0.021435
-0.026437
-0.048017
0.069954
0.105121
-1.417845
-0.829312
-0.539751
-0.355255
-0.075892
0.021511
0.119909
0.080511
0.107360
0.034499
0.016822
-0.021227
0.005778
0.010955
0.108698
0.100882
0.147020
-0.004605
0.052718
-0.044304
-0.033262
-0.029444
-0.028757
0.054437
-0.038737
-0.034039
-0.008637
-0.220500
0.089997
-0.068395
0.088233
0.119622
0.180511
0.122656
0.046281
-0.027306
0.163494
0.065647
0.008902
-0.145485
0.051969
0.099739
-0.044991
0.079131
0.106924
0.143601
0.084451
0.075907
0.055907
0.206614
0.227080
0.016183
-0.065644
0.228561
0.340875
0.219126
-0.170598
0.206794
0.534490
-0.462970
-0.153211
-0.121408
-0.074291
-0.184512
-0.117051
-0.196422
-0.152802
-0.079824
0.064974
0.092998
0.019539
0.167704
0.078009
-0.003489
0.034546
0.011181
-0.114568
0.023227
-0.067972
0.040811
-0.011069
0.029381
0.078495
0.053753
0.076662
0.089129
0.093972
0.185590
0.276723
0.239111
0.172731
0.202738
0.128847
0.243045
0.070668
0.123740
-0.078904
-0.196460
-0.258833
-0.188667
-0.079348
-0.130586
-0.054777
0.095481
0.091966
0.185628
0.145617
0.117041
0.030784
-0.336520
-0.410756
-0.361344
-0.168624
-0.058071
0.123021
0.026729
0.179767
0.085499
-0.159649
0.337510
-0.469719
-0.135230
-0.050800
-0.050238
0.067855
0.111338
-0.085136
-0.119187
-0.045417
0.002930
0.070643
0.236901
0.199036
0.381637
0.305587
0.341787
0.281039
0.252252
0.099322
0.013364
-0.069670
-0.081147
-0.131114
-0.139133
-0.243002
-0.168536
-0.284603
-0.258818
-0.164484
-0.120039
-0.106059
-0.114831
-0.112623
-0.066350
-0.158834
-0.065224
-0.096881
-0.005220
-0.133729
-0.107596
0.126742
0.107410
0.123469
0.031773
0.006855
-0.018793
-0.220970
-0.077459
0.006471
0.040748
0.188731
0.239898
0.078991
0.191140
0.165750
0.268743
-0.048947
-0.007208
0.136384
-0.190573
-0.067082
0.044510
0.048026
-0.025397
-0.070884
-0.032291
0.097208
-0.060805
0.031416
-0.025688
-0.044243
-0.039951
-0.086684
-0.088517
-0.004823
0.078334
0.115583
0.037268
0.028718
-0.086085
-0.082167
-0.026413
-0.090349
-0.063133
-0.001119
-0.018384
0.095096
0.003523
0.027159
0.015401
-0.037481
-0.045867
-0.084980
-0.103290
0.095413
-0.061757
-0.063668
0.046839
0.037083
0.070281
-0.002000
-0.005371
0.010851
-0.003791
-0.023397
-0.015724
0.073908
-0.097923
0.052804
-0.098556
-0.059598
-0.076454
0.004596
-0.001653
-0.068703
-0.016618
0.003109
0.046072
-0.150009
-0.086306
-0.076024
-0.180085
-0.112204
-0.073313
-0.114825
-0.236104
-0.126750
-0.109462
-0.174986
0.005813
-0.115987
-0.106030
-0.011874
-0.020348
-0.097581
-0.133153
0.031936
-0.092657
0.018342
0.119885
0.156130
0.114210
0.137757
0.161185
0.112254
0.057306
0.134265
0.199213
0.061180
0.201316
0.100383
0.247746
0.220204
0.238335
0.234624
0.135828
0.037698
0.095690
0.110725
0.239002
0.249016
0.156267
0.141040
0.060767
-0.046160
-0.079587
0.154217
0.114219
-0.020307
-0.250593
-0.416621
-0.200235
-0.124407
-0.089962
-0.408395
-0.419114
-0.276257
-0.172588
-0.104519
0.393126
-0.063247
-0.042542
-0.043428
0.078613
0.091588
-0.005796
-0.042906
-0.024453
0.070819
-0.000791
0.198932
0.213395
0.227718
0.144040
0.045211
-0.023947
-0.289341
-0.341809
-0.411016
-0.370480
-0.195902
0.001050
0.092384
0.246803
0.149262
0.044311
0.106113
-0.020658
0.103213
0.040364
-0.029534
0.097787
-0.006776
0.068119
0.022674
0.117666
0.001259
0.165994
0.128386
-0.001334
0.047403
-0.004030
-0.151822
-0.098232
-0.209207
-0.113918
-0.069568
0.064430
0.093487
0.100459
0.139756
0.029661
-0.001339
0.081521
0.136578
0.037843
-0.177082
-0.213702
-0.264313
-0.203960
-0.038262
0.011722
-0.062811
-0.016882
0.018540
-0.011914
0.076643
-0.063995
0.020322
0.044833
0.003262
0.082472
-0.011794
0.050086
0.011596
0.038745
-0.056726
0.043176
0.111711
-0.013962
0.042641
0.015635
-0.040189
-0.091040
0.075919
-0.053676
-0.010861
-0.051549
-0.110187
-0.051925
-0.035656
0.008213
0.038998
-0.005079
-0.030925
0.111258
0.103790
-0.068086
0.053339
-0.123750
-0.078493
-0.127141
0.068250
0.042898
0.082934
-0.011368
0.080023
0.138527
0.018330
0.025226
0.114053
0.056886
0.060143
-0.017718
0.161499
0.001989
-0.081627
-0.070651
0.029401
0.014354
0.032001
0.115887
0.164556
0.150539
0.212147
0.257543
0.226146
0.199227
0.052043
0.069137
-0.076681
-0.252361
-0.250229
-0.312022
-0.224334
-0.260363
-0.134015
-0.076979
0.005852
0.013350
0.027386
0.072508
-0.039682
-0.036180
-0.068865
0.002212
-0.081495
-0.062250
-0.025204
-0.090064
-0.025387
-0.079334
0.071081
0.173487
0.096217
0.287689
0.181385
0.149122
0.228857
0.133637
0.134971
-0.068522
-0.089708
-0.090789
-0.209482
-0.106139
-0.238345
-0.098916
-0.111599
-0.110346
-0.094797
0.025850
0.048070
0.015148
-0.031980
-0.124550
-0.051439
0.149844
0.254809
0.297978
-0.170880
-0.007309
0.010991
-0.037884
-0.033082
0.033077
-0.046036
-0.080579
0.012274
0.003700
0.017207
-0.006326
0.031344
0.001609
-0.017862
0.072455
0.155363
0.252055
0.154621
0.343556
0.376881
0.273655
0.161964
0.181488
-0.026219
-0.121702
-0.090093
-0.203130
-0.068939
-0.184828
-0.106241
-0.087709
-0.113537
-0.019184
-0.095203
-0.023381
-0.044426
-0.009936
0.043248
0.092697
0.088529
0.087466
-0.034358
-0.017672
0.089328
0.086832
0.084939
0.090104
-0.171381
-0.340336
-0.364098
-0.193463
0.037611
0.125395
-0.079646
-0.256072
-0.242599
-0.048985
-0.063819
0.445034
0.226623
0.034766
0.298354
0.515037
0.242066
0.019683
-0.095992
0.054672
0.256533
0.283597
0.199201
0.318494
0.164098
-0.009438
0.064936
0.065070
0.114892
0.112684
0.023033
0.047072
0.133398
0.035216
-0.098970
-0.136896
-0.111383
-0.054597
0.089113
0.021225
-0.075762
-0.288202
-0.124688
-0.190953
-0.072817
-0.079620
0.092794
-0.131311
-0.238292
-0.291594
-0.159060
0.027304
-0.090751
-0.160795
-0.097048
0.106221
-0.133472
-0.248100
-0.279437
-0.044302
0.124576
-0.167758
-0.266363
-0.039258
0.143956
0.247339
0.269759
-0.066534
-0.234738
-0.088589
-0.139094
-0.286806
-0.087906
0.030114
-0.013293
0.010431
0.055558
0.042862
0.097289
0.040247
0.002273
-0.064766
-0.122747
0.037811
-0.149619
-0.145906
-0.079339
-0.097159
-0.134244
-0.053101
-0.110967
-0.040879
0.083775
-0.049295
-0.000003
0.044668
0.007373
0.074154
-0.033746
0.094334
-0.033190
-0.103360
0.020886
-0.106025
-0.030487
-0.018535
0.031418
-0.027758
0.075185
0.080907
0.049209
0.040664
-0.022445
-0.081404
-0.007593
-0.020557
-0.008282
-0.047781
0.056023
-0.052632
0.012614
0.023351
0.079033
-0.033905
0.079312
0.068059
0.047984
0.042470
0.103157
0.091417
-0.069104
-0.021664
0.155431
0.299385
0.134408
0.038191
0.239134
0.157991
0.082729
-0.097604
-0.135803
-0.192500
-0.025782
-0.007919
0.176458
0.182429
0.213636
0.085543
-0.100447
-0.087581
-0.310255
-0.201318
-0.181770
0.181968
0.367721
0.440970
0.282393
0.080735
-0.255908
-0.423630
-0.726148
-0.581101
-0.143188
0.140148
0.349320
0.650851
0.527854
0.495100
0.334850
-0.069688
-0.163878
-0.299482
-0.289495
-0.368735
-0.182350
-0.033805
0.021288
-0.203643
-0.291067
-0.330626
-0.250951
-0.049269
0.030047
-0.061650
0.014848
0.135630
0.122452
0.204163
0.107046
0.027748
0.016962
0.187562
0.052748
0.001866
-0.192695
-0.204236
-0.313808
-0.193115
-0.255563
-0.196127
-0.031919
0.094591
0.023020
0.100472
0.053733
-0.056794
-0.065081
-0.021992
0.019461
0.028443
-0.036640
0.186409
0.190399
0.206322
0.012118
0.142515
0.005847
0.066060
0.025904
-0.119511
-0.140457
-0.053963
0.034665
-0.028857
0.154390
0.027572
0.088016
0.126155
0.092576
0.128745
0.208569
0.173602
0.105699
0.037746
-0.024389
-0.159918
-0.012850
-0.116663
-0.029935
0.158170
0.136243
0.064757
0.210817
0.149498
0.149939
0.248881
0.261183
0.125375
0.033747
-0.195693
-0.133660
-0.349070
-0.773365
-0.123695
0.317435
0.435302
0.040260
-0.182815
-0.408283
-0.153932
-0.030473
0.128586
0.161302
-0.041403
-0.243059
-0.158331
-0.073028
0.052409
0.146779
-0.056542
-0.206555
-0.176893
-0.033950
0.279084
0.211932
-0.017343
-0.309252
-0.350246
-0.033882
0.318749
0.345966
0.087576
-0.130102
-0.314360
-0.129408
0.276204
0.528681
0.175020
-0.411396
-0.588289
-0.210565
0.453577
0.526088
0.029047
-0.064090
-0.103391
-0.151016
-0.032347
0.229946
0.490523
0.523121
-0.087295
-0.497189
-0.105910
0.427359
0.709562
0.300534
-0.397205
-0.369463
0.865160
1.200729
-2.181672
-0.297927
0.338935
0.116603
0.102342
0.137594
-0.041462
-0.028773
-0.026868
-0.077771
-0.048639
0.033553
0.097071
0.209406
0.038668
0.013329
-0.057429
-0.059022
-0.156365
0.055032
-0.025740
-0.024771
0.103585
0.060022
0.059838
0.254982
0.103575
-0.108417
-0.098145
-0.017994
-0.004118
-0.025362
-0.025370
-0.017546
0.020315
-0.155382
-0.148842
-0.019002
0.051883
0.197548
0.152650
0.113053
0.048747
-0.210695
-0.265311
-0.276428
-0.489517
-0.349985
0.060436
0.678074
1.150565
1.107097
0.790349
0.381960
-0.171364
-0.623165
-0.784370
-0.818491
-0.578546
-0.108792
0.296315
0.034483
-0.136946
0.015643
-0.083604
-0.085103
-0.044993
-0.069923
-0.068356
0.020266
-0.071559
-0.046242
-0.058512
-0.058707
-0.024738
-0.042850
-0.065991
-0.032685
0.056699
0.062507
-0.001895
0.025336
0.050698
0.006989
0.025364
0.041643
0.027527
-0.102340
0.000540
-0.031361
0.085790
-0.066541
0.057319
0.064306
-0.065519
-0.005533
-0.009563
-0.050880
0.181589
0.140883
0.238188
0.064934
0.200976
0.255420
0.134201
-0.093666
-0.146127
-0.244121
-0.324624
-0.296607
-0.191482
0.061203
0.145639
0.224206
0.214122
-0.050680
-0.149624
-0.194149
0.059493
-0.000101
0.354964
0.267393
0.051033
0.152173
0.326849
0.201119
-0.070438
0.010456
0.018790
0.133111
0.101642
0.096169
0.059326
0.043235
0.036512
0.067232
0.206163
0.138204
-0.062855
-0.050311
0.085165
0.194365
0.078731
0.192455
-0.007270
-0.076262
-0.004439
0.066754
0.133018
0.050050
-0.100055
-0.028766
0.111657
0.119787
0.086285
0.028724
0.094985
-0.067059
-0.023972
0.126130
0.196585
0.006682
-0.054494
-0.106906
0.108605
0.133966
0.041837
-0.029888
-0.047599
-0.157666
-0.070886
-0.127194
-0.178034
-0.225700
-0.166218
-0.155786
-0.149635
-0.192349
-0.286813
-0.267179
-0.384850
-0.007650
0.011649
-0.087587
0.002656
-0.195842
-0.059243
-0.199111
-0.159806
-0.012742
-0.077371
-0.040428
-0.064083
0.060014
0.022544
0.018474
-0.104268
0.045390
-0.088884
0.029221
-0.062800
-0.117042
0.027065
0.003224
-0.108544
-0.094139
-0.045765
0.068710
0.044298
0.218513
0.212056
0.245263
0.124285
0.040435
0.116406
-0.067313
-0.199529
-0.144635
-0.189990
-0.102549
-0.058269
-0.135172
0.036118
-0.084950
-0.145252
-0.040385
-0.063470
-0.072292
0.007061
0.113307
-0.030834
0.084922
-0.025385
0.113132
0.104770
0.192644
0.057202
0.168918
0.067578
0.102422
0.074258
0.129368
-0.044535
0.054410
0.079040
0.067498
-0.033080
-0.064320
-0.070007
-0.015216
-0.084288
0.003891
-0.074861
0.045455
-0.124349
0.049904
-0.093099
-0.081896
-0.144193
-0.137779
-0.099731
0.076349
0.096382
0.155366
0.171731
0.139963
0.144935
0.140400
0.125178
0.006227
0.102802
0.007905
0.038919
-0.014414
-0.052258
-0.052115
0.061093
0.131536
-0.021598
0.103392
0.058687
0.089929
0.054377
0.003136
0.096599
-0.012980
0.021313
-0.049684
-0.133543
-0.073294
-0.062343
-0.014125
-0.071145
-0.021884
0.045830
0.015368
-0.099032
-0.052576
-0.194535
-0.091226
-0.147428
-0.257339
0.112726
0.097092
-0.027938
0.073787
0.090956
-0.002794
-0.018720
0.045833
0.196099
0.087576
0.046182
0.010640
-0.030702
-0.055965
0.011794
-0.075294
-0.132634
-0.032574
-0.112525
-0.092694
-0.050088
-0.143935
-0.079642
0.037452
0.053936
-0.055300
0.114896
0.135370
0.100339
-0.017268
0.144942
0.022283
0.105023
-0.378711
-0.367000
-0.099485
-0.020137
0.322941
0.394921
0.742169
0.436255
-0.024170
-0.342190
-0.405175
-0.553119
-0.940645
-1.130444
-1.013252
-0.488195
0.171079
0.453357
0.482506
0.592066
0.721610
0.723503
0.358971
0.163926
0.176916
0.690237
-0.281875
-0.260404
-0.188922
-0.276353
-0.141941
-0.082038
-0.135206
0.019135
-0.024859
0.126513
0.148176
0.255796
0.170800
0.162135
-0.089120
-0.112995
-0.196603
-0.285811
-0.249039
-0.242352
-0.225597
-0.131743
-0.073254
0.150298
0.127696
0.267407
0.183812
0.186410
0.141792
0.083629
0.134334
0.050550
-0.103128
-0.013270
-0.044520
-0.063658
0.076599
0.047171
0.086448
-0.048066
-0.158587
-0.050883
0.082101
-0.015226
0.086355
0.238863
0.190689
0.112108
0.088855
0.039695
0.172488
0.219700
0.146708
0.360780
0.503938
0.148432
-0.099029
0.019958
0.114378
-0.422697
0.102332
0.195337
0.085167
-0.026134
-0.026978
0.206062
0.104930
0.015903
-0.038976
0.007987
0.018149
0.065697
0.241658
0.048143
0.086211
-0.111512
-0.079789
0.020087
-0.063254
0.078510
0.030742
0.000333
0.220076
0.104744
0.076360
0.029081
0.105568
-0.018720
0.120115
0.098580
0.004548
-0.233559
-0.255544
-0.313242
-0.393094
-0.477005
-0.516752
-0.408006
-0.264146
-0.065520
-0.241645
-0.216678
-0.144181
0.012147
0.025689
0.036040
-0.014364
-0.015714
0.061031
0.190409
0.123842
0.006951
0.172162
0.345618
0.433200
0.154676
0.032402
0.123928
0.228041
-1.134982
0.877815
0.204965
-0.037918
-0.015476
0.070320
0.102596
0.148584
0.251941
0.245799
0.016624
-0.082063
-0.078431
0.077057
-0.074630
-0.184455
-0.095997
0.006706
-0.005003
-0.035271
-0.048207
-0.089446
-0.147579
-0.020053
0.038255
0.014745
-0.190607
-0.107196
-0.092804
-0.018046
-0.116417
-0.133101
-0.067385
-0.022338
0.016685
-0.099826
-0.257453
-0.369506
-0.297096
-0.170776
0.093639
0.194974
-0.050513
-0.272627
-0.274635
-0.279296
-0.100667
0.105855
0.064885
-0.137335
-0.247042
0.019776
0.300276
0.371116
0.272245
-0.060937
-0.217394
0.061309
0.283487
0.322690
-0.722269
0.366601
0.285840
0.242436
0.165713
0.099050
0.062402
0.045734
-0.176290
-0.093382
-0.296105
-0.204578
-0.294242
-0.236625
-0.079503
-0.164393
-0.019384
0.040211
-0.002043
-0.060480
-0.000552
-0.056641
0.009779
0.042594
-0.013473
-0.021488
-0.042906
0.085704
0.040723
-0.020290
0.058864
-0.084902
-0.018784
0.012745
-0.038476
0.002326
-0.064017
-0.081551
-0.075683
-0.104135
0.033402
0.232716
0.049436
0.025974
0.008001
0.068275
0.046127
0.018685
-0.045903
-0.078911
-0.185783
-0.221636
0.104727
0.130249
-0.021519
-0.269188
-0.335470
-0.100291
-0.132827
0.019559
0.306554
-0.301111
-0.010134
0.141253
0.098718
0.093865
-0.131466
-0.029797
-0.123168
0.018285
0.095116
0.027703
-0.010366
0.037118
0.077312
-0.036198
-0.059616
0.104965
-0.033355
-0.089128
-0.069229
-0.014852
0.081791
0.039646
0.054657
0.018153
-0.031931
-0.170482
0.025255
0.086835
-0.068728
-0.099967
-0.070559
-0.108645
0.024540
0.139428
0.199452
-0.024024
-0.177589
-0.078230
0.153750
0.475589
-0.281464
-0.124365
-0.033090
-0.163529
-0.053779
0.235874
1.065884
1.069939
0.140605
-1.069406
-1.424195
-1.335021
-0.555703
0.740264
1.657025
1.357180
-0.270989
-1.379198
0.061042
0.410924
0.047240
0.159456
0.376944
0.213178
0.186819
0.104911
0.102386
0.031725
0.031389
0.024408
0.020656
0.006699
0.012249
-0.076678
-0.040883
-0.008333
-0.067862
0.099025
0.033314
0.055942
-0.030275
0.061861
-0.086920
-0.100492
-0.002214
-0.020582
-0.059117
0.068066
0.092104
0.071260
0.130047
-0.020672
0.042797
-0.079235
-0.014398
-0.100025
0.009831
-0.084553
-0.111200
0.055047
-0.100123
-0.055383
-0.018121
-0.171561
0.012021
-0.140300
-0.109017
-0.224680
-0.549082
-0.741894
-0.557451
-0.166564
0.179822
0.303905
0.058645
-0.094629
-0.283425
-0.190406
0.409098
-0.391745
0.265969
0.000337
-0.129632
-0.075000
0.069557
0.019830
-0.028486
-0.041381
-0.065301
0.001785
-0.069511
-0.030803
0.031134
-0.129542
-0.011690
-0.171002
-0.053340
-0.032089
0.017207
-0.068679
-0.063148
-0.154185
0.013055
0.017975
-0.002674
-0.022927
-0.173151
0.052173
-0.081162
-0.043392
0.082943
-0.008016
0.014019
-0.122154
-0.085792
0.019141
0.040462
-0.170990
-0.373720
-0.075986
0.004711
0.055833
0.081541
0.217444
0.059299
-0.208755
-0.327959
-0.074810
0.000895
-0.211170
-0.298603
0.487160
1.750121
2.040289
0.606022
-0.777912
-0.848649
0.241090
-0.195543
-0.093905
-0.050177
-0.035894
-0.112027
-0.098514
-0.043592
-0.096471
-0.088494
-0.034586
-0.146488
0.011037
0.022679
0.029926
0.056723
0.025294
0.223066
0.088416
0.168925
0.219709
0.262733
0.210721
0.271500
0.151378
0.133994
0.116362
0.051128
0.123447
-0.076924
0.034700
-0.095296
-0.057188
-0.115287
-0.031522
-0.155927
-0.014328
0.049234
-0.000955
0.038627
0.042925
0.065860
0.073514
0.047299
-0.140147
-0.209570
-0.348119
-0.345705
-0.393391
-0.170648
-0.112425
-0.063708
0.015743
0.095794
0.067982
0.153694
-0.073104
-0.196182
-0.027919
0.052883
-0.006000
0.111492
0.055313
0.008027
-0.004064
0.044815
-0.053685
-0.060902
-0.031654
0.091883
-0.034102
-0.007980
-0.006931
0.030953
-0.063149
-0.016789
0.023054
0.016167
0.068130
-0.022833
-0.014978
0.030085
-0.086784
0.047246
0.074388
-0.046044
0.084720
-0.015425
-0.090593
0.090046
-0.062583
0.036949
-0.005225
0.016663
-0.040889
0.022372
-0.019262
-0.023774
-0.080306
0.016900
0.032553
0.057597
-0.023741
-0.034233
0.008730
0.017155
-0.025439
-0.022103
0.070312
0.035456
-0.007750
0.017955
-0.100441
-0.006032
-0.097759
-0.161164
0.007685
-0.009509
-0.039310
-0.032843
-0.085732
0.063006
-0.166464
0.019444
0.006500
0.051574
0.057945
-0.008908
0.110220
0.101672
0.001915
0.144012
0.110798
0.175064
0.226644
0.078441
0.015534
0.083831
0.041127
0.037635
-0.046050
-0.189374
-0.084159
-0.104094
-0.162669
-0.120138
0.014568
0.065982
0.086075
0.082901
0.005531
-0.093054
-0.008176
-0.172827
-0.138572
-0.157735
-0.031195
-0.066295
0.047034
0.073215
0.096592
0.133292
0.006659
-0.069970
-0.134611
-0.302327
-0.334501
-0.247094
-0.421271
-0.293171
-0.154238
0.074513
0.195554
0.279191
0.518682
0.491929
0.428001
0.101357
-0.130995
0.003440
0.128413
-0.293993
0.006073
-0.089099
0.015098
-0.095506
-0.015516
0.044284
-0.020969
-0.057987
-0.074009
-0.022145
-0.039008
-0.021696
0.105288
0.054215
-0.088810
0.092447
-0.052403
0.090506
-0.092207
-0.008166
0.045301
-0.035918
-0.080193
-0.011874
0.047140
-0.092880
-0.101951
-0.115651
-0.073022
0.052074
0.030474
0.025165
0.047550
0.051243
0.040884
0.095490
0.060448
0.021869
-0.044645
0.009806
-0.066031
-0.102274
-0.130341
-0.060161
-0.056890
-0.069674
-0.051262
0.006073
0.047445
0.121980
0.040650
0.114180
-0.006914
0.169694
0.169798
0.014478
-0.019168
-0.034698
-0.059619
-0.024450
-0.129666
0.041015
0.064835
0.099074
0.077096
0.117620
0.152643
0.118213
0.071149
0.110090
0.122817
0.011344
0.042577
-0.021504
-0.116359
0.021961
0.025641
-0.137568
-0.085379
-0.010686
-0.192229
-0.219274
-0.206555
-0.018983
-0.112327
-0.071328
-0.049626
-0.067254
-0.120496
-0.098123
-0.258262
-0.211131
-0.123247
-0.060414
-0.026222
0.066296
0.268326
0.223819
0.255528
0.228791
0.395397
0.108449
0.103903
0.085305
-0.009239
-0.087376
-0.003100
0.010539
-0.027924
-0.186508
-0.280534
-0.291480
-0.250071
-0.132582
-0.202084
-0.012417
0.060576
0.108685
0.116651
0.199993
0.073155
0.266092
0.027030
0.030019
0.044020
-0.103617
0.010707
-0.096677
-0.130011
-0.069439
-0.073266
0.045775
-0.015557
0.157405
0.207332
0.333623
0.293074
0.233171
0.159166
-0.105425
-0.110683
-0.290689
-0.269002
-0.141008
-0.157879
-0.102102
-0.028011
-0.021870
0.143460
0.041513
-0.074424
-0.233337
-0.159385
-0.125054
-0.106860
0.086702
0.158300
0.232599
0.043275
0.001579
0.119515
-0.038554
-0.100318
-0.052399
-0.028756
0.075524
0.064501
0.225860
0.336501
0.205208
-0.047035
-0.210198
-0.232360
-0.335783
-0.381861
-0.231562
-0.029304
0.048996
0.032819
0.090614
0.090254
-0.032515
0.015542
0.004537
0.055393
-0.064487
0.020295
-0.110736
0.031773
0.019599
-0.045931
0.010793
-0.040534
-0.064921
0.091502
-0.065417
-0.054535
-0.054092
0.039572
-0.032969
-0.039490
0.011709
0.022433
-0.036594
0.146789
0.123502
0.076228
-0.019732
0.116572
-0.005620
-0.077022
0.077662
-0.049585
0.102870
0.039193
0.047404
-0.124363
-0.062263
0.034473
-0.006134
0.010296
0.072517
-0.042911
-0.095602
-0.098447
-0.093029
0.099440
0.128312
0.112585
0.032370
-0.120316
-0.072288
-0.060291
-0.010648
-0.028435
0.001476
-0.159884
-0.110683
-0.217468
-0.161173
0.108087
0.026593
0.073621
-0.050720
0.066766
-0.056020
-0.056754
-0.058566
0.037859
-0.023833
-0.069449
0.039287
-0.001822
-0.049492
-0.086412
0.016746
-0.075496
-0.001666
0.050701
-0.089229
-0.158019
-0.112195
-0.141353
-0.145542
-0.083351
-0.017362
0.052984
0.004597
0.147762
0.038032
0.217556
0.276197
0.284665
0.430813
0.442866
0.360205
0.215984
-0.064680
-0.079716
-0.080941
-0.028868
-0.203949
-0.086497
-0.179353
-0.093203
-0.132299
-0.216352
-0.284921
-0.218937
-0.317079
-0.202637
0.053437
0.122486
0.203368
-0.030406
-0.117756
-0.043294
0.089475
0.167022
0.367789
0.029722
0.011565
0.009687
0.033574
-0.067097
-0.092078
0.005670
-0.079105
-0.162680
-0.149500
0.013755
-0.087902
0.060657
0.014741
0.069690
-0.015915
0.079948
0.027977
-0.073920
0.012843
-0.085797
-0.152779
-0.041610
-0.006812
-0.065362
0.026566
-0.064218
-0.005302
-0.053068
0.083914
0.020505
-0.001662
0.167595
0.089353
0.151647
0.049486
0.111020
0.065755
-0.060333
-0.089150
-0.009524
-0.034089
-0.019699
-0.000004
0.022944
-0.020556
0.033228
-0.079870
0.013344
0.120552
0.116585
0.091103
0.012091
0.140951
0.162499
0.130948
0.059616
0.018783
0.081922
-0.041052
-0.322650
0.232059
0.012145
0.032591
-0.057389
0.094539
-0.041624
-0.031736
0.203826
0.215597
0.092774
-0.102808
-0.183775
-0.248553
-0.274005
-0.319200
0.034100
0.330491
0.609392
0.861266
0.748095
0.577308
0.383581
-0.080512
-0.381115
-0.609111
-0.753970
-0.574892
-0.600987
-0.385213
-0.057066
0.085044
0.114884
0.054767
-0.130098
-0.091356
-0.066270
-0.053777
-0.053210
-0.073956
0.175671
-0.074128
0.108823
0.072384
0.045439
-0.064846
0.023614
-0.039536
-0.165205
0.063069
0.155057
0.110381
-0.007538
0.108594
0.063222
-0.073707
-0.178002
0.037894
0.415488
0.055085
-0.096233
-0.060348
0.016894
0.140088
0.144380
-0.086606
-0.018543
0.084865
0.087675
0.029554
0.166698
0.097017
0.242767
0.205037
0.199713
0.100656
-0.012704
0.061939
0.077765
-0.093959
0.038666
0.120157
0.065852
0.093091
0.152724
0.190675
0.208868
0.271860
0.151812
0.104009
-0.054957
0.066124
0.127836
0.131674
-0.030708
-0.092472
-0.061587
-0.078935
-0.097948
0.061845
-0.139632
-0.108439
-0.113735
-0.097076
-0.070674
0.052617
0.013846
-0.039312
-0.008172
-0.007300
-0.127392
-0.079572
-0.118605
-0.075423
0.018454
0.068400
-0.081936
-0.272140
-0.471151
-0.641797
0.316152
0.169406
-0.060965
-0.220067
-0.165101
-0.336831
-0.375288
-0.462063
-0.438526
-0.532704
-0.314463
-0.157121
-0.065026
-0.087179
0.028995
0.000889
0.019326
0.154944
-0.002977
0.077964
0.086408
0.041162
0.115836
0.131653
0.013663
0.044629
0.121220
0.039039
-0.046719
-0.007735
-0.022298
-0.067020
-0.058840
-0.109589
-0.053058
-0.045456
0.064664
0.148236
0.187234
0.036863
0.053317
0.076364
-0.039919
0.116885
0.036011
0.204662
0.064899
-0.065176
0.070288
0.128835
0.270159
0.245871
0.121736
0.290415
0.329099
0.138899
0.017660
0.084323
0.254849
-0.669968
-0.130450
0.106035
0.168590
-0.142314
-0.466799
-0.202660
0.169900
0.155468
0.048541
-0.202079
-0.252790
-0.074281
0.137444
-0.081302
-0.373061
-0.197535
0.368445
0.272302
-0.199586
-0.621388
-0.124725
0.559974
0.281899
-0.265659
-0.378888
-0.094830
0.273852
0.209148
-0.109494
0.090023
0.093672
-0.379218
-0.120970
0.413744
0.271319
-0.115727
-0.410495
-0.008445
0.189583
0.030955
-0.012026
0.655885
-0.037192
-0.861135
-0.498968
0.815988
1.364961
-0.017136
-1.386115
-1.092642
0.432770
1.503171
1.365692
0.148280
-0.998710
-1.040992
0.138248
0.766748
0.242530
0.268396
-0.023689
0.053334
-0.012596
0.123049
0.086786
0.159912
0.068007
0.116433
0.216972
0.128256
0.059503
-0.123121
-0.115918
-0.199546
-0.315002
-0.212990
-0.168549
0.053588
0.080851
0.194627
0.065938
0.090493
0.045099
0.110842
0.077822
0.027326
0.185208
0.173858
0.093978
0.019936
0.131775
-0.045845
0.008588
-0.053165
0.062177
-0.023386
-0.028753
-0.104118
-0.038824
-0.102748
-0.135187
-0.067360
-0.178257
-0.006504
-0.089240
0.161830
0.153048
0.263083
0.118354
0.130114
-0.153013
-0.227125
-0.132479
-0.029921
0.042652
0.033573
-0.009790
-0.109678
-0.397217
-0.296010
-0.315543
0.063486
0.125268
0.054837
0.060259
0.026701
0.009071
-0.002298
0.159954
0.346704
0.298483
0.270294
0.164850
-0.082905
-0.267738
-0.548016
-0.620260
-0.447927
-0.298954
-0.093237
0.162671
0.089435
0.038390
0.049449
0.023158
-0.077863
-0.163042
-0.204314
-0.137335
-0.077511
-0.058293
0.088239
0.047786
-0.034968
-0.139980
-0.211494
-0.127672
-0.097014
-0.027395
0.053897
0.147762
0.094455
0.088662
0.003730
-0.061684
0.067062
-0.070534
0.112434
0.091267
0.238960
0.131170
-0.039773
-0.018075
0.007299
0.176423
-0.034729
-0.073067
0.236390
0.582650
-0.096328
0.267342
0.262370
0.088758
0.019690
-0.005449
-0.158149
-0.350691
-0.323795
-0.319459
-0.265612
-0.152594
-0.241297
-0.092543
-0.226696
-0.034559
0.033024
0.018214
0.022638
0.013490
0.099241
0.192768
0.259322
0.158547
0.175829
0.120770
0.028914
0.048195
-0.059391
0.198796
0.094283
0.089658
0.232150
0.086125
0.050349
-0.249566
-0.342668
-0.393964
-0.398608
-0.266524
-0.252744
-0.123852
-0.144046
-0.044404
0.015771
-0.021681
-0.038952
0.069199
0.086946
0.130172
0.105179
0.297189
0.195352
0.204743
0.217584
-0.051721
-0.030859
-0.028367
0.086442
0.371512
0.267380
-0.200277
-0.054110
-0.067822
-0.043261
-0.046228
0.024190
0.046933
-0.052414
-0.091566
-0.122444
0.053869
0.013972
-0.062358
-0.017349
-0.092750
-0.000480
-0.058612
0.056537
-0.001065
-0.129352
0.002449
0.057547
-0.068516
0.026533
-0.235713
-0.120137
0.029255
-0.060891
-0.161109
-0.102613
-0.131314
0.008776
-0.084254
0.066545
0.108324
-0.179420
-0.398517
-0.106839
0.092661
-0.006033
-0.178069
-0.105515
-0.070886
0.003903
-0.088017
0.038763
0.065055
0.021278
0.005629
-0.009538
0.161948
0.141798
0.061032
0.059556
0.201087
0.585150
0.877347
0.375063
-0.202478
0.336191
-0.521893
-0.366975
-0.242169
-0.038650
-0.085533
0.057552
-0.034884
-0.101159
-0.264640
-0.217252
-0.079927
-0.280083
-0.292552
-0.190355
-0.242266
-0.144758
-0.147799
-0.147211
-0.190682
-0.062530
-0.104373
-0.157057
-0.146601
0.005385
-0.104807
-0.005983
0.010012
0.018202
-0.157533
0.041513
-0.071584
0.087137
0.080532
0.069536
0.064907
0.034529
0.102317
0.192162
-0.019197
0.077323
0.016501
0.066678
0.088424
0.097318
0.080143
0.213331
0.242196
0.115743
0.031002
0.157990
0.207523
0.380214
0.290636
0.229444
0.051097
0.208626
0.343558
0.225030
-0.065203
0.599003
0.058575
0.160912
0.180259
0.105007
0.242290
0.143398
0.113641
0.128224
-0.031101
-0.062133
-0.164064
-0.159923
-0.110190
-0.237319
-0.083746
-0.051484
0.006436
0.099968
0.057305
0.022755
0.053458
0.112398
0.114929
-0.003188
0.085204
0.090830
-0.024006
-0.074328
-0.073881
-0.067854
-0.176846
-0.152075
-0.035711
-0.033499
-0.009711
-0.063588
-0.078114
-0.207635
-0.204289
-0.235182
-0.216139
-0.046262
-0.007573
0.046865
0.083562
0.072990
0.038191
0.001538
0.120415
0.116800
0.181365
0.078853
0.197766
0.083616
0.052194
0.008598
0.105652
0.000818
-0.043725
0.040706
0.526052
-0.564175
-0.589061
-0.109287
0.446482
0.476819
-0.185135
-0.481673
-0.227679
0.252182
0.325564
-0.187484
-0.576592
-0.099368
0.539411
0.468781
-0.509493
-0.743492
-0.132743
0.731934
0.428618
-0.544521
-0.349537
0.129100
0.149150
-0.218090
0.043014
0.594596
0.110154
-0.586242
-0.863851
0.925694
0.924430
-0.057348
-1.358989
0.364068
0.972619
-0.457976
-1.281614
1.570855
1.191851
-1.068531
-1.844847
0.591952
2.129347
0.487949
-1.670248
-1.098845
0.972844
1.514172
-0.255934
-1.050235
0.056594
1.027719
0.238185
-0.358678
0.038592
0.212681
-0.379848
0.065928
-0.151212
0.177467
0.056039
0.009627
0.062341
0.100812
0.063305
0.040966
0.076175
-0.026864
0.095986
0.006204
0.248974
0.160888
0.091066
-0.005399
0.064946
0.054001
0.047288
0.064310
0.136150
-0.046640
0.005959
0.060766
-0.030821
0.052030
-0.007953
0.058681
0.094564
-0.040492
0.148346
0.100258
0.085168
0.124060
-0.090268
-0.116114
0.019336
0.071190
0.152797
0.033759
0.090218
0.235292
0.078353
0.059762
0.015626
0.004509
0.022166
0.040510
0.093077
0.299787
0.429978
0.576511
0.487186
0.534063
0.333298
-0.235560
-0.941698
-1.020595
-0.831989
-1.573383
0.056276
0.008976
-0.109134
0.069158
-0.047283
0.011696
-0.027422
-0.055121
0.023749
-0.088714
0.122670
-0.036267
0.035415
0.022412
0.151968
0.132614
0.134527
0.159416
0.010100
0.017283
0.042545
0.002728
0.041128
-0.099762
0.017438
-0.090396
-0.091216
-0.082961
0.011722
-0.019732
0.032526
-0.001060
-0.033447
-0.029171
0.062374
0.064967
-0.086620
0.014007
0.012036
-0.027589
0.005551
0.070012
0.043054
0.005218
-0.057243
0.109106
0.056513
0.054991
0.097701
-0.002110
-0.031958
-0.070691
-0.181789
-0.148952
-0.208349
-0.110321
0.031231
-0.025683
-0.036023
-0.019504
0.226774
-0.306082
-0.290897
-0.024398
0.049673
0.052198
0.167538
-0.124156
-0.211829
-0.200435
-0.032804
0.077225
-0.039533
-0.004683
0.017464
0.043175
0.057023
-0.040644
-0.010890
-0.039816
0.107671
-0.033332
-0.122873
-0.045779
0.156243
-0.006604
0.074000
-0.062477
0.001059
-0.109270
-0.004932
0.071347
0.090480
-0.260258
-0.198131
0.140052
0.079812
0.106301
-0.005322
-0.044779
-0.085100
-0.294157
-0.009750
0.362370
0.299974
-0.156284
-0.701248
-0.713130
0.183422
1.065096
1.766159
1.322901
-0.613669
-2.582214
-2.475137
0.101167
2.478544
1.899154
-0.793681
-0.850107
-0.045664
0.048892
-0.005730
-0.074263
-0.093301
-0.074361
-0.068416
-0.075746
-0.050784
0.032461
0.006020
0.052221
-0.012731
-0.083148
0.037903
-0.082759
0.070443
-0.061620
-0.038942
0.077112
0.135105
-0.050027
0.013198
-0.097129
-0.098055
-0.165196
-0.140631
0.004112
-0.038285
0.048757
-0.037679
0.105516
0.062146
-0.030380
-0.052023
0.065992
0.062583
-0.003098
0.045539
0.010569
-0.018656
-0.088735
-0.020369
-0.097930
-0.049029
-0.057029
-0.030168
0.043748
0.116936
0.145746
0.012827
0.060109
-0.016380
0.044910
-0.031697
0.028031
-0.052098
-0.140737
-0.055214
-0.209405
0.028514
-0.092112
-0.033045
0.022444
0.075755
-0.063328
-0.050146
-0.048070
-0.024032
-0.063921
0.051670
0.028471
-0.009740
0.083678
0.136575
0.087364
0.010396
0.003028
0.022502
0.039504
-0.054404
0.088602
-0.049107
0.121083
0.097080
-0.002564
0.102300
0.113394
0.069472
0.027530
-0.036801
0.021757
0.067218
0.060514
-0.025401
0.073199
-0.054917
0.016605
-0.041723
0.089947
0.003781
-0.054811
-0.060795
0.036466
-0.066494
0.006098
-0.083795
0.071395
0.045914
-0.033521
0.003773
-0.102573
-0.034181
-0.018649
-0.050643
-0.130294
-0.062702
-0.156037
-0.061680
0.086559
-0.076075
0.281248
0.188376
0.076298
0.129628
0.028863
0.032179
-0.033789
0.002360
0.061422
0.065905
0.075380
0.094206
0.015808
0.098778
-0.121388
-0.079969
-0.171737
-0.093925
0.051728
0.063565
0.233409
0.186404
0.059222
0.048997
-0.135290
-0.247457
-0.178238
0.096608
0.328387
0.430842
0.501443
0.487132
0.039469
-0.482812
-0.732001
-0.800354
-0.653736
-0.295120
0.003815
0.258955
0.395141
0.371955
0.222915
0.125889
0.123129
-0.036225
-0.235782
-0.072776
-0.011300
0.045880
0.241714
-0.043063
-0.097168
-0.079767
0.055335
0.025385
-0.151956
-0.240140
-0.385186
-0.022966
-0.129321
-0.200879
-0.286527
-0.204242
-0.297601
-0.159232
-0.103877
-0.042498
-0.079733
0.016168
0.080095
0.033402
0.084824
0.044272
-0.114172
0.014733
0.050300
0.022422
0.122461
0.055105
-0.043501
-0.134475
-0.139093
-0.198509
-0.062633
-0.049968
0.086171
0.070238
0.121367
0.091413
0.187529
0.178635
0.195321
0.082198
0.145343
0.115021
0.147663
0.113817
0.001606
-0.008204
0.000224
-0.227073
-0.134375
-0.106437
0.053110
0.029443
0.039088
0.090336
0.207889
0.105340
0.149501
0.056798
0.256506
0.283520
0.265292
0.173226
0.012056
0.003610
-0.159393
-0.235442
-0.177917
-0.178618
-0.049467
0.024176
-0.151344
-0.061880
-0.161016
-0.066412
-0.049106
-0.111416
-0.015527
-0.095987
-0.098308
-0.148560
-0.076925
-0.183040
-0.226256
-0.066961
-0.092109
0.017300
0.005630
0.078251
0.175353
0.121220
0.048296
0.173922
0.103422
0.225931
0.234113
0.227346
0.209924
0.078326
-0.001209
-0.067736
-0.128269
-0.000312
-0.044763
-0.090107
0.014210
0.054378
0.062758
-0.084291
-0.197806
-0.214751
-0.181344
-0.184942
-0.160910
-0.075400
0.070882
0.046774
0.085848
0.166034
0.472675
0.487393
0.144013
-0.117601
0.017282
0.204624
-0.198374
-0.194154
0.145362
-0.001415
-0.034687
0.052952
0.111188
0.071166
0.136655
-0.059967
-0.056618
-0.128228
-0.081400
0.028855
0.040615
0.033288
0.091197
0.107970
0.150157
0.142729
0.045418
0.135618
0.029474
0.047247
0.086770
-0.017288
-0.059666
-0.216195
-0.348569
-0.446128
-0.464066
-0.443822
-0.269575
-0.151847
-0.023778
-0.043343
-0.046312
0.202964
0.207346
0.045752
0.032302
-0.157098
-0.000096
0.174025
0.135237
0.165618
0.091543
0.044717
-0.054173
-0.065742
0.281765
0.243321
0.096014
0.105845
0.365821
0.661925
0.429118
0.001294
0.212622
0.292474
-1.322593
0.113227
-0.001312
-0.001548
-0.154943
-0.090699
-0.079597
-0.000375
-0.137779
-0.003596
-0.006789
-0.033168
0.058812
0.202118
0.079527
0.209107
0.201390
0.174423
0.144887
0.204686
0.190360
0.120800
0.101776
-0.029097
0.088927
-0.126392
-0.114983
-0.072680
-0.148035
-0.171986
-0.105940
-0.125627
0.036047
0.072129
-0.028781
0.143870
0.138917
0.125753
0.215789
0.159737
0.135493
0.112874
-0.062507
0.093355
-0.066061
-0.104349
-0.199001
-0.165724
-0.112715
-0.006918
-0.151607
0.018159
-0.060667
0.160834
-0.038528
-0.306384
-0.271977
-0.188805
0.058901
-0.000220
0.322977
-0.575517
-0.066531
-0.156860
-0.142131
-0.053829
-0.062953
-0.036210
-0.095358
0.012963
0.176560
0.156076
0.048490
0.162471
0.078375
0.214654
0.006633
0.022828
-0.074417
-0.128748
-0.082417
-0.206858
-0.245642
-0.127794
0.159433
0.584761
0.683201
0.608531
0.346943
0.177540
-0.406859
-0.707937
-0.633933
-0.469253
-0.428396
-0.573559
-0.427521
-0.115380
-0.035316
-0.120805
-0.232251
0.012264
-0.198685
0.107432
0.024287
0.043424
0.261650
0.329333
0.491396
0.354714
0.115432
0.177735
0.217278
0.166429
0.156750
0.148208
-0.030142
-0.228603
0.132175
0.378784
0.254952
-0.039952
0.019852
0.047130
0.127649
0.025748
0.172864
0.156590
0.026654
-0.231097
-0.376429
-0.450708
-0.406379
-0.361655
-0.355074
-0.379331
-0.364550
-0.329333
-0.042454
-0.005462
0.029238
0.037516
0.060883
-0.044148
0.100572
0.051845
0.157397
0.116952
-0.017590
0.068560
-0.075968
0.041221
0.123710
0.225090
0.208472
0.000880
0.011835
0.036677
0.003484
0.135483
0.043999
0.066621
0.023999
-0.000380
-0.034033
0.058139
0.062568
0.094842
0.066305
0.011896
0.136021
0.258589
0.158838
0.133221
0.194389
0.447762
0.247641
0.060945
0.208008
0.368944
-0.920426
-0.306983
-0.128746
-0.049599
0.019611
-0.084213
-0.198011
-0.395558
-0.318673
-0.358136
-0.297236
-0.199645
-0.247683
-0.140268
-0.221941
-0.106825
-0.094751
-0.097092
-0.066095
-0.008055
-0.048987
-0.059958
-0.138709
-0.220109
0.022522
-0.047954
-0.010856
-0.099210
-0.105258
0.189933
0.075631
0.086179
0.063935
0.155714
0.204407
-0.007800
0.040704
0.256143
0.201002
0.192444
0.006607
0.177884
0.171341
0.257056
0.048717
0.174451
0.182392
0.056641
0.118162
0.292577
0.232595
0.184244
-0.053409
0.056058
0.288435
0.216320
-0.014185
-0.149101
0.050243
0.474861
-0.043947
-0.504637
-0.361747
0.433902
0.536100
-0.150320
-0.515400
-0.381396
0.251113
0.263875
-0.015103
-0.552170
-0.215097
0.301960
0.483165
-0.175661
-0.687266
-0.437984
0.396025
0.506207
-0.018519
-0.544908
-0.084978
0.225956
-0.034122
-0.368220
0.392831
0.439667
-0.063425
-0.930138
0.080549
0.632147
0.362425
-0.188598
-0.522458
-0.066427
0.610169
-0.631295
-0.224298
1.234857
0.747451
-2.075663
-0.650380
1.472629
1.791551
-0.661201
-2.159016
-0.073749
1.988696
0.936066
-1.159456
-1.072582
0.645999
1.051119
-0.092158
-0.317967
0.444004
0.772514
-0.579096
-1.315559
1.060664
-0.336072
-0.176704
-0.049152
-0.067442
-0.072468
-0.043839
-0.114136
-0.080457
0.004060
0.028054
0.047745
0.017739
0.040122
0.083797
0.076978
-0.054727
-0.051921
-0.063025
-0.120465
0.005599
-0.116668
0.014943
0.058173
-0.028788
0.150966
0.032014
-0.040337
0.051388
0.112099
-0.026163
-0.002982
0.039032
0.027705
-0.001218
0.047240
0.103920
0.055031
0.084921
0.154345
0.101579
0.272384
0.256399
0.211165
0.213447
0.135854
-0.011249
0.161026
0.208857
0.366407
0.346659
0.121528
-0.003372
-0.179351
-0.266588
-0.482530
-0.308592
-0.184246
-0.030363
-0.033012
0.246949
-0.255615
-0.093372
0.236755
-0.038000
-0.331898
0.024404
0.263684
-0.091974
-0.473689
-0.248246
0.205664
0.333657
0.088907
-0.398655
-0.397179
-0.033105
0.388320
0.039969
-0.298728
-0.089395
0.178136
-0.157707
-0.305024
-0.013434
0.723114
0.040124
-0.703281
-0.317722
0.346276
0.579971
0.431520
-1.064533
-0.770005
1.318024
-0.102240
-1.029320
0.326886
2.007758
-1.007430
-2.308290
0.583869
2.957605
-0.525118
-2.220496
-0.068171
2.128789
0.443756
-1.872637
-0.303395
1.767882
0.626088
-1.230819
-0.828218
0.787644
1.010369
0.096465
-0.265834
-0.508251
-0.729055
1.198777
-0.030163
-0.033470
-0.031728
-0.068724
0.073778
-0.031473
-0.097460
-0.051997
0.026921
0.097751
-0.008253
0.107235
0.061337
0.084430
-0.055306
-0.010283
-0.057978
0.059185
0.055290
0.078585
-0.038148
-0.010394
-0.010503
-0.061529
0.043740
0.033465
0.024696
0.045738
-0.036383
-0.022254
0.106807
-0.077471
0.007316
-0.056527
-0.054282
0.043939
-0.068147
-0.069613
-0.018791
-0.034364
-0.077188
0.002187
0.079570
-0.060108
0.074950
0.087296
-0.022851
-0.002497
-0.079609
-0.044841
0.058210
-0.002337
-0.049095
-0.116127
-0.121729
-0.081639
0.006529
0.021718
0.062392
-0.052713
-0.092918
0.009566
0.004041
-0.112625
-0.113531
-0.057442
-0.016348
-0.015216
-0.034196
0.105664
0.076080
0.005877
0.057471
-0.054373
0.096204
-0.001348
0.001913
0.004642
-0.033500
0.063899
-0.048702
-0.029806
0.077270
0.052063
-0.051135
0.052747
-0.054204
0.106330
0.082221
0.023572
-0.024121
-0.017835
-0.019544
-0.023567
0.008891
-0.050977
0.076447
-0.016492
0.028068
0.030645
-0.021477
-0.018583
0.018485
-0.045506
0.050978
0.096008
-0.058974
0.053026
-0.022651
-0.007233
-0.028751
-0.000671
0.027478
-0.118417
-0.007747
0.061869
0.012572
-0.039295
-0.138154
-0.188837
0.713625
-0.034224
0.078122
0.229489
0.162713
0.046231
0.021512
0.171909
0.170750
0.112779
0.166735
0.153657
0.089530
0.166618
0.151983
0.283695
0.341691
0.315873
0.127809
0.201502
0.150821
0.184232
0.188725
0.173464
-0.008633
0.034368
0.000531
0.006863
0.064574
0.116315
0.117798
0.178102
0.119412
0.059562
-0.003664
-0.009015
-0.170751
-0.160255
-0.012325
-0.002766
-0.304107
-0.175082
-0.167178
-0.179217
-0.195691
-0.244762
-0.252773
-0.083560
-0.107792
-0.302171
-0.851676
-0.787598
-0.310341
-0.009804
0.269486
0.218248
-0.111492
-0.362851
-0.256772
0.249818
-0.071187
0.150762
0.149466
0.101540
0.098089
0.065770
0.015872
-0.014082
0.089288
0.078485
0.084812
-0.025755
0.005814
-0.058892
-0.010195
-0.156890
-0.192329
-0.235398
-0.166493
-0.230048
-0.312770
-0.290524
-0.345457
-0.258959
-0.329999
-0.296765
-0.149865
-0.084930
-0.078309
-0.077305
-0.084261
-0.108926
-0.066214
-0.035365
0.096813
0.078169
0.306846
0.242988
0.238793
-0.012767
0.084974
-0.037651
-0.063638
0.041861
0.038690
0.039492
0.096689
-0.000254
0.061465
0.182934
0.242948
0.242557
0.217107
0.389894
0.371627
0.213925
-0.161547
0.158671
0.349796
-0.755821
1.261335
-0.331660
-0.284780
-0.059171
0.141602
0.106892
0.286943
0.167942
0.101206
0.032935
0.151649
0.007751
0.124588
0.230274
0.186439
0.094925
-0.054790
0.171264
0.198642
0.200012
0.039097
0.120676
0.091027
0.016963
0.046394
-0.129835
-0.154075
-0.230803
-0.140213
-0.080164
0.005872
0.192841
0.096284
-0.107098
-0.200887
-0.161385
0.004997
0.277165
0.162198
-0.208740
-0.439292
-0.266346
0.120241
0.080240
-0.114513
-0.328212
-0.069545
-0.166323
-0.406643
-0.364789
-0.159505
0.084481
0.287251
-0.026424
-0.431167
-0.538079
-0.339248
-0.117115
0.167636
0.399317
0.147083
-0.037093
-0.055358
0.088177
0.126563
0.050447
0.039291
0.033811
0.106585
0.063281
0.005299
-0.012816
-0.056523
-0.010112
-0.051538
0.032257
-0.016980
-0.125516
-0.009520
0.015237
0.065454
-0.009733
-0.040883
0.035314
0.026979
0.023940
0.008480
-0.112979
0.052613
-0.094254
-0.035695
-0.016982
-0.086406
0.030589
-0.029390
-0.083684
-0.027229
-0.087529
0.073749
0.093367
0.004492
0.124017
-0.043837
-0.143184
-0.118412
-0.288600
-0.253203
-0.153671
-0.186023
-0.045998
0.125905
0.100700
0.105776
-0.031745
-0.155660
-0.214959
-0.035868
0.129998
0.169202
0.068823
-0.152643
-0.031282
-0.229077
-0.094218
-0.089072
-0.064555
0.042900
-0.047130
0.131596
0.109331
0.229013
0.125049
0.203342
0.280465
0.209242
0.210078
0.128550
0.096251
-0.094581
-0.110286
-0.202344
-0.086377
-0.242124
-0.144026
-0.097566
0.065226
-0.002243
-0.044454
0.031018
-0.013743
0.010236
0.050843
0.079465
0.020027
-0.067356
-0.012234
0.024887
-0.028992
-0.082438
-0.042893
-0.002347
-0.064877
0.116998
0.049000
0.136905
0.072570
-0.036290
-0.266098
-0.357641
-0.348021
-0.172731
0.125929
0.143757
0.333641
0.071325
-0.039615
0.003334
-0.135135
-0.054974
0.340683
-0.234096
-0.066534
-0.022340
0.125056
0.214825
0.230446
0.190898
0.229691
0.046113
0.123711
-0.073223
-0.060255
-0.207237
-0.194310
-0.227329
-0.279021
-0.078961
-0.175916
-0.124363
-0.113439
-0.020596
0.001977
0.031182
0.010895
0.113930
0.207882
0.030494
0.091399
-0.035690
-0.013703
-0.015197
-0.079391
-0.040543
-0.017076
-0.066447
-0.136082
-0.024165
-0.011495
-0.044750
0.097597
-0.039345
0.160502
0.192077
0.188204
0.123845
0.214364
0.210621
0.042829
0.066052
0.130009
0.080299
0.158150
0.178049
0.267826
0.117041
0.134102
-0.070381
-0.041090
0.070980
-0.497603
0.180419
0.218881
0.080758
0.011101
0.148645
0.090660
0.163015
0.106130
0.128396
-0.010360
-0.107484
-0.113238
-0.165423
-0.097413
-0.072424
-0.037419
0.102846
0.070891
0.091342
-0.103341
-0.012227
-0.063343
-0.205505
-0.137459
0.067508
0.167816
0.458126
0.594566
0.460199
-0.011837
-0.321161
-0.466299
-0.519508
-0.554791
-0.221930
0.081055
0.429043
0.280021
0.142831
0.089786
-0.053389
-0.274584
-0.593028
-0.504362
-0.183977
0.067111
0.096209
0.249848
0.123142
0.052629
-0.112618
-0.319518
-0.280239
-0.045302
0.037220
0.153500
0.086432
0.165863
0.216784
0.116960
-0.014157
0.038769
0.051009
0.001724
-0.045520
0.035503
-0.007704
0.078920
0.088145
-0.061710
0.048972
0.043433
-0.078595
-0.055350
0.076324
-0.006748
-0.019629
0.073444
0.016952
-0.080222
-0.073294
0.099904
-0.024252
0.031707
0.036344
-0.072333
0.016116
0.076606
0.048947
0.067305
-0.084613
0.051108
0.103619
-0.029261
-0.032177
-0.039491
0.131391
-0.017095
0.125086
0.080347
0.081477
-0.010152
0.031284
0.015279
-0.076239
-0.174739
-0.119043
-0.063240
0.030106
-0.131382
-0.099985
0.020335
-0.006947
0.071492
-0.062222
0.027205
0.044341
0.029794
0.012668
0.177069
0.012696
0.069451
0.053730
0.040120
-0.051748
0.023439
0.057241
-0.004001
-0.098888
-0.008386
-0.110593
-0.071074
0.037324
0.088915
-0.047130
-0.002692
-0.009280
-0.080639
0.071401
0.019438
0.045485
-0.069329
0.040617
-0.026408
-0.061515
0.091862
0.077933
-0.053157
-0.013556
-0.087369
-0.026616
-0.003080
0.005890
-0.020727
0.064188
-0.064739
-0.038354
0.044118
-0.062084
-0.040325
-0.091925
0.078807
0.068681
-0.053397
0.071606
-0.030859
0.105404
0.076191
-0.060781
-0.000930
0.017442
0.040538
0.000076
0.100088
0.071422
0.005481
-0.003173
-0.000743
0.074255
-0.053990
-0.272848
0.125987
0.068487
0.024545
0.246409
0.180195
0.030923
0.041193
-0.012196
0.055310
-0.055006
-0.064462
-0.086437
-0.027519
0.068400
0.070470
0.038705
0.065243
0.009201
-0.027729
-0.130226
-0.063558
0.050138
0.097463
0.140238
0.239320
0.088092
0.011050
-0.081434
-0.136805
0.005308
0.139021
0.259929
0.386892
0.202496
0.141150
-0.015617
-0.163899
-0.566133
-0.713876
-0.636031
-0.250765
-0.123179
0.074056
0.174081
0.158794
0.102153
0.094675
-0.014927
0.038554
0.107804
0.070898
-0.006687
0.253116
0.365902
0.276171
0.083679
-0.053636
-0.041939
-0.517231
-0.102134
-0.091505
0.016978
-0.032678
-0.157236
-0.101474
-0.179275
-0.169715
-0.020942
0.023910
0.018126
-0.070835
-0.009511
0.017848
-0.108399
0.038969
0.025450
-0.020891
0.081436
0.010808
0.080298
-0.047146
-0.054938
-0.010528
-0.021412
-0.120913
0.012131
0.041034
0.056583
-0.097839
-0.001848
-0.182315
0.020682
0.012420
0.244288
0.266866
0.359993
0.292682
0.213133
0.249564
0.279542
0.151665
-0.045979
-0.059502
-0.027143
0.023093
-0.115653
0.018769
-0.225887
-0.242810
-0.376792
-0.343618
-0.142698
-0.008532
0.045938
0.187678
0.159053
0.202627
0.121365
0.041937
-0.278990
-0.037679
0.048658
-0.011081
-0.121687
-0.047818
-0.051044
-0.100924
-0.062046
-0.028861
-0.027967
-0.043497
-0.111407
-0.156029
-0.068177
-0.063738
-0.077079
-0.060909
0.036901
-0.112794
0.013556
-0.071067
-0.012307
0.009741
-0.037452
-0.222802
-0.233433
0.002683
0.029624
-0.145505
-0.456852
0.188600
0.029348
-0.375822
-0.002818
0.485304
0.174800
-0.158941
-0.352887
0.805232
-0.194948
-0.767251
-0.171316
0.577480
0.048369
-0.978350
-0.702260
0.424067
0.602411
-0.207106
-0.508469
0.133483
0.318606
-0.226519
-0.520851
0.079886
0.684732
0.351793
-0.134028
1.886226
0.005279
0.067677
-0.045328
-0.024780
-0.080511
0.056592
0.026014
0.051592
0.060244
-0.037156
-0.100866
0.010454
-0.062337
-0.072696
0.075127
-0.012410
0.028058
-0.041449
-0.086772
-0.046513
0.058054
-0.056291
0.015376
-0.088784
0.088925
0.081482
-0.068821
-0.084457
0.052961
-0.024086
0.074405
0.081145
-0.011059
0.090591
0.105438
0.034927
0.092435
-0.064615
-0.023697
-0.044000
-0.054753
0.006010
-0.034490
0.002295
-0.112761
-0.000164
-0.122802
-0.003067
0.011491
0.080270
-0.022250
0.120486
-0.007617
0.087507
0.202376
0.134363
0.053001
-0.049084
0.075055
-0.118702
0.031154
-0.112233
-0.102183
-0.034465
-0.016175
-0.023497
-0.049311
-0.059330
0.013392
-0.080063
0.049549
-0.066745
0.001808
0.014269
-0.035704
-0.044706
-0.019145
0.007606
-0.005819
0.006519
-0.061711
0.042526
0.017982
-0.010411
-0.019203
0.071226
-0.077740
0.066755
0.056488
0.026336
-0.057714
0.133951
0.068569
-0.024334
0.042296
-0.020536
-0.000240
-0.043356
0.088889
0.067578
-0.017277
-0.010313
0.083387
-0.061691
0.081006
0.063290
-0.011988
0.044109
-0.087724
-0.024702
-0.068932
-0.197838
-0.083715
-0.134099
-0.219298
-0.015707
-0.008712
0.060819
0.031820
0.001910
-0.027746
0.009080
0.025310
0.033569
-0.029803
-0.054861
-0.027144
0.067385
0.062118
-0.085343
0.080656
0.044755
0.074683
0.017933
0.037499
-0.016395
0.106018
0.019958
0.035967
0.060100
-0.025901
-0.136263
-0.062243
0.033132
-0.015513
-0.051183
-0.114601
-0.069502
0.033072
-0.218176
-0.175865
-0.134926
0.072988
0.081241
0.153025
0.293720
0.138031
-0.059789
-0.342961
-0.303403
-0.225073
-0.561940
-0.139410
0.115537
0.470623
0.614744
0.772407
0.801750
0.294884
-0.219196
-0.679265
-0.619719
-0.665162
-0.671514
-0.572157
-0.274855
-0.095202
-0.180829
0.117601
1.339287
-0.226251
-0.020232
0.096768
0.139096
-0.012137
-0.176892
-0.161195
0.035190
0.059997
0.049932
0.011964
-0.074341
-0.127692
0.011285
0.064114
-0.047881
-0.049743
-0.135229
-0.003323
0.073146
-0.045153
0.018418
0.023130
-0.114720
-0.180875
-0.033419
-0.040779
0.055238
-0.206507
-0.128797
-0.110873
-0.211430
-0.073334
0.044022
0.219895
0.262512
-0.572599
0.057936
-0.062490
0.164014
-0.411546
1.120821
0.082055
-0.482383
-0.525351
0.227880
0.353635
-0.063354
-0.398519
-0.316632
-0.399519
-0.484688
-0.318305
0.003441
0.396329
0.662030
0.571522
-0.068484
-0.175924
1.344988
-0.516953
-0.198876
-0.241529
-0.313827
-0.314029
-0.182700
-0.023721
-0.083357
-0.055634
0.063988
0.009247
0.050763
0.081667
-0.016856
-0.029758
0.013271
-0.025545
0.223155
0.185112
0.201872
0.292981
0.182916
0.193170
0.069955
0.060059
0.150009
0.114025
0.076367
0.000310
-0.098618
-0.173999
-0.241603
-0.137583
-0.198332
-0.202882
0.021318
0.046913
0.147717
0.119671
-0.110208
-0.183204
-0.157915
-0.235120
-0.143647
0.084080
0.184606
0.137156
0.091003
-0.006706
0.003384
0.038741
0.110577
0.257262
0.393913
0.418456
0.117799
0.025741
0.191510
0.441388
-0.727618
-0.185455
-0.133634
-0.048473
-0.118830
0.006504
-0.043680
0.034197
-0.009081
0.087101
0.109910
-0.018840
0.060697
-0.062029
0.001694
0.056002
-0.003801
0.020658
0.004283
0.107023
0.047459
-0.012204
0.145962
0.165070
0.214023
0.191240
0.228822
0.105101
0.225564
0.057938
0.155254
-0.013828
-0.090341
-0.103388
-0.171798
-0.148915
-0.150167
-0.103175
-0.124679
-0.000820
0.048583
0.110918
0.113290
0.108174
0.057960
0.050366
-0.123492
-0.188815
-0.221937
-0.247521
-0.272689
-0.182473
-0.023844
0.007074
-0.078907
-0.111150
-0.015559
0.062589
0.086872
0.010319
0.195151
-0.033274
-0.056492
0.083523
0.100143
0.144533
0.103988
0.153536
0.129564
0.153128
0.054137
0.114951
0.169987
0.150434
0.106592
-0.023344
-0.002760
0.023063
-0.028526
-0.115075
-0.175415
-0.053346
-0.094375
-0.269663
-0.126622
-0.134847
-0.154666
-0.165108
-0.066720
-0.011899
0.013477
0.018002
0.057682
0.168458
0.114612
0.233537
0.207674
0.144332
0.071952
0.035537
0.185517
0.012210
-0.000498
0.096861
-0.017414
0.051725
0.006803
-0.001726
0.096613
-0.064424
-0.174335
-0.116199
-0.080103
0.053404
0.038178
-0.176085
-0.186008
-0.282506
-0.150902
0.084026
0.265569
0.327620
-0.061166
-0.102291
-0.053626
0.113015
0.166913
0.134958
0.217720
0.180485
0.149096
0.021173
-0.018969
0.085523
0.031865
0.071777
-0.082804
-0.062779
-0.140576
-0.005900
-0.096246
-0.092869
0.020343
-0.025915
0.074145
0.017675
-0.001668
-0.075874
-0.043903
-0.052278
-0.101638
0.055918
0.055619
0.033125
0.133166
0.003755
-0.085504
-0.032648
-0.165829
-0.001007
-0.000234
-0.015211
0.069490
0.001347
-0.046401
0.128118
0.078625
0.140433
0.160498
0.421270
0.311131
0.088160
-0.006232
-0.273226
-0.590312
-0.653041
-0.721400
-0.311181
-0.004523
0.080031
0.247844
0.143605
0.101968
0.162776
0.175059
0.123755
-0.006228
-0.079966
-0.171357
-0.084655
-0.077164
-0.160534
-0.141668
-0.073231
0.047443
0.004327
0.084754
-0.001186
-0.033535
-0.058501
-0.148242
-0.059370
-0.034468
-0.135392
-0.129113
-0.130549
-0.129513
-0.041502
-0.073584
0.052636
-0.086499
0.019579
0.146281
0.003231
0.041528
0.086897
-0.042836
-0.088722
-0.102054
-0.109081
-0.087886
-0.010085
0.002691
-0.056821
-0.027711
-0.002234
-0.110802
0.063631
-0.032442
-0.020570
0.114354
0.079475
0.103597
0.056957
0.138790
0.198414
0.058489
0.020893
0.005086
0.152326
-0.012345
-0.346420
0.117136
0.032193
0.112706
0.122577
0.229804
0.100021
0.095288
0.092354
0.030533
-0.029436
0.025500
-0.023647
-0.052184
0.024354
-0.087224
-0.022590
0.036641
0.067927
0.074177
0.086230
-0.013054
-0.021036
-0.078969
0.067932
-0.087226
-0.080744
0.054959
-0.056151
0.063693
0.041215
0.107717
-0.014136
-0.139387
-0.187580
-0.099867
0.008348
0.032759
0.253116
0.101547
0.261517
0.232548
0.286840
0.046885
0.083237
-0.170966
-0.242932
-0.301380
-0.202917
0.048009
0.233249
0.184647
0.271650
0.293030
0.363766
0.322882
-0.143672
-0.505544
-0.773002
-0.975446
weigvec 606
0.060813
-0.517266
-0.051458
-0.780811
0.130993
1.056765
0.527450
0.425247
0.148356
-0.135184
-0.097019
0.006233
0.077336
0.082082
-0.882439
0.699131
0.009206
-0.047386
0.548691
-0.423822
-0.091662
0.449473
0.642152
-0.233436
-0.081453
0.373000
-0.502888
-0.904995
1.074131
0.357603
-0.197937
-0.042168
-0.134233
0.617722
-0.405893
-0.944296
-0.320833
0.410269
1.184338
0.644660
0.716029
0.635604
0.069392
0.402002
-0.077257
0.469715
0.472484
-0.208809
0.747646
-0.079917
-0.086165
-0.342230
-0.821554
0.542950
-0.273132
-0.049627
0.215761
-0.737175
0.764650
-0.166510
-1.025876
-0.110415
0.115414
0.644747
-0.155301
-0.014800
0.139710
-0.179478
0.289400
-0.695952
0.288488
0.203672
-0.972378
0.724227
-0.664724
0.774721
-1.127432
-0.016318
-0.127555
0.128883
-0.382416
0.030213
0.339904
0.735093
-0.252950
0.343289
0.245050
-0.035064
-0.371355
0.639127
-0.776047
-0.095917
0.196848
0.588695
-0.537981
-0.335057
0.506067
0.206408
0.759968
0.110740
-0.173807
-0.096917
-0.584757
-0.080351
0.757577
0.386945
-0.481779
-0.793099
-0.468411
-0.004978
0.042061
-0.061450
0.006606
-0.062303
-0.077722
0.621023
-0.097819
0.328549
0.055560
-0.430216
-0.093738
-0.067266
0.093762
-0.430731
-0.166692
0.095845
0.035480
-0.122965
0.775163
-1.256847
-0.179958
0.023782
0.008997
-0.140689
-0.827308
0.352528
0.752178
0.400403
-0.406156
0.292851
-0.273981
-1.047669
-0.258396
0.004772
0.091370
-0.105407
0.066158
-0.135589
-0.145585
-0.322487
-0.132233
0.398085
-0.129160
0.542586
-0.119281
-0.029182
0.533535
0.383237
-0.404371
-0.436839
0.059959
-0.837025
-0.130537
0.063424
2.178535
-0.029110
-0.141538
0.309933
0.096059
0.109909
0.552193
-0.109218
0.347395
0.668011
0.084665
-0.953158
-0.014580
-1.013036
-0.100979
0.083983
-0.794169
0.556173
-0.780953
-0.078251
-0.331542
0.403203
-0.009609
-0.111645
0.009489
0.377314
-0.172591
-0.416002
-0.067380
-0.011395
-0.494158
-0.552804
0.544847
-0.078883
-0.228944
-0.199467
-0.056230
0.137403
-0.160584
0.335705
0.212116
0.100803
0.194691
0.450067
-0.588901
0.015886
-0.360383
0.065702
-0.081685
-0.025308
-0.044455
-0.078107
0.072914
-0.129997
-0.329051
0.136463
0.087827
0.455680
-0.029872
0.336623
0.089490
0.071582
0.064156
0.160672
0.225248
-0.089069
-0.200989
0.210658
-0.171763
0.015367
0.181549
0.334279
-0.029221
-0.070301
-0.607159
0.305059
-0.156109
-0.385838
-0.299837
0.185774
-0.031784
-0.230324
0.042935
0.081324
0.012965
-0.007360
0.239458
-0.078685
0.032846
0.373825
-0.145718
-0.309136
0.159468
0.202535
0.009078
1.165486
0.020457
-0.214899
0.281146
-0.382690
-0.062538
-0.631991
0.140398
0.076867
0.088852
-0.120492
-0.268414
0.123808
0.324560
0.190758
-0.115591
-0.182915
0.525700
-0.195347
0.560026
-0.084623
0.130342
-0.245316
-0.071372
0.376325
0.110503
0.161235
-0.018551
0.022904
0.107783
0.006746
0.238044
-0.027389
0.110993
0.053784
-0.085510
-0.010990
-1.264477
-0.627743
-0.096488
0.261589
-0.157308
0.006411
0.376076
-0.314663
0.004259
0.192942
0.074374
0.066747
0.073427
-0.167383
0.259118
-0.169312
-0.022538
-0.122803
-0.042674
-0.128312
-0.120452
0.019306
0.369381
-0.136956
0.082050
0.054871
0.362859
0.086431
-0.125007
0.342091
-0.309539
-0.162633
0.037909
-0.032168
-0.622746
0.868117
-0.290295
0.148346
-0.057144
0.048942
0.061310
-0.115457
-0.281567
-0.264560
0.301198
-0.029374
-0.052097
-0.756009
-0.673188
0.099319
-0.502446
-0.115595
0.230275
0.460905
0.175031
0.062873
-0.072467
0.149314
-0.075144
-0.003856
-0.371959
0.646997
-0.073529
0.202145
0.379343
-0.016590
0.272907
-0.462923
0.252084
0.169210
-0.405126
0.172697
0.073667
-0.019843
-0.124471
-0.386397
-0.508642
-0.279542
0.161124
-0.128995
0.140172
-0.691104
0.185094
-0.909801
0.099129
0.135514
-0.280146
-0.361071
-0.209332
-0.277817
-0.170579
-0.393732
-0.010943
-0.101157
0.051407
-0.054842
0.105891
-0.747998
-0.130253
0.042623
0.420432
0.212809
-0.101416
0.051231
0.331120
-0.033047
-0.055941
-0.276766
0.190584
-0.205763
-0.290754
0.424743
0.287611
-0.347319
0.003168
-0.524826
0.451968
0.063861
0.073375
0.237840
-0.130851
-0.002932
0.494036
-0.164646
0.590682
-0.014293
-0.456258
-0.016301
0.174912
-0.112557
-0.389000
-0.208251
0.201008
0.484239
0.355744
0.021404
0.583639
-0.260320
-0.344617
0.296829
-0.251095
0.336155
0.507561
0.373423
-0.020564
-0.367237
-0.703347
-0.347278
0.972628
0.219999
-0.117810
0.258630
0.225929
-0.243583
-0.088245
-0.126093
-0.055668
0.258365
0.241265
-0.396611
0.391329
-1.208583
-0.274378
0.384177
0.262868
-1.068515
-0.707240
0.236436
-1.271958
0.681769
-0.261640
-1.354377
0.144770
-0.213137
0.418724
0.562674
0.435457
0.646485
-0.403669
0.043968
0.548135
0.111639
-1.603831
-0.113076
-1.507200
-0.133469
-0.069385
0.344698
0.496217
-0.251829
-0.073511
-0.062169
0.500472
0.808036
0.084451
0.135743
0.422587
0.087566
-1.164245
0.227581
-0.137232
-0.008027
-0.179635
0.829225
-0.179467
-0.486169
-0.710534
0.365281
0.650874
0.074454
0.936474
0.042596
-0.437569
-0.994622
-0.796421
0.885690
0.248172
-0.157763
-0.091144
-0.116575
0.144738
0.064935
0.115314
-0.596138
-0.602885
-0.261797
-0.073209
0.331308
-0.227620
0.034854
-0.466662
0.006273
0.806374
-0.030088
-0.897066
0.013180
0.758203
-0.894834
0.201845
0.555720
-0.358614
0.151406
-0.696870
-0.191177
0.193615
0.927311
-0.326029
-0.650215
0.370751
0.321616
-0.248932
0.029543
-0.053448
-0.003784
-0.699950
-0.692981
0.160903
-0.401437
-0.131711
-0.736184
0.477038
-0.011336
1.551989
-0.279842
-0.939814
-0.775556
0.391111
0.159677
-0.273203
3.328449
-0.260109
-0.040129
-0.229299
-0.050727
0.081166
-0.908646
-0.132609
-0.346690
-0.287194
0.017917
-0.818601
-0.122497
-1.027503
3.399981
-0.536246
3.840776
-0.032991
0.018112
0.838647
-0.126552
0.987609
0.065364
-0.379781
-0.195356
-0.921730
0.069601
0.021194
-0.670694
-0.581543
2.999567
0.021285
0.040579
-0.533935
2.226573
-0.366483
-0.147655
-0.002237
0.094962
-0.180797
-0.686239
biasvec 101
-3.906053
-4.644151
-3.945477
-4.665521
-4.375044
-3.794112
-4.831849
-4.221340
-4.097243
-4.060367
-4.053063
-3.900762
-3.990282
-3.965408
-5.133320
-4.560906
-4.460511
-4.089069
-4.389013
-4.105183
-3.983079
-4.007283
-4.352118
-4.267252
-3.966719
-4.582218
-3.849329
-2.276716
-4.135309
-3.873678
-4.067265
-3.923513
-3.987116
-2.861794
-4.244321
-4.349823
-4.717487
-4.339882
-3.553929
-4.260666
-2.195490
-4.134059
-4.100691
-4.004474
-4.047383
-4.023958
-4.288463
-4.024563
-4.231781
-3.879686
-4.244526
-4.029962
-4.592722
-3.849203
-4.204055
-4.701717
-3.988707
-5.642757
-4.699654
-3.997532
-3.873868
-3.984540
-4.018369
-2.787969
-3.976439
-3.905698
-4.065125
-4.016394
-4.250238
-4.357957
-3.977837
-4.264743
-5.044016
-4.983026
-4.167315
-4.362022
-3.935643
-3.990517
-3.992456
-4.308239
-4.666776
-4.464448
-3.947172
-4.227832
-4.187800
-4.473184
-3.888639
-4.062953
-4.201301
-4.153634
-6.703559
-3.980581
-4.024577
-3.536262
-5.768002
-4.726484
-4.019551
-4.118079
-4.174271
-4.039033
-4.171120
biasvec 6
-4.330882
-6.947873
-2.901496
-3.940150
-2.971297
-3.011785
