60 101 6
weigvec 6060
-0.031640
0.078566
-0.155543
-0.036413
-0.130575
-0.097643
-0.019184
-0.012027
0.083922
0.030749
-0.012421
-0.034527
-0.025999
-0.194532
-0.199866
-0.156812
-0.164501
-0.199292
-0.097231
-0.205512
-0.150907
-0.218048
-0.038065
-0.014800
-0.010796
-0.068908
-0.062086
-0.045598
0.079771
0.092956
0.133606
0.215300
0.381805
0.155946
0.069408
0.334517
0.166784
0.129824
0.203121
0.079326
0.063387
0.058138
-0.062502
-0.093406
-0.151542
-0.145923
-0.310476
-0.151486
-0.042319
0.057427
0.296871
0.208754
0.203847
0.308996
0.274037
0.174099
-0.093024
-0.008733
0.178636
-0.387699
0.514783
-0.279907
-0.163403
0.378029
0.278636
0.133608
-0.047740
0.128510
0.144660
0.178568
0.076905
0.205380
0.166960
0.016024
0.059469
-0.010916
0.212016
0.154848
0.019321
0.228791
0.221379
0.080813
0.032872
0.056059
0.069409
0.158051
0.013936
0.034713
0.144609
0.281855
0.031152
0.060709
0.015521
0.048413
0.050192
0.187937
0.277835
0.073083
-0.180632
-0.148931
0.096677
0.292515
0.312308
-0.114852
-0.244453
-0.190652
0.083286
-0.035423
-0.073619
0.146959
0.524576
0.482940
0.378888
0.471998
0.393203
-0.017933
-0.207391
-0.210413
-0.571482
-3.991233
0.097692
0.100629
-0.049396
-0.110045
-0.075647
-0.068498
-0.082883
-0.200776
-0.000360
0.032375
0.047728
-0.000876
0.156003
0.137020
0.154073
0.056669
0.088108
0.064677
-0.029892
-0.069306
-0.117525
-0.097065
-0.039986
-0.070403
-0.128690
0.016564
-0.132336
-0.007579
0.000730
0.039457
-0.041855
-0.039139
0.017004
0.009593
0.121542
0.039261
0.137600
0.008501
0.169755
0.140858
0.088654
0.151296
0.118343
0.070172
0.058290
0.173793
0.154952
0.130781
0.008242
0.049499
0.077800
0.017417
0.074082
0.119097
0.067473
0.063458
-0.028551
-0.052391
-0.170509
-0.236001
-0.507472
0.373878
0.254903
0.040796
0.007876
-0.083998
0.032880
0.055355
0.040633
0.207491
0.051647
-0.037818
-0.026113
-0.175772
-0.120475
-0.013005
0.102138
0.189454
0.138636
0.093653
0.027504
0.077317
0.082178
-0.056664
-0.077189
-0.231762
-0.433514
-0.386163
-0.368741
-0.417817
-0.326943
-0.407224
-0.408032
-0.304526
-0.222924
0.165030
0.292728
0.497144
0.341506
0.097890
-0.142351
-0.063776
-0.042756
0.125162
0.079622
0.166358
0.178940
0.105237
0.131196
0.201710
0.236787
0.195814
0.189334
0.312615
0.395968
-0.094716
-0.434504
0.301741
1.134223
-1.539039
0.288847
0.033736
-0.013786
-0.095390
-0.083823
-0.281574
-0.247061
-0.132582
-0.181282
-0.237646
-0.107237
-0.070399
0.059824
-0.093671
-0.175347
-0.256738
-0.458999
-0.424635
-0.270678
-0.203978
-0.148273
0.008868
0.103002
0.337499
0.377287
0.120090
0.526905
0.404613
0.317595
-0.227699
-0.304408
-0.166241
-0.347199
-0.735204
-0.648074
-0.191881
-0.044102
-0.221447
-0.201981
-0.020199
0.249522
0.105405
0.114550
0.039822
-0.004808
0.191834
0.428234
0.390558
0.223489
0.143383
0.284348
0.181751
0.096537
0.208901
0.246904
0.135897
-0.078246
0.359255
0.713903
-0.242300
0.074043
-0.144544
-0.141998
-0.054370
0.010481
0.044254
-0.068016
0.093318
0.086009
0.022155
-0.057216
-0.039179
0.036473
-0.060597
-0.105623
-0.036552
0.051901
0.075196
-0.014155
-0.019853
-0.084327
-0.115817
0.161855
0.140707
-0.080234
-0.152251
-0.113958
0.091412
-0.001046
0.113537
-0.016833
-0.158104
-0.092818
0.096082
0.202618
0.020812
-0.193063
-0.123916
0.177181
0.121837
0.121464
-0.576269
0.087640
0.506743
0.582387
0.415358
0.119533
0.169865
-0.037630
-0.577044
-1.372357
-1.334466
-0.219596
1.332927
1.968111
1.335495
-0.151360
-1.864838
-2.114245
1.734372
1.381888
-0.707007
-0.554568
0.115088
0.327681
0.303354
0.042939
-0.020174
0.052692
-0.174529
0.073751
0.289961
0.472571
0.165807
-0.422115
-0.353003
0.172722
0.529831
0.332292
0.111414
-0.307357
-0.175977
0.133002
0.162090
0.194849
0.073691
-0.054492
0.020687
0.144536
0.192157
0.049618
-0.354471
-0.236052
-0.064005
0.234062
0.172886
0.132389
-0.200125
-0.360144
-0.019254
0.431916
0.562155
0.298363
-0.243820
-0.453477
-0.164661
0.409790
0.199536
-0.220587
-0.364057
-0.305544
-0.106007
-0.075331
-0.126854
-0.367621
-0.590878
-0.438219
0.047880
0.103268
-1.076669
0.055843
-0.090772
0.030663
0.048301
0.002832
-0.053556
0.022384
0.110016
0.076381
0.017246
0.079256
0.038141
0.056846
0.012824
0.049181
0.128134
0.099670
0.173000
0.253357
0.182598
0.197414
0.183199
0.150467
0.164508
0.166604
-0.025990
0.036017
-0.053017
-0.054864
-0.076735
-0.036787
-0.033327
-0.210507
-0.193450
-0.120150
-0.014031
-0.170404
-0.129201
-0.073422
-0.120213
-0.062595
-0.006938
-0.066989
0.000454
0.183106
0.131549
0.103821
0.089686
0.003093
-0.246896
-0.580980
-0.576126
-0.409604
-0.218848
-0.181788
0.264426
0.392466
0.101185
-0.496250
0.397481
-0.207923
0.136822
-0.096395
-0.051672
0.018653
-0.009142
0.124775
0.026068
0.098795
0.252074
0.111508
0.178111
0.159412
0.073991
0.160390
0.016820
-0.006403
-0.027233
-0.225100
-0.227299
-0.373165
-0.362932
-0.300364
-0.362690
-0.299669
-0.271672
-0.350086
-0.212015
-0.097888
-0.013168
0.068673
0.062273
0.196554
0.111693
0.147179
0.218184
0.049938
0.063015
-0.021572
0.024808
0.142553
0.137800
0.096094
0.052352
0.081663
0.174274
0.183115
-0.029414
-0.080995
0.171716
0.227157
0.236486
0.177012
0.086760
0.189206
-0.090478
-0.236055
0.146422
0.587065
-0.559401
0.044398
-0.035521
0.009225
0.030998
-0.002733
0.086120
-0.104926
-0.050258
-0.071285
0.022625
-0.020138
0.045987
-0.009832
0.137519
0.183684
0.017318
0.153127
-0.066981
-0.034092
-0.118402
-0.168545
-0.179629
-0.070537
-0.013837
0.070077
-0.002193
0.106240
-0.039666
0.074687
0.052258
0.043758
-0.045310
0.030191
-0.079993
-0.044548
0.096875
0.117606
-0.070712
0.116031
-0.003289
0.008145
0.075332
-0.045090
0.072901
-0.001867
-0.026876
-0.070253
-0.076502
0.010469
-0.025428
-0.035258
0.008833
0.062466
-0.055295
0.038620
0.004951
-0.044810
-0.114895
-0.172148
-0.109750
0.028138
0.076495
0.052888
0.113051
0.053488
0.114128
0.067343
0.107774
0.252366
0.178840
0.195538
0.156845
0.117388
0.023626
0.106441
-0.078931
-0.014291
-0.015246
-0.129562
-0.168160
-0.197365
-0.169860
-0.133210
-0.204251
-0.106002
-0.091615
-0.106451
-0.017109
-0.044277
0.029296
-0.043237
0.102955
0.043336
-0.043313
-0.020789
-0.089763
-0.019510
-0.144722
-0.000977
-0.041405
-0.059351
-0.124755
-0.040383
-0.100286
-0.061262
-0.039670
-0.036459
-0.080479
0.068359
-0.010436
0.076898
0.188569
0.181441
0.222187
0.168261
0.237035
0.035414
0.017019
-0.110681
-0.263775
-0.072851
-0.069123
-0.106249
-0.066248
-0.109156
0.092332
0.115517
0.040036
0.069962
-0.025368
-0.194963
-0.071076
0.039296
0.100185
0.039187
0.026147
0.041703
-0.050156
0.042348
-0.002850
-0.022888
-0.090003
-0.110315
-0.114506
0.097254
0.128199
-0.120514
-0.170870
-0.143413
-0.030674
0.074117
-0.100820
-0.140339
0.061569
-0.095421
0.040517
0.003072
0.167511
0.158003
-0.152440
-0.074167
-0.196567
-0.414927
-0.598296
-0.460289
-0.095986
0.109528
0.357102
0.624937
0.646738
0.295547
-0.180660
-0.245304
-0.047534
0.356233
0.386091
0.394013
0.179746
-0.088332
0.108671
0.214636
0.119772
0.158999
0.138824
0.063530
0.157999
0.014993
0.057726
0.132220
0.031316
0.064380
0.067846
0.070155
0.058083
0.010228
-0.048959
0.043225
-0.037819
-0.013985
0.041701
0.023524
-0.123326
0.032654
-0.027841
-0.027643
0.039180
-0.043937
-0.082765
-0.018837
-0.049553
0.018270
0.040395
-0.014571
-0.096871
0.069053
-0.093055
-0.063862
0.072211
-0.101780
-0.129939
-0.012567
-0.122603
0.081078
-0.052177
-0.121855
-0.175353
-0.117714
0.106341
-0.122863
-0.212242
-0.148742
-0.129135
-0.127778
-0.103581
-0.151891
0.038325
0.008788
0.048797
-0.039973
0.176241
0.005263
-0.001722
-0.158843
0.040387
0.048739
0.017304
0.113393
-0.068655
-0.096288
0.073167
-0.050054
0.072842
-0.037597
-0.112238
-0.003846
-0.010750
-0.130090
-0.054374
0.008509
-0.059061
-0.111741
-0.102842
0.035163
-0.005869
-0.090038
-0.056353
-0.106387
0.025064
-0.012660
-0.151911
-0.047319
-0.130712
-0.155986
0.036323
0.034020
0.030849
-0.073869
-0.063842
0.019018
-0.023421
0.045170
0.300068
0.282180
0.180904
-0.058942
-0.095655
0.074480
-0.096017
-0.028742
-0.093361
-0.102134
-0.077235
0.092813
0.123890
0.221161
0.164872
0.076763
-0.013328
0.064371
0.100064
-2.381774
-1.546389
-1.127410
-0.835546
-0.565268
-0.335802
0.146116
0.405058
0.366586
0.174156
0.282746
0.376010
0.305268
0.091624
0.123208
0.076036
0.134548
-0.013902
0.012198
-0.084278
-0.017986
0.076962
0.198337
0.322967
0.243871
-0.019595
0.120001
0.024269
0.338147
-0.036088
0.050059
0.120061
0.451506
0.153567
0.215644
0.118250
0.188608
-0.009444
0.033006
-0.069779
0.111843
0.019532
0.127515
0.189839
0.002112
-0.007659
0.060536
0.137437
0.084946
0.177918
0.211460
0.059118
-0.019454
0.178295
0.196960
0.094674
-0.236472
0.105005
0.477640
0.004245
-0.703477
0.176077
0.212985
0.089331
0.223044
0.141947
0.073515
0.058177
0.144033
0.064368
-0.063312
0.105001
0.030612
-0.068831
-0.069239
-0.138808
-0.291184
-0.162338
-0.194432
0.055453
0.210077
0.323019
0.468291
0.698996
0.706991
0.227014
0.078357
0.014006
-0.030244
-0.249412
-0.394187
-0.267505
-0.176524
-0.471104
-0.494359
-0.222319
-0.277470
-0.402825
-0.372181
-0.244220
-0.173503
-0.355383
-0.400223
-0.201419
-0.144793
0.009242
0.052384
0.180991
0.383626
0.332240
0.399408
0.320035
0.247278
0.161745
0.223682
-0.059112
-0.113303
-0.142570
-0.009023
0.605686
-1.410010
-0.585396
-0.430859
-0.293423
-0.123538
-0.012846
0.003040
0.126625
0.209623
0.183373
0.179332
0.241699
0.026138
0.030422
-0.151027
-0.151564
-0.175642
-0.118285
-0.067764
-0.055158
-0.070085
-0.050989
-0.043751
-0.029300
-0.016687
-0.107349
0.002739
0.001415
0.070130
-0.050584
-0.087957
0.063837
0.111025
0.012421
0.027664
0.144251
0.001141
-0.032494
0.001779
0.097944
0.270862
0.111941
0.144605
0.074526
0.072899
0.138225
-0.004341
0.031629
-0.021742
0.057896
0.356261
0.400246
0.087606
0.133831
0.133945
0.167416
-0.212019
0.123112
0.707642
-0.175395
-0.039983
0.092039
0.117729
0.051740
-0.001644
0.016232
0.111851
-0.088538
-0.033786
-0.115771
-0.144231
-0.129678
-0.144863
-0.100033
0.032276
0.154751
0.212074
0.125366
0.085489
-0.065475
-0.083610
-0.026719
-0.080436
-0.038909
0.032204
0.022429
0.134043
0.045586
0.079665
0.080250
0.010822
-0.035107
-0.096296
-0.100296
0.124120
-0.036715
-0.060156
0.041960
0.039690
0.085329
0.010961
0.001916
0.010054
-0.012283
-0.037175
-0.031541
0.054458
-0.127535
0.003058
-0.174026
-0.144415
-0.133375
-0.004401
0.016238
-0.065525
-0.048958
-0.059009
-0.039325
-0.249842
-0.147007
-0.054432
0.145647
-0.006409
-0.003238
0.075462
0.015143
0.062976
0.009023
-0.091086
0.055126
-0.094016
-0.127236
-0.047448
-0.012603
-0.000036
0.012658
0.143638
-0.035144
0.046101
0.128521
0.134404
0.074210
0.124870
0.238439
0.307235
0.339915
0.516250
0.537665
0.168673
0.152849
-0.078907
0.179659
0.009639
-0.074608
-0.100227
-0.055998
-0.141295
-0.131651
-0.101736
0.004333
-0.089963
-0.239411
-0.189377
-0.048660
-0.009507
-0.142439
-0.165099
-0.274780
-0.130379
-0.006197
-0.046222
0.098611
0.052275
0.012463
-0.238214
-0.100539
-0.001502
-0.289425
-0.606872
0.178313
0.074218
0.266977
0.093550
0.102127
0.059914
-0.071903
-0.096289
-0.070935
0.064070
0.033095
0.263915
0.272647
0.333612
0.254305
0.016546
-0.212771
-0.500844
-0.439563
-0.464349
-0.542348
-0.458572
-0.167074
0.100181
0.286843
0.124787
-0.037757
0.106167
0.055752
0.155920
0.023921
-0.101193
0.097006
0.058540
0.093130
0.115406
0.223471
0.060586
0.187443
0.135223
-0.004890
-0.075255
-0.129873
-0.283127
-0.076435
-0.013457
0.178958
0.239966
0.333151
0.274152
0.157036
0.101673
-0.048053
-0.086281
0.012577
0.070686
-0.077934
-0.343282
-0.296970
-0.210091
-0.421307
0.047143
0.086057
-0.015602
0.013272
0.043594
0.014895
0.112331
-0.014040
0.081888
0.107258
0.050601
0.104187
-0.010706
0.040710
0.001181
0.028543
-0.083547
-0.016137
0.021021
-0.119592
-0.069121
-0.101328
-0.155621
-0.205123
-0.033299
-0.162959
-0.108486
-0.132218
-0.182021
-0.146526
-0.150949
-0.113412
-0.079407
-0.116609
-0.139926
0.035344
0.074615
-0.066505
0.060556
-0.108349
-0.023359
0.016833
0.236764
0.210499
0.234984
0.126082
0.191223
0.193077
0.011491
-0.001808
0.102561
0.050101
0.035561
-0.048939
0.149939
0.010526
-0.054903
0.016200
0.200119
0.133445
-0.233327
-0.210590
-0.091932
-0.016907
0.096755
0.206904
0.263531
0.298963
0.165325
0.192112
0.081306
-0.055691
-0.049801
-0.156109
-0.142769
-0.259765
-0.196770
-0.168936
-0.077193
-0.031585
0.018806
0.085012
-0.036128
-0.062067
-0.114221
-0.009348
-0.005072
0.134692
0.258281
0.240351
0.290081
0.212666
0.316272
0.331839
0.169850
0.301335
0.128782
0.032869
0.010789
-0.164097
-0.193908
-0.277709
-0.210907
-0.125571
-0.153908
0.013198
-0.142835
-0.083398
-0.119407
-0.104273
-0.122068
-0.048012
-0.014758
0.004740
0.001725
-0.052375
0.034846
0.138420
0.063644
0.156598
0.119712
-0.167201
-0.092003
-0.001719
0.053352
0.143069
0.125779
0.161728
0.275837
0.261724
0.283023
0.259927
0.247454
0.119135
-0.016388
-0.053771
-0.107879
-0.147828
-0.353279
-0.200475
-0.146482
-0.172329
-0.158605
0.036435
0.015264
0.050492
0.134401
0.012051
0.079121
-0.075641
-0.025862
0.019429
0.032093
0.174030
0.087388
0.102941
-0.036100
-0.051946
0.042429
0.084816
0.060584
0.060835
-0.119104
-0.151526
-0.043504
-0.034669
-0.073594
-0.064680
-0.204384
-0.290405
-0.362730
-0.200978
0.134429
0.244323
-0.096033
-0.329374
-0.207396
-0.014260
-0.202156
0.642710
0.546061
0.346085
0.218884
0.225622
0.078035
0.073062
0.015640
0.063954
0.134731
0.080808
-0.030550
0.091949
-0.038022
-0.185994
-0.104001
-0.102919
-0.057912
-0.065319
-0.153843
-0.123735
-0.012066
-0.046322
-0.089850
-0.042042
0.013971
0.014013
0.071132
-0.012949
-0.018037
-0.150564
0.009671
-0.110254
-0.015287
-0.082717
-0.018309
-0.160239
-0.116793
-0.138658
-0.130123
-0.032305
-0.152557
-0.124915
-0.158252
-0.020377
-0.174567
-0.101940
-0.057828
0.032705
0.048798
-0.142843
-0.030064
0.168094
0.090503
0.071186
0.309483
0.262274
0.127835
0.106199
-0.080938
-0.434811
-0.042290
0.059529
0.003581
0.024552
0.066256
0.050968
0.114294
0.068420
0.042608
-0.017225
-0.070667
0.085780
-0.111948
-0.121187
-0.070912
-0.112955
-0.179030
-0.115056
-0.171329
-0.091659
0.049144
-0.068418
0.000538
0.048726
0.014240
0.065550
-0.048691
0.073835
-0.054445
-0.121959
-0.001473
-0.121239
-0.043065
-0.042772
0.006300
-0.057938
0.031597
0.040295
0.015876
0.020113
-0.042539
-0.093879
-0.017905
-0.040291
-0.052177
-0.107938
0.000430
-0.091766
-0.004905
0.036959
0.127246
0.031039
0.136342
0.113278
0.098092
0.105688
0.166309
0.139349
-0.047454
-0.060387
-0.065816
0.207433
-0.014953
-0.060643
0.228870
0.213894
0.187875
0.082083
0.090424
0.013378
0.083688
-0.044242
0.015075
-0.004888
0.139298
0.198323
0.131304
0.173913
-0.006769
0.095603
-0.038238
-0.025006
-0.101250
-0.045278
-0.031712
0.045156
-0.079615
0.050712
-0.080622
0.001980
0.045210
0.133098
-0.058416
-0.182464
-0.026356
0.163746
0.197111
0.122831
0.475417
0.413427
0.409207
0.349440
0.311414
-0.120490
-0.509851
-0.672208
-0.645631
-0.709445
-0.411939
0.116300
0.312474
0.151929
0.040769
-0.081670
-0.225159
-0.046938
0.047214
-0.016986
-0.217501
-0.074461
-0.234028
-0.109605
-0.182501
-0.017647
-0.099870
-0.055064
-0.082356
0.055975
0.181896
0.171271
0.017214
0.095066
0.063123
-0.062122
-0.083622
0.010842
0.121730
0.173727
0.113768
0.225872
0.126148
0.105889
0.029815
0.178780
-0.049512
-0.216451
-0.066774
-0.030323
-0.111334
-0.264441
-0.279636
-0.152044
0.063297
-0.217332
-0.120364
0.108522
0.092101
0.041624
0.086269
0.061571
0.051074
0.098395
0.144261
0.099323
0.259220
0.109161
0.120396
0.216035
0.151505
0.144819
0.421342
0.422640
0.361080
0.331140
0.174012
-0.172643
-0.372419
-0.382900
0.009203
-0.681731
-0.886590
0.613280
0.134917
-0.095066
-0.123269
0.002546
-0.042937
0.097393
0.004098
-0.103312
-0.037983
0.001608
-0.029714
0.084114
0.055211
0.008036
-0.046803
-0.128876
-0.034121
0.012512
-0.005098
0.009408
-0.005404
0.061018
-0.088840
-0.240004
-0.011515
0.146776
0.234778
-0.207571
-0.147610
-0.063996
0.094387
-0.013337
-0.190830
-0.098411
0.068400
0.111813
0.081450
-0.109394
-0.077542
-0.183007
-0.059487
0.028687
0.084117
0.155176
0.070881
-0.094775
-0.124742
-0.487449
-0.824142
-0.374900
1.013857
2.718800
2.447817
-0.349247
-2.641338
-0.976516
1.966425
-1.395248
-0.454265
0.202720
0.169543
0.242286
0.255035
0.146989
0.283967
0.232845
0.090954
-0.023877
-0.050700
-0.177971
-0.153748
-0.225231
-0.266533
-0.324913
-0.390068
-0.462685
-0.276566
-0.311024
-0.290457
-0.181429
-0.208693
-0.295852
-0.081648
-0.061463
-0.045964
-0.024804
0.004660
-0.034646
0.066446
0.107233
0.091442
0.209208
0.088184
-0.020272
-0.013703
0.098401
0.159043
0.018382
0.056446
0.211836
0.074291
0.094260
0.202789
0.147746
0.143629
-0.013323
0.025711
0.270814
0.245764
0.098409
0.221702
0.499285
0.460966
-0.114937
-0.492119
0.491278
1.424621
-1.597741
-0.173421
-0.342810
-0.104693
-0.122087
-0.080101
-0.039561
-0.079311
-0.071519
0.024355
-0.060440
-0.014488
0.006863
0.029291
0.038117
-0.013377
-0.068369
-0.063288
0.007360
-0.003075
-0.036944
0.039747
0.067658
-0.004791
0.009501
0.087192
0.207313
0.090860
0.134912
-0.009763
0.035517
-0.131441
-0.011212
0.041047
-0.016806
0.008023
-0.116417
-0.263431
-0.054415
-0.137111
0.092577
0.105024
0.425817
0.447624
0.235680
-0.138337
-0.376286
-0.586590
-0.603135
-0.395124
-0.124647
0.240330
0.437877
0.589330
0.484442
0.002561
-0.182831
-0.087245
0.276312
0.061454
0.230920
0.381088
0.231558
0.154142
0.222277
0.149213
-0.040941
0.035953
-0.016048
0.060457
0.032928
0.044225
0.017264
0.006174
-0.003710
0.011108
0.131569
0.067166
-0.100274
-0.050491
0.093400
0.173019
0.020770
0.114910
-0.075474
-0.128568
-0.072394
-0.031204
0.035860
-0.003256
-0.118351
-0.063453
0.000535
-0.043706
-0.078925
-0.124238
0.002948
-0.118308
-0.112858
-0.060623
-0.036902
-0.170886
-0.123259
-0.175258
0.007623
0.006171
-0.074600
-0.093019
-0.045437
-0.097185
0.064565
0.082213
0.052115
-0.038114
-0.033659
-0.009415
0.092482
0.144814
0.062700
0.036019
-0.080734
-0.058069
-0.036720
-0.086432
0.059959
-0.124506
-0.009535
-0.183519
-0.182375
-0.069677
-0.148414
-0.101541
-0.107898
0.027788
0.000024
0.016319
-0.087082
0.083464
-0.040846
0.082049
-0.026240
-0.104585
0.017006
-0.005588
-0.117899
-0.120500
-0.123470
0.021469
-0.001969
0.135797
0.148477
0.130498
0.005187
-0.102932
-0.017019
-0.118948
-0.229548
-0.234604
-0.275351
-0.107509
-0.015312
-0.108982
0.040453
-0.049399
-0.071409
0.032362
-0.017039
-0.045717
0.028898
0.149490
0.044159
0.221271
0.164885
0.307362
0.247580
0.274808
0.113221
0.216252
0.078417
0.045159
-0.037198
-0.103208
0.203682
0.227509
0.240615
0.260790
0.136723
0.028363
-0.022091
0.010027
-0.080746
-0.005944
-0.095109
-0.037021
-0.271481
-0.115979
-0.175329
-0.045778
-0.005480
-0.000376
-0.159918
-0.247627
-0.370242
-0.227866
-0.075303
-0.042145
-0.032005
0.207977
0.306611
0.276648
0.378963
0.251370
0.495826
0.399735
0.115719
-0.216044
-0.241936
-0.253259
-0.437766
-0.410484
-0.475939
-0.236122
-0.032013
0.063293
0.121352
-0.069533
-0.081993
-0.224415
-0.352966
-0.213678
-0.095311
0.023691
0.055791
0.197119
0.263495
0.174990
0.098880
0.242760
0.062674
0.073789
0.294336
-0.030605
0.541393
0.235483
-0.015710
0.073212
0.045611
-0.062020
0.009848
0.141336
0.222467
0.053257
0.062184
0.143373
0.161761
0.137065
0.126826
-0.024950
-0.080998
0.077744
0.016384
0.015130
0.069727
0.075524
0.037709
-0.140685
-0.117465
-0.329275
-0.116161
-0.261985
-0.287992
0.001835
0.191450
0.486706
0.164785
0.410884
0.567227
0.400181
0.100697
0.077445
0.146147
-0.401935
-0.559897
-0.996891
-0.557560
-0.090186
0.008697
-0.168286
-0.128774
-0.025836
-0.096564
-0.159675
-0.170412
-0.073439
0.187778
0.389080
0.414154
0.122991
0.082011
0.112533
0.025746
-0.299760
0.179669
0.188556
0.025657
0.112398
0.081691
-0.008964
0.173500
0.139242
0.203481
0.049807
0.043992
0.010435
0.151460
0.050222
0.132305
0.115598
0.054047
0.035376
-0.142481
-0.350681
-0.417357
-0.357498
-0.074559
-0.091140
0.036163
0.264561
0.469001
0.436026
0.277627
0.198392
0.222665
0.059109
-0.075743
-0.001346
-0.079775
-0.236551
-0.257666
0.074556
0.228395
-0.140389
-0.388851
-0.469707
-0.450422
-0.257151
-0.117691
-0.085141
0.075512
0.301512
0.384564
0.577511
0.605132
0.320943
0.176434
0.042332
-0.346120
-0.437877
-0.099441
0.155986
-0.505377
0.102907
0.391501
-0.001255
-0.184231
-0.185825
0.006870
-0.021694
0.079106
0.118473
0.052350
-0.123281
-0.189978
-0.026572
-0.106370
0.125904
0.078598
0.082414
0.050226
-0.124251
0.022005
0.035946
0.010488
0.196106
0.069806
0.048733
-0.199068
-0.036036
-0.163376
0.174534
0.138012
0.390650
0.437189
0.292665
-0.342814
-0.617927
-0.571030
-0.510661
-0.541787
-0.624679
-0.586562
-0.786579
-0.694190
-0.497165
-0.153552
0.024853
0.132885
0.053270
-0.081757
-0.071710
0.197804
0.436383
0.548761
0.708767
0.697552
0.532684
-0.009750
-0.333189
-0.151362
0.500972
-0.157177
-0.554546
0.394103
0.157929
0.053692
0.072479
-0.061848
-0.196575
-0.136654
-0.011808
-0.043396
0.014201
0.108123
0.249065
0.127823
-0.064035
-0.144624
-0.196255
-0.190480
-0.050148
-0.001572
0.017320
0.024955
0.179524
0.150586
0.030783
-0.286081
-0.020077
-0.037696
0.046830
-0.248540
-0.167521
0.131238
0.450632
0.148841
0.418751
0.454226
0.111474
-0.633677
-0.461676
-0.327427
-0.298016
-0.650821
-0.804559
-0.501925
-0.370302
-0.454458
-0.530877
-0.369857
0.017483
0.233983
0.154834
-0.374035
-0.792097
-0.355583
0.480257
0.975648
0.915514
0.634822
0.889079
0.223555
0.510550
0.380382
0.338240
0.280231
0.217800
0.169287
0.161918
-0.012336
0.102698
-0.131094
-0.119495
-0.282917
-0.250148
-0.088323
-0.180365
-0.072697
-0.044196
-0.078956
-0.098886
0.022156
0.022308
0.119217
0.131175
0.013794
-0.052419
-0.095215
0.043259
-0.000155
-0.097906
0.016223
-0.115169
-0.010327
-0.065214
-0.178502
-0.182934
-0.204310
-0.190851
-0.117445
-0.031128
-0.010444
0.115360
-0.131552
-0.107422
-0.092066
-0.022396
-0.096919
-0.251490
-0.368920
-0.264238
-0.237900
-0.311061
-0.009922
0.164728
0.166042
-0.085759
-0.173254
0.124452
0.019985
-0.055366
0.539594
-0.964658
0.240908
0.374258
0.286181
0.363216
0.195888
0.201460
-0.023316
0.056291
0.221678
0.237840
0.209612
0.160013
0.108245
-0.013396
-0.039809
0.084226
-0.084048
-0.131168
-0.189281
-0.363933
-0.480169
-0.519255
-0.360183
-0.351453
-0.548822
-0.605194
-0.387908
-0.274363
-0.428901
-0.348010
-0.295499
-0.046292
-0.178405
0.055776
0.173539
0.271763
0.002608
0.287735
0.188620
0.589369
-0.373245
0.261767
0.243813
0.044228
0.238577
0.232935
0.387797
0.193570
0.061338
0.039230
0.215820
-0.090468
-0.208285
0.021870
0.167604
0.192773
0.109218
0.187284
0.069337
-0.024881
-0.002438
-0.021929
-0.007266
-0.157032
0.028185
0.117246
0.095417
-0.086010
-0.105346
-0.035544
0.005078
-0.010068
0.020535
-0.009681
0.008802
0.040218
-0.000531
0.076706
-0.071664
-0.017795
-0.037373
0.082393
-0.090650
-0.069961
0.007870
-0.006502
-0.023591
0.184705
0.105731
-0.051450
0.009718
-0.004017
0.074904
-0.087246
0.044329
0.023167
0.205465
0.004198
-0.014254
-0.033179
0.047640
-0.003541
0.080024
-0.071650
0.071352
-0.127588
-0.253263
-0.630377
-1.064007
-1.164018
-0.862342
-0.201867
0.831618
1.679090
1.269404
-0.078717
-1.211310
-0.637256
1.156312
0.782385
0.849252
0.489419
0.354099
0.137096
-0.030816
-0.223506
-0.213102
-0.218778
-0.343547
-0.356711
-0.423263
-0.320301
-0.219480
-0.333463
-0.153259
-0.302959
-0.298659
-0.470625
-0.586997
-0.704786
-0.579762
-0.469211
-0.238460
-0.270579
-0.453175
-0.083528
-0.001939
0.299118
-0.094055
0.062680
0.293888
0.540769
0.315364
0.369552
0.268385
0.235045
0.011075
0.277464
0.219830
0.352736
-0.238401
0.255468
0.246500
0.165653
0.143572
0.258105
0.187559
0.092074
0.020590
0.096882
0.016564
-0.076776
0.031139
0.160808
-0.114712
-0.121164
0.105844
0.543847
-0.118903
-0.220394
0.105282
-0.023151
-0.120583
-0.055673
-0.040694
-0.162169
-0.130476
0.028035
-0.007470
0.163545
0.185917
0.235370
0.318485
0.323066
0.499272
0.277500
0.204401
0.060120
-0.167609
-0.426566
-0.395016
-0.346185
-0.250560
-0.319015
-0.315530
-0.028993
-0.042293
0.136638
0.135810
0.244638
0.297638
0.060341
-0.372007
-0.111350
0.059079
-0.285934
-0.512102
-0.261975
0.038205
0.146801
0.060241
-0.101653
-0.047265
-0.155868
-0.208263
-0.354021
-0.167894
0.026544
0.232083
0.267009
0.106993
-0.102427
0.067645
0.081195
0.056804
0.057584
-0.043544
0.050932
0.624874
0.100385
0.041484
0.036308
0.077815
-0.035150
-0.047299
-0.015076
0.107634
-0.028239
-0.011409
-0.013269
0.025866
-0.067719
-0.022994
0.016124
0.010870
0.067068
-0.020980
-0.013587
0.029017
-0.094557
0.033563
0.055816
-0.061795
0.077192
-0.014346
-0.089588
0.090395
-0.063987
0.039453
0.001865
0.023606
-0.036604
0.025553
-0.021970
-0.030532
-0.089848
0.007493
0.024118
0.049782
-0.034553
-0.050870
-0.009573
-0.000525
-0.039844
-0.027274
0.079006
0.050099
-0.006884
-0.008542
-0.147698
-0.054115
-0.131660
-0.178715
0.007179
0.012299
-0.002780
-0.011492
-0.092231
0.090183
0.229398
0.135986
-0.062353
-0.096731
-0.051601
0.001463
0.195810
0.141641
-0.059742
0.023963
0.006121
0.094038
0.143547
-0.003212
-0.011468
0.146223
0.160965
0.204413
0.169846
0.071964
0.213180
0.138673
-0.000479
-0.040309
0.033370
-0.017360
-0.064596
-0.127543
-0.122785
-0.132178
0.028903
-0.125553
-0.092617
-0.060695
0.018327
-0.122896
-0.075389
-0.052575
-0.146834
-0.185924
-0.234240
-0.174707
-0.149943
-0.340556
-0.271385
0.054859
-0.052858
-0.152400
-0.223947
0.053756
0.245276
0.142277
0.156617
0.286200
0.684013
0.593809
0.175877
0.064618
0.027405
-1.083226
0.034097
-0.085534
0.020431
-0.074944
0.016876
0.077709
0.006093
-0.036954
-0.052697
0.000629
-0.020325
-0.014794
0.101216
0.045042
-0.098536
0.079918
-0.072178
0.064691
-0.118130
-0.029736
0.030186
-0.045158
-0.073259
0.012390
0.077308
-0.079593
-0.112791
-0.137438
-0.088396
0.043150
0.006656
-0.020832
-0.025897
-0.024810
-0.004625
0.072573
0.035371
-0.001629
-0.058355
0.022531
-0.042466
-0.074092
-0.086872
-0.008001
-0.023201
-0.072433
-0.084739
-0.042369
-0.001225
0.090926
0.040934
0.138272
0.014277
0.171411
0.167298
0.035027
0.027456
0.012499
-0.036003
-0.025705
0.176829
0.045179
0.088831
0.101497
-0.038404
-0.050111
0.041365
0.051116
-0.020402
-0.010428
0.033873
0.003462
0.117557
0.080488
-0.035736
0.046935
0.013641
-0.150247
-0.071489
0.059341
-0.062313
-0.042492
-0.047981
0.077108
-0.054990
0.006413
0.076528
0.116983
0.140516
0.268407
0.206422
0.246805
0.223852
0.137919
0.056464
0.062416
0.108933
-0.068673
-0.145998
-0.190878
-0.016012
-0.212780
-0.119527
0.026374
0.054279
0.005713
0.092351
0.146901
0.129384
-0.124587
-0.392820
-0.519121
-0.495563
-0.340824
-0.315365
0.032137
0.175889
0.021073
-0.248489
0.120190
0.179062
0.135648
0.065154
0.133954
0.094592
-0.059848
0.110194
0.030477
-0.007606
0.077006
0.111995
0.221832
0.083772
0.146157
0.108972
0.167674
0.092629
0.050383
0.080679
-0.003537
0.136742
0.007902
-0.042093
-0.018596
-0.091049
-0.064753
-0.080618
-0.193631
-0.102845
-0.173479
-0.159519
-0.272741
-0.165466
-0.196339
-0.323089
-0.320487
-0.295537
-0.112056
-0.139640
-0.157405
-0.004593
-0.031432
-0.022136
0.062786
0.076134
0.172469
0.151273
0.252787
0.269052
0.077911
-0.151511
-0.213994
-0.095628
-0.077132
-0.105167
-0.071800
-0.000885
0.100158
0.169092
0.001153
0.470387
0.171798
0.070910
-0.033210
-0.056286
-0.237213
-0.175458
-0.301919
-0.146636
-0.142546
-0.177570
-0.090847
-0.142989
-0.217975
-0.126659
-0.289264
-0.272880
-0.265893
-0.162079
-0.182501
-0.121991
-0.025756
0.023666
-0.056450
0.112676
0.079839
0.067300
0.011038
0.153052
-0.004393
-0.027428
0.122897
-0.043100
0.045114
-0.056994
0.018491
-0.067299
0.009388
0.025774
-0.091147
-0.081500
0.093800
0.048261
0.036191
0.051280
0.068747
0.233718
0.174369
0.093643
0.075838
0.066766
0.188445
0.156285
0.131075
0.059252
0.014714
-0.196185
-0.013490
0.109027
-0.059544
0.385348
0.105255
0.121370
0.030720
0.122930
-0.055660
-0.117190
-0.149808
-0.104689
-0.225005
-0.318089
-0.217829
-0.215095
-0.198278
-0.187718
-0.108375
-0.232702
-0.140836
-0.005822
-0.023091
0.021582
0.123657
0.074203
0.012668
0.028342
0.072413
0.119232
0.034930
0.103065
-0.035599
0.126013
0.147709
0.059825
0.083814
0.151058
0.226350
0.267778
0.168664
0.321614
0.233530
0.272093
0.173677
0.207638
-0.104648
-0.198380
-0.274862
-0.380527
-0.446818
-0.192098
-0.091375
-0.033090
0.052885
0.064444
0.166241
-0.052195
-0.067078
0.081329
0.031579
-0.216321
0.390399
0.021280
-0.004565
-0.001820
0.043430
-0.047262
-0.082182
0.000908
-0.091804
-0.175247
-0.159640
0.008306
-0.085742
0.072337
0.040326
0.103502
0.015952
0.103503
0.050071
-0.045459
0.039172
-0.059269
-0.123351
-0.000059
0.037162
-0.032094
0.029002
-0.066903
-0.001251
-0.041740
0.093311
0.007625
-0.019089
0.139292
0.038844
0.118320
0.017357
0.055136
0.005313
-0.110079
-0.111210
-0.017788
-0.026534
-0.000213
0.029818
0.050066
-0.002517
0.034314
-0.106040
-0.026730
0.105786
0.150306
0.145275
0.038812
0.130144
0.145870
0.132755
0.075701
0.040719
0.085722
-0.156653
-0.217209
0.284887
-0.036727
0.012197
-0.082804
0.027657
-0.101870
-0.112506
0.026957
-0.055119
-0.137650
-0.161124
-0.094178
-0.088360
-0.050229
-0.019403
0.245840
0.309935
0.440642
0.530645
0.471813
0.437427
0.425633
0.222654
-0.070776
-0.285128
-0.673691
-0.531113
-0.592684
-0.386588
-0.064931
-0.004118
-0.027399
-0.210742
-0.009276
0.121284
-0.150784
-0.387114
-0.054292
0.151368
0.166594
-0.225216
-0.021169
-0.009325
-0.069108
-0.189667
-0.087223
-0.135850
-0.205833
0.088310
0.148941
-0.047187
-0.262871
0.024584
0.333522
0.360416
0.068368
0.054134
0.504904
0.273205
0.712965
0.044175
-0.211194
-0.026406
0.145162
-0.035764
-0.001928
0.101332
0.123321
0.020529
0.092490
-0.037046
0.111295
0.124080
0.184941
0.082749
-0.087435
-0.020980
0.089030
0.011324
0.132710
0.148236
0.025418
-0.015786
-0.069962
-0.065985
0.010155
0.216501
0.118420
0.005376
-0.137660
0.060199
0.126936
0.082736
-0.071788
-0.046153
-0.034728
-0.138735
-0.154541
0.114098
-0.021382
0.081804
-0.100446
-0.094530
-0.018934
0.019948
-0.163469
-0.188975
0.023989
0.095383
-0.048982
0.183805
0.498703
0.671071
0.598242
0.569994
0.425253
-0.306738
-1.584533
-1.729759
0.039999
0.164589
-0.012657
-0.003597
0.225070
0.096183
0.029145
-0.055452
0.018936
-0.045977
0.100355
0.122037
0.124362
0.061742
0.139145
-0.003070
-0.106540
-0.006122
-0.158211
-0.084061
-0.030856
-0.019568
0.175819
0.196240
0.152871
0.144877
0.315461
0.049193
-0.105726
-0.186071
-0.312982
-0.406166
-0.376608
-0.417744
-0.406149
-0.609711
-0.680002
-0.454402
-0.043268
0.202742
0.327749
0.429331
0.101096
0.107430
-0.078216
0.080922
0.032389
-0.029607
0.051598
0.029048
0.213723
0.333659
0.337834
0.539061
0.453702
0.001875
-0.258042
0.077815
0.557028
-1.154243
-0.029455
-0.008356
-0.059247
-0.054810
-0.090513
0.023552
0.020412
-0.132474
-0.037268
-0.012565
0.002790
-0.007038
0.023159
-0.046595
-0.078205
-0.050121
0.051521
0.003906
0.025841
-0.130266
-0.033021
0.022978
-0.139982
-0.125733
0.001656
0.027456
0.033821
-0.060609
-0.064698
-0.075448
-0.063192
-0.075027
0.022496
-0.024025
-0.130319
-0.016479
0.030940
-0.097764
-0.211283
-0.161922
0.047271
0.097746
-0.226145
-0.277766
-0.295084
-0.488584
-0.507915
-0.505082
-0.280104
-0.089570
0.084698
0.410943
1.073012
1.503226
1.260437
0.389176
-0.177467
-0.252645
0.128331
0.375106
-0.615394
-0.020297
0.105308
0.316441
0.240738
0.251348
0.140618
0.130720
0.146999
-0.013255
-0.107828
-0.316184
-0.369005
-0.423357
-0.368916
-0.110772
-0.063094
0.024733
-0.035461
0.056791
-0.060188
-0.053933
-0.103330
-0.045513
-0.099078
-0.259003
-0.011733
0.029616
0.022990
-0.005352
0.089035
0.087434
0.152449
0.025621
0.143198
0.035906
-0.117874
-0.261554
-0.084992
0.023186
0.084384
0.118085
-0.044068
0.058520
-0.113764
0.060208
0.021191
0.142384
0.061635
0.224698
0.142512
0.164012
0.191792
0.189582
0.187251
0.068340
-0.071438
-0.016104
0.020272
-0.163658
-0.375372
-0.097521
-0.020145
-0.043514
-0.108914
-0.220201
-0.168243
-0.143362
-0.105524
-0.080440
-0.166919
-0.096898
-0.069819
-0.115825
-0.008263
-0.002638
0.045854
0.121237
0.017515
-0.021479
0.110341
0.031328
0.093840
0.158193
0.241015
0.106760
0.228633
0.242787
0.218063
0.267478
0.102483
0.206029
0.100326
-0.222217
-0.126225
-0.026550
-0.114398
-0.169374
-0.096848
0.040519
-0.009413
-0.058651
-0.214381
-0.261667
-0.321247
-0.199416
-0.313959
-0.090632
-0.011742
0.282757
0.253121
0.032052
-0.000872
0.133914
0.538864
0.414452
0.137512
0.086628
0.247038
-0.482798
-0.002875
0.029504
-0.089092
-0.009423
0.163169
0.180443
0.032765
-0.015742
-0.114705
-0.108840
0.006624
-0.080980
0.021140
-0.174000
-0.003647
0.095216
0.107535
0.095253
0.038841
0.060167
0.112225
0.185989
0.144822
0.157809
0.125230
0.036981
0.145277
-0.026395
0.082064
-0.065776
-0.070401
0.013329
-0.139343
-0.041565
-0.135662
-0.197145
-0.395595
-0.611249
-0.557374
-0.509699
-0.299156
-0.049527
0.104945
0.253904
0.275885
0.250506
0.256864
0.108557
0.043632
0.055608
0.338477
0.237310
0.194916
0.230056
0.000038
-0.079876
-0.206337
0.039390
0.472804
-0.443456
-0.154213
-0.008042
0.070452
-0.010457
-0.086671
0.023502
0.131287
0.064700
0.004633
-0.071047
0.023644
-0.048362
-0.060868
0.031937
-0.048060
0.064141
-0.002639
0.056306
-0.053561
-0.113379
0.094805
0.118046
-0.120660
-0.027587
-0.171337
0.302988
0.140160
-0.162923
-0.399935
0.083828
0.283716
0.070049
-0.354755
0.176288
0.033289
-0.445727
-0.419027
0.215004
0.042161
-0.464064
-0.309827
0.138293
0.126747
-0.186063
-0.385880
-0.067135
0.101625
0.058794
-0.003577
-0.113087
-0.065780
-0.125247
-0.158855
-0.066286
0.316801
1.107955
1.572484
0.557524
-0.842306
-0.166147
-0.147063
0.017221
-0.076253
-0.102076
-0.063250
0.329917
0.292002
0.010406
-0.324095
-0.265749
0.025737
0.009618
0.122357
0.240516
0.075608
0.020571
-0.140607
-0.140247
-0.123315
0.036056
-0.047445
-0.024537
0.082146
0.029036
-0.371490
0.094803
0.135074
0.036265
-0.311302
-0.087532
0.267495
0.104304
-0.891425
-0.020160
0.641346
0.105564
-0.428782
0.278973
0.178165
-0.297315
-0.808483
1.025319
0.884163
-0.470086
-1.272113
-0.072306
1.052117
0.232362
-0.850928
-0.104693
1.020124
0.756989
-0.700597
-1.123043
-0.368703
0.549853
0.418050
-0.274933
-0.418390
1.177613
-0.072546
0.148687
0.229684
0.216805
0.294285
0.162753
0.182359
0.223547
-0.036793
-0.234675
-0.414762
-0.412916
-0.378215
-0.483193
-0.240103
-0.117983
-0.049190
0.048290
0.074736
0.099274
0.142718
0.184855
0.202785
0.074066
0.121767
-0.090865
-0.215982
-0.234654
-0.182548
-0.198664
-0.286411
-0.084163
0.081209
-0.035431
-0.129486
-0.085829
0.058798
0.009750
0.043432
0.005402
0.061307
0.157417
0.115799
-0.002373
-0.059035
-0.007466
0.058654
0.017751
0.069600
0.070457
0.202600
0.085734
0.094345
-0.057352
0.012427
0.054290
0.140623
0.111443
0.278306
0.178946
0.191595
-0.194028
-0.056550
0.042844
0.013967
0.002949
-0.039911
0.137415
0.038693
-0.134948
-0.140674
0.032577
0.072019
0.067289
-0.023433
0.058616
-0.108849
-0.008554
-0.043986
0.051632
0.116524
-0.041027
0.024911
0.002864
0.026857
-0.034685
0.020937
0.023546
-0.202902
0.041818
0.152927
0.024679
-0.040514
0.053834
0.031694
-0.023638
-0.006355
-0.086059
-0.118669
0.073759
-0.007457
-0.094901
0.136322
0.282222
0.086214
0.098018
0.329572
0.444585
0.013382
-0.610832
-1.100667
-0.442161
0.635495
1.098815
0.177098
-0.831355
-1.368628
-1.569060
-0.743867
3.577868
-0.018591
0.384910
0.049641
-0.033470
0.016737
-0.005916
-0.016000
0.083260
0.158920
-0.027195
0.034475
-0.073948
0.160836
0.075308
0.023765
-0.038381
0.047885
0.040858
0.008906
-0.031061
0.002192
-0.150526
-0.028013
0.040614
-0.121739
-0.158140
-0.115628
-0.057311
-0.128503
-0.307472
0.003726
0.213897
0.237981
0.164225
0.052512
0.046152
-0.027652
-0.093695
0.048443
0.059861
0.070391
0.290145
0.216800
0.348119
0.332687
0.206612
0.071940
-0.037903
-0.137775
-0.129580
-0.072355
0.217481
0.387102
0.687715
0.605447
-0.023996
-0.791919
-0.647649
-0.148893
-1.500307
0.177284
0.047533
-0.004882
0.174231
-0.003230
0.025858
0.008165
0.006335
0.082413
-0.051678
0.134797
-0.043891
0.020624
0.014076
0.151945
0.125392
0.107310
0.108108
-0.053342
-0.038656
-0.003332
-0.036057
0.013889
-0.098795
0.051864
-0.051289
-0.087561
-0.126918
-0.058468
-0.080957
-0.011612
-0.044481
-0.077445
-0.053284
0.084516
0.165359
0.105999
0.269912
0.275241
0.208615
0.212532
0.227863
0.105241
-0.041378
-0.177198
-0.025863
-0.053236
-0.022123
0.029208
-0.107772
-0.218354
-0.331302
-0.452665
-0.354405
-0.299172
-0.072093
0.154914
0.053714
-0.094454
-0.059379
-0.027149
-0.201635
0.107561
0.118644
-0.107925
-0.073799
0.141918
-0.022059
-0.008412
-0.011641
-0.011208
-0.004492
-0.013512
0.098943
0.073496
-0.075187
-0.091165
-0.070791
0.028206
0.016643
0.097811
-0.089630
-0.151159
0.161319
0.166802
-0.153473
-0.082912
-0.019674
0.007562
-0.004473
-0.040328
0.142284
0.041712
-0.166571
-0.048758
0.220766
0.009515
-0.074349
-0.088867
0.067231
0.171379
-0.157482
-0.102899
-0.003357
-0.096782
-0.216590
-0.292843
-0.080258
0.689400
1.239943
1.516316
0.605339
-1.658194
-3.395030
-2.219834
1.624713
4.081656
1.837689
-2.514841
-1.134846
-0.216279
-0.021209
0.059293
0.167258
0.175234
0.036971
-0.152627
-0.325062
-0.456185
-0.482929
-0.458453
-0.251266
-0.114330
-0.002456
0.250246
0.229513
0.349823
0.116069
0.000715
-0.074225
-0.166127
-0.363174
-0.219588
-0.259007
-0.252754
-0.363929
-0.229982
0.027156
0.005930
0.006372
-0.185488
0.015980
0.047438
0.001753
0.052618
0.199605
0.139099
0.037957
0.129296
0.155867
0.113682
-0.044877
-0.050759
-0.128588
0.001126
0.109550
0.183464
0.172277
0.124541
0.144775
0.121630
0.244795
0.135499
0.120564
-0.046669
-0.113329
-0.209523
0.037034
0.527046
-0.219081
0.134879
-0.146737
-0.191754
-0.221536
-0.214805
-0.339154
-0.268612
-0.197316
-0.103473
-0.076136
0.095157
0.095713
0.055807
0.131132
0.162956
0.102052
0.039102
0.068857
0.114878
0.119065
-0.024905
0.078914
-0.076409
0.092767
0.056226
-0.051316
0.049040
0.074318
0.051991
0.045621
-0.007960
0.026869
0.035013
0.035113
-0.024371
0.091592
-0.036682
0.033169
-0.016901
0.092755
0.011670
-0.051501
-0.076101
-0.003599
-0.096290
0.008220
-0.077523
0.044057
-0.023032
-0.146425
-0.134444
-0.177237
0.030421
0.127976
0.055846
-0.067398
0.053543
0.024287
0.137447
0.507405
0.005063
0.225142
0.003673
-0.066898
0.078829
0.062687
0.119336
0.048260
0.003849
-0.013103
-0.008669
0.062649
0.120743
0.039040
0.128967
-0.077175
0.019488
-0.003386
0.071476
0.103307
-0.039618
0.028653
0.033010
0.043942
0.105130
-0.147455
-0.106507
-0.078969
-0.146152
-0.272485
-0.240489
0.055797
0.250282
0.048207
-0.024267
0.058349
-0.151085
-0.247553
-0.120050
0.144229
0.235906
-0.055264
0.231709
0.524751
0.651763
0.613335
0.458333
0.372048
0.418638
0.008083
-0.369307
-0.316720
-0.635109
-0.719530
-0.576743
-0.097438
0.182336
-0.026309
-0.365927
-0.422774
0.103444
-0.098895
-0.239499
-0.289417
-0.234686
-0.417248
-0.292685
-0.148238
0.032169
0.066236
0.188248
0.223499
0.133344
0.165777
0.128855
-0.020973
0.062043
0.018403
-0.075993
-0.049143
-0.109058
-0.127051
-0.091156
-0.040758
-0.111035
-0.128231
-0.157146
-0.053154
-0.097970
-0.085202
-0.149621
0.072451
0.165078
0.190053
0.128242
0.187429
0.044488
0.030794
0.060643
0.049312
0.105181
0.179327
0.018065
0.122965
0.064560
0.116148
0.018205
-0.036110
-0.014240
0.174920
0.206348
0.294575
0.121514
0.239878
0.252862
0.215444
0.105462
0.069119
0.183737
-0.539245
-0.535993
-0.161224
-0.300415
-0.310907
-0.364646
-0.644660
-0.512451
-0.440145
-0.220667
-0.133018
-0.038814
0.280329
0.298751
0.248299
0.088012
0.202001
0.238721
0.263578
0.294164
0.097910
0.055247
-0.088802
-0.118978
-0.041172
0.203151
-0.070896
0.307786
0.095247
0.086121
-0.156002
-0.230131
-0.128793
-0.033589
-0.312651
-0.198713
-0.154365
-0.020213
-0.008229
0.102244
0.118327
-0.069147
-0.155318
-0.101071
-0.001482
0.084223
0.236676
0.283706
0.107438
-0.081362
0.049824
0.228291
0.291931
0.176656
0.413144
0.512130
0.089734
-0.312868
0.161121
0.829365
-0.798382
-0.178946
0.481406
-0.146614
-0.178408
0.149106
0.254972
0.114831
0.104505
-0.059263
0.006564
-0.015849
0.042664
0.118101
0.049188
0.040182
0.067494
0.028268
0.012815
0.012750
-0.056201
0.070710
-0.004334
0.159797
0.244383
0.021413
-0.078569
-0.001033
0.237185
0.215661
-0.006266
-0.136425
0.079938
0.126433
-0.073582
-0.009729
0.053602
0.132914
0.130522
0.147021
0.290293
-0.022781
-0.098063
-0.145611
-0.089576
0.110766
0.093026
0.048934
0.036037
0.172335
0.682209
0.891729
0.857227
0.413283
-0.335123
-1.047144
-1.690204
-1.737510
-0.521463
0.786080
-0.173759
0.101181
-0.248803
-0.266021
-0.327884
-0.175721
-0.131553
-0.075278
-0.247308
-0.120028
-0.103664
-0.127451
-0.065735
0.096020
0.053446
0.274422
0.262906
0.159287
0.064300
0.108834
0.132294
0.115308
0.146708
0.045569
0.199657
0.062002
0.155614
0.231111
0.119692
-0.010894
0.003218
-0.110811
0.057585
0.094953
0.064396
0.257497
0.270922
0.252132
0.323865
0.305925
0.149756
0.092429
-0.091509
0.037278
-0.154775
-0.118297
-0.136273
-0.236898
-0.428639
-0.385300
-0.456564
-0.276948
-0.308371
0.099131
0.068854
-0.152711
-0.050259
0.125091
0.195922
-0.180254
0.700979
0.212636
0.363074
0.082669
-0.133652
-0.483717
-0.800745
-0.820462
-0.870200
-0.891606
-0.854431
-0.798673
-0.642486
-0.261022
-0.168133
0.147274
0.122295
0.301496
0.334298
0.351274
0.421962
0.247918
0.122686
0.061032
0.037836
0.053455
-0.292844
-0.049818
0.102593
0.324047
0.092619
0.135744
0.167720
0.351868
0.111343
0.249542
0.253312
0.222472
-0.017713
0.254194
0.237962
0.324362
-0.059526
0.244498
0.127034
0.026542
0.101680
-0.015988
0.000337
-0.044569
0.015247
0.278910
0.229534
-0.006913
-0.025985
0.116824
0.056829
-0.134970
0.194918
0.375786
-0.017156
-0.967940
0.116914
0.104573
0.110627
0.103917
0.304812
0.316137
0.297012
0.261128
0.351916
0.337174
0.258199
0.105353
0.013617
-0.103598
-0.248491
-0.428021
-0.304394
-0.334228
-0.327424
-0.278227
-0.200106
-0.154720
0.055436
0.050693
-0.108472
0.028572
-0.072305
0.070671
-0.231856
-0.213293
-0.161822
0.034255
-0.182398
-0.193470
-0.020701
0.131890
-0.058118
0.037168
-0.073495
0.088792
-0.083074
0.064036
0.003411
0.004441
-0.018785
0.037762
0.036576
0.000765
0.128156
0.226209
0.062467
-0.027418
0.044733
0.418352
0.331279
0.071471
0.058217
0.407479
-0.163188
0.344149
0.113512
-0.265394
-0.399843
-0.416488
-0.361603
-0.404326
-0.284560
-0.380787
-0.444106
-0.322054
-0.246036
-0.009860
-0.031020
0.062804
0.059008
0.058665
0.084653
0.099280
0.115086
0.146569
0.166265
0.138273
0.161518
0.056685
0.052710
0.048216
-0.005111
0.036328
0.038863
0.305856
0.340524
0.191769
0.137507
-0.039078
-0.005251
-0.051222
0.000956
0.021094
0.026002
0.087595
0.227781
0.167909
-0.147543
-0.017764
0.192066
0.206092
0.128632
0.115285
0.136143
0.356472
0.235287
0.267103
0.446826
0.315611
-0.161698
-0.409765
0.281169
0.935153
-1.932629
-0.128541
-0.825097
0.828963
0.948151
-0.486155
-0.900766
-0.056454
0.989697
0.146623
-0.582053
-0.380952
0.417837
0.357279
-0.088998
-0.185305
-0.023473
-0.159348
-0.027387
0.329659
0.241562
-0.401724
-0.501498
0.218367
0.627189
-0.198935
-0.575558
-0.031815
0.446783
0.395082
-0.334441
-1.058005
1.145675
0.382570
-0.967571
-0.289346
1.578822
-0.428410
-2.435412
1.642009
2.213361
-1.298815
-2.529923
0.428986
3.019976
0.418610
-2.972115
-1.133162
2.221891
1.736046
-1.031680
-1.820221
0.249272
1.637929
0.423378
-0.765191
-0.426603
0.599212
0.007719
-1.022169
0.676199
-0.214053
-0.099948
0.006757
-0.062434
-0.098744
-0.072629
-0.164320
-0.184847
-0.148436
-0.128376
-0.083502
-0.109256
-0.081603
-0.047521
-0.033474
-0.117325
-0.007568
0.074200
0.039561
0.151176
-0.008157
0.160774
0.211490
0.050936
0.202144
0.134516
0.093222
0.155638
0.170181
0.107044
0.178067
0.147378
0.014055
-0.069830
-0.028008
-0.018738
-0.132640
-0.094380
0.012484
-0.067662
0.038469
0.036649
0.029864
0.109981
0.131084
0.070628
0.233012
0.130635
0.079918
-0.070965
-0.277650
-0.242176
-0.161343
0.022663
-0.015066
0.173865
0.166156
0.135967
0.007342
0.310880
-0.498531
0.348119
0.678184
-0.393560
-0.830054
0.330321
0.905822
-0.096573
-0.782044
-0.162722
0.496452
0.289528
-0.140564
-0.300163
-0.163016
0.106695
0.308930
0.140934
-0.311565
-0.248432
0.142008
0.013125
-0.035562
0.011590
-0.036295
-0.102605
0.138553
0.224377
-0.494225
0.316541
-0.265471
-0.231568
0.477482
0.902998
-1.004452
-1.378071
0.600253
2.245875
-0.132240
-2.905388
-0.675908
3.424876
0.881332
-2.171427
-1.869128
1.096237
2.142915
-0.025313
-1.572917
-0.683561
0.698339
0.831175
0.106216
-0.253308
-0.078710
0.303853
0.566547
-0.357646
-1.506371
1.105846
-0.026562
-0.022277
-0.014194
-0.050398
0.088933
-0.022012
-0.094496
-0.054481
0.021412
0.090347
-0.018613
0.090620
0.033517
0.043600
-0.101701
-0.049701
-0.082159
0.049286
0.055220
0.083054
-0.036412
-0.018587
-0.029845
-0.085884
0.021729
0.016796
0.005598
0.019806
-0.070749
-0.065910
0.063581
-0.116826
-0.023415
-0.085067
-0.084927
0.018468
-0.081374
-0.074778
-0.028912
-0.049763
-0.089842
0.016582
0.092094
-0.046299
0.102269
0.134034
0.030841
0.040130
-0.049311
-0.016601
0.082913
0.008211
-0.048388
-0.103204
-0.083941
-0.032387
0.049407
0.064013
0.113827
-0.028948
-0.102918
0.023931
0.041046
-0.057615
-0.050363
-0.000630
0.022833
0.006550
-0.021281
0.118073
0.093548
0.034213
0.100934
0.007773
0.174458
0.092347
0.108495
0.118025
0.074487
0.152133
0.011309
0.007741
0.100865
0.065207
-0.053573
0.040604
-0.061029
0.134074
0.151268
0.118654
0.064690
0.043485
0.018615
0.009675
0.043551
-0.027028
0.075039
-0.050112
-0.030606
-0.036692
-0.094914
-0.095812
-0.073615
-0.138774
-0.025715
0.041776
-0.103311
-0.002319
-0.102984
-0.110193
-0.129023
-0.064294
0.016097
-0.098421
-0.002317
0.020609
-0.072219
-0.144410
-0.250224
-0.304600
0.710707
-0.033057
0.097639
0.270306
0.206605
0.043630
-0.033843
0.136643
0.190426
0.140323
0.154664
0.134266
0.117186
0.215400
0.129874
0.127926
0.100879
0.119820
0.061189
0.220291
0.138171
0.065253
0.032023
0.114529
0.111949
0.227527
0.158696
0.036512
0.068515
0.188600
0.191270
0.146101
-0.032886
-0.015519
0.048061
0.125937
0.045437
-0.083901
0.046969
0.066499
-0.081345
-0.217570
-0.112430
-0.164437
-0.257349
-0.410269
-0.517110
-0.361875
-0.294103
-0.190838
-0.343373
-0.241317
-0.214896
-0.379297
-0.137108
0.109047
0.053899
-0.145197
-0.180277
0.041336
-0.739341
0.456244
0.291547
0.033977
0.055594
0.076662
0.041110
0.025172
0.172669
0.185532
0.135547
-0.032402
0.029640
0.080527
0.247511
0.247074
0.290050
0.243599
0.201898
0.030355
-0.093054
-0.121109
-0.194691
-0.137894
-0.307220
-0.438180
-0.273959
-0.193529
-0.080228
-0.103255
-0.069310
-0.047114
0.003810
-0.230514
-0.111127
-0.246875
-0.223516
-0.238356
-0.011073
-0.017164
0.148553
-0.021709
-0.115841
-0.059726
-0.075974
-0.002951
0.133758
0.031517
0.062921
0.208753
0.294047
0.194839
0.028704
0.235906
0.367580
0.196325
-0.309908
0.176367
0.700314
-1.137904
1.425916
-0.795242
-0.605021
-0.080918
0.239770
0.093428
0.123687
0.099734
0.375708
0.347194
-0.073074
-0.814283
-0.597729
0.308720
0.887327
0.698449
-0.125561
-0.492238
-0.518531
-0.067651
0.284114
0.546786
0.218905
-0.251064
-0.208356
-0.059565
0.280248
0.197958
-0.116148
-0.416244
-0.210793
0.282737
0.527273
0.292848
-0.345145
-0.716295
-0.134043
0.346304
0.618871
0.270101
-0.067644
-0.791140
-0.703669
0.395904
1.388319
0.413492
-1.091185
-1.275883
0.210231
1.256782
0.359212
-0.833058
-0.520786
0.240559
0.285677
-0.197385
-0.287961
0.052517
0.183294
-0.782866
-0.116575
-0.249869
-0.097676
0.032390
0.131775
0.095715
-0.062784
-0.197940
-0.033860
0.120641
0.072681
-0.024147
-0.195495
-0.122799
-0.036394
0.184856
0.150913
-0.098256
-0.178542
-0.172255
0.019639
0.086180
0.054427
-0.034897
-0.245373
0.027552
0.031141
-0.072214
0.073342
-0.043633
-0.013276
-0.047904
-0.117328
0.124733
-0.053607
-0.186458
0.043148
0.050552
0.040325
-0.008519
-0.078359
0.071875
-0.054548
0.039735
0.279875
0.084307
-0.075261
-0.190349
-0.549165
-0.601328
0.216657
1.573160
2.056751
0.202161
-2.289606
-2.351020
0.420990
2.295410
0.796595
-1.332755
-0.159742
-0.132300
-0.266698
-0.006985
0.063282
0.087562
0.175137
0.053243
0.172003
0.076514
0.138247
0.003290
0.095430
0.219955
0.222118
0.279002
0.267656
0.337395
0.239080
0.236065
0.082846
0.111593
-0.125867
-0.154040
-0.275157
-0.164221
-0.167585
-0.043203
0.057268
-0.012878
-0.091983
-0.002472
-0.008483
-0.063261
-0.096867
0.029532
0.049563
-0.009773
0.042672
0.031389
-0.036964
-0.180582
0.003485
-0.025124
0.082092
-0.010328
-0.188835
-0.411487
-0.352671
-0.247135
-0.150861
0.077714
0.124356
0.290355
-0.079035
-0.174206
0.025206
-0.129870
-0.266026
0.412108
-0.035576
0.089990
0.047864
0.186626
0.136853
-0.024115
-0.085037
-0.020686
-0.248752
-0.242845
-0.381795
-0.281169
-0.385341
-0.403248
-0.448505
-0.458428
-0.230917
-0.252289
-0.026299
0.112033
0.231293
0.162839
0.182779
0.095169
0.198482
0.148337
0.123675
0.245336
0.149326
0.063467
-0.004996
0.028964
0.114972
0.062087
0.135157
0.186299
0.181199
0.094308
0.026579
0.170738
-0.037909
0.086638
0.049736
0.022576
-0.067370
0.042334
0.077629
-0.127172
-0.157092
-0.002444
0.163807
0.400984
0.516913
0.761389
0.692042
0.456586
-0.134354
-0.065419
0.264522
-1.420015
0.428071
0.373244
0.007215
-0.047410
0.165749
0.045752
-0.041153
-0.168321
-0.066145
-0.024569
0.039425
0.103490
0.080517
0.157116
0.137537
0.076826
0.099247
-0.010899
-0.030532
-0.269273
-0.136904
-0.036778
0.037468
0.183969
0.307974
0.194115
0.172912
0.172529
-0.146094
-0.436337
-0.794936
-0.440863
-0.233655
-0.192527
0.009070
0.134460
0.407935
0.313808
0.378570
-0.010041
0.059073
0.361084
0.367181
-0.224614
-0.695434
-0.581123
-0.471279
-0.357487
-0.254619
0.132673
0.197940
-0.098850
-0.289866
-0.261648
-0.239025
0.043089
0.245684
0.366480
0.232494
0.321141
-0.026679
-0.028172
-0.014844
-0.052099
-0.084712
0.017773
-0.004798
0.093371
0.107365
-0.036429
0.083871
0.081772
-0.041732
-0.020500
0.111097
0.021442
0.000051
0.087018
0.026866
-0.069413
-0.051926
0.140357
0.031312
0.092527
0.094641
-0.016803
0.058691
0.093786
0.028961
0.024349
-0.135934
-0.000583
0.050884
-0.081420
-0.090642
-0.097820
0.084564
-0.036242
0.137704
0.099661
0.088093
-0.005907
0.041997
0.023221
-0.090309
-0.206873
-0.141420
-0.061435
0.047150
-0.104774
-0.059118
0.073538
0.041275
0.097417
-0.054096
0.035234
0.049651
0.000748
-0.060468
0.134926
0.042395
0.091949
0.071437
0.052963
-0.040490
0.037688
0.075403
0.013231
-0.088044
-0.006591
-0.116052
-0.080197
0.026792
0.075533
-0.065133
-0.024197
-0.031799
-0.101835
0.049748
-0.001842
0.022941
-0.096218
0.012945
-0.052814
-0.082761
0.073569
0.058496
-0.072981
-0.034745
-0.120501
-0.066645
-0.049916
-0.041778
-0.062723
0.029452
-0.095671
-0.062698
0.029050
-0.082920
-0.055401
-0.096195
0.129068
0.127867
0.007615
0.134587
0.042421
0.183702
0.136470
-0.029833
0.015319
0.033233
0.049233
-0.007410
0.084556
0.062559
0.003884
-0.001709
0.015777
0.111417
-0.053195
-2.084077
-0.911697
-0.493055
-0.203444
0.244017
0.303120
0.224419
0.248976
0.179842
0.203567
0.049638
-0.009783
-0.086080
-0.008944
0.113198
0.182810
0.173414
0.167957
0.052357
-0.005662
-0.085661
-0.032268
0.035734
0.014971
0.095096
0.171165
0.092999
0.049340
0.092487
0.065182
0.115825
0.019774
-0.063428
0.044786
0.060115
0.139048
0.105322
0.168915
-0.025084
-0.076854
-0.122243
0.103004
0.022968
0.157901
0.247919
0.209646
0.112470
0.087589
0.020559
0.131998
0.193594
0.117474
0.087069
0.438081
0.440682
0.029842
-0.186453
0.297751
0.720486
-1.352959
-0.218482
-0.237474
-0.106708
-0.052720
-0.095359
0.021569
0.006167
0.042682
0.136777
0.127616
0.142872
0.098667
0.162139
0.142393
-0.019398
0.051616
-0.040063
-0.165632
-0.122707
-0.243870
-0.202093
-0.275492
-0.221646
-0.159312
-0.159353
-0.269124
-0.114307
-0.070506
-0.054411
-0.148019
0.029670
-0.063276
0.129106
0.075755
0.262218
0.309752
0.375309
0.233266
0.263346
0.207193
0.318000
0.262994
0.225253
0.143184
0.122535
0.204005
-0.033497
-0.178469
-0.546322
-0.346733
-0.192758
-0.110990
-0.095660
-0.176354
-0.221167
-0.027287
0.103505
0.294199
0.272255
0.273501
-0.344952
0.100266
0.216682
0.054000
-0.119992
-0.060701
-0.044493
-0.040152
0.049311
0.046156
-0.041282
-0.066648
-0.058403
-0.039131
0.035558
0.045619
0.046569
0.048086
0.077223
-0.173793
-0.055971
-0.082520
0.016765
0.019184
0.055237
-0.098474
-0.117721
-0.100249
-0.019889
-0.050592
-0.014534
0.015768
-0.167314
0.190168
-0.224004
0.100256
0.194292
0.363456
-0.559204
0.406490
0.206479
-0.115912
-0.680119
0.029260
0.509846
-0.342061
-0.988363
-0.317718
0.383328
-0.026757
-0.698813
-0.430780
0.135988
0.190824
-0.138775
-0.085818
0.226054
0.162141
-0.023655
1.521973
-0.156992
-0.051138
-0.137645
-0.081748
-0.134702
-0.023951
-0.066596
-0.038583
-0.010467
-0.083473
-0.119484
-0.004230
-0.106599
-0.144885
-0.003471
-0.081102
-0.022966
-0.071662
-0.090181
-0.055428
0.047105
-0.067212
0.021819
-0.072287
0.112319
0.071930
-0.081556
-0.114248
0.013501
-0.035720
0.065302
0.096275
-0.025834
0.034473
0.066605
-0.016384
-0.065650
-0.296245
-0.242877
-0.210945
-0.221303
-0.137912
-0.114007
0.002808
-0.074283
0.054386
-0.062283
0.019570
-0.023123
0.065007
0.075535
0.308876
0.199454
0.334950
0.556663
0.545118
0.390690
0.210193
0.315607
-0.115623
-0.569240
-0.222929
-0.021676
-0.019426
-0.003352
0.044175
-0.033110
-0.088723
-0.008957
-0.093252
-0.071129
-0.271956
-0.155838
-0.076090
-0.136567
-0.247572
-0.257552
-0.222071
-0.242129
-0.223261
-0.284592
-0.136810
-0.194059
-0.229687
-0.314860
-0.040780
-0.271159
-0.088205
-0.149106
-0.042677
0.000764
0.104336
-0.043044
0.040361
0.192196
0.040010
0.002360
-0.046307
0.077635
-0.006422
-0.060300
-0.018233
0.173434
0.044056
0.195768
0.168063
0.054814
0.140466
0.122850
0.235446
0.162123
0.167565
0.587760
0.624680
0.221588
0.071936
-0.011333
-0.021229
-0.170552
0.682999
-0.043438
0.031288
-0.009666
-0.001073
-0.013152
0.009209
0.020001
0.093804
0.082019
-0.083784
0.030658
-0.035706
0.027872
0.063831
0.078864
-0.039763
0.111155
0.026378
-0.015908
-0.060939
-0.109443
-0.078127
0.107522
0.216249
-0.058217
-0.109092
0.030595
0.156769
0.064844
-0.250787
-0.158733
0.087633
0.180871
-0.150099
-0.130765
0.226927
0.111397
-0.073710
-0.182748
0.067800
0.134188
-0.175807
-0.159094
-0.065117
0.096629
-0.120141
-0.020028
0.733020
1.284688
1.221435
0.448688
-0.074386
-0.713190
-1.200209
-1.156655
-0.357694
0.253405
-0.366512
-1.096198
0.769554
0.299904
-0.693544
-0.334129
0.453636
0.771149
0.035533
-0.685795
-0.439198
0.280479
0.502230
-0.016195
-0.265915
0.013995
0.228035
-0.027792
-0.215921
0.003645
0.048149
0.023633
0.073162
-0.092508
-0.154279
-0.093060
-0.041695
0.265518
0.340163
-1.052264
0.395908
-0.017217
0.729272
-0.867766
-0.042765
0.470770
-0.308656
-0.199850
0.602254
0.033872
0.500363
-2.334458
0.311640
2.362248
0.759965
-2.692078
-1.444937
1.793512
2.376783
-0.931883
-2.606329
0.032228
2.439316
0.665637
-1.730686
-0.832852
1.288162
1.078691
-0.450124
-0.578690
-0.019746
-0.142921
0.271167
-0.104620
0.456255
0.206366
0.098583
0.135423
0.195417
0.187510
-0.027928
-0.127080
-0.085340
-0.120853
0.039255
0.174872
0.170432
0.246056
0.301888
0.178505
0.307569
0.160999
0.113188
0.209312
-0.026811
-0.075314
-0.263190
-0.321136
-0.254878
-0.060172
0.038599
-0.174309
-0.713650
-0.895475
-0.812364
-0.546271
-0.668845
-0.669243
-0.500661
-0.405089
-0.327785
-0.125220
-0.307699
0.033207
-0.299823
0.263345
0.229630
0.115707
0.194121
0.406716
0.569753
0.470486
0.364458
0.330597
0.349451
0.330895
0.203708
0.059773
-0.174318
-0.082429
0.170603
0.560743
0.011405
0.022907
0.160451
0.094889
-0.041677
0.125841
0.119081
0.172294
0.058538
0.094367
0.116922
0.034539
0.130087
-0.024859
0.010143
0.070335
0.022917
0.023566
-0.033850
0.056388
0.013752
-0.029679
0.115635
0.095899
0.099623
0.074774
0.087337
0.112431
0.299069
0.062789
0.104360
-0.125980
-0.160382
-0.297195
-0.416624
-0.340133
-0.238941
-0.264956
-0.281650
-0.030982
0.082680
0.152034
0.030420
0.194592
0.274088
0.354127
0.209114
0.061863
-0.144370
-0.309466
-0.389481
-0.314375
-0.135704
-0.052746
-0.094567
-0.102410
0.021414
0.082953
-0.056858
-0.305804
0.197887
-0.058688
0.168966
0.235460
0.196895
0.234423
0.216449
0.265775
0.221449
0.226219
0.086085
0.026021
-0.100085
-0.272442
-0.342296
-0.393726
-0.268117
-0.122533
-0.016914
0.037466
0.014547
0.098493
0.044889
-0.115156
0.003472
-0.070173
-0.156359
-0.140553
-0.007173
0.032484
0.040629
0.026264
0.034203
0.021535
-0.153847
-0.054644
-0.001649
0.013910
0.009596
0.091045
0.224135
0.145470
0.157711
0.307790
0.167375
0.210836
0.097538
-0.084579
-0.126283
-0.207734
-0.133449
-0.020707
-0.051291
0.034191
0.041353
-0.100973
-0.027150
-0.146293
-0.237884
-0.178282
0.444811
-0.169650
-0.192740
-0.069094
-0.035803
0.019400
-0.049242
-0.133597
-0.013505
0.037838
0.090765
-0.022231
-0.085030
-0.028930
-0.086259
0.028704
-0.047526
0.004009
-0.073162
0.057442
-0.026439
-0.078080
-0.057373
-0.127709
0.025465
0.032986
0.026518
-0.041583
0.004565
-0.063381
-0.207889
-0.024544
0.061708
0.063695
0.083318
-0.078852
-0.023921
0.195249
0.046144
0.075378
-0.018530
-0.041916
0.191029
-0.092897
-0.077540
0.306915
0.294484
0.145778
-0.033475
0.223494
0.140989
-0.274337
-0.649168
-0.876379
-0.676937
-0.035200
0.277773
0.501475
0.332137
0.175374
0.523682
0.204910
0.119941
0.174944
0.224449
0.163515
-0.010149
-0.106226
-0.214598
-0.182038
-0.225100
-0.254618
-0.150521
-0.037811
0.072678
0.006163
0.078871
-0.001773
-0.027225
-0.044029
-0.172370
-0.140222
-0.165610
-0.236927
-0.194072
-0.158976
-0.292712
-0.190715
-0.182231
0.004078
-0.142593
-0.113561
0.050618
-0.080980
-0.115881
-0.063677
-0.033474
0.057876
0.128164
0.207651
0.198486
0.219926
0.194512
0.093403
0.075016
0.071171
-0.042400
0.076023
-0.160808
-0.235166
-0.011321
0.097194
0.127278
0.004471
0.136429
0.372205
0.288736
0.105814
0.005283
0.232422
-0.214844
-0.182954
0.111748
-0.053911
-0.004080
-0.010954
0.078270
-0.058006
-0.046992
-0.004962
0.015468
0.024425
0.093107
0.011322
-0.043226
0.062501
-0.003947
0.073814
0.076963
0.030435
-0.009709
0.032346
0.019719
0.083489
0.012448
0.110034
-0.091983
-0.056741
0.103094
-0.002320
0.118093
0.103277
0.154518
-0.027035
-0.151825
-0.108025
-0.001705
-0.007564
-0.034209
0.237122
0.224269
0.364736
0.285367
0.398978
0.263885
0.376009
0.110732
-0.069032
-0.311700
-0.451973
-0.430945
-0.308654
-0.219457
0.012592
0.042453
0.075360
0.118496
-0.137742
-0.309723
-0.454282
-0.442381
weigvec 606
0.276822
-0.298896
-0.263160
-0.986227
0.179230
0.980236
-0.514386
0.953465
-1.042119
-0.191119
-0.069769
0.834816
0.130400
0.007916
0.160104
0.258840
-0.203020
-0.217677
0.604161
-0.216975
-0.097256
0.401764
0.789325
-0.101713
-0.025148
0.683345
0.202373
0.089359
-1.161064
0.810992
-0.066754
-0.143662
0.337914
0.365857
-0.205898
-0.255341
0.104119
0.617756
0.498354
0.004718
0.183704
0.634666
0.111616
-0.067251
-0.090269
0.553328
-0.165294
-0.366697
0.551519
-0.206294
0.394951
0.100865
-0.632137
0.780361
-0.326592
0.487922
-0.623376
-0.150560
-0.933816
-0.182394
0.990008
-0.157076
0.368076
0.694520
-0.489845
0.251871
0.358998
-0.371193
-0.396451
0.042832
0.392461
0.272428
0.271857
-0.781429
-0.758320
0.461368
-0.218631
-0.123369
-0.220398
0.016411
-0.772611
-0.653421
1.085987
0.821673
-0.486004
0.464126
0.223676
-0.074724
-0.855502
0.447160
-0.915108
-0.375965
0.991576
1.502727
-0.768900
0.211096
0.550322
0.296005
0.444666
0.342892
0.108374
-0.250565
-0.523187
0.115097
0.891723
0.469283
0.306481
-0.193137
-0.294181
0.364816
0.073928
-0.093122
-0.122016
-0.120686
-0.167288
0.199035
0.110640
0.329966
0.113082
-0.042319
0.195325
-0.047304
0.096185
-0.382489
-0.191800
0.016250
-0.507900
0.052977
-1.126207
0.979737
-0.543534
0.041162
-0.102532
0.020428
0.147808
0.430583
0.620444
-0.165590
-0.078997
-0.014551
-0.346757
0.136794
-0.020760
0.025124
0.273678
-0.122571
0.179016
0.166328
-0.003281
-0.263602
-0.121578
-0.127082
-0.264627
0.413374
-0.986445
0.133032
-0.303818
0.407677
-0.838186
-0.693080
0.483776
-1.007957
0.161591
0.236244
1.448302
0.482987
-0.129663
0.856556
0.276212
0.635712
-0.669315
-0.558179
0.240841
0.454437
0.430856
-1.060346
0.168925
-1.444354
-0.085540
0.128158
-0.480436
0.438558
-0.483635
0.965233
-0.518071
0.261453
-0.150891
-0.185585
0.038623
0.491495
-0.265529
-0.728455
-0.125753
-0.603791
-0.791500
-1.220249
0.026225
-0.142610
-0.062878
-0.368510
-0.121636
0.018247
-0.317777
-0.249112
0.141263
-0.096030
0.049736
0.151952
-0.321957
-0.129186
-0.319184
0.206157
-0.160335
-0.422638
-0.112404
-0.197211
-0.188000
0.083609
-0.027109
0.296577
0.103852
0.098532
-0.347003
0.325720
0.580651
-0.563191
0.078227
0.328723
-0.311882
-0.095990
-0.768851
-0.122664
-0.173507
0.331424
0.192603
0.060391
-0.164572
-0.207683
-0.016984
0.169838
0.122076
-0.859898
-0.021028
0.021126
-0.071925
-0.222068
0.112451
-0.632070
-0.361782
-0.671069
0.424255
-0.009379
0.036283
1.027286
-0.129705
-0.297431
-0.270371
-0.261717
-0.201713
1.357193
-0.625899
-0.215330
0.509467
-0.251400
-0.263522
-0.033378
-0.147918
0.349323
-0.127213
-0.124210
-0.471004
-0.560400
0.370763
-0.062455
-0.435083
-0.192319
0.622787
-0.071186
0.821429
-0.170552
0.338696
0.029704
-0.506011
0.027936
-0.201654
0.336455
-0.092861
0.345405
0.173289
-0.148357
-0.083161
0.291551
0.595258
0.057632
1.002878
0.567810
0.621097
0.160984
0.229992
0.246041
-0.797007
-0.154421
0.427351
-0.307117
0.198503
-0.011395
-0.084841
0.182525
-0.213551
-0.139927
0.087085
0.290697
-0.066934
-0.417191
-0.332657
-0.143237
-0.111540
0.122454
0.378354
0.376227
0.093158
0.309982
0.385120
0.247586
0.146027
-0.241097
-0.398420
-0.282292
-0.028234
0.292885
-0.469405
-0.080613
-0.311249
-0.086498
-0.079800
0.099767
0.312327
0.384093
0.240359
0.097868
-0.158867
0.117769
0.401092
0.007463
-0.230321
0.100930
-1.085297
-0.148720
0.316396
0.395436
0.131449
0.073845
-0.071088
0.025949
0.418801
-0.394748
0.062666
0.296212
-0.389655
-0.003489
0.432325
-0.239585
0.167897
0.191278
-0.154693
0.000051
-0.340576
0.451091
0.066161
0.116392
-0.174011
0.176115
0.417906
-0.171693
0.173130
-0.124149
-0.076617
-0.321635
0.177810
-0.289322
0.105640
0.015058
-0.575455
0.199206
-0.035015
-0.770053
-0.019206
-0.077420
0.201492
-0.181245
0.056495
-0.011423
0.214932
0.042634
-0.217963
-0.331502
-0.123183
-0.519959
0.151820
0.075107
0.429967
-0.083793
-0.300454
-0.230162
0.920098
0.411960
0.151277
0.419539
0.308431
-0.982979
-0.237020
-0.479108
0.352409
-0.010867
0.479667
-0.444579
-0.230037
0.040442
0.192102
0.091036
0.775825
-0.087077
0.077824
0.254465
0.164786
-0.106371
-0.560676
0.584323
0.240540
0.746862
0.472380
1.220486
0.644319
-0.081691
-0.070199
0.207080
0.303154
0.453500
0.374632
0.236822
0.534829
-0.383389
-0.021764
0.790674
0.080055
0.360095
-0.164132
0.654884
0.116534
-0.353975
-0.270595
0.364817
-0.168797
0.242868
0.574215
-0.504156
0.615802
0.001774
0.708150
0.901405
0.471202
-1.394803
0.222722
0.443196
-0.521745
0.938686
-0.586023
-1.208802
0.580274
-0.491908
-0.102058
0.824329
0.570588
0.956797
0.010806
0.162211
0.687157
0.476087
-1.538035
-0.432486
-1.023646
-0.011796
-0.012582
0.206713
1.113668
-0.246657
-1.495750
-0.029880
0.613761
0.480633
0.126816
0.132955
0.250116
0.055586
-0.960264
0.818967
-1.222592
-0.487188
-1.287617
0.121833
0.111188
0.052040
0.214637
0.640677
0.333061
-0.539979
0.440511
-0.105192
0.021487
-1.087830
-0.269767
1.303843
-0.164510
0.293059
-0.086492
-0.140478
0.831337
0.256408
0.350329
-0.750840
-0.833696
-1.016178
-0.055730
-0.888839
-0.643772
0.189706
-0.673364
0.103091
0.652958
0.059850
-0.985785
-0.757988
0.354790
0.604938
0.318851
0.371618
-0.346188
-1.072784
-1.481174
-0.676811
-0.591252
-0.431158
-0.236221
-0.752786
-0.014141
-0.475552
-0.879501
0.052421
0.450050
0.100944
-0.136201
0.276228
0.406483
-0.323131
-0.069693
-0.884892
-0.840220
0.101800
0.560647
-0.570078
-0.349805
0.266378
0.388440
2.125042
-0.762016
-0.115736
-0.472150
0.234821
-0.323928
-0.626462
-0.176936
-1.038797
-0.313378
-0.646586
-0.329396
-0.177443
-0.647322
-0.949742
0.011811
3.146201
-0.195750
2.074661
0.017881
-0.073085
0.820049
-0.320832
1.578542
0.535992
-0.597819
-0.162101
-1.071010
0.141615
0.185228
0.169207
-0.672091
2.041417
-0.137653
0.253148
-0.651951
3.149831
-0.720333
-0.749378
-0.860980
0.361847
-0.204121
-0.619259
biasvec 101
-4.565372
-3.409994
-4.058826
-5.094209
-5.555761
-3.211362
-5.656597
-5.206203
-4.961267
-4.001679
-4.080091
-4.105361
-3.938177
-3.949757
-4.478950
-4.572093
-5.654410
-3.974238
-5.129480
-4.316717
-3.966515
-3.943857
-5.123534
-4.492122
-3.973037
-5.332214
-4.323455
-1.048908
-6.361202
-3.990098
-3.948124
-3.947318
-4.785470
-5.879710
-4.423042
-4.142693
-3.064955
-4.642078
-4.733189
-4.377649
-4.324673
-4.943269
-4.022907
-4.385575
-4.200322
-4.675535
-3.955318
-4.336053
-4.402254
-3.889097
-5.906984
-4.466078
-4.783330
-3.615716
-4.475228
-5.139744
-4.361058
-6.316656
-4.043004
-4.542463
-1.299452
-4.891929
-4.025668
-2.585903
-4.477788
-3.960293
-4.410293
-4.479329
-5.685868
-4.847770
-4.225249
-4.798423
-5.580146
-5.227766
-3.347505
-4.064655
-3.172710
-4.059284
-3.930344
-4.425553
-5.937848
-4.113307
-3.111626
-4.733124
-4.847012
-5.504314
-3.883881
-4.128745
-4.600635
-4.396700
-6.247095
-3.922572
-5.525614
-5.579192
-3.372266
-4.568244
-4.445862
-4.459484
-4.058068
-4.571911
-4.102292
biasvec 6
-4.913781
-6.667363
-2.859588
-4.124584
-3.745470
-1.695159
