30 101 6
weigvec 3030
0.028455
0.192573
0.009648
0.103444
0.088536
0.147466
0.221085
0.360561
0.428647
0.175401
-0.144664
-0.343422
-0.257916
-0.123355
-0.133785
-0.086537
-0.089861
-0.185968
-0.209911
-0.359919
-0.491734
-0.394275
-0.173230
0.211874
0.358209
0.559331
0.230007
-0.019368
-0.012276
-0.018811
0.792126
0.819604
0.463427
-0.185202
-0.537696
-0.461558
-0.419594
-0.349457
-0.420381
-0.392716
-0.231073
-0.017316
-0.004628
-0.138632
-0.232580
-0.037291
-0.040267
0.057756
0.014039
0.068432
0.104133
0.080339
0.092252
0.221431
0.205635
0.224725
0.281027
0.168480
0.023188
-0.265618
0.001083
-0.078051
-0.277068
-0.415558
-0.596476
-0.418895
-0.110861
0.283157
0.187281
0.091491
0.127221
0.331229
0.463513
0.322415
0.216097
0.062092
-0.103961
-0.277161
-0.390183
-0.187199
-0.048797
0.104570
0.164833
0.301417
0.462692
0.414302
0.239742
0.208493
0.009795
-0.415401
-0.018981
0.044898
0.009275
-0.021212
-0.038978
0.022346
0.080116
-0.046694
-0.080831
0.005152
-0.014965
-0.065751
0.018053
-0.058781
0.077931
-0.032805
0.020449
-0.046229
-0.077299
-0.048660
0.099161
0.100769
-0.049415
-0.109786
-0.243326
-0.366334
-0.024238
-0.011109
0.177769
0.205404
0.142468
-0.002019
-0.260364
-0.294312
-0.076049
0.118898
0.158946
-0.032731
0.026289
-0.033994
-0.079453
-0.108115
0.137126
0.207347
0.282607
0.243419
0.272636
0.150046
-0.050671
-0.093639
-0.019621
0.067186
0.145698
0.157018
0.049738
0.179028
0.028615
-0.086646
-0.190402
-0.179453
-0.025932
0.028630
0.145133
0.115800
0.224301
0.113786
0.146514
-0.102636
0.057368
0.023774
-0.056835
0.055477
0.070571
0.063298
0.008758
0.155378
0.126442
0.079358
-0.025967
0.034005
0.100594
-0.103106
-0.034743
0.031447
0.011783
0.206724
-0.100879
-0.575428
-0.580238
0.277252
-0.063959
-0.074506
0.069087
0.132246
0.091532
-0.089719
-0.030586
-0.056310
-0.113476
0.007922
-0.135032
-0.140360
0.047040
0.092561
0.167367
0.085671
0.004679
-0.069283
-0.138561
-0.127858
-0.119878
-0.047070
-0.061987
-0.012251
0.069935
0.202831
0.056563
0.058428
-0.016829
-0.082045
0.067364
0.110360
0.035003
0.061898
-0.052634
0.203384
0.180998
0.137555
-0.091920
-0.024728
0.139570
0.189937
0.225860
0.273824
-0.053585
-0.084428
-0.419760
-0.852401
-0.969874
-0.531468
0.101770
0.221613
-0.028847
0.306709
0.724288
0.566431
0.064672
-0.037794
0.072622
-0.390322
-0.023240
-0.084031
0.037635
-0.054369
0.124671
0.139096
0.144154
0.060135
-0.052676
-0.056605
0.032592
-0.079737
0.006684
-0.041287
0.045739
0.115674
0.061408
0.056180
0.027257
-0.078070
-0.108036
-0.042280
-0.137300
-0.022585
-0.054861
0.070309
0.079083
0.017339
0.019433
-0.005721
-0.721265
-0.165772
-0.094394
0.645303
1.233725
1.265609
0.518287
-0.285980
-0.704178
-0.804790
-0.846300
-0.611930
-0.093412
0.077879
0.147848
0.106217
0.154812
-0.053185
-0.006510
-0.227354
-0.154880
-0.111912
-0.236970
0.015191
0.039175
0.052597
0.178407
0.133573
0.008611
0.336797
0.066478
0.076096
0.061916
0.076298
0.078163
0.112668
-0.020453
0.040780
0.009507
-0.000914
-0.045499
-0.084563
-0.049644
-0.043315
-0.018524
-0.004928
-0.039859
-0.039548
0.040192
0.064137
0.003854
-0.128815
0.026952
-0.040146
-0.096889
-0.141114
-0.049311
0.006107
-0.047984
0.122707
0.032566
-0.013089
0.091817
0.034869
-0.004962
-0.116697
-0.095614
0.038281
-0.018223
0.014523
-0.100374
0.014450
-0.003606
0.074319
0.099515
0.105768
0.003006
0.034684
-0.143532
-0.146662
-0.196091
-0.153103
-0.121479
0.008255
0.058198
0.117542
0.094444
0.001592
-0.005541
0.097163
-0.024281
-0.013974
-0.104338
-0.071675
-0.021022
0.045235
-0.040392
-0.059159
-0.024774
-0.074495
-0.025591
-0.020990
0.062750
0.069182
0.104660
0.133222
0.162853
0.110439
0.043429
0.356721
0.522717
0.415698
0.296002
0.162135
0.127361
0.017829
-0.438602
-0.610536
-0.519960
-0.502185
-0.285279
-0.180860
-0.160119
-0.214283
-0.045504
-0.045140
0.024127
-0.051676
-0.021165
0.000766
-0.173948
-0.061342
-0.094596
-0.002713
0.033809
-0.091250
-0.045918
-0.045559
0.230164
0.861448
-0.440519
-0.241110
-0.311009
0.075283
-0.022018
-0.671331
-0.062566
0.042368
-0.222353
1.310071
0.884021
0.622123
0.468298
0.016689
-0.759965
-1.570124
-1.926256
-1.726004
-1.439951
-0.663994
0.124839
0.564885
0.937544
1.237247
0.365223
-0.249262
0.010137
0.052260
0.396507
0.300146
0.522774
0.137725
0.397143
0.129588
0.137942
-0.061321
0.253574
0.005621
0.053095
0.425672
0.235183
0.215400
0.190877
0.102889
-0.102747
-0.112050
-0.169984
-0.197664
-0.143569
-0.215281
-0.269989
-0.198851
-0.151183
0.098842
0.320017
0.439457
0.544513
0.405031
0.293480
0.069843
-0.020395
0.120735
-0.118895
-0.539556
-0.628180
-0.289243
-0.253671
0.203680
-0.197229
0.050843
-0.097395
-0.040574
-0.178601
-0.094341
-0.052384
-0.060696
0.088910
-0.019936
-0.009646
0.095034
-0.068593
0.023240
0.075795
0.037355
0.163160
0.028152
0.042911
0.056030
-0.082275
-0.041818
-0.085809
-0.043035
-0.010823
-0.033391
0.059328
0.194853
0.082459
0.017351
-0.086768
-0.067167
0.090659
0.108776
0.106747
-0.101868
-0.083486
0.098361
0.066712
0.075797
-0.071706
-0.108101
-0.039008
-0.109150
-0.123376
-0.107175
-0.108803
0.004440
0.135253
0.092849
0.037914
0.169718
-0.066354
-0.013201
0.103236
0.052868
0.193270
0.188164
0.038211
-0.016972
0.004321
-0.040062
0.147063
-0.010492
0.024127
0.030696
-0.002747
0.108458
-0.057826
0.010409
-0.027031
0.031685
-0.044235
0.009334
-0.092579
0.023806
0.055128
-0.127060
0.075036
-0.082842
0.040366
-0.008245
-0.081078
-0.105983
-0.050351
-0.043970
-0.002911
-0.173568
-0.030042
-0.108898
0.056410
0.111928
-0.043095
-0.071163
0.074419
-0.025714
0.007626
0.151416
0.132264
-0.119305
0.019872
-0.145807
-0.141849
-0.032649
-0.075000
0.144400
0.078580
0.051911
0.006208
-0.028532
0.052973
0.028493
0.100221
0.163817
0.210996
-0.047323
-0.061108
0.100675
0.020537
-0.321146
-0.352610
0.082644
0.045316
0.025707
0.027143
0.043574
-0.128729
-0.165897
-0.231595
-0.154405
0.061538
0.050617
0.108480
0.104356
0.123087
0.089503
0.190134
0.007486
0.063991
0.064639
0.010405
0.019876
0.030408
0.024441
-0.038494
-0.188585
-0.049285
-0.047906
-0.209687
-0.173487
-0.062579
0.296361
-0.123867
0.051395
0.011699
-0.050980
-0.073281
-0.164107
-0.037137
-0.065023
0.103160
0.039464
-0.002098
-0.042773
0.118888
0.159133
0.264931
0.283135
0.252261
0.086692
-0.009430
-0.219823
-0.167303
-0.067117
-0.012087
0.074075
0.008666
0.174154
0.053717
-0.032546
-0.176925
-0.154103
-0.133227
-0.035794
-0.018531
0.098559
0.015587
0.094362
0.032795
-0.032130
0.068259
0.074611
-0.035722
0.062210
0.066493
0.015230
-0.134442
-0.153101
-0.055601
-0.027531
0.143760
0.081495
0.005139
-0.067258
-0.020792
0.007991
0.202384
0.288831
-0.009718
-0.137421
-0.091901
-0.024324
-0.096611
0.007294
-0.076859
0.091049
-0.179589
0.039524
0.034173
-0.034768
-0.124419
-0.191549
0.067964
-0.039465
-0.140942
-0.131798
0.027578
-0.085167
0.023719
-0.028680
0.072046
-0.047928
-0.245447
-0.182816
-0.418219
-0.244171
1.732465
-0.426290
-1.458017
1.181753
0.953656
-0.007041
-0.005000
0.081255
0.125842
0.061056
-0.051117
-0.006892
-0.224351
-0.213603
-0.099947
-0.109665
-0.013861
0.033118
0.065662
0.081749
0.058089
0.011822
0.096693
0.005273
-0.013499
0.061883
0.113128
-0.010700
0.172824
0.121865
0.092494
0.215857
0.007425
-0.260263
-0.205884
-0.230971
-0.029808
0.050824
0.022066
-0.083399
0.069848
-0.057285
-0.020180
0.087139
-0.079491
-0.075751
0.085159
-0.048689
0.147613
0.053724
0.017235
-0.036067
-0.048764
0.104334
-0.119025
-0.142415
-0.107419
-0.156232
-0.163327
-0.068406
0.015812
0.357909
0.103450
0.016608
-0.042046
-0.055267
-0.185222
0.243433
0.231752
0.363993
0.367444
0.367567
0.164675
-0.283925
-0.720652
-0.662659
-0.407312
0.052727
0.316248
0.155954
-0.166039
-0.354768
-0.368715
-0.256183
-0.151158
-0.243325
-0.202141
-0.091773
0.089598
0.412459
0.356386
0.216098
0.024155
0.133726
0.128597
0.268485
-0.029405
-0.078200
-0.094170
0.058740
0.060146
0.059217
-0.064496
-0.106810
-0.023035
-0.058076
-0.009391
0.115447
0.151547
0.121420
-0.036250
-0.056964
0.049206
-0.128899
-0.027942
-0.013330
0.031147
0.002447
0.087925
0.053868
0.114607
0.126968
0.038102
-0.104439
-0.069384
-0.144810
-2.204035
-1.800403
-1.313499
-0.689693
-0.009205
0.319027
0.463598
0.312214
0.439587
0.333384
0.435548
0.502094
0.293154
0.142509
0.256920
0.027073
-0.015136
-0.160769
0.125522
-0.050955
0.083355
0.061822
0.259636
0.205159
0.221370
0.248957
0.337809
0.227396
0.072775
0.802016
0.123785
-0.125780
0.036639
0.102496
0.092386
-0.339201
-0.933717
-0.971650
-0.209712
0.344127
0.547704
0.647835
0.264848
-0.433946
-0.825898
-0.526197
-0.210896
-0.145551
0.071761
-0.068576
0.185890
0.213375
0.072662
0.147736
0.159204
0.242313
0.329144
0.241247
0.127705
0.409562
-1.685168
-0.882977
-0.552240
-0.095298
0.287034
0.281442
0.204139
0.203081
0.231465
0.012801
0.097649
0.256862
0.185807
0.078626
0.155269
0.178219
-0.035833
0.123420
-0.000452
0.117119
0.276029
0.185864
0.107996
0.309830
0.402875
0.469452
0.289690
0.056000
0.341633
-0.869310
-0.061484
0.057384
0.066292
0.197431
0.058544
0.144946
-0.019529
-0.105764
-0.153699
-0.147693
-0.116267
-0.043882
-0.044626
0.074720
0.058864
0.195429
0.170514
0.124345
0.166624
-0.010944
-0.018518
-0.159028
-0.193860
-0.131682
0.120077
-0.109563
-0.135082
-0.080137
-0.129028
0.266205
-0.216579
-0.263888
-0.185430
-0.108939
0.022599
0.097271
-0.001376
0.068527
0.217286
0.240625
0.161345
0.146587
-0.033725
0.100806
0.044568
0.122785
0.086175
0.074475
-0.011220
-0.038559
-0.057992
-0.083734
-0.136418
-0.139051
-0.159259
-0.043107
-0.233135
-0.145426
0.025834
0.297444
0.007132
0.017253
-0.031413
-0.006707
-0.045325
0.097876
0.023385
0.079501
-0.107729
-0.102896
0.056006
-0.067254
-0.035363
-0.022049
0.046695
0.089755
-0.058161
0.101989
0.038529
-0.141480
-0.043943
0.148282
0.052187
0.074312
-0.015099
0.232278
-0.057656
-0.192791
-0.134531
0.053550
-0.205960
0.010878
-0.113328
-0.095486
-0.014376
-0.054826
0.108976
-0.103590
-0.039237
-0.020184
-0.073611
-0.032541
0.123229
-0.014397
-0.136286
0.035742
-0.141383
0.121666
-0.242941
0.319918
0.591783
-0.319706
-1.240238
-0.744282
1.705791
0.996893
-1.300878
0.332984
0.490996
-0.386715
-0.037564
-0.038293
-0.088502
-0.115554
0.080605
-0.086959
-0.089954
0.034403
0.024122
0.053656
-0.030948
-0.026871
0.003125
0.000990
-0.016968
-0.007603
0.082496
-0.097379
0.041668
-0.086182
-0.009460
0.003532
0.087660
0.071857
-0.009967
0.028244
0.021215
0.053114
-0.129134
-0.143871
-0.000313
-0.043419
0.010734
0.053027
0.028145
-0.100512
0.006899
0.012320
-0.078712
0.066887
-0.088825
-0.064329
0.067425
0.072143
-0.027041
-0.085838
0.071010
-0.111376
-0.005902
0.109383
0.068192
-0.020417
0.030577
0.095176
0.038916
-0.037081
0.030296
0.073162
-0.097743
0.080991
0.136030
0.056548
0.063138
0.014330
-0.016658
0.069639
0.091896
-0.005585
0.050982
0.064707
-0.050174
0.125632
0.220651
-0.038084
-0.284054
-0.315403
0.066414
0.654013
0.502641
0.817590
0.138146
-0.739779
-1.139891
-0.754913
0.191873
0.664748
-0.606690
-0.621852
-0.319035
0.646907
0.086022
-0.046559
-0.076514
0.023750
0.023584
-0.056432
-0.050589
-0.019328
0.047043
-0.070664
0.072491
0.045457
0.035357
-0.020579
-0.027924
0.010224
-0.124429
-0.031090
-0.042962
-0.087379
-0.106364
-0.090115
-0.106403
0.068514
-0.027734
-0.254285
-0.058485
-0.020359
0.155157
0.164083
-0.174254
0.171791
0.276684
0.438496
0.325336
0.189202
0.025151
-0.103156
-0.263860
-0.354400
-0.417329
-0.605164
-0.524246
-0.461395
-0.546216
0.005686
0.350092
0.557918
0.802831
0.488905
0.375854
0.208602
-0.100108
-0.563828
-0.697408
-0.216417
0.020808
0.197202
0.116262
0.441877
-0.121538
-0.107579
-0.148582
-0.060239
0.040723
0.099446
0.241854
0.175304
0.252644
0.237096
0.214302
0.359071
0.265787
0.252405
0.163658
0.115665
-0.065054
-0.045438
-0.004357
-0.110273
-0.095271
-0.175096
-0.362889
-0.486013
-0.156983
-0.173430
-0.065334
0.084208
-0.143506
-0.001155
0.020535
0.060392
0.117108
0.081833
-0.005589
0.067022
0.043675
-0.156611
0.014368
-0.109251
-0.020970
-0.077812
0.106903
0.096503
0.160568
0.055141
0.113354
0.171056
0.045839
-0.008631
0.041481
-0.130776
-0.230350
-0.293999
0.138326
-0.079728
-0.394486
-0.230106
0.151291
0.505527
1.040357
-0.396289
0.532352
0.394286
0.305398
0.035668
0.092917
0.176142
-0.055757
0.071918
0.039794
-0.097136
0.096790
0.003620
0.062495
0.011028
0.049688
0.121087
0.082323
-0.177519
0.153647
-0.784448
-0.525690
-0.456464
-0.076912
-0.341561
-0.286640
0.204097
0.056051
-0.350768
0.128512
0.026041
0.127317
0.143848
-0.023939
0.086117
-0.071138
-0.099904
-0.027222
-0.146101
-0.077437
-0.051128
0.088999
0.162767
0.090429
0.189565
0.020868
0.008575
-0.127264
-0.108820
-0.001646
0.126374
0.163464
0.155971
0.105597
0.029193
-0.042159
-0.094616
-0.064051
-0.183585
0.125704
0.109207
0.114029
0.174547
0.070107
0.063086
-0.004824
-0.023097
0.039534
0.081913
0.086463
0.109617
-0.013563
0.077368
0.092556
0.158180
0.225149
-0.046175
-0.520614
-0.529041
0.345426
0.232967
1.053456
0.755942
-0.491460
-1.267767
-0.779507
-0.274475
-0.076345
0.233954
0.070752
-0.061615
-0.240842
-0.187755
-0.235450
-0.209419
-0.194005
-0.083692
-0.039287
0.145143
0.260456
0.486446
0.490677
0.359960
0.235357
0.082653
-0.131172
-0.163876
-0.185468
0.006494
0.075513
0.137120
-0.163889
-0.506307
-0.351523
-0.213497
-0.330519
0.201639
0.147087
0.336457
-0.101310
0.073554
0.058697
0.096658
-0.035615
-0.037212
-0.094138
-0.027458
0.062567
0.012675
-0.082713
0.098159
0.056531
-0.021100
0.060024
-0.008820
-0.023703
-0.043976
-0.121446
-0.055351
0.091687
0.068573
0.021112
0.021227
0.015252
0.035099
0.114600
0.018543
-0.035667
-0.171505
0.043400
-0.090106
-0.031036
-0.061593
0.110366
-0.013886
-0.050877
-0.105185
-0.010820
0.114888
0.002726
-0.034699
-0.068629
0.105669
-0.047130
-0.014976
-0.050209
0.031624
0.144023
-0.048225
-0.055848
0.060761
0.033504
0.003234
0.149796
0.133463
-0.026869
-0.084180
-0.180118
-0.102002
-0.175120
0.381744
0.269991
0.204238
-0.321795
-0.585645
-0.187982
0.365034
0.852308
0.935684
0.162752
-0.552258
-0.947867
-0.911987
-0.717258
-0.798353
-0.358338
-0.301095
-0.144721
0.008698
0.472957
0.025739
0.467057
0.460491
0.415173
-0.070863
0.064336
-0.186767
0.082399
0.505690
0.059289
-0.057194
0.014712
0.012770
0.069750
0.011954
0.104001
0.099875
0.050693
0.029621
-0.025601
-0.051415
0.033579
0.007771
0.007791
-0.052773
0.042800
-0.032514
0.044597
0.030907
0.047263
-0.095898
-0.066574
-0.173466
-0.212168
-0.156363
0.066498
0.119218
-0.051461
0.132959
-0.102954
0.358271
0.051030
0.035848
0.083995
0.136306
0.054187
-0.036456
0.019158
0.085077
0.037964
0.072796
0.135983
0.101997
0.071481
0.032276
-0.045723
0.217319
0.274374
0.337216
-0.230559
-0.136187
0.227827
1.241896
1.461284
-0.072297
-1.943959
-1.241250
-0.509803
-0.196416
0.809143
-0.051450
0.195517
0.316962
0.122773
0.192536
0.162077
-0.026332
0.303661
0.252172
0.073394
-0.000147
0.093380
0.008280
-0.049438
-0.110894
0.342753
0.242222
-0.035837
0.230776
0.316658
-0.405874
0.250079
0.095498
-0.364113
-0.139586
-0.368186
-0.824039
-0.250869
-0.739872
0.086700
0.078748
-0.028659
0.030659
-0.057129
0.034400
-0.083426
-0.095825
-0.003310
0.059277
-0.052198
0.049826
0.062702
0.006666
0.031508
0.064959
0.067400
0.024728
-0.099000
0.074548
0.058510
0.068245
-0.134986
0.003255
-0.100984
-0.013790
-0.005148
-0.062454
-0.005596
0.109552
-0.192942
0.145588
0.139852
-0.085915
0.124188
0.313436
-0.034656
-0.218345
-0.193581
0.259715
0.795561
0.668032
0.299859
-0.167703
-0.740728
-1.303705
-1.109528
-1.016870
-0.643285
-0.459544
0.097221
-0.196185
0.679580
0.732296
1.041189
0.593578
0.174530
-0.015371
0.166278
0.536692
-0.026485
-0.193369
0.016921
0.338704
0.403334
0.432750
0.397629
0.233283
-0.107860
-0.165977
-0.142674
-0.091839
-0.157699
-0.114608
-0.012588
0.034087
0.000825
0.138096
0.070190
-0.270906
-0.159108
0.269000
-0.134704
-0.601335
-0.305585
-0.109384
-0.418582
-0.313452
-0.131086
0.753186
0.388033
-0.057570
-0.244318
-0.375168
-0.317539
-0.511507
-0.766910
-0.749644
-0.110590
0.086702
0.184398
0.121570
0.229772
0.288611
0.258577
0.164639
-0.032123
0.179324
0.256250
0.131720
-0.038376
-0.021143
0.254424
0.267682
0.419688
0.830873
0.066822
-0.353272
0.458346
-0.906002
0.035337
-0.067177
-0.117054
0.059910
0.092772
-0.050762
0.070964
0.059874
-0.089113
-0.072458
0.051429
0.027880
0.066873
-0.072591
0.024633
0.021658
0.013378
-0.108761
0.083663
-0.058134
-0.066967
0.083317
0.034513
-0.052862
0.101716
0.084633
-0.028610
-0.054417
-0.094356
-0.092039
-0.192715
0.070544
0.083841
0.104308
0.034851
-0.013303
-0.039903
-0.081762
0.049195
0.087353
0.147523
0.036240
-0.234834
-0.263211
-0.151632
-0.129460
0.103784
0.218563
0.187461
0.214328
0.072368
-0.040791
-0.039186
-0.002826
0.093129
0.304010
0.223961
0.010097
-0.094110
-0.090838
0.187343
0.099308
-0.048532
0.224192
0.005983
-0.010536
0.119551
0.070851
0.083656
0.238625
0.227066
-0.168100
-0.512860
-0.596140
0.077059
0.845582
0.857440
0.488226
-0.100952
-0.623190
-0.886593
-0.569318
-0.760635
-0.106125
-0.000194
0.193259
0.153854
0.411206
-0.068519
0.098727
-0.030708
0.069456
0.075722
-0.063592
-0.035405
-0.070727
-0.128493
0.048426
-0.016530
0.065255
-0.089462
0.034814
0.131667
0.108269
0.015082
0.061586
-0.003579
-0.077012
-0.066394
-0.030275
0.107223
0.032340
-0.020101
-0.011565
-0.108005
-0.111150
-0.147809
0.063944
-0.039531
0.181223
-0.008123
-0.004002
-0.004483
0.069873
0.063037
-0.135019
0.076225
0.024319
0.063518
-0.014658
-0.013203
-0.009304
-0.000819
-0.066430
-0.066158
-0.036289
-0.021584
-0.081638
0.013327
0.226963
0.482697
0.512129
0.838061
0.506609
-0.144795
-1.103171
-0.763115
0.028743
0.034570
0.020679
-0.952854
-0.873259
-0.643628
-0.408842
-0.188027
-0.154959
-0.192055
0.034756
0.216085
0.166013
-0.332082
-0.442806
-0.380050
0.016316
0.304306
0.375556
0.472281
0.433310
0.588062
0.339936
0.336910
0.356641
0.091137
-0.103593
-0.127880
-0.005115
0.293475
0.199858
0.193619
0.477129
-0.235161
0.052446
-0.067006
0.006090
-0.085579
0.013936
-0.055271
-0.139852
-0.031106
-0.127231
-0.245793
-0.259078
-0.126175
0.291858
-0.699783
-0.351059
0.904139
-1.335147
2.059325
-2.464464
1.213926
-0.150593
-0.142971
0.678571
-0.388993
-0.252037
1.029752
0.162889
-0.549033
0.926326
0.041284
-0.092444
-0.122895
0.070764
-0.019962
-0.099820
-0.036446
-0.107233
-0.036139
-0.030837
-0.181275
0.005191
-0.114726
-0.147972
-0.055122
-0.170836
-0.211931
0.222752
0.419708
-0.021848
-0.233276
-0.327129
0.144034
0.281183
0.231228
-0.012703
0.070216
-0.024652
0.073494
0.215414
-0.130971
0.188885
0.172719
0.260627
0.030526
-0.157238
-0.044520
0.178346
0.182143
-0.205777
-0.374805
-0.212663
0.454452
0.771080
0.751661
-0.015202
-0.443005
-0.861454
-0.673897
-0.651747
-0.651335
-0.259959
-0.506099
-0.091175
0.265712
0.920651
0.454878
0.307546
-0.037521
0.311062
0.049042
0.074231
0.012604
-0.051053
-0.090125
0.001282
0.068804
-0.097848
-0.010754
-0.079873
-0.023982
0.001219
-0.001607
0.131102
0.058062
0.105769
0.018204
-0.078449
-0.003442
0.029216
0.092613
0.038101
0.040469
0.031482
-0.076863
-0.213600
-0.027005
-0.064665
0.064277
-0.059637
0.081380
-0.057273
-0.037483
-0.080630
0.055181
0.097293
0.002749
-0.063479
-0.071573
0.070402
0.044485
0.102828
0.076381
-0.043907
-0.134211
-0.075294
-0.085875
-0.053060
0.082831
0.054101
0.041778
0.050663
-0.063767
-0.045369
0.089614
0.132707
-0.035975
0.044881
0.065778
0.059093
0.021045
0.074878
-0.103238
0.021443
0.017940
0.175820
0.202996
0.138330
0.111473
0.137768
0.059232
0.077603
-0.072852
0.011634
0.007751
-0.061294
-0.137669
-0.077666
-0.104928
-0.133025
-0.083331
-0.006676
0.022047
0.125344
0.208665
0.306943
0.080798
0.055221
0.009779
-0.007341
-0.285516
0.017807
0.061221
-0.101685
0.071392
0.136479
-0.147125
-0.366685
-0.352336
0.239297
0.644028
0.305518
-0.087354
-0.120055
-0.833108
-1.315370
-1.259532
-0.729907
-0.850879
0.011325
-0.232693
0.135873
0.695505
0.798418
0.754726
1.141198
-0.139564
0.481647
0.442103
0.834292
0.072283
0.070171
-0.006656
0.218882
0.252886
0.231071
0.334449
0.189175
0.072115
-0.186743
-0.506085
-0.631606
-0.723226
-0.628332
-0.375398
0.070273
0.380933
0.342386
0.086980
0.045944
0.095268
0.084486
0.041239
0.284394
0.474689
0.486175
0.284444
-0.131537
-0.096943
-0.260056
-0.170070
0.010810
0.096910
0.103036
0.027058
0.103100
-0.062984
-0.102619
-0.072863
-0.008380
-0.068148
-0.104820
0.048962
-0.051382
0.062190
-0.076608
-0.001632
0.126352
0.065516
0.128969
-0.005269
-0.173975
-0.063380
-0.090487
0.042573
0.114986
0.118216
-0.110736
-0.044828
-0.014084
-0.024186
0.015593
0.097504
0.008575
-0.086184
-0.115193
-0.111114
-0.046970
-0.091314
-0.047133
-0.200040
-0.198462
-0.104913
0.073937
-0.042939
-0.086766
-0.051780
-0.051174
-0.002554
0.116211
0.383181
0.471169
0.543412
0.042083
-0.501381
-0.312422
0.055346
-0.303312
-0.299035
-0.034415
-0.376339
0.081079
0.399401
0.541692
0.142499
-0.195013
-0.366606
-0.160854
-0.426194
-0.712888
-0.617853
-0.382805
-0.184945
0.041955
0.170379
0.247755
0.199796
0.191053
0.181832
0.157119
0.107339
0.087962
0.112609
0.281325
0.355402
0.283504
0.290580
-0.013267
0.075658
-0.742931
-0.027183
-0.268867
-0.386910
-0.302645
-0.054188
0.172547
0.236327
0.138776
-0.086231
-0.227842
-0.310808
-0.317102
-0.228112
-0.038026
0.093621
0.162569
0.200570
0.205027
0.140688
0.139164
0.176000
0.170868
0.191166
0.326090
0.338350
0.304352
0.196322
-0.266816
-0.334019
-0.628085
0.246663
0.124508
0.132939
0.048778
0.015436
0.019631
0.144185
0.286324
0.340924
0.201485
0.164757
-0.021723
-0.130821
-0.201913
-0.398911
-0.400608
-0.362163
-0.205142
0.124596
0.382295
0.359106
0.306528
-0.241869
-0.834776
-0.901140
-0.222354
-0.101058
0.264509
0.166661
0.292317
-0.065767
-0.137114
0.085565
-0.188348
0.124832
-0.063602
-0.189348
0.101015
-0.010927
-0.162644
0.027542
-0.116565
-0.073601
-0.048037
-0.090920
0.075156
-0.172571
0.000348
-0.136276
-0.018784
0.007857
0.656214
0.844929
-0.990760
-2.166133
1.660517
1.267306
-1.322403
0.014553
0.374154
-0.292897
-0.029345
-0.114736
-0.063872
0.015364
-0.160550
0.006765
-0.071102
-0.037968
-0.074220
-0.145875
-0.043224
-0.084667
-0.121435
-0.170302
-0.134482
0.346427
0.479369
-0.661920
0.138912
-0.308959
1.026583
0.182595
-0.399348
-0.348395
-0.803183
-0.160935
0.660835
0.207468
0.546975
0.582876
-0.146706
0.312233
0.432437
0.203931
0.109222
0.235259
0.239245
0.005876
-0.018518
0.408442
0.432472
0.192999
0.222759
0.140892
0.061745
0.014177
0.302616
-0.042185
-0.098758
-0.169262
-0.321695
0.080891
0.193438
0.283091
0.606465
-0.024273
-1.346893
-0.928671
-1.192055
0.088335
-0.035823
-0.014192
0.104448
-0.043143
-0.016322
-0.058509
-0.013536
-0.010863
0.066479
0.098757
0.118310
0.080467
0.008378
-0.143482
-0.114584
-0.084143
-0.142945
-0.023641
-0.137755
-0.146611
-0.157183
0.047139
-0.006273
0.045247
0.179074
0.054738
-0.039053
0.054255
-0.056790
-0.439709
-0.184092
-0.298599
-0.319829
-0.184309
-0.081724
-0.103911
0.002811
0.108743
0.434726
0.549317
0.269265
0.112722
0.029495
-0.184478
-0.121870
-0.177295
-0.114294
-0.175189
-0.073577
-0.431709
-0.399913
-0.227370
0.180583
0.472744
0.686282
0.244119
0.115718
0.028818
-0.126483
-0.268624
0.038615
0.010059
-0.052721
-0.135279
-0.261421
-0.353457
-0.403501
-0.375889
-0.343552
-0.126521
-0.044700
0.243962
0.494113
0.523597
0.526220
0.309836
0.086469
-0.055777
-0.044616
-0.339449
-0.396312
-0.394830
0.090832
0.317943
0.567231
0.351360
-0.020796
-0.046218
0.226893
-1.273909
-0.670245
-0.384717
0.137406
0.370260
0.669276
0.706590
0.444379
-0.142106
-0.329810
-0.254627
-0.090739
0.128386
-0.217536
-0.550956
-0.445870
-0.215278
-0.087613
0.093908
0.020510
0.302403
0.332281
0.273618
0.390246
0.397288
0.236381
0.321646
0.019723
-0.070614
0.406492
-0.079195
-0.013040
0.037338
-0.058465
-0.081713
-0.034283
-0.074233
-0.052028
0.013088
-0.086810
0.074667
0.057531
0.014260
-0.014386
-0.090304
0.093475
-0.037789
0.034002
0.058193
0.070355
0.013880
0.090625
-0.005078
-0.003800
0.002459
-0.028840
0.067652
-0.109463
0.067138
-0.030589
0.018054
-0.052059
0.064261
-0.065719
0.057714
0.034716
-0.077682
-0.020188
-0.030783
-0.079096
-0.079334
0.016435
0.004237
0.053328
-0.033103
0.010339
-0.056000
0.048650
-0.038939
-0.043480
0.029044
0.059407
-0.012290
0.120068
0.027927
0.010748
0.041870
-0.042818
-0.116740
-0.114656
0.066546
0.027654
0.006283
0.044426
-0.059067
-0.064491
-0.012403
0.127948
-0.000374
0.014692
-0.012947
-0.007869
-0.123123
-0.076480
-0.046315
-0.017630
0.070865
-0.015243
-0.040287
-0.004444
-0.179506
-0.026285
0.036579
-0.060028
0.178929
0.208255
-0.033687
0.037207
-0.089217
-0.022501
-0.143756
-0.057832
-0.103300
-0.131233
-0.298500
-0.339133
-0.159173
0.207652
0.370995
0.315804
0.068714
-0.132759
-0.331844
-0.349770
-0.225865
-0.101068
0.098408
0.202281
0.085820
0.152135
0.066089
0.115422
0.147565
0.219313
0.410258
0.403239
0.126676
-0.200681
-0.270617
-0.292652
0.063662
0.141839
0.095924
0.015642
-0.135258
-0.264985
-0.167128
-0.176541
-0.279722
-0.134747
-0.087468
0.051758
0.106576
0.041860
0.108048
0.252552
0.261812
0.234364
0.094638
-0.011268
0.138714
0.126555
0.146179
0.152081
0.129971
0.194609
0.126436
-0.106733
-0.187596
-0.305759
0.061988
-0.060881
-0.016109
-0.030073
0.074407
-0.092449
-0.091658
-0.082091
-0.068706
-0.045229
-0.157923
-0.165956
-0.076608
-0.131177
-0.139308
0.055506
-0.078052
0.111472
0.179054
0.228860
0.009475
-0.234069
-0.040973
0.005479
0.242615
0.375439
-0.007209
-0.124117
0.023813
-0.083960
0.047061
-0.083008
0.038984
-0.059511
0.036684
0.111685
0.028761
-0.032280
-0.055404
-0.001343
-0.029111
-0.030520
0.105287
0.059594
-0.097038
0.087323
-0.053123
0.105836
-0.078642
0.018686
0.085263
-0.028366
-0.066396
0.031604
0.128352
0.046354
-0.033665
-0.166088
-0.143279
0.003765
0.017572
-0.007628
-0.014394
-0.017905
-0.003545
0.071715
0.038726
0.006405
-0.039976
0.039497
-0.035731
-0.086378
-0.107011
-0.021527
-0.026534
-0.060002
-0.053540
0.010271
0.046287
0.093542
-0.053717
-0.016696
-0.150463
0.046960
0.104209
0.029945
-0.003981
-0.033002
-0.061734
0.042183
-0.421339
0.162353
-0.103315
-0.103428
0.021921
-0.047071
-0.104123
-0.116188
-0.064518
-0.192194
-0.286728
-0.006377
0.353121
-0.494752
-0.178075
0.026903
-0.483577
0.764486
-1.369814
1.418137
-0.836407
-0.025048
0.143391
-0.239418
0.334001
1.056267
0.550963
-0.432584
-1.407182
1.696392
1.002937
0.043201
-0.798485
-1.357643
-0.850349
0.009463
0.462213
0.337875
0.278417
-0.169787
-0.470319
-0.601011
-0.222761
-0.098053
-0.114648
-0.085172
0.018462
-0.031439
0.284529
0.021864
0.150146
0.125370
0.051462
0.037334
0.105604
0.085425
0.329311
0.295903
0.266682
0.346051
0.043916
0.082196
-0.056157
0.020584
0.036541
-0.102456
0.043583
-0.048877
-0.093923
-0.040563
-0.053828
0.042832
-0.039494
0.097356
0.076206
0.093203
-0.038898
-0.097365
-0.038434
-0.081956
0.087406
-0.015512
-0.021932
0.032131
-0.020727
0.048464
0.074696
-0.034616
0.049868
-0.040358
-0.140980
-0.063251
0.013547
-0.088535
-0.066548
0.151119
-0.057406
-0.132032
0.065574
-0.022585
-0.031422
0.028303
-0.063347
-0.084706
0.050598
-0.059152
0.014544
0.022857
-0.073233
-0.022272
-0.076429
-0.666156
0.022480
2.526505
0.097191
-4.031301
2.388294
1.158648
-0.924073
-0.147522
-0.364327
0.081736
-0.070247
-0.095034
-0.051666
0.005600
-0.022597
-0.177746
0.025378
-0.127400
-0.160595
-0.084205
-0.104838
-0.090679
0.042574
-0.010648
-0.155194
-0.086671
-0.122972
-0.004158
-0.069072
-0.234891
-0.066836
-0.832383
0.061350
3.206365
0.300108
-1.013802
0.421518
-0.574538
0.091781
0.127953
0.072077
0.087992
0.072386
0.114412
-0.113047
0.004592
0.059523
0.104452
0.052610
0.048318
-0.078387
-0.215059
-0.038897
-0.131745
-0.224971
-0.073971
-0.027085
0.303732
0.284760
0.730212
0.298068
-0.156875
-0.081054
0.781762
0.816105
-0.150081
-1.254055
-1.256159
-0.053611
0.342275
0.105634
0.124600
0.153353
-0.167060
0.034143
0.222073
0.342473
0.220405
0.018638
-0.026786
-0.352954
-0.501199
-0.677102
-0.652577
-0.684723
-0.269433
0.053621
0.353640
0.213302
0.062879
0.121512
0.324565
0.466247
0.695942
0.088418
-0.174322
0.324715
-0.749359
0.058042
0.037626
-0.032234
0.040956
0.074048
0.081861
0.076443
-0.085082
-0.027438
0.000166
0.060811
-0.027130
0.095858
-0.043388
-0.017021
-0.041828
-0.059713
-0.062673
0.081486
0.028545
0.053611
0.080461
-0.019742
0.108381
0.063459
0.088547
0.009884
-0.057713
-0.026953
0.010067
-0.038045
-0.024743
0.017051
0.055117
-0.029457
-0.056723
0.016547
-0.055820
-0.149764
-0.181511
-0.012629
-0.013004
0.092788
-0.035913
-0.048974
-0.107085
0.159055
0.375178
0.254977
0.290526
-0.153515
-0.515455
-0.581252
-0.340623
0.030934
0.699643
0.317817
0.037353
0.036511
0.241619
0.032467
-0.029754
0.108882
0.006025
0.094201
0.001990
0.072714
0.048885
-0.056880
-0.067701
0.011784
-0.007873
-0.006983
-0.016380
-0.006526
-0.044053
0.023266
-0.085042
0.023803
0.154234
0.077879
-0.051183
-0.217504
-0.100068
-0.004529
0.062016
0.038442
0.030612
0.087586
0.047407
-0.124873
0.021298
-0.073829
0.032122
-0.083330
0.083497
-0.016446
-0.045187
0.106767
0.072229
-0.024487
-0.095306
0.013607
0.094869
0.061139
-0.110591
0.095222
0.060564
0.003473
0.091755
0.013534
0.009102
0.024803
-0.122444
0.013135
0.101566
-0.042657
0.030779
-0.122307
-0.028238
weigvec 606
0.449642
0.060160
-0.849523
0.231939
-0.249454
-0.385185
-0.059869
-1.078478
0.093479
0.144047
0.144984
0.090040
0.116937
-0.178570
0.325636
0.859006
-0.115228
-0.096920
0.107307
-0.307536
0.016308
-0.127187
-0.167552
1.093770
-0.419210
-0.163288
0.336318
-0.221043
0.451377
0.064883
-1.435856
0.089532
0.244301
-0.235987
1.294884
-0.220704
-0.138353
0.817080
0.255876
0.606827
0.608048
0.043863
0.268859
-0.219762
0.856685
0.908618
-0.183607
-0.240493
0.239620
0.296716
0.290941
-0.435404
0.059769
0.567995
0.632674
-1.122367
-0.173674
-0.123762
0.530822
0.028770
1.144596
0.649904
-0.513160
0.049668
0.435525
0.048981
0.012037
-0.045158
-0.554038
-0.578548
-0.002449
-0.176678
-1.219095
-0.558242
1.203499
1.317654
-0.305737
-0.439004
0.028364
0.514363
0.277568
0.182469
-0.029270
-0.219038
-0.079406
-0.368065
-0.399325
-0.055848
-0.184725
0.024686
-0.446963
0.075774
-0.050903
0.747322
0.633460
-0.080741
-1.522893
-0.099967
0.124089
0.178280
-0.043332
-0.226457
0.322210
0.533212
-0.160588
0.073174
-0.071379
0.020008
0.656571
-0.087726
0.225461
-0.170413
-0.095743
0.235562
-0.526795
0.212255
0.002772
-0.002673
-0.007757
-0.100732
-0.088539
-0.120522
-0.036186
-0.188154
-0.438873
-0.098008
-0.093355
0.180003
0.070197
-0.139642
0.538506
1.086011
-0.074012
-0.123875
-0.180918
-0.773892
0.053102
-0.068058
-1.075258
-0.081038
0.367369
-0.161698
-0.264780
-0.564507
-0.021145
-0.115327
-0.234994
0.062634
0.001436
0.520915
-0.031647
-1.454567
0.025651
-0.159381
0.724223
-0.715870
0.394322
-0.107302
0.131966
-0.650311
-0.146942
0.056706
0.104763
-0.502668
-0.168102
-0.062553
0.100730
-0.101690
-0.016438
-0.766787
0.212849
-0.024810
0.176448
0.956141
0.376887
-0.407543
-0.290019
-0.899958
-0.224585
-0.130086
-0.244624
-0.107347
0.407817
0.055099
-0.053395
-0.158847
0.171103
0.010519
-0.179674
-0.013020
-0.093737
-1.206282
0.499872
0.038742
2.015132
-1.585424
0.914013
0.770610
0.012582
-0.300027
-0.046112
-0.046594
-0.401117
-0.438921
-0.296979
-0.192050
-0.079778
0.591271
0.145894
-0.251682
0.097198
0.017366
-0.015802
-0.073595
-0.213675
-0.350820
0.160201
0.021054
0.065489
-0.144632
-0.004898
0.382726
0.310903
-0.001657
-0.030505
0.331397
-0.010529
-0.123444
-0.374974
0.018058
0.069455
0.088261
-0.393349
0.389300
0.394446
0.041170
-0.510013
-0.084180
-0.015615
0.905616
-0.025838
0.136732
-0.010290
0.451290
-0.035376
-0.034015
-0.162068
-0.054382
0.073569
0.102000
0.066476
-0.094677
-0.497924
-0.429122
0.024409
0.213654
0.368403
-0.416359
0.042593
-0.018647
0.305882
-0.014394
-0.053975
0.253261
-0.507542
-0.235619
0.114477
-0.041760
-0.086592
-0.098592
-0.213271
-0.173301
0.159284
0.466094
-0.321006
-0.173430
0.101657
-0.202778
-0.960300
0.014081
-0.170587
-0.430725
-0.049158
-0.049492
0.075990
0.008949
-0.088250
-0.193750
-0.095984
-0.066460
0.081445
-0.013266
1.031466
0.059022
0.038583
-0.420899
-0.024924
0.233893
-0.585293
0.078908
-0.373335
-0.091082
0.146744
-0.612531
0.081576
0.175106
0.206453
0.164510
-0.124154
0.065320
-0.017102
-0.122689
0.340608
-0.060232
0.008360
-0.191433
-0.219356
0.106331
0.274567
-0.108760
-0.093010
-0.102479
0.103454
0.122527
0.026546
-0.235456
-0.498295
0.131653
-0.249518
-0.127173
0.050970
0.293217
0.194353
-0.106170
-0.113761
-0.012864
0.091608
-0.296552
0.003802
0.064155
-0.048727
-0.024492
0.438005
-0.234053
-0.160122
-0.638807
0.276833
0.444789
0.288424
0.083142
-0.020897
0.417344
0.028189
0.574916
0.111562
0.082491
0.499886
-0.334978
0.036153
0.037747
-0.235689
0.344564
0.155324
-0.060501
0.087205
-0.779554
-0.098239
0.433231
0.203162
-0.068421
-0.107826
-0.279347
0.186072
-0.198723
0.246381
0.090938
0.048981
0.334755
0.093156
-0.163490
0.346483
0.023776
-0.305911
0.132791
0.272173
0.078048
0.109548
-0.181225
-0.078092
0.121532
-0.292680
-0.049902
-0.138877
-0.627606
0.377220
0.114718
-0.590816
-0.875875
-0.148107
-0.189352
0.051268
-0.234501
-0.096727
-0.131197
0.868772
0.728103
0.976832
-0.136385
0.397880
-0.037478
0.288334
0.640051
0.084714
0.473130
-0.134814
0.229964
0.891156
-0.140980
0.020725
-0.516351
0.211492
0.195430
-0.173748
-0.046281
-0.259276
0.355576
0.234941
-1.125695
0.188362
0.227110
1.009242
0.212460
0.239765
0.930802
0.472837
-0.110452
-0.141158
0.019773
-0.548700
0.005456
-0.093012
0.599999
-0.172550
0.037055
0.213967
-0.257633
0.089479
0.090429
0.084218
-0.321284
0.078252
0.094876
0.298838
-0.012141
1.237519
-0.483118
-0.094198
0.213360
-0.582024
0.725569
0.007387
0.423159
0.846702
-0.223077
-0.706993
0.134369
-1.412777
-0.127882
0.459113
-0.128117
0.107864
0.333145
0.018792
0.694361
0.220142
-0.317060
0.695310
0.752797
-0.118373
-1.035834
0.385670
0.471089
0.244427
1.147917
1.088479
0.569672
0.008758
0.024111
0.132345
0.708435
0.354336
0.162549
0.011461
0.062288
-0.895807
0.857874
0.088840
-1.587762
1.131578
0.563451
0.917870
0.072986
0.819498
0.050099
-0.029954
-0.083713
-0.605319
-0.624578
0.215798
-0.145864
0.078630
-0.071137
0.235033
-0.102605
-0.957911
0.024836
-0.084983
-0.599313
1.314672
-0.932203
-0.790608
-0.085307
0.245288
0.115838
-0.018931
-0.100297
-0.269644
0.185218
0.538260
-0.010196
0.145138
-1.135949
0.061291
-1.115580
-1.883700
0.326104
-0.050833
-0.061925
0.141222
1.102031
-0.019228
0.148759
-1.178075
0.044479
-1.452195
-0.329732
0.183066
0.988010
-0.174850
-1.101243
-0.709963
0.046443
0.219992
-1.521435
0.022600
-0.328382
1.346357
0.030619
-2.113619
0.585919
0.576704
0.089633
0.015499
-1.407236
-0.056966
-0.608818
-1.158296
3.835772
0.444685
-1.417967
0.007771
-0.018921
0.138811
1.636916
-0.336369
0.001098
-0.437501
-0.143539
-0.236773
-1.042193
0.304113
1.862551
0.095278
0.123700
-0.534403
-1.223709
-1.492751
0.065125
0.059477
0.185291
-0.032785
-0.113454
0.400816
0.097542
0.109687
2.120326
-1.812785
0.041476
-0.201488
0.812333
-1.312466
0.481856
0.064751
0.097246
0.128791
0.033102
biasvec 101
-4.089991
-4.433561
-4.331056
-3.841575
-3.912900
-3.746181
-4.028225
-3.937960
-4.091321
-3.874937
-3.964754
-4.033960
-4.336449
-4.151607
-4.149578
-4.257344
-3.924510
-3.932015
-4.038338
-3.844835
-3.954719
-4.016657
-4.012922
-3.574293
-3.848395
-3.897879
-4.614794
-3.936170
-5.192055
-5.143651
-4.386163
-3.863626
-3.966327
-3.967127
-3.626942
-4.043968
-3.962483
-4.123101
-3.925413
-4.400603
-3.779670
-3.860861
-4.005854
-3.894228
-4.084407
-4.045185
-4.052013
-3.897757
-4.518841
-4.050204
-4.429537
-4.862729
-4.067023
-4.902075
-4.048916
-4.706573
-3.980562
-3.825083
-4.182493
-3.943205
-4.298553
-4.673779
-4.976681
-3.877551
-3.632721
-4.055238
-4.004951
-3.979473
-4.587537
-4.081859
-4.042502
-3.833745
-4.883258
-4.185798
-4.452047
-2.814904
-4.740824
-3.580951
-3.992477
-4.542865
-4.473609
-4.609049
-4.014096
-4.070863
-4.008767
-3.847917
-3.920642
-3.918821
-4.088739
-4.071145
-3.990719
-5.227175
-4.018549
-2.379717
-1.157282
-3.898072
-4.902047
-4.087375
-3.757169
-4.030370
-3.960130
biasvec 6
-4.696619
-6.901075
-2.622411
-4.141176
-4.320435
-1.260451
