60 101 6
weigvec 6060
-0.154066
0.022268
-0.078654
0.151554
0.171062
0.259301
0.259292
0.181722
0.245878
0.168667
0.068837
0.030103
0.092769
-0.042405
-0.093399
-0.102015
-0.134041
-0.176123
-0.111451
-0.218720
-0.160998
-0.251479
-0.156566
-0.168111
-0.132857
-0.087287
-0.091604
-0.181292
-0.085892
-0.075152
0.038353
-0.056198
0.055882
-0.007415
-0.042775
0.110448
-0.060584
0.034380
0.113211
0.009460
0.006512
0.054693
-0.062708
-0.128515
-0.125521
-0.005704
-0.122314
-0.013900
-0.030033
-0.044397
0.187302
0.189356
0.264628
0.369178
0.324776
0.296092
0.079215
-0.010785
-0.071486
-0.282248
0.464025
-0.239426
-0.187918
0.332595
0.225413
0.059026
-0.144882
0.042503
0.114026
0.212659
0.115711
0.155859
0.024375
-0.078698
0.082306
0.067689
0.241680
0.131753
-0.019761
0.158018
0.144488
0.056752
0.018246
-0.013746
0.005141
0.180689
0.061850
0.015517
0.058987
0.277687
0.094288
0.147497
0.023113
-0.052174
-0.070349
0.066482
0.286054
0.269431
0.049131
-0.006787
0.036696
0.090531
0.096242
-0.130658
0.010853
0.198094
0.397304
0.120778
-0.030764
0.125861
0.560990
0.742188
0.772227
0.598223
0.006426
-0.689815
-0.748961
-0.485558
-0.561936
-3.160849
0.389945
0.261369
0.019886
-0.078570
-0.028642
-0.021010
-0.103402
-0.321154
-0.164143
-0.086258
0.018568
0.054278
0.268031
0.259631
0.272934
0.171812
0.213082
0.181250
0.042045
-0.036862
-0.093975
-0.061909
0.011920
0.016444
0.010093
0.202840
0.025137
0.097281
0.061745
0.102600
0.030554
0.035895
0.085046
0.069688
0.142546
0.010634
0.072168
-0.080800
0.065443
0.057060
0.030654
0.108103
0.029759
-0.079878
-0.142693
-0.051904
-0.051870
-0.008926
-0.054234
0.022411
0.051620
0.027715
0.158507
0.227500
0.119480
0.049161
-0.104225
-0.267244
-0.534455
-0.385944
0.901257
0.685081
0.269167
-0.003393
-0.152516
-0.364245
-0.275423
-0.237841
-0.294253
-0.192678
-0.296275
-0.253887
-0.070863
-0.137251
-0.165568
-0.221015
-0.214947
-0.148557
-0.172222
-0.190274
-0.264027
-0.165780
-0.124209
-0.136518
-0.099115
0.026270
-0.061734
0.026002
-0.041840
-0.138139
0.077136
-0.059697
0.122438
0.014419
-0.013132
0.006717
0.053301
0.070466
0.208191
0.089199
0.081821
-0.049590
-0.032759
0.141686
0.124867
0.118510
-0.021732
-0.109900
0.045206
0.206395
0.172913
0.025587
-0.000751
0.174907
0.394095
0.138749
-0.150313
0.144816
0.657043
-0.587030
0.183537
0.163814
0.114654
-0.023989
0.013500
-0.172583
-0.253013
-0.299561
-0.370361
-0.470792
-0.413383
-0.420887
-0.264174
-0.411612
-0.438788
-0.314710
-0.259212
-0.043924
0.113213
0.167107
0.125717
0.214482
0.163281
0.227408
0.105598
0.119693
0.051812
-0.006379
0.049564
-0.033639
0.121862
0.074296
0.086788
0.053403
0.091174
0.060619
0.002592
0.027970
-0.001568
0.056408
0.007682
0.004289
-0.060276
0.077339
0.160351
0.205934
0.171472
0.036038
-0.002769
0.094350
0.307659
0.232545
0.218310
0.377152
0.319065
0.024794
-0.217131
0.402300
0.685932
-1.177810
-0.018051
0.003590
-0.027498
-0.052574
-0.057412
0.055145
0.028818
0.127901
0.003306
-0.071185
-0.083622
-0.027097
0.106456
0.067113
-0.001016
-0.052057
-0.073996
-0.041173
0.022886
0.035566
0.050566
0.045238
0.175973
-0.015795
-0.206099
-0.128935
0.042586
0.160810
0.039177
0.012273
-0.078793
-0.074732
0.020114
0.163487
0.089261
-0.076270
-0.133807
-0.047166
0.033521
-0.205495
0.189800
-0.227780
-0.086614
0.182959
0.612200
0.823035
0.471731
0.130071
-0.306050
-0.734422
-1.368703
-1.253495
-0.158762
1.221622
1.695613
1.167638
0.015369
-1.434180
-1.835826
1.049054
1.226753
-0.336647
-0.354420
0.054715
0.170459
0.160455
-0.050696
-0.009678
0.212857
0.033859
0.088984
-0.004511
0.109846
0.167344
0.031239
0.123385
0.175796
0.053395
-0.097661
0.146544
0.062674
0.047583
-0.018261
-0.133198
0.077029
0.195737
0.057486
-0.060275
-0.091652
0.006213
0.087673
-0.115997
0.040466
-0.036046
0.088250
0.030598
0.076295
0.019477
-0.095161
-0.006430
0.093316
0.250545
0.080376
-0.320317
-0.449946
-0.220509
0.220267
0.057738
-0.081078
0.003072
0.036235
-0.074393
-0.553749
-0.930102
-0.925176
-0.503083
0.061751
0.389067
0.218896
-0.401009
-0.086362
-0.050033
0.037718
0.053330
0.059192
0.033479
0.088505
0.139793
0.075127
-0.021402
0.008928
-0.032193
-0.003657
-0.076884
-0.099565
-0.037884
0.003019
0.197126
0.353382
0.281356
0.272075
0.243393
0.158926
0.055557
-0.034453
-0.183953
-0.038590
-0.104051
-0.075522
-0.084328
-0.008663
0.005536
-0.186832
-0.153777
-0.101030
-0.073736
-0.221347
-0.216065
-0.135716
-0.138175
-0.057756
-0.076907
-0.008098
0.203266
0.447604
0.365812
0.291352
0.229219
0.054816
-0.285118
-0.618974
-0.508384
-0.210837
0.024088
-0.076615
0.095670
0.072109
-0.018348
-0.312367
0.232989
-0.264775
0.202597
0.015598
-0.006245
-0.065310
-0.205469
-0.100377
-0.164473
-0.089101
0.045512
-0.076528
0.192016
0.472937
0.535035
0.594132
0.262786
0.180419
0.162936
-0.066550
-0.139511
-0.296680
-0.176107
-0.114472
-0.261626
-0.275871
-0.135300
-0.073898
-0.081108
-0.119241
-0.153268
-0.038253
-0.093889
-0.099110
-0.274189
-0.224060
-0.073966
-0.104546
-0.063691
-0.059421
-0.001531
0.096029
0.016150
-0.017725
-0.013311
0.054080
0.134054
0.159854
0.050920
0.055985
0.168688
0.021895
0.036898
0.195550
0.291583
0.433218
0.154069
-0.056789
0.015942
0.179076
-0.266333
0.074521
-0.039301
-0.015057
-0.005330
-0.038117
0.065604
-0.105756
-0.036471
-0.052744
0.037754
-0.015804
0.032449
-0.045530
0.081246
0.118810
-0.041795
0.113191
-0.080313
-0.016984
-0.069920
-0.097398
-0.109938
-0.028913
-0.011767
0.045375
-0.031415
0.083550
-0.058696
0.051031
0.023648
0.018127
-0.058186
0.026035
-0.092214
-0.078238
0.052255
0.077241
-0.103642
0.084059
-0.040038
-0.023718
0.055411
-0.044979
0.091127
0.026512
0.007659
-0.025567
-0.021227
0.066002
0.021019
0.000107
0.033253
0.072530
-0.059699
0.031192
0.012371
-0.016075
-0.074679
-0.129940
-0.061530
0.012600
0.007315
0.003581
0.047250
-0.054907
-0.020957
-0.074405
-0.035413
0.111564
0.055557
0.106570
0.102824
0.088024
0.012026
0.123835
-0.029415
0.064891
0.079095
-0.028037
-0.044742
-0.057776
-0.030155
-0.029628
-0.136982
-0.047952
-0.036253
-0.078885
-0.023338
-0.071241
0.001544
-0.057204
0.066813
0.002293
-0.050430
-0.011608
-0.082952
0.009875
-0.098126
0.039752
-0.023253
-0.048846
-0.098333
0.007483
-0.041854
0.007259
0.039544
0.044101
-0.014596
0.096967
-0.041116
-0.007244
0.095379
0.110280
0.145809
0.052465
0.117522
-0.014085
0.042902
-0.046365
-0.063146
-0.052215
-0.023210
-0.026142
0.062414
-0.050943
0.002514
-0.054505
-0.098110
0.017523
0.020797
-0.079905
0.042074
0.055180
-0.003406
-0.133927
-0.119713
-0.022261
-0.044762
0.097295
0.034058
-0.011252
-0.052460
-0.035784
-0.048282
0.121863
0.093576
-0.102932
-0.099781
-0.082568
0.023556
0.040056
-0.010094
-0.066770
0.092428
-0.013731
0.152932
-0.042241
0.013605
0.080139
-0.143893
0.002104
-0.016861
-0.088272
-0.198009
-0.127674
0.103220
0.112746
0.037233
0.001561
0.039134
0.087422
0.044336
0.080434
0.042236
0.136431
0.007743
0.073915
0.115600
0.124302
0.207868
0.089213
0.028574
0.056403
0.033780
-0.028027
0.073353
-0.078373
-0.039968
0.052444
-0.014493
0.043626
0.045247
0.022720
-0.005267
-0.040959
-0.064514
0.060753
-0.012208
0.009228
0.059650
0.044407
-0.098024
0.066292
0.018468
0.024732
0.082577
-0.008414
-0.052378
0.015581
-0.013514
0.059453
0.102888
0.054605
-0.035346
0.125563
-0.029394
-0.009148
0.106886
-0.099124
-0.145747
-0.031479
-0.110983
0.107211
-0.038298
-0.112163
-0.156673
-0.104990
0.096004
-0.140858
-0.209720
-0.117975
-0.093392
-0.115112
-0.112317
-0.154062
0.062027
0.047741
0.085858
-0.003550
0.210082
0.025843
0.036593
-0.106633
0.079032
0.047937
-0.020591
0.065901
-0.100038
-0.101494
0.093722
-0.015811
0.105741
-0.020830
-0.106218
0.012163
0.027966
-0.076167
0.000546
0.064122
-0.004205
-0.055165
-0.038155
0.106588
0.066977
-0.034171
-0.035857
-0.067156
0.091390
0.061937
-0.080675
0.014108
-0.060837
-0.088275
0.078681
0.072836
0.072186
-0.042296
-0.065754
-0.004539
-0.098796
-0.070805
0.125700
0.132933
0.039707
-0.166561
-0.150239
0.047943
-0.122465
-0.040577
-0.068070
-0.053751
-0.044494
0.077187
0.047944
0.100598
0.041908
-0.005996
-0.052096
0.040460
0.077231
-1.507798
-1.170269
-1.230156
-1.081034
-0.702847
-0.387472
0.081172
0.298562
0.339307
0.092626
-0.002055
-0.004402
0.230639
0.389440
0.461778
0.186724
0.014714
0.030867
0.137913
0.032608
-0.076077
-0.081949
0.023564
0.100187
-0.076426
0.032476
0.087673
0.096592
0.351792
0.099736
0.233619
-0.105730
0.247201
0.102799
0.235870
-0.041758
0.043716
0.009629
0.252470
0.070251
0.196420
0.042043
-0.003983
0.097507
0.049220
0.055033
0.015120
0.062955
0.105190
0.246544
0.185818
-0.044623
-0.051660
0.256202
0.236479
0.008045
-0.285907
0.288318
0.738367
-0.157137
-0.153723
0.377906
0.160235
-0.020512
0.201038
0.190802
0.112978
0.030166
0.070995
-0.009755
-0.121906
0.062360
0.082197
0.055421
0.087197
0.053785
-0.031564
0.165126
0.072677
0.068374
-0.127791
-0.180639
-0.246557
-0.364311
-0.421066
-0.319285
-0.176467
0.132142
0.297756
0.190565
0.341879
0.033689
0.260866
0.391368
0.283494
0.268384
-0.027380
-0.238512
-0.096353
-0.214685
-0.540774
-0.528213
-0.557083
-0.208212
-0.019793
0.077139
-0.076283
-0.055338
0.166760
0.122741
0.079990
-0.116525
-0.137548
0.000963
0.297633
0.117976
0.063755
0.014254
0.020372
0.176452
-0.806074
-0.429663
-0.408012
-0.302541
-0.081894
0.068519
0.080869
0.200990
0.311518
0.238256
0.136873
0.145909
0.024783
0.115922
-0.075048
-0.180768
-0.287616
-0.165172
-0.105953
-0.002168
-0.016451
0.017750
0.036309
-0.020988
-0.149902
-0.059063
-0.085642
-0.054133
0.007582
-0.056274
-0.051740
-0.093795
-0.058087
0.014193
0.009687
0.039251
-0.052943
0.031579
0.069851
0.118625
0.230024
0.036244
0.040439
0.049859
0.125389
0.131955
-0.093627
0.015132
0.080419
0.106329
0.234114
0.244392
0.054441
0.175533
0.145619
0.172871
-0.184920
0.028744
0.423126
-0.132381
-0.040324
0.056868
0.055292
-0.029947
-0.087568
-0.056837
0.066421
-0.097388
-0.001824
-0.044043
-0.045899
-0.034280
-0.086424
-0.098802
-0.021973
0.061413
0.103446
0.028374
0.021119
-0.091118
-0.080791
-0.018782
-0.083438
-0.057119
0.008373
-0.003781
0.108606
0.011446
0.039527
0.042060
-0.009538
-0.029567
-0.083868
-0.110354
0.083601
-0.087535
-0.097227
0.026495
0.036850
0.091399
0.028649
0.023507
0.035960
0.014834
-0.009534
-0.002100
0.087726
-0.088917
0.050815
-0.112847
-0.076653
-0.081938
0.014102
0.011599
-0.063371
-0.019247
-0.003513
0.032121
-0.168356
-0.072888
0.190909
-0.208143
-0.337444
-0.350001
-0.485071
-0.693992
-0.605197
-0.514093
-0.545827
-0.346062
-0.391181
-0.264269
-0.042052
0.008980
-0.001749
0.003452
0.168233
0.096581
0.137926
0.185676
0.189210
0.158291
0.162179
0.081195
-0.028346
-0.056577
0.017219
0.059339
-0.031410
0.116089
0.029316
0.148377
0.134675
0.206195
0.245488
0.190497
0.168883
0.195413
0.203040
0.258387
0.355598
-0.136481
0.077652
0.187972
0.236486
0.168823
0.189848
0.044784
0.062541
0.019778
-0.166339
-0.123110
-0.162896
-0.048300
-0.142283
0.027141
0.143167
0.032573
-0.057035
0.639298
0.106952
0.110639
0.022519
0.081932
0.068639
-0.030486
-0.052103
-0.009922
0.082724
-0.013930
0.148522
0.140976
0.200356
0.186558
0.151294
0.135657
-0.073355
-0.096735
-0.220223
-0.332253
-0.349434
-0.302379
-0.284650
-0.128565
-0.153148
-0.132263
0.055068
-0.013214
0.108744
0.046697
-0.022761
0.157592
0.066070
0.131434
0.072533
0.117942
-0.059962
0.070099
0.044859
-0.034256
0.056196
0.038236
-0.053768
0.055602
-0.033326
0.043194
0.049145
0.139849
0.116288
0.067314
0.088910
0.016697
0.021362
0.079908
0.082259
-0.024436
-0.202007
-0.225451
-0.306678
-0.255379
0.007673
0.048888
-0.034582
-0.003063
0.016886
-0.021190
0.071802
-0.057501
0.039138
0.070449
0.027210
0.098432
-0.006327
0.047395
0.002275
0.022004
-0.079569
0.017540
0.090221
-0.029255
0.033346
0.010133
-0.038357
-0.079895
0.095101
-0.038515
-0.001518
-0.044078
-0.101383
-0.038345
-0.019233
0.018081
0.024330
-0.033762
-0.063459
0.086731
0.087226
-0.067971
0.062777
-0.122648
-0.089333
-0.126451
0.073937
0.036812
0.054815
-0.046302
0.057588
0.125780
0.003154
0.010625
0.109057
0.056503
0.050423
-0.040621
0.137818
-0.006764
-0.070950
-0.046253
0.059465
0.046029
0.044402
-0.065533
-0.016979
-0.020302
0.041451
0.120831
0.149979
0.171486
0.054689
0.126833
0.063512
-0.037063
-0.001157
-0.092045
-0.070620
-0.168215
-0.074332
-0.035651
0.017374
0.002229
0.009163
0.070492
-0.023584
-0.005433
-0.020999
0.080943
0.041109
0.121140
0.219853
0.197840
0.247880
0.157074
0.268595
0.289946
0.097903
0.169460
-0.048305
-0.151286
-0.114099
-0.200611
-0.090890
-0.113178
0.013614
0.106599
0.042015
0.164344
-0.017713
0.002818
-0.137393
-0.245046
-0.321525
-0.240730
-0.170010
-0.102853
-0.066659
-0.126386
-0.072460
0.050323
0.060537
0.155241
0.288879
-0.068198
-0.083907
-0.092444
-0.097188
-0.034794
-0.082244
-0.071399
0.066100
0.100102
0.138701
0.124323
0.167362
0.152761
0.151303
0.218550
0.218147
0.183678
-0.030884
0.047578
-0.030258
-0.186241
-0.239381
-0.053479
-0.093295
-0.113676
-0.086703
-0.187318
0.008041
-0.071551
0.003951
-0.052189
-0.118845
-0.005387
-0.007888
0.146975
0.156867
0.162302
0.141283
0.153084
0.105257
0.140031
-0.026628
-0.073334
0.008411
0.080182
0.221918
0.334717
0.057256
-0.263923
-0.510554
-0.522702
-0.330447
-0.100682
-0.064441
-0.074939
-0.105184
-0.122404
-0.251433
0.577974
0.477788
0.277831
0.206186
0.200833
0.010937
0.014929
0.034833
0.159566
0.252668
0.177268
0.031894
0.130182
-0.010986
-0.131867
0.000422
0.023579
0.037343
0.001628
-0.072477
0.016321
0.154411
0.079707
0.004939
0.023697
0.071413
0.011407
0.046931
0.031829
0.048012
-0.164160
-0.048092
-0.227722
-0.132681
-0.135964
0.003880
-0.147744
-0.195502
-0.261204
-0.231256
-0.133395
-0.311338
-0.287662
-0.181808
0.016158
-0.257296
-0.298255
-0.136056
0.182592
0.208915
-0.179840
-0.140112
0.187310
0.211434
0.105755
0.164228
0.051196
0.024134
0.140586
-0.022839
-0.379161
-0.091240
0.002823
-0.051528
-0.029945
0.011348
-0.003232
0.055203
0.004450
-0.022788
-0.074982
-0.113270
0.065324
-0.110616
-0.103581
-0.037130
-0.061018
-0.106998
-0.032415
-0.094670
-0.024330
0.098672
-0.037751
0.010235
0.045751
-0.000915
0.055521
-0.054762
0.076691
-0.045636
-0.110333
0.017360
-0.107502
-0.027177
-0.020493
0.025204
-0.054423
0.033648
0.044395
0.029280
0.039324
-0.011116
-0.057798
0.026570
0.013400
0.014752
-0.034927
0.065513
-0.042489
0.025169
0.043589
0.113988
0.011837
0.114668
0.073116
0.030876
0.032100
0.109411
0.089656
-0.097007
-0.040998
-0.071154
0.209073
-0.022490
-0.119926
0.124709
0.109496
0.122497
0.046913
0.069922
0.000721
0.054270
-0.082030
0.025367
0.045684
0.154767
0.101099
0.012117
0.353495
0.304961
0.408608
0.125169
0.111596
-0.075746
-0.265805
-0.566450
-0.696598
-0.790556
-0.712768
-0.689605
-0.364495
0.186713
0.246953
0.407610
0.450766
0.672430
0.498585
0.364066
0.022058
0.223209
0.257945
0.257157
-0.055643
-0.249170
-0.175578
0.036192
-0.104792
-0.339435
-0.481828
-0.304780
-0.002725
0.025876
-0.182033
-0.128377
0.086325
0.154059
0.208416
0.046197
-0.021599
0.069107
0.356532
-0.190800
-0.056903
-0.165149
-0.076755
-0.172110
-0.112233
-0.216154
-0.164436
-0.038728
0.010535
-0.105982
0.000407
0.031029
-0.010440
0.018803
0.074198
0.091718
0.079370
-0.046433
0.107527
0.087189
0.178104
0.094445
0.191891
0.021034
0.052067
0.082430
-0.077586
-0.116331
-0.114644
-0.096728
-0.220808
-0.091675
-0.165651
-0.019927
0.067095
0.006758
-0.026300
0.031860
0.000444
-0.025932
-0.006600
0.068240
0.069769
0.286245
0.152253
0.137532
0.215850
0.132024
0.066337
0.264443
0.254301
0.275180
0.354444
0.292954
0.055102
-0.048976
-0.102880
0.116497
-0.500955
-0.614382
0.631380
0.087706
-0.112011
-0.138267
0.064596
-0.033989
0.060488
0.003736
-0.049358
-0.021240
-0.035264
-0.015438
0.122605
0.074472
-0.011689
-0.056727
-0.058165
0.055332
0.050619
-0.108432
-0.008022
0.090664
-0.046145
-0.242289
-0.091584
0.172427
0.119002
-0.097317
-0.267035
0.150654
0.105365
-0.077349
-0.160491
0.053264
0.147735
-0.081005
-0.217050
0.014480
0.108854
0.037396
-0.204613
-0.092168
0.109810
0.117486
-0.010623
-0.149985
-0.092465
0.084305
-0.405742
-0.987987
-0.478449
1.202363
2.974944
2.439121
-0.533031
-2.677505
-0.922303
1.740456
-1.624917
-0.375933
0.279476
0.137793
0.181099
0.207036
0.115378
0.225035
0.235604
0.157570
0.067282
-0.003813
-0.065909
0.050773
-0.047503
-0.092036
-0.244089
-0.322246
-0.451562
-0.275580
-0.361238
-0.374053
-0.238612
-0.236673
-0.255560
-0.079101
-0.093872
-0.093794
0.004616
-0.035994
-0.083167
-0.019534
0.004817
0.109118
0.017748
0.092229
0.066691
0.045174
-0.011783
0.108409
0.050600
0.068581
0.078265
-0.001706
0.129854
0.229433
0.091018
0.108591
0.047380
0.073874
0.208191
0.173920
0.125210
0.267974
0.450239
0.401763
0.027929
-0.220026
0.469706
1.002040
-1.534760
-0.127460
-0.197631
0.160442
0.134882
0.096337
0.026467
-0.113405
-0.162195
-0.030491
-0.038740
0.025712
0.009787
-0.034313
-0.029995
-0.049042
-0.023167
0.074151
0.124779
0.042868
-0.107892
-0.105247
-0.100383
-0.135845
0.003969
0.088746
0.018345
-0.199366
-0.056279
-0.090185
0.081390
-0.052406
0.095666
0.039366
-0.137706
-0.096650
-0.055217
-0.157483
0.057112
-0.091326
-0.017934
-0.181639
0.283008
0.519279
0.356008
-0.019130
-0.106864
-0.161607
-0.288091
-0.308922
0.016326
0.719625
1.043663
0.818248
0.138388
-0.601331
-0.617967
-0.266348
0.132540
-0.199342
-0.035872
0.285883
0.139072
0.092332
0.194424
0.141163
-0.038469
0.057156
0.033460
0.135963
0.123029
0.132270
0.088087
0.052591
0.034164
0.056206
0.176564
0.084235
-0.121481
-0.078509
0.093405
0.206542
0.055814
0.130804
-0.085214
-0.148877
-0.076311
0.001442
0.091527
0.052714
-0.079902
-0.036261
0.035920
-0.004036
-0.030698
-0.028225
0.129562
-0.000305
0.004577
0.069675
0.086831
-0.087014
-0.089097
-0.147589
0.031707
0.008923
-0.102593
-0.144600
-0.109604
-0.171500
-0.028880
-0.024702
-0.057986
-0.147930
-0.143555
-0.124879
-0.039681
-0.002244
-0.070266
-0.046189
-0.100266
-0.025418
0.000298
-0.059001
0.073469
-0.098295
0.043674
-0.118348
-0.117941
-0.004666
-0.088913
-0.061331
-0.087717
0.049821
0.029536
0.046274
-0.060433
0.115263
-0.001945
0.112101
-0.001238
-0.075693
0.060890
0.042434
-0.070503
-0.073415
-0.054077
0.033439
-0.028012
0.087426
0.069515
0.089966
-0.016307
-0.050594
0.090456
-0.016791
-0.109774
-0.040301
-0.085817
-0.014058
0.007362
-0.103098
0.060785
-0.046932
-0.083210
0.021563
-0.032055
-0.076793
-0.015034
0.085530
-0.068218
0.042696
-0.052504
0.098404
0.066566
0.115071
-0.029251
0.094799
-0.030285
-0.039226
0.006204
0.165897
-0.005805
0.059701
0.064544
0.049012
-0.055664
-0.097009
-0.108513
-0.048408
-0.103739
0.001976
-0.059382
0.074564
-0.081379
0.115258
0.006283
0.049170
-0.006298
-0.035875
-0.069983
0.027563
-0.010947
0.014928
0.025088
0.011638
0.055922
0.094397
0.118795
0.027168
0.143029
0.058890
0.079297
-0.025545
-0.129588
-0.175140
-0.067081
0.017548
-0.116299
0.041276
0.043804
0.116925
0.078313
0.022637
0.109917
-0.004997
0.019756
-0.062471
-0.151376
-0.088100
-0.068556
-0.007825
-0.050130
0.008778
0.079288
0.052943
-0.049775
0.007642
-0.132978
-0.020985
-0.020325
-0.213380
0.313140
0.112984
-0.137161
-0.031735
0.032268
-0.003539
0.011269
0.034919
0.105581
-0.031582
-0.016555
0.067969
0.089761
0.043908
0.039352
-0.034402
0.000707
0.118797
0.006891
-0.039677
0.032218
0.023490
0.048685
0.066932
0.013977
-0.094562
-0.010049
0.028474
0.013002
0.179391
0.146710
0.149227
0.000526
-0.074222
0.021202
0.201048
-0.084915
0.089881
0.058130
0.101331
-0.304197
-0.676415
-0.537392
-0.313796
-0.584652
-1.234205
-1.442376
-1.153263
-0.641994
-0.298660
-0.253863
0.014535
0.774415
1.431522
1.384852
0.623626
0.338427
0.705578
1.294615
-1.718351
-1.064921
-0.549755
-0.255818
0.077930
0.181470
0.135833
0.277361
0.213867
0.243378
0.087743
0.046639
-0.072950
0.053067
0.027818
0.239392
0.222638
0.097709
0.074400
0.060516
0.063076
0.059032
-0.019248
0.056036
-0.028603
0.076193
0.084502
0.191861
0.139264
0.059724
0.102090
0.073117
-0.032872
0.099503
0.178964
0.117640
0.109893
-0.024656
0.055981
0.006950
-0.118067
-0.041981
0.115179
0.057094
0.107695
0.174338
0.109386
0.073680
0.076795
0.024853
0.155895
0.216401
0.184706
0.447684
0.556949
0.070582
-0.187148
0.217115
0.454738
-1.051602
-0.212662
0.130138
-0.025770
-0.048167
-0.083370
-0.020165
-0.172230
-0.128343
-0.069363
-0.086870
-0.153913
-0.162435
0.042432
-0.081895
0.056497
-0.078670
-0.067750
-0.010168
-0.135690
-0.048933
-0.166410
-0.234032
-0.012589
-0.086752
-0.063715
0.102896
0.269367
0.194317
0.439938
0.300539
0.332113
0.195730
0.400986
-0.076420
-0.390301
-0.311287
0.079264
-0.197568
-0.507077
-0.458334
-0.089993
0.157711
-0.141845
-0.188587
-0.071563
-0.001034
-0.185153
-0.303429
-0.179425
0.084434
0.108590
0.057511
0.257106
0.356018
0.305374
-0.071512
-0.281469
-0.240933
0.291260
0.372375
-0.819305
0.097381
0.017907
0.125779
0.373884
0.496219
0.484282
0.444302
0.340767
0.068219
-0.098529
-0.181354
-0.039810
-0.131470
-0.200467
-0.207895
-0.238813
-0.252220
-0.179146
-0.136027
-0.219617
-0.266643
-0.175738
-0.212770
-0.293638
-0.346987
-0.177313
-0.293222
-0.164086
-0.304787
-0.209993
-0.370781
-0.308926
-0.247130
-0.102413
-0.193634
-0.128952
-0.153356
0.110519
0.166123
0.328184
0.054722
0.010491
0.095794
0.149829
0.214989
0.195315
0.166823
0.273701
0.328061
0.278028
0.038750
-0.042448
0.207442
0.216482
-0.050513
-0.145669
0.027081
0.562263
-0.023595
0.871551
0.512640
0.381432
0.313260
0.233521
0.152852
0.115760
-0.061840
0.089554
-0.086088
-0.034328
-0.212517
-0.232641
-0.133596
-0.273103
-0.175245
-0.118448
-0.115998
-0.129052
-0.039511
-0.070688
0.044560
0.122778
0.088172
0.077580
0.062813
0.159771
0.026441
-0.163588
-0.096440
-0.215956
-0.057267
-0.065839
-0.097221
-0.052618
-0.040990
-0.009873
-0.015372
-0.083183
0.020271
0.210138
-0.090449
-0.245245
-0.276115
-0.162522
-0.167439
-0.236697
-0.286726
-0.175703
-0.160264
-0.232230
0.030729
0.092106
0.004663
-0.200713
-0.193709
0.092130
-0.091885
-0.177510
0.362881
-0.314173
0.147023
0.004665
-0.108453
0.040415
-0.054424
0.024114
-0.076525
0.109959
0.282495
0.271271
0.281026
0.365083
0.394359
0.129180
-0.145352
-0.172481
-0.207440
-0.158838
-0.205846
-0.503489
-0.593258
-0.613356
-0.525588
-0.533660
-0.438200
-0.390775
-0.112795
-0.084600
-0.226796
-0.065659
-0.141405
0.199178
0.220624
0.397885
0.209867
0.181809
0.085488
0.497400
0.330514
0.623847
-0.517138
0.104645
0.339251
0.335100
0.393966
0.096606
0.123344
-0.015870
-0.120036
-0.264583
-0.153828
-0.337376
-0.271483
0.044801
0.148699
0.155648
0.168945
0.306040
0.024378
0.017372
-0.040302
-0.030743
0.119900
-0.042212
-0.032109
-0.058563
0.023165
0.024530
0.032850
-0.001131
-0.033932
-0.001629
0.057123
-0.024172
-0.012378
0.025097
-0.005792
0.115558
0.007118
0.034613
-0.047943
0.071202
-0.054850
-0.055928
0.007129
-0.014979
-0.052414
0.111499
0.063328
-0.036605
0.022934
-0.038841
0.048599
-0.036957
0.107501
0.008235
0.058473
-0.019062
-0.073030
-0.030397
0.039297
0.057753
0.145813
0.045357
0.285463
0.109236
-0.107672
-0.607648
-1.150767
-1.326772
-1.055273
-0.346811
0.759694
1.594321
1.143354
-0.081746
-0.960062
-0.410979
0.709287
-0.145297
0.317192
0.013155
-0.056715
0.021241
0.215483
0.252711
0.318538
0.275586
0.041645
-0.090925
-0.282239
-0.254678
-0.288679
-0.633823
-0.656725
-0.696634
-0.309951
-0.055764
0.134576
0.100546
0.139165
0.130343
0.305800
0.297221
0.377347
0.390577
0.384199
0.458971
0.418065
0.331038
0.273094
0.329459
0.347578
0.284849
-0.034843
-0.217885
-0.195647
0.034156
-0.082675
-0.144999
-0.493448
-0.289435
-0.104676
0.027684
-0.104227
-0.259156
-0.397903
-0.303091
-0.173086
-0.103969
-0.233541
-0.197358
0.147547
0.444333
0.188680
0.058794
0.055344
0.318420
-0.134333
-0.146770
0.142351
0.039279
-0.061660
-0.025816
0.006521
-0.068642
-0.013956
0.102026
-0.026443
0.049357
-0.002837
-0.013643
0.002025
-0.048655
0.137818
0.023127
0.179674
0.251407
0.295752
0.239204
0.325431
0.177586
0.063545
-0.117871
-0.238994
-0.131115
-0.297602
-0.183122
-0.210921
-0.030265
0.058397
0.213631
0.067361
0.152112
0.145168
0.026151
-0.039338
-0.095149
-0.093198
-0.141485
-0.138393
-0.318355
-0.271457
-0.278640
-0.231486
-0.343843
-0.187896
-0.086348
0.065298
0.147514
0.106529
0.010654
0.222872
0.194191
0.060340
-0.035544
-0.156756
-0.109432
0.183503
0.065338
0.010494
0.001211
0.047734
-0.054368
-0.060158
-0.025526
0.101860
-0.027722
-0.009724
-0.019134
0.009934
-0.088162
-0.039685
0.004656
0.000038
0.050215
-0.044800
-0.036887
0.013962
-0.094419
0.046779
0.077395
-0.039713
0.094259
-0.005725
-0.084030
0.092796
-0.062723
0.036115
-0.007045
0.015018
-0.042943
0.024980
-0.015164
-0.013659
-0.063002
0.041797
0.054195
0.069137
-0.023915
-0.040925
-0.005224
-0.005700
-0.051826
-0.040354
0.065123
0.034811
-0.014672
0.003784
-0.115170
-0.015837
-0.100554
-0.154033
0.028520
0.025071
-0.001465
-0.007217
-0.075438
0.080450
-0.172989
0.156533
-0.025883
-0.000528
0.049078
-0.003368
0.139264
0.137254
-0.017749
-0.019004
-0.153108
-0.069242
0.114033
0.073569
0.021923
-0.026108
-0.180102
-0.138941
-0.044336
-0.007451
0.187284
0.174105
0.059899
-0.044568
-0.046089
-0.053780
-0.014321
0.021423
0.038872
-0.109469
0.124253
0.112345
0.371710
0.270000
0.279852
-0.195236
-0.474819
-0.609058
-0.485085
-0.417163
-0.775736
-0.996089
-0.986535
-0.722270
-0.284532
0.063731
-0.069585
0.031745
0.201252
0.487996
0.568033
0.483213
0.600925
0.682466
0.825530
0.474025
-0.047956
-0.067447
0.299199
0.126041
0.036076
-0.070586
0.038343
-0.066366
0.012028
0.066804
-0.001129
-0.037472
-0.051290
0.000506
-0.020346
-0.010605
0.110296
0.055348
-0.087113
0.097483
-0.041585
0.105942
-0.075346
0.009037
0.061226
-0.021032
-0.057276
0.024975
0.090606
-0.061032
-0.086866
-0.107890
-0.065083
0.058844
0.018639
-0.006161
-0.010007
-0.018309
-0.012514
0.053800
0.019188
-0.010831
-0.059359
0.017723
-0.053886
-0.090004
-0.103171
-0.018994
-0.022268
-0.056566
-0.056773
-0.010260
0.022362
0.091759
0.015723
0.098243
-0.030602
0.118839
0.102726
-0.032968
-0.030463
-0.034025
-0.071658
-0.024969
0.088816
0.119985
0.107814
0.119385
0.039673
0.022044
0.031250
-0.000781
-0.061244
-0.031565
-0.014250
-0.098746
-0.009294
-0.036413
-0.126256
-0.004061
0.014058
-0.105204
-0.044709
0.027187
-0.147301
-0.103308
-0.043881
0.076792
-0.089023
-0.054455
-0.021908
-0.044725
-0.073164
0.022249
-0.069711
-0.013833
-0.026625
-0.043409
-0.106262
-0.097044
0.043303
-0.009083
0.123982
0.207708
0.455891
0.098828
0.242971
0.325169
0.237990
0.068882
0.046362
0.029030
0.036913
-0.087366
-0.223927
-0.337599
-0.414322
-0.363613
-0.370163
-0.006969
0.181865
0.103770
-0.128999
0.079551
0.202964
0.196882
0.046919
0.098751
0.060743
-0.142974
-0.049615
-0.177110
-0.238503
-0.178297
-0.160477
-0.027212
-0.093105
0.039121
0.016432
0.048838
-0.044805
-0.062698
0.006401
-0.068363
0.077638
-0.028361
-0.024447
0.045248
-0.001637
0.069363
0.135323
0.073007
0.196173
0.166674
0.157416
0.059660
0.144615
0.113952
-0.018334
-0.045556
-0.094271
0.026514
-0.066132
-0.123828
0.011695
-0.049821
0.026716
0.156365
0.166015
0.178522
0.016081
0.000734
-0.015753
-0.166639
-0.328682
-0.328566
-0.171034
-0.142108
-0.170313
-0.118231
-0.029805
0.038173
0.085658
0.123524
0.037765
-0.058460
0.020918
0.031772
0.111592
0.031211
0.153876
0.037459
0.160145
0.103358
-0.019715
-0.016782
-0.110052
-0.156554
-0.010104
-0.174236
-0.176479
-0.187463
-0.088176
-0.136847
-0.115278
-0.048182
-0.029020
-0.071496
0.138427
0.138688
0.112525
0.039155
0.201974
0.100736
0.034609
0.170846
0.001030
0.130137
0.050860
0.061496
-0.111098
-0.058319
0.014097
-0.040976
-0.010118
0.100728
0.031594
-0.001496
-0.003930
0.005729
0.203093
0.200399
0.097769
-0.082692
-0.276953
-0.193174
-0.113719
-0.030491
-0.064004
-0.058712
-0.212938
-0.129778
-0.205563
-0.136571
-0.057538
0.189891
0.134425
0.018253
0.169206
0.002468
-0.045856
-0.007237
0.147923
0.067878
-0.035635
0.036480
0.079603
0.121917
0.066296
0.051482
-0.113737
0.018034
0.116964
-0.029807
-0.120271
-0.007492
0.090685
0.122821
0.093015
0.102567
0.183389
0.112094
0.087611
-0.140589
-0.151775
-0.060033
-0.135113
-0.021641
0.068918
0.197959
0.448664
0.150703
0.149227
0.204951
0.273738
-0.196326
-0.593340
-0.739677
-0.362216
-0.340251
-0.754130
-0.940595
-0.398189
0.111169
0.307453
0.220491
0.149481
0.541089
0.660422
0.457080
0.008359
-0.238295
-0.135311
-0.010753
0.015232
0.001411
0.013024
0.047198
-0.045569
-0.058686
0.051927
-0.024335
-0.103073
-0.088535
0.068690
-0.049970
0.084191
0.028324
0.082996
-0.002741
0.103031
0.065837
-0.020293
0.078496
-0.019078
-0.090157
0.020541
0.050339
-0.021525
0.052635
-0.047054
0.016948
-0.034362
0.096866
0.000858
-0.049521
0.104003
0.012051
0.092102
-0.006135
0.066216
0.048112
-0.056759
-0.073093
0.000941
-0.026892
-0.012991
0.008711
0.029306
-0.015841
0.038197
-0.078678
0.003518
0.098654
0.093295
0.074182
-0.015108
0.075081
0.061250
0.035769
-0.001796
-0.033974
0.006656
-0.096462
0.045990
0.123571
-0.062907
0.237671
0.163737
0.207020
-0.066925
-0.212660
-0.289598
-0.577043
-0.744695
-0.606868
-0.222957
-0.003137
0.080135
0.091749
0.322929
0.442730
0.194185
0.133686
-0.034329
0.001663
-0.041642
-0.321761
-0.399710
-0.217040
-0.206878
-0.113882
-0.115286
-0.051369
0.194577
-0.022309
0.054202
-0.029805
0.003093
-0.098222
-0.139898
-0.135166
0.033921
0.034607
0.214413
-0.131937
0.151328
0.156941
0.124953
-0.006429
0.075208
0.086420
0.063439
0.257689
0.163996
-0.046902
-0.178405
0.072717
0.179361
0.079218
-0.073590
0.163179
0.643854
0.160582
0.883493
-0.012828
-0.179021
-0.023551
0.102405
-0.032894
0.052233
0.127517
0.150206
0.155907
0.285154
0.083842
0.055141
-0.037938
0.045278
0.073313
0.018332
0.105122
0.187366
0.117695
0.262521
0.181890
-0.076510
-0.097006
0.086120
0.210228
0.161432
0.092494
-0.055415
-0.056883
-0.119253
0.003467
0.087892
0.068426
-0.034640
-0.015284
0.102756
0.138475
0.019715
0.148327
0.078181
0.178583
0.036343
-0.254877
-0.355234
-0.044103
0.130475
-0.018023
-0.291224
-0.408131
-0.295136
0.061743
0.124194
0.057089
-0.037450
-0.125245
-0.239115
-0.228530
-0.360456
-0.956712
-0.056211
0.130302
0.031182
-0.053408
0.067140
-0.037273
-0.002545
-0.006851
0.075972
-0.058965
-0.010650
-0.017860
0.041068
0.087491
0.243203
0.109294
-0.011006
0.039633
-0.090595
0.037435
0.042468
-0.053192
0.007356
0.031764
-0.023078
-0.018521
0.053608
-0.004564
-0.135959
-0.218240
-0.364493
-0.474602
-0.450810
-0.477395
-0.365098
-0.316890
-0.156555
0.002304
0.149825
0.108671
0.059353
0.205905
0.044134
0.274372
0.179935
0.246096
0.058086
-0.060377
0.012407
-0.043780
0.099393
0.204910
0.165176
0.259975
0.163053
-0.063813
-0.061872
0.232507
0.563738
-0.558683
-0.137665
-0.193661
-0.114153
0.019066
-0.037726
-0.006530
-0.039589
-0.150500
-0.008635
-0.039230
-0.117607
-0.110297
0.049949
0.005661
-0.107416
-0.097610
0.085048
0.028462
0.029700
-0.161831
-0.085464
-0.026329
-0.198949
-0.153488
0.010184
0.039216
-0.048537
-0.144604
-0.108829
-0.141116
-0.136064
-0.174823
-0.062859
-0.022740
-0.201725
-0.163748
-0.007359
0.071151
-0.065501
-0.200593
-0.098969
0.109620
-0.147636
-0.290768
-0.202615
-0.116493
-0.119825
-0.427408
-0.384218
-0.018897
0.358989
0.522030
0.757726
1.002806
1.115548
0.829925
0.471470
0.011521
-0.098327
0.228314
-0.140291
-0.010163
-0.144079
0.045211
-0.042781
-0.047546
-0.159035
-0.122203
-0.051366
-0.160598
-0.147868
-0.175822
-0.057515
-0.101270
-0.209855
-0.155545
-0.192979
-0.028674
-0.007934
0.174369
0.204897
0.407008
0.480843
0.439639
0.266868
0.086540
0.141000
0.067797
0.036056
-0.143834
-0.103247
-0.280020
-0.139772
-0.177603
-0.100226
-0.187937
-0.128512
-0.177599
-0.042431
-0.025129
-0.013068
-0.050617
-0.181123
-0.022403
-0.135596
0.018407
-0.107674
-0.002326
0.011628
0.244551
0.101377
0.047815
0.107223
0.171296
0.177779
0.044611
-0.067004
0.018896
0.109596
0.289408
-0.475779
-0.329166
-0.152648
0.054721
0.108411
0.039586
0.058187
-0.008776
-0.052229
-0.128765
-0.315662
-0.316280
-0.207988
-0.180449
-0.097902
-0.210768
-0.291731
-0.154236
-0.199786
-0.131839
0.037855
-0.015345
0.020910
0.028873
0.030364
0.028673
0.105130
0.195597
0.150752
0.197257
0.198572
0.212956
0.288495
0.237702
0.278965
0.155835
0.120804
0.053705
0.086593
0.076966
0.006110
0.018020
-0.081501
-0.128071
-0.125606
-0.012888
-0.263550
-0.144840
-0.090195
0.164460
0.071451
-0.101930
0.003087
0.159829
0.415537
0.179677
-0.005923
0.102101
0.346031
-0.172484
-0.041330
0.109239
-0.042891
-0.057742
0.059178
0.100828
0.044321
0.084262
0.011989
-0.023628
0.035220
-0.052706
0.119121
-0.030589
0.104725
0.112115
0.103179
0.121192
0.090290
0.096196
0.087153
0.114993
0.037018
0.085157
0.038296
-0.019594
0.093762
-0.004969
0.145194
0.000258
-0.017905
0.074589
-0.165774
-0.206266
-0.341517
-0.319556
-0.407776
-0.526443
-0.428802
-0.358658
-0.167280
-0.109634
0.029564
0.199195
0.217520
0.131070
0.129096
0.113157
0.195763
0.182403
0.295991
0.083208
0.041186
0.091931
-0.104107
-0.060701
-0.095046
-0.007405
0.253516
-0.029599
-0.154710
0.015956
0.075174
0.049405
-0.015254
0.015338
0.015047
-0.051523
0.006393
0.014677
0.136565
0.050055
-0.044384
-0.016291
-0.103118
0.024267
0.024204
0.154442
0.085388
-0.081824
0.006905
0.022776
-0.113683
0.049537
-0.115452
0.016935
0.068278
-0.110600
-0.093360
0.105695
-0.019602
0.123784
-0.129691
0.112197
0.080292
-0.115530
-0.135624
0.299278
0.137797
-0.285403
-0.347101
0.104241
0.158830
-0.007910
-0.220815
0.001855
0.096841
-0.072891
-0.273822
-0.345481
-0.088026
-0.019062
-0.148902
-0.288930
-0.077421
0.804524
1.723412
1.250591
-0.335770
-1.485513
-0.229070
-0.011973
0.093446
-0.059873
-0.114709
0.383461
0.365658
-0.150738
-0.650091
-0.325526
0.398844
0.453052
0.155670
-0.072048
-0.260057
-0.067175
-0.009615
-0.109404
-0.012122
0.287072
0.179972
-0.170777
-0.354104
0.016567
0.237490
0.209916
-0.117620
-0.212605
-0.455020
0.417263
0.539733
0.235957
-0.646680
-0.333864
0.156457
0.014647
-0.126714
0.675307
0.509358
-0.688513
-1.216253
0.728949
0.920022
-0.375987
-1.094886
0.208469
1.314150
0.253051
-1.302649
-0.874135
0.675391
1.323897
0.303046
-0.611542
-0.660439
0.027018
0.313347
0.032845
-0.337195
0.361359
-0.040019
0.179593
0.137988
0.069623
0.216638
0.125589
0.093805
0.104808
-0.034358
-0.024615
-0.052351
0.037883
0.140877
-0.033370
-0.022204
-0.199776
-0.285843
-0.256330
-0.276020
-0.262030
-0.155747
0.031706
0.189790
0.122103
0.270021
0.328025
0.267499
0.148343
0.141086
0.073986
-0.121723
-0.254054
-0.309496
-0.360273
-0.263928
-0.218950
-0.131639
-0.143039
0.023379
0.060355
0.007881
-0.014295
-0.004600
0.079558
0.113692
0.032396
-0.075087
-0.112150
0.069355
0.117271
0.166807
0.000690
0.079378
0.004691
0.053712
0.045501
0.145690
0.110779
0.152927
0.024372
0.426584
-0.450054
-0.220078
0.137725
0.222047
0.084605
-0.184943
-0.071461
0.013350
0.013384
-0.009840
0.030755
0.007360
0.050266
-0.016520
0.068709
-0.054000
0.092988
0.044126
0.040591
0.039903
-0.083738
0.004924
-0.021168
0.051641
0.031685
0.120009
0.066794
-0.119279
-0.007374
0.045943
-0.014837
0.004888
0.069547
-0.025088
-0.081257
0.077830
0.103333
-0.095547
0.130863
0.079342
-0.063745
0.153367
0.332906
0.162723
0.060009
0.062175
0.015887
-0.408242
-0.807107
-0.917394
-0.104848
0.562954
0.365208
-0.641385
-0.919134
-0.566402
-0.527619
-0.264291
2.923461
0.162848
0.073405
-0.243316
-0.356604
-0.442034
-0.505260
-0.437065
-0.253307
0.005406
0.031616
0.241252
0.117456
0.307851
0.186940
0.066070
-0.088649
-0.120764
-0.144775
-0.187926
-0.178406
-0.095133
-0.191212
-0.112402
-0.103702
-0.219893
-0.132220
-0.145213
-0.066821
0.047991
-0.042925
0.185563
0.133771
0.084358
0.125087
0.058211
0.052678
0.092352
0.036532
0.171278
0.117177
0.103823
0.115649
-0.002888
0.111238
0.126422
0.069959
0.034030
0.042599
0.064559
0.156863
0.117765
0.112258
-0.019078
0.194797
0.352655
0.181987
-0.140226
0.213021
0.648678
-0.758920
0.059090
0.008404
-0.095104
0.094529
-0.015000
0.046352
0.003320
-0.031510
0.040230
-0.082501
0.107879
-0.080345
-0.032356
-0.052908
0.080640
0.065544
0.066367
0.085168
-0.061874
-0.039788
0.007374
-0.012492
0.041960
-0.082307
0.050991
-0.052522
-0.061684
-0.067181
0.019771
-0.013541
0.031557
-0.011812
-0.047701
-0.030040
0.075398
0.084896
-0.068126
0.034450
0.024784
-0.020845
0.016605
0.103135
0.064366
-0.001785
-0.084671
0.081848
0.031031
0.016722
0.049243
-0.033632
-0.027704
-0.041175
-0.146943
-0.113199
-0.162632
-0.053130
0.089478
0.022536
-0.003254
-0.007965
-0.027727
0.066797
-0.068338
0.038862
0.011033
-0.039040
0.082612
-0.021989
0.031998
-0.055002
-0.053435
0.051406
0.097680
0.165621
0.021063
-0.131423
-0.063406
0.001422
0.057976
-0.088362
0.003457
0.058758
0.138059
0.060752
-0.020671
-0.132482
0.066420
0.020585
0.057197
-0.171714
-0.010559
0.042883
0.103485
-0.099084
-0.011344
0.395732
0.247220
0.055120
-0.099104
-0.153500
-0.156311
-0.716851
-0.716176
-0.349801
0.070082
0.510622
0.905106
1.249120
1.371599
0.483255
-0.348407
-0.659415
-0.695796
-0.693979
-0.653873
-0.324779
-0.087959
-0.418877
-0.850107
0.977810
-0.196464
0.038860
0.022132
0.018120
0.007833
-0.015262
-0.032903
-0.024470
-0.015327
-0.001452
-0.054333
0.042126
0.072401
0.032895
0.112109
-0.043665
0.089792
-0.021301
-0.046450
-0.000871
0.032005
-0.087785
0.062983
-0.004090
0.017926
-0.014857
0.043388
0.178453
0.077969
0.088818
-0.059995
0.057201
0.033186
-0.021432
-0.005283
0.127688
0.144702
0.117980
0.200961
0.132485
0.019623
-0.097452
-0.034265
-0.072762
0.005279
-0.010106
-0.017878
0.022043
0.100576
0.205540
0.187834
0.276413
0.072229
-0.150282
-0.551131
-0.697803
-0.702677
-0.385065
0.124967
-0.232789
0.080505
-0.070046
-0.024429
0.025856
0.082237
-0.051654
-0.035034
-0.031626
-0.008111
-0.053326
0.047269
0.000691
-0.059445
0.025480
0.083481
0.045582
-0.020928
-0.021201
0.003591
0.021529
-0.075944
0.061602
-0.081135
0.092260
0.070486
-0.031422
0.070352
0.078508
0.034607
-0.005086
-0.066164
-0.002758
0.037005
0.027649
-0.052941
0.073658
-0.027420
0.058765
-0.006146
0.119122
0.024820
-0.046069
-0.062039
0.030936
-0.068094
0.011609
-0.077108
0.066034
0.018266
-0.078249
-0.037396
-0.119436
-0.020716
0.017857
0.003433
-0.057361
0.021250
-0.083331
-0.004779
0.178711
0.031063
-0.088502
-0.085850
-0.020943
0.117108
0.036316
0.044152
-0.028184
-0.000762
0.044340
0.000318
-0.043943
-0.005928
0.000221
0.166658
-0.028962
0.017568
-0.057298
-0.018891
0.025467
-0.095498
0.021543
0.026489
0.011781
0.084139
0.030233
0.019755
0.022628
0.018174
0.030383
-0.020568
0.018631
0.110490
-0.019440
-0.032970
0.084015
0.037903
-0.066144
-0.056733
-0.006299
-0.072650
-0.059632
-0.124224
-0.053418
0.124679
0.305543
0.305398
0.312215
0.601881
0.577027
0.446065
0.480179
-0.051881
-0.534205
-0.877457
-0.657313
-0.218781
-0.076663
-0.241869
-0.251581
0.009795
-0.085373
-0.107967
-0.136000
-0.021432
-0.127632
-0.044080
-0.046482
-0.014676
-0.058865
0.024236
0.058434
0.000853
0.068979
0.069911
-0.064583
0.074482
0.090932
0.036462
0.128616
0.076102
0.014234
-0.025607
0.005193
-0.058659
0.033423
-0.004052
0.103524
0.062542
0.102476
0.042539
0.123871
0.091520
0.080211
-0.028559
0.019038
-0.018159
0.044356
0.038135
-0.045961
-0.028826
0.030219
-0.130469
0.000064
0.005291
0.101410
0.009944
-0.031336
-0.008529
0.111531
0.050310
0.147321
0.052538
0.166394
0.102779
0.090684
0.081216
-0.044146
-0.088676
-0.198676
-0.029287
-0.204998
-0.440948
-0.342386
-0.347698
-0.618630
-0.531004
-0.483252
-0.324470
-0.375279
-0.410134
-0.101546
0.098593
0.232615
0.131839
0.209211
0.137115
0.149056
0.158098
0.026737
0.036488
0.056416
0.158262
0.145012
0.042478
-0.008984
0.089845
0.040878
0.124304
0.032960
0.108687
-0.052397
0.033782
-0.115646
0.056234
-0.063629
0.012718
-0.019077
0.032956
0.082349
0.013365
-0.007466
-0.002367
0.086582
0.159486
0.186999
0.119516
0.045051
0.081637
0.265502
0.241403
0.127026
0.050573
0.379800
0.435523
-0.070153
-0.406301
0.212504
0.874304
-0.863589
-0.020337
0.489470
-0.053303
-0.130852
0.054108
0.123656
0.035520
0.155102
0.069764
0.071766
-0.041459
-0.008745
0.166469
0.149172
0.042276
-0.009615
-0.031151
0.015866
-0.008854
-0.065695
0.085774
0.034944
0.106771
0.108725
0.014556
0.103076
0.151280
0.104904
0.020874
0.066927
0.075771
0.080099
0.039950
-0.045658
-0.006043
-0.043244
0.079517
0.065392
0.158550
0.246472
-0.076865
-0.274625
-0.419998
-0.481415
-0.422098
-0.479310
-0.251956
0.275645
0.835071
1.301911
1.017837
0.498816
0.026880
-0.307646
-0.447943
-0.782518
-1.193797
-0.957850
-0.196514
0.457231
0.135512
-0.143986
-0.084454
-0.131623
0.013093
0.067513
0.160882
0.025795
0.170915
0.170587
0.103371
0.110590
0.175760
0.027545
0.182793
0.206666
0.185768
0.139637
0.172317
0.126947
0.027924
0.001338
-0.088847
0.109188
-0.026034
0.032134
0.095435
0.030001
0.006158
0.052774
0.024466
0.185510
0.212187
0.071632
0.185477
0.141447
0.101884
0.144328
0.000952
-0.075140
-0.075578
-0.213277
-0.050872
-0.207557
-0.195885
-0.221742
-0.191412
-0.235554
-0.236688
-0.416436
-0.221102
-0.254330
0.020974
-0.094813
-0.261165
-0.152225
-0.062099
0.123898
0.005084
0.393155
0.062498
0.397669
-0.016134
-0.137697
-0.078375
-0.049273
0.057057
0.040741
0.053318
0.026611
-0.111731
-0.150820
0.169953
0.247015
0.343989
-0.041137
-0.163822
-0.160580
-0.014954
0.237211
0.172380
0.157919
0.129527
0.030034
0.004186
0.088988
0.224603
0.349165
0.154725
-0.309280
-0.596976
-0.838258
-0.684341
-0.874575
-0.995708
-0.930078
-0.639373
-0.451742
-0.162248
-0.252243
0.126083
-0.597973
0.284528
0.385195
0.342997
0.468786
0.485420
0.642960
0.532973
0.290911
0.293813
0.275746
0.218346
0.228171
0.209928
-0.024991
-0.279366
0.080680
0.381225
0.322122
-0.114431
0.297618
0.215072
0.114935
-0.081541
0.029033
0.025633
0.003406
-0.022807
0.099083
0.131795
0.120566
0.069653
0.019351
-0.024430
-0.063721
-0.077531
0.130440
0.088397
0.051299
0.046873
0.063240
-0.041200
0.091395
0.006869
0.015810
-0.017520
-0.073671
0.149303
0.017214
0.082556
-0.107737
-0.247317
-0.313287
-0.305246
-0.216479
-0.344915
-0.511838
-0.257423
-0.124152
0.002776
-0.016118
0.022084
0.039409
0.068140
-0.065603
-0.099056
-0.082666
-0.091293
0.041925
0.255150
0.385835
0.597531
0.703877
0.753683
0.263501
-0.100742
0.013281
0.130143
-1.365793
-0.267257
0.471947
0.055896
-0.063331
0.041152
0.153093
0.051595
0.145132
0.033138
-0.106173
-0.123855
-0.131010
0.148331
0.027228
0.034336
-0.030957
0.030254
0.116421
0.072687
-0.005615
-0.034274
0.049493
0.096801
0.112127
-0.197057
-0.124020
-0.039508
0.020567
-0.038124
-0.099967
0.024690
0.103305
0.025952
0.041393
-0.015068
0.036053
-0.073086
-0.120857
0.083966
0.134816
0.077664
0.301804
0.295166
0.264950
0.427422
0.257622
-0.126312
-0.264186
-0.133345
-0.037387
0.239112
0.338946
0.599852
0.716762
0.270135
-0.513847
-1.081358
-0.821465
-0.015635
-0.783456
0.115510
-0.650138
0.607083
0.452182
-0.517858
-0.659116
0.150626
1.013904
0.283767
-0.637830
-0.743126
0.273430
0.572634
0.155178
-0.440077
-0.119145
0.381184
0.207850
-0.324882
-0.458469
-0.014358
0.678157
0.409227
-0.379761
-0.729952
-0.102775
0.835108
0.420065
-0.878379
-0.017153
-0.017450
0.561454
0.066036
-0.549064
-0.135394
1.307037
-1.029972
-1.338333
1.375736
1.821318
-1.496321
-1.832243
0.744662
2.257715
-0.141876
-2.536513
-0.555703
2.275723
1.430031
-1.420140
-1.846879
0.503127
1.748210
0.332537
-0.884523
-0.436214
0.617424
-0.033300
-1.047902
0.639596
-0.425130
-0.264203
-0.090412
-0.115714
-0.141121
-0.115156
-0.185691
-0.166674
-0.132419
-0.127904
-0.100913
-0.115014
-0.049794
0.003590
-0.006244
-0.157365
-0.099792
-0.017260
-0.049477
0.069660
-0.075451
0.101244
0.134699
-0.070066
0.042168
-0.002662
-0.013948
0.044203
0.080531
0.029115
0.134328
0.141011
0.060651
0.018341
0.093258
0.106584
-0.006215
0.010574
0.111588
0.052590
0.182130
0.062908
0.063152
0.140750
0.180831
0.143647
0.315838
0.216378
0.170602
0.038278
-0.120804
-0.038176
0.015679
0.074345
-0.120742
-0.015160
0.018371
0.113877
0.113527
0.483310
-0.121831
-0.237601
0.335318
0.250218
-0.205380
-0.219470
-0.237034
-0.064376
0.470357
0.723799
-0.105278
-0.899584
-0.615921
0.283919
0.921216
0.449311
-0.346136
-0.691011
-0.178433
0.344080
0.259500
-0.264142
-0.024905
0.437900
0.168246
-0.607176
-0.416014
0.008629
0.477831
0.351903
-0.127708
0.516728
-1.569155
0.860070
-0.287510
-0.162627
0.755260
1.116590
-1.635850
-1.550814
0.742631
2.829048
-0.750178
-2.370990
-0.211435
1.983655
0.481663
-1.767084
-0.412257
1.623247
0.603076
-1.343721
-0.976367
0.941824
1.431230
0.238861
-0.690331
-1.028318
-0.840650
1.432645
-0.032417
-0.031548
-0.016585
-0.042821
0.104603
-0.002632
-0.075999
-0.039871
0.030056
0.092224
-0.021750
0.086811
0.034083
0.050420
-0.094891
-0.049728
-0.090637
0.037629
0.046216
0.077564
-0.038280
-0.015010
-0.018238
-0.066840
0.043727
0.032722
0.016189
0.026801
-0.062156
-0.044196
0.091413
-0.094126
-0.013010
-0.076559
-0.068571
0.035915
-0.077554
-0.078845
-0.034394
-0.057828
-0.101308
0.013429
0.093860
-0.050752
0.081125
0.096050
-0.017391
-0.009864
-0.092022
-0.044668
0.072814
0.011281
-0.041054
-0.101260
-0.089903
-0.037436
0.053936
0.071268
0.110845
-0.030284
-0.083025
0.028485
0.026986
-0.087287
-0.085571
-0.031423
-0.000855
-0.015615
-0.047745
0.085724
0.054279
-0.014424
0.040403
-0.065757
0.089982
-0.003520
0.002382
0.007163
-0.030699
0.060957
-0.063229
-0.056685
0.043405
0.020212
-0.076989
0.030831
-0.074976
0.088258
0.068409
0.015027
-0.031726
-0.025831
-0.032277
-0.042175
-0.011432
-0.067245
0.067683
-0.018384
0.029473
0.037328
-0.011795
-0.006248
0.028766
-0.036916
0.059208
0.105152
-0.049419
0.061192
-0.017611
-0.003740
-0.021437
0.014757
0.049111
-0.098467
0.002372
0.063402
0.015615
-0.023684
-0.110163
-0.161060
-0.171460
-0.287577
-0.290730
-0.129704
0.018494
0.039061
-0.002429
0.122924
0.144176
0.099428
0.141302
0.166040
0.215767
0.370227
0.318457
0.327041
0.318587
0.339461
0.217134
0.271719
0.114586
0.058253
0.044990
0.088623
-0.022494
0.123800
0.183167
0.190535
0.119790
0.126370
-0.049499
-0.026244
-0.334216
-0.329910
-0.270791
-0.060037
-0.155076
-0.290160
-0.122056
0.081707
0.118011
-0.057593
-0.036033
0.023241
0.120167
-0.002349
-0.291717
-0.322145
-0.214757
0.021568
-0.128727
-0.032499
0.049502
-0.193373
-0.152339
0.048197
0.108558
-0.138156
-0.295490
0.510806
-0.402990
0.179706
0.215136
0.111525
0.061272
0.002380
-0.070776
-0.133428
-0.043423
-0.018995
0.045937
-0.005314
0.081408
0.106335
0.274457
0.207379
0.174113
0.050835
0.025899
-0.060709
-0.155574
-0.186847
-0.325048
-0.281121
-0.371059
-0.400866
-0.324255
-0.268994
-0.292004
-0.286371
-0.147016
-0.123199
0.023977
-0.020099
0.152481
0.037498
0.131136
0.070209
0.189004
0.071605
0.168816
-0.010222
-0.075112
0.046314
0.073317
0.131279
0.238058
0.107326
0.058291
0.094906
0.154961
0.178993
0.153819
0.312707
0.248697
0.012406
-0.323007
0.296666
0.734004
-0.982343
1.084767
-0.798337
-0.772417
-0.137993
0.772401
0.625944
-0.104783
-0.644946
-0.180808
0.377639
0.242017
-0.302145
-0.020575
0.385225
0.093476
-0.465332
-0.371802
0.576136
0.706924
-0.157557
-0.927831
-0.341377
0.616053
0.757090
0.070407
-0.635381
-0.443097
0.236253
0.420531
-0.038859
-0.469463
0.379732
0.301956
-0.143034
-0.667742
0.136155
0.397084
-0.007969
-0.147573
0.365720
0.550698
-0.898887
-1.261908
0.507033
1.854776
0.348375
-1.568940
-1.375698
0.679417
1.551780
0.040447
-1.180216
-0.188576
0.922385
0.429062
-0.656946
-0.575939
0.316745
0.501550
-0.725558
-0.066385
-0.211433
-0.126175
0.038119
0.046019
-0.054781
-0.067992
-0.050614
0.040860
0.000241
-0.065711
-0.049697
-0.027142
0.060933
0.009388
0.068146
0.005054
-0.110869
-0.011480
0.014926
0.080691
-0.006793
-0.069401
-0.001804
-0.018841
-0.025132
0.014370
-0.008418
0.192789
-0.017698
-0.041568
-0.029852
-0.086367
0.079998
-0.037681
-0.094171
-0.074633
-0.124986
-0.007869
-0.011772
-0.073861
0.182187
0.109845
0.027469
-0.008107
-0.298862
-0.448643
-0.563123
-0.662360
-0.206502
0.609422
1.067333
0.879462
-0.063853
-0.878001
-0.837333
0.062748
0.722472
0.539844
-0.059520
-0.101094
0.092884
-0.110487
0.024452
0.037986
0.065721
0.180106
0.101643
0.261305
0.191399
0.244146
0.060424
0.096248
0.143714
0.029139
-0.021685
-0.086795
-0.036074
-0.132723
-0.096253
-0.143734
0.048469
-0.046097
0.022653
0.000172
0.142475
0.107692
0.089296
0.169643
0.085566
0.098931
0.178832
0.060489
-0.135060
-0.355629
-0.310360
-0.276067
-0.333544
-0.241743
0.051458
0.295412
0.129842
0.251298
0.150148
0.229707
0.094899
-0.111249
-0.327790
-0.270057
-0.168600
-0.105639
-0.013947
-0.118757
0.113481
0.012098
0.042049
0.076477
-0.226387
-0.301417
0.158799
-0.209175
0.108678
0.041937
0.188052
0.213887
0.169510
0.139110
0.215696
0.024558
-0.009487
-0.254411
-0.221609
-0.310475
-0.301533
-0.376129
-0.519686
-0.425927
-0.533142
-0.383040
-0.235538
-0.070411
0.029122
0.137832
0.061886
0.073303
0.159261
0.087313
0.213365
0.137855
0.091079
0.177670
0.047137
0.084034
0.054728
0.099772
0.051720
0.089986
-0.010551
-0.000795
0.218505
0.090283
0.149124
0.036342
0.004291
-0.005323
0.117168
0.100864
-0.040907
0.103121
0.316995
0.324398
0.357450
0.346205
0.458242
0.234222
-0.009935
-0.391928
-0.091823
0.449162
-0.606431
0.025829
0.218775
-0.024873
-0.059084
0.187858
0.143523
0.108520
-0.020813
0.051324
0.049250
0.012383
-0.003058
-0.025065
0.041761
-0.015048
-0.114417
-0.042096
0.049938
0.149039
0.109372
0.286444
0.306959
0.276483
0.216795
0.186177
-0.081070
-0.234192
-0.354408
-0.429057
-0.669468
-0.923233
-0.850973
-0.578249
-0.169963
0.370318
0.344032
0.480982
0.389704
0.590862
0.408580
0.362599
-0.006347
0.054107
0.108922
0.119931
0.021675
-0.231580
-0.185584
-0.176099
-0.001006
-0.031850
-0.281819
-0.350383
-0.157087
-0.061397
0.058663
-0.032662
-0.012660
0.054932
0.341364
0.005691
0.014414
0.031670
-0.025435
-0.089734
-0.015025
-0.052184
0.045464
0.067330
-0.068568
0.049961
0.035936
-0.101448
-0.079032
0.074361
0.016266
0.016166
0.104693
0.039502
-0.055593
-0.030558
0.164886
0.053010
0.107930
0.102518
-0.019581
0.064826
0.120686
0.083236
0.085416
-0.074081
0.068722
0.125751
-0.014065
-0.035476
-0.046905
0.130920
-0.010171
0.122523
0.059719
0.038706
-0.042302
0.016546
-0.000262
-0.106327
-0.198164
-0.107871
-0.033103
0.031162
-0.170610
-0.140615
0.005561
-0.010421
0.061236
-0.064844
0.049870
0.067415
0.001496
-0.071669
0.121721
0.010069
0.068704
0.055385
0.041680
-0.051767
0.024498
0.063068
0.006277
-0.086634
0.002620
-0.102292
-0.065326
0.040868
0.089974
-0.049159
-0.007869
-0.015269
-0.085219
0.069560
0.020460
0.048396
-0.065574
0.045113
-0.024294
-0.063982
0.083109
0.067590
-0.062370
-0.023308
-0.095101
-0.031333
-0.005641
0.002547
-0.023655
0.065936
-0.062252
-0.037813
0.048002
-0.054123
-0.030768
-0.087332
0.089458
0.076895
-0.049007
0.070732
-0.032339
0.108609
0.081298
-0.060917
-0.007442
0.010345
0.036861
-0.003321
0.090643
0.055312
-0.010455
-0.011323
0.000449
0.081577
-0.042737
-0.320287
0.231166
0.192065
0.081472
0.192196
0.091635
0.012777
0.107341
0.062721
0.076671
-0.047854
-0.008030
0.033775
0.100654
0.162515
0.119520
0.050421
0.054964
0.007107
-0.007911
-0.064500
-0.003338
0.008789
-0.053827
-0.069153
0.093225
0.091244
0.193747
0.126907
0.033096
0.155134
0.212513
0.159834
0.073554
-0.062867
-0.033333
-0.153549
-0.306920
-0.617940
-0.643011
-0.582248
-0.333882
-0.250671
0.076705
0.274716
0.197412
0.035528
0.059410
0.118744
0.324564
0.438753
0.376406
0.227551
0.325866
0.183630
-0.113694
-0.252657
-0.071575
0.127327
-0.851626
0.144484
0.047626
0.035308
0.033576
0.034954
0.134290
-0.006594
-0.093042
-0.042197
-0.059545
-0.046988
-0.063603
0.111182
0.188029
0.043619
0.137707
0.119278
0.097507
0.117800
-0.065720
-0.080780
-0.138628
-0.035765
0.001129
-0.029440
-0.098311
0.060877
0.078229
0.080413
0.002321
0.153793
-0.067390
-0.027603
-0.200250
-0.084609
-0.089346
0.111342
0.265751
0.392603
0.456724
0.555794
0.421347
0.069384
-0.064403
-0.118638
-0.238212
-0.634199
-0.543623
-0.401244
0.095266
0.158307
0.099574
0.171872
0.196165
0.075857
-0.005504
-0.223509
-0.309640
-0.403548
-0.185274
-0.236774
-0.059316
0.083792
0.054046
-0.044880
-0.017566
-0.070984
-0.060628
0.040656
0.002358
-0.136540
-0.135443
-0.061546
-0.018876
-0.006532
-0.067721
-0.068551
-0.062382
0.069412
-0.098986
0.099639
0.072263
0.069676
0.034962
0.048200
-0.108401
-0.041523
0.094078
0.138872
0.029791
-0.169559
0.005575
-0.127278
-0.020271
-0.063938
0.413667
0.112096
-0.033194
-0.446923
0.302288
-0.016733
-0.264482
-0.222472
0.246211
0.128256
-0.627208
-0.718761
0.032089
0.433434
-0.035451
-0.524063
-0.234112
0.161937
0.127957
-0.228191
-0.315038
-0.070211
0.168172
0.322553
1.287952
0.042396
0.071894
-0.049889
-0.036163
-0.094320
0.050506
0.032193
0.066201
0.079601
-0.014221
-0.077359
0.028750
-0.050540
-0.058263
0.103227
0.026015
0.068171
-0.010642
-0.058850
-0.011387
0.096583
-0.031583
0.027068
-0.076293
0.110286
0.091478
-0.082905
-0.109032
0.033764
-0.037371
0.046449
0.035237
-0.070675
0.043920
0.079126
0.009338
0.063162
-0.083694
-0.028124
-0.029486
-0.033320
0.044655
0.017192
0.052425
-0.081977
0.013786
-0.112706
0.001396
-0.004979
0.043283
-0.053895
0.112088
-0.011160
0.056740
0.146050
0.089611
0.036020
-0.067271
0.034772
-0.127210
-0.458280
-0.147872
-0.002662
-0.064302
-0.061247
-0.034180
-0.105671
-0.140039
-0.065171
-0.116413
0.008659
-0.145833
-0.049183
-0.001308
-0.063413
-0.157550
-0.180818
-0.155130
-0.168064
-0.218362
-0.297857
-0.165283
-0.168428
-0.122513
-0.187566
-0.113235
-0.315125
-0.139236
-0.209300
-0.107821
-0.161137
0.092483
0.080262
-0.124784
-0.107461
-0.186603
0.016104
0.094889
0.110954
0.007006
-0.008757
-0.075393
0.121197
0.023222
0.231536
0.210679
0.042999
0.085262
0.071638
0.215121
0.187269
0.207936
0.573771
0.562712
0.217438
0.179407
0.115663
0.031209
-0.167767
0.561058
-0.033653
-0.227106
0.107846
0.086950
-0.059690
-0.013340
-0.000992
0.025965
0.009097
-0.062324
0.094221
-0.089305
-0.070230
0.005732
0.088893
-0.024747
0.067611
-0.087323
-0.113461
-0.024840
0.056570
0.006730
0.031070
0.056925
-0.057322
0.003397
-0.016758
-0.019646
-0.021932
-0.093245
0.029160
0.082174
-0.004364
-0.172583
-0.072275
0.230388
0.046181
-0.101877
-0.129732
0.170923
0.304366
-0.302046
-0.060385
0.063093
-0.025509
-0.512561
-0.511238
0.224225
0.903752
1.365253
1.158789
0.382002
-1.450747
-2.834083
-1.912801
1.205191
3.347302
1.838182
-1.429274
-1.696684
0.138211
-0.174621
-0.097333
-0.028565
0.056471
0.082220
0.125560
0.125722
-0.122542
-0.222589
-0.130975
0.123030
0.196946
0.233294
-0.042181
-0.341520
-0.179813
-0.190512
0.196283
0.309452
0.243579
0.064272
-0.408859
-0.549291
-0.025716
0.401298
0.173352
0.154950
0.179355
0.050130
-1.196606
-0.294082
0.796507
0.722218
0.418789
-0.562573
-0.900272
0.259078
-0.874986
0.901339
1.563595
0.103357
-2.021010
-1.163732
1.098095
1.738212
-0.310441
-1.496753
-0.212210
1.107131
0.286066
-0.773864
-0.344135
0.585915
0.583184
-0.086516
-0.329796
-0.282202
-0.084646
0.484816
-0.474295
0.268990
0.218880
0.126327
0.075776
0.138301
0.239834
0.160751
0.141063
0.149835
-0.067997
-0.134799
-0.155234
-0.284855
-0.255018
-0.127514
-0.114142
0.205418
0.196347
0.255113
0.296999
0.199349
0.241942
0.033859
-0.161469
-0.227707
-0.209949
-0.163092
-0.249550
-0.320115
-0.223609
-0.176254
-0.004485
-0.078296
-0.026452
0.029171
-0.187615
-0.132800
0.080727
0.075396
0.019266
-0.030585
-0.134510
-0.029964
0.123573
0.102886
0.033197
0.116433
0.199719
0.275153
0.168402
-0.017341
-0.020144
0.178012
0.312050
0.005502
-0.066424
0.341762
0.702266
-1.435021
-0.096241
-0.101115
-0.035959
-0.135673
-0.051200
-0.141632
-0.097405
-0.163453
-0.073618
-0.035048
-0.137261
-0.035353
-0.149924
-0.093564
-0.050222
-0.112233
-0.069651
-0.052923
0.079474
0.035665
-0.020757
0.137969
0.155450
0.198989
0.170649
0.208301
0.079327
0.198267
0.047781
0.171918
0.039866
-0.007113
0.010411
-0.041534
-0.022356
-0.032833
0.025108
0.018661
0.128568
0.128967
0.152679
0.148276
0.152551
0.104293
0.091617
-0.083907
-0.146252
-0.167732
-0.162671
-0.158734
-0.085017
0.008188
-0.021765
-0.111418
-0.104111
0.009749
0.051069
0.020626
-0.069046
0.157296
-0.237616
-0.296300
-0.199062
-0.126025
0.033035
0.098993
0.208080
0.215034
0.259975
0.164296
0.179247
0.158328
0.091044
0.021159
-0.140643
-0.161265
-0.146665
-0.150671
-0.183250
-0.199060
-0.023502
0.029332
-0.058760
0.104206
0.072074
0.031918
0.005717
0.060982
0.034513
-0.009180
-0.043308
-0.001439
0.121236
0.114120
0.304170
0.359164
0.350048
0.283609
0.200315
0.281494
0.065223
-0.032041
-0.034467
-0.200441
-0.114931
-0.144199
-0.191589
-0.113620
-0.189261
-0.189292
-0.120407
-0.122892
0.038366
0.124656
0.001338
0.016738
-0.130931
-0.112453
0.038212
0.327477
-0.269228
-0.181130
-0.072197
-0.036818
0.078979
0.057770
-0.034472
0.027623
0.044718
0.075713
-0.060078
-0.174717
-0.143951
-0.157742
0.020495
0.018158
0.078029
-0.106793
-0.044131
-0.135188
-0.098366
0.000243
-0.093492
-0.041675
-0.151480
-0.197119
-0.205352
-0.045102
-0.106989
-0.174387
-0.034326
-0.082796
-0.143846
0.069026
0.057919
0.102100
0.164296
0.100120
0.230529
-0.034814
-0.236676
0.329554
0.061458
-0.070873
0.117670
0.147936
0.213511
0.118793
0.312964
0.220071
-0.126027
-0.486891
-0.760439
-0.561562
0.084148
0.289219
0.352875
0.200204
0.254447
0.655240
0.046551
0.010253
0.087772
0.125350
0.101331
0.005728
-0.022437
-0.066079
0.052514
0.057881
-0.059372
-0.079448
-0.029786
0.085271
0.039248
0.113927
0.039792
0.025897
0.008565
-0.094168
-0.026266
-0.021088
-0.133352
-0.132758
-0.139810
-0.141905
-0.042483
-0.065113
0.050373
-0.106798
-0.027191
0.086051
-0.078584
-0.034612
0.061342
-0.030849
-0.056231
-0.056246
-0.062664
-0.055307
-0.018554
-0.035405
-0.100203
-0.052379
-0.011477
-0.116478
0.052292
-0.056506
-0.058339
0.075247
0.058738
0.110808
0.079467
0.153074
0.195385
0.044970
-0.003723
-0.046624
0.074106
-0.063518
-0.229991
0.013510
-0.078979
0.025178
0.035647
0.142866
0.011492
-0.002724
-0.028194
-0.092643
-0.133975
-0.048176
-0.068605
-0.084374
0.019158
-0.051324
0.038151
0.102720
0.088175
0.054604
0.065326
-0.005463
-0.015458
-0.144185
-0.027685
-0.139815
-0.064863
0.081818
-0.031850
0.073196
0.034751
0.101053
0.005884
-0.035465
0.000604
0.052987
0.019345
-0.053730
0.126788
0.046027
0.207146
0.135751
0.317644
0.231841
0.406565
0.263266
0.256435
0.132259
-0.049732
-0.200796
-0.260994
-0.282934
-0.054669
0.055478
0.174862
0.234559
-0.065740
-0.279412
-0.482607
-0.696786
weigvec 606
0.233021
-0.423222
-0.222060
-0.031137
-1.024848
1.039125
-0.040342
0.634534
0.221752
-0.135326
-0.120876
-0.030714
0.122250
0.041004
0.053202
0.233550
-0.293307
-0.065302
0.544002
-0.218147
-0.114865
0.536017
0.481073
-0.108777
-0.010910
0.253369
-0.120526
0.236140
-1.297641
0.748412
-0.157430
-0.023701
0.000422
0.415483
-0.860631
0.592998
0.468201
0.647451
0.352674
-0.267532
0.081383
0.363494
0.090760
-0.207845
-0.083066
0.769158
0.282564
-0.081942
0.340862
-0.145560
-0.044838
-0.563942
-0.969290
0.890777
0.473944
0.269624
-0.294599
-0.245310
-0.710386
-0.058389
1.082410
-0.769213
0.012634
0.802823
-0.093415
0.058499
1.605975
-0.207026
-0.982413
0.564461
0.222334
0.179488
-0.881171
0.077262
-0.460035
0.591073
-0.319194
-0.096990
-0.113909
0.684436
-1.328837
-0.732248
0.993782
0.554529
-0.599018
0.249758
0.204569
-0.029771
-0.646963
0.661191
-0.827355
-0.070619
0.666013
0.587779
-0.711707
-0.881160
0.380639
0.500385
-0.329368
-0.004179
-0.296501
-0.231102
-0.609234
-0.007080
0.399134
0.677617
0.266170
-0.174830
-0.251045
0.198091
0.054411
-0.092155
-0.053751
-0.101205
-0.105704
0.469182
0.530975
0.417593
0.094219
-0.053754
-0.066652
-0.079206
0.011434
-0.001116
-0.059160
0.071127
0.157959
0.161597
-1.560083
1.388003
-0.014688
0.042515
-0.041427
-0.079821
-0.640734
0.414713
0.055846
0.003310
-0.386139
0.072707
-0.132377
0.098140
-0.222560
0.019526
0.519008
-0.086710
0.404835
0.050039
-0.066853
-0.258859
-0.098992
0.386832
-0.262879
0.860581
-1.212116
0.031256
-0.218922
0.425936
-0.830893
0.039875
0.290714
-1.246842
0.611152
0.123093
-0.272419
0.150477
-0.097328
-0.276839
0.024224
0.811767
-1.194725
-0.130964
0.327871
0.538160
-0.134417
-0.833678
-0.131265
-1.279821
-0.089984
0.103397
-0.433231
0.835927
-0.530304
0.243708
-0.181737
0.552636
0.226434
-0.139946
0.011239
0.625098
-0.279521
-0.272526
-0.081033
-0.350701
1.976988
-0.784385
1.072523
-0.059616
-0.166617
-0.606086
-0.050931
0.164061
-0.403411
-0.143155
0.604147
-0.531259
-0.219194
0.348880
-0.904316
0.036784
-0.384271
0.099757
-0.085174
0.014458
-0.098908
-0.075380
-0.232277
-0.077502
-0.329266
0.181609
0.215199
0.175707
-0.021605
0.026947
0.183965
-0.488186
0.042312
0.016666
-0.184064
-0.174193
-0.741018
-0.268451
-0.038527
0.046413
0.238018
0.151862
-0.095405
-0.153869
0.038317
0.458802
0.174179
-1.379167
0.066884
0.081943
-0.041811
-0.370733
0.047043
0.025099
-0.096495
-0.166226
-0.202020
0.022881
-0.115703
0.605956
-0.378552
0.012162
-0.189356
0.034762
-0.354402
1.541962
0.080914
-0.118597
0.854052
-0.295381
-0.081397
0.149147
-0.706198
0.045947
0.514141
0.096996
-0.430923
0.191354
0.299815
0.095687
0.326231
-0.513464
0.764100
-0.076663
0.813635
-0.128752
0.110231
0.165794
-0.360120
0.347947
-0.672323
0.346121
-0.121400
0.116499
0.152900
-0.004769
0.123956
0.497168
0.521248
0.088078
1.559520
-0.172979
0.223003
-0.427504
0.161137
0.418590
-0.847550
0.007916
0.548427
-0.443261
0.649115
0.101133
0.153310
0.010302
-0.054223
-0.416164
0.387442
-0.042505
-0.029261
-0.180783
-0.052176
-0.124339
-0.121117
0.183403
0.140190
0.224410
0.031548
0.117669
0.506482
0.063348
0.292710
0.190500
-0.381657
-0.158837
0.273793
-0.032728
-0.405706
-0.030910
-0.098936
-0.154306
-0.109038
-0.003209
0.015951
-0.007047
0.166728
0.378407
0.015865
0.157614
0.113211
0.117895
-0.289785
0.070963
0.310629
-0.066465
0.043311
0.378899
0.451828
0.358712
-0.062071
0.337857
-0.316648
0.007840
-0.532282
0.132611
-0.101351
0.514788
0.843893
-0.773175
0.095595
0.341887
0.024876
0.065001
0.629644
0.062705
0.003181
-1.102586
-0.103205
0.132431
0.853495
-0.457102
0.319941
-0.563115
0.272041
-0.779733
0.356988
-0.637143
0.078232
0.032471
0.050395
0.104408
-0.573188
-0.101277
0.079599
0.178350
0.204673
-0.154765
0.042710
-0.012264
-0.248217
-0.081115
-0.121872
-0.313823
-0.525952
-0.440412
0.042726
-0.159558
0.025077
0.084895
-0.113055
-0.218570
0.434189
0.598533
-0.227506
0.518236
0.680232
-1.073039
0.540149
-0.336435
0.721146
0.004751
0.120417
0.123209
-0.247921
-0.047141
0.056354
0.412781
0.933832
-0.062961
0.011326
0.268550
0.141648
-0.337297
-0.834354
0.011066
0.148813
0.266560
0.723736
1.427827
0.908688
-0.844719
-0.064350
0.091677
-0.104966
0.451031
0.575869
0.670277
0.162088
-0.294046
0.034820
1.473340
0.147632
0.679893
-0.133488
0.371079
0.129796
-0.457839
-0.254786
-0.239006
0.799443
0.088094
0.636840
-0.480552
0.212307
0.391199
0.453069
0.604302
0.239336
-1.768771
-1.234008
0.534143
-0.680649
1.034003
-0.176914
-0.320221
0.969515
-0.177115
-0.674387
0.247505
0.644598
0.373533
-0.326348
0.184805
0.575329
1.137023
-1.905965
-0.395924
-1.351420
-0.054374
0.019219
0.104141
0.487403
-1.067576
-0.552141
0.060751
0.576304
0.267538
0.002167
0.107123
0.269663
0.418944
-1.014744
0.073109
-1.398561
-1.540433
-1.016683
0.806205
-0.236586
-0.080090
0.468211
0.300409
0.440655
0.175964
-0.085996
-0.217624
-0.350743
-0.023457
-0.550299
0.881273
-0.495161
-0.787597
-0.070538
-0.045489
0.327194
0.229224
0.228141
-0.789516
-1.126271
-0.726863
-0.038044
-0.684291
-0.597017
0.119972
-0.344302
0.243199
1.002115
-0.003716
-0.756243
-0.599410
0.449136
-0.004275
0.525791
0.390664
-0.100070
-0.192825
-0.551653
0.106970
-1.274659
-0.920445
-0.500324
-0.841949
0.167879
-0.596407
-0.728565
0.048163
-0.634621
0.028227
-0.859311
-0.323891
-0.044096
-0.744085
-0.039054
-1.165134
0.960888
0.246085
0.590365
-0.935247
-0.515419
-0.212317
0.248332
2.404940
-0.811062
-0.292132
-0.516614
0.043121
-0.768463
-0.151374
0.030676
0.014622
0.044042
-0.309696
-0.894901
0.240340
-0.965690
-0.083583
-0.970023
3.272355
-0.230073
2.700143
0.024456
0.021298
-0.555407
0.411402
2.751729
0.187252
-0.884316
-0.516455
-0.812746
0.235172
0.063150
-0.392170
-0.969544
1.717225
0.123291
-0.065531
-0.311581
2.677578
-0.612893
-0.026377
-0.599086
1.017164
0.050408
-0.594005
biasvec 101
-3.960105
-3.988092
-3.868519
-4.787678
-5.468613
-2.969729
-4.908290
-4.260726
-4.448836
-4.079442
-4.095375
-3.905892
-3.915279
-3.910024
-4.878141
-4.868921
-4.704831
-3.984342
-4.439448
-4.119096
-4.036766
-3.921608
-4.228520
-4.207474
-3.991608
-4.544744
-4.041055
-0.667928
-5.723493
-3.814588
-3.935117
-3.994365
-3.921993
-3.337050
-4.258564
-5.035648
-4.708466
-4.097135
-4.340519
-4.443587
-4.026428
-4.362837
-4.027722
-3.401199
-4.173642
-4.293318
-3.839679
-3.957327
-4.387230
-3.932506
-5.107950
-4.418260
-4.711087
-3.017688
-4.481567
-4.614664
-3.985590
-5.123005
-3.019833
-4.091680
-2.206992
-4.961589
-3.979659
-3.820795
-4.116356
-3.892287
-5.039578
-4.082682
-5.564243
-4.718916
-3.848738
-4.402067
-4.369934
-5.006341
-3.085467
-4.147969
-3.119332
-3.956831
-3.965838
-4.332348
-5.143337
-3.146993
-3.730501
-4.268027
-4.810472
-4.754198
-3.830205
-4.156118
-4.159784
-4.341808
-5.042162
-4.140126
-5.717090
-2.854910
-3.206800
-4.805588
-3.931111
-3.978610
-4.178089
-4.077966
-4.083977
biasvec 6
-4.674992
-6.667932
-3.033970
-4.402477
-3.801040
-1.398487
