30 101 6
weigvec 3030
-0.130517
0.350313
0.178603
0.226401
-0.008796
0.047825
-0.005315
0.168771
0.566444
0.428618
-0.113582
-0.679936
-0.883027
-0.434554
0.381285
0.500058
0.320227
-0.082239
-0.394645
-0.504487
-0.309847
-0.294364
-0.204413
-0.118845
0.067465
0.380055
0.273177
0.171291
0.128151
-0.008424
0.512585
-0.086929
-0.320084
-0.490267
-0.278008
0.140790
-0.043780
-0.239435
-0.482940
-0.427804
-0.054251
0.339113
0.239441
0.029903
-0.078180
0.089333
0.058921
0.268819
0.232921
-0.065167
0.125634
0.060886
-0.116327
0.008819
0.383316
0.512001
-0.062821
-0.023041
-0.051030
-0.100869
0.124899
0.103504
-0.059688
0.057365
-0.210423
-0.057557
0.062494
0.234436
-0.037561
-0.166720
-0.166883
0.231690
0.370476
0.230602
0.104376
-0.172492
-0.088965
-0.063651
-0.038170
0.246157
0.277951
0.209831
0.053587
0.069571
0.184166
0.292358
-0.151682
-0.396324
-0.342021
-0.216911
-0.373765
-0.035762
-0.022638
-0.128867
-0.127918
0.088192
0.185258
-0.202812
-0.233247
0.012787
0.058020
-0.118092
-0.132058
0.045520
0.188638
-0.117977
-0.050214
0.125610
0.018206
-0.187880
0.082053
0.816250
0.400304
-0.867622
-1.100793
0.215051
0.549551
-0.037114
0.138204
0.329598
0.149180
0.030169
-0.187494
-0.240288
-0.061744
0.149238
0.204758
0.060921
0.150834
0.071683
-0.010364
-0.085134
0.103810
0.149117
0.203643
0.115527
0.126730
0.069207
-0.015257
-0.013099
-0.024396
0.019302
0.015740
0.040095
0.092487
0.225069
-0.112502
-0.115637
-0.147390
-0.129515
-0.131198
0.021998
-0.018211
-0.114060
0.036974
-0.015435
0.105169
0.148553
0.220268
0.127602
0.175887
0.329094
0.293537
0.272551
0.291809
0.504778
0.506668
0.273952
0.200872
0.011842
-0.232745
-0.728535
-0.714462
-0.300592
-0.298922
-0.375141
0.277457
0.087754
-0.265311
-0.169268
-0.040467
-0.029087
0.088849
0.111771
0.086559
-0.054291
0.033278
0.026632
-0.044612
0.053842
-0.113963
-0.110814
0.072285
0.087278
0.125062
0.035498
-0.017314
-0.070401
-0.096298
-0.068104
-0.110031
-0.026531
-0.062324
-0.027911
0.077958
0.150188
-0.064333
-0.014098
-0.079123
-0.176333
0.194117
0.001070
-0.108353
0.043707
-0.090316
0.146513
0.119491
0.130819
-0.111950
-0.110136
0.045793
0.210735
0.157260
0.234003
0.063237
-0.004912
-0.072819
-0.075344
0.059800
0.134384
0.148233
0.156689
0.003358
-0.099951
0.162832
0.230748
-0.214390
-0.479836
-0.326078
-0.303038
0.017158
-0.056260
0.045644
-0.060216
0.112060
0.120177
0.116469
0.044583
-0.064807
-0.077379
0.012183
-0.086477
0.017311
-0.023765
0.071645
0.133369
0.071381
0.055028
0.004850
-0.071964
-0.082666
0.029650
-0.065963
-0.006095
-0.110761
-0.013598
0.056444
0.015640
0.039877
-0.046743
0.196065
0.112009
0.194226
-0.147758
-0.003702
0.218102
0.242324
0.086045
-0.148379
-0.795643
-1.472682
-1.077434
-0.262373
0.151318
0.011293
0.034291
0.188038
0.149737
0.130360
0.266606
0.090568
0.071260
0.156032
0.253150
0.434060
0.527752
0.057156
-0.068287
-0.157753
0.272778
0.026559
0.029973
0.018474
0.046630
0.055382
0.085870
-0.043679
0.030447
0.011177
0.008014
-0.029137
-0.077664
-0.051394
-0.036504
-0.004060
0.019097
-0.009504
-0.013930
0.068013
0.093997
0.024074
-0.121279
0.039824
-0.019991
-0.119022
-0.141916
-0.000767
0.022915
-0.049177
0.092406
0.037923
0.017044
0.017604
-0.090018
-0.008415
-0.017049
-0.075282
0.027171
0.027920
0.055770
-0.074028
0.108616
0.250362
0.438292
0.360797
0.238135
0.033171
-0.238965
-0.692466
-0.669704
-0.557278
-0.210963
0.176040
0.287099
0.308785
0.213551
-0.066506
-0.171863
-0.169929
0.250763
-0.037801
0.152959
0.103401
0.076096
-0.010007
0.028011
-0.151616
-0.209566
-0.115390
-0.192718
0.010089
0.014283
0.140678
0.155099
0.014032
0.029154
0.063848
0.043187
-0.072224
0.131487
0.111284
0.143502
0.124655
-0.018267
0.091243
0.174468
-0.169176
-0.398376
-0.329252
-0.054437
-0.390729
-0.221879
-0.044109
-0.073820
-0.015799
-0.342787
-0.122515
-0.035461
0.050270
-0.073543
-0.550679
-0.074493
0.552336
0.145148
-0.735721
-0.567926
1.093190
0.585133
-1.154064
-0.670557
0.596258
1.054242
-0.782899
-0.286152
0.772276
-0.403341
-0.000051
0.405129
-0.606812
1.089405
-0.986308
-0.537423
-0.453873
-0.381891
-0.408252
-0.588610
-0.694341
-0.806434
-0.661774
-0.527975
-0.177357
-0.061501
0.189948
0.427619
0.479711
-0.025660
0.097620
0.011629
0.306434
0.559853
0.511351
0.410106
0.439146
0.429263
0.643577
0.231016
0.212166
0.140231
0.383945
0.855131
0.078159
0.103399
0.151993
0.278557
0.225305
0.090242
-0.115774
-0.245604
-0.300559
-0.426382
-0.257486
-0.281762
-0.285001
0.051123
0.217140
0.507355
0.623178
0.409273
0.098984
-0.110514
-0.095824
0.126783
-0.044531
-0.226820
-0.410806
-0.486403
-0.227464
-0.083454
-0.007507
0.285374
-0.065461
0.001260
-0.139154
-0.060277
-0.008492
0.012808
0.167810
0.065434
0.048558
0.118191
-0.061917
0.055185
0.120058
0.052479
0.133385
-0.016260
-0.009787
0.012133
-0.099237
-0.025686
-0.088458
-0.025629
-0.019846
-0.019730
0.097594
0.145012
-0.065592
-0.099531
-0.147712
-0.149518
0.937356
0.411053
0.190100
-0.087211
-0.081902
0.031280
-0.025531
0.038062
-0.153307
-0.009090
0.123713
-0.151149
-0.111298
0.020368
-0.329440
-0.222947
-0.011982
-0.195094
-0.112383
-0.094253
-0.099528
0.050619
-0.336205
-0.063677
0.864497
0.495457
-0.023302
-0.061964
-0.308777
-0.199066
0.098985
-0.055648
-0.006660
0.018733
-0.011105
0.093230
-0.071846
-0.010207
-0.031201
0.036030
-0.040203
-0.009031
-0.117701
0.009189
0.045448
-0.110596
0.089190
-0.084692
0.013806
-0.022628
-0.066836
-0.091569
-0.017227
-0.005665
-0.019994
-0.130548
0.053184
-0.074156
0.075134
0.119774
-0.545097
-0.465951
-0.387861
-0.082196
0.198646
0.314516
0.313641
0.142161
0.119262
-0.068579
-0.032499
-0.000798
-0.114942
-0.036329
-0.077482
-0.075979
0.048832
0.068005
0.264391
0.544821
0.696311
0.384834
-0.037663
-0.513121
-0.329267
0.035316
-0.210864
-0.375604
-0.309311
0.520558
0.208550
0.130791
-0.045784
-0.130028
-0.254293
-0.278079
-0.232543
-0.117233
0.018324
0.023338
0.160596
0.195346
0.169095
0.097537
0.159093
-0.048176
-0.011090
0.050060
0.131066
0.234050
0.391598
0.376961
0.146074
-0.261133
-0.284782
-0.148042
-0.218776
-0.258586
-0.157864
-0.011546
-0.047903
0.160304
0.086661
-0.018983
-0.014649
-0.065472
0.050025
-0.014890
0.121080
0.023185
-0.044993
-0.091281
0.041321
0.053035
0.139803
0.154049
0.122608
-0.011724
0.020061
-0.121224
-0.106994
-0.003173
-0.010050
0.056025
0.069650
0.166585
-0.061952
-0.065819
-0.174778
-0.156066
-0.245541
-0.125833
-0.046947
0.123007
0.049264
0.182395
0.164662
0.086381
0.116484
0.052643
-0.031715
0.141830
0.180294
0.143285
-0.072396
-0.110695
-0.016519
0.023773
0.174025
-0.006913
-0.144945
-0.172402
-0.236752
-0.055201
0.395185
0.382235
-0.122558
-0.231056
-0.209663
-0.049057
-0.394391
-0.287080
-0.169874
0.062302
-0.259322
-0.161862
-0.038499
0.124734
0.024705
-0.470550
-0.124710
0.083452
-0.177206
-0.347140
0.070136
0.121482
-0.391912
-0.068819
-0.057261
0.067001
0.017636
-0.368335
0.784549
0.868381
-0.346076
-0.864262
-0.199200
0.395372
0.878275
1.134926
0.064961
0.143848
0.123232
0.035194
-0.041847
0.119456
-0.018080
0.043646
0.123939
-0.000547
0.038809
0.084498
0.146430
0.138653
-0.003002
-0.129016
-0.017558
-0.032474
0.025167
0.120905
0.180370
0.035164
0.063446
-0.108067
0.001648
0.166553
-0.249015
-0.541735
-0.351157
-0.185266
0.077161
0.183109
0.096906
-0.038383
0.123612
-0.011732
0.041700
0.184749
-0.073437
-0.212435
-0.053702
-0.070966
0.259443
0.142859
-0.116273
-0.219656
-0.159621
0.008450
-0.121097
-0.189426
-0.158798
-0.092045
-0.218118
0.011332
0.252197
0.338614
-0.054486
-0.024842
-0.109890
-0.031124
-0.019050
0.188482
0.032065
0.217624
0.105656
-0.004250
0.091590
0.013555
0.010890
-0.101430
-0.230908
0.175904
0.269430
0.282359
0.134828
-0.137385
-0.472334
-0.658669
-0.466545
-0.058549
0.166690
0.150254
0.032935
0.163088
0.334908
0.350838
0.092225
0.059847
-0.049937
-0.618297
0.001226
-0.054566
-0.082374
0.077214
0.072700
0.100466
0.016620
-0.024296
0.018405
-0.050481
0.001473
0.142460
0.157596
0.113272
-0.081525
-0.129526
0.016772
-0.105217
0.009527
-0.005779
-0.015203
-0.055302
-0.025802
-0.007340
0.165896
0.116734
-0.051339
-0.127986
-0.063866
-0.119557
-0.492765
-0.283784
-0.769850
-1.224511
-1.137802
-0.828334
-0.228170
0.139356
0.387678
0.366768
0.337513
0.132569
-0.058516
-0.210417
-0.025517
0.235116
0.484443
0.280080
0.291947
0.338609
0.363228
0.257083
0.069812
-0.108304
-0.133577
-0.085829
0.063952
0.295916
0.336907
0.796743
-0.158611
-0.132348
-0.022842
0.305090
0.136322
-0.271201
-1.081637
-1.457919
-0.449370
0.158670
0.343953
0.322026
0.166927
0.130225
0.021391
0.013787
0.056173
0.014089
-0.034229
0.108612
-0.037014
0.166871
0.088408
0.157193
0.429412
0.660292
-0.130865
0.180824
-0.111980
0.210506
-2.080462
-1.093322
-0.663840
0.054282
0.171090
0.247407
0.224732
0.189712
0.125804
-0.049807
-0.095852
-0.098343
-0.144192
-0.058007
0.024049
-0.017630
0.179700
0.201111
0.211278
0.228861
0.164783
0.265610
0.006826
0.133359
0.138148
0.273477
0.240986
0.376845
0.452649
0.743404
-0.011721
0.091095
0.028768
0.097593
-0.048139
0.076148
-0.030099
-0.034333
-0.069308
-0.085050
-0.065732
0.007951
-0.002371
0.069020
0.006144
0.089677
0.065672
0.064732
0.135140
0.000749
-0.007282
-0.105798
-0.103774
-0.088368
0.066080
-0.070352
0.053697
0.059605
-0.113067
0.003214
-0.226970
-0.260494
-0.196218
-0.136665
-0.014883
0.011991
-0.053111
0.038855
0.123441
0.162111
0.193478
0.272508
0.171502
0.279120
0.237830
0.289560
0.170949
0.027506
-0.155994
-0.229323
-0.164090
0.062554
0.108070
-0.008807
-0.323654
-0.321895
-0.235387
-0.107902
0.018374
0.164103
0.054619
0.054246
-0.017495
-0.013169
-0.056364
0.095409
0.019463
0.079102
-0.104387
-0.082826
0.090147
-0.043956
-0.028930
-0.032810
0.017710
0.071184
-0.073618
0.117882
0.073434
-0.133878
-0.001980
0.153524
0.008427
-0.018192
-0.060569
0.237663
-0.100784
-0.208470
-0.145422
0.089695
0.030630
0.073719
0.059799
-0.048147
-0.107557
-0.029809
0.132075
-0.096011
0.016215
0.001518
-0.031065
-0.029051
-0.089726
-0.139232
-0.158822
-0.010498
0.102758
0.005039
-0.017963
-0.173289
-0.052432
0.092487
-0.113200
-0.038301
0.137789
0.091087
-0.013493
-0.154888
-0.050032
0.074102
-0.016421
-0.006425
-0.054308
-0.080927
0.111642
-0.059454
-0.068885
0.062155
0.054345
0.078816
-0.038879
-0.046362
-0.008315
0.005566
-0.011293
0.005441
0.090422
-0.103774
0.023943
-0.110214
-0.028178
-0.018818
0.022701
0.024719
0.028559
0.066406
-0.034070
-0.000530
-0.168283
-0.147742
0.024004
-0.056350
-0.003865
0.052319
0.014360
-0.127610
0.009790
0.011197
-0.095042
0.071777
-0.102927
-0.101809
0.027924
0.020391
-0.058541
-0.074171
0.070536
-0.147651
-0.008440
0.171947
0.131917
-0.077992
-0.029685
0.079365
0.071101
-0.016503
0.060907
0.116562
-0.115007
0.201728
0.324799
-0.135244
0.004755
0.081962
-0.153571
0.099544
0.244440
-0.069290
-0.176511
0.177964
-0.089121
0.098391
0.035883
0.028659
-0.028586
-0.230568
0.081252
0.175878
0.004674
0.111503
0.176677
-0.063984
-0.591653
-2.822247
-1.915448
2.090932
0.811780
0.650720
-0.498387
0.957211
0.004076
-0.091894
-0.038489
0.100609
0.089023
-0.011780
0.013651
0.057980
0.128269
-0.017304
0.080646
0.029185
0.021185
-0.016652
0.021837
0.108607
-0.023627
0.008667
-0.106573
-0.209158
-0.168402
-0.031252
0.007352
0.064941
-0.325365
-0.508799
-0.124130
-0.073491
0.165477
0.253016
-0.034129
0.120870
-0.167251
-0.109495
-0.016302
-0.030854
0.049644
0.042856
0.028979
-0.046404
-0.098581
0.149134
0.034151
0.067064
-0.121020
-0.129575
0.059981
0.076621
0.310567
-0.264506
-0.191144
-0.211473
0.791853
1.791240
0.542768
-1.198201
-1.559343
-0.768921
-0.076962
1.011457
-0.069410
-0.011253
-0.013740
0.036200
0.040018
-0.000106
0.062223
-0.082226
0.006816
0.072514
0.100681
0.285775
0.317213
0.337365
0.144965
0.004972
-0.236243
-0.237981
-0.221357
-0.267929
-0.014558
-0.077177
-0.511331
-0.648083
-0.209047
0.191033
0.539971
0.146186
0.082908
0.229059
-0.070985
-0.040421
0.018125
0.016370
-0.010522
0.069115
0.049823
-0.110324
0.026733
-0.102884
-0.025574
-0.105194
0.041353
0.017748
0.096974
0.057096
0.182187
0.260446
0.120570
0.064433
0.096044
-0.040748
-0.200565
-0.305878
-0.055779
-0.159127
-0.049181
0.031577
0.162414
0.278207
0.225162
-0.158906
0.226723
-0.098014
0.215145
0.067445
0.015220
0.110967
0.183973
0.088699
0.009945
-0.037009
0.236015
-0.088104
-0.046301
0.228707
-0.003241
0.131467
0.039790
0.100065
0.307155
-0.009296
0.372306
0.474834
0.684419
0.118556
-4.596950
-0.774011
0.902668
0.966518
0.065733
0.039379
0.147952
0.149258
-0.013608
0.150203
0.043284
0.052385
0.125492
-0.027228
0.006547
0.009587
0.133196
0.215365
0.089265
0.137497
-0.026034
-0.060462
-0.200983
-0.082793
0.091314
0.208278
0.130059
-0.022872
0.066709
0.161101
-0.092401
-0.294677
-0.286503
-0.305638
-0.094694
0.070669
0.064515
0.096606
-0.079043
0.005425
-0.013141
-0.078949
-0.022217
0.024434
-0.124292
-0.037573
-0.124043
-0.207418
-0.113842
0.054531
0.020457
0.081105
-0.005101
0.380585
0.995693
1.781548
0.858857
-0.171706
-1.255864
-1.138167
-0.018865
-0.177541
-0.415528
-0.111252
0.062285
-0.069748
0.068413
0.210053
0.014475
-0.211624
-0.317398
-0.169621
-0.134976
0.112216
0.394351
0.619462
0.948604
0.872390
0.239874
-0.000074
-0.327438
-0.386046
-0.273019
-0.363866
-0.326153
-0.080912
-0.110530
-0.362618
-0.435399
-0.363005
0.186616
0.048929
-0.108118
0.081910
-0.081783
0.143291
0.105404
0.124936
-0.013738
-0.014052
-0.068642
0.004338
0.099057
0.029687
-0.086152
0.101851
0.068898
-0.017772
0.038569
-0.035019
-0.048000
-0.058121
-0.113110
-0.052360
0.071124
0.041027
-0.009008
0.005956
0.040512
0.027283
0.035903
-0.025402
-0.063838
-0.202056
0.097074
-0.061926
-0.019478
-0.059817
0.099067
-0.021262
-0.044676
-0.072414
0.005602
0.106323
-0.002119
-0.024143
-0.060480
0.098141
-0.062944
-0.013095
-0.063106
0.002772
0.124740
-0.062231
-0.066790
0.032067
-0.037655
-0.001960
0.189983
0.069856
-0.066975
-0.008769
-0.153587
-0.090044
-0.161906
0.044921
0.141924
0.117216
-0.091564
-0.040161
-0.267018
-0.002019
0.122556
0.202242
-0.151339
-0.629134
-1.074664
-1.034310
-0.696553
-0.313931
0.043508
0.031221
0.134257
0.542178
0.682318
0.500189
0.541074
0.343620
0.297556
0.005505
-0.191839
-0.085151
0.114199
0.369844
0.015691
-0.101468
-0.019331
-0.003618
0.049240
-0.021517
0.067104
0.055187
0.020316
0.018731
-0.031668
-0.069155
0.019433
0.005281
-0.001378
-0.057643
0.058517
-0.034108
0.016721
0.010577
0.061652
-0.066561
-0.025005
-0.112426
-0.154067
-0.062712
0.133391
0.116525
-0.025789
0.148184
0.118948
0.144614
0.064687
0.012076
0.135836
0.301785
0.091167
0.036083
0.225963
0.166414
0.019629
0.099543
0.065993
-0.131725
0.188329
0.281991
0.058013
0.061067
0.037567
0.352571
-0.475202
-0.374400
0.261874
0.768910
1.203662
1.305268
0.055850
-0.907262
-1.146373
-2.089678
0.259300
-0.178600
0.273948
0.536211
0.661465
0.615177
0.293902
0.072835
0.112373
-0.183215
-0.115596
-0.205402
-0.146931
-0.015641
-0.005191
0.147195
0.061521
-0.173485
0.002029
0.034941
0.094169
-0.099816
-0.236394
-0.149492
-0.290786
-0.362996
0.134858
-0.297899
-0.404920
-0.016561
0.060262
0.056185
-0.051097
0.018185
-0.051638
0.045885
-0.085545
-0.108789
-0.006342
0.062287
-0.039996
0.055907
0.054683
0.005940
0.044086
0.094431
0.107475
0.055453
-0.089164
0.081894
0.090475
0.112470
-0.085887
0.015927
-0.110714
0.006540
0.002038
-0.124998
-0.071546
0.060820
-0.626485
-0.431816
-0.147474
-0.071083
-0.002599
0.019434
-0.007476
-0.107224
-0.141204
-0.329972
-0.246876
0.067123
0.334931
0.388214
0.565878
-0.290834
-0.301647
-0.817344
-0.633445
-0.440129
-0.361305
-0.173923
0.213916
0.401926
0.771939
0.772177
0.586649
0.244500
0.299168
0.875546
0.097774
0.108316
0.064519
0.114427
-0.070448
0.003769
-0.044482
-0.077980
0.000846
0.055656
-0.059061
0.045956
0.107958
0.041656
-0.200661
-0.240307
-0.012818
0.525533
1.142764
0.946922
0.121673
-0.770392
-1.282256
-0.936266
-0.227584
0.186146
0.128132
-0.267138
-0.173369
0.365558
-0.127655
0.220473
0.273801
-0.169366
-0.969868
-1.320752
-0.717066
-0.073729
0.245700
0.344555
0.056564
-0.126960
0.256024
0.260930
0.024118
0.086518
0.280613
0.107529
-0.145275
0.014030
-0.069502
-0.070884
-0.077354
-0.075562
0.370282
0.836143
0.118036
0.156103
0.027496
0.172609
0.082936
-0.040747
-0.125029
0.059244
0.114060
-0.002669
0.120207
0.095593
-0.076054
-0.058617
0.083194
0.096362
0.120427
-0.042125
0.019065
0.010403
0.024934
-0.078473
0.113649
-0.019248
-0.049837
0.047910
-0.058443
-0.107997
0.149625
0.115907
-0.116055
-0.155789
-0.201883
-0.190866
-0.103145
0.075321
0.038118
0.064623
0.014796
0.037788
0.046838
-0.007532
0.084312
0.054725
0.111362
0.063031
-0.087041
-0.082396
-0.007698
-0.045716
0.067233
0.041885
0.022582
0.044163
-0.059196
-0.068811
-0.001175
0.028132
0.038470
0.173087
0.126640
0.034449
-0.047603
-0.023073
0.123419
-0.055248
-0.102536
0.063405
0.028237
0.112553
0.199238
0.259851
-0.076702
-0.112132
0.000678
-0.271616
-0.239784
-0.093689
0.211759
0.987987
1.157964
0.683616
-0.411679
-0.945816
-0.887401
-0.597074
-0.303827
0.036563
0.040113
-0.101161
0.168760
0.040133
-0.015122
0.088546
-0.081414
0.044103
0.060302
-0.073140
-0.022745
-0.039161
-0.094382
0.083191
0.016675
0.074796
-0.101302
0.000397
0.075587
0.050044
-0.026962
0.043235
0.003165
-0.074253
-0.078219
-0.028462
0.124218
0.042082
0.009946
0.002535
-0.078269
-0.016881
-0.102305
0.041285
-0.069538
0.175276
0.001278
-0.025518
-0.049020
0.060326
0.089793
-0.004555
0.113662
0.057887
0.105938
0.068098
0.092265
0.046982
0.009984
-0.006010
-0.010047
0.073741
0.036764
-0.068739
-0.041387
0.013958
0.079319
-0.023984
0.060276
-0.147099
-0.197698
-0.147164
-0.001275
0.086370
0.061715
0.072938
0.021810
0.115383
0.031169
-0.043087
-0.081520
0.057574
-0.050519
-0.030882
0.018957
0.043680
-0.090790
-0.059376
-0.094118
0.095321
0.128700
0.087316
0.066642
0.067010
-0.031895
0.054675
0.031836
0.037224
-0.021639
-0.038261
-0.016249
0.041539
-0.031929
-0.128675
-0.078188
-0.060084
-0.353860
0.135660
-0.369766
-0.285477
0.314165
-0.077956
-0.226470
-0.236474
-0.120482
0.040444
-0.030811
-0.598582
-0.068891
0.295087
-0.220339
-0.196881
-0.096025
-0.695532
0.968823
0.089595
-1.408233
0.732697
-0.392762
0.435157
0.262794
-0.098401
1.276351
-0.547135
-1.698732
2.611101
0.138586
-0.084669
-0.118697
0.130158
0.001851
-0.122686
-0.001195
-0.063410
0.006478
0.014743
-0.158293
0.065191
-0.057214
-0.116797
0.039226
-0.033213
-0.139670
0.034831
0.175964
-0.093175
-0.000563
-0.172711
0.067551
0.091574
0.102421
-0.045674
0.082859
-0.052852
-0.071274
0.139476
-0.526561
0.171032
-0.081543
0.019720
0.011069
-0.021652
-0.134563
-0.057571
0.006967
-0.213005
-0.104385
0.081440
0.031367
-0.274630
0.116256
0.107075
-0.255675
-0.074139
0.236937
-0.199933
-0.080675
0.049165
-0.083618
-1.264497
1.139249
4.493413
-2.169910
-0.307808
0.332587
-0.611243
0.007619
0.046486
-0.010552
-0.051543
-0.058500
0.037907
0.100450
-0.071909
-0.003918
-0.083872
-0.028947
-0.010616
-0.027744
0.111984
0.066395
0.106781
0.016668
-0.096592
-0.065742
-0.032532
0.075798
0.083480
0.117344
0.032420
-0.073392
-0.157539
-0.040476
-0.113093
0.052345
0.004137
0.120780
-0.080116
-0.070442
-0.079898
0.098677
0.160477
0.048965
-0.056526
-0.099145
0.048702
0.043310
0.136878
0.126154
0.009595
-0.126600
-0.102928
-0.112097
-0.051342
0.115657
0.069821
0.066339
0.073435
-0.064899
-0.043992
0.128045
0.161579
-0.088124
-0.050786
-0.043418
0.002349
-0.028823
0.044430
-0.099530
-0.055379
0.027212
0.184253
0.070968
-0.095837
-0.067442
0.035193
0.118425
0.372506
0.396239
0.391340
0.036241
-0.211844
-0.229894
-0.319548
-0.432868
-0.490482
-0.418095
-0.086923
-0.024131
0.224036
0.325976
0.332178
0.155038
0.207566
0.103666
0.461234
-0.174439
-0.175736
0.017068
-0.086525
0.064328
-0.029378
-0.299669
0.126173
-0.107596
-0.145756
-0.065617
0.112359
0.084765
-0.252913
-0.408139
1.001439
0.139203
-0.908540
0.012983
0.951022
0.792487
-1.173229
-0.684560
1.216961
0.355746
-0.044125
0.310031
0.043845
-0.243172
-0.026875
0.065109
-0.197331
-0.251933
-0.010753
0.132847
0.079993
0.056820
0.004765
0.075612
0.074535
-0.146374
-0.370036
-0.522552
-0.404429
0.058249
0.355362
0.322047
0.136061
0.132564
0.153527
0.037769
0.008092
-0.130314
0.118080
0.619606
0.540534
0.011469
-0.053929
-0.125364
-0.158439
-0.115184
0.088574
0.140276
0.108578
0.009576
0.088166
-0.059111
-0.051981
-0.040442
-0.005943
-0.059562
-0.071887
0.116406
-0.006473
0.073247
-0.088473
-0.053995
0.061245
0.037424
0.125432
-0.018388
-0.161071
-0.055867
-0.080217
0.009577
-0.005567
0.046134
-0.098533
-0.019256
-0.087742
-0.124694
-0.024475
0.055142
0.076862
-0.034083
-0.052207
-0.001830
0.016193
-0.129282
-0.079698
0.024547
0.210988
0.292768
0.245821
0.138993
-0.093590
-0.406261
-0.719524
-0.945631
-0.207286
0.573259
0.739333
0.814132
-0.047375
-0.215170
-0.282595
-0.648663
-0.553715
-0.082790
0.436559
0.094096
-0.012694
-0.008981
0.071112
0.312274
0.337312
-0.026514
-0.691949
-1.301765
-1.133538
-0.476559
0.150957
0.194183
0.074248
0.064455
0.179458
0.335882
0.161491
0.156713
0.088229
-0.002302
-0.048908
-0.198054
-0.195233
0.057168
0.399315
0.139314
0.175904
0.238027
0.296271
-0.097538
-0.077802
-0.028422
-0.012067
-0.099730
-0.118830
-0.122573
-0.091483
-0.196490
-0.289183
-0.288590
-0.291592
-0.169086
0.137216
0.228117
0.204546
0.158991
0.110186
0.115985
0.132126
0.157974
0.093433
0.039105
0.135484
0.190192
0.125206
-0.006268
-0.139184
-0.058590
-0.201340
0.401375
0.059039
-0.013823
-0.137792
-0.061219
0.151340
0.237798
0.213837
0.158595
-0.077501
-0.232730
-0.271849
0.191400
0.519168
0.344820
0.088368
-0.537898
-0.775719
-0.026119
0.606654
0.635213
0.352881
-0.198585
-0.927757
-1.158463
-0.248794
-0.057560
0.135992
0.365045
-0.070156
1.224730
-0.490983
0.274540
0.420825
0.288128
0.103394
0.360449
0.021129
0.039891
0.115174
-0.063139
0.177763
0.282712
0.352194
0.173279
-0.003190
-0.032704
-0.003334
0.051809
-0.188507
-0.295412
-0.404250
-0.274684
-0.478252
-0.366744
0.132038
-0.312458
-0.496857
0.022201
-1.118985
-0.309275
-0.103998
-0.172427
-0.079406
-0.096431
-0.131747
-0.104022
-0.203381
-0.125346
-0.201977
-0.250540
-0.051250
-0.074391
-0.312922
-0.110185
-0.029716
-0.095674
-0.253406
-0.203848
0.015877
0.026716
-0.210681
-0.749220
-0.490087
-0.019834
-0.511686
-0.036061
0.929922
1.853483
1.095812
0.167461
-0.075287
0.152872
0.008746
0.217543
0.151347
0.413178
0.682760
0.703876
0.475593
0.572033
0.294854
0.035632
-0.101640
-0.155716
-0.159039
-0.251591
-0.325915
-0.146604
-0.200827
-0.310556
0.020150
-0.120137
-0.122576
-0.179654
-0.399018
0.040838
-0.286487
-0.349956
-0.373414
0.130638
-0.054707
-0.034318
0.095677
-0.067839
-0.010282
-0.031443
-0.001462
-0.035874
-0.008064
0.035766
0.116271
0.136001
0.094945
-0.165636
-0.221523
-0.113987
-0.116974
0.036561
-0.088676
-0.102255
-0.130603
-0.020618
-0.020241
0.112228
0.195449
0.012560
-0.079865
0.007955
0.018059
0.018411
0.098677
-0.108972
-0.102021
-0.086812
0.043896
-0.013045
-0.043771
0.082774
-0.090514
-0.270718
0.186826
0.078131
0.127768
0.019358
-0.010206
0.256985
0.121487
-0.047829
0.154005
-0.573508
-0.816167
-1.262666
-0.770035
0.959686
1.555715
-0.435341
0.133575
0.095531
0.122416
-1.734343
0.088662
0.467367
0.585516
0.171254
0.076620
-0.152851
-0.244205
0.002123
0.061859
0.145647
0.059595
0.194788
0.203958
0.132782
0.145317
-0.067759
-0.047531
-0.138480
0.135992
0.181155
0.073321
0.015606
-0.052525
0.145882
0.339215
-0.001540
-0.179515
-0.074378
-0.101216
-0.546291
-0.275158
-0.131691
0.310659
0.413453
0.470331
0.361115
0.247379
-0.050719
-0.297197
-0.209630
-0.106492
0.204732
0.148914
-0.061000
-0.285833
-0.286318
-0.160174
0.032992
0.132174
0.144721
0.031973
-0.052666
0.160263
0.429747
0.211386
0.093172
-0.102003
-0.069648
-0.222120
-0.073119
-0.008210
0.038269
-0.060328
-0.080231
-0.032239
-0.075727
-0.052909
0.013611
-0.089429
0.077311
0.064269
0.018060
-0.006784
-0.075130
0.114021
-0.026034
0.052614
0.090066
0.103586
0.036084
0.097590
-0.010406
-0.024582
-0.002722
-0.024625
0.036607
-0.151707
0.031009
-0.065147
0.035429
-0.031999
0.080468
-0.069797
0.052170
0.040168
-0.062845
0.007735
-0.002391
-0.053038
-0.058061
0.032419
0.007702
0.048249
-0.053721
-0.003812
-0.069410
0.052332
-0.011807
-0.021758
0.050742
0.047980
-0.063379
0.065333
0.038433
0.023220
0.002602
-0.070291
-0.160623
-0.115601
0.156528
0.036344
0.005226
0.068897
-0.040195
-0.053593
-0.009077
0.153078
-0.008159
0.003541
-0.002575
0.002070
-0.115975
-0.055632
-0.056900
-0.024075
0.062907
-0.051971
-0.034550
0.009309
-0.167630
-0.034353
-0.049655
-0.075710
0.244434
0.151219
-0.099691
0.050907
-0.145610
-0.005277
-0.033806
0.003901
0.010352
0.074008
-0.127827
-0.167079
-0.080234
0.285692
0.312006
0.356436
0.192286
-0.173059
-0.357714
-0.350702
-0.291993
-0.024811
0.139270
-0.053915
-0.110497
0.061083
0.014971
0.103044
-0.189622
0.010059
0.591699
0.506450
-0.026875
-0.259605
-0.364169
-0.238665
0.496472
0.355680
0.199717
0.121763
-0.062267
-0.142375
0.026646
0.150563
-0.014407
0.069891
-0.005316
-0.013008
-0.115728
-0.293476
-0.203423
-0.152372
-0.051706
0.208239
0.268557
0.543430
0.383890
0.365023
-0.078907
-0.428987
0.188628
0.645693
-0.026014
-0.218987
-0.468292
-0.997319
0.353015
-0.045919
-0.060730
0.039680
0.241165
0.007111
0.009333
0.085806
0.109562
0.156202
-0.072815
-0.191042
-0.132918
-0.224357
-0.225539
0.076372
-0.117879
-0.123695
-0.125307
0.014246
0.028815
-0.164080
-0.179607
-0.056259
0.406902
0.321159
-0.114494
-0.150245
-0.158281
-0.092252
0.074964
-0.067840
0.043884
-0.064155
0.022686
0.089545
0.026076
-0.018130
-0.049763
0.004978
-0.027118
-0.022087
0.112955
0.050900
-0.113468
0.075509
-0.066761
0.094937
-0.084030
0.012397
0.071892
-0.038748
-0.089846
0.027327
0.147425
0.006916
-0.064202
-0.113463
-0.100327
0.015785
0.034865
-0.020212
-0.018923
-0.018397
-0.013031
0.057237
0.028541
-0.001720
-0.042792
0.050910
-0.027478
-0.079880
-0.084540
0.011421
-0.000906
-0.038343
-0.044567
-0.000694
0.030307
0.073712
-0.055915
-0.009245
-0.155250
0.062323
0.082240
-0.041653
-0.012451
-0.019944
-0.064413
0.067075
-1.665978
-0.242156
-0.405053
-0.132927
-0.373566
-0.235684
-0.170809
-0.276410
-0.452572
-0.314183
-0.076390
-0.206029
-0.174760
-0.013842
0.093324
-0.045843
-0.141454
0.004715
0.169690
0.142163
0.142216
0.368531
0.288152
0.182875
0.275622
0.836669
0.182356
0.677569
0.753981
0.639439
0.082562
-0.845946
-1.222936
-0.833808
-0.208520
0.156714
0.328502
0.174758
0.118319
0.080142
0.114232
0.330993
0.160419
0.065922
0.013229
-0.014099
0.005097
-0.032684
-0.095148
0.127951
-0.070108
0.053838
0.012975
0.011828
0.550376
0.766162
-0.035293
0.023021
0.013061
0.057613
0.063788
0.089965
-0.070966
0.011425
0.037987
-0.092348
0.077541
-0.021840
-0.066754
-0.019962
-0.050292
0.053140
-0.042034
0.088688
0.056967
0.072257
-0.061697
-0.106185
-0.020682
-0.071264
0.106159
-0.013603
-0.030775
0.038663
0.018601
0.067294
0.018137
-0.084338
0.010325
-0.044169
-0.146827
0.150574
-0.136782
-0.073714
-0.047053
-0.101928
0.073708
0.001201
0.098348
-0.227016
0.163322
0.098380
-0.031507
-0.117409
0.014577
-0.300937
0.048786
0.047922
-0.007177
0.002100
-0.194474
-0.163326
0.211338
1.135610
-0.769668
-2.741213
2.768217
2.564810
-0.518461
-1.807053
-0.006581
-0.365636
-0.232829
-0.126505
-0.074934
0.372383
-0.201907
-0.618728
0.344995
0.075016
-0.253368
0.105215
-0.206818
0.016390
0.424896
-0.839740
0.261853
0.557057
-1.230927
0.931751
0.201297
-0.789899
0.529910
-1.007337
1.167890
2.210019
-1.335836
-0.258470
0.297801
-0.327800
-0.560601
0.189932
0.126541
0.477571
0.309041
0.239051
-0.164398
-0.128740
-0.056549
0.135026
0.470411
0.557020
0.128422
-0.527609
-0.850922
-0.646330
0.119228
0.608990
0.413848
0.091786
-0.287185
-0.408982
-0.522945
-0.391718
-0.197641
0.306102
0.094141
0.218944
0.157181
-0.112962
-0.349104
0.104910
-0.166718
-0.154217
-0.139067
-0.171016
-0.083779
-0.061468
0.005386
0.305529
0.469769
0.308656
0.064691
-0.525915
-1.091594
-1.102223
-0.751214
-0.504806
-0.307430
0.001309
0.138893
0.264288
0.564740
0.511706
0.746206
0.494536
0.306311
0.080090
0.038930
0.659122
0.103251
0.076279
-0.010119
0.060159
0.085677
0.093012
0.097291
-0.066580
-0.010233
0.017873
0.081609
-0.005753
0.107952
-0.050711
-0.050680
-0.090449
-0.102288
-0.073713
0.098933
0.051143
0.071890
0.068024
-0.070763
0.078698
0.096799
0.108507
-0.033526
-0.086478
-0.059261
-0.033450
0.109714
0.004723
0.020003
0.058842
-0.040301
-0.024743
0.128628
0.031429
-0.128933
-0.123755
0.076292
-0.012966
0.129849
0.016907
-0.038772
-0.133015
0.031249
0.051705
-0.009790
0.070643
-0.122284
-0.252774
-0.140575
0.061377
0.115567
0.272925
0.024480
0.021531
-0.037386
0.152346
-0.006094
-0.099104
0.056594
-0.021672
0.065161
-0.025693
0.071564
0.042665
-0.080982
-0.091984
0.005277
-0.009780
0.007754
0.016458
0.012211
-0.017899
0.047285
-0.096260
-0.021491
0.102683
0.089901
-0.014242
-0.197279
-0.064059
-0.013540
0.061012
0.116463
0.067920
0.116192
0.102588
-0.172619
-0.036265
-0.160248
-0.077626
-0.191639
-0.046743
-0.100178
-0.092363
0.062949
0.055110
0.014064
-0.021424
0.058260
0.129713
0.127630
0.004449
0.234543
0.212132
0.192331
0.288837
0.185002
0.112927
0.059666
-0.140232
-0.083914
-0.077722
-0.121128
0.003043
-0.160252
-0.135736
weigvec 606
0.190536
-0.491845
-0.500523
0.480645
-0.260236
0.076098
-0.090134
-0.483038
0.107293
-0.274062
0.073681
-0.076997
-0.211855
-0.471092
0.965989
0.745258
-0.182178
-0.575196
0.040964
0.526498
-0.137822
-0.190271
-0.169453
0.300640
-0.422041
-0.227784
-0.586303
-0.145436
0.492893
-0.544976
0.048433
-0.006087
0.519105
-0.212037
-0.086323
-0.246345
-0.176546
1.766394
0.372051
1.838188
0.643580
0.242674
1.241904
-0.350430
1.344764
0.816175
-0.183582
-0.174394
0.163601
0.231986
0.277205
0.374141
-0.011607
0.564146
1.115192
-0.405026
-0.289519
-0.007461
0.780992
-0.047641
0.206475
-0.041831
0.079047
-0.113343
-0.356831
0.058761
-0.131418
0.036532
0.079466
-0.481466
-0.010179
0.483995
-0.134172
-0.294321
0.617581
-0.697539
1.110123
0.589586
-0.006298
0.380049
-0.517054
-0.055069
-0.065488
-0.237018
-0.186215
-0.318528
0.107985
-0.336765
-0.139839
0.000348
-0.522972
-0.545403
-0.090212
0.669383
-0.692358
0.293550
0.277866
-0.192181
0.079144
0.154890
-0.083990
0.155510
0.083634
0.094619
-0.015269
0.022596
-0.271722
0.071822
-0.003700
-0.051777
1.111485
-0.152010
0.152446
-0.128731
-0.605810
0.331649
-0.313994
0.007820
-0.046556
-0.043138
-0.338550
-0.221163
-0.057528
-0.194026
-0.151497
-0.211150
-0.066062
0.390467
0.064873
0.221244
0.786205
1.350995
-0.035863
-0.107549
-0.151435
-0.004408
0.039738
-0.047666
-2.502065
0.012429
-0.868717
-0.134425
-0.184871
-0.616308
-0.052451
-0.809602
-0.664944
0.069688
-0.007005
1.007665
-0.002383
-1.001494
-0.431599
-0.172242
0.342793
-0.876456
0.711415
-0.112096
0.041612
-0.133193
-0.100276
-0.103201
-0.074847
-1.503368
-0.078314
-0.815901
0.079429
-0.066010
0.218910
-0.433730
-0.049972
-0.016104
0.403074
0.693285
0.099430
-0.242847
-0.529896
-1.050139
-0.721771
-0.130384
0.153618
0.692126
0.346540
0.011908
-0.066357
-0.126372
-0.040035
-0.146596
-0.137871
0.000884
-0.077389
-0.968203
0.851668
0.062787
1.996419
-0.415766
0.090767
0.823653
0.049460
-0.166254
-0.001502
-0.125698
-0.022171
-0.257262
-0.169775
-0.895509
0.078247
0.781670
0.131836
-0.100379
0.059067
-0.159551
-0.033559
-0.062549
0.136301
-0.518913
0.464822
0.509956
0.076785
0.063103
-0.127841
0.883174
0.490891
0.077303
-0.078942
-0.273865
-0.116318
-0.070636
0.212546
-0.001825
0.146931
-0.365374
-0.286358
0.169530
0.263014
-0.101943
-0.157644
-0.080407
-0.086492
1.804203
-0.323337
1.102520
0.217840
0.124909
1.577703
0.013490
1.640606
0.713135
0.080839
0.038085
0.110884
-0.045114
0.529243
0.819993
-0.008166
1.027571
1.275632
-0.370736
-0.035790
0.019286
0.457938
-0.136923
-0.037916
0.003833
0.809704
-0.157273
-0.747205
-0.005948
-0.185870
-0.280871
-0.433276
0.131540
0.138415
0.162031
-0.194539
0.277386
-0.068120
-0.251030
1.040906
1.260719
-0.116486
-1.118769
-0.215245
-0.117125
0.090966
0.007624
-0.113966
-0.132113
0.036468
-0.156021
-0.049876
-0.078668
0.590175
-0.237426
0.008176
0.605930
-0.093095
-0.108682
0.271137
0.035074
-0.074092
-0.085617
0.216892
0.144326
-0.043472
0.100184
-0.115897
0.162378
-0.747388
0.094102
0.279132
-0.023526
0.654020
-0.043980
0.662463
0.389266
-0.270649
0.285868
0.100545
0.019856
-0.507550
-0.075356
0.423598
0.209416
0.131196
-0.252873
-0.310674
0.278015
-0.286758
-0.037351
0.035238
0.203047
0.421053
0.653976
-0.019506
0.001441
0.190183
0.033546
0.006722
0.029565
-0.828960
-0.080253
-1.010434
-0.423334
-0.147453
-0.753097
0.340990
-0.978763
0.206213
0.068061
-0.028101
0.583852
-0.047672
0.930537
-0.648989
0.154189
0.472213
-0.197973
0.483209
0.122280
-0.113573
0.306144
0.134860
-0.062554
0.187759
-0.845487
-0.061348
-0.114115
0.208193
0.056025
0.184619
-1.027069
0.025429
-0.067635
0.579443
0.430013
0.056607
0.297180
0.165358
-0.339597
-0.402281
0.009500
1.130682
0.535714
-0.268709
0.112459
0.087669
-0.120266
0.013252
0.728019
-0.141920
-0.026183
-0.078259
-1.151308
0.330579
0.081434
-1.370408
-1.810014
0.469718
0.554807
0.076812
-0.227160
-0.118947
-0.011251
0.736362
0.601339
0.499708
-0.425906
0.314505
-0.305894
0.243390
0.470357
-0.021044
0.831083
-0.097819
0.251111
0.269138
-0.657143
0.076826
-0.555178
0.206590
0.425583
-0.076830
-0.459567
-0.468656
0.166360
0.554378
-1.265235
0.294710
0.450130
0.482556
0.309547
0.247447
0.916193
0.910271
0.010819
-0.280058
-0.002274
0.179054
0.080754
-0.096834
-0.838853
-0.117121
0.108676
-0.030179
-0.212216
-1.653146
0.194263
-1.000938
-0.838416
0.152023
0.186737
0.205723
-0.012883
0.379070
-0.862836
-0.085162
0.549773
-0.218680
1.026064
0.212573
0.206705
-0.004125
-0.090876
-0.204914
0.102776
-1.485912
-0.041575
1.724049
-0.095266
0.197678
0.772022
-0.638663
0.611299
0.185033
-0.127752
0.787513
0.250484
0.765436
0.576485
-0.975496
-1.374481
0.369045
0.841126
0.829317
0.534509
-0.006614
0.083162
0.207922
0.775888
0.365591
0.354471
0.111635
0.070280
-0.904286
0.951155
0.117902
-1.177799
-0.471873
0.711166
0.428019
0.169616
0.321460
-0.012854
-0.252916
-1.209932
0.252976
-0.113186
1.137115
-0.157016
0.519913
-0.062384
0.018799
-0.107665
-1.910202
0.042099
-0.852204
-0.215980
2.423754
-2.220530
-0.637074
-0.163837
0.739252
0.123444
-1.008365
0.097147
-0.179605
-0.060449
1.600650
-0.040997
-0.056206
-0.576176
-0.070409
-1.511536
-1.280511
-2.719066
0.010847
-0.097073
0.154359
0.301006
-0.062227
0.275833
0.616657
0.132578
-1.033900
-0.188196
0.172016
0.307395
-0.228323
-0.185456
-0.354439
-0.026573
0.141605
-2.048478
0.084960
-1.296706
0.884399
0.066638
-2.845786
-1.140643
-1.253125
-0.001062
0.045927
-1.440558
-0.016566
-0.028787
-0.110840
3.068645
0.316287
0.269038
-0.054418
-0.026116
-0.726786
2.288498
-0.233185
-0.074978
-1.541679
-1.525375
-0.180779
-1.299184
0.926373
0.130958
0.917705
-0.005779
-1.236725
-1.208154
-0.554494
0.110505
0.054584
0.148816
-0.091699
-1.212844
0.386851
0.046180
0.114465
2.938128
-1.293370
0.091406
-0.766579
3.574833
-1.289757
-2.477954
0.041769
0.199672
0.187249
0.185767
biasvec 101
-4.155538
-3.844043
-3.844469
-3.912082
-3.916481
-4.197212
-4.033126
-3.760834
-4.095099
-5.826451
-3.980590
-4.040761
-3.965516
-4.580750
-6.600811
-4.067150
-3.913618
-4.137328
-4.048112
-4.287948
-4.067244
-4.045169
-3.923751
-3.747838
-3.803137
-3.839393
-3.957262
-3.928056
-5.678482
-5.078241
-6.576650
-3.931650
-4.014274
-3.960405
-3.870553
-4.027957
-3.934587
-0.414978
-3.860971
-4.325209
-3.707554
-3.955287
-0.846712
-3.843280
-5.414576
-4.677463
-4.031772
-3.916425
-5.371635
-4.071924
-4.428336
-5.333582
-4.069887
-6.768660
-4.814273
-5.014311
-3.938782
-3.907091
-4.578981
-3.962055
-4.076197
-3.994893
-5.094034
-3.917506
-1.367674
-4.066562
-3.973501
-4.226296
-3.897144
-3.851315
-4.066302
-4.001135
-5.086302
-3.969158
-4.702364
-4.776687
-4.293993
-6.092311
-3.974301
-5.009762
-3.867557
-3.773573
-4.024174
-4.062849
-4.000687
-3.768830
-4.193889
-3.866754
-4.092907
-4.063992
-4.500485
-4.797535
-3.997539
-2.487594
-4.529335
-3.949462
-6.041604
-4.046321
-3.864245
-4.020887
-3.949089
biasvec 6
-5.446659
-5.876590
-5.439641
-3.362461
-2.621820
-1.194582
