30 101 6
weigvec 3030
-0.364363
0.045105
0.054728
0.148245
-0.006360
-0.030954
0.000611
0.219637
0.570108
0.513044
0.188630
-0.153132
-0.405962
-0.590281
-0.239839
0.223806
0.289759
0.096077
-0.161844
-0.345056
-0.334150
-0.346528
-0.152414
0.114682
0.302608
0.517108
0.045829
0.018344
-0.067313
0.007192
0.359387
0.542694
0.560738
0.091981
-0.323869
-0.455512
-0.686606
-0.552718
-0.294235
-0.065736
-0.026943
-0.193638
-0.230032
-0.214195
-0.138073
0.081701
-0.034021
0.112896
0.041369
0.229701
0.204158
0.067174
0.112086
0.441858
0.319525
0.138395
0.032749
0.055095
0.028877
-0.209546
-0.077729
-0.147348
-0.212488
-0.037445
-0.312188
-0.385398
-0.488615
-0.277753
-0.236347
0.008343
0.147199
0.352272
0.425396
0.510879
0.523573
0.024001
-0.119210
-0.112364
-0.059667
0.251979
0.278187
0.143763
0.005250
0.140642
0.397627
0.380801
0.037364
0.014607
0.004909
-0.469449
-0.107124
-0.230303
-0.111729
-0.088545
-0.162674
-0.127602
0.009420
-0.029252
-0.148762
-0.058586
-0.057845
-0.048159
0.154138
-0.028780
0.169190
0.131152
0.142814
0.084718
-0.571771
-0.217796
0.266871
0.767060
0.692562
-0.724742
-1.159273
0.026413
0.296496
-0.216513
0.442952
0.356746
0.028176
0.015124
-0.162633
-0.165477
-0.012975
0.106145
0.136058
-0.006003
0.107547
0.089064
0.049893
-0.036239
0.107081
0.113420
0.174119
0.128309
0.158958
0.114079
-0.017634
-0.076796
-0.081516
-0.015493
0.065751
0.111585
0.069780
0.190369
-0.069731
-0.082389
-0.130340
-0.080512
-0.011907
-0.020035
0.018189
0.022280
0.119061
0.013378
0.144087
0.014413
0.151898
0.082390
0.024428
0.124670
0.106123
0.010340
-0.066264
0.057692
0.075409
0.045002
-0.076505
0.025698
0.073177
-0.050474
0.005349
-0.005305
-0.045687
0.099658
0.020906
-0.127987
-0.326836
-0.027844
-0.062030
-0.057825
0.063986
0.117526
0.093601
-0.064000
0.006467
-0.019310
-0.093436
0.020925
-0.116597
-0.123272
0.040915
0.061195
0.136159
0.064353
0.010720
-0.041227
-0.123452
-0.119081
-0.133510
-0.039650
-0.024092
0.021373
0.097703
0.186749
-0.013360
0.011665
-0.058454
-0.115504
-0.022199
-0.096468
-0.140832
0.023869
-0.033143
0.065772
-0.081703
-0.096632
-0.234845
-0.113963
0.102322
0.497990
0.638297
0.488675
0.118311
-0.063880
-0.471151
-0.612732
-0.600501
-0.198772
-0.074451
-0.147055
-0.058218
0.245389
0.625220
0.536034
-0.189052
-0.146611
0.106476
0.029063
0.017148
-0.052986
0.043133
-0.057527
0.111332
0.112915
0.105865
0.016880
-0.085290
-0.072787
0.034906
-0.076785
0.000557
-0.053342
0.052617
0.149744
0.112435
0.084970
0.002752
-0.121819
-0.155378
-0.054518
-0.114942
-0.009116
-0.070708
0.056396
0.133489
0.087707
0.037007
-0.046809
0.074430
0.241703
0.182324
0.196083
0.142609
0.338701
0.125036
-0.017042
0.016734
-0.510927
-1.428314
-1.505278
-1.137662
-0.568738
0.154921
0.319486
0.437468
0.617033
0.726891
0.488926
0.397664
0.378473
-0.005688
-0.195419
-0.498753
-0.202910
0.275891
0.178544
0.129943
0.296809
0.060029
0.051117
0.040357
0.062352
0.070042
0.096874
-0.042969
0.038308
0.018882
0.020993
-0.018003
-0.068884
-0.031144
-0.023056
-0.004640
0.001040
-0.045520
-0.056238
0.032082
0.077160
0.016991
-0.137051
0.033763
-0.036769
-0.106583
-0.118026
-0.004385
0.016308
-0.058690
0.069130
-0.004534
-0.033982
0.091001
0.035445
-0.006043
-0.104195
-0.083755
0.039379
-0.020888
0.012241
-0.108984
0.014568
0.005850
0.091974
0.111261
0.103214
-0.013613
0.029956
-0.124620
-0.118844
-0.175517
-0.147927
-0.123076
0.045678
0.118503
0.113603
0.015392
-0.049762
-0.015559
0.118827
-0.166045
0.091575
-0.009431
0.004156
-0.037485
0.031853
0.048941
-0.067121
-0.007261
-0.068503
0.061569
0.160651
0.134734
-0.095225
-0.110541
0.044478
0.026954
0.134644
0.264451
-0.013717
-0.198419
-0.089167
0.295502
0.900077
0.701312
-0.768980
-1.489314
-0.469642
0.124306
0.355480
-0.217754
-0.009002
-0.077277
0.119855
-0.187148
-0.066448
0.203581
-0.312964
-0.050168
0.149286
-0.219478
-0.125457
-0.033836
0.029942
-0.377693
-0.202838
0.612777
-0.981611
-0.448668
1.677246
-0.378152
-0.943257
-0.238316
0.731671
0.188792
-0.933495
0.776679
0.212187
-1.263322
1.478717
-0.742166
-0.647473
-0.330917
-0.178977
-0.246810
-0.427114
-0.564777
-0.490762
-0.428313
-0.258264
0.126729
-0.034354
0.235188
0.712184
1.364496
-0.605628
-0.883151
-0.862223
-0.442452
-0.011116
0.404451
0.132751
0.842405
0.635341
0.650648
0.427109
0.462313
0.106562
0.313342
0.643162
0.040376
-0.044431
0.080910
0.295794
0.298974
0.195670
-0.090143
-0.267418
-0.468711
-0.457302
-0.186640
0.164880
0.360937
0.311139
0.312093
0.456265
0.395405
0.122808
-0.240378
-0.468102
-0.202083
0.101968
0.169603
-0.245498
-0.548305
-0.316537
-0.148621
0.221795
-0.031691
-0.079454
-0.122727
-0.029295
-0.148889
-0.057986
-0.015014
-0.029067
0.113566
0.018184
0.020027
0.124355
-0.030292
0.066283
0.111188
0.045468
0.147068
0.009751
0.039239
0.063651
-0.086384
-0.040506
-0.099438
-0.044407
0.004226
-0.002409
0.078508
0.147831
-0.026312
-0.066048
-0.154935
-0.111604
0.333250
0.300903
0.240821
-0.049461
-0.043931
0.181188
0.137250
0.109126
-0.091134
-0.233217
-0.252724
-0.294455
-0.231784
-0.199655
-0.242119
-0.128588
0.013358
-0.032825
-0.045747
0.140836
-0.040043
-0.009039
0.058760
0.110214
0.379796
0.260626
0.011312
0.018266
0.023553
0.065069
0.145921
-0.032127
0.016395
0.034797
0.001424
0.109494
-0.067544
0.010236
-0.017889
0.044349
-0.025271
0.015242
-0.086149
0.041580
0.064490
-0.129843
0.053716
-0.126152
0.000026
-0.015609
-0.059462
-0.101031
-0.052211
-0.061608
-0.021765
-0.136469
0.045006
-0.084340
0.054256
0.065620
-0.016327
-0.049519
0.028667
-0.060796
-0.003571
0.150228
0.167028
-0.042750
0.105312
-0.054745
-0.040789
0.045927
-0.042741
0.093158
-0.010683
-0.031006
-0.041808
-0.049572
0.034340
0.042872
0.073774
0.088115
0.099837
-0.120034
-0.034319
0.117682
0.005813
-0.233884
-0.276930
0.012639
0.335030
0.265820
0.173484
0.071549
-0.212228
-0.344430
-0.396650
-0.208722
0.052322
0.051047
0.128967
0.127812
0.132743
0.023314
0.079920
-0.042243
0.075283
0.092637
0.010752
0.016526
0.049626
0.075841
0.061238
-0.250210
-0.227365
-0.091143
-0.197046
-0.074529
0.008486
0.113797
-0.213163
0.026743
-0.000659
-0.013468
0.003889
-0.068290
0.034036
-0.016143
0.136641
0.135121
0.197386
0.154193
0.198499
0.124978
0.185686
0.281184
0.359720
0.268284
0.093718
-0.335359
-0.431280
-0.245875
-0.108935
0.043938
0.013893
0.130678
-0.121181
-0.133941
-0.227022
-0.155232
-0.455089
-0.229877
-0.051836
0.175267
0.117333
0.191108
0.174799
0.125294
0.207502
0.206172
0.102067
0.216450
0.156143
-0.029815
-0.285340
-0.320635
-0.162795
-0.047781
0.094865
-0.034483
-0.147815
-0.228235
-0.157068
0.041763
0.416091
0.489670
0.033536
-0.104838
-0.118243
-0.035494
-0.165588
-0.143878
-0.119141
0.056502
-0.009417
0.153471
-0.012634
0.048892
0.141196
-0.082003
0.127611
0.039702
-0.057892
-0.068257
0.097984
0.107158
-0.151957
0.013143
0.032580
0.064015
-0.247404
-0.489651
-0.391529
-0.125366
0.156997
-0.433777
-0.269448
0.305111
0.626034
0.763112
0.022592
0.094599
0.110320
0.065276
-0.020436
0.067399
-0.097859
-0.069402
0.017377
-0.054204
-0.005993
0.000937
0.010115
0.012242
-0.040147
-0.081732
0.038695
-0.045594
-0.046896
0.030075
0.073275
-0.028273
0.112778
0.053905
0.093910
0.212921
-0.022005
-0.200747
-0.150300
-0.216923
-0.022041
0.083188
0.053887
-0.063057
0.087880
-0.042599
0.009727
0.117186
-0.068405
-0.072188
0.070869
-0.080722
0.125575
0.022132
-0.045531
-0.134636
-0.173423
0.000901
-0.179871
-0.145886
-0.042183
-0.086488
-0.089742
0.075501
0.198793
0.386940
0.011968
-0.020702
-0.105719
-0.061032
-0.255309
0.013034
0.065866
0.221271
0.139560
0.019780
0.038542
-0.149892
-0.166098
0.161656
0.332832
0.410548
0.014276
-0.299763
-0.509575
-0.714951
-0.561860
-0.004924
0.118466
0.166205
0.260967
0.218752
0.127845
0.266598
0.444293
0.580984
0.224749
0.019490
-0.192658
-0.801305
-0.101045
-0.111679
-0.100593
0.072526
0.064384
0.062378
-0.028015
-0.048572
0.027065
-0.014801
0.041054
0.162444
0.161622
0.116734
-0.035913
-0.056463
0.054470
-0.113050
-0.040186
-0.050713
-0.038789
-0.049797
0.045392
0.062207
0.173014
0.137611
-0.016220
-0.121480
-0.078375
-0.137561
-0.011101
0.244747
0.096328
-0.092938
0.036073
0.025627
-0.010662
0.095582
0.121086
0.138343
-0.302830
-0.557507
-0.143802
0.577662
0.829755
0.525491
0.070329
-0.304899
-0.873771
-1.138799
-0.632514
-0.289105
0.034228
0.395758
0.280763
0.265324
-0.038111
0.054856
0.052678
0.109966
-0.514680
-0.084648
0.578141
0.781774
0.279815
-0.525170
-1.192727
-1.308218
-0.427243
0.270746
0.600546
0.445811
0.100515
0.017975
-0.124239
-0.063373
-0.057834
-0.057529
-0.205775
0.073410
0.058074
-0.003788
-0.054749
0.147376
0.199325
0.187120
-0.104113
0.147385
0.320346
0.212781
-2.405542
-1.575598
-0.726662
0.132689
0.564979
0.461047
0.430410
0.287129
0.258211
0.275330
0.104571
0.017424
-0.080667
-0.058501
-0.064965
-0.070409
-0.041729
0.092048
0.055814
0.086786
0.142722
0.148697
0.073712
0.288657
0.252563
0.391173
0.029331
0.288644
0.333868
0.696085
0.049591
0.112524
0.047788
0.161375
0.009654
0.059802
-0.101915
-0.164204
-0.179927
-0.111631
-0.019994
0.031186
-0.028134
-0.007794
-0.014363
0.222607
0.347610
0.326417
0.179940
-0.204322
-0.341790
-0.432463
-0.304455
-0.207191
-0.037349
-0.170758
0.126456
0.383627
0.106095
0.137565
-0.033491
-0.086189
-0.069003
-0.070871
0.032377
0.083916
-0.057907
-0.035398
0.063821
0.076861
0.042693
0.056931
-0.091862
0.044931
-0.020015
0.052070
0.056638
0.057521
-0.061736
-0.066604
-0.027137
0.032603
0.009759
-0.066996
-0.168220
-0.004318
-0.110242
-0.047602
0.064848
0.155558
0.022724
0.041590
-0.009101
0.011990
-0.025680
0.108407
0.031580
0.095157
-0.093283
-0.095420
0.051247
-0.081229
-0.049773
-0.040101
0.014892
0.057656
-0.089769
0.072559
0.023632
-0.145937
-0.047610
0.117138
0.012152
0.048681
-0.013510
0.240270
-0.054436
-0.158098
-0.091116
0.078395
-0.020769
0.054666
0.068275
0.001172
-0.049529
-0.002075
0.135386
-0.063358
0.025442
-0.063074
-0.107449
-0.054848
-0.091194
-0.141640
-0.168311
-0.111193
-0.042778
-0.050325
0.002136
-0.083998
-0.076172
0.056444
-0.111707
-0.031772
0.095156
-0.007316
-0.039812
-0.137086
0.076659
0.327195
-0.055483
-0.039353
-0.078925
-0.099739
0.096211
-0.066427
-0.074131
0.041171
0.026893
0.051454
-0.034122
-0.023306
0.001696
-0.003729
-0.024394
-0.020126
0.069498
-0.100364
0.047780
-0.088188
-0.017202
-0.003888
0.074676
0.069822
0.007911
0.036508
0.009897
0.053192
-0.136470
-0.147509
0.021606
-0.020163
0.019664
0.068453
0.038146
-0.092127
0.031696
0.032942
-0.073431
0.066564
-0.112001
-0.103507
0.033386
0.026704
-0.082699
-0.134771
0.043678
-0.147369
-0.029075
0.128310
0.096259
-0.021915
0.000071
0.053831
0.030808
-0.022509
0.057775
0.113504
-0.061443
0.154508
-0.088702
-0.071302
0.044131
-0.024927
0.064820
0.038595
-0.089055
-0.023674
-0.096973
-0.102057
-0.175883
-0.054207
-0.058211
-0.117746
0.001349
-0.083784
-0.193127
-0.289323
0.312117
1.063766
0.148492
-0.275757
-1.421312
-1.165006
-0.039162
0.696482
0.752569
0.408997
0.221745
0.222001
0.056128
-0.082691
-0.090840
0.034118
0.047961
-0.052152
-0.065496
-0.024456
0.045595
-0.077601
0.067910
0.027952
0.035084
-0.008828
0.000625
0.052055
-0.120570
-0.050693
-0.052648
-0.067908
-0.035356
-0.040095
-0.105768
0.007387
-0.085720
-0.184233
0.030713
-0.028331
0.140359
0.073188
-0.362187
-0.911134
-1.447751
-1.557651
-1.059500
-0.467185
0.109192
0.383624
0.232032
0.192036
0.223779
0.250171
0.171698
0.249143
0.187116
0.291019
0.332706
0.299269
0.358421
0.334816
0.383111
0.148358
0.285113
0.148901
0.035744
0.035573
0.211965
0.198560
0.208478
0.633725
0.058876
0.031002
-0.009013
-0.017232
-0.034657
-0.058178
0.042537
-0.080822
0.053962
0.176674
0.237952
0.376544
0.292025
0.234139
0.042990
-0.063067
-0.350730
-0.257084
0.016086
-0.008861
0.030791
-0.294881
-0.575791
-0.426122
0.185691
0.025673
0.072808
0.082191
0.043457
0.204628
0.019981
0.009532
0.047324
0.007570
-0.023792
0.111141
0.097591
-0.065922
0.111937
-0.035426
0.034596
-0.067359
0.080723
0.031723
0.064587
-0.054810
0.041920
0.110491
-0.015099
-0.005989
0.075387
-0.068548
-0.142121
-0.249306
0.063567
-0.040126
-0.160319
-0.073825
0.132231
0.267823
0.460231
-0.411630
0.230882
0.068319
-0.026703
-0.035657
0.105310
-0.078124
-0.012839
0.040851
0.127056
-0.022590
0.156053
0.028415
-0.029129
0.102449
0.087289
0.022544
-0.000918
0.065681
0.230109
0.035230
0.540315
-0.189791
0.462051
1.508000
-2.777782
-2.235382
0.214185
1.245758
0.037321
-0.022784
0.093012
0.129314
-0.016907
0.125333
-0.004495
-0.033492
0.036145
-0.075581
-0.021126
-0.045315
0.061168
0.114585
0.014344
0.122897
-0.028216
0.013781
-0.077678
-0.061028
-0.007237
0.098980
0.099545
0.096530
0.121163
0.066629
-0.068827
-0.080043
-0.009646
-0.145724
-0.150325
0.091972
-0.013126
-0.027343
-0.068871
0.119413
-0.076588
-0.010652
-0.097129
0.010597
0.144325
-0.066698
-0.026068
0.045673
0.030339
-0.096128
0.012206
0.113370
0.069239
0.034655
-0.065471
-1.150284
0.044849
2.917964
0.267289
-3.536256
1.180985
1.291964
-0.438720
-0.330725
0.489743
0.329051
0.201860
0.013539
-0.353890
-0.472302
-0.434938
-0.142644
-0.017358
0.026905
0.030361
0.147076
0.157057
0.132898
0.118767
0.110713
0.027996
0.037026
-0.013372
0.029471
0.179130
0.206744
0.038360
-0.419095
-0.498542
-0.253188
-0.245596
0.109467
0.154402
0.026197
-0.085373
0.094374
0.061511
0.098490
-0.020430
-0.012810
-0.070052
-0.015257
0.065250
0.008475
-0.095003
0.092019
0.046897
-0.040892
0.037374
-0.035278
-0.035718
-0.048625
-0.126774
-0.063760
0.085084
0.081382
0.034676
0.021449
0.024482
0.038532
0.105220
0.027571
-0.038249
-0.190856
0.045600
-0.074074
-0.016339
-0.040960
0.116205
-0.012374
-0.043517
-0.078860
0.004873
0.102930
-0.004641
-0.028477
-0.068974
0.079964
-0.065871
-0.014607
-0.050974
-0.004626
0.081971
-0.079184
-0.063389
0.057095
0.014067
0.009309
0.185417
0.135670
-0.026777
-0.031607
-0.165347
-0.114834
0.129524
0.259810
0.083525
-0.077349
-0.050676
0.046044
-0.148378
0.102745
0.405723
0.446836
0.227185
-0.184517
-0.581730
-1.138418
-1.156308
-0.782239
-0.568212
-0.210139
0.068718
0.305019
0.640964
0.275790
0.678338
0.536720
0.557650
-0.346511
-0.253590
-0.386145
-0.003203
0.559139
0.046721
-0.080374
0.000354
0.001031
0.047809
-0.035613
0.038777
0.038149
0.012292
0.027303
-0.013382
-0.054404
0.037401
0.012997
0.012236
-0.040362
0.052118
-0.055458
0.022167
0.027133
0.082947
-0.075028
-0.039960
-0.132726
-0.146535
-0.072299
0.142555
0.142843
-0.050272
0.074903
0.081508
0.293683
0.053483
0.201740
0.097881
0.174777
0.093058
0.097943
-0.047510
0.091473
0.170910
0.167044
0.268696
0.152732
0.026280
0.202903
0.139973
0.157654
-0.017863
0.422340
0.204503
-0.082567
0.036920
0.357861
1.517231
1.059635
-1.124484
-1.533237
-1.286457
-1.160700
1.180462
-0.316329
0.128767
0.399631
0.140223
0.155960
0.179279
0.123357
0.249478
0.111091
-0.027390
-0.165538
0.151930
0.109041
0.092077
0.127634
0.248258
0.026517
-0.121782
0.048395
0.121234
-0.389825
-0.060274
-0.277358
-0.796391
-0.552904
0.059072
-0.483932
-0.194130
0.064949
0.098568
0.080158
-0.023883
0.033934
-0.057389
0.031272
-0.095622
-0.101598
-0.004397
0.060506
-0.042923
0.051934
0.063262
0.005223
0.028413
0.071219
0.078107
0.024490
-0.110714
0.067406
0.070195
0.082373
-0.130037
-0.030748
-0.137341
0.001992
0.024894
-0.054120
0.002221
0.085062
-0.062347
0.255116
0.258465
0.025389
-0.083896
0.001807
0.017395
0.121453
0.033695
0.003922
0.231058
0.549975
0.574827
0.242133
-0.216656
-1.073393
-1.417361
-1.155676
-0.812781
-0.577723
0.229514
0.000658
0.434969
0.830764
0.911810
0.392001
0.068846
0.008733
0.102944
0.503988
0.088615
-0.126491
-0.154527
-0.028596
-0.008887
0.283798
0.430119
0.633263
0.494001
0.151791
-0.058896
-0.367877
-0.495277
-0.355150
-0.221355
0.051874
0.166590
0.187654
-0.013593
-0.113552
-0.073433
-0.137750
-0.323764
-0.306434
-0.238147
-0.179853
-0.173689
0.309491
0.155228
0.128878
0.689180
0.109053
-0.151776
-0.881183
-1.231445
-1.144187
-0.759228
0.223635
0.344469
0.309342
0.146192
0.123190
0.208638
0.055869
-0.135327
0.006546
-0.102049
0.198343
-0.151758
0.088232
0.017608
0.041718
0.021078
0.100586
0.459988
0.768805
0.006912
0.136470
0.246950
0.038573
0.021839
-0.063302
-0.113157
0.065506
0.101961
-0.033730
0.090182
0.084257
-0.060705
-0.049543
0.068933
0.043456
0.070181
-0.079192
0.012992
0.013918
0.022389
-0.101739
0.065359
-0.081116
-0.093139
0.064926
0.024803
-0.057749
0.114415
0.098371
-0.048593
-0.065092
-0.099679
-0.120314
-0.180504
0.025849
0.032245
0.087725
0.034639
0.029287
0.039173
-0.013430
0.078615
0.069428
0.146096
0.078230
-0.115800
-0.135875
-0.075247
-0.114222
0.052005
0.086529
0.097384
0.147842
0.048343
-0.007855
0.055976
0.111211
0.153431
0.228522
0.098408
-0.041965
-0.175800
-0.134100
0.068801
-0.074572
-0.143974
0.048869
-0.150298
0.016233
0.054203
-0.070146
0.080088
0.044357
-0.070888
-0.168840
0.057845
0.006334
-0.172870
-0.025324
0.276445
-0.126190
0.063666
0.385065
0.015326
0.047972
-1.472968
-1.634790
-0.863662
1.205657
1.027644
0.767937
-0.600487
1.088009
-0.036483
0.061552
0.065517
-0.079040
-0.044075
-0.070298
-0.133060
0.057653
-0.007283
0.065819
-0.088150
0.012876
0.103757
0.073185
-0.015493
0.061387
0.018610
-0.060596
-0.061257
-0.027836
0.122377
0.056781
-0.002346
-0.061843
-0.158912
-0.067919
-0.092771
0.105436
0.009361
0.137870
0.235654
0.077837
0.244886
0.298655
0.299146
0.141720
0.195688
0.097907
0.021125
-0.067418
-0.099607
-0.193978
-0.208846
-0.243125
-0.216057
-0.038139
0.007014
0.175893
0.209075
0.148194
0.183239
0.377419
0.680568
-0.319962
-1.040047
-0.486242
-0.120150
0.091447
0.136166
-0.170502
0.020835
0.063751
-0.030664
-0.124245
-0.182652
-0.066156
-0.145438
-0.122652
-0.091752
-0.047636
-0.132901
-0.060983
-0.041267
0.153168
0.190973
0.211120
0.229172
0.267007
0.143423
0.133875
0.072566
0.037219
-0.077477
-0.137256
-0.160438
-0.064872
-0.017274
-0.059711
0.004444
0.043576
-0.238384
-0.010029
-0.158946
0.060669
-0.148499
0.258705
-0.372379
0.008247
0.163347
-0.264083
-0.027303
-0.378093
-0.016671
0.169224
-0.323346
-0.174671
0.135708
-1.039361
2.250438
-2.256717
0.303967
0.979216
-0.235437
0.406240
-0.489453
-0.603596
0.867290
0.347165
-0.776461
1.164811
0.113759
-0.060911
-0.090566
0.130981
0.016134
-0.080208
0.021622
-0.041503
0.019084
0.008339
-0.152599
0.054251
-0.064865
-0.107012
0.004352
-0.103488
-0.182847
0.008265
0.201433
-0.062923
-0.046462
-0.180464
0.046180
0.091883
0.151959
-0.045797
0.055180
-0.070634
-0.023645
0.143653
-0.141150
-0.063354
-0.014421
-0.088700
-0.092194
0.128316
-0.168519
0.084822
-0.082423
-0.062408
-0.083890
-0.115121
-0.152723
0.080329
0.032262
-0.088552
-0.155695
0.119099
-0.131749
-0.069067
0.001209
-0.158208
-0.133237
-0.948894
-0.016166
4.771873
-1.329637
-1.077980
1.064219
-0.839886
0.035515
0.055306
-0.004217
-0.073094
-0.102951
-0.002288
0.058215
-0.106663
-0.014502
-0.076390
-0.013029
0.010036
0.014553
0.144520
0.068654
0.119872
0.031302
-0.066358
-0.001090
0.016189
0.085478
0.036042
0.041356
-0.005092
-0.116922
-0.204006
-0.015865
-0.055787
0.102788
-0.033629
0.061039
-0.084856
-0.039442
-0.072073
0.063745
0.107361
0.018779
-0.042339
-0.055200
0.081839
0.041857
0.089765
0.070744
-0.031449
-0.117930
-0.075058
-0.106448
-0.076716
0.076551
0.056006
0.062631
0.065487
-0.052385
-0.009878
0.140251
0.146049
-0.074084
-0.003441
0.034393
0.047847
-0.086117
0.003207
-0.134567
-0.015360
-0.004941
0.198132
0.308879
0.272939
0.230539
0.244224
0.137095
0.173775
0.008077
0.009554
-0.061075
-0.195078
-0.323783
-0.206150
-0.196982
-0.182951
-0.133257
-0.136807
-0.080214
0.170627
0.378137
0.437612
0.034130
0.040471
0.022808
0.146578
-0.128887
-0.192798
0.332866
-0.488568
0.195694
0.146937
-0.364471
0.000869
-0.130984
0.048322
-0.462371
0.227794
0.360762
-0.864325
0.071006
1.201537
-1.620269
0.658075
-0.659601
1.158136
-0.584976
-0.339607
0.701174
-0.451550
-0.403449
2.508301
-0.289278
-1.303463
0.293224
0.586424
-0.009175
-0.041077
-0.175901
0.064239
0.134607
0.065776
0.094914
0.031741
0.097542
-0.036669
-0.239448
-0.216759
-0.039599
-0.055154
0.051388
0.182410
0.165767
0.119169
0.092844
0.054717
0.108509
0.085759
-0.025567
0.103231
0.278206
0.200579
-0.037832
-0.126778
-0.133354
-0.182400
-0.159938
0.004888
0.065824
0.072513
-0.007742
0.064442
-0.075142
-0.092721
-0.058465
0.004125
-0.037891
-0.062351
0.081735
-0.033883
0.075485
-0.044294
0.043830
0.171175
0.100442
0.171331
0.000335
-0.171404
-0.058817
-0.066811
0.037040
0.048893
0.063909
-0.130321
-0.102381
-0.052959
0.019940
0.014029
0.038775
-0.042261
-0.106783
-0.109077
-0.123090
-0.079038
-0.050758
0.062479
-0.075275
-0.053221
-0.014012
0.033204
-0.076758
-0.103314
-0.112440
-0.105236
-0.071802
0.027162
0.103114
0.129409
0.204848
-0.015363
-0.136876
-0.075790
0.105149
-0.096587
-0.144537
-0.089057
0.658836
-0.075353
-0.195794
0.009876
0.094861
0.242425
0.021722
-0.411206
-1.121586
-1.398797
-0.950702
-0.045756
0.372972
0.311911
0.243701
0.260250
0.177088
0.255227
-0.093717
0.256324
0.103638
-0.074122
-0.074175
0.150856
0.461390
0.692347
-0.159844
-0.197514
0.240911
-0.227891
-0.019384
0.038167
0.070659
0.159906
-0.021982
-0.124603
0.021709
0.120439
0.074106
0.061679
-0.074595
-0.188240
-0.112501
0.064079
0.147958
0.076316
-0.004009
-0.096040
-0.085470
0.282706
0.597356
0.633555
0.125585
0.128300
0.383508
0.115334
-0.079680
-0.361755
-0.737736
-1.284506
0.108941
-0.096115
-0.010157
0.011795
0.108768
0.125944
0.060312
-0.048437
0.264844
0.371727
0.517767
0.283708
0.109742
0.037335
-0.241176
-0.175956
-0.348658
-0.281762
-0.204257
-0.211448
0.086147
0.600696
0.391296
-0.737562
-0.882774
-0.133170
0.160126
0.011683
-0.124554
0.018062
0.288535
-0.853821
0.330060
0.272060
-0.299271
-0.100604
-0.146233
0.122595
-0.295330
-0.254899
0.349638
-0.423536
-0.086009
0.245704
-0.077761
-0.050005
0.021024
0.034482
-0.459791
-0.307337
1.516156
-0.855829
-0.477754
1.160163
0.304555
-1.660301
1.382095
0.801416
-0.602374
-0.407137
-0.156207
0.112125
-0.231811
-0.037001
0.155656
-0.283825
0.013945
-0.032502
-0.020948
-0.219823
-0.007050
0.175106
-0.457045
0.163915
0.399114
-0.695929
0.136790
0.529729
-0.661902
0.068572
0.340993
0.594286
-1.242694
-0.609660
2.170611
0.273523
-1.913718
0.835360
0.750312
-0.530387
0.931744
0.045112
0.359872
0.369637
0.405993
0.400350
0.209764
0.193896
0.242953
0.115929
0.176254
0.235887
0.084737
0.186019
-0.018960
-0.080634
0.080430
0.015770
-0.095378
-0.262754
-0.239719
-0.261693
-0.577988
-0.227514
0.280515
0.216639
-0.025156
-0.829944
-0.413148
-0.995065
0.034958
-0.089026
-0.019840
0.111576
-0.056507
-0.010085
-0.023802
0.031352
0.020933
0.082705
0.124801
0.139234
0.086493
0.003877
-0.181555
-0.188328
-0.159562
-0.175771
-0.028866
-0.131746
-0.127521
-0.171187
0.022436
0.043836
0.142397
0.202766
-0.013226
-0.086955
0.067317
0.042291
0.032776
0.092696
-0.015187
0.023637
0.033424
0.084311
-0.022015
0.014241
0.050829
-0.028276
0.098956
0.094903
-0.018652
-0.255748
-0.113116
0.358421
0.328741
0.405209
-0.260794
-0.170915
-0.838090
-0.939778
-1.040345
-0.276984
0.574815
1.347213
-0.170370
-0.311084
-0.132131
0.448681
-1.040768
-0.406150
0.193772
0.654887
0.672274
0.282893
-0.079675
-0.251587
-0.359652
-0.373232
-0.214697
-0.239079
-0.174365
0.016649
0.124248
0.247977
0.087334
0.187125
-0.021089
0.210347
0.018361
-0.129991
-0.042903
0.227128
0.427443
0.540594
0.033380
-0.147790
-0.016523
-0.081612
-0.065900
0.106878
0.003975
0.084017
0.273013
0.564743
0.573813
0.237597
-0.395914
-0.776106
-0.576242
-0.177725
0.145662
0.072024
-0.103225
-0.236875
-0.333283
-0.247513
-0.217221
-0.063788
0.020859
0.040742
0.147687
0.354961
0.448238
0.268548
0.227101
0.135573
0.078331
-0.197288
-0.070682
-0.001589
0.041033
-0.054662
-0.075444
-0.029618
-0.070298
-0.047468
0.017749
-0.082795
0.076708
0.059828
0.012532
-0.025117
-0.103665
0.084248
-0.035810
0.042894
0.066092
0.073218
0.003657
0.074709
-0.020706
-0.024553
-0.009485
-0.023140
0.070955
-0.100724
0.075189
-0.032246
0.019075
-0.039469
0.072588
-0.064091
0.063906
0.047787
-0.059519
0.007809
-0.004360
-0.064878
-0.079680
0.003859
-0.019865
0.022699
-0.069246
-0.022193
-0.079650
0.036876
-0.045356
-0.050997
0.023905
0.056185
-0.030271
0.101462
0.038145
0.021907
0.035161
-0.020346
-0.086844
-0.095787
0.118596
0.058494
0.033879
0.078587
-0.033467
-0.041218
-0.004527
0.125301
-0.014378
-0.012013
-0.038882
-0.016115
-0.123775
-0.074505
-0.064634
-0.064167
0.016709
-0.075459
-0.061167
0.015199
-0.145273
-0.028960
0.007535
-0.025752
0.253554
0.188456
-0.084012
0.026735
-0.115660
0.015636
-0.215177
-0.094995
-0.064258
0.023023
-0.078931
-0.103524
-0.107551
0.067632
0.139728
0.184382
0.068557
-0.003186
-0.012732
-0.072857
-0.175075
-0.111496
0.108544
0.145905
0.087247
0.131929
0.030328
0.065704
-0.012492
0.041496
0.297781
0.279911
-0.034381
-0.193604
-0.265285
-0.273432
-0.109313
0.018723
0.071636
-0.075532
-0.288559
-0.435215
-0.293221
-0.278457
-0.421547
-0.164062
-0.042404
0.026121
0.159576
0.245783
0.321167
0.447374
0.396147
0.407105
0.174128
-0.011568
-0.165957
-0.236674
-0.185887
0.162168
0.507555
0.548795
0.046160
-0.087311
-0.033558
-0.119903
0.296612
0.071993
0.076703
0.040822
0.151738
-0.024531
-0.035788
-0.000969
0.012720
-0.020259
-0.193062
-0.187248
-0.082842
-0.193431
-0.246721
-0.063646
-0.186988
-0.067739
-0.008827
0.079301
0.007976
-0.197475
-0.120871
-0.020875
0.368129
0.394628
-0.052481
-0.126583
-0.034346
-0.042814
0.048148
-0.077105
0.036160
-0.056689
0.038226
0.102130
0.032537
-0.010140
-0.034763
0.009498
-0.028802
-0.031890
0.092474
0.039907
-0.108849
0.079590
-0.056132
0.091260
-0.097906
-0.000530
0.061524
-0.028970
-0.066051
0.033520
0.139599
0.035939
-0.035759
-0.124888
-0.118984
0.004353
0.032037
-0.007236
-0.001664
0.000223
0.006403
0.074459
0.045680
0.015316
-0.034119
0.040441
-0.041742
-0.086833
-0.096414
-0.001330
-0.007530
-0.056135
-0.063419
-0.012554
0.026452
0.086397
-0.045704
-0.017286
-0.168197
0.054476
0.123785
-0.001421
-0.030566
-0.049490
-0.082759
0.053960
-1.386949
0.045713
-0.348795
-0.336566
-0.073023
-0.492579
-0.276229
-0.445711
-0.369298
0.180383
-0.078565
-0.133623
0.071550
0.544554
0.400303
-0.539541
-0.557928
-0.360216
-0.557310
-0.122348
0.043394
0.144051
0.669330
0.421080
0.768172
0.867325
-0.240923
0.498542
0.401592
0.927055
-0.095237
-0.570500
-1.048800
-0.995441
-0.434514
0.097567
0.400190
0.294523
0.210139
0.134986
0.133536
0.013909
0.115785
0.059615
0.115815
0.228501
0.015802
0.009125
-0.008563
0.152121
0.204795
0.021544
-0.120130
0.163683
0.739040
0.784273
-0.147737
-0.144345
0.157807
-0.511497
0.038003
0.080879
-0.054949
0.023864
0.039817
-0.098711
0.052567
-0.039849
-0.084096
-0.032932
-0.054968
0.037340
-0.052878
0.082352
0.060565
0.073440
-0.057462
-0.098298
-0.020133
-0.066990
0.103109
-0.008578
-0.025370
0.034319
-0.006874
0.048710
0.049429
-0.051595
0.053687
-0.022543
-0.050313
0.078942
0.090721
0.023509
0.023237
0.026472
-0.030644
-0.068196
-0.068716
-0.014189
0.016791
-0.073050
0.125319
0.111910
-0.166437
0.058714
-0.068481
-0.169410
-0.226139
-0.018250
0.851605
1.064561
0.923190
-0.181609
-1.163759
-0.732840
-0.288040
-0.240957
-0.862787
0.695170
0.541355
0.143946
-0.035885
0.060107
-0.003222
0.006141
0.109203
0.085335
0.377818
0.209774
-0.068824
-0.117989
-0.038231
-0.181274
-0.382716
-0.503974
-0.670641
-0.698846
-0.806813
-0.059649
0.339508
0.068355
-0.038906
-0.024145
0.474856
0.902502
-0.293777
-0.059457
0.059812
-0.025184
0.144396
0.199435
-0.064911
0.090979
0.036818
0.061344
0.067630
0.060703
-0.071002
-0.132411
-0.048081
0.070457
0.069639
0.042261
-0.111484
-0.344966
-0.116271
0.441757
0.678023
0.903140
-0.001285
-0.771577
-0.897855
-0.354612
-0.024272
0.063330
-0.588066
-0.244483
-0.179518
0.666755
0.057979
0.037576
0.103099
-0.002404
-0.059703
0.000490
0.234768
0.440334
0.291237
-0.032745
-0.461160
-0.948831
-0.970894
-0.749536
-0.429622
0.031339
0.198142
0.440540
0.064037
0.214749
0.212249
0.069427
-0.091439
0.125117
0.536602
0.618008
-0.049925
-0.158680
0.355400
-0.231904
0.075350
0.055344
-0.025886
0.041729
0.072564
0.079916
0.080886
-0.071590
-0.013632
0.003146
0.053500
-0.037697
0.074858
-0.077014
-0.052630
-0.068047
-0.070154
-0.066444
0.073598
0.022556
0.050568
0.086268
-0.020189
0.110195
0.086851
0.107392
0.008859
-0.040675
-0.006369
0.005417
0.261358
0.286115
0.376535
0.343352
0.190094
0.114067
0.145181
-0.045793
-0.197051
-0.239549
-0.104388
-0.145576
0.030510
-0.036877
-0.108705
-0.264505
-0.170682
-0.095265
-0.193456
-0.109779
-0.287179
-0.451850
-0.277159
0.133326
0.384784
0.421763
-0.051003
-0.033469
-0.000413
0.332259
0.029671
-0.064710
0.104880
0.014376
0.099501
-0.000977
0.081950
0.068326
-0.045978
-0.057727
0.032050
0.011069
0.020670
0.022970
0.025885
-0.036721
-0.002188
-0.145699
-0.019920
0.128704
0.101782
-0.051141
-0.250645
-0.080653
0.050779
0.057991
0.032394
-0.001090
0.060866
0.052938
-0.100530
0.034470
-0.077965
0.031072
-0.077384
0.084502
-0.015560
-0.042777
0.108494
0.071544
-0.007410
-0.068773
0.026993
0.081240
0.039737
-0.123118
0.102403
0.062601
-0.002088
0.108910
0.023984
0.009603
0.024914
-0.136715
-0.015527
0.073647
-0.033699
0.058862
-0.131673
-0.065271
weigvec 606
0.173639
-0.154057
-0.637109
0.440424
-0.158940
-0.199070
-0.057814
-0.246240
0.074107
0.371509
0.079918
0.077917
0.950278
-0.483378
0.896912
0.725363
-0.137634
-0.272994
0.055114
-0.193828
0.100767
-0.146243
-0.226763
-0.042400
-0.329519
-0.276704
-0.902210
-0.177929
0.085948
-0.281160
-0.162165
0.241622
0.131114
-0.199666
0.017223
-0.217186
-0.154552
0.925753
0.154351
0.728948
0.737388
0.112484
0.865830
-0.197113
1.154172
0.377883
-0.183159
-0.205824
0.297707
0.192427
-0.448050
0.181997
0.096897
0.360429
0.970110
-0.774258
-0.199299
-0.134540
1.436143
0.041681
0.561216
0.233450
-0.469640
-0.052595
0.594272
0.126055
-0.049151
-0.046851
-0.287133
-0.260790
0.023275
-0.096853
-0.855269
-0.151638
0.795248
-0.542183
0.752131
-0.816545
0.017845
0.369990
-0.434388
-0.156090
-0.000188
-0.202327
-0.135627
-0.301296
-0.212528
-0.174593
-0.134983
0.021463
-0.701154
-1.430596
-0.020797
1.133169
-1.075423
0.446413
-1.403037
-0.128197
0.422285
0.170447
-0.047040
-0.262195
0.573111
0.544596
-0.163661
0.039327
0.008953
0.040414
0.254714
-0.057884
0.425296
-0.137422
-0.071582
-0.112121
-0.697789
0.057937
-0.066793
0.014934
-0.005604
-0.065945
-0.096077
-0.088928
-0.038384
-0.213574
-0.357217
-0.098899
-0.060569
0.912942
0.063647
0.348436
0.587013
0.745861
-0.010685
-0.087935
-0.178236
-0.129899
0.078405
-0.053565
-0.840491
-0.019493
0.136556
-0.131042
-0.205305
-2.340660
-0.016667
1.176738
-0.139349
0.088478
0.018450
0.636368
0.013957
-0.756950
-0.040250
-0.143350
0.480174
-0.509969
0.808957
-0.094612
0.137311
-1.733655
-0.113651
-0.174717
0.015040
-0.900706
-0.106190
-2.409045
0.108268
-0.067685
0.005472
-1.212052
-0.035681
0.023820
0.113962
0.826393
0.838755
-0.055883
0.739965
-0.393766
-0.226558
-0.137751
-0.214633
0.168056
0.622833
0.061100
-0.038245
-0.135876
0.070131
0.035841
-0.159306
-0.002764
-0.073897
-0.518170
1.128926
0.059839
0.311888
0.341027
-0.014994
0.993210
0.036244
-0.274957
-0.002313
-0.024078
-0.102507
-0.443380
-0.500632
-1.052293
0.091163
0.289336
0.167511
-0.539884
0.184676
0.219111
-0.026674
-0.068515
-0.475537
-0.872532
0.707603
0.289227
0.081543
-0.225146
-0.043218
0.260101
0.282191
0.185720
-0.258164
0.185639
0.044881
-0.001388
-0.180098
0.020354
-0.185524
-0.264432
-0.327221
0.487717
0.158593
0.009911
-0.115941
-0.028492
-0.056085
-0.061325
-0.053469
0.180215
-0.110163
0.140628
1.117006
-0.035994
-0.176579
0.176816
0.112899
0.104540
-0.049495
0.021581
-0.525385
-0.570290
-0.011642
0.096126
0.422470
-0.360167
0.043788
0.051010
1.193005
-0.101649
-0.235292
-0.134295
-0.828289
-0.124998
-0.196013
-0.097955
-0.142168
-0.316109
1.030711
-0.064630
0.138239
0.168673
-0.464497
-0.191176
-0.079666
0.467377
-0.388022
0.313569
-0.188301
-0.372118
-0.127223
-0.279026
0.067651
0.017240
-0.067667
-0.023427
-0.264755
-0.112034
0.011146
-0.075741
-0.093525
-0.522037
0.014179
0.819475
-0.522638
0.579374
-0.665716
0.038554
-0.324595
-0.115537
0.116433
-0.301407
0.030102
-0.112730
0.595324
0.077246
-0.131455
0.058057
0.234315
-0.075482
0.400947
-0.053241
-0.006876
-0.177893
-0.309357
0.480153
0.329912
-0.102224
-0.110616
-0.092329
0.036012
0.264502
-0.099815
-0.310468
-0.215692
-0.004493
-0.284007
-0.154308
0.006392
0.477715
0.195135
0.477812
-0.142841
0.119964
0.078749
0.008929
-0.038494
0.036397
0.993825
0.000511
0.354866
-0.243093
-0.080337
0.706855
0.142956
-0.092236
0.466786
0.047786
-0.063418
0.435673
0.080998
1.029848
-0.299134
0.086911
0.608038
0.150370
0.223827
0.020834
-0.229269
-0.223656
0.143807
0.549095
0.098262
-0.548003
-0.080207
-0.790990
0.168086
-0.061070
-0.136259
-1.028133
-0.058532
-0.183491
0.105100
0.299139
-0.540947
0.609969
-0.415724
-0.365940
-0.341053
-0.010719
0.337128
0.075314
0.010023
0.073860
0.047166
-0.204096
-0.172344
-0.112236
-0.268238
-0.079883
-0.138331
-0.655423
-0.210312
0.069221
-0.328659
0.045215
-0.388968
0.246704
0.035725
-0.419128
-0.076194
-0.131429
1.108966
0.889100
0.385542
-0.324788
0.275744
0.007044
0.236643
1.168566
0.000414
0.200686
-0.127854
0.236960
1.023781
-0.762892
0.132900
-0.561891
0.211064
0.432003
-0.151104
0.028850
-0.337647
0.468134
0.583857
-0.533097
0.160161
0.237326
0.811341
0.298881
0.903925
0.764428
0.664093
-0.046793
-0.055122
0.049584
0.126821
-0.005507
-0.088769
0.261826
-0.176210
0.083248
-0.142188
-0.130230
-0.709139
0.115297
-1.632070
-0.531299
0.031131
0.147319
0.457364
-0.140145
1.155991
-0.072887
-0.108303
0.311193
-0.437976
1.073416
0.058557
0.296282
-0.359076
-0.181890
-0.891140
0.153154
-1.321556
-0.055723
1.678400
-0.085868
0.102383
0.538855
-1.431976
0.389172
0.206583
-0.161463
0.959371
1.048913
-0.634427
-1.498777
-1.872614
0.403581
0.298780
0.967365
1.146441
0.808721
0.017513
0.033125
0.162054
0.484746
0.968588
0.235585
0.079170
0.081632
-0.129164
0.943616
0.065501
-0.482028
0.754059
0.597964
1.101184
0.108641
0.550618
-0.049335
-0.047314
-0.620739
-0.745274
0.233970
0.672485
-0.164047
0.076791
-0.056198
-0.687925
-0.163446
-1.372431
0.054068
-0.093748
-0.968567
3.029304
-2.373660
-0.865373
-0.102653
0.280827
0.138854
-0.010065
-0.251048
-0.421867
0.224114
0.863673
0.010046
0.128008
-0.598610
-0.019298
-1.829790
-1.067506
-1.447561
-0.399043
0.032391
0.116892
0.358384
-0.050330
0.214480
-1.260873
0.090693
-1.350621
-0.024899
0.158252
0.474019
-0.090991
-0.419443
-0.475836
0.063462
0.155860
-1.754006
0.040110
-0.633254
0.935698
0.023513
-1.752349
-0.639991
-0.775911
0.067237
0.072084
-0.341249
-0.045592
-0.038324
-0.298720
4.209103
0.284256
1.093033
-0.027699
0.062104
0.158902
2.778376
0.034028
-0.053871
-0.171868
-0.704628
-0.790823
-0.566570
1.437139
2.185387
0.935043
0.140108
-0.940078
-0.710334
-1.116047
0.033850
0.072757
0.191557
0.148876
-0.536532
0.447637
0.070122
0.135787
2.072459
0.151481
0.083548
-1.492459
0.551817
-1.050782
-0.396137
0.089596
0.179712
0.196184
0.062205
biasvec 101
-3.986185
-4.413780
-3.821170
-3.644849
-3.949186
-3.870545
-4.038125
-4.070913
-4.082225
-4.753731
-3.972619
-4.035241
-4.038315
-4.320859
-5.728707
-3.925232
-3.917610
-3.855352
-4.038656
-3.907039
-3.926278
-3.965791
-3.867496
-3.994749
-3.877187
-3.873994
-3.865778
-3.927006
-4.185777
-4.008137
-5.559984
-3.785094
-4.019998
-3.981253
-3.865187
-4.055967
-3.949064
-3.858062
-3.938647
-4.870105
-3.790840
-3.972185
-0.408192
-3.925867
-2.760105
-3.833132
-4.031783
-3.906783
-4.520422
-4.066728
-4.753087
-4.414348
-4.057492
-4.503267
-4.513178
-5.335246
-3.985394
-3.849012
-0.216564
-3.949427
-3.814043
-3.958303
-5.027326
-3.926513
-1.066855
-4.044961
-3.995838
-3.919358
-3.913387
-3.831261
-4.056706
-3.930441
-4.921354
-4.074735
-4.142058
-3.129206
-3.515995
-4.723210
-3.975146
-3.698968
-4.227873
-4.243217
-3.998809
-4.084867
-3.996311
-3.800528
-4.015342
-3.881497
-4.113485
-4.072543
-3.879855
-4.221393
-4.028353
-4.698058
-4.338337
-4.216747
-5.144954
-4.079849
-3.797940
-3.997692
-3.960177
biasvec 6
-4.893297
-5.735981
-3.197323
-4.443572
-4.272877
-1.388915
