60 101 6
weigvec 6060
-0.340453
0.044848
-0.065358
0.053240
-0.017179
0.043906
-0.007015
-0.091914
-0.029156
-0.079869
-0.118666
-0.054590
0.039907
-0.099899
-0.121379
-0.011039
0.006181
-0.053464
-0.019827
-0.063485
0.120234
-0.099464
-0.110589
-0.211443
-0.042631
0.183716
0.089541
-0.142700
-0.157127
-0.158676
0.093771
0.103782
0.148111
-0.174520
-0.166245
0.107946
-0.092498
-0.134024
-0.080704
-0.093770
0.030769
0.130891
-0.016138
-0.084709
-0.066474
0.119451
0.033377
0.001070
-0.260963
-0.427702
-0.111463
0.294117
1.033463
1.649476
1.399677
0.444183
-0.622798
-0.746162
-0.279840
-0.331099
1.737973
-0.981738
-0.544689
0.489067
0.398493
0.109156
-0.094737
0.148324
0.189030
0.229366
0.101155
0.225688
0.190674
0.040416
0.081549
-0.001695
0.243837
0.184127
0.017321
0.149915
0.120696
0.054467
0.126724
0.162662
0.058575
0.099874
0.018792
0.059553
0.180466
0.344049
-0.023720
-0.044545
-0.059351
-0.030380
0.056767
0.196134
0.207021
0.063126
0.003139
0.150515
0.025402
-0.148405
-0.128895
-0.233393
0.059650
0.335328
0.435889
-0.090540
-0.491101
-0.588377
-0.329803
-0.053623
0.416928
0.760873
0.278871
-0.634702
-0.566593
0.476876
0.751412
-3.908620
0.219610
0.171589
-0.057514
-0.183871
-0.253404
-0.332268
-0.359331
-0.460609
-0.237415
-0.129557
0.034165
0.093490
0.244067
0.171315
0.156905
0.049001
0.076989
0.082781
0.066314
0.085292
0.038394
0.104172
0.127631
0.077229
-0.029082
0.065241
-0.088435
0.019992
-0.026704
-0.038841
-0.115764
-0.043145
0.099125
0.150233
0.226721
0.130730
0.263296
0.175486
0.295803
0.242806
0.188363
0.216963
0.189257
0.127033
0.052352
0.043085
-0.069587
-0.059124
-0.085770
-0.015227
-0.023848
-0.073490
0.063217
0.143772
0.048233
0.023510
-0.019417
-0.049035
-0.277493
-0.277630
-0.419510
0.207095
0.088281
0.051489
0.045659
-0.119518
-0.067492
-0.056096
0.025755
0.242642
0.098529
-0.044810
-0.014977
0.142511
0.288442
0.166604
0.029713
-0.008035
-0.052926
-0.151262
-0.335447
-0.338362
-0.517556
-0.909657
-1.050579
-0.899374
-0.348750
0.049603
0.099543
0.139859
0.215803
0.251778
0.079799
0.157426
0.016374
0.034129
0.110520
0.221523
0.275783
0.111946
0.008863
0.093060
0.061811
0.008065
-0.030675
0.288683
0.424667
0.175777
-0.067924
-0.016569
0.225582
0.345260
0.371315
0.498800
0.529210
-0.172529
-0.732528
0.135534
1.379920
-1.396493
-0.028929
0.011057
0.020940
-0.148352
-0.018324
-0.008604
-0.010975
-0.060244
-0.128708
-0.079740
0.058632
-0.022646
0.048146
-0.066372
-0.080042
-0.096676
-0.153308
-0.082122
0.004858
-0.070563
-0.192062
0.059267
0.109633
0.104673
-0.087051
-0.224528
0.084634
0.081638
-0.078403
-0.184925
-0.163256
0.172400
-0.135191
-0.185682
-0.381800
-0.488292
-0.260227
-0.030054
-0.138719
-0.423154
-0.310679
0.004521
0.168386
0.002150
-0.140737
-0.105237
-0.086572
-0.085275
0.076344
0.267148
0.428019
0.322390
0.380181
0.603858
0.566965
0.311277
-0.055654
0.096376
0.288882
0.307440
-0.049716
-0.029635
0.017339
0.004462
0.013043
0.079411
-0.046387
-0.023892
-0.108430
-0.074280
0.032469
0.083412
0.104555
-0.031267
-0.082674
-0.028856
0.016935
0.001891
0.025264
0.013805
-0.066898
-0.111860
0.105881
0.102547
0.047564
-0.093203
-0.020156
0.092353
-0.001482
-0.093222
-0.012453
0.062127
0.225225
-0.049779
-0.179770
-0.008477
0.122601
0.078732
-0.207818
0.095857
0.549864
-0.715227
-0.118333
0.205854
0.619882
1.019391
1.101243
0.937763
-0.181811
-1.553212
-2.180229
-1.425955
-0.074334
1.130218
1.599356
1.468900
0.597588
-1.244205
-2.402985
0.782602
0.581958
-0.421983
-0.259170
-0.004449
-0.045978
-0.024438
-0.145467
-0.088001
0.113194
-0.035037
0.062954
-0.016009
0.114769
0.197873
0.077059
0.160804
0.228252
0.177869
0.068094
0.289542
0.151707
0.119723
0.072478
-0.049829
0.113347
0.216354
0.100518
-0.047460
-0.136323
-0.001708
0.174081
0.114207
0.123622
0.011187
0.143746
0.278674
0.248986
-0.123827
-0.216638
-0.015234
-0.017238
-0.211821
-0.325059
-0.216346
-0.077637
-0.238860
-0.308432
-0.426891
-0.175803
0.068550
0.013440
0.055200
0.075391
0.026209
-0.154926
-0.236788
-0.282081
-0.658679
-0.909235
0.852711
-1.129598
-0.874991
-0.587595
-0.498655
-0.592303
-0.693432
-0.530563
-0.243217
0.011068
0.159376
0.259227
0.105727
0.036095
-0.027464
0.005051
-0.018313
-0.137071
-0.067863
0.129451
0.081036
0.044015
0.125245
0.074514
0.086461
0.057398
-0.047163
0.177304
0.108332
0.122923
0.182306
0.209819
0.088083
0.043542
0.136210
0.169703
0.110901
-0.028634
0.104367
0.282735
0.199991
0.235995
0.051717
0.142153
0.179522
0.255918
0.146263
0.194584
0.333791
0.314839
0.018817
-0.319738
-0.217845
0.028828
0.140628
-0.099940
0.029955
0.102182
0.136751
-0.079501
0.635333
-0.236804
0.138909
-0.068069
-0.014448
0.102470
0.133284
0.265504
0.093754
0.093715
0.266703
0.155384
0.277925
0.299384
0.185333
0.238534
-0.027591
-0.069661
-0.025193
-0.150820
-0.105596
-0.245240
-0.189716
-0.090011
-0.088716
0.080864
0.183249
0.096301
0.105317
0.004775
-0.054778
-0.047837
-0.086292
-0.070266
-0.150699
-0.126330
-0.079577
-0.200831
-0.144314
-0.121847
-0.050275
0.014360
-0.012851
0.004289
-0.019229
-0.075067
-0.121449
-0.178674
-0.339671
-0.314423
-0.014765
0.161473
0.439423
0.623708
0.515895
0.401463
-0.009575
-0.208431
-0.089531
0.039286
-0.514780
0.024257
-0.059980
-0.021762
-0.006065
-0.038435
0.065022
-0.106491
-0.039567
-0.059814
0.025585
-0.032605
0.009817
-0.073386
0.048667
0.085150
-0.070655
0.093428
-0.085808
-0.008505
-0.055245
-0.085768
-0.105612
-0.038350
-0.036267
0.010491
-0.072792
0.054614
-0.064458
0.065206
0.048462
0.055038
-0.011147
0.071000
-0.057728
-0.065736
0.045939
0.059832
-0.127941
0.054767
-0.061829
-0.029104
0.064197
-0.024470
0.120554
0.066987
0.057084
0.024441
0.020504
0.094884
0.038377
0.011689
0.042956
0.079657
-0.057849
0.027517
0.012243
0.001346
-0.041384
-0.118369
-0.136040
0.036541
0.033416
0.039238
0.083161
-0.032955
-0.021445
-0.095999
-0.068456
0.078250
0.029552
0.087086
0.084372
0.064524
-0.015688
0.095902
-0.049851
0.054023
0.075353
-0.025301
-0.031198
-0.032632
-0.001582
-0.003502
-0.113876
-0.025697
-0.013312
-0.057811
-0.003093
-0.057100
0.009337
-0.055893
0.072435
0.007230
-0.045703
-0.003179
-0.070090
0.021577
-0.094947
0.043237
-0.021382
-0.054040
-0.098280
0.015759
-0.024693
0.025068
0.054179
0.050327
-0.028498
0.062089
-0.077365
-0.024648
0.097213
0.116121
0.140380
0.034328
0.093211
-0.032139
0.039487
-0.048236
-0.111031
-0.015799
-0.009025
0.010948
0.117824
0.004557
0.042968
-0.031748
-0.090246
0.015552
0.020899
-0.056653
0.105142
0.136592
0.049870
-0.131850
-0.145691
-0.037998
-0.024674
0.135473
0.068164
-0.011754
-0.113603
-0.118411
-0.110917
0.094660
0.110951
-0.085045
-0.090271
-0.066992
0.026006
0.051091
-0.013281
-0.046713
0.032261
-0.091854
0.090134
-0.073688
0.006319
0.145319
-0.027125
0.099821
0.018329
-0.116761
-0.211402
-0.083732
0.196985
0.198861
0.052100
-0.055835
-0.049742
-0.003518
-0.030128
0.041907
0.036261
0.128940
-0.032383
0.007168
0.041263
0.058639
0.190466
0.032992
-0.105995
-0.147608
-0.141346
0.027320
0.273550
0.021653
-0.142144
-0.132304
-0.142580
0.046032
0.140441
0.083131
-0.103780
-0.179478
-0.060652
0.189401
0.134726
-0.014508
-0.081219
-0.035288
-0.218756
0.078853
0.037591
-0.114838
-0.021256
-0.327362
-0.142035
0.047021
-0.247078
-0.030678
0.236551
0.159330
-0.294616
-0.336841
-0.043108
0.229295
-0.236869
-0.491488
-0.202425
-0.217513
0.405193
0.126040
-0.063535
-0.006264
0.123256
0.212370
0.197581
-0.188186
-0.095497
0.118710
-0.047177
-0.382114
-0.475451
-0.084608
0.991996
1.419472
0.692442
-0.704095
-0.161748
-0.152997
-0.116500
-0.193346
0.090612
0.136012
0.049407
0.041495
-0.208629
-0.221096
0.034397
-0.017132
0.129462
-0.018974
-0.148757
-0.052341
-0.012334
-0.076907
0.046830
0.134117
0.069430
0.014649
-0.037698
0.077708
-0.023749
-0.140930
-0.049468
-0.066971
0.077498
-0.002396
-0.122846
0.015429
-0.083331
-0.136384
0.081294
0.172774
0.115450
-0.291970
-0.581308
-0.365072
-0.134851
0.113202
0.637050
0.601770
0.415115
0.031047
-0.084628
0.092956
-0.064524
0.015719
-0.039187
-0.095974
-0.139848
0.016633
0.060108
0.124856
0.007046
-0.108344
-0.175026
0.010746
0.376804
-3.218828
-1.073022
-0.354113
0.120570
0.454361
0.471519
0.440223
0.108710
-0.014650
-0.007530
0.097023
-0.007952
-0.112919
0.005240
0.176510
0.187267
0.133863
-0.064956
-0.030716
-0.116010
-0.156711
-0.081405
-0.128846
-0.023408
0.011871
-0.024646
0.200460
-0.005490
0.027673
-0.102980
-0.105589
0.029990
0.017682
0.140807
0.228919
0.049529
0.019870
-0.017773
0.159378
0.067447
-0.038221
-0.025652
-0.111164
0.077297
0.132011
0.249641
0.237761
0.115539
-0.077700
0.045453
0.153250
-0.020616
-0.068165
0.387948
0.577966
0.160050
-0.551327
0.258388
1.409964
-0.617030
-0.392214
0.420568
0.133398
-0.098862
0.113840
0.134961
0.117055
0.111859
0.246138
0.217868
0.050225
0.154352
0.098157
0.076634
0.095142
-0.042104
-0.292653
-0.173836
-0.237567
-0.150216
-0.261515
-0.198824
-0.101551
-0.143515
-0.155645
-0.082226
0.203753
0.736887
1.051577
0.895821
0.517281
0.314252
0.140710
0.107531
-0.289583
-0.254576
-0.331818
-0.186295
-0.246935
-0.253625
-0.046130
-0.054648
-0.275754
-0.198804
-0.067055
-0.009664
-0.221285
-0.182844
0.020446
-0.080381
-0.074291
-0.151671
-0.169585
-0.197685
0.012003
0.048873
0.247773
-0.004429
-0.449551
0.136108
-1.277926
-0.461278
-0.422578
-0.273448
0.056346
0.229612
0.152016
0.172513
0.261498
0.263488
0.222416
0.204441
0.011297
0.126693
0.054585
0.067526
0.033579
0.117624
0.154807
0.166802
0.113969
0.138116
0.109819
0.068260
-0.047640
-0.086021
-0.185254
-0.129494
-0.045435
0.023108
-0.017909
-0.001601
-0.001294
0.259481
0.257023
0.107658
-0.125741
0.010325
0.061824
0.107782
0.163657
0.012185
0.030358
-0.019725
-0.033520
-0.077762
-0.280892
-0.088146
0.025242
0.016701
0.098818
0.132530
-0.005116
0.093030
-0.007526
-0.005974
-0.395415
-0.294824
0.119422
0.170162
-0.097308
0.026779
0.041372
-0.034974
-0.049362
0.012462
0.111666
-0.086317
0.004781
-0.010594
0.008877
0.013920
-0.047220
-0.079564
-0.026244
0.019289
0.031888
-0.034281
0.014434
-0.035714
0.005792
0.042569
-0.046716
-0.045909
0.012000
-0.009402
0.080608
-0.009823
0.031547
0.040115
0.000611
-0.026094
-0.107883
-0.154123
0.048049
-0.098245
-0.115616
-0.037266
-0.076612
-0.024773
-0.045486
-0.047257
0.029834
0.154163
0.354155
0.563596
0.732459
0.474207
0.377268
-0.142877
-0.458032
-0.646647
-0.500187
-0.302097
-0.178404
-0.005320
0.075270
0.058118
-0.327095
-0.285756
0.480834
0.176746
0.114783
0.117254
0.105872
0.032044
0.099287
-0.007665
-0.193672
-0.057860
-0.140050
-0.077364
0.049449
0.058789
0.013508
0.002536
0.167156
0.047141
0.180702
0.317909
0.391280
0.369379
0.392153
0.400628
0.302849
0.083525
-0.045972
-0.098459
-0.225973
-0.049238
-0.119653
-0.085785
-0.233528
-0.259751
-0.259754
-0.241663
-0.221791
-0.034028
0.039498
0.127863
0.154027
-0.104185
-0.138563
-0.071879
-0.001561
-0.110301
-0.096482
-0.128469
-0.018886
-0.061618
-0.229423
-0.071024
0.001123
0.051973
-0.220618
-0.145800
-0.069995
-0.408633
-0.742875
0.585742
0.110985
0.343059
0.108217
0.079133
0.017632
-0.150329
-0.204374
-0.136680
0.010453
0.021047
0.244871
0.236502
0.349236
0.375082
0.237436
0.010594
-0.348905
-0.375224
-0.470367
-0.590649
-0.530376
-0.173752
0.125194
0.415594
0.330921
0.126398
0.154172
-0.014482
0.064577
-0.104044
-0.199533
-0.030377
-0.042654
0.150631
0.123863
0.140639
-0.105838
-0.052628
-0.141383
-0.229417
-0.137045
-0.069146
-0.035257
0.190851
0.156917
0.216343
0.159396
0.164068
0.042282
-0.070541
-0.015925
0.012623
0.075683
0.091939
0.006549
-0.124233
-0.212917
-0.084692
-0.116887
-0.406591
0.011979
0.033259
-0.049033
-0.004787
0.025809
-0.012524
0.072817
-0.065827
0.027041
0.062491
0.025552
0.103147
0.000657
0.052691
-0.000050
0.012234
-0.093665
0.006371
0.080609
-0.038537
0.014674
-0.028965
-0.090759
-0.125559
0.067288
-0.036278
0.013310
-0.031868
-0.097582
-0.055647
-0.064278
-0.042951
-0.028014
-0.070850
-0.060911
0.134554
0.158602
-0.010190
0.109485
-0.100149
-0.090815
-0.119170
0.095242
0.078132
0.095151
-0.023148
0.052397
0.079904
-0.072698
-0.057677
0.078143
0.066508
0.089177
0.013235
0.190523
0.029702
-0.057650
-0.039520
0.082656
0.075942
0.117440
-0.018597
0.028809
-0.008661
-0.019505
-0.003498
0.008811
0.033142
-0.065612
0.034982
0.015215
-0.055099
-0.019333
-0.105041
-0.048799
-0.103847
0.004960
0.021642
0.039928
0.001652
0.009424
0.091530
0.014176
0.027594
-0.010287
0.057570
0.003386
0.116052
0.298867
0.349638
0.412292
0.243997
0.300389
0.270843
0.039415
0.050164
-0.204716
-0.219868
-0.102169
-0.166915
-0.039667
-0.143451
-0.080578
0.011835
0.008577
0.132277
-0.097918
-0.052151
-0.138501
-0.267590
-0.376795
-0.236284
-0.079296
-0.023143
-0.040106
-0.040098
0.131388
0.182284
-0.034519
0.196317
0.077813
-0.266606
-0.140267
-0.076288
-0.041333
0.103498
0.138362
0.146794
0.201859
0.169848
0.221736
0.258655
0.341245
0.343447
0.329570
0.324092
0.179052
0.009725
-0.265512
-0.118156
-0.054387
-0.119512
-0.191620
-0.073410
-0.132009
-0.106695
-0.044681
-0.179110
-0.039562
-0.141270
0.021935
0.081548
0.077324
0.132294
0.015814
0.090283
0.075897
0.088962
0.041125
-0.032960
-0.106997
-0.062902
-0.146348
-0.092692
0.007677
-0.044650
-0.027957
0.166784
0.137517
-0.010449
-0.286513
-0.422572
-0.312315
-0.141607
-0.155128
-0.132415
-0.038200
-0.044715
-0.351770
0.573631
2.282484
-0.146260
-0.330653
-0.109158
-0.200034
-0.019436
0.208333
0.265666
0.027467
-0.268548
-0.269729
0.144097
0.141309
-0.091800
-0.087037
-0.048959
0.044516
0.032305
-0.095539
-0.087528
0.044326
-0.013063
-0.092895
-0.080211
-0.144072
-0.168180
-0.070854
-0.093366
-0.078331
-0.139995
-0.077903
-0.147717
-0.091535
-0.321375
-0.199347
-0.083036
0.059001
-0.110352
-0.147653
0.007308
-0.278300
-0.353431
0.081323
0.451790
-0.110652
-0.500993
-0.295695
0.286662
0.420235
-0.113419
-0.214315
0.211890
0.403427
0.238322
-0.002512
-0.335858
-0.207747
0.312447
0.347250
-0.287228
0.057840
0.231059
0.065020
0.046269
0.111749
0.104666
0.131191
0.044154
0.020047
-0.009744
-0.048859
0.106548
-0.086819
-0.071567
-0.006203
-0.069598
-0.154214
-0.085112
-0.114507
-0.010024
0.137958
0.112145
0.183454
0.276306
0.234581
0.216608
0.047655
0.124668
-0.067429
-0.249334
-0.281162
-0.488957
-0.367241
-0.210222
-0.036193
-0.022621
0.116306
0.147706
0.120228
0.074156
-0.063879
-0.168102
-0.116966
-0.129949
-0.118382
-0.168214
-0.076295
-0.184421
-0.088403
-0.002866
0.140979
0.064556
0.142228
0.083906
0.057133
0.045894
0.066783
0.054100
-0.056948
-0.158294
0.069324
0.163200
0.078050
-0.047403
0.051407
-0.040592
-0.000291
-0.019655
0.053987
0.021397
0.103494
-0.039568
0.007409
0.035075
0.132228
0.060607
-0.028059
0.121443
-0.002273
0.084806
-0.085906
0.001609
-0.070654
-0.048421
0.062387
0.069711
-0.090469
-0.030581
0.015728
-0.004518
0.032653
0.036717
0.060925
0.197345
-0.055293
-0.118570
0.066357
0.003338
0.002227
0.059938
0.529678
0.803580
1.153523
0.783735
0.126929
-0.699077
-1.097662
-1.089720
-0.800111
-0.347612
0.164039
0.537807
0.665662
0.302767
-0.281430
-0.341650
-0.266725
-0.437116
-0.666391
0.612572
0.655493
-0.161573
-0.589638
-0.250170
-0.062859
-0.002120
-0.375953
-0.607773
-0.617670
-0.557247
-0.479514
-0.164378
-0.083572
0.007123
0.080776
0.201585
0.154704
0.046416
-0.080093
0.071886
0.003571
0.110407
-0.035536
0.141400
0.154279
0.136017
0.128733
0.024503
-0.009352
-0.032307
0.047597
0.034095
0.129879
0.012027
0.158254
0.259689
0.119806
-0.070944
-0.002018
0.007755
-0.033028
0.040849
0.093592
0.074493
0.282019
0.209503
0.222346
0.147148
-0.145826
-0.215852
0.166237
0.339954
0.551780
0.815267
0.584161
-0.290492
-0.726736
0.016311
1.197007
-0.978477
-0.906606
1.051224
-0.024919
-0.336255
-0.137918
0.075333
-0.102953
0.072405
0.123061
0.035668
-0.062312
-0.120444
-0.188182
0.094884
0.041513
0.000834
-0.007146
-0.121213
0.067130
0.101548
-0.114538
-0.218766
-0.082163
0.162917
0.035148
-0.279208
-0.163496
0.043883
0.031104
-0.115695
0.127175
0.168610
-0.077028
-0.202043
-0.090596
0.057839
-0.090188
-0.171041
-0.008584
0.124848
0.038576
-0.056574
-0.157522
-0.153124
-0.078651
0.059660
0.007440
-0.113231
0.022551
-0.263315
-0.937274
-0.965706
0.635555
3.304062
3.423453
-0.363456
-3.598282
-0.978040
3.448916
-2.139363
-0.162115
0.312405
-0.087992
0.026134
0.101250
-0.059795
0.112112
0.288479
0.379236
0.274499
0.028265
-0.293173
-0.467810
-0.587168
-0.407633
-0.320165
-0.401658
-0.721008
-0.554657
-0.556404
-0.496106
-0.129169
-0.039908
0.072249
0.246580
-0.041936
0.052595
0.047852
0.022015
0.081815
0.096276
0.240318
0.061216
0.130918
0.140012
-0.007560
0.040561
-0.000476
0.226110
0.114375
0.074345
0.110671
0.046007
0.005855
0.123211
0.224311
0.331527
0.052639
-0.129996
0.116232
0.322913
0.347583
0.459214
0.648228
0.497763
-0.260322
-0.831387
0.194067
1.515228
-1.162263
0.027971
-0.280971
-0.072533
-0.114274
0.022728
0.119555
0.023230
-0.093119
-0.052435
-0.105352
-0.033674
0.031619
0.073787
0.044585
-0.043850
-0.095098
-0.080115
0.008635
-0.041665
-0.162071
-0.046490
0.080832
0.091745
0.025562
-0.158104
-0.064320
-0.049041
0.148137
0.060328
0.216613
-0.076266
-0.088413
-0.019836
-0.075913
-0.007699
0.128028
0.102857
0.188642
-0.185365
-0.117955
-0.617340
0.175420
0.392953
0.484474
0.205986
0.032254
-0.259942
-0.825058
-1.252120
-0.979354
0.130900
1.147635
1.388636
0.511871
-0.801368
-0.954851
-0.049112
0.848510
0.392146
0.509554
0.734428
-0.284266
0.030744
0.442550
0.355164
0.111723
0.307042
0.355131
0.293353
0.072377
0.051478
0.091670
0.026239
-0.174702
-0.275176
-0.091689
-0.062258
-0.234270
-0.237034
-0.095174
0.037723
-0.058034
0.108748
0.026771
0.085046
0.187588
0.167163
0.128339
0.044269
-0.023898
0.085639
0.160471
0.070628
0.045234
0.076038
0.182257
-0.098837
-0.246606
-0.151285
0.028186
0.002508
-0.073395
-0.102504
0.068390
0.014164
-0.132830
-0.161900
-0.036881
-0.033581
0.029857
-0.110851
-0.154842
-0.168469
-0.213769
-0.282169
-0.088036
0.028362
-0.467744
-0.807496
0.796915
-0.090668
0.064999
0.008147
0.123392
-0.089109
-0.022052
-0.264474
-0.318939
-0.220597
-0.267573
-0.160828
-0.112097
0.065258
0.070937
0.117804
0.044821
0.232579
0.106975
0.215266
0.098972
0.001322
0.104428
0.054896
-0.062797
-0.024193
0.007853
0.116920
0.034830
0.114593
0.039337
0.018357
-0.112481
-0.185084
-0.008075
-0.076813
-0.181164
-0.142286
-0.192713
-0.112712
-0.066577
-0.157077
0.027095
-0.065331
-0.092692
0.018395
-0.044863
-0.125066
-0.101878
0.000184
-0.080668
0.143405
0.122964
0.273270
0.203660
0.211153
0.008300
0.059986
-0.054370
0.068240
0.170634
0.107037
0.006501
0.080313
0.046684
-0.006195
-0.142857
-0.249089
-0.355194
-0.357524
-0.398449
-0.225437
-0.207124
0.010336
-0.061126
0.194712
0.105840
0.140806
0.077003
0.050344
0.019817
0.120898
0.084961
0.107631
0.107092
0.088730
0.122510
0.158101
0.190487
0.063662
0.132269
0.043895
0.084508
-0.000421
-0.083453
-0.079749
0.078670
0.132983
-0.110169
-0.050357
-0.052990
0.057939
0.024987
-0.036008
0.067913
-0.005209
0.069548
0.058520
0.050095
0.121186
0.017066
-0.101134
-0.239114
-0.156129
-0.033683
-0.044219
-0.101800
0.104841
0.107539
0.152280
-0.110741
0.068019
0.133106
0.004855
0.009914
0.160972
0.211709
0.108171
0.012020
-0.159771
-0.142117
0.004882
0.287057
0.315555
0.216642
0.049767
-0.027605
-0.219432
-0.387117
-0.298147
-0.418860
-0.676455
-0.822910
-0.863698
-0.500526
-0.018055
0.186536
0.325176
0.218809
0.049236
0.120324
0.169713
0.238603
0.028632
0.235892
0.327823
0.259026
0.103484
-0.033170
0.102627
0.124881
0.157825
0.057356
-0.030226
0.016670
0.075091
-0.013206
-0.175305
-0.125357
-0.150629
-0.155229
0.024146
0.083215
0.064351
0.281054
0.552199
0.472002
-0.083007
-0.030370
0.482709
0.136292
-0.265880
0.312133
0.191320
-0.002457
0.154563
0.209220
0.112625
0.180156
0.029028
0.040805
-0.081090
-0.016384
0.006654
0.156757
0.021341
0.046835
0.048695
0.096258
0.188840
0.109853
-0.022904
0.041602
0.047319
0.166543
-0.033707
-0.114548
-0.038866
0.110404
0.104545
-0.044868
-0.041066
0.054490
0.021247
0.119928
0.002239
-0.150740
-0.060590
-0.047411
0.003489
-0.053489
-0.082207
0.133597
0.423670
0.380926
0.380903
0.336984
0.159543
0.029409
-0.173666
-0.553762
-0.562158
-0.251769
0.131408
0.644528
0.838760
0.415643
0.022804
-0.138797
-0.530414
-1.871535
-0.432712
0.348358
0.037646
-0.114717
-0.062629
0.069383
-0.110043
-0.107637
-0.047847
0.004354
-0.017169
0.010549
0.091535
-0.090537
-0.014533
-0.133905
-0.011994
0.076464
-0.032255
0.022597
-0.093518
-0.132949
0.018676
-0.078462
-0.102383
-0.017042
0.239600
0.000314
-0.011320
-0.040393
-0.103314
-0.015907
-0.025372
0.075636
0.238018
0.029953
-0.006537
-0.126161
0.017552
0.127463
-0.128695
0.117664
-0.028855
-0.066405
-0.542179
-1.348735
-1.856299
-1.522043
-0.677321
0.359444
1.042967
1.158692
1.067007
0.869267
0.574535
-0.250143
-0.839742
-0.409421
0.956831
0.572868
0.053821
0.359166
-0.226751
-0.192819
0.073244
0.100677
0.018659
0.039765
0.070662
-0.061464
-0.062634
-0.056271
0.012972
-0.154215
-0.250779
-0.136720
0.005596
0.004420
-0.016051
-0.017682
-0.056715
-0.041096
-0.022168
-0.103228
0.015840
-0.133420
0.072659
-0.016483
0.172312
0.376036
0.586301
0.545591
0.086533
-0.151199
-0.292151
-0.581260
-0.924443
-0.951905
-0.994488
-1.052316
-0.839357
-0.655889
-0.163848
0.267601
0.363466
0.361274
0.305937
0.225773
0.235192
0.303989
0.490396
0.504121
0.442313
0.440571
0.111542
-0.393376
-0.492517
0.024655
1.009319
0.125288
0.078026
-0.092151
-0.069053
-0.010064
-0.047899
-0.115204
-0.082884
-0.100404
0.174718
0.043859
0.009881
-0.220710
-0.151716
0.095171
0.004678
0.036408
0.007147
-0.050688
-0.105535
0.022094
0.022688
-0.007739
-0.011043
-0.003068
0.011717
-0.092062
-0.030854
-0.088615
-0.049388
0.138682
-0.027864
0.011964
-0.027632
-0.109789
0.063172
0.105647
0.012767
-0.073600
-0.082922
0.089146
0.019986
0.137470
0.232866
0.191233
-0.016990
-0.108216
0.124539
0.323139
0.423766
0.187137
-0.689868
-1.745381
-2.201146
-0.686150
1.600034
2.141433
0.314209
-1.771820
-0.921196
1.931196
-0.254690
0.208489
0.103511
0.011499
0.029751
-0.145590
0.030556
0.006519
0.086646
0.049639
-0.059152
-0.080137
-0.012904
0.165148
0.219195
0.158932
0.205760
0.111454
0.285550
0.078554
-0.398283
-0.370516
-0.286283
-0.405048
-0.750830
-0.888002
-0.756122
-0.518757
-0.508558
-0.193722
0.053975
0.006101
0.054366
0.362258
0.429655
0.237263
0.114205
0.218455
0.390460
0.157895
0.501319
-0.506195
0.414330
0.487870
0.184371
0.105051
-0.072863
0.188459
0.071342
-0.247695
-0.436101
-0.088888
-0.102897
-0.126771
0.025551
0.089914
0.110473
0.088129
0.307570
0.409486
-0.112789
-0.246835
-0.085709
0.140373
0.025602
0.002459
-0.055538
-0.001509
-0.069008
-0.143252
-0.187068
-0.017949
0.184517
0.203057
-0.033799
-0.167575
-0.252956
-0.271770
0.043775
0.181870
0.199876
-0.171153
-0.209878
-0.265617
-0.060679
0.360034
0.141347
-0.114362
-0.157416
-0.189881
-0.081262
0.118593
0.069134
0.237289
0.053663
-0.054696
-0.357585
-0.142556
0.176748
0.270638
-0.161000
-0.177951
-0.538699
-0.244273
0.214650
0.960659
0.819583
0.168873
-0.627319
-0.972618
-0.745654
-0.218931
0.310347
0.663746
0.686723
0.221566
-0.222464
-0.622841
-0.395798
1.025812
-0.080954
-0.008537
-0.106797
0.329556
0.332670
0.119691
-0.041717
-0.043926
-0.209229
-0.595259
-0.676684
-0.662637
-0.668805
-0.657036
-0.785468
-0.473038
-0.265624
0.238123
0.391890
0.236181
-0.067732
0.036173
-0.033922
0.048684
0.033002
-0.157885
0.220383
0.157623
0.177614
0.126589
0.011409
0.188534
0.047108
0.167130
0.158334
0.021253
0.023696
0.040192
0.243085
0.171000
0.151485
-0.028954
0.085681
-0.051603
-0.011700
0.148396
0.308082
0.154078
0.049572
0.138105
0.279313
0.070410
-0.011305
0.444827
0.787385
0.051663
-0.512236
0.204569
1.459564
-1.175064
-0.338972
0.448131
0.010244
-0.152694
0.080339
0.269794
0.140206
0.042511
0.073581
-0.020800
0.138594
0.081695
-0.024960
-0.069288
-0.073483
0.195041
0.110271
0.140466
0.098994
0.055721
-0.002192
0.137590
0.060646
0.007473
0.041924
0.046243
0.163943
0.059779
0.105900
-0.182848
-0.116002
-0.039449
0.154530
0.089239
0.135291
0.042325
0.172945
0.392116
0.199798
-0.106390
-0.213463
-0.137762
-0.349362
-0.373907
-0.294143
-0.183791
-0.441462
-0.542810
-0.730786
-0.749509
-0.496319
-0.032916
0.456219
1.015314
0.906592
0.299354
-0.302551
-0.462214
-0.120456
-0.202443
0.067256
-0.011882
-0.008558
0.049823
-0.046139
-0.044658
0.002075
0.139450
0.011169
0.024446
0.010989
0.039751
-0.055278
-0.001785
0.050657
0.049286
0.089369
-0.025364
-0.037253
0.002961
-0.110863
0.024599
0.052841
-0.063727
0.074925
-0.011209
-0.092976
0.071336
-0.093964
0.014670
-0.011351
0.014607
-0.059050
-0.023171
-0.081273
-0.082720
-0.125331
-0.002591
0.036100
0.065629
-0.039878
-0.070783
-0.033175
-0.017718
-0.045852
-0.010097
0.127036
0.115835
0.056314
0.039305
-0.122302
-0.056324
-0.154748
-0.200821
0.005375
0.022467
-0.006894
-0.029486
-0.078531
0.185428
-0.203156
0.220087
-0.043523
-0.030968
0.060235
-0.004488
0.055797
0.021586
-0.071211
0.056148
-0.009098
0.023998
0.065339
-0.009137
-0.003270
0.046025
-0.027932
-0.042233
-0.040069
-0.085827
0.052620
0.067453
-0.050822
-0.032902
0.104548
0.084123
0.165769
0.130366
0.032640
-0.064926
0.044978
-0.118358
-0.158261
-0.056055
0.158098
-0.055478
-0.178637
-0.045798
0.105992
-0.208931
-0.841760
-1.022296
-1.051876
-0.984396
-0.575040
0.091838
0.294867
0.342233
0.161415
0.218482
0.351745
0.358132
0.419858
0.407627
0.519806
0.127109
-0.433082
-0.190470
0.769526
0.832245
0.002392
-0.030046
0.067964
-0.044287
0.013143
0.012307
-0.119018
-0.183783
-0.175003
-0.066180
-0.026733
0.024584
0.169873
0.133926
0.002208
0.182035
0.031276
0.174466
0.006916
0.115432
0.182943
0.124781
0.086206
0.145152
0.181503
-0.028619
-0.119441
-0.215082
-0.256965
-0.195611
-0.250263
-0.233360
-0.162972
-0.038522
0.050188
0.113768
0.043051
-0.023439
-0.092720
-0.031077
-0.110972
-0.134132
-0.140333
-0.064921
-0.092329
-0.153010
-0.168827
-0.111996
-0.030201
0.128226
0.150658
0.294604
0.166363
0.269912
0.191727
-0.002724
-0.041702
-0.035799
-0.022232
0.008167
0.164015
0.184564
-0.079712
-0.062751
0.007871
0.071262
0.089799
0.051298
0.001224
0.010392
0.008493
-0.052810
0.053139
0.016167
-0.083966
0.061824
0.139509
0.067547
0.111101
0.062901
-0.199818
-0.125682
-0.005198
0.159301
-0.039701
-0.095593
-0.044282
0.033408
-0.005726
-0.046598
-0.272450
-0.273213
-0.067378
0.307847
0.475203
0.645655
0.677849
0.308865
-0.051486
-0.423360
-0.418062
-0.570744
-0.729260
-0.571133
-0.230769
0.091955
0.485621
0.805522
0.905385
0.463815
-0.231501
-0.756441
-0.854283
-0.540879
-0.266527
0.168737
0.160091
-0.197755
-0.399796
0.453123
-0.211942
0.033283
-0.023897
-0.012895
-0.011226
-0.055965
0.061968
-0.076673
-0.141098
-0.031095
-0.037483
0.013675
-0.020806
0.181956
0.060681
-0.087958
-0.174973
0.007693
0.132434
-0.092411
-0.072192
-0.114183
0.110272
0.148017
-0.080046
-0.053945
0.015257
0.048718
0.165568
-0.045283
-0.032768
-0.034780
0.111273
0.052427
-0.132322
-0.056277
-0.044136
0.008339
-0.139489
-0.073544
0.343188
0.136217
-0.091597
-0.101853
0.052832
0.331429
0.553359
1.151301
1.675022
1.395884
0.353924
-0.570244
-0.860997
-0.971001
-1.025465
-0.626035
0.102211
0.116310
-0.790189
-0.297608
0.085092
-0.051430
-0.004818
-0.013654
0.042463
-0.075277
0.010303
-0.119165
0.027313
0.016116
-0.050311
0.010792
-0.034828
-0.058455
0.091535
-0.073746
-0.069748
-0.070367
0.030206
-0.030122
-0.030455
0.003976
-0.010344
-0.087242
0.091739
0.078507
0.028610
-0.070572
0.068933
-0.035973
-0.087800
0.070618
-0.071081
0.061955
-0.003900
0.016160
-0.159787
-0.113644
-0.016275
-0.039471
-0.007508
0.076725
-0.028735
-0.070667
-0.069232
-0.061920
0.131556
0.147785
0.102084
-0.005003
-0.154579
-0.072693
-0.022044
0.040486
0.012868
0.042544
-0.093415
-0.008694
-0.081235
0.026971
-0.102097
-0.174101
0.049804
0.079063
0.112089
-0.047781
-0.025966
-0.100958
-0.196361
-0.421831
-0.489174
-0.329680
-0.325892
-0.335851
-0.302116
-0.179052
-0.220682
-0.054361
0.083155
-0.034997
-0.037924
0.163368
0.216461
0.205527
0.168629
0.120383
0.129978
0.038339
0.128695
0.062763
0.243870
0.184768
0.058190
0.304900
0.409530
0.314074
0.137425
-0.022181
0.115995
0.143175
0.129261
-0.134180
-0.086713
-0.159518
0.002423
-0.046335
-0.196634
-0.165966
0.169677
0.238737
0.214922
0.138201
-0.049812
0.008265
-0.068589
-0.038113
-0.072718
-0.216214
-0.183205
0.716271
-0.031858
0.005421
0.041909
0.096696
0.004123
-0.037397
0.032576
-0.074584
-0.165544
-0.146488
0.026806
-0.070180
0.082809
0.042087
0.101384
0.014617
0.118931
0.084423
0.005910
0.110125
0.014349
-0.051338
0.060915
0.093091
0.022566
0.085535
-0.026018
0.015161
-0.064597
0.039169
-0.066131
-0.112293
0.042089
-0.020965
0.084642
-0.000386
0.065157
0.030400
-0.087065
-0.110241
-0.040369
-0.056712
-0.032029
-0.004636
0.018175
-0.024214
0.026413
-0.102508
-0.023478
0.095783
0.132274
0.146043
0.067925
0.150482
0.113378
0.054421
-0.001700
-0.012991
0.044768
-0.159757
0.459043
0.122422
-0.560602
-0.659074
-1.155100
-1.374243
-1.272601
-0.726145
-0.136177
0.162493
0.456182
0.529830
0.353729
0.138776
-0.028947
-0.152626
-0.007837
0.004254
0.120722
0.225539
0.111476
0.204270
0.123156
0.016587
0.061040
-0.051257
0.108548
0.090566
-0.047181
0.165072
0.144088
0.159179
0.006388
0.103448
0.126389
0.083017
-0.035474
-0.045543
0.017441
0.063936
0.209811
-0.055186
0.116957
-0.023191
-0.062159
-0.045261
0.171594
0.130237
-0.076969
0.048508
0.082308
0.044872
0.103163
0.613547
0.810861
0.316526
-0.412547
-0.164996
0.798109
-0.407736
0.999809
-0.080715
0.119226
0.356328
0.235050
-0.069258
0.101345
0.309935
0.281105
0.111838
0.167466
0.065622
0.183959
0.135533
0.172785
0.155568
0.077193
0.107467
0.097978
-0.013790
0.242203
0.351165
0.170055
0.059615
-0.044266
-0.043819
-0.045810
-0.050467
-0.118198
0.018365
-0.073876
0.008738
-0.087137
-0.203388
-0.269955
-0.119246
-0.067971
-0.213094
-0.259711
-0.062176
-0.303557
-0.371089
-0.145264
-0.124910
-0.290974
-0.248649
-0.194468
-0.193646
-0.183846
-0.132322
-0.110925
0.060575
0.105635
0.216297
0.236979
0.048822
-0.198813
-0.099930
-0.009417
-0.714021
-0.122684
0.250696
0.005166
-0.027118
0.162126
0.022423
0.035263
0.049536
0.198356
0.110293
0.175897
0.135923
0.082153
-0.037878
-0.041497
-0.277122
-0.332644
-0.092554
-0.062021
0.123150
0.240638
0.401985
0.575043
0.451632
0.144970
-0.210411
-0.306858
-0.375917
-0.398362
-0.201418
-0.150962
-0.097718
0.105658
0.521083
0.716159
0.295099
-0.171658
-0.265534
-0.202133
-0.428660
-0.548066
-0.372020
-0.131984
0.213382
0.052613
0.081677
-0.090185
-0.195670
-0.099909
-0.138863
-0.046109
-0.037203
-0.124170
0.056278
0.154315
0.048406
-0.083513
-0.053583
0.322935
-0.151719
-0.397627
-0.164361
0.017823
0.060544
-0.044522
0.015917
-0.026791
-0.184740
-0.085197
-0.048992
-0.046104
-0.119925
-0.073717
-0.053150
-0.049326
-0.092549
0.000543
-0.114005
0.026948
-0.162656
-0.227815
-0.135849
-0.128139
0.035611
0.063585
-0.145451
-0.129188
-0.022569
0.000232
-0.102053
-0.193045
-0.227095
-0.082363
0.074233
-0.061739
-0.121690
-0.069938
0.116109
-0.210773
-0.170907
0.189289
-0.297089
-0.305260
-0.214459
-0.051616
-0.238652
-0.379948
-0.260948
0.081083
-0.043801
-0.316004
-0.262673
0.122623
0.249010
0.085812
-0.078363
0.250805
0.632877
1.263379
2.585653
0.011858
0.243567
-0.004168
0.110343
0.044778
0.131141
0.076420
0.072819
0.186584
0.166703
0.149137
-0.080698
-0.172488
-0.309080
-0.483001
-0.515224
-0.501459
-0.162546
-0.009544
0.088194
-0.010171
0.189867
0.127960
0.177404
0.086697
-0.098162
-0.012746
-0.036773
-0.079744
-0.184134
-0.163687
-0.339896
-0.116681
-0.005483
0.164711
0.134216
0.197798
0.200045
0.227796
0.154188
0.186870
0.081775
0.007573
0.108271
-0.114563
-0.063549
-0.215995
-0.063859
-0.081725
-0.016407
-0.292998
-0.318995
-0.149039
-0.000453
0.080131
0.073208
0.082878
0.162342
0.137855
0.300270
-0.245168
0.179306
-0.124064
-0.056548
0.106516
-0.017749
-0.120585
-0.131499
0.083693
0.186197
0.004906
-0.000547
-0.029036
-0.062772
0.050219
0.003912
0.015905
0.082535
-0.071945
-0.094929
0.043557
-0.003446
0.024847
-0.017471
0.088842
0.026102
0.097705
0.050200
-0.032020
0.116513
-0.032882
0.030489
0.046770
0.097724
-0.027467
-0.175686
-0.043350
0.212719
0.169572
-0.043111
-0.201717
0.225393
0.127960
0.059950
0.078759
0.285161
0.072349
0.014848
-0.136364
0.301948
0.815385
1.091139
0.924361
-0.012704
-1.193073
-2.174827
-1.534180
0.504943
1.671581
-1.322803
-0.009970
0.201109
-0.046563
-0.044711
0.085479
0.051482
-0.058278
0.015135
0.057242
0.087827
0.082619
-0.132482
-0.024361
-0.136292
0.003717
-0.008302
0.020793
0.120411
0.150131
0.126962
0.036373
0.038928
-0.044433
0.003942
0.088190
-0.005386
0.313150
0.105383
0.044065
-0.129980
-0.028211
0.175796
-0.147324
-0.163450
-0.211100
-0.383741
-0.945724
-1.241185
-0.754304
-0.086128
0.328333
0.296030
0.145263
0.124807
0.103613
0.110849
0.183275
0.071760
-0.003523
0.022170
0.425877
0.520849
0.578574
0.491227
0.028729
-0.167280
-0.209746
0.215568
0.646284
-0.850719
-0.110747
-0.013298
-0.037658
-0.022055
0.047237
0.110238
0.025704
-0.122718
-0.094358
-0.024598
0.169577
0.098025
-0.036877
0.006301
-0.108892
-0.084845
-0.250754
-0.072098
0.006947
0.035418
0.076830
0.009288
-0.057953
0.130764
-0.206640
-0.192488
0.056757
0.256960
0.387705
-0.114267
-0.405316
0.039407
0.219049
0.207403
0.000343
0.020685
0.199029
-0.036530
-0.011407
0.052408
-0.353002
0.138595
-0.296772
-0.291833
-0.336083
-0.156636
-0.160012
-0.364200
-0.325028
0.017289
0.289615
-0.056020
-0.400073
-0.464390
-0.426285
-0.089192
0.600446
0.815669
0.625156
1.006142
-0.008344
-0.216802
-0.255653
0.025274
0.295320
0.483930
-0.064330
-0.590963
-0.699399
-0.025877
0.687645
0.425366
0.047311
-0.360638
-0.609211
-0.104071
0.207158
0.222803
-0.012589
0.071373
0.062174
-0.244813
-0.414488
-0.141249
0.057298
0.275827
0.467999
0.186435
-0.576747
-0.809738
-0.462652
0.728681
1.288203
-0.292798
-1.417661
-0.392156
0.666141
0.493989
-0.443305
-0.462580
0.087867
0.966677
-0.009335
-1.213120
-1.026701
0.684367
1.536644
0.199568
-1.300166
-0.798958
0.553742
1.096855
0.419406
-0.075369
-0.257399
-0.130362
-0.238025
-0.554735
-0.467993
2.178109
-0.113939
-0.027873
0.019226
-0.033725
0.117085
0.073206
0.147795
0.270709
0.188628
0.180088
0.046053
-0.023607
-0.064811
-0.288278
-0.234925
-0.291509
-0.270732
-0.137492
-0.082334
-0.011284
0.093812
0.174066
0.149651
-0.018440
0.042495
0.067254
0.030883
0.085703
0.178523
0.250532
0.173451
0.173969
0.179410
0.047907
-0.004783
-0.069606
-0.063345
-0.175369
-0.155891
-0.155586
-0.121815
0.039130
0.073589
0.153725
0.222578
0.215855
0.152847
0.059978
0.075324
-0.076804
-0.122719
-0.198680
0.060438
0.060014
0.026646
-0.079283
-0.013746
-0.122484
-0.191699
-0.116099
0.880197
-0.812627
-0.083554
0.299077
0.109516
-0.028110
-0.100686
0.105874
0.055040
-0.025557
0.009769
0.100627
0.062974
0.017713
-0.071380
0.094850
0.022277
0.091308
-0.053017
-0.006764
0.147384
0.015069
0.021924
-0.067631
0.115445
0.191346
0.137604
0.027591
-0.057962
0.146179
0.199452
-0.024148
-0.135682
0.007210
0.048986
0.032101
0.081060
0.023392
-0.054906
0.243289
0.168627
-0.043694
-0.120441
0.054288
0.106972
0.128501
0.090780
0.122759
0.009010
-0.081442
-0.094160
0.713148
1.350593
0.790591
-1.116733
-2.242206
-1.901966
-1.279536
-0.776693
2.816779
-0.521704
-0.362791
-0.654321
-0.690412
-0.634969
-0.500362
-0.147059
0.219724
0.422680
0.197654
0.135932
-0.028613
0.235650
0.228013
0.099286
-0.072271
-0.035518
0.018693
0.072528
0.063379
0.082222
0.010512
0.023395
0.016799
-0.113852
-0.101956
-0.035991
0.083499
0.114242
-0.014589
0.095254
0.037869
-0.066727
0.031082
-0.026517
0.003283
0.062899
0.094801
0.272514
0.194982
0.077029
0.067787
-0.086517
0.019119
0.101839
0.192545
0.233722
0.118424
-0.061752
0.006142
0.181403
0.441853
0.402247
0.429782
0.194644
-0.367151
-0.788959
-0.065997
0.907437
-0.633334
0.061161
-0.034732
-0.120328
0.080820
-0.032509
0.023908
-0.015157
-0.037132
0.051701
-0.056638
0.140355
-0.045495
0.015796
0.017916
0.180347
0.179902
0.171111
0.163212
-0.017478
-0.014241
0.024825
-0.007824
0.030339
-0.109487
0.027324
-0.050048
-0.062132
-0.091824
-0.022985
-0.044759
0.023737
-0.031787
-0.117805
-0.162878
-0.081340
-0.059466
-0.177820
-0.023666
0.032740
0.036855
0.082933
0.160872
0.102659
0.022397
-0.071726
0.098986
0.074403
0.090059
0.131551
0.022607
-0.024941
-0.098359
-0.249353
-0.231356
-0.249185
-0.073182
0.116832
0.034862
-0.013807
0.085638
-0.039053
-0.147917
0.089212
0.054172
-0.099137
-0.102352
0.078652
0.037395
0.034107
-0.077654
-0.116950
-0.056570
0.041618
0.113274
0.040464
-0.072630
-0.019264
-0.084110
-0.063054
-0.090741
0.094477
-0.066668
-0.075068
0.054752
0.098544
-0.082305
-0.107641
-0.130731
0.194176
0.043875
-0.125029
-0.167572
0.125910
-0.050494
-0.099095
0.055223
0.016575
0.102792
-0.110034
-0.151551
0.055212
-0.047951
0.061233
0.122078
-0.007180
-0.214684
-0.499728
-0.506657
0.218116
0.986153
1.715732
1.312027
-0.750490
-2.937629
-2.767737
0.441343
3.557563
2.774521
-1.179721
-1.807136
-0.007699
0.401787
0.045125
0.008389
0.208691
0.268411
0.152265
0.000388
-0.043467
-0.023672
-0.111025
-0.093936
-0.161139
-0.198078
-0.073137
-0.178393
0.010208
0.014434
0.107989
0.121422
0.048523
-0.083169
-0.037925
-0.193756
-0.246342
-0.365247
-0.215476
-0.012863
0.043065
0.067520
-0.081607
-0.032180
-0.029378
0.021431
-0.040454
0.005206
0.019791
0.063548
0.192933
0.180382
0.126334
0.282247
0.217506
0.051382
0.013271
-0.102399
-0.142763
-0.056204
0.081639
0.240913
0.335163
0.568494
0.450509
0.233757
-0.203082
-0.432030
-0.595651
-0.475575
-0.178537
-0.932993
0.174949
-0.058038
-0.005984
0.026128
0.056406
-0.078107
-0.043037
-0.030988
-0.014099
-0.065055
0.039049
0.004039
-0.034781
0.074126
0.144466
0.092912
-0.006642
-0.028943
0.007480
0.070352
0.020671
0.182528
0.044750
0.217281
0.203736
0.129799
0.232233
0.207405
0.115147
0.050554
-0.012545
0.047987
0.072865
0.032555
-0.072297
0.024788
-0.110458
-0.046519
-0.092614
0.063232
-0.021109
-0.095825
-0.090047
0.024815
-0.062110
0.040561
0.001739
0.196674
0.155027
-0.015390
-0.112859
-0.334416
-0.311709
-0.250138
-0.164801
-0.131346
-0.040077
-0.214787
-0.172118
0.191801
-0.193116
0.353884
-0.012738
-0.116088
0.091513
0.086847
0.093903
0.063494
0.104590
0.050283
-0.099336
-0.137450
-0.044066
-0.008941
0.158466
0.033499
0.197178
0.163609
0.161023
0.065894
-0.126005
0.090369
0.116408
0.099372
0.223622
-0.085848
-0.101427
0.026508
0.255434
0.181306
-0.218551
-0.486434
-0.412482
-0.475764
-0.565414
-0.441496
-0.253303
0.001425
0.202961
0.434066
0.679812
0.585929
0.893037
0.890568
0.775865
0.650113
0.409728
0.128204
-0.028471
-0.440641
-0.636223
-0.410455
-0.616618
-0.638546
-0.530087
-0.211175
-0.077573
-0.224303
-0.305106
-0.197857
-0.350193
-0.314372
-0.279841
-0.227506
-0.084595
-0.218550
-0.152342
-0.133519
-0.045022
-0.015006
0.131755
0.192422
0.130600
0.172461
0.134832
-0.038582
0.068393
0.070218
0.024689
0.130502
0.081561
0.039146
0.012837
0.052336
-0.019204
0.049089
0.016522
0.129395
0.076490
0.064425
-0.009178
0.088101
0.048706
0.068793
-0.015592
0.021190
-0.063342
-0.045276
-0.010543
-0.026525
0.020364
0.084851
-0.091128
0.000090
-0.051997
-0.003348
-0.125396
-0.191738
-0.173806
0.003238
0.060720
0.286532
0.288024
0.434640
0.315746
0.187254
0.116870
0.095429
0.163084
-0.254439
-0.345516
-0.074261
0.053850
0.269761
0.115225
-0.288812
-0.433392
-0.740866
-0.919526
-1.090956
-0.981799
-0.549583
-0.309797
0.018614
0.184078
0.382914
0.292946
0.184373
0.209134
-0.070335
-0.145446
0.055318
0.097750
0.260912
0.237156
-0.009860
0.179784
-0.022103
-0.043306
0.073772
0.063705
0.073655
-0.098671
0.151113
0.354521
0.211873
0.016641
-0.089290
0.009208
0.129006
0.034498
-0.110040
-0.000848
0.095776
0.142104
0.140454
0.039091
-0.074639
-0.066564
0.177610
0.318244
0.324345
0.146383
0.248682
0.262552
-0.109049
-0.481303
-0.098375
0.750464
0.205166
-0.181454
0.199663
-0.183538
-0.193919
0.000509
0.126771
0.038220
0.003877
-0.158556
0.018021
0.095721
0.096453
-0.044425
-0.074002
-0.029117
0.060415
0.014708
0.001508
0.000293
0.032696
0.161568
0.040205
0.011938
0.021194
-0.172085
-0.412754
-0.633133
-0.693760
-0.762322
-0.788295
-0.698738
-0.065659
0.122796
0.296724
0.334931
0.240272
0.296907
0.125105
0.052381
0.216855
0.093085
0.268174
0.263140
-0.037884
-0.076468
0.136098
0.397377
0.195457
-0.207139
-0.002466
0.229125
0.390267
0.450900
0.545664
0.506920
-0.202073
-0.781595
0.222496
1.438118
-0.993025
0.127173
-0.261737
0.006246
-0.065771
-0.091789
-0.134255
0.002703
-0.084156
0.057103
0.046853
-0.021402
-0.008286
0.057628
-0.096907
0.096192
0.177070
0.171510
0.083973
0.044816
-0.007125
0.003738
0.071486
-0.040156
0.029561
-0.193789
-0.130715
-0.066458
-0.171450
-0.209218
-0.119609
-0.119455
0.016682
0.010662
-0.086818
0.141798
0.176368
0.233043
0.417950
0.420106
0.396867
0.280499
-0.056255
0.100235
0.002459
0.011842
-0.072692
-0.043868
-0.016877
-0.008688
-0.318192
-0.250685
-0.244807
0.115141
-0.143014
-0.612533
-0.568373
-0.175706
0.251300
0.116500
1.060620
-0.273934
0.404531
0.068400
0.050791
0.085902
0.020714
0.057356
0.023857
-0.017923
-0.118449
-0.220111
-0.127134
0.149309
0.061094
0.073778
-0.142157
-0.001380
-0.009592
-0.072336
-0.080222
-0.138254
0.144841
0.032918
0.206088
0.352071
0.207017
0.470561
0.488090
0.435558
0.047536
-0.730448
-1.101908
-1.032984
-0.821410
-0.936292
-0.991191
-0.707310
-0.373771
-0.178242
-0.158361
0.524507
-0.405287
0.356932
0.163146
0.070173
0.280267
0.386668
0.631294
0.528842
0.214382
0.190280
0.151686
0.053673
0.171761
0.395156
0.213857
-0.285614
-0.019036
0.600418
0.500537
-0.182210
0.151773
0.062701
0.114347
-0.001205
0.071845
-0.019724
-0.089339
-0.106386
0.029831
0.003484
-0.071904
-0.111975
0.027701
0.134046
0.163768
0.023662
0.040083
-0.059951
-0.001950
0.124731
0.136645
-0.101450
0.051842
0.047242
0.149768
0.051594
-0.088081
-0.020681
-0.217469
-0.315713
-0.459986
-0.674386
-0.926748
-1.040317
-0.635695
-0.104873
0.278720
0.771470
0.404903
-0.095904
-0.195787
-0.041055
0.200086
0.345255
0.317627
0.342420
0.142672
-0.257780
-0.306724
0.047811
0.406463
0.714609
0.738970
0.546902
-0.224628
-0.572667
0.158113
1.039434
-0.828669
-0.147580
0.333209
-0.142348
-0.069082
0.180506
0.233849
0.025492
0.067890
0.040361
0.021245
-0.013112
-0.111453
0.080113
0.120497
0.246567
0.132737
0.055321
0.009371
0.010575
-0.052111
-0.079462
0.021363
0.025129
0.161725
0.129622
0.130857
0.186609
0.119541
0.047509
-0.069221
0.099780
0.187473
0.095123
0.093065
-0.116739
-0.021465
0.095028
0.166500
0.149603
0.081060
0.119893
0.251147
0.205283
-0.095433
-0.109830
-0.171577
-0.266960
-0.159608
0.110749
0.431351
1.115088
1.521581
1.658947
1.263456
0.292397
-0.719824
-1.334181
-1.344342
-1.208520
-2.664359
-1.203343
0.025532
0.298912
-0.133172
-0.341596
-0.047020
-0.124097
-0.043341
-0.273031
-0.121018
-0.223650
-0.220974
-0.254871
-0.268906
-0.155685
-0.024055
-0.179287
-0.200920
-0.258723
-0.136693
-0.093420
-0.128933
-0.203011
-0.158029
-0.219523
-0.034955
-0.242896
-0.100742
-0.159191
0.053297
0.078750
0.016926
0.062407
0.085107
-0.043274
-0.013921
0.034247
0.223070
0.039867
-0.043708
0.185495
0.306785
-0.038129
-0.137148
0.200069
0.295919
0.185406
0.196223
0.482099
0.374611
0.058672
0.301494
0.772524
0.705678
0.342364
0.147442
0.390189
-0.417640
-1.141359
1.611816
-0.112887
0.068761
0.196287
-0.185449
-0.307865
-0.045249
0.076428
0.131579
0.092957
0.019093
-0.024415
-0.181576
-0.140988
-0.002577
0.135898
0.005418
0.111561
0.173394
-0.052400
-0.075704
-0.220697
-0.029249
0.302036
-0.058537
-0.147838
-0.010645
0.027954
0.084594
-0.234789
-0.229356
0.475726
0.459623
-0.214855
-0.698130
-0.189239
0.341465
0.107624
-0.205562
0.003977
0.177490
0.172968
-0.323402
-0.317070
0.203640
0.598737
0.456105
0.175768
-0.417235
-0.724557
-0.501675
0.532282
1.929838
1.928306
0.101616
-1.973907
-1.539817
0.561983
1.532480
-0.071689
-0.942450
0.790350
-1.266752
-0.273023
0.678786
0.759544
-0.251077
-0.998392
-0.258810
0.939657
0.886919
-0.519455
-1.288091
-0.097098
1.110379
0.729765
-0.331675
-0.995198
-0.445905
0.511425
1.055607
0.105005
-1.161518
-0.538926
0.836105
0.803006
-0.509064
-0.795037
0.193346
0.685320
-0.264924
-0.474277
0.513768
-0.100008
0.202633
-0.095584
-0.300428
-0.798123
1.334420
1.046275
-0.241236
-3.297325
0.998792
2.233470
1.051217
-2.043592
-2.108924
1.125932
2.501756
0.186648
-2.077301
-0.948197
1.553042
1.429542
-0.688723
-1.235500
0.233090
1.301387
-0.045559
-1.806867
0.709710
0.001545
-0.028620
-0.013048
-0.034015
0.107637
-0.024566
-0.122214
-0.088299
-0.000381
0.077867
-0.034171
0.068849
0.010030
0.020904
-0.126595
-0.074898
-0.102819
0.041992
0.060061
0.094678
-0.027152
-0.024325
-0.040914
-0.094620
0.020334
0.024639
0.000187
-0.001375
-0.093953
-0.068693
0.080856
-0.097104
-0.012640
-0.079806
-0.071289
0.033317
-0.092256
-0.117159
-0.079669
-0.102037
-0.137095
0.047281
0.151369
0.035962
0.183300
0.193730
0.047592
0.002658
-0.117466
-0.078983
0.038107
-0.018870
-0.049238
-0.078227
-0.048659
0.005785
0.092437
0.102733
0.137476
0.010474
-0.153528
-0.011509
-0.000217
-0.116669
-0.120308
-0.066981
-0.029685
-0.020529
-0.011621
0.163343
0.154859
0.087850
0.139694
0.036350
0.203050
0.121915
0.128119
0.113798
0.039789
0.089123
-0.072380
-0.090855
0.001033
-0.017958
-0.101216
0.022599
-0.071311
0.114401
0.114782
0.082072
0.071380
0.103847
0.093061
0.050477
0.042893
-0.045784
0.041403
-0.124005
-0.149289
-0.177293
-0.218021
-0.173300
-0.085678
-0.076053
0.099348
0.197717
0.055880
0.150024
0.028371
-0.024414
-0.099948
-0.064302
0.025419
-0.075889
0.015835
0.053678
0.034587
0.033775
-0.153455
-0.531706
0.125642
-0.006458
0.027308
0.048553
-0.030489
-0.075172
-0.076762
0.086127
0.132401
0.013332
-0.051613
-0.062618
0.023277
0.143396
0.020814
-0.046779
-0.016669
0.098703
-0.003840
0.026646
-0.006971
0.082484
0.070387
-0.057100
-0.105513
0.022627
-0.001507
0.046566
0.000632
0.098236
-0.019159
0.039217
-0.057207
-0.031205
-0.011259
0.068158
0.126173
-0.029295
-0.076518
0.041677
0.244179
0.032879
0.056603
-0.088082
-0.044709
-0.037365
0.014629
0.282763
-0.103601
-1.267262
-2.519054
-1.962757
-0.030184
1.371201
1.693803
1.327533
0.612634
-0.877393
-1.830081
2.797216
-0.859215
0.164200
0.195263
0.012327
-0.004259
-0.010258
-0.084280
-0.239732
-0.192806
-0.098513
0.061319
0.018199
-0.076299
-0.236084
-0.091164
-0.054999
-0.017153
-0.208614
-0.257327
-0.154635
0.004148
-0.055685
-0.191592
-0.154517
-0.199460
-0.063377
0.000631
-0.079698
-0.187467
-0.111415
0.020659
-0.000772
-0.307814
-0.406441
-0.064184
0.148904
0.210000
-0.127274
-0.147831
-0.233811
-0.187295
0.066318
-0.080620
0.027265
0.100772
0.289691
0.425605
0.035174
-0.308658
-0.190882
0.339119
0.915814
1.200313
1.216530
0.589329
-0.263973
-0.830361
0.028282
0.875407
-0.389977
0.170131
0.167394
-0.050821
-0.914842
-0.176043
1.023796
0.931239
-0.797126
-1.432434
0.152960
1.506536
0.375169
-0.963677
-0.841777
0.358979
0.937689
0.098691
-0.380183
-0.421535
-0.069913
0.038289
0.402728
0.512368
-0.224197
-1.090106
0.127842
0.510160
0.312061
0.526744
-0.791113
-0.842506
0.238996
0.563706
0.805748
-0.674217
-0.535643
0.719085
-0.508556
-0.966793
1.761227
0.936089
-1.679790
-1.580675
1.040688
2.346506
-0.271452
-2.499438
-0.951884
2.190919
2.114594
-1.297582
-2.375001
0.657253
2.273662
0.211621
-1.510833
-0.293734
0.941116
-0.207192
-0.489222
-0.016672
-0.323662
-0.270068
0.041811
0.211502
0.062457
-0.117091
-0.168353
-0.045415
-0.035441
-0.027014
0.084993
0.115494
0.087344
-0.069484
-0.036677
-0.148560
-0.258230
-0.058557
0.141904
0.240502
-0.026474
-0.203937
-0.154776
-0.112629
0.103910
0.212394
0.102939
0.093226
-0.240194
-0.256586
-0.087207
0.195235
0.223091
-0.075656
-0.292535
-0.347681
-0.360925
0.200919
0.511349
0.185487
0.084187
-0.245301
-0.543131
-0.650903
-0.638318
-0.254835
-0.015238
0.025616
0.508979
0.971393
0.617897
-0.146660
-0.638412
-0.279949
0.429214
0.795901
0.369817
-0.212307
0.047093
-0.132634
0.362731
-0.096136
-0.061160
-0.067280
-0.094270
-0.015996
-0.069711
0.111241
0.002765
0.071363
-0.020247
0.073036
0.138314
0.022935
-0.019199
-0.052452
0.024420
-0.026611
-0.006553
-0.078414
0.167485
0.043108
-0.005276
-0.152657
-0.155367
-0.088575
-0.089376
0.027227
0.090064
0.114860
0.024274
-0.066442
-0.047012
-0.003851
0.017486
-0.016754
-0.056785
-0.048019
0.070581
0.317658
0.068025
0.279894
0.188529
0.236232
-0.055642
-0.567414
-1.168703
-1.540895
-1.608431
-1.150090
-0.370255
0.012497
0.467732
0.588617
0.819603
0.794987
0.341099
0.440478
1.297517
-0.185990
0.185712
0.124568
0.137541
0.017382
-0.031321
0.046482
0.173275
-0.026935
0.052239
-0.035345
0.073603
-0.125830
-0.224766
-0.485677
-0.895023
-0.914078
-0.792163
-0.166326
0.285008
0.429692
0.310937
0.096306
-0.022925
0.080885
0.095139
0.108186
0.251783
0.228083
0.223672
0.219522
0.116466
-0.029697
0.027109
0.091344
0.094659
0.082047
-0.015423
-0.031688
0.117361
-0.138355
-0.039635
-0.023381
-0.016132
-0.079393
0.038820
0.070439
-0.113913
-0.114807
0.026541
0.127880
0.325059
0.453924
0.676855
0.498706
0.149203
-0.399315
-0.087363
0.596456
-0.665847
-0.088934
0.489717
0.014367
-0.096770
0.098333
-0.017020
-0.058093
-0.056204
0.092522
0.041109
-0.009315
0.017812
0.076556
0.219748
0.172413
-0.022892
0.009210
0.025746
0.140805
-0.106057
-0.133894
-0.085121
-0.111908
-0.002087
0.155243
-0.047774
0.002240
0.197575
0.210079
-0.228005
-0.240805
-0.043121
0.004827
-0.351881
-0.624202
-0.407365
1.027592
0.757626
0.187844
0.437347
0.845960
0.257491
-0.964525
-1.297908
-0.753318
-0.555845
-0.887663
-0.467706
0.293595
0.873310
0.779705
0.418821
0.235604
0.045173
-0.394465
-0.548929
-0.496931
-0.117498
0.277513
0.713197
-0.196987
-0.078607
0.003601
0.016094
-0.021224
0.020336
-0.079748
-0.051930
-0.081474
-0.217134
-0.046980
-0.002496
-0.111730
-0.088034
0.069610
0.027957
0.034092
0.124074
0.059650
-0.042000
-0.049100
0.118390
0.019526
0.137807
0.206567
0.143789
0.244772
0.308009
0.248408
0.193902
-0.032582
0.047247
0.060954
-0.089835
-0.067342
-0.034352
0.126604
-0.061650
0.149919
0.151915
0.070676
-0.075102
-0.043998
-0.069040
-0.228837
-0.380808
-0.287190
-0.151621
0.009549
-0.066608
0.066126
0.235021
0.189273
0.239122
0.071733
0.055733
-0.087240
-0.165891
-0.093595
0.125455
0.036784
0.115299
0.109757
0.093831
-0.009555
0.055031
0.082677
0.011518
-0.098846
-0.022459
-0.126795
-0.074166
0.051124
0.111449
-0.032884
-0.004944
-0.022488
-0.092234
0.065295
0.017048
0.035953
-0.093267
0.006805
-0.054052
-0.080268
0.076446
0.066202
-0.065786
-0.040151
-0.125959
-0.070135
-0.041366
-0.030336
-0.046574
0.062072
-0.062831
-0.062076
0.000269
-0.096818
-0.056816
-0.117400
0.082834
0.076386
-0.035679
0.092825
-0.004294
0.129442
0.071024
-0.100026
-0.040337
0.007546
0.056975
0.029059
0.137778
0.115941
0.040604
0.013633
0.017826
0.104562
-0.086502
-0.004069
0.508741
-0.050539
-0.177002
0.101806
0.118105
0.065536
0.143454
0.140322
0.180670
0.022566
-0.041815
-0.073625
0.013023
0.116698
0.095159
0.049766
0.123112
0.126816
0.048614
-0.067763
0.102288
0.249485
0.110545
-0.065262
-0.079990
0.058218
0.281853
0.284624
0.019325
-0.074225
0.160101
0.220764
0.287723
-0.129793
-0.216371
0.058719
0.335830
-0.020446
-0.349143
-0.503472
-0.396996
-0.594602
-0.490102
-0.244633
-0.121834
-0.103920
0.107850
0.396846
0.781069
0.950136
0.859356
0.619085
0.529190
0.210238
-0.119121
-0.329423
-0.587656
-0.951190
-1.604754
-0.084303
-0.054723
0.062562
0.004851
-0.020364
0.152711
0.082554
-0.041562
-0.031746
-0.004805
0.023942
-0.088860
-0.001222
0.071828
-0.026592
0.055367
-0.008973
-0.028678
0.121033
0.012186
0.042294
-0.009206
0.047120
0.081584
0.039069
-0.088479
0.070654
0.076785
0.000683
-0.181966
0.003782
-0.101481
0.090763
-0.066045
0.004613
-0.028093
0.080152
0.074918
0.007726
0.021418
0.243843
-0.003948
0.354269
0.717694
0.860015
0.705655
0.210683
0.066372
-0.343086
-0.473067
-0.632950
-0.561382
-0.382377
-0.352390
-0.337086
0.002044
0.274380
0.240868
-0.347731
-0.295647
-0.706351
0.112952
0.740463
0.257065
-0.490301
-0.589367
-0.254154
0.282891
0.557902
0.310983
-0.332246
-0.617303
-0.283059
0.232805
0.481083
0.287956
-0.233299
-0.410046
-0.215005
-0.185320
0.481888
-0.095867
-0.046175
-0.178967
0.019126
0.646477
-0.487464
-0.828000
0.068700
0.595632
0.988505
-0.359288
-1.743750
-0.132558
1.101747
1.134168
-0.949270
-1.796685
0.420910
2.313174
-0.505100
-1.953339
-0.492255
1.779161
1.020166
-1.345494
-1.471787
0.567871
1.544866
0.162028
-1.288251
-0.540956
0.923059
0.939267
-0.205224
-0.558401
-0.006925
-0.191274
-0.952304
1.814440
-0.080658
0.025495
-0.061592
-0.008971
-0.039755
0.102359
0.054018
0.047658
0.026628
-0.085287
-0.147914
-0.029102
-0.088415
-0.077734
0.097169
0.033633
0.094456
0.035239
-0.006087
0.033228
0.129371
0.001720
0.063726
-0.038902
0.149795
0.143846
-0.006332
-0.014960
0.124502
0.030779
0.090091
0.062766
-0.050197
0.072877
0.124141
0.073068
0.144482
0.012788
0.084631
0.077605
0.043866
0.069723
-0.018403
-0.047090
-0.237961
-0.181163
-0.322866
-0.190014
-0.150994
-0.042020
-0.084278
0.123903
0.036450
0.123836
0.193919
0.083676
-0.002559
-0.071721
0.066806
-0.204852
0.151707
-0.120751
-0.023452
-0.008463
0.037078
0.141611
0.105769
-0.029062
-0.002309
-0.060419
0.119201
0.027630
0.055892
-0.009888
-0.060665
0.008283
0.067478
0.083394
0.045795
0.054387
-0.048977
0.048166
-0.026851
-0.012643
0.065542
0.198897
-0.124385
0.017497
0.122798
0.064836
-0.119291
0.004492
0.055364
0.030767
0.008779
-0.155962
0.097854
0.159100
0.041468
-0.141375
0.081149
-0.071492
0.143038
-0.242510
-0.379389
-0.486810
-0.288320
0.310855
0.470210
0.269195
-0.240446
-0.703163
-0.866158
-0.844223
0.251878
2.482431
3.220954
1.078133
-2.342147
-2.717611
-0.266864
0.374361
0.059027
-0.121283
-0.099160
0.022285
0.086711
0.113143
0.039617
-0.186010
-0.098948
-0.075239
0.104828
0.148240
0.083048
-0.137024
-0.097010
-0.070736
0.073308
0.078697
-0.074300
-0.079625
0.137374
0.237974
0.059942
-0.088596
-0.041656
0.046142
0.143707
-0.054035
-0.084610
-0.126122
0.072710
0.129791
0.045797
0.153903
0.049415
0.082652
-0.218291
-0.217609
-0.116955
-0.397066
-0.273081
-0.033787
0.461840
0.579508
0.749214
1.231923
1.367157
1.152122
0.600935
0.406635
-0.098171
-0.890227
-1.629621
-1.718330
-1.473782
-1.511945
-0.981335
1.986042
-0.429142
-0.278808
1.176697
0.282210
-0.980543
-0.856095
0.683241
1.175007
0.010522
-1.009661
-0.829440
0.434154
1.184166
0.334270
-0.865216
-1.079951
0.365630
1.087209
0.383227
-0.640873
-0.793429
-0.239995
0.814709
0.691986
-0.362848
-0.431897
-0.769362
0.815316
-0.165032
0.370064
0.654628
-0.594834
-1.515577
0.805722
1.039175
-0.251106
-0.583427
1.153956
-0.605258
-2.259358
1.444026
2.750080
-1.270706
-2.757910
0.127951
3.052050
0.580342
-2.744253
-1.167330
2.217177
1.600947
-1.218436
-1.491331
0.579050
1.227507
0.024338
-0.470204
-0.239930
-0.423582
0.442609
0.048110
0.355023
0.036203
-0.005823
-0.030795
-0.073502
0.001688
0.024118
0.114097
0.181423
0.002451
0.010262
0.072843
0.109801
0.070190
0.020776
-0.041215
0.110500
0.038065
-0.028914
0.036572
0.125458
0.109088
-0.056480
-0.020431
-0.431065
-0.478835
-0.664188
-0.688449
-0.515484
-0.481564
-0.727192
-0.880888
-0.646888
-0.155350
0.090143
-0.151318
-0.220536
0.180510
0.279010
0.337727
-0.247334
0.121780
0.335178
0.439719
0.349582
0.243528
0.274318
0.228081
0.238197
0.266110
0.246629
0.208944
0.245936
0.281774
-0.106837
-0.316793
0.169816
1.116241
-0.395422
0.035988
0.031553
0.045761
-0.092360
-0.017600
-0.088646
-0.019088
-0.072643
0.026107
0.077377
-0.010230
0.094663
-0.021026
0.047700
0.121329
0.086623
0.137485
0.163344
0.323722
0.294069
0.195317
0.251632
0.145582
0.077035
0.003023
0.011709
-0.119033
0.031582
-0.088892
0.030916
-0.081463
-0.096832
-0.009745
-0.046677
-0.111780
-0.219681
-0.153305
-0.086211
-0.059218
-0.184455
-0.166404
-0.147385
-0.092215
-0.078689
-0.001328
-0.158116
-0.275468
-0.298586
-0.236276
-0.201867
-0.113544
0.053895
0.130923
0.067060
0.008167
0.061202
0.085594
0.017331
-0.071757
0.486371
-0.035731
-0.113008
-0.024996
-0.017821
0.037097
0.046106
0.138858
0.118802
0.149432
0.076006
0.119244
0.072538
-0.023354
-0.086469
-0.204921
-0.189582
-0.110812
-0.058872
-0.120670
-0.264021
-0.181628
-0.125994
-0.207551
-0.078585
-0.159515
-0.208551
-0.173796
-0.019344
0.075890
0.125330
0.128544
0.122153
0.175303
0.154577
0.307059
0.348580
0.327636
0.245681
0.149611
0.285062
0.205319
0.109657
0.006626
-0.244302
-0.204029
-0.305558
-0.351467
-0.066813
0.066124
0.045553
-0.026141
-0.115391
0.009985
0.050363
-0.073646
0.082931
0.135183
0.161863
0.068857
0.246869
-0.310144
-0.079352
0.076702
0.039730
0.115662
0.049109
-0.131976
-0.118390
-0.041642
0.102161
0.027551
-0.087092
-0.096903
-0.185541
-0.035472
-0.029085
0.058771
-0.074123
-0.075501
-0.159447
-0.054552
0.050234
0.000269
0.038740
-0.091389
-0.104610
-0.165070
-0.034862
0.101926
0.068004
0.207571
0.065148
-0.147821
-0.240798
-0.182047
0.137119
0.525304
0.228523
0.177111
-0.041713
-0.421470
0.003391
-0.056644
-0.194984
-0.242434
-0.327453
-0.001683
0.339868
0.813710
0.672513
-0.010760
-0.740951
-1.132534
-0.677117
0.400290
0.711786
0.274358
-0.566779
-0.453947
1.484674
-0.082980
0.300175
0.181129
0.077289
0.098599
0.070428
0.013741
-0.107755
-0.034091
0.000343
-0.041071
-0.007792
0.036942
0.099106
0.014760
0.112425
0.096886
0.119715
0.153592
0.086118
0.126528
0.070839
-0.109633
-0.304740
-0.397071
-0.468379
-0.244888
-0.143806
0.090386
0.039683
0.251425
0.483792
0.217140
0.188577
0.131210
-0.225267
-0.460566
-0.435494
-0.322938
-0.219863
-0.119034
-0.040362
-0.049610
-0.052226
-0.097838
-0.244209
-0.077587
-0.186721
-0.197465
-0.041426
0.023784
0.171881
0.176636
0.211291
0.187164
-0.046411
-0.166837
-0.092123
0.380728
0.350962
-0.443761
0.216633
0.180605
0.165933
0.031288
0.052230
-0.051175
0.000731
0.016611
-0.068540
-0.126478
0.000076
0.045303
0.066479
0.129917
-0.014967
0.027236
0.071034
0.097919
0.100968
0.145602
0.078050
0.055900
-0.029764
0.162337
0.061258
0.138123
0.201052
-0.013594
0.047194
0.057135
0.211040
0.152733
0.041188
-0.026136
-0.016942
0.006783
0.025737
0.217478
0.045577
0.094058
0.023509
0.207127
0.063308
0.166041
0.090637
0.286310
0.295782
0.049432
-0.244053
-0.324229
-0.200428
0.235883
0.450287
0.349715
-0.119189
-0.747934
-0.549142
-0.238157
-1.779985
weigvec 606
0.226844
-0.570140
0.254400
-0.965216
0.174675
0.631514
0.480644
0.461559
0.078371
-0.147179
-0.201400
0.007472
-1.224786
-0.148589
-0.854167
0.280772
0.296787
0.373513
0.590143
-0.242404
-0.026013
0.679183
0.691545
-0.658995
0.129994
0.778814
-1.167641
0.193512
-0.787913
1.069620
0.566715
0.102284
-0.187886
-0.294744
-0.226924
-0.176182
0.145338
-0.472141
0.432391
0.536287
-0.884236
-0.057992
0.143865
-0.558777
0.157140
0.452663
1.171276
-0.042310
0.688898
-0.182637
-0.370318
-0.568048
0.016301
1.256345
0.242637
1.070135
-0.756062
-0.275757
-0.391895
-0.282181
0.999569
-0.729309
0.167629
0.497304
0.458586
0.310718
0.120615
-0.290361
-0.062635
-0.813152
0.148343
0.362236
-0.999283
-0.019767
1.430601
0.635930
-0.676074
-0.172604
-0.423377
0.989805
-0.449317
-0.665070
0.675564
0.682999
-0.430077
0.378604
0.198105
-0.106683
0.104663
0.932090
-0.490885
-0.201951
0.639862
0.297624
-1.032530
0.115411
0.580002
0.374368
0.168809
0.286784
-0.920828
-0.723479
-0.439091
0.050333
0.879180
-0.329242
0.808381
-0.708502
-0.031542
-0.002281
0.061026
-0.051329
-0.019514
-0.330294
-0.229163
0.781756
0.186918
0.053949
-0.204521
-0.574494
0.293076
-0.103852
-0.088836
-0.536617
-0.449288
0.195094
-0.763064
0.789926
-0.369712
1.277722
-0.263124
-0.334668
-0.060833
0.018792
0.449274
0.958936
-0.004578
0.316084
1.900108
0.119349
-0.397756
1.059829
-0.251760
0.043111
0.525024
-0.230389
0.275050
-0.599450
-0.122353
-0.170291
-0.145196
0.666533
0.082052
0.641619
-1.189068
0.396932
0.434841
0.751528
-0.306833
-0.084590
-0.086550
-1.256951
0.680444
0.194211
2.214503
0.138020
-0.134950
0.192183
0.021835
0.396998
0.493927
-0.436400
0.279199
0.731549
-1.337765
-1.389744
0.861940
-1.439236
-0.090756
0.144260
-1.468067
0.008100
-1.293461
-0.408568
-1.416219
0.087777
0.266199
-0.288816
0.046427
-0.299098
-0.755153
-0.872757
-0.087152
0.643731
0.084397
-1.414112
0.512347
-0.192573
-0.099630
-0.588204
0.181002
0.671449
0.234697
-0.253773
0.269618
-0.349700
1.869310
0.305450
0.776628
0.335350
0.148921
0.088215
-0.120675
-0.140539
-0.167366
-0.484046
-0.559408
0.152714
0.265511
0.779880
0.472555
-0.095695
-0.176143
0.014882
0.389571
-0.272414
-0.041946
0.927643
-0.506470
-0.672667
-0.582740
-0.579207
0.492658
-0.142780
0.498699
-0.285118
-0.103511
-0.898174
-0.063276
-1.389139
0.205068
-0.638471
-0.380726
0.096351
-0.156754
-0.595124
0.170848
0.027134
0.971129
-0.092672
0.560512
0.068275
-0.362735
-0.055340
-0.339173
0.923471
0.069236
-0.565534
-0.225600
1.144039
0.490646
0.053242
1.117856
-0.523296
-0.234458
-0.021830
-0.055973
-0.204194
0.125462
0.228684
-0.323527
-0.356931
0.116128
-0.014938
-0.465189
0.232828
1.213458
0.301054
0.549919
-0.170987
0.365780
1.145314
-0.092245
0.360492
-0.704492
0.309021
-0.100921
0.277734
0.163270
-0.162868
0.512611
0.848894
0.872978
0.235903
0.891106
-0.024398
0.103148
-0.031745
0.216886
0.550275
-0.949739
0.057654
-0.614657
-1.694269
0.140760
-0.028214
0.211841
0.202830
-0.266887
-0.999286
0.150280
-0.720538
-0.041636
-0.127718
0.125819
1.396653
0.470988
0.228026
0.081181
0.066711
-0.477199
0.021885
0.342024
0.087439
0.254218
-0.077964
-0.615610
-0.349148
-0.670044
-0.060245
-0.539701
0.185192
-0.038808
-0.463317
-0.317656
0.065581
0.262110
0.435087
1.093426
0.358145
-1.043833
0.201637
0.216277
0.315881
0.163745
0.139999
0.589051
-0.352062
0.214335
-0.557267
0.133427
-0.244001
-0.169510
0.190772
-0.562060
0.031039
-0.372435
0.459731
-1.537438
-0.027035
-1.336745
-0.420212
0.574531
-0.148753
0.060255
0.090868
-0.692167
0.067230
-0.051690
0.288574
-0.401792
0.240799
-0.012357
0.067135
0.400339
0.054378
0.856378
0.433374
-0.460859
-0.478057
0.142532
0.123764
0.343783
-0.713996
-0.491964
0.109238
0.438173
-0.099628
-0.060579
-0.415516
0.086313
0.270199
-0.807152
-0.308053
-0.275286
-0.746708
0.758110
-0.675763
0.379550
0.037776
-0.074901
0.167015
-0.031257
-0.071854
0.576411
-0.040512
0.220471
0.536658
-0.368388
-0.829731
-0.191835
-0.204042
0.494324
0.036617
0.080180
0.015572
-0.959231
-0.382756
0.537114
0.086665
0.285360
-0.143828
-0.291909
0.452276
0.176856
-0.269261
-0.504061
-0.053391
0.607533
0.302258
0.817758
1.378301
0.673098
-0.682801
-0.640400
0.503811
-0.235849
0.608719
0.607953
0.179417
0.180612
0.631707
0.072315
-0.660514
0.410722
0.735930
-0.202642
0.346440
0.448995
0.066189
-0.697778
-0.115400
0.126562
0.240088
0.331322
0.010918
0.506447
0.208070
-0.019454
1.061745
0.708953
-0.747157
-1.460871
-0.004788
-1.009795
0.736292
-0.324496
-1.398673
0.652847
-0.362909
0.106234
0.606067
0.251137
0.619917
-0.708727
0.156948
0.400085
0.426128
-1.273933
-1.959842
-1.470367
-0.120719
0.068183
-0.961338
0.719760
-1.255629
-0.313650
0.496845
0.712725
0.427328
0.534049
0.205408
0.266691
-0.115507
-1.418456
0.313508
-0.710635
-0.360985
-0.883508
0.146183
-0.238729
-0.025737
-0.143185
0.778559
0.530923
1.207708
1.195385
-0.721871
-0.132175
-1.399781
-0.627040
0.589541
-0.736693
-0.073122
-0.070954
0.018632
0.341789
1.208475
0.715159
-0.350893
-0.689870
-0.743349
-0.165622
-0.040690
-0.662825
0.153577
-0.390862
0.339605
2.143934
-0.436856
-0.308181
0.116909
-0.019979
-0.530131
0.609829
0.432103
-0.210722
-0.291220
-0.883033
-1.492629
-0.120723
-0.792689
0.396384
-1.061520
0.951679
-0.553399
-0.794021
0.091667
-0.296112
-0.212283
-1.086081
-0.175123
0.092635
-0.643790
-0.039098
-0.420804
1.049408
-0.859919
-0.642569
-1.149736
-0.314713
-0.116960
1.361328
1.712087
-0.317223
0.379335
-0.131111
0.099638
-0.290153
-1.004135
0.319158
-0.786285
-0.046511
-0.642415
-0.070051
0.675957
-1.023512
0.201268
-0.255098
-0.292014
0.807298
3.545393
0.149969
-0.092471
0.021966
0.668593
3.666515
0.777257
-0.494341
-0.113019
-1.009910
0.126739
0.124057
-0.886438
0.004323
2.337026
0.034317
-0.582794
-0.770591
3.986068
-1.135416
-0.324895
-0.609720
1.163120
-1.043263
0.477448
biasvec 101
-3.801418
-4.196683
-4.574373
-6.430332
-6.249997
-5.000611
-5.398555
-4.610347
-3.989921
-4.185381
-4.172502
-3.843210
-5.670697
-3.964595
-5.956461
-4.568434
-4.628389
-4.186985
-4.960795
-4.235752
-4.067585
-4.469155
-4.629008
-6.116526
-3.958741
-5.455110
-6.041928
-0.594871
-6.887969
-5.133892
-4.972547
-3.961499
-4.131530
-5.583841
-4.592452
-5.362691
-4.779075
-5.535258
-5.259721
-4.205339
-6.727544
-5.544266
-3.978657
-4.503011
-4.015400
-4.357146
-6.781966
-3.955273
-5.090928
-3.898934
-5.817328
-5.202779
-4.742128
-5.309793
-4.945136
-6.571216
-5.018465
-6.063627
-4.230379
-4.006830
-0.086718
-4.862238
-3.949407
-3.128848
-4.963187
-3.821338
-4.101686
-4.096576
-5.011737
-5.688538
-4.556384
-5.677074
-5.556904
-3.768800
-6.837092
-4.858520
-4.349630
-3.900873
-3.912242
0.643085
-2.412971
-4.019717
-4.402093
-3.402924
-4.830923
-4.283207
-3.873280
-4.153834
-4.304940
-5.687886
-3.585021
-3.950363
-4.764475
-3.194552
-3.970851
-5.759261
-4.112649
-4.630722
-4.182056
-4.670634
-4.679358
biasvec 6
-5.183675
-6.122738
-4.532796
-3.969289
-2.676015
-1.354583
