60 101 6
weigvec 6060
-0.045037
0.071804
-0.071396
0.079198
0.021162
0.058650
0.035047
-0.025857
0.089560
0.081455
0.036210
0.025641
0.104155
0.006764
0.023785
0.082398
0.074342
0.005522
0.027415
-0.101634
-0.031470
-0.103933
-0.015090
-0.046685
-0.006840
0.077659
0.072590
-0.056360
-0.029991
-0.017924
0.137970
0.053403
0.101166
-0.056567
-0.082278
0.090485
-0.112714
-0.109578
-0.056471
-0.078210
-0.021109
-0.002687
-0.158431
-0.231059
-0.229196
-0.115797
-0.195337
0.005751
0.044862
-0.033946
0.070539
0.002602
0.076070
0.172081
0.109923
0.133065
0.040899
0.040753
0.034549
0.072882
1.556000
-0.547186
-0.482671
0.291584
0.274340
0.147437
0.014618
0.211435
0.154557
0.108513
-0.043640
0.113505
0.172913
0.128072
0.167564
-0.005252
0.162489
0.170010
0.100957
0.260747
0.200629
0.131052
0.159288
0.136712
0.061842
0.172883
0.098737
0.065238
0.107457
0.165193
0.007519
0.089686
0.066574
-0.086621
0.009511
0.060039
0.143474
0.079274
-0.157148
-0.012702
-0.068423
-0.111594
0.115585
-0.177767
-0.366772
-0.404148
-0.110058
-0.177325
-0.298388
-0.403345
-0.313992
-0.278448
-0.139772
-0.017379
-0.133156
-0.155392
0.401476
0.783233
0.324045
-2.404631
-0.093160
-0.035189
-0.137381
-0.169112
-0.087224
-0.012774
0.019939
-0.088251
0.105449
0.130501
0.125290
0.053092
0.205537
0.191731
0.233364
0.166965
0.226981
0.203040
0.078038
0.014537
-0.040249
-0.027524
-0.002233
-0.074714
-0.155523
-0.012316
-0.179560
-0.065559
-0.045566
0.029257
-0.003738
0.008166
0.026142
-0.056082
-0.044258
-0.184113
-0.082340
-0.180563
0.021688
0.046567
0.063108
0.174640
0.136472
0.049228
-0.001964
0.097119
0.090635
0.101145
0.024994
0.114212
0.167616
0.087691
0.079313
0.044137
-0.041635
-0.002921
-0.022272
-0.011350
-0.098243
0.005365
0.327980
0.102779
0.060715
0.001418
-0.150584
-0.435019
-0.414696
-0.484144
-0.616064
-0.417084
-0.323444
-0.093843
0.150690
0.095293
0.101997
0.060315
0.092752
0.110321
0.046484
0.001135
-0.089750
-0.039498
-0.116431
-0.184980
-0.109044
-0.030846
-0.175049
-0.114207
-0.058596
-0.053014
0.115673
0.109930
0.004446
0.088469
-0.156292
0.146746
0.209127
0.084240
-0.186772
-0.054480
0.161173
0.169007
0.020489
0.051997
0.033742
0.093028
0.062824
0.083639
0.203623
0.219661
0.175655
0.175067
0.174499
0.120235
0.117309
-0.081365
-0.162996
0.164685
0.593502
-0.277403
0.027687
-0.027055
0.095872
-0.040404
0.095410
0.061927
0.046569
0.001503
-0.046159
0.037169
0.185756
0.058044
0.096196
-0.030811
0.019097
0.094441
0.053275
0.098978
0.129853
0.070894
0.025868
0.085546
-0.016845
0.123395
0.094538
0.190206
0.160211
0.062383
0.115170
0.037413
0.018732
0.092040
0.057570
0.006981
-0.218403
-0.369826
-0.375136
-0.235596
-0.341681
-0.354725
-0.278465
-0.053866
-0.020269
0.066657
0.051057
0.043216
0.039395
-0.016677
-0.034908
-0.020962
0.119695
0.087506
0.142423
0.282412
0.247233
0.194770
0.145381
0.398464
0.035538
-1.332837
0.425697
0.433535
0.358844
0.319436
0.241676
0.163519
-0.077355
-0.050366
-0.055432
-0.015428
-0.024759
-0.035456
0.049708
0.082277
0.063267
-0.007453
-0.107283
-0.126796
-0.019398
0.040120
-0.027556
-0.177916
-0.016421
-0.019011
-0.060242
-0.085142
-0.016425
-0.005432
-0.128456
-0.052554
-0.070069
-0.158875
-0.066564
-0.039655
0.030564
0.014483
0.010644
0.027054
-0.082377
0.060949
0.079562
0.069221
0.012289
0.024193
0.033515
0.064164
0.036558
0.145810
-0.104287
-0.315801
-0.554556
-0.501751
-0.199560
0.325428
0.593565
0.451235
-0.021530
-0.598352
-0.683926
0.118548
0.985576
-0.488501
-0.091246
0.451723
0.346382
0.121778
-0.088387
0.060206
0.335947
0.130291
0.122202
-0.017171
0.096187
0.163755
0.000142
0.046952
0.130921
0.131175
0.038501
0.221790
0.059008
0.094574
0.142565
-0.004483
0.027832
0.057885
0.033277
0.073811
0.056525
0.109691
0.139297
0.021302
0.040545
-0.004510
0.159377
0.010809
-0.003032
-0.001187
0.055293
0.079003
-0.102494
0.024137
0.101667
0.016045
-0.155527
-0.191294
0.136538
0.066186
-0.001979
0.012019
0.025880
0.238678
0.328455
0.234533
-0.101100
-0.396462
-0.443255
-0.451500
-0.978109
-2.225874
-0.076156
-0.098424
-0.028613
-0.030894
-0.028447
-0.051618
0.005158
0.078717
0.085166
0.086429
0.186071
0.155848
0.168535
0.101192
0.102379
0.149421
0.093564
0.121976
0.148904
0.042055
0.082229
0.115784
0.087102
0.068845
0.055253
-0.099729
0.002025
-0.099392
-0.107435
-0.141094
-0.053520
-0.045330
-0.160577
-0.194513
-0.181894
-0.129949
-0.179568
-0.058329
0.024781
-0.028166
0.046773
0.206023
0.075537
0.053297
0.187369
0.132952
0.103663
0.073305
0.017095
-0.110730
-0.322346
-0.316821
-0.230613
-0.111736
-0.211118
-0.015087
0.026705
0.116118
-0.087426
-0.020557
-0.051440
0.023526
-0.125570
-0.082672
-0.089064
-0.148141
-0.004310
-0.121152
-0.111919
0.010941
-0.147020
-0.010861
0.063293
0.012807
0.163054
0.026831
0.094741
0.192302
0.101101
0.216082
0.148261
0.176098
0.151362
-0.018205
0.018573
0.094332
-0.034502
-0.044705
-0.132948
-0.121323
-0.012275
0.016942
0.065040
-0.097585
-0.071612
0.115566
0.078893
0.034467
-0.171946
-0.273521
-0.225476
-0.238490
-0.168439
-0.073645
0.041778
0.145857
0.178023
0.037664
-0.015677
0.079822
-0.013304
0.052044
0.153453
0.111743
0.230068
0.140712
0.108110
0.048543
-0.031640
-0.046051
-0.087257
-0.059735
-0.037328
-0.031085
0.007336
0.223339
0.082735
0.061551
-0.102081
-0.110845
-0.159787
-0.056672
-0.082363
0.056992
0.102709
-0.037803
0.081126
-0.228500
-0.328585
-0.495421
-0.514997
-0.402788
-0.152216
0.017227
0.162694
0.092484
0.148651
-0.052990
0.040131
0.009455
0.037739
0.011470
0.144612
0.072964
0.033274
0.163792
0.228741
0.004537
0.125163
0.048923
0.131274
0.172522
-0.038508
0.006369
-0.107674
-0.176503
-0.218026
-0.123022
0.097914
0.126468
0.088444
0.096706
0.195243
0.152619
0.209370
0.046831
0.019407
0.221379
0.247311
-0.508684
0.008217
-0.002553
0.002894
0.054031
-0.045300
-0.014660
-0.080734
-0.060028
0.070798
0.007737
0.058470
0.057329
0.047179
-0.020828
0.101530
-0.042699
0.057673
0.076555
-0.023499
-0.029477
-0.032764
-0.000813
0.000103
-0.109410
-0.019878
-0.007296
-0.050692
0.006881
-0.040724
0.030541
-0.031944
0.086647
0.015060
-0.047940
-0.019449
-0.085347
0.021610
-0.077298
0.059568
-0.000262
-0.016893
-0.073690
0.024268
-0.030349
0.021941
0.057403
0.058112
-0.009462
0.090194
-0.062395
-0.041443
0.054510
0.065992
0.096715
0.003146
0.081966
-0.028860
0.037999
-0.044663
-0.013974
0.037425
0.059024
0.031128
0.117245
0.014653
0.080651
0.034421
-0.002427
0.106086
0.088996
-0.036291
0.068126
0.084683
0.038142
-0.089925
-0.098312
-0.043197
-0.084584
0.066491
0.038791
0.030396
0.005034
0.001751
-0.054105
0.087751
0.070754
-0.097221
-0.074626
-0.030050
0.081767
0.114180
0.044072
-0.025849
0.045031
-0.065513
0.072907
-0.136625
-0.122107
-0.008034
-0.162589
-0.047453
-0.174774
-0.249372
-0.267266
-0.140396
0.068939
0.073026
0.052042
0.044690
0.029068
0.014179
-0.022795
0.078700
0.111125
0.239281
0.089104
0.082629
0.035815
-0.012185
0.054521
-0.185517
-0.123795
-0.082462
-0.098047
-0.116116
0.036942
-0.095656
-0.075856
-0.001418
-0.083200
-0.049544
-0.064185
-0.076149
-0.081708
-0.088950
-0.102243
0.023328
-0.048681
-0.034486
0.020439
0.035556
-0.093583
0.053888
-0.039044
-0.107649
-0.047790
-0.122303
-0.192329
-0.153337
-0.096903
0.043592
-0.016387
-0.052501
-0.187017
0.014370
-0.234405
-0.163254
0.121073
0.093020
-0.098813
-0.099055
-0.041376
0.204585
0.099564
0.079906
0.095302
0.106296
0.148741
-0.203681
-0.252867
-0.088866
0.018257
0.114120
0.215607
0.194130
0.407739
0.419954
0.421236
0.124730
0.101305
0.047826
0.063955
-0.091581
0.088073
0.057201
-0.005712
0.090389
-0.070223
-0.084210
0.083813
-0.044236
0.082365
-0.020704
-0.087694
0.028751
0.029707
-0.085821
-0.006984
0.062638
-0.005160
-0.064127
-0.053154
0.090991
0.055402
-0.044730
-0.039232
-0.067775
0.090742
0.065410
-0.059190
0.055624
-0.004870
-0.037594
0.081713
0.053801
0.045314
-0.053566
-0.062635
0.028411
-0.043713
-0.032452
0.070669
0.063832
0.020837
-0.124500
-0.102878
0.056750
-0.132976
-0.033618
-0.053595
-0.065912
-0.087117
0.027078
0.004251
0.057455
-0.004413
-0.044840
-0.071737
0.042536
0.103076
-0.583056
-0.693948
-0.736108
-0.732411
-0.544270
-0.370125
-0.076970
-0.016004
0.029174
0.069394
0.229572
0.228927
0.116438
-0.107038
-0.134410
-0.170660
-0.036006
-0.134214
-0.041784
-0.059313
0.017306
0.038773
0.012427
0.069723
0.073110
0.140229
0.194383
-0.028918
0.210456
-0.007700
0.085658
0.066356
0.079330
0.049816
-0.028401
0.011666
0.170627
0.020543
-0.080670
-0.042970
0.176724
0.160203
-0.105547
0.007868
0.044272
0.045416
0.029716
0.187154
0.246356
0.265864
0.176818
0.105918
0.235172
0.478609
0.318247
0.056792
-0.247353
0.174364
0.425680
-0.366777
0.008952
-0.053097
0.171111
0.098634
0.100070
0.008330
0.067373
0.067062
0.072700
-0.010744
-0.104964
0.090624
0.071098
0.059782
0.142807
0.111691
-0.053677
0.056598
-0.036803
0.066611
-0.014650
0.009261
0.086247
0.094773
0.138576
0.146740
0.117215
0.130352
0.067969
0.037812
-0.027616
-0.011180
-0.108169
-0.007596
-0.055019
0.155251
0.177350
0.308223
0.266324
0.155918
0.005229
-0.059651
-0.071199
-0.061333
-0.171530
-0.005979
0.110937
0.154797
0.141779
-0.045056
0.017584
-0.014039
-0.039504
-0.082191
0.034088
-0.150533
-0.072991
-0.126169
-0.499935
-0.958081
-1.157601
-0.654793
-0.259510
0.024570
0.285994
0.347281
0.095044
-0.008348
0.004984
-0.035714
-0.099197
-0.045927
-0.111718
0.113390
0.082437
0.121018
0.094311
0.134359
0.103408
0.100468
0.011629
-0.027601
-0.039858
0.037070
0.008347
0.096561
-0.054010
-0.056777
-0.013243
-0.014188
0.006130
0.001368
-0.023563
0.007549
-0.009455
0.209387
0.247625
0.301409
0.000237
-0.191574
-0.151582
-0.234980
-0.116466
0.028975
0.241563
0.347256
0.118259
0.084565
-0.068789
-0.184939
-0.023705
0.111960
-0.034888
0.017771
-0.011762
0.197703
-0.001014
0.060769
0.170001
-0.076066
-0.083954
0.042937
0.048399
-0.026204
-0.072558
-0.032727
0.101277
-0.049238
0.049089
-0.005137
-0.025390
-0.025171
-0.076619
-0.082506
0.000356
0.085403
0.122666
0.039470
0.020051
-0.110343
-0.122780
-0.075698
-0.135737
-0.095462
-0.016054
-0.020301
0.102958
0.017466
0.044243
0.030083
-0.027764
-0.043867
-0.091637
-0.119860
0.069341
-0.082648
-0.074857
0.038197
0.021877
0.049192
-0.023969
-0.019639
-0.003332
-0.014591
-0.030940
-0.022962
0.067312
-0.098937
0.060009
-0.084948
-0.042285
-0.055563
0.032931
0.035047
-0.034715
0.001938
0.015039
0.077881
-0.105033
-0.110175
-0.143642
-0.253355
-0.131004
-0.008678
0.005193
-0.091877
0.005489
-0.005868
-0.112724
0.027283
-0.091958
-0.054527
0.058278
0.053922
-0.001542
-0.010704
0.158156
0.018781
0.098649
0.154213
0.141612
0.081013
0.136397
0.233611
0.254882
0.239855
0.293582
0.294089
0.088535
0.177038
0.052841
0.176858
0.108346
0.055806
0.026833
-0.034308
-0.059715
-0.015456
-0.165217
-0.194941
-0.195811
-0.113454
0.045508
0.079238
0.035555
0.014938
0.175103
0.035249
-0.067649
-0.121103
-0.181333
-0.067110
-0.145191
-0.106578
-0.306273
-0.276082
-0.178375
-0.053099
0.003754
-0.000961
-0.066990
0.137527
0.077988
0.124587
0.099576
0.008160
-0.011089
0.009555
0.024278
-0.110972
0.067056
0.103665
0.199675
0.210323
0.193194
0.190388
-0.127946
-0.377167
-0.678027
-0.766328
-0.545276
-0.172945
0.062268
0.244829
0.146444
-0.009590
-0.061578
-0.232216
0.108715
-0.058399
-0.106226
0.251127
0.152817
-0.089453
-0.537624
-0.248145
0.089104
0.171251
-0.338397
-0.311776
0.222439
0.281115
0.050038
-0.078327
-0.127566
0.089819
0.105566
0.127349
0.083182
0.068981
0.097218
-0.044637
-0.112271
-0.020840
0.086061
0.034573
-0.085488
0.151211
0.410208
0.190407
-0.009304
0.034521
-0.051249
-0.016500
0.010082
-0.022685
0.070872
-0.060034
0.033521
0.064499
0.025240
0.104794
0.011885
0.074177
0.032480
0.052325
-0.050631
0.046492
0.120268
-0.001761
0.047746
0.005292
-0.062130
-0.117848
0.057554
-0.062056
-0.010685
-0.049653
-0.111905
-0.057188
-0.033368
0.011298
0.027863
-0.035344
-0.065180
0.092480
0.095103
-0.082736
0.030478
-0.144739
-0.094984
-0.141758
0.064978
0.056798
0.101465
-0.010537
0.056984
0.107203
-0.004583
0.014531
0.109583
0.050074
0.045308
-0.036682
0.152604
0.011678
-0.065301
-0.065123
0.039457
0.087659
0.247215
0.174493
0.171194
0.124592
0.143449
0.136138
0.064416
0.027220
-0.101114
-0.015925
-0.046111
-0.090272
0.005358
-0.040496
0.004068
-0.100655
-0.048026
-0.076501
-0.085339
-0.136726
-0.140757
-0.075737
-0.154679
-0.116069
-0.115267
-0.004658
-0.035960
0.060830
0.176065
0.154454
0.209309
0.113214
0.263628
0.353882
0.220859
0.330925
0.112415
-0.013034
0.005715
-0.134207
-0.097426
-0.171030
-0.092055
-0.014273
-0.059920
0.084959
-0.086767
-0.039692
-0.112036
-0.123852
-0.132311
-0.061707
-0.073153
-0.104150
-0.136053
-0.212045
-0.115533
0.089564
0.149508
0.156628
0.105151
0.011850
-0.087120
-0.123215
-0.070523
0.019772
-0.051486
-0.075233
0.015973
-0.012507
-0.011804
-0.011945
0.099396
0.179249
0.263628
0.390141
0.431667
0.421702
0.167679
0.181525
0.081143
-0.049017
-0.101960
0.007326
-0.122555
-0.149402
-0.060700
-0.100623
0.057772
-0.039697
0.013779
-0.012235
-0.066422
0.061636
0.008820
0.116640
0.071792
0.042113
0.018810
0.046276
0.001852
0.025753
-0.082141
-0.038719
0.058427
-0.014566
-0.105409
-0.125321
-0.322366
-0.399600
-0.387786
-0.247479
-0.033160
0.125330
0.044241
-0.077159
-0.139825
-0.073228
-0.170049
0.274552
0.619666
-0.085922
0.093449
0.283470
0.020735
-0.097738
-0.091870
0.083042
0.210807
0.160056
0.081502
0.289087
0.244806
0.143618
0.226302
0.169948
0.128836
0.045460
-0.062475
0.012817
0.182951
0.175237
0.102019
0.099046
0.108204
0.087301
0.115997
-0.067539
-0.070563
-0.188783
0.079183
-0.027692
0.059501
-0.131224
0.052309
-0.204255
-0.118268
-0.084172
-0.240165
-0.208341
-0.395404
-0.402531
-0.172034
0.015765
-0.290317
-0.322575
-0.163602
0.116735
0.156380
-0.254298
-0.334829
-0.038667
0.115846
0.072075
-0.075674
-0.454565
-0.439016
0.061125
0.280833
0.031286
-0.154679
-0.010212
-0.037302
-0.029075
-0.051308
-0.133644
-0.095087
-0.120704
-0.113895
-0.131889
-0.123220
0.094553
-0.064760
-0.093065
-0.086774
-0.173771
-0.267113
-0.197622
-0.232691
-0.133490
-0.011247
-0.139425
-0.070128
-0.009786
-0.024507
0.036075
-0.058428
0.114998
0.112048
0.076231
0.198280
0.111088
0.144326
0.163635
0.130900
0.113218
0.159942
0.024707
-0.129580
-0.066735
0.005990
-0.005791
0.079325
0.051059
0.024704
-0.096731
-0.046522
-0.110979
0.041780
0.090620
0.123109
-0.026181
0.084046
0.116588
0.141711
0.121423
0.117911
0.087904
0.003674
0.104221
-0.047123
-0.171317
-0.148896
-0.224975
-0.116037
-0.171979
-0.040870
0.003998
0.059602
0.003246
0.127978
0.034471
0.071674
-0.056933
-0.081246
-0.160476
-0.228666
-0.083070
-0.212725
-0.066508
-0.139616
0.042256
0.063086
0.167163
0.217155
0.264519
0.152831
0.184054
0.067950
0.035177
0.073196
0.085386
0.056113
0.237396
0.223931
0.276437
0.248216
0.128426
0.174016
0.106812
0.149464
-0.041337
0.061434
0.070842
0.115997
0.064458
0.094431
-0.058724
-0.241159
-0.330802
-0.366624
-0.260956
0.087257
0.202357
-0.064162
-0.090590
-0.018303
0.001113
-0.144068
0.270285
0.281635
0.118515
-0.162948
-0.251734
-0.434501
-0.360254
-0.427028
-0.331245
-0.091889
0.102736
0.046477
0.118487
0.094711
0.027169
0.014115
-0.010055
-0.040266
-0.061052
-0.130108
0.072090
0.071491
0.122570
-0.011006
0.146840
0.032760
0.132886
0.145704
0.026392
-0.022208
-0.003468
0.024302
-0.056341
0.162026
0.057303
0.096824
0.058759
-0.016969
0.036944
0.178365
0.176791
0.127946
0.060708
-0.008754
-0.143582
0.023820
-0.044722
0.055472
0.196443
0.081602
-0.058417
0.099661
0.113856
0.182897
0.283485
0.236726
0.064578
0.045288
-0.032386
0.079818
-0.375814
-0.643776
0.256140
0.240430
0.114711
-0.153618
-0.054071
-0.075959
0.127919
0.001753
-0.079083
-0.037977
-0.035353
-0.029459
0.102541
0.015947
-0.075529
-0.024584
-0.006926
0.033407
0.011432
-0.119344
0.030749
0.012834
-0.003726
-0.075938
-0.080586
-0.042705
0.014756
0.065248
-0.062469
0.033128
-0.038131
0.014048
-0.026708
-0.143850
0.002883
0.134367
0.004302
-0.141341
-0.172971
0.134699
0.106039
0.067026
-0.006150
0.004576
0.017980
-0.113594
-0.193645
-0.086419
-0.328276
-0.456430
0.080346
0.949277
1.786896
1.556304
0.164972
-1.094878
-0.726383
0.163650
-1.024368
0.005664
0.363646
-0.020054
-0.005699
0.126368
0.045410
0.109135
0.106038
0.043203
0.053973
0.119533
0.093581
0.149807
-0.025586
0.031124
0.053916
0.090463
-0.016136
0.183432
0.105871
0.115727
0.227860
0.116462
-0.001015
0.098749
-0.027613
-0.061411
0.100891
0.136574
0.106342
0.071726
0.090596
-0.016718
-0.060980
-0.162655
-0.003298
0.158767
0.154814
0.241978
0.068787
0.089540
0.071613
-0.086217
0.026520
0.198908
0.087778
0.134642
0.280515
0.652998
1.059281
1.062281
0.754555
0.303942
-0.244471
-0.590856
-0.677635
-0.941369
-1.321956
-1.454336
-0.953920
-0.001925
-0.159450
0.012998
-0.060937
-0.051697
-0.020819
-0.062417
-0.072051
0.014510
-0.068372
-0.013808
0.016451
0.058113
0.115066
0.096866
0.052540
0.045167
0.086602
0.044779
-0.052114
-0.027667
0.022296
0.011982
0.055112
0.084159
0.071974
-0.076086
-0.004062
-0.060827
0.045201
-0.097810
0.047171
0.075332
-0.046437
-0.000134
-0.025814
-0.096466
0.086323
0.012501
0.067199
-0.125087
-0.008954
0.055524
-0.018422
-0.151769
-0.093044
-0.113436
-0.167235
-0.133753
-0.039668
0.144505
0.106382
0.106603
0.153959
0.031690
0.011636
-0.079026
0.084980
-0.049473
0.147646
0.279317
0.136344
0.062460
0.175805
0.163997
0.014029
0.102031
0.041926
0.100202
0.049869
0.040231
-0.003066
-0.031506
-0.064992
-0.078235
0.022016
-0.041464
-0.191276
-0.119329
0.031850
0.105295
-0.045375
0.073328
-0.099762
-0.157114
-0.109269
-0.063937
-0.005746
-0.040781
-0.119213
-0.054300
0.039141
-0.040752
-0.103301
-0.124813
-0.031887
-0.213804
-0.222698
-0.111163
-0.006214
-0.120268
-0.088301
-0.153206
0.058674
0.107690
0.074087
0.079162
0.123057
0.058906
0.207726
0.216534
0.190370
0.104852
0.089790
0.061535
0.091972
0.080431
-0.030779
-0.045423
-0.123050
0.124263
0.195778
0.071382
0.188916
0.038358
0.179919
-0.013309
-0.046815
0.023600
-0.106600
-0.110613
-0.144739
0.001694
0.000287
0.057419
0.020848
0.268022
0.194189
0.298592
0.118258
-0.045353
-0.001591
-0.090731
-0.248509
-0.225789
-0.153820
-0.020618
-0.023084
0.086958
-0.079791
-0.093486
-0.102226
-0.176613
-0.178305
-0.446011
-0.410502
-0.169880
-0.201708
-0.319063
-0.324355
-0.320588
-0.085149
-0.123024
-0.135821
0.014965
-0.001576
-0.034086
0.073603
0.270585
0.193499
0.297149
0.104897
0.141318
0.058701
0.111064
-0.033386
0.090720
0.045502
0.201677
0.298328
0.242286
0.117617
-0.040412
-0.034130
0.122349
0.130918
0.062157
-0.003551
0.058772
0.032238
0.125323
0.031972
0.137522
-0.053489
0.097831
-0.022653
0.047353
0.021011
-0.000272
-0.029320
0.067485
0.031328
0.013478
0.000653
0.002869
0.085924
0.112943
0.060592
-0.071629
0.058541
-0.003314
-0.031103
0.001661
0.023054
-0.055459
0.098078
0.200394
-0.042002
0.139379
0.085465
0.119539
0.035822
-0.156206
-0.139462
-0.256649
-0.237112
-0.257078
-0.112880
0.250103
0.455395
0.571717
0.572913
0.643551
0.491954
-0.036467
-0.658425
-0.854711
-0.947483
-0.608228
-0.295223
-0.012434
0.028980
0.014396
-0.069013
0.031453
0.022028
-0.048818
0.056235
0.106148
0.098396
-0.116598
-0.073819
0.033739
0.091128
-0.016841
-0.055512
-0.012113
0.049095
0.108206
-0.083809
-0.055307
0.030465
-0.017053
0.009846
0.021528
0.051564
-0.115171
-0.044875
0.034696
0.157873
-0.089889
-0.013061
0.030144
0.174988
-0.179362
-0.305681
0.154968
0.368292
-0.132985
-0.365467
0.095016
0.522726
-0.078934
-0.346348
0.092998
0.422310
0.018314
-0.378624
-0.491166
-0.476516
-0.142846
0.739918
1.655529
1.286597
-0.558653
-1.796765
-0.932044
1.077315
1.253631
-0.550458
-0.046883
-0.040766
0.129140
0.045309
0.089694
0.074294
-0.053831
0.000657
-0.155141
-0.033079
-0.018801
0.069285
0.009807
0.066823
-0.102737
-0.066476
-0.085178
-0.089083
0.036167
0.035143
-0.100775
-0.236534
-0.319703
-0.097227
-0.019180
0.205171
0.180391
0.191053
0.103979
0.073910
0.097614
0.015413
-0.106420
0.065972
0.131692
0.117139
0.192011
0.099379
0.047573
-0.231199
-0.473838
-0.442960
-0.239834
-0.144309
0.155175
0.437508
0.432426
0.295399
0.130625
-0.044530
0.080413
0.195420
0.103887
0.150700
0.146122
-0.134040
-0.131075
0.147810
0.200063
-0.336296
0.061680
0.325762
-0.024519
-0.160483
-0.063437
0.168590
0.037148
0.033813
0.096421
0.135392
0.013254
-0.063911
0.068349
-0.096582
0.014160
-0.101625
-0.006723
0.141963
0.088653
0.233253
0.118518
-0.053983
0.040746
-0.105567
-0.117350
-0.153014
-0.027636
-0.101241
0.406954
0.224794
0.353530
0.450040
0.692068
0.502561
-0.329374
-0.682411
-0.710769
-0.722449
-0.704821
-0.504701
-0.046803
0.088333
0.410669
0.310888
0.037132
-0.067391
-0.123751
-0.136020
-0.216486
-0.282026
-0.293036
-0.207379
-0.070975
-0.123009
-0.016450
0.061130
0.130619
-0.065765
-0.021916
-0.041178
0.097318
0.251376
-0.035734
-0.074189
0.058177
0.055507
-0.031683
-0.007259
0.056871
0.002547
0.042634
0.083720
0.212635
0.016662
-0.132953
-0.083465
-0.006790
-0.008702
0.023470
0.046497
-0.045001
-0.168100
-0.063024
0.093534
0.277830
0.226224
0.247799
0.041647
-0.166940
-0.483510
-0.425544
-0.215201
0.219385
0.535486
0.568820
0.548841
0.312951
-0.186369
-0.722005
-0.961254
-0.705767
-0.486614
0.017502
0.430388
0.389561
0.186852
0.001117
-0.124424
-0.152715
-0.157154
-0.070837
-0.155775
-0.272500
-0.109191
0.060804
0.125983
0.127498
-0.024057
0.109643
-0.312037
-0.230060
0.016308
0.016713
0.003977
0.009806
0.014026
0.058591
-0.058142
0.104167
-0.057194
0.065895
0.002135
0.037185
0.078732
-0.156362
-0.115409
-0.058227
-0.042561
-0.052059
0.038769
-0.016471
0.012560
-0.008190
-0.067442
-0.053376
-0.100610
-0.019150
-0.004953
0.030122
0.178316
0.027827
0.105066
0.035565
-0.088728
-0.134698
-0.025695
0.072317
0.008980
-0.283020
-0.049470
0.256611
0.037098
0.201002
0.417724
0.589514
0.374115
-0.097215
-0.633408
-1.021404
-1.263461
-1.097594
-0.234498
0.457224
0.832693
0.806533
0.635659
0.473106
-0.123663
-0.435638
-0.292157
0.188895
0.400752
0.100977
-0.131647
-0.004515
-0.047725
0.057713
-0.112645
-0.021529
0.096837
0.076454
0.048441
0.029763
0.008161
-0.145093
-0.193485
-0.020255
-0.105984
-0.055910
-0.005282
-0.073770
-0.066236
-0.119118
-0.024086
0.048788
0.106657
0.071486
0.330077
0.434016
0.296598
0.123052
0.087030
-0.165859
-0.231091
-0.397310
-0.173774
0.021620
-0.051893
-0.198546
-0.133338
0.357370
-0.070178
-0.006895
0.008480
0.083191
0.234698
-0.086523
-0.144337
-0.366176
-0.437049
-0.370365
0.053504
0.107168
0.128522
0.186363
0.050957
-0.118416
-0.278876
-0.100173
0.350854
-0.276152
0.047651
0.018208
-0.034525
-0.118664
0.078015
0.016016
-0.060019
-0.112178
-0.012572
0.062593
0.027703
-0.028375
-0.052096
-0.041462
0.031148
0.009691
-0.169741
-0.034708
0.009922
0.093391
-0.039849
-0.011229
-0.100710
-0.024734
0.046908
-0.011596
-0.094249
-0.043636
0.026323
-0.076704
-0.032381
-0.067282
0.152426
-0.066958
-0.127220
-0.095700
0.206950
-0.010169
-0.213359
0.149338
-0.205265
0.046804
0.061697
-0.098057
0.102373
-0.057542
0.136369
0.374112
0.109655
-0.630617
-1.107086
-0.668586
0.666649
1.869442
1.542511
-0.099899
-1.849905
-1.560236
1.563934
-0.013712
0.344363
0.183741
0.176335
0.215582
0.323068
0.224024
0.105875
-0.059925
-0.286039
-0.374861
-0.585094
-0.595462
-0.485012
-0.436798
-0.075802
-0.000003
0.193354
0.161085
0.176776
0.120307
0.114665
-0.075820
-0.107530
-0.157158
-0.080436
0.054788
-0.007241
0.157578
-0.043725
-0.115525
0.002450
0.026491
0.116437
0.001485
0.072099
0.319579
0.303929
0.011274
0.018406
0.319145
0.151806
0.111487
-0.024293
-0.003931
-0.184322
-0.340456
-0.349970
-0.129920
-0.002379
0.069901
0.022925
0.030290
0.119114
0.156608
-0.105408
-0.039350
0.151405
0.494245
-0.010952
-0.199331
-0.127692
-0.120972
-0.165284
-0.121127
-0.074570
-0.131199
-0.083511
0.019806
-0.067520
0.072702
0.043724
0.001955
-0.019133
-0.072553
0.122215
-0.020054
0.043151
0.063055
0.079405
0.016690
0.089654
0.002696
0.017175
0.053668
0.073552
0.246341
0.124080
0.205347
0.013543
0.060233
0.047836
0.091028
-0.082253
-0.143921
-0.085825
-0.094444
-0.050814
-0.113226
-0.126470
-0.188963
-0.178073
-0.251728
-0.162835
-0.257321
-0.376962
-0.539693
-0.251428
-0.016509
0.141215
0.206835
0.258480
0.290747
0.480133
0.265214
0.018470
0.031358
0.064807
0.081410
0.259972
0.052989
0.015770
0.001689
0.046533
-0.054754
-0.064912
-0.038462
0.083290
-0.044405
-0.020681
-0.021041
0.016556
-0.078775
-0.036454
-0.001928
-0.011661
0.041539
-0.044278
-0.030047
0.019577
-0.096680
0.034070
0.058374
-0.058548
0.076048
-0.021987
-0.098883
0.078364
-0.076477
0.022234
-0.016604
0.009263
-0.048297
0.016173
-0.018229
-0.007049
-0.053806
0.040900
0.050699
0.076605
0.000758
-0.014723
0.024061
0.031186
-0.010047
-0.012771
0.064300
0.016508
-0.028534
0.002702
-0.111092
-0.016931
-0.109459
-0.164962
0.022617
0.024676
0.003145
0.007815
-0.044694
0.115566
0.058837
0.303864
0.007827
-0.016674
0.074012
0.022593
0.067707
0.005387
-0.118913
-0.021622
-0.082410
0.030353
0.200185
0.142677
0.093332
0.086393
-0.057781
-0.116643
-0.141734
-0.127126
0.157682
0.219504
0.121376
-0.010136
-0.055575
-0.058140
-0.010726
0.082604
0.037463
0.128428
0.382892
-0.051776
-0.189920
-0.018295
0.130379
0.108998
0.157512
0.324051
0.644686
0.264672
-0.555814
-0.942474
-1.126040
-0.943881
-0.358073
0.278786
0.377273
0.482684
0.331962
0.135611
-0.135699
-0.355558
-0.274658
-0.182571
0.158465
0.186413
-0.090937
-0.237472
0.007745
0.485058
0.041704
-0.073967
0.027450
-0.076769
0.007361
0.064586
-0.010770
-0.059799
-0.084362
-0.035846
-0.052107
-0.029377
0.112397
0.074692
-0.066295
0.101941
-0.056580
0.084039
-0.088501
0.009682
0.069792
-0.014639
-0.062927
0.002390
0.060570
-0.088173
-0.111830
-0.133458
-0.087839
0.046295
0.033512
0.023956
0.033622
0.023301
0.003834
0.064261
0.035698
0.000570
-0.066366
-0.020578
-0.108852
-0.162012
-0.201161
-0.123082
-0.096196
-0.076117
-0.025056
0.046728
0.072356
0.116689
0.019997
0.098639
-0.014184
0.164617
0.172863
0.042305
0.035315
0.021305
-0.026223
-0.001085
-0.210961
-0.022164
0.050385
0.083039
0.030402
0.051676
0.098959
0.072339
-0.001897
-0.007608
-0.022071
-0.127778
-0.067739
-0.125255
-0.222011
-0.085903
-0.055261
-0.174194
-0.078696
0.072210
-0.025043
-0.002853
-0.042681
0.055586
-0.138890
-0.157928
-0.168765
-0.185266
-0.202178
-0.134031
-0.243251
-0.173606
-0.105439
-0.075303
-0.073416
0.013653
0.194335
0.117657
0.114052
0.101566
0.291537
0.015059
0.078135
0.160716
0.184674
0.180981
0.255205
0.199246
0.094177
-0.077428
-0.133635
-0.139514
-0.177376
-0.147229
-0.219200
0.030096
0.142387
0.189530
0.181342
0.209006
0.002328
0.064997
-0.074707
-0.027432
-0.056781
-0.232596
-0.085037
-0.130214
-0.099620
0.024807
0.062064
0.181232
0.088318
0.194738
0.146972
0.150385
0.022402
-0.033601
-0.005475
-0.125241
-0.026427
-0.178344
-0.212040
-0.161914
-0.213580
-0.137909
-0.051355
-0.083292
0.060511
0.026371
0.025421
-0.060588
0.049885
0.040269
-0.060695
-0.023663
-0.019940
0.121329
0.014319
-0.067195
0.061381
0.016294
0.041853
0.114452
0.107996
0.147845
0.024632
0.059387
0.129804
0.085976
-0.025611
-0.086483
-0.055809
-0.124384
-0.182978
-0.134399
-0.043900
0.067885
0.181541
0.152609
0.122419
0.017565
0.046129
0.010965
0.050814
-0.060289
0.034719
-0.097883
0.034086
0.016788
-0.040046
0.034755
-0.004907
-0.035072
0.105801
-0.064668
-0.069792
-0.082152
0.008358
-0.056630
-0.048425
0.018708
0.038421
-0.037160
0.129031
0.097274
0.046772
-0.055318
0.072676
-0.050955
-0.119939
0.037930
-0.073034
0.105842
0.071224
0.092944
-0.069452
0.009428
0.134637
0.127049
0.176483
0.258466
0.126988
0.029083
-0.022249
-0.044851
0.131604
0.134797
0.094510
0.023861
-0.087761
-0.018309
-0.038714
-0.048842
-0.106197
-0.088057
-0.260722
-0.245854
-0.428662
-0.511523
0.014464
0.015072
0.006055
-0.091620
0.116713
0.028909
0.007511
-0.018885
0.054989
-0.038874
-0.114894
-0.023291
-0.046739
-0.078178
-0.093791
0.023089
-0.055378
0.021654
0.066019
-0.088121
-0.160998
-0.066440
-0.015081
0.032448
0.085942
0.101464
0.115574
-0.014592
-0.083710
-0.191698
0.052683
0.198998
0.060223
0.035888
-0.203451
-0.046344
0.076247
0.002944
0.104760
0.448259
0.642794
0.389564
-0.019254
-0.471797
-0.593554
-0.853922
-0.987209
-0.640701
0.132117
0.504857
0.518807
0.317437
0.051929
0.158620
0.130243
0.074541
-0.052583
-0.049007
0.173967
0.491980
0.047613
0.027673
0.013231
0.032493
-0.071037
-0.100538
-0.009222
-0.100249
-0.194472
-0.186009
-0.013375
-0.091317
0.088876
0.057050
0.110373
0.021338
0.138897
0.125713
0.058120
0.151314
0.025908
-0.089456
-0.014810
0.008379
-0.026310
0.089910
0.011213
0.071625
0.005927
0.078157
-0.010222
-0.014919
0.168740
0.102503
0.110041
-0.002882
0.039867
-0.072577
-0.299241
-0.365828
-0.232696
-0.170809
-0.068039
-0.007991
0.018369
-0.035807
0.013528
-0.098183
-0.016438
0.072678
0.073987
0.076523
0.021827
0.162523
0.192593
0.172487
0.114883
0.092079
0.173198
0.038781
-0.054474
0.347619
-0.013959
0.008855
-0.023902
0.138292
-0.051491
-0.108483
0.105428
0.194092
0.198987
0.147369
0.175996
0.119195
-0.032918
-0.309989
-0.222125
-0.326481
-0.205196
0.219379
0.413616
0.645933
0.766011
0.453915
0.115860
-0.381548
-0.878742
-0.783430
-0.840975
-0.388443
0.154849
0.385793
0.431273
0.352374
0.013753
0.018257
0.045337
0.113745
-0.137174
-0.140675
-0.008732
-0.044694
-0.137834
-0.229849
-0.225159
-0.352511
-0.257697
-0.166042
-0.144226
0.036376
-0.014007
-0.087087
-0.095735
0.163376
0.248733
0.181365
-0.030767
-0.088017
0.184432
0.318442
-0.020604
0.186418
0.046512
0.063436
0.158308
0.026405
0.071789
0.092343
0.051007
-0.009037
0.108649
-0.012631
0.076982
0.024715
0.061380
0.035164
-0.027634
0.048464
0.022183
-0.223364
-0.182046
-0.159029
-0.204514
-0.118971
0.004464
0.053876
0.066552
0.147732
0.092592
0.109505
-0.037217
0.012271
-0.025644
-0.071230
-0.180645
-0.086766
0.053789
0.035646
-0.020662
0.144947
0.038205
0.173780
0.159369
0.139218
0.102859
0.146290
0.047138
-0.025843
0.011979
0.047578
-0.008557
0.095343
0.055123
0.025684
0.018139
-0.001991
-0.156596
-0.279262
-0.363411
-0.443332
0.050919
0.020496
-0.033451
-0.041277
0.101500
-0.025471
-0.023246
-0.050723
0.050469
-0.002488
0.134335
0.120700
0.086510
0.029352
0.164719
0.069638
-0.017726
0.040556
-0.136448
-0.044719
-0.011127
0.002847
0.172125
0.218023
0.077951
-0.038747
-0.100647
-0.317676
-0.540759
-0.511097
-0.420407
-0.207518
0.005907
0.013821
-0.032801
-0.119142
-0.071911
-0.017043
0.055129
-0.004085
0.058764
0.050906
-0.041177
0.151167
0.046707
0.146849
-0.004982
-0.093283
0.017685
-0.018790
0.107603
0.191960
0.143761
0.259310
0.258940
0.183588
0.169036
0.089597
0.048940
-0.532838
-0.050366
-0.140630
-0.103794
-0.025179
-0.102474
-0.049152
-0.039033
-0.088419
0.084248
0.031985
-0.117640
-0.155311
0.057509
0.108766
0.009772
-0.043957
0.061890
-0.034705
-0.017318
-0.170801
-0.071637
0.060451
-0.076993
-0.060473
0.008190
-0.026253
-0.066534
-0.058593
0.050384
0.082073
0.033707
-0.196508
-0.047221
-0.069334
-0.026950
0.018625
0.115697
0.286076
0.520222
0.451563
0.203296
-0.016911
-0.353772
-0.395123
-0.253071
-0.083410
0.126965
-0.018432
-0.087261
-0.064804
-0.022059
-0.068429
0.047050
0.239208
0.403187
0.302421
0.214026
-0.017725
-0.023270
0.413461
-0.165606
-0.002818
-0.080530
0.078018
0.054537
0.130133
0.008692
0.036114
0.168476
0.189130
0.252955
0.115297
0.021001
-0.256468
-0.561290
-0.609838
-0.657429
-0.412044
-0.223999
0.089905
0.089780
0.138425
0.031722
0.027123
-0.045676
-0.128805
-0.011566
0.002483
-0.000818
-0.005929
0.123382
-0.051206
-0.045452
-0.116184
-0.022076
-0.010881
0.067662
0.046212
0.118724
0.087337
0.050957
0.060830
-0.063537
0.109399
0.015564
0.193168
0.070752
0.106567
-0.016693
0.117504
-0.009567
-0.006152
0.053121
0.072819
0.058712
-0.035748
-0.077274
0.053062
0.129814
0.266435
-0.079224
0.333484
0.139099
-0.049145
-0.010412
0.002075
0.014867
-0.013392
0.057343
0.122668
-0.046940
-0.043513
0.071545
0.124802
0.228711
0.144387
0.109151
0.081281
-0.156724
-0.254889
-0.119675
-0.132097
0.009821
0.190832
0.320839
0.446551
0.639157
0.617339
-0.020177
-0.404247
-0.857633
-0.640953
-0.539125
-0.279467
-0.103151
0.206485
0.442579
0.231269
-0.016191
0.077947
0.242741
0.175392
-0.205155
-0.409228
-0.383880
-0.204851
-0.325999
-0.056277
-0.007586
0.141898
0.012951
-0.168037
-0.203809
-0.269936
-0.022100
0.038426
0.132482
0.156969
0.182058
0.035477
-0.090731
0.017350
-0.100267
-0.096830
0.010767
0.019994
-0.056035
0.012946
0.017581
0.054432
0.105874
-0.081406
-0.013013
-0.181470
0.028328
0.134215
0.129762
0.069444
-0.061516
-0.072927
0.000566
0.140171
0.185321
0.302402
0.262135
0.032586
-0.080013
-0.241649
-0.008922
0.026102
0.235370
0.486216
0.248777
-0.012862
-0.450213
-0.534393
-0.590679
-0.556942
-0.199760
0.187600
0.451914
0.248924
-0.008404
-0.106744
-0.125146
-0.121225
-0.028608
0.014188
0.121478
0.114234
0.231348
0.013533
-0.029886
0.066811
-0.025113
0.107319
0.036747
-0.048770
0.081707
-0.022084
-0.068271
-0.020629
-0.068088
-0.029851
-0.043354
-0.027150
-0.011403
-0.060116
-0.043798
-0.077541
0.047079
-0.035973
-0.117921
-0.042114
-0.118794
-0.033828
-0.141835
-0.018944
-0.013148
-0.089956
0.016184
0.003395
-0.150748
0.017934
-0.130956
-0.018710
0.037058
-0.105007
-0.070030
-0.154205
-0.193403
0.029230
0.081510
0.240712
0.389241
0.264662
0.090951
-0.006219
0.004144
-0.073136
0.026185
-0.028597
-0.159610
-0.106918
-0.101857
0.064852
0.074652
0.058208
0.082971
0.000624
0.006772
-0.094997
-0.055713
0.101949
0.145456
0.185503
0.336103
0.222150
0.104525
0.156097
-0.151813
-0.089795
-0.005023
0.176063
0.051589
0.067155
-0.107784
-0.155989
-0.221988
-0.107303
0.079521
-0.067964
-0.053826
0.046948
-0.064558
-0.012197
-0.038800
0.018543
0.007314
0.071937
-0.035875
-0.095324
-0.072253
0.115579
-0.087542
-0.008388
0.059870
0.124275
-0.036502
0.115940
-0.180415
-0.217519
-0.163851
-0.139203
0.087269
0.048578
0.040034
0.090119
-0.028591
-0.017366
-0.126941
-0.106010
-0.140889
-0.268263
-0.401278
-0.233624
-0.050798
0.058070
0.360647
0.900714
0.972124
0.561857
-0.345383
-0.821167
-0.737334
0.026770
0.593535
0.490375
-0.074711
0.312362
0.020485
0.050910
0.035981
-0.066102
0.064654
-0.000941
0.029290
0.099705
-0.018810
-0.010756
-0.072972
-0.038428
0.015284
-0.138341
-0.030906
-0.044583
-0.018575
0.058624
0.009401
-0.026666
0.001613
0.055596
0.056402
-0.060735
0.043504
0.075968
-0.000761
-0.011009
0.020407
0.056607
-0.054196
-0.059527
0.005014
-0.021069
0.019520
-0.007817
0.010009
-0.081308
-0.041836
-0.062243
-0.058488
0.091774
0.103506
0.122930
0.104081
0.038564
-0.019960
-0.049622
0.076036
0.058397
0.098892
-0.012354
0.116063
0.015025
0.000263
-0.020190
0.087637
-0.043005
-0.121177
0.011903
0.902894
-0.286756
-0.148759
0.141525
0.214805
0.172593
0.020976
0.143701
0.109504
-0.009359
-0.017065
0.113745
0.114505
0.137803
0.066550
0.198158
0.048846
0.069572
-0.017382
0.073436
0.202068
0.097633
0.094189
-0.022860
0.017802
0.087227
0.246702
0.203056
-0.050810
0.009086
0.103099
0.006312
-0.027591
0.039210
0.030843
0.002879
0.143231
0.196115
-0.011826
0.082842
-0.194353
0.152659
0.221327
0.301491
0.096599
-0.025672
-0.081479
-0.015927
0.077299
0.151721
-0.443236
-1.030833
-1.340025
-0.960575
-0.420365
0.215501
0.306710
-0.145240
-0.343664
0.566941
0.050437
-0.132298
-0.237614
-0.229171
-0.172958
-0.077936
0.034907
0.140722
0.237841
0.100458
0.092571
-0.174206
-0.037747
-0.108588
-0.055235
-0.048690
0.114432
0.136307
0.100715
0.086025
0.153528
-0.033183
-0.013942
-0.027321
-0.189301
-0.109780
-0.126250
0.004580
0.070864
-0.013597
0.154352
0.064630
-0.079227
-0.014588
-0.061235
-0.093418
-0.086058
-0.066911
0.139058
0.135555
0.126352
0.082877
-0.119855
-0.130063
-0.209930
-0.254933
-0.165706
0.005058
0.131712
0.248143
0.231722
0.326330
0.269502
0.380446
0.363026
0.163741
-0.170295
-0.163256
-0.082289
-0.557435
0.042285
0.030524
-0.078946
0.098966
-0.022271
0.025041
-0.029058
-0.069379
-0.001064
-0.125511
0.072439
-0.095548
-0.025877
-0.036384
0.096802
0.081665
0.088388
0.119232
-0.025844
-0.017490
0.007494
-0.030931
0.011035
-0.121093
0.002660
-0.101469
-0.102812
-0.095857
-0.004551
-0.043191
0.006918
-0.021465
-0.049531
-0.043838
0.046721
0.061154
-0.078397
0.024456
0.018466
-0.021321
0.020416
0.091187
0.069039
0.036440
-0.021718
0.135325
0.056566
0.031374
0.075279
0.000886
-0.002739
-0.033005
-0.146935
-0.110255
-0.156247
-0.047120
0.100986
0.055657
0.052523
0.033031
-0.078819
-0.033318
-0.012420
-0.022383
-0.034549
-0.032586
0.107950
-0.053227
0.005423
-0.106510
-0.124016
-0.042623
0.039865
0.169005
0.024174
-0.156991
0.017899
0.080343
0.009333
-0.201328
0.033286
0.108752
-0.036650
-0.079567
0.085454
0.035149
0.089006
-0.064911
0.034148
-0.079981
0.001910
0.093016
0.030163
-0.161943
-0.141916
0.183031
0.037015
-0.025096
-0.137817
0.042853
0.272994
-0.311279
-0.144520
0.077034
0.071934
-0.143166
-0.405722
-0.267892
0.471800
0.957610
1.373617
0.903186
-0.897797
-2.512395
-1.915468
0.773977
2.605960
1.327821
-1.423279
-0.787622
-0.010281
0.081706
0.024665
-0.053175
-0.092911
-0.095848
-0.105644
-0.118460
-0.092324
-0.002490
-0.018632
0.043070
-0.000152
-0.052995
0.071946
-0.062068
0.065123
-0.092630
-0.082249
0.035342
0.100367
-0.083101
-0.029337
-0.152518
-0.149877
-0.198391
-0.153014
0.004571
-0.029371
0.059286
-0.032200
0.093309
0.037007
-0.062690
-0.084111
0.051860
0.074166
0.022086
0.065335
0.019729
-0.005120
-0.068072
0.000817
-0.079919
-0.032415
-0.037285
-0.004971
0.069675
0.134113
0.155704
0.033856
0.104285
0.035254
0.067887
-0.062714
-0.043996
-0.115444
-0.141342
0.022027
-0.098072
0.025481
-0.075798
-0.023319
0.029478
0.089981
-0.041055
-0.026949
-0.029466
-0.013123
-0.064575
0.037029
0.001828
-0.046404
0.039899
0.091077
0.046579
-0.024384
-0.028125
-0.007900
0.008510
-0.086148
0.054284
-0.085487
0.085095
0.066861
-0.026438
0.078741
0.086112
0.040538
-0.001483
-0.067105
-0.014712
0.025940
0.018985
-0.056976
0.061459
-0.042953
0.038407
-0.026614
0.088872
-0.007889
-0.068727
-0.079507
0.016647
-0.081069
-0.000037
-0.084358
0.074341
0.059430
0.000441
0.056170
-0.043915
0.026523
0.052156
0.032741
-0.046117
0.012090
-0.085664
0.001317
0.098185
-0.181518
0.139835
0.098522
0.021492
0.074603
0.010292
0.118946
0.162682
0.201417
0.158303
0.030566
-0.052513
-0.061744
-0.124837
0.065364
0.034151
0.227853
0.194835
0.211240
0.174077
-0.072409
-0.224611
-0.545588
-0.774017
-0.572977
-0.329576
-0.008611
0.136328
0.202952
0.084461
0.000305
0.030800
0.076883
0.026180
-0.031806
0.146684
0.163108
0.052774
-0.069880
-0.022213
-0.024626
0.044153
-0.109069
-0.207826
-0.175838
-0.082580
-0.111207
-0.078207
0.253622
0.252944
0.108299
0.170412
-0.100741
-0.086617
-0.090377
-0.091045
-0.181074
-0.088203
0.328548
0.305101
0.085482
-0.044546
-0.087627
-0.130416
-0.016129
-0.110071
-0.017311
-0.023663
-0.005190
-0.056353
0.029883
0.074904
0.030546
0.101797
0.091280
-0.061508
0.074168
0.105220
0.073024
0.170094
0.088888
-0.028911
-0.124417
-0.122139
-0.172911
-0.035407
-0.024640
0.111793
0.072690
0.094207
0.025995
0.105055
0.079627
0.063181
-0.059263
-0.008135
-0.027078
0.036912
0.021049
-0.075793
-0.058822
-0.000670
-0.160506
-0.029399
-0.021141
0.084705
0.010931
-0.018738
-0.006705
0.089492
0.015753
0.117842
0.034162
0.158759
0.109623
0.121523
0.140111
0.033935
-0.001720
-0.093429
-0.071781
-0.093575
-0.122286
-0.046686
0.014784
-0.099567
0.042330
-0.064246
0.008762
0.052482
0.040870
0.146023
0.061906
0.065342
0.040786
0.123979
0.029463
-0.014049
0.131767
0.057855
0.066550
-0.052271
-0.030142
0.040027
-0.050684
-0.176328
-0.055008
-0.098162
0.003156
0.030346
0.007529
0.043904
-0.082231
-0.146961
-0.111368
-0.183329
-0.088031
-0.077532
-0.045143
0.127128
0.141504
0.119858
0.021954
-0.059882
-0.108714
-0.095408
-0.062631
-0.002348
0.057738
0.136525
0.049621
0.005017
-0.072467
0.072600
0.105480
-0.008890
-0.076174
-0.020221
0.009505
-0.078964
-0.115707
0.153622
0.042344
0.080772
0.156296
0.121764
-0.003059
0.055806
-0.044728
0.045888
-0.017294
-0.016805
0.067659
0.082883
0.088240
0.078936
0.018215
0.020621
0.017534
-0.038677
0.119928
0.052355
0.096199
0.138466
0.059749
0.035844
-0.019702
0.003193
0.050805
0.069752
0.032002
0.074326
0.045265
-0.034645
-0.163738
-0.150427
0.142045
0.133752
0.023528
0.091524
0.015016
0.130880
0.137883
0.081610
0.112299
-0.001832
0.021849
0.061190
-0.047995
-0.017485
-0.181909
-0.116959
0.148756
0.478203
0.809513
0.726883
0.217585
-0.286508
-0.967348
-1.871347
0.044544
-0.099255
-0.017640
-0.072823
0.055384
0.094473
0.177239
0.028361
0.147060
0.137451
0.111034
0.188341
0.294021
0.122170
0.203835
0.150280
0.070903
-0.015360
-0.013122
-0.060100
-0.126975
-0.110464
-0.186989
-0.012652
-0.172063
-0.099347
0.009524
-0.006235
-0.001040
0.052729
0.010835
0.159856
0.187802
0.056967
0.191767
0.125138
0.064411
0.124908
0.029178
-0.033165
-0.085057
-0.235655
-0.014695
-0.114033
-0.114192
-0.193830
-0.180848
-0.166629
-0.051579
-0.111373
0.145751
0.074869
0.255245
0.060635
-0.145317
-0.083559
-0.074352
0.039311
-0.163967
-0.040265
-0.328712
0.153801
0.079253
0.021764
0.004762
-0.020470
0.070823
0.015330
0.006190
0.029349
-0.028459
-0.050930
0.155534
0.047303
0.074743
-0.188015
-0.087504
-0.009085
0.092714
0.275196
0.227879
0.208851
0.083486
-0.141627
-0.096788
-0.128407
0.057806
0.341173
0.422753
0.080092
-0.214056
-0.115644
-0.386564
-0.835610
-0.955077
-0.073802
0.598691
0.330228
-0.265208
-0.164798
0.136047
0.027830
-0.253909
-0.292899
0.058512
0.328749
0.131055
0.095701
0.024977
-0.059500
0.020474
-0.038549
-0.111915
0.025307
0.232605
0.167354
-0.072864
0.185688
0.307555
-0.058671
-0.071690
-0.068112
0.017590
0.147201
-0.003974
0.065786
0.040784
0.000016
-0.137371
-0.174702
-0.290807
-0.402669
-0.486959
-0.481857
-0.372361
-0.212846
-0.125310
0.099766
0.055825
0.068150
0.117198
0.169972
0.055157
0.137950
0.079428
0.116633
0.047924
-0.055611
0.106134
-0.135483
-0.197804
-0.193693
-0.121630
-0.023546
-0.217480
0.052308
0.248949
0.111285
0.088168
0.063514
0.141308
-0.076432
-0.149486
-0.064738
0.158182
0.127714
0.101473
0.129916
0.098196
0.096045
0.120318
0.092094
0.170710
0.215943
0.423332
0.301791
0.197692
0.213512
0.245437
-0.544749
0.224224
0.039026
-0.023124
-0.022476
-0.088048
-0.029056
-0.054702
0.047347
-0.034178
-0.005331
0.070156
-0.071853
-0.096435
-0.349143
-0.327698
-0.410256
-0.383507
-0.278523
-0.136259
-0.028040
0.064775
0.124814
0.075844
0.123498
-0.039668
0.048372
0.048846
0.065149
0.106295
0.163122
0.197850
0.035819
-0.084453
0.016572
0.053603
0.081945
-0.020624
0.017569
0.160582
0.146598
0.054418
0.079560
0.110983
-0.044757
0.053735
0.086837
0.075971
0.161883
0.179253
-0.046386
-0.044860
-0.066693
0.172087
0.335412
0.166099
0.041186
0.215605
0.574630
0.449475
-1.566680
0.177883
-0.055731
-0.211063
-0.133244
0.121799
0.415286
0.028763
-0.326447
-0.348391
0.240600
0.240587
-0.032211
-0.454811
-0.125877
0.234756
0.202768
-0.305698
-0.306159
0.032163
0.195333
-0.066262
-0.108059
-0.058572
0.114505
-0.163810
-0.126454
0.107156
0.338967
-0.477267
-0.312042
0.415308
0.403363
0.246521
-0.654540
-0.549974
1.121868
-0.129176
-0.990344
1.017589
0.896550
-1.452196
-0.698414
1.047374
1.567933
-0.702235
-2.095332
0.273000
2.155025
0.401163
-1.793923
-0.842421
1.531632
1.469349
-0.590888
-1.134194
0.062495
1.019761
-0.054580
-1.074868
0.512755
-0.460715
-0.192069
-0.055095
-0.129232
-0.176994
-0.185675
-0.267261
-0.232873
-0.158966
-0.172002
-0.183170
-0.231390
-0.206492
-0.188015
-0.180903
-0.265747
-0.169089
-0.110231
-0.156657
0.003505
-0.084963
0.064210
0.048136
-0.083859
0.074390
0.019983
-0.003378
0.062024
0.071202
-0.034232
0.089678
0.187694
0.104530
-0.022684
0.017890
0.125779
0.089153
0.097302
0.117181
0.050701
0.198890
0.136755
0.106102
0.170632
0.207566
0.138173
0.261166
0.165218
0.207184
0.200011
0.127625
0.219426
0.228937
0.249316
0.057459
0.166656
0.123717
0.064026
-0.028461
0.476164
0.205983
-0.521967
0.099216
0.467739
0.107360
-0.294652
-0.298210
0.058479
0.366951
0.167279
-0.393527
-0.414879
0.225809
0.407228
-0.094163
-0.420059
-0.116148
0.234827
0.084226
-0.231830
-0.092675
0.075988
0.136930
-0.241426
-0.059166
0.107342
0.245274
-0.336308
-0.406909
0.369937
0.992109
-0.918460
-0.934343
1.415565
0.301782
-1.564912
0.069467
2.230832
-0.601064
-2.622023
0.682768
3.121602
-0.839231
-2.631653
-0.003278
2.667119
0.592100
-2.467590
-0.870419
1.835201
1.035793
-0.973702
-0.826387
0.606751
0.682085
-0.127063
-0.051660
0.011314
-0.594180
0.474274
-0.056088
-0.050875
-0.049603
-0.084653
0.065368
-0.028116
-0.081973
-0.026604
0.056772
0.126053
0.014733
0.122629
0.068731
0.083893
-0.062691
-0.023236
-0.076245
0.036427
0.029201
0.051434
-0.063764
-0.034461
-0.034655
-0.083624
0.024242
0.017910
0.011819
0.037056
-0.043781
-0.032703
0.091265
-0.093846
-0.011103
-0.073428
-0.071416
0.037787
-0.060377
-0.053577
-0.004114
-0.022890
-0.067064
0.001399
0.075855
-0.067626
0.064559
0.073029
-0.040947
-0.019819
-0.090749
-0.045968
0.068625
0.014975
-0.034387
-0.107703
-0.112017
-0.059620
0.045152
0.073745
0.122160
0.008814
-0.213038
-0.125871
-0.131012
-0.228207
-0.197734
-0.104988
-0.028371
0.001457
-0.003188
0.136291
0.101053
0.030413
0.084980
-0.026025
0.119002
0.014835
0.011297
0.005613
-0.046013
0.035832
-0.083306
-0.057675
0.066416
0.062825
-0.021139
0.098004
0.001731
0.169485
0.145736
0.076102
0.011239
0.003705
-0.002425
-0.004628
0.034854
-0.011866
0.130779
0.040955
0.072534
0.060194
0.014894
0.041060
0.090919
0.022867
0.101009
0.120362
-0.066293
0.008065
-0.104880
-0.111104
-0.125462
-0.059996
0.022884
-0.077263
0.046575
0.103378
0.044529
-0.006784
-0.141064
-0.322474
-0.303753
0.089197
0.533132
0.052954
-0.505488
-0.208745
0.411034
0.438142
-0.270748
-0.587521
0.035554
0.520254
0.157769
-0.337343
-0.432688
0.086817
0.340877
0.058360
-0.338206
-0.054660
0.143754
0.056268
-0.190836
0.165683
0.043968
-0.202970
-0.215740
0.199471
0.480911
-0.009012
-0.987411
0.226456
1.071575
-0.053852
-1.331236
0.493820
1.355133
-0.699105
-1.950383
1.831828
1.395774
-1.078951
-1.812512
0.510048
2.011096
0.093606
-1.968610
-0.734261
1.577743
1.443551
-1.029670
-1.436777
0.581502
1.331452
0.135361
-0.749440
-0.163937
0.263615
-0.336931
0.538308
-0.227943
-0.056753
0.059729
0.088782
0.095016
0.061747
0.006179
-0.075205
-0.020426
-0.018055
0.030700
-0.058326
0.012813
0.017413
0.163488
0.045830
0.025740
0.002564
0.126747
0.074861
-0.099368
-0.276322
-0.498715
-0.463243
-0.445091
-0.272461
-0.019102
0.078057
0.050569
0.108895
0.136862
0.098404
0.027325
-0.027007
0.088935
-0.018493
0.062780
-0.017604
0.023743
-0.143589
0.037544
0.045228
0.139304
0.227695
0.084666
0.017537
0.162178
0.148056
0.112673
0.025405
-0.011630
0.058217
0.091786
0.206795
0.176808
0.189794
-0.030186
0.147675
0.088707
-0.710960
1.359908
-0.290780
-0.146694
0.172332
0.373957
0.214864
0.223989
0.020747
0.001277
0.019779
0.165048
-0.013014
0.055602
0.114345
0.028843
-0.077387
-0.193207
0.052583
0.030152
-0.036647
-0.192365
-0.010320
0.050918
-0.013578
0.009001
-0.133881
-0.039261
-0.017375
0.078924
-0.044606
-0.226335
-0.044964
-0.034178
-0.128136
-0.137161
-0.143757
-0.093489
-0.006797
-0.086859
0.084756
-0.138520
-0.408309
-0.294697
-0.063600
0.120002
-0.314507
-0.502598
-0.363407
0.120235
0.256868
-0.174921
-0.264529
0.300893
0.464788
0.175185
-0.061679
-0.011522
0.023511
0.002715
-0.135795
0.119526
-0.069693
-0.096135
0.052202
0.105501
0.046176
0.053739
0.072374
0.168194
0.142236
0.092813
0.068304
-0.003061
-0.001178
-0.087657
-0.034427
-0.095883
-0.203118
-0.072841
-0.016347
0.077839
0.046699
0.043777
0.130149
0.121473
0.111264
0.067107
-0.105219
-0.003956
-0.177906
-0.120337
-0.090767
-0.155338
-0.034488
-0.072102
-0.084800
-0.011242
-0.090990
0.030388
0.011067
-0.113624
-0.020035
-0.181084
-0.241856
-0.163180
-0.294263
-0.245827
-0.138595
-0.145544
0.027899
0.204630
0.141644
0.104111
-0.026848
-0.087083
-0.080322
0.103985
0.209003
0.178206
0.058041
-0.217391
-0.019830
-0.166194
-0.014056
-0.015908
0.001206
0.115054
0.031411
0.185346
0.101848
0.161697
0.022832
0.088756
0.129443
0.032166
0.031461
0.024813
0.102537
-0.006393
0.012834
-0.078218
-0.006316
-0.253608
-0.265825
-0.290359
-0.127409
-0.154225
-0.136999
-0.088868
-0.159690
-0.173668
-0.138974
-0.049222
0.038533
0.084296
0.230391
0.277533
0.173334
0.046672
0.171114
0.175844
0.034647
0.124969
0.061131
0.164756
0.036560
-0.148670
-0.369882
-0.401425
-0.337866
-0.108349
0.220023
0.198797
0.317971
0.026622
-0.053599
0.061128
0.006778
0.071993
0.170999
-0.057117
-0.031816
-0.070271
-0.012293
-0.019737
-0.068900
-0.104337
-0.025414
-0.139300
0.050364
-0.050582
0.019222
-0.105146
-0.086139
-0.117917
-0.172652
0.010132
-0.128457
-0.116148
-0.123176
-0.043576
-0.050842
-0.017497
-0.024577
0.171560
0.330335
0.221090
0.319607
0.189635
0.148504
0.026706
-0.151549
-0.146337
-0.083212
-0.105705
-0.222133
-0.152041
-0.096901
-0.030977
0.169978
-0.008978
0.106850
0.099895
0.086648
-0.006556
0.062812
0.111005
0.052636
0.144895
0.190046
0.091962
0.155346
0.171981
0.248670
0.142857
0.285210
0.134514
0.010627
-0.016561
-0.195219
-0.274245
-0.198917
-0.181320
-0.200709
-0.151352
-0.295471
-0.208581
-0.174149
-0.086421
-0.172153
-0.163667
-0.035789
0.058884
0.172582
0.155546
0.074788
0.098862
-0.012214
-0.000875
-0.154706
-0.008574
-0.034396
-0.161698
-0.113735
-0.018049
-0.120209
-0.021881
0.093360
0.216553
0.100377
0.118861
0.158367
0.088351
0.008509
0.164490
0.194951
0.223458
0.157760
0.076214
0.301592
0.407774
-0.025580
0.020953
0.085524
0.150096
0.163836
0.072012
0.152736
-0.107325
-0.314310
-0.402256
-0.373522
-0.246904
-0.120898
-0.119374
0.078644
0.136036
0.205366
0.214175
0.428855
0.010426
0.078655
0.089419
0.041827
-0.001618
0.075738
0.024476
0.106769
0.119314
-0.021886
0.099463
0.103559
-0.009147
0.023348
0.164250
0.084197
0.059670
0.127777
0.042827
-0.077436
-0.085684
0.078170
-0.052445
-0.009839
-0.018343
-0.131973
-0.020736
0.087120
0.110697
0.168881
0.030755
0.146365
0.145436
-0.061594
-0.128629
-0.147047
0.049329
-0.053253
0.136660
0.118188
0.080812
-0.079976
-0.113057
-0.176273
-0.287493
-0.373389
-0.265111
-0.137552
0.007750
-0.133545
-0.097984
0.028724
0.022685
0.139754
0.039098
0.120679
0.084186
0.011484
-0.031259
0.122550
0.009149
0.066125
0.049789
0.035229
-0.056441
0.021106
0.057913
-0.000928
-0.093817
-0.000862
-0.101787
-0.061952
0.046593
0.097717
-0.039792
0.002392
-0.004931
-0.075470
0.077897
0.026228
0.051868
-0.064213
0.044787
-0.025484
-0.062645
0.090086
0.078224
-0.051891
-0.013419
-0.087618
-0.025157
0.002162
0.013277
-0.015805
0.064453
-0.063299
-0.031105
0.055350
-0.047906
-0.024981
-0.077081
0.080471
0.062158
-0.063324
0.059249
-0.049559
0.083165
0.060025
-0.070153
-0.011860
0.003438
0.030878
-0.003166
0.095546
0.059899
-0.008673
-0.013616
-0.007930
0.072242
-0.031578
-0.167142
0.026895
0.066974
0.042403
0.158609
0.077152
-0.010372
0.002283
-0.180577
-0.284854
-0.515604
-0.551453
-0.467260
-0.212161
0.059211
0.131545
0.064749
0.044682
0.027447
0.058825
-0.002404
0.054165
0.138984
0.101793
0.057669
0.089795
-0.039789
-0.008761
-0.067270
-0.056358
0.023294
0.125524
0.119548
0.157013
0.002097
0.037264
0.065481
0.161315
-0.005088
-0.044507
-0.042192
0.090769
0.009866
0.079825
0.078470
0.004178
0.008372
0.155263
0.156508
0.207887
0.243677
0.218897
0.121253
0.220556
0.090222
-0.137408
-0.250378
-0.153268
0.129652
-0.073230
-0.078610
-0.069179
0.082851
0.053017
-0.074254
-0.029406
-0.105581
-0.076909
0.082257
0.110860
0.071988
-0.035476
0.039604
0.070863
-0.074901
0.030544
-0.007625
-0.067469
0.014984
-0.052642
0.048214
-0.008482
0.034444
0.078154
0.040460
-0.072049
0.060318
0.080978
0.088463
-0.055406
0.078578
-0.097986
0.083024
-0.027584
0.081325
0.007958
0.077199
0.025618
-0.055011
-0.005212
0.058121
0.069107
-0.073266
-0.049720
-0.005815
0.041648
-0.107343
0.042405
-0.115889
0.005576
-0.041919
-0.058748
-0.007644
-0.016296
-0.046629
0.043394
-0.001486
0.103847
0.097534
-0.106043
-0.223651
-0.062722
0.081757
0.047583
-0.078793
-0.017941
-0.050437
-0.102363
-0.021434
0.038813
0.018360
-0.024638
-0.084907
-0.070421
0.044084
0.024341
-0.080046
-0.123849
0.009066
-0.099413
0.068498
-0.063403
-0.103689
-0.046903
0.036934
-0.026617
-0.010365
0.029778
0.078444
-0.235963
-0.267597
0.045048
0.291036
-0.059740
0.032118
0.031350
-0.174775
-0.539327
0.119110
0.698038
-0.290995
-0.794733
-0.356663
0.604236
0.255651
-0.908033
-0.908949
0.125057
0.454619
-0.320186
-0.795159
-0.063689
0.639541
0.520313
0.108264
0.308015
0.754684
0.519784
-0.231788
0.519278
0.047108
0.074975
-0.051198
-0.034458
-0.089287
0.050283
0.012450
0.020996
0.016920
-0.079426
-0.131514
-0.006473
-0.061995
-0.055107
0.100875
0.004178
0.028890
-0.048308
-0.086968
-0.035893
0.070923
-0.049719
0.018023
-0.087843
0.093743
0.081129
-0.080526
-0.107269
0.022047
-0.052421
0.052511
0.069552
-0.007688
0.104234
0.123781
0.029089
0.049817
-0.131052
-0.090737
-0.095637
-0.089864
-0.008606
-0.036386
0.011907
-0.099597
0.015579
-0.099606
0.023453
0.028754
0.087950
-0.003437
0.168516
0.059963
0.146854
0.241042
0.168364
0.098731
-0.005522
0.080556
-0.171148
-0.091193
-0.080942
-0.013426
0.017745
0.000069
-0.011840
-0.036396
-0.065385
0.007466
-0.073661
0.082548
-0.006527
0.066495
0.015201
-0.078156
-0.073517
-0.012507
0.016179
-0.064259
-0.091780
-0.115296
0.052755
0.041576
0.038856
-0.011139
0.044998
-0.159445
-0.066084
-0.097812
-0.028977
-0.055053
0.079191
0.019918
-0.084124
-0.050956
-0.186552
-0.129521
-0.025858
0.123658
-0.091367
-0.261702
-0.143844
0.077375
-0.098209
0.006739
0.090349
0.164895
0.233577
-0.052594
-0.165305
-0.271712
-0.401421
-0.349213
-0.423644
-0.194354
0.691096
1.203238
0.959082
-0.050627
-0.657097
-0.187104
0.060862
0.074591
0.038416
-0.056636
-0.133119
-0.105329
0.023948
0.062906
-0.075797
0.044339
-0.048879
-0.031841
-0.079678
-0.021603
-0.047678
0.096967
0.040100
0.001145
-0.008547
-0.010404
-0.054625
-0.031020
0.075059
0.030778
-0.028284
-0.098016
-0.048166
0.072743
-0.150062
-0.020765
0.070294
0.091318
-0.086864
-0.144648
0.198412
0.152853
-0.075307
-0.323882
-0.033347
0.249434
-0.135822
-0.227376
-0.318288
0.015988
0.368013
0.848385
1.179981
0.740873
0.014359
-0.636238
-0.476312
-0.368955
-0.562359
-0.806189
-0.503689
-0.058724
-0.222361
-0.304796
1.268085
-0.153609
0.036687
0.015278
0.006427
-0.051480
-0.076448
-0.033394
0.055025
-0.029140
-0.062050
-0.066381
-0.083154
-0.119158
0.005140
0.028301
-0.027208
-0.021199
-0.115359
-0.029325
-0.028802
-0.151363
-0.105443
0.026604
-0.033292
-0.126292
-0.101436
-0.052003
0.109610
-0.023974
-0.073423
0.103248
0.035932
-0.188177
-0.628985
0.498484
0.486909
-0.383689
-0.092810
0.588669
0.074753
-1.043420
0.992966
0.589484
-0.538367
-1.334090
-0.040113
0.987354
0.177457
-0.953967
-0.415130
0.579888
0.490765
-0.378102
-0.777044
-0.214513
0.536968
0.567885
-0.375143
-0.573690
2.114165
0.429418
0.233685
0.209150
0.123420
-0.015151
0.012119
0.141080
0.066036
0.076917
0.196130
0.088953
0.021953
-0.009226
-0.036536
0.107883
0.208472
0.074320
0.155691
-0.033460
-0.076774
0.021285
-0.059015
0.069666
-0.027992
-0.095850
-0.075050
-0.069963
-0.012472
-0.026612
-0.058341
-0.181659
-0.341428
-0.298028
-0.251528
-0.118156
-0.038266
-0.286353
-0.189175
0.030001
0.041899
0.018798
0.015183
-0.054956
-0.007564
0.126333
0.213589
0.284253
0.351935
0.217714
0.054928
-0.079634
-0.083265
0.013230
0.062725
0.084064
-0.029919
0.085914
0.157086
0.020206
-1.286237
0.068610
-0.008738
-0.020090
-0.129938
-0.005800
-0.051302
0.000671
-0.084680
-0.004057
0.041964
-0.046657
0.055255
-0.073743
-0.032620
0.006305
-0.052032
-0.004720
0.029745
0.214262
0.254971
0.273818
0.447220
0.407800
0.358640
0.221758
0.153233
-0.055227
0.027024
-0.139803
0.034419
-0.032364
-0.025594
-0.027093
-0.086226
-0.084288
-0.068332
-0.036817
-0.119194
-0.061644
-0.019859
0.058137
0.024207
0.007704
0.003118
0.098461
0.015438
-0.027018
-0.114972
-0.263178
-0.432289
-0.409925
-0.194747
-0.046333
-0.053752
-0.073864
0.010450
0.067525
0.020951
-0.154921
0.062096
-0.063028
-0.064325
0.062499
0.070865
0.102303
0.031444
0.040086
-0.013516
0.007084
-0.079410
-0.017041
0.030516
0.013619
0.003113
-0.069740
0.003448
0.059314
0.024065
-0.050718
-0.098034
0.041570
0.022348
-0.139108
-0.005082
-0.034097
-0.063311
-0.064691
0.041435
0.083002
0.063088
0.013101
-0.005061
0.059978
-0.030959
0.066917
0.069115
0.057735
0.013427
-0.039003
0.070729
-0.110663
-0.092319
0.030257
-0.069443
0.015867
0.004789
0.049682
0.218578
0.144578
0.111707
0.176161
0.119938
0.140088
0.103659
-0.045831
-0.027149
-0.189881
-0.139767
0.036931
0.028662
-0.013826
-0.074332
-0.047963
-0.008861
0.155888
0.213186
0.178545
0.267568
0.253432
0.233323
0.081706
-0.013161
0.050639
-0.003165
0.075089
-0.041889
-0.010640
-0.103651
0.005235
-0.099163
-0.092810
0.024628
-0.037105
0.039285
-0.045086
-0.054772
-0.074148
0.037237
0.044312
-0.071285
-0.005890
-0.051823
-0.099778
-0.006920
-0.110498
-0.076261
0.066329
-0.072489
0.022595
-0.002545
0.030395
0.125996
0.023384
-0.032723
0.179068
0.132081
0.100404
-0.020047
0.147755
0.039532
-0.122562
-0.160824
-0.364310
-0.537652
-0.386185
-0.301341
0.082143
0.211014
0.063067
-0.030677
0.092228
0.050370
0.123730
0.165302
0.155068
0.067299
0.012552
-0.094046
-0.052720
-0.097107
-0.219178
-0.215228
-0.129416
0.023365
0.011785
0.104146
0.015896
-0.027608
-0.066673
-0.183657
-0.131031
-0.138002
-0.238269
-0.211114
-0.170251
-0.133908
-0.015204
-0.021544
0.105235
-0.052627
0.038774
0.156352
-0.023953
-0.033316
-0.006365
-0.076582
-0.079313
-0.103600
-0.138877
-0.088787
0.018651
0.030940
-0.011335
0.031976
0.050801
-0.091857
0.056721
-0.031910
-0.005743
0.125707
0.085232
0.116034
0.079292
0.169986
0.243634
0.115220
0.062922
0.007902
0.138815
0.024588
-0.022633
0.071078
-0.150473
-0.094237
-0.037198
0.155138
0.097598
0.126911
0.123073
0.067101
-0.011833
-0.022017
-0.171221
-0.275036
-0.169610
-0.178610
-0.028243
0.058737
0.096211
0.117245
0.162374
0.096797
0.033670
-0.194883
-0.209181
-0.467083
-0.482904
-0.310748
-0.327612
-0.117962
-0.059588
0.060702
0.005506
-0.038716
-0.061825
0.088427
0.150870
0.047148
0.126299
-0.002915
0.114814
-0.013102
0.050156
-0.079084
0.120581
0.022255
0.095962
0.117222
0.109578
0.117279
0.163468
0.133642
0.222741
0.142478
0.118149
0.144912
-0.038661
0.009234
0.030553
-0.347834
weigvec 606
0.084747
-0.453228
-0.074267
-0.264376
-0.711153
0.430319
-0.226553
0.399850
-0.232995
-0.614095
-0.103205
0.044788
-0.111784
0.100619
-0.453934
-0.485021
-0.732531
-0.111233
0.291679
-0.037305
-0.099138
0.556803
0.700494
-0.212245
0.141243
0.623139
-0.575755
0.143003
0.305907
0.184009
-0.291280
0.166444
0.317880
1.818984
-0.492660
0.026642
-0.086393
0.743625
0.733148
1.480230
0.255498
0.736492
0.109253
0.054152
0.006104
0.481880
0.058911
-0.233037
0.717197
-0.075774
0.168969
-0.278033
-0.738605
0.073382
-0.224918
0.253224
-0.463348
-0.039355
0.578693
-0.159279
0.257743
-0.416387
0.102849
0.607731
-0.158719
-0.028554
-0.025785
-0.141246
-0.089967
-0.199755
0.405170
-0.572367
-0.278835
-0.918604
-0.605639
0.960668
-1.682550
-0.002983
-0.186256
-1.127544
-0.779624
-0.038795
0.507198
0.374263
-0.296586
0.541868
0.164219
-0.008411
-0.860804
0.008294
-1.517137
-0.130809
0.744047
1.011132
-1.461435
-0.497447
0.588457
-0.031674
0.607084
0.045049
-0.373907
-0.224491
0.016779
0.076940
0.618119
0.610694
0.312943
-0.202455
0.031091
-0.071883
0.078020
-0.063488
-0.094247
-0.486579
-0.089069
0.522407
0.165440
0.242098
0.099969
-0.217261
0.166707
-0.086600
-0.004776
-0.475728
-0.493547
-0.212983
-0.337117
-0.060562
-0.349823
-0.573954
-0.216043
0.003593
-0.049614
-0.945274
-0.205073
-0.035248
0.419350
0.288158
-0.685342
-0.492660
0.908496
0.043984
-0.523783
0.033069
-0.101935
-0.158412
0.329166
0.085703
-0.094210
-0.398071
-0.124468
0.186103
0.238524
0.356269
-0.497883
0.143858
0.086112
0.548378
-0.276772
-0.572836
0.063852
-0.637177
-0.084852
0.145272
2.200329
-0.020458
-0.131989
0.204251
0.023531
-0.116221
0.137563
-0.137388
0.622038
0.299327
0.566806
-0.624652
-0.294186
-0.812923
-0.074752
0.164320
-0.894697
0.462563
-0.661398
-0.200556
-0.511621
0.130923
-0.056382
-0.159881
0.011051
0.084197
-0.091700
-0.897380
-0.122020
-0.066115
-0.559575
-0.744889
0.704037
-0.298964
-0.183340
0.024021
-0.152445
0.301786
-0.007211
0.158266
-0.273428
0.393342
0.420369
0.203849
-0.474095
0.239056
-0.193746
0.798875
-0.043162
0.002804
0.536200
-0.104124
0.121095
-0.389158
0.418232
0.119348
0.172471
0.379663
0.012058
-0.040119
0.045720
0.084155
-0.005000
-0.030728
0.531385
0.390901
0.012134
0.124379
-0.209588
0.169485
0.905945
-0.118471
0.503053
0.006341
0.058199
0.171841
0.119641
-0.658985
0.220361
0.068215
-0.108461
0.309810
0.156143
-0.277868
-0.075522
-0.339876
0.279633
0.184110
0.173598
0.043467
0.323313
-0.385651
0.414363
0.171154
0.010038
-0.291689
-0.300907
-0.116040
-0.206627
0.572106
-0.101379
-0.540245
0.238577
0.034257
0.284729
0.170289
-0.083340
0.695631
-0.137096
0.288706
0.265955
0.537795
-0.777220
-0.454278
-0.321905
-0.060069
0.302923
-0.316266
0.345939
-0.306294
-0.036592
0.387964
-0.133566
0.307383
-0.075458
0.065846
0.478529
0.130925
0.568496
0.124405
-0.124517
-0.077945
-0.400626
0.062223
-0.051755
0.295457
-0.014568
0.141824
0.306628
-0.252633
-0.559087
0.190846
0.032862
-0.528408
-0.105928
-0.027395
0.134674
-0.065268
-0.217259
-0.122303
-0.025285
0.014487
-0.049677
-0.057509
0.055227
-0.110603
-0.009485
0.269386
0.349282
0.112446
0.244926
0.277645
0.019164
-0.269603
0.464865
-0.269504
-0.956223
0.630766
-0.226278
-0.006132
0.216529
0.427924
-0.635133
-0.264527
0.118361
0.089855
0.264069
0.329075
-0.273323
0.222139
-0.268308
0.089757
0.056879
-0.197917
0.299532
0.374913
-0.012477
0.060427
-0.145424
0.053304
-0.041035
-0.135596
-0.394351
0.222589
0.133403
0.175558
-0.148748
0.094026
0.050435
0.416135
-0.463729
0.066623
-0.369686
0.118473
-0.035306
0.209070
-0.178401
-0.106635
0.332056
-0.239824
0.142022
-0.316093
-0.409855
-0.884684
0.334047
-0.831828
0.111209
0.107393
-0.757200
-0.173648
-0.484264
-0.070821
-0.023809
-0.171662
0.330763
-0.126954
0.020902
0.148612
0.072861
0.490536
-0.204683
0.147885
0.582662
-0.592632
-0.551780
0.169537
0.039989
-0.039234
-0.028316
-0.168193
0.243379
0.028717
0.286297
0.445244
0.135618
-0.405070
-0.229488
-0.500394
0.455316
0.248780
0.012006
0.372862
-0.513961
-0.012298
0.373827
0.204553
0.470428
0.100566
-0.360634
0.371354
0.162737
-0.337330
-0.138299
-0.324708
0.759923
-0.389189
0.094844
0.736632
0.452834
0.074725
0.132923
0.132835
0.017053
-1.143237
0.344920
0.201097
0.494612
0.152937
0.005546
-1.419996
-0.032341
0.313848
-0.062079
0.518740
0.186694
-0.482347
-0.135463
0.370720
0.386075
0.298079
0.198473
0.303029
0.494705
0.583931
0.329169
0.296736
0.529228
0.005058
-0.802664
0.055010
-0.330855
-0.074425
-0.135700
-0.997459
0.093944
-0.006434
0.314254
0.209206
0.314576
0.051507
-0.214914
0.594525
0.729892
0.074966
-1.064664
-0.512298
-0.836595
-0.107974
-0.160328
-0.857683
0.317053
0.356835
-0.032811
-0.080664
0.403466
-0.064897
0.483972
0.064645
0.322521
-0.045547
-0.372483
0.225081
-0.786771
-0.538791
-0.372628
-0.054678
-0.221717
-0.038662
-0.514488
0.406703
0.459570
-0.088851
0.788941
-0.180086
-1.065145
0.165277
-0.472690
1.037497
-0.346440
0.017381
-0.360165
-0.085806
0.027036
0.346587
0.072920
-0.763129
0.525641
-0.080794
-0.059705
-0.015661
-1.152892
0.006265
-0.239041
-0.134541
0.902156
-0.320005
-0.121093
0.221649
-0.023082
-0.646341
0.099586
0.384321
-0.765304
-0.842642
0.110693
0.064089
-0.738511
-0.722136
-0.710795
-0.741243
-0.063992
-0.797415
-0.445619
-0.007941
-0.860257
-0.024347
-0.437782
-0.278404
0.158272
-0.764111
-0.371173
-0.773638
-0.356013
-0.337889
0.725718
-0.927242
-0.877163
-0.488199
0.481870
0.809757
0.021122
0.530280
0.518812
-0.092413
-0.642008
-0.048794
0.030775
-0.949281
0.018644
-0.084803
-1.180265
0.165687
-0.924050
-0.807843
0.016999
4.020730
0.079698
4.361285
-0.134427
-0.055123
3.957659
-0.055412
1.326859
-0.077871
-0.181072
0.112384
-0.809072
0.009676
0.035547
-0.226666
-0.024203
1.793123
0.117686
0.135580
-0.432080
3.584389
0.299804
-0.118097
0.001265
-0.302540
-0.221071
-0.490050
biasvec 101
-3.910064
-4.338163
-3.986025
-4.659167
-4.156065
-4.484598
-4.280862
-4.306209
-4.010323
-4.573744
-4.064115
-3.881558
-4.337052
-3.998956
-5.189004
-3.892215
-4.319734
-4.150847
-4.036733
-4.579375
-3.978848
-3.988643
-4.432104
-4.572680
-4.380956
-4.494627
-3.900046
-1.153799
-4.682686
-3.946876
-4.018018
-4.074300
-4.660394
-3.435458
-4.098838
-4.489552
-3.922838
-3.208382
-4.401016
-3.611150
-4.444409
-3.982897
-4.058130
-4.511592
-4.037362
-4.015818
-3.853096
-4.047284
-3.553468
-3.850945
-4.501491
-3.939006
-4.399982
-4.331369
-4.214331
-4.047412
-4.065170
-4.160603
-4.534394
-4.058731
-3.056891
-3.932196
-3.988651
-2.450594
-3.974954
-3.875114
-4.229366
-4.023056
-3.987035
-4.028951
-3.969808
-4.500800
-4.944414
-4.161690
-3.893666
-4.335061
-3.457405
-3.972953
-3.942636
-3.497221
-4.169807
-5.290882
-3.948139
-4.018699
-4.144650
-4.697873
-3.821554
-4.152997
-4.206919
-3.994408
-6.068443
-3.960249
-4.143854
-3.660362
-5.813286
-3.858472
-4.218528
-3.993438
-4.320566
-4.031340
-4.238212
biasvec 6
-4.177004
-6.560210
-3.655117
-4.300523
-2.516791
-2.878865
