30 101 6
weigvec 3030
-0.043600
0.285539
0.103185
0.063010
0.119908
0.104667
0.043830
-0.009336
-0.119367
0.071746
0.366754
0.279312
-0.380407
-0.767883
-0.137331
0.681799
0.951463
0.360303
-0.479478
-1.050732
-0.450183
-0.152096
-0.055802
0.070497
-0.221436
0.179334
0.327585
0.084310
0.003412
-0.128659
0.279449
0.252231
0.297509
0.133161
0.078636
0.155903
-0.101261
-0.155489
-0.273706
-0.407949
-0.343921
-0.104051
-0.153531
-0.248268
-0.268264
-0.128079
-0.039106
0.195504
0.010419
-0.200792
0.012627
0.017834
0.170057
0.360104
0.466042
0.470454
0.080982
-0.066864
-0.077196
-0.345852
0.011437
0.205930
0.026530
0.136739
-0.100634
-0.077877
-0.021963
0.259078
0.291446
0.250621
-0.010848
0.175830
0.298555
0.302690
0.040829
-0.484085
-0.828193
-0.718712
-0.478861
-0.063749
-0.014810
0.112181
0.221977
0.230075
0.382195
0.489486
0.153372
0.053003
0.076945
-0.344970
-0.010696
0.058237
0.065319
0.068613
0.063698
0.089287
0.076323
-0.046282
-0.078980
0.007780
0.026837
-0.008050
0.078442
0.035225
0.098842
-0.024788
0.024525
-0.088250
-0.120944
-0.104603
0.097222
0.002121
-0.108040
-0.198393
-0.330427
-0.305423
-0.050889
-0.082298
0.138021
0.159272
0.359596
0.048515
-0.414582
-0.519445
-0.202438
0.093476
0.180938
0.014298
0.090133
0.080006
-0.054197
-0.216670
-0.143488
-0.001584
0.191082
0.244877
0.280275
0.152158
-0.097573
-0.214953
-0.034177
0.106065
0.133150
0.276061
0.202170
0.216817
0.012420
-0.018155
-0.023641
0.004818
0.048213
0.017664
0.022993
0.022066
0.139127
0.016108
0.112646
-0.041315
0.145144
0.128834
0.104344
0.214507
0.156494
0.051966
-0.017599
0.047407
0.045708
0.062039
-0.039580
-0.027045
-0.010851
-0.053758
0.017554
0.071673
0.045358
0.145362
0.058226
-0.204877
-0.509316
-0.224275
-0.042936
-0.048114
0.095485
0.156315
0.115980
-0.101130
-0.086792
-0.113681
-0.154682
-0.055678
-0.203937
-0.159340
0.039376
0.121454
0.187019
0.077658
-0.010356
-0.063687
-0.160904
-0.162855
-0.142388
-0.045836
-0.013243
0.082586
0.097124
0.200731
0.081037
0.072905
-0.004580
-0.067955
0.043168
0.152258
-0.099302
-0.001998
-0.091305
0.148742
0.180722
0.092525
-0.192396
-0.056801
0.181988
0.242062
-0.068201
0.172886
0.236884
0.362400
0.126834
-0.663585
-1.050828
-0.538422
0.275418
0.343408
0.187951
0.099439
0.272082
0.426924
0.108888
-0.189330
-0.155649
-0.359407
0.044307
-0.033300
0.044986
-0.072367
0.105155
0.129291
0.141690
0.033508
-0.109640
-0.114503
-0.014303
-0.123989
-0.063848
-0.089370
0.056636
0.157035
0.113429
0.094325
0.028131
-0.085169
-0.126165
-0.047029
-0.129157
0.007102
-0.033355
0.069874
0.086280
0.046132
0.044689
0.011561
0.374964
0.456599
0.577997
0.529640
-0.205604
-0.951252
-1.046959
-0.585328
-0.271573
-0.155472
-0.180784
-0.287180
-0.484063
-0.403890
-0.308918
0.022257
0.238620
0.436383
0.300821
0.258195
0.236456
0.252329
0.066815
0.006447
-0.211798
-0.292727
0.365572
0.388680
0.283795
0.158712
0.059155
0.087805
0.087207
0.114433
0.133302
0.165450
0.005910
0.054355
0.017674
0.000932
-0.040471
-0.100695
-0.092137
-0.071122
-0.023901
0.016362
0.004202
-0.009951
0.043582
0.073418
0.016455
-0.131544
-0.002722
-0.093656
-0.152272
-0.160009
-0.111981
-0.010534
-0.036526
0.100550
0.006699
-0.020354
0.125483
0.074357
-0.005401
-0.176658
-0.188241
0.009044
0.017135
0.040826
-0.111895
0.010687
0.045913
0.211003
0.224098
0.128818
-0.104005
-0.106547
-0.209715
-0.142782
-0.199406
-0.226684
-0.195424
0.032324
0.105086
0.206363
0.166917
0.031932
-0.015127
0.073196
-0.113023
-0.090391
-0.198137
-0.244278
-0.225787
-0.140707
-0.184063
-0.275293
-0.292114
-0.363513
-0.162950
0.051694
0.252833
0.294392
0.223273
0.338884
0.312241
0.299453
0.047889
0.025841
-0.256435
-0.382005
-0.396064
-0.080018
0.246123
0.372657
0.282339
0.120690
-0.004456
0.261660
-0.050428
-0.078702
-0.032582
-0.063665
-0.009385
-0.113546
-0.128992
-0.084884
-0.103211
-0.135483
-0.150574
-0.117659
-0.100005
0.002069
0.000665
-0.261244
0.023418
0.063415
-0.306504
0.211008
-0.029432
0.188924
-0.145817
-0.005706
-0.884833
-0.958373
0.193584
0.321346
0.281020
1.398355
-0.830617
-0.771181
-0.516640
-0.302431
-0.528946
-0.832923
-0.579416
-0.112000
0.074383
0.191079
0.144424
-0.031044
0.605466
1.377945
0.306724
-1.050950
-1.086629
-0.566379
-0.320543
-0.013626
0.335240
0.385157
0.829263
0.680233
0.584430
0.272233
0.282121
0.445412
0.238522
0.723392
-0.146086
-0.243616
-0.098345
0.079286
0.035102
0.047765
-0.035898
-0.061188
-0.100125
-0.023835
-0.021112
-0.001129
0.098242
0.282218
0.423428
0.548544
0.377793
0.015301
-0.153048
-0.134705
0.098173
0.255918
-0.153620
-0.745601
-0.783509
-0.046921
-0.102193
0.136712
-0.037160
0.214332
-0.025167
0.026069
-0.143196
-0.091566
-0.062066
-0.067967
0.086360
-0.030585
-0.043739
0.048804
-0.108888
0.031520
0.084754
0.017981
0.103437
-0.022419
0.016926
0.076629
-0.075170
-0.023730
-0.075865
-0.039993
0.004981
0.018568
0.086860
0.185495
0.066545
-0.000554
-0.089351
-0.076809
0.134260
0.096204
0.111715
-0.061176
-0.033785
0.142881
0.096919
0.090028
-0.069398
-0.113235
-0.042443
-0.047392
-0.042576
-0.088947
-0.144946
-0.065417
0.053899
-0.011614
-0.022320
0.113199
-0.103246
-0.020107
0.101789
0.050297
0.121819
0.141737
0.150945
0.053707
-0.017400
-0.023226
0.130953
-0.004103
0.039269
0.052279
0.026590
0.136671
-0.036652
0.029714
-0.016504
0.038225
-0.025807
0.023567
-0.077623
0.026605
0.044632
-0.120054
0.085418
-0.091456
0.010758
-0.031522
-0.084109
-0.124882
-0.064529
-0.081645
-0.034728
-0.112720
0.007679
-0.114816
0.024068
0.042316
0.004809
-0.063701
0.030537
-0.071400
-0.032092
0.110597
0.125497
-0.077165
0.104358
-0.021987
-0.005204
0.071239
-0.061706
0.066369
0.001535
-0.019757
-0.018471
-0.005200
0.077354
0.000466
-0.000442
0.053981
0.039493
-0.127851
0.008971
0.077919
-0.034920
-0.199599
-0.195523
0.084080
0.169096
0.060875
-0.019634
0.027761
-0.088460
-0.148032
-0.254219
-0.150685
0.099533
0.165953
0.313610
0.250966
0.156489
0.025142
0.138798
-0.013884
0.081262
0.061468
-0.066976
-0.063533
-0.032871
0.056570
0.052406
-0.163641
-0.096595
-0.024544
-0.253809
-0.221954
-0.110586
0.053394
0.045871
0.226230
0.121778
-0.030482
-0.101918
-0.230073
-0.101284
-0.093434
0.033328
-0.049224
-0.083070
-0.089249
0.024645
0.062370
0.226464
0.330996
0.387111
0.260641
0.015996
-0.408981
-0.343334
-0.086870
0.067160
0.266290
0.103331
0.145008
-0.053233
-0.150108
-0.226258
-0.038517
-0.388450
-0.093381
-0.092959
0.020710
0.042504
0.126726
0.054560
-0.006835
0.122217
0.102162
-0.051782
0.029061
0.062257
0.072911
-0.116496
-0.255236
-0.168486
0.005060
0.186094
0.091959
0.098953
0.154603
0.287441
0.232892
0.457561
0.460537
-0.189526
-0.392711
-0.292143
-0.152772
0.192299
0.021646
0.118480
0.197895
0.092922
0.160576
-0.038512
-0.081890
-0.159972
-0.291915
0.026228
0.088649
0.105707
-0.020551
-0.031302
0.066573
-0.061011
-0.160037
-0.051559
-0.035717
-0.231954
-0.471624
-0.353145
-0.285525
0.333235
-0.223219
-0.527824
0.410578
0.450690
0.695997
0.014826
0.052444
0.050273
0.012540
-0.028107
0.066697
-0.107709
-0.069907
0.023193
-0.045727
0.022017
0.058226
0.050195
0.033470
-0.007701
-0.049481
0.107599
0.032237
-0.006061
-0.010723
-0.011712
-0.113708
0.109865
0.100976
0.110630
0.183574
-0.054463
-0.285074
-0.192060
-0.114326
-0.079085
0.083753
0.077382
-0.080756
0.044418
-0.135244
-0.074120
0.082432
-0.067522
-0.059972
0.099500
0.136528
0.350417
0.163902
-0.085267
-0.254584
-0.215177
0.044909
-0.145174
-0.259494
-0.216926
-0.189434
-0.141341
0.020529
0.082894
0.466794
0.254524
0.044996
-0.084796
-0.070775
-0.098229
0.036748
-0.082153
0.157459
0.187406
0.084243
0.076947
-0.152746
-0.181919
0.032520
-0.000912
0.094219
-0.047704
-0.075979
-0.078484
-0.104918
-0.174483
-0.093271
-0.102021
-0.105719
-0.027336
0.032194
0.212072
0.249594
0.262657
0.266495
0.010860
-0.052002
-0.073762
-0.239542
-0.061410
-0.048216
-0.075284
0.057560
0.048454
0.022225
-0.103880
-0.147317
-0.057911
-0.079205
-0.026048
0.163454
0.181110
0.129975
-0.058203
-0.102417
0.026148
-0.092227
-0.046703
-0.098037
-0.031070
0.016756
0.150629
0.156508
0.233270
0.192949
0.036282
-0.127347
-0.094502
-0.141759
0.161904
-0.007959
0.249241
0.105772
0.068415
-0.303336
-0.116932
0.374226
0.401296
-0.332093
-1.299982
-1.050922
0.223039
0.975020
0.900073
0.301599
-0.226611
-0.286267
-0.276746
-0.234432
-0.439063
-0.505177
-0.384397
0.149261
0.224382
0.185326
0.068035
0.088688
-0.054985
0.492728
-0.528758
-0.014884
0.263667
0.702615
0.619020
0.008633
-1.036878
-1.452767
-0.671964
0.327189
0.994204
1.033638
0.488354
0.087772
-0.181824
-0.389511
-0.524939
-0.488319
-0.386228
-0.179505
0.084112
0.110857
-0.003687
0.111773
0.170765
0.130652
-0.032848
0.141972
0.035831
0.300073
-1.567705
-0.778299
-0.432201
0.020004
0.363999
0.222661
0.164853
0.247867
0.486178
0.410451
-0.006624
0.036986
-0.174020
0.158500
0.219893
0.155094
-0.007373
0.054835
-0.119532
-0.121567
-0.256374
-0.100448
-0.250070
0.264800
0.245167
0.631539
0.403576
0.279967
0.154039
-0.226290
-0.011330
0.091685
0.028170
0.106535
-0.021355
0.108005
0.013390
-0.017900
-0.068796
-0.072482
-0.056461
-0.001069
-0.033932
0.035363
-0.014811
0.077894
0.079061
0.090332
0.143840
-0.018678
-0.051562
-0.136817
-0.134311
-0.078518
0.130911
-0.040433
-0.016982
-0.001516
-0.148770
0.090654
-0.079709
-0.137145
-0.118286
-0.091366
0.033985
0.101886
-0.021915
0.024861
0.121929
0.122029
0.088129
0.092356
-0.076968
0.057286
0.000341
0.068470
0.070726
0.088206
-0.003470
-0.008998
-0.038303
-0.015953
-0.035140
-0.075201
-0.159793
-0.043392
-0.231678
-0.115655
0.062012
0.163081
-0.000591
0.031705
-0.011915
0.012566
-0.038438
0.080833
0.006007
0.090505
-0.078072
-0.054391
0.114338
-0.019309
-0.001405
-0.018243
0.033692
0.067429
-0.069298
0.112889
0.030326
-0.218829
-0.110293
0.127596
0.047678
0.106598
0.006210
0.217628
-0.098997
-0.277634
-0.177560
0.135367
-0.299580
-0.047786
-0.149307
0.009444
-0.057544
-0.105916
0.019565
-0.142618
-0.055644
-0.254121
-0.118777
0.070472
-0.219333
-0.240289
-0.064300
-0.338268
-0.136337
-0.395008
1.132442
-0.033527
-1.642677
0.690712
0.331662
0.082700
-0.077269
0.251552
-0.039040
-0.339917
0.348883
1.045180
-0.033857
-0.033444
-0.084220
-0.111956
0.076394
-0.104138
-0.108993
0.037376
0.047987
0.073319
-0.034419
-0.038359
-0.009288
-0.011613
-0.028430
-0.004954
0.080128
-0.102936
0.003887
-0.147647
-0.032573
0.013530
0.093454
0.104501
0.022554
0.044334
0.050851
0.064564
-0.126070
-0.138656
-0.001537
-0.037876
0.009027
0.052803
0.039048
-0.088485
0.016569
0.019037
-0.085888
0.070749
-0.075370
-0.057851
0.062888
0.048600
-0.042296
-0.082115
0.083241
-0.122616
-0.038406
0.050256
0.040704
-0.013435
0.042807
0.081910
0.023723
-0.022272
0.043019
0.066658
-0.076925
0.130101
-0.028591
0.035281
-0.056111
0.046702
-0.026822
0.042260
-0.135143
-0.173126
0.001987
0.044234
-0.030270
-0.103363
-0.132219
-0.170529
-0.116047
0.036028
0.059534
-0.140493
-0.030874
-0.019440
0.295857
0.792210
0.692869
-1.306185
-2.056782
1.676541
1.197432
-0.462744
-0.560604
0.329103
0.042271
-0.076122
-0.086143
0.040072
0.059659
-0.019872
-0.034890
-0.014401
0.051189
-0.064783
0.074628
0.029017
0.025567
-0.024842
-0.036505
0.028625
-0.091977
-0.023248
-0.031658
-0.055074
-0.064178
-0.083195
-0.111567
0.008054
-0.073808
-0.166244
-0.028292
-0.051528
0.127105
0.100022
0.105075
0.328361
0.204469
0.188439
0.080933
-0.128874
-0.421305
-0.326396
-0.189537
-0.106552
-0.050496
-0.136757
-0.169749
0.126120
0.119659
0.053179
0.035401
0.278414
0.457899
0.576558
0.140828
-0.121652
-0.571944
-0.686319
0.135717
0.090099
-0.875945
-0.161515
0.264930
0.688718
-0.111595
-0.108337
-0.000200
0.028071
0.019170
-0.031222
0.005754
0.203430
0.279178
0.135327
0.026323
0.045522
-0.127572
0.064728
0.220765
0.079052
-0.282852
-0.172460
0.075441
0.348340
0.154955
-0.209740
-0.934985
-0.793020
1.200616
0.588519
-0.829385
0.276811
0.072606
-0.075478
-0.037450
-0.012838
0.029000
0.001406
0.081598
0.278092
0.268127
0.098075
0.184020
-0.071645
-0.103592
-0.226342
-0.094744
-0.073768
0.053937
0.047234
0.158725
0.208735
0.082292
0.016678
-0.009911
-0.147926
-0.219840
-0.296580
0.142778
-0.019326
-0.418766
-0.166607
0.179421
0.371762
-0.502757
0.378601
-0.131351
-0.347292
0.061460
-0.082560
0.142524
-0.158959
-0.003759
0.121049
-0.200617
0.252161
-0.186981
0.002616
0.038374
-0.157615
0.049284
0.158435
-0.028417
-0.172481
0.377405
-0.400637
-0.779980
2.123265
1.392255
-4.483212
2.007763
1.385919
-0.966874
0.188155
0.058952
-0.060097
0.039422
0.079977
-0.055792
0.079710
-0.022870
0.003128
0.096261
-0.048577
-0.040670
-0.076690
0.021679
0.097706
0.009009
0.124149
0.003821
0.023899
-0.109830
-0.102618
0.000664
0.102150
0.139917
0.168081
0.127078
-0.012407
-0.079928
-0.050785
0.043236
-0.056370
-0.023183
-0.121473
-0.050597
0.058797
0.016481
0.106640
-0.070761
0.103549
-0.003753
0.086854
0.089713
-0.106581
-0.062143
-0.085702
-0.197465
-0.007728
0.144289
0.082666
0.018363
-0.437808
-0.510102
0.282096
2.018988
1.172582
-1.060436
-1.485863
-0.531942
0.448194
0.569980
-0.295079
0.061807
0.087933
0.011964
0.050004
0.026772
-0.002165
-0.149370
-0.045689
0.070972
0.306101
0.451920
0.499540
0.227464
0.130521
0.155613
-0.029361
-0.177265
-0.193696
-0.269646
-0.078543
0.036409
0.097357
0.185020
0.037059
-0.272282
-0.452963
-0.688625
-0.213353
0.098362
-0.067637
-0.087462
0.085804
0.048182
0.087022
-0.035548
-0.041656
-0.101413
-0.026990
0.067337
0.011196
-0.086554
0.100587
0.053131
-0.036653
0.036908
-0.031679
-0.028807
-0.039917
-0.135384
-0.091826
0.062553
0.079747
0.031415
0.043631
0.038070
0.039086
0.140301
0.053932
-0.024650
-0.176689
0.051764
-0.071804
-0.027086
-0.072416
0.098159
-0.035317
-0.083737
-0.123495
-0.006516
0.136120
0.031187
0.008481
-0.042487
0.077769
-0.054721
0.009949
-0.015887
0.045595
0.104842
-0.124282
-0.096935
0.080595
0.072240
0.060516
0.161639
0.141604
-0.006929
-0.114995
-0.236750
-0.106542
-0.931477
-0.508387
-0.310177
-0.037247
0.040377
0.010681
0.075130
0.231820
0.575951
0.925337
0.669800
-0.117379
-1.012237
-0.931491
-0.779753
-0.450005
-0.358625
-0.112395
-0.024002
0.089293
0.295378
0.276197
0.386744
0.250991
0.381084
-0.071502
0.182262
0.093514
0.117572
0.603624
-0.074970
-0.223798
-0.082696
0.086965
0.295642
0.326041
0.396287
0.394463
0.285538
0.084251
-0.108184
-0.253578
-0.139471
-0.034500
0.007609
-0.000811
0.048029
-0.106138
-0.116450
-0.078735
0.045241
-0.081806
-0.139299
-0.463015
-0.545291
-0.066633
0.245056
0.102254
-0.011611
0.210393
-0.122258
0.119652
0.035889
-0.138425
0.056523
0.168854
0.124138
0.226792
0.124974
-0.256930
-0.562870
-0.594637
-0.213695
0.129761
0.291672
0.303244
-0.072884
-0.022729
0.059473
0.404799
0.280671
0.477690
0.229910
0.339176
0.248741
0.659016
0.669282
-0.105256
-0.750127
-1.464043
0.822222
-0.670076
0.160473
0.379190
0.026154
0.012402
0.040072
0.151699
0.136138
-0.229688
0.000236
-0.233442
0.180523
-0.184093
-0.164462
-0.221384
0.239110
0.050419
-0.663017
0.140238
0.969135
-1.762613
1.191128
0.245868
-0.737436
0.930149
0.104338
-0.463137
0.536963
-0.557748
0.080222
0.076545
-0.026801
0.036522
-0.051279
0.028817
-0.087199
-0.094530
-0.003038
0.072035
-0.010855
0.081747
0.087975
0.033797
0.046543
0.082727
0.095355
0.053064
-0.066919
0.085712
0.062178
0.056240
-0.169311
-0.072495
-0.155859
-0.032411
-0.073592
-0.092040
0.004412
0.128604
0.021373
0.130615
-0.100337
-0.312857
-0.412057
0.072322
0.582258
0.414556
-0.076629
-0.494557
0.041894
0.856848
0.972589
0.320601
-0.853887
-1.124879
-0.666961
-0.210586
-0.311406
-0.376181
-0.263862
-0.109369
0.106050
0.362772
0.503130
0.320563
-0.012257
0.196059
0.216808
0.580187
0.613501
0.027283
0.246916
0.209904
0.354214
0.518970
0.332765
0.233686
0.177696
0.227346
0.249707
0.139285
0.025558
0.032502
-0.060999
-0.209173
-0.076157
-0.028841
-0.149625
-0.590054
-0.515078
-0.369136
-0.649940
-0.542444
0.101019
0.212838
-0.146238
-0.407224
-0.118319
-0.111751
-0.119105
0.118872
0.003480
0.102079
0.006302
-0.527878
-0.751517
-0.578509
-0.405196
0.089896
-0.026835
0.061476
0.127993
0.206680
0.147871
0.085434
0.124528
0.201710
0.259136
0.144975
0.109643
0.066280
0.387616
0.242969
0.350467
0.988055
-0.060700
-0.461869
0.138287
-0.842669
0.046992
-0.050082
-0.120440
0.048613
0.076979
-0.066938
0.059784
0.058692
-0.077806
-0.051068
0.082935
0.060979
0.073753
-0.087585
0.008573
0.016606
0.029013
-0.087880
0.079638
-0.086865
-0.098395
0.071893
0.042783
-0.022053
0.107194
0.071208
-0.042864
-0.073383
-0.102850
-0.083452
-0.109627
0.081668
0.044840
0.048127
0.010894
0.064765
0.093760
-0.003176
0.042846
0.020419
0.081267
0.031325
-0.138442
-0.127880
-0.032673
-0.087797
0.036580
0.097996
0.118663
0.155697
-0.012609
-0.098184
-0.030807
0.028762
0.093650
0.275472
0.189637
-0.011633
-0.147632
-0.059879
0.075891
-0.030075
0.222661
0.138912
-0.025319
0.179865
0.058914
0.075766
-0.121052
-0.103050
0.012609
0.290614
0.178177
-0.389682
-0.800867
-0.205551
0.433634
0.978756
0.532291
0.218903
-0.515561
-0.650667
-0.828068
-0.366600
0.077555
0.152901
-0.033324
0.306801
-0.119055
0.206624
-0.056830
0.064147
0.075405
-0.058876
-0.018513
-0.029558
-0.087128
0.089764
0.016380
0.096086
-0.048863
0.055861
0.141271
0.111881
0.021859
0.080082
0.015068
-0.091427
-0.114003
-0.068895
0.077143
0.006810
-0.030127
-0.028909
-0.118625
-0.106731
-0.194826
0.035601
-0.021021
0.149529
0.053433
0.123933
0.126850
0.254669
0.393561
0.295128
0.159353
-0.019630
-0.010707
-0.053637
-0.050891
-0.133892
-0.197244
-0.227011
-0.258107
-0.109832
0.053424
0.092664
0.136282
0.178104
0.141321
0.175143
0.454970
-0.054640
-0.639972
-0.339355
-0.326558
0.016237
0.251685
-0.077497
-0.058348
-0.445481
-0.993946
-0.988912
-0.674298
-0.373579
-0.077995
0.046570
0.024283
0.062838
0.001047
-0.119100
-0.302944
-0.127018
-0.023449
0.381296
0.423733
0.560187
0.488865
0.410347
0.204252
0.362205
0.064455
-0.080830
-0.143320
-0.024980
0.203441
0.361448
0.162961
0.604334
-0.400614
0.076908
-0.222524
-0.133466
-0.130444
-0.154135
-0.136468
-0.076800
-0.030331
-0.246163
-0.195654
-0.096874
-0.166226
-0.006181
-0.909165
-0.070775
0.876066
-0.577808
0.742028
-1.814702
0.410781
0.715411
0.452864
0.278172
-1.039215
0.112766
0.871469
0.707914
-0.118569
0.857127
0.067643
-0.069477
-0.091814
0.094274
0.000125
-0.073246
0.009341
-0.063190
-0.011894
-0.003140
-0.129346
0.088560
-0.022929
-0.089830
0.013073
-0.053641
-0.115662
0.011591
0.160146
-0.110843
-0.036552
-0.123775
0.092338
0.066979
0.091294
-0.016155
0.110748
-0.064519
-0.056919
0.099701
-0.364456
0.100109
-0.077723
0.011669
-0.031391
-0.019747
-0.164933
-0.130947
-0.096795
0.018732
-0.060499
-0.013365
-0.065827
0.027426
0.003718
-0.007152
-0.043216
-0.150583
-0.193285
-0.105001
0.125134
-0.149023
-0.301035
-0.607900
0.491770
3.050651
-0.254020
-0.679259
0.501216
-0.582407
0.036186
0.063275
-0.004189
-0.064567
-0.079812
0.029498
0.090687
-0.076353
0.000073
-0.079328
-0.027685
-0.014603
-0.002907
0.144347
0.079486
0.137964
0.048061
-0.067391
-0.024011
0.002133
0.081872
0.039133
0.062033
0.028367
-0.098271
-0.227715
-0.079658
-0.094955
0.084258
-0.042794
0.072769
-0.059656
-0.038559
-0.086521
0.044706
0.089954
0.009669
-0.052620
-0.073029
0.050879
0.025991
0.090517
0.073965
-0.013431
-0.096723
-0.060679
-0.086497
-0.051251
0.099377
0.090563
0.062100
0.021118
-0.100943
-0.073589
0.064311
0.098535
-0.067554
0.038899
0.079919
0.135053
0.002488
0.078097
-0.100619
0.003048
-0.043916
0.090440
0.142384
0.109301
0.096911
0.159102
0.107315
0.130342
-0.040716
0.041308
0.039049
-0.019122
-0.144539
-0.104043
-0.124170
-0.102856
-0.019989
-0.003010
0.065259
0.191300
0.234182
0.323004
0.078336
-0.009065
-0.065729
-0.017980
-1.334529
-0.363146
-0.490404
-0.593395
-0.503838
-0.585491
-0.428942
-0.011152
-0.122725
0.216928
0.103815
-0.028296
0.223491
0.643624
0.047160
-0.973897
-0.642712
-0.582784
-0.218548
-0.099260
0.332880
0.297775
0.827167
0.657313
0.631561
0.921524
0.103880
0.521596
0.591069
0.992826
0.031410
0.010329
-0.146052
0.042626
0.092493
-0.009745
0.006785
-0.026432
0.072795
-0.027700
-0.152736
-0.068994
0.033920
-0.111897
-0.061298
0.108668
0.158990
0.152573
0.062786
-0.084879
0.011187
0.064589
-0.000778
0.134935
0.207681
0.158353
0.069867
-0.034524
-0.077851
-0.068759
-0.128050
0.106611
0.199530
0.167340
0.035024
0.064192
-0.091794
-0.133563
-0.107601
-0.052572
-0.142037
-0.134170
0.075431
0.022653
0.108889
-0.135129
-0.082994
0.184971
0.234694
0.322160
-0.018033
-0.294685
-0.189006
-0.093465
0.117924
0.163357
0.123718
-0.196351
-0.196248
-0.076862
0.009467
-0.004649
0.024841
-0.030913
-0.084903
-0.113759
-0.160271
-0.136956
-0.135730
0.030062
-0.069334
-0.100256
-0.101858
-0.086902
-0.167380
-0.153501
-0.134649
-0.128336
-0.038954
0.146143
0.278390
0.361080
0.450355
0.101411
-0.338183
-0.234938
0.156806
-0.044725
-0.115327
-0.121208
-0.065345
0.131458
-0.023165
0.019868
0.057116
0.079673
-0.035334
-0.019188
0.056768
-0.031993
0.010262
0.087858
-0.106528
0.101951
0.046218
-0.114839
-0.171292
0.115156
0.159473
0.231447
-0.309269
-0.216736
-0.091010
1.362536
1.719677
-0.524134
-1.372394
-1.005635
-0.411861
0.089221
-0.047355
-0.055307
-0.019324
0.017004
-0.052400
-0.082454
-0.061367
-0.040887
-0.136456
-0.191395
-0.187618
-0.175889
-0.100382
0.113546
0.130742
0.092233
0.066161
0.068207
0.048440
0.001248
0.012259
-0.038932
-0.075904
0.077954
0.076256
0.068892
0.136693
-0.019916
0.004267
-0.154692
-0.119782
-0.101368
-0.022375
-0.010308
0.040185
-0.000165
0.059680
0.106270
0.241096
0.218620
0.483052
0.457817
0.258343
0.068111
-0.306911
-0.273572
-0.120402
-0.144042
-0.120772
-0.035565
0.033718
0.033843
0.024187
-0.497392
-1.093439
-0.218372
0.310549
0.104837
0.100793
0.239638
0.771173
0.094272
0.551841
0.171130
0.179944
-0.032300
0.050062
0.115328
0.023309
0.142512
0.043551
-0.153784
0.056590
-0.068995
-0.039543
0.223224
0.083597
-0.014763
0.110884
0.087217
-0.342773
0.244869
0.006668
-0.384729
-0.593538
-0.840708
-0.704476
-0.208618
0.116034
-0.336328
-0.338977
-0.083172
0.039581
-0.122949
-0.052288
-0.134749
-0.046828
-0.083924
-0.110220
0.040166
-0.128733
-0.158329
-0.044386
0.262639
-0.058782
-0.440599
0.210621
0.195524
-0.286690
-0.730327
0.833516
0.330264
-1.072413
-0.658675
1.555946
0.498100
-1.436346
0.766312
0.706482
0.034256
0.645706
-0.094035
0.549112
0.021326
0.409168
0.278661
0.229375
0.200044
0.235951
0.053252
0.133527
0.291514
0.243985
0.186392
-0.014213
0.230236
-0.069185
0.118008
0.052449
0.219122
-0.068468
-0.387820
0.009713
-0.064019
-0.269635
-0.293863
-0.302391
-0.879388
-0.117249
-1.004486
0.046907
-0.087213
-0.070330
0.022451
-0.136342
-0.103035
-0.104511
-0.007994
0.023438
0.098762
0.113298
0.189829
0.177809
0.096978
-0.141270
-0.189256
-0.153484
-0.144791
-0.004329
-0.160777
-0.167831
-0.171126
0.078568
0.071860
0.110196
0.223850
0.111790
-0.032198
0.037813
-0.023435
0.499113
0.262055
-0.403096
-0.711925
-0.663971
-0.332756
-0.217731
0.006267
0.240107
0.486270
0.383206
0.089415
-0.084894
0.151840
0.364163
0.269694
-0.071138
-0.369330
-0.450575
-0.492747
-0.469083
-0.368297
-0.410386
0.106834
0.353516
0.391014
0.164505
0.195865
0.052694
0.338249
-0.524678
-0.360820
-0.307040
-0.046976
0.512968
0.801113
0.382601
-0.675017
-1.344914
-0.917644
-0.130067
0.311660
0.290519
0.234412
-0.035546
0.169438
0.110003
0.165953
-0.058357
-0.115720
0.112445
0.243612
-0.119843
0.199802
0.251312
0.114674
0.259084
0.277107
0.177771
0.182537
-0.024965
0.063471
-0.046770
0.177118
0.355341
0.575127
0.690115
0.373554
-0.349094
-0.952752
-0.850910
-0.546791
-0.267347
-0.254887
-0.442148
-0.301259
-0.068874
0.160284
0.078729
0.178255
0.235638
0.177339
0.265721
0.202478
0.227993
-0.033527
0.157710
0.068464
0.084722
0.307836
-0.055596
0.004589
0.036137
-0.060627
-0.081241
-0.036558
-0.069124
-0.044587
0.025343
-0.056800
0.113820
0.084697
0.015662
-0.034766
-0.108830
0.079526
-0.036729
0.042335
0.074584
0.083098
0.013583
0.069970
-0.043352
-0.045549
-0.015721
-0.041864
0.024095
-0.128550
0.067376
0.008332
0.016265
-0.048840
0.062127
-0.074064
0.058696
0.032102
-0.081445
-0.008252
-0.009567
-0.061952
-0.068544
0.023779
-0.006544
0.027956
-0.054096
-0.002824
-0.051852
0.062845
-0.039139
-0.074981
0.005130
0.050878
-0.024097
0.125681
0.030149
-0.006553
0.045496
-0.027492
-0.105012
-0.077697
0.080319
0.027716
-0.013262
0.031802
-0.063166
-0.055438
-0.012642
0.104832
-0.029589
-0.012883
-0.017792
0.039184
-0.084114
-0.073220
-0.050660
-0.027806
0.055552
-0.028185
-0.050815
-0.010450
-0.147855
-0.010540
0.046765
-0.007628
0.152576
0.180943
0.012376
0.024614
-0.123131
-0.012076
-0.255690
-0.094732
-0.201313
-0.127503
-0.126714
-0.038375
0.072501
0.232907
0.294238
0.185658
-0.069389
-0.198022
-0.401151
-0.438256
-0.218965
0.094289
0.319419
0.244639
-0.054555
-0.067778
0.130845
0.189489
0.119620
0.279446
0.549197
0.510883
0.034743
-0.318134
-0.391168
-0.354148
0.363132
0.374219
0.042313
-0.466171
-0.759006
-0.540279
0.011556
0.324282
0.076221
0.015689
0.139928
0.341915
0.021059
-0.464624
-0.500539
-0.007211
0.182701
0.121280
-0.163935
-0.176819
0.271741
0.218758
-0.080335
0.109729
0.135782
0.275832
0.530946
0.357674
-0.020926
-0.260320
0.135326
-0.041293
-0.021122
-0.024852
0.106790
-0.027256
-0.006029
-0.015751
-0.021790
-0.018626
-0.152290
-0.103319
-0.010473
-0.121890
-0.140272
0.038405
-0.104624
-0.013497
0.017638
0.105170
-0.011662
-0.182501
-0.030353
-0.017236
0.147072
0.255136
0.055711
-0.075142
-0.033509
-0.065798
0.055549
-0.070079
0.031487
-0.072765
0.020003
0.080144
0.007096
-0.040337
-0.061219
-0.006516
-0.034556
-0.016828
0.107124
0.044322
-0.103373
0.080359
-0.049397
0.109477
-0.096654
-0.023080
0.047153
-0.016971
-0.023294
0.079465
0.155497
0.065591
-0.004959
-0.145137
-0.139594
-0.007549
0.024804
-0.004257
-0.004776
-0.009623
0.001785
0.076833
0.045387
0.010215
-0.041579
0.032081
-0.039186
-0.075178
-0.092941
-0.007344
-0.006314
-0.050380
-0.057940
0.002934
0.058923
0.116122
-0.039254
-0.037515
-0.189020
0.008448
0.071778
-0.005189
-0.026153
-0.036646
-0.065090
0.083240
-0.255686
0.000114
-0.084422
-0.145530
-0.030025
-0.013075
-0.179969
-0.203805
0.041313
-0.058552
-0.338789
0.106080
-0.350429
0.058784
-0.629926
0.748764
-1.432919
0.900771
-1.205410
1.496968
-0.430273
-0.231929
-0.822256
0.397692
-0.041121
0.433549
0.276145
0.679244
-1.352203
2.098850
-0.106205
-0.293413
-0.674201
-0.806450
-0.663443
-0.306633
0.033746
0.017350
0.188645
0.260618
0.183181
-0.043857
0.202480
0.458091
0.262658
-0.005384
-0.101599
0.137200
0.098466
-0.024445
-0.000095
0.234256
0.319261
0.289399
0.332463
0.359877
0.194583
0.058886
0.137881
-0.744169
0.051880
0.083256
-0.061058
0.004772
0.023737
-0.104109
0.049418
-0.031360
-0.078837
-0.030059
-0.054385
0.043525
-0.034600
0.109052
0.085069
0.086786
-0.066938
-0.126380
-0.067496
-0.091946
0.077455
-0.042380
-0.043545
0.040652
-0.009546
0.057174
0.092530
-0.017505
0.063744
-0.018212
-0.096818
0.105250
0.072688
0.018311
-0.056079
0.159964
0.141498
0.149935
0.115203
0.033758
-0.295925
-0.114155
0.178569
0.066914
0.022747
-0.157113
-0.574105
-0.390090
0.268275
0.788112
0.835544
0.352139
-0.139936
-0.477938
-1.301616
-0.435670
0.184323
0.021033
-0.042654
0.216289
0.096960
0.092692
0.032093
0.201028
0.305146
-0.051273
-0.236052
-0.068870
0.556055
0.706659
0.012106
-0.846855
-1.016114
-0.439282
-0.093394
0.012424
-0.212243
-0.354498
-0.364038
0.134729
0.093890
-0.306779
-0.147708
0.334045
0.292113
0.310612
0.143016
0.052410
0.135587
0.003690
-0.017810
0.205793
0.114476
0.170384
-0.032911
-0.094680
-0.202311
-0.089513
0.070789
0.140800
0.153666
0.139388
-0.030675
-0.138174
-0.233790
-0.374697
-0.199424
0.131058
0.313688
0.465327
0.161482
-0.073934
-0.308700
-0.057844
0.244912
0.437826
0.061752
-0.375906
-0.620137
-0.073732
-0.494359
0.024367
0.165666
-0.077155
0.146522
0.065603
-0.119471
-0.016681
0.079912
0.161559
0.391875
0.299828
-0.250333
-0.443397
-0.784785
-0.502763
-0.039872
0.121294
-0.085808
-0.100231
0.304590
0.326335
0.173160
0.085934
0.273405
0.530138
0.485941
0.075648
0.195553
-0.929421
0.078301
0.059498
-0.025508
0.040162
0.076760
0.077676
0.066310
-0.094595
-0.028787
0.008432
0.068770
-0.024390
0.076939
-0.078556
-0.051090
-0.067117
-0.069911
-0.060175
0.074761
0.016334
0.041750
0.081542
-0.017170
0.119230
0.073920
0.097079
0.032389
-0.041346
-0.020812
0.022142
0.260798
0.180416
0.181933
0.192216
0.158076
0.159776
0.216982
0.077815
-0.084361
-0.131713
-0.041246
0.033691
0.199230
0.165045
-0.033871
-0.416262
-0.394694
0.005057
0.219493
0.217262
-0.584955
-0.844816
-0.402816
-0.016076
0.046817
0.513262
0.282773
0.100120
-0.044385
0.050318
0.045497
-0.035003
0.122708
0.049264
0.142203
0.054435
0.115944
0.082654
-0.031863
-0.068710
-0.003805
-0.026414
-0.007032
0.013527
0.036225
-0.015927
0.000418
-0.117838
0.011435
0.141942
0.041864
-0.151231
-0.314654
-0.208660
-0.075156
0.078189
0.070300
0.048522
0.113456
0.095097
-0.133190
-0.095853
-0.291645
-0.216077
-0.283033
-0.017238
0.030820
0.109413
0.319914
0.307628
0.194414
0.049090
0.025800
0.058093
0.049579
-0.072461
0.176792
0.176342
0.170240
0.237674
0.063370
-0.043472
-0.132257
-0.277725
-0.016173
0.097461
-0.186059
-0.026061
-0.164991
-0.018946
weigvec 606
0.403920
-0.371969
-0.928417
0.373668
-0.365748
-0.359482
-0.039046
-0.601778
0.117535
0.219296
0.233847
0.187190
0.490469
-0.071024
0.758178
0.936968
-0.129762
-0.161046
0.081558
-0.127442
-0.135828
-0.242546
-0.188180
0.648563
-0.353186
-0.115773
-0.313849
-0.232396
0.220129
-0.022237
-0.123531
0.069867
0.163688
-0.284210
-0.186007
-0.268566
-0.110441
1.438457
0.165629
0.598101
1.396334
0.319592
0.685954
-0.120524
1.175996
0.306792
-0.204843
-0.298342
0.197250
0.770364
-0.875760
-0.379822
0.142017
0.225496
-0.134999
-1.016290
-0.194735
-0.028994
0.924484
0.061031
0.491272
0.869066
-0.887268
-0.087916
0.836101
0.138962
0.094232
-0.116030
-0.447550
-0.205677
0.003647
0.108490
0.702954
-0.101023
0.898337
0.701580
0.472243
-1.014476
-0.012516
0.535590
-0.125643
-0.098813
0.055382
-0.211743
-0.125929
-0.429513
-0.335389
-0.063159
-0.177754
0.095508
-0.669544
-1.029840
-0.024693
0.567831
-0.248048
-0.007030
-0.958749
-0.113756
0.653055
0.323364
0.060703
0.153834
0.202602
0.845260
-0.250091
0.094345
0.041463
0.075317
0.538210
-0.060706
0.935452
-0.205924
-0.078411
-0.146634
-0.715370
0.401100
-0.485651
0.013437
0.030997
-0.101266
-0.142468
-0.147618
0.009903
-0.162486
-0.653294
-0.133611
-0.018333
0.125006
0.080823
0.113898
0.301025
0.478790
-0.042714
-0.165236
-0.205732
-0.813057
0.076902
-0.084765
-0.446139
-0.085263
-0.617030
-0.456095
-0.297252
2.131105
-0.026359
0.006069
-0.443252
0.103330
0.024735
0.453268
-0.187550
1.377699
0.110108
-0.221836
0.508111
-0.751917
0.917043
-0.101012
0.040561
-0.792428
-0.205199
-0.151214
0.021077
-0.529644
-0.113293
-1.312819
0.055603
-0.176513
0.017387
-0.540274
-0.093114
-0.027621
0.277894
-1.282362
0.101814
-0.438980
-0.785606
-0.638456
-0.428852
-0.130410
-0.018117
0.546683
0.472927
0.001569
-0.047714
-0.122680
0.060477
0.299144
-0.153060
-0.022701
-0.133359
-1.074857
0.935959
0.036971
0.202550
0.455257
-0.011887
1.501104
0.019662
-0.222928
-0.099373
-0.098016
0.092865
-0.131052
-0.298655
-0.192548
0.169338
0.378233
0.153086
0.209978
0.127722
0.091475
0.025231
-0.049835
0.136334
-0.927247
0.574529
-0.200452
0.030351
-0.068801
-0.035960
0.258207
0.187997
0.410778
-0.243640
0.089698
0.060684
-0.300978
-0.151796
-0.064932
0.234786
0.015245
-0.037644
0.234219
0.195093
0.077825
0.096359
-0.085769
-0.024988
-0.002139
-0.056449
0.554454
0.075701
0.393283
-0.646658
-0.097372
-0.277497
-0.019445
0.081359
0.111482
0.039268
-0.180198
0.018700
-0.204770
0.038325
0.137850
0.165739
-0.183681
0.050756
0.108155
0.280896
-0.081198
0.040022
0.091929
-0.946696
-0.072166
-0.105546
-0.065579
-0.005015
-0.113970
-0.317554
0.050506
0.223173
0.247353
-0.433540
0.041864
-0.260615
-0.635388
-0.245193
0.150919
-0.206795
0.025063
0.128586
-0.001072
0.132878
0.015544
-0.035407
-0.157674
0.222857
-0.036771
0.013745
0.043266
0.332482
-0.542479
-0.004986
-0.088586
0.039055
0.571184
-0.150012
0.111561
-0.392979
-0.178167
0.360802
-0.142291
-0.282603
-0.022904
0.236774
0.242943
-0.054524
0.008144
-0.071209
-0.112236
0.029486
-0.081699
0.011124
-0.210348
-0.399406
0.211583
0.281858
-0.094064
-0.072607
-0.089368
0.045594
0.237299
0.119162
-0.292121
-0.190327
0.021902
-0.275864
-0.083885
0.002589
0.016674
0.113647
-0.158996
-0.099599
0.149130
0.089890
-0.695593
0.015322
0.060018
0.161818
0.013061
0.199716
-0.329507
-0.115833
-0.569235
0.223138
0.584920
0.226785
0.053007
-0.025869
0.453939
0.020837
-0.502721
-0.620695
0.092466
0.113078
-0.506419
-0.458264
0.029487
-0.262438
0.237035
0.177607
0.177343
0.240956
-0.918623
-0.064952
-1.028101
0.204599
-0.060792
-0.030132
-0.459298
-0.036313
-0.307519
-0.078018
0.757352
-0.003533
0.165402
0.270285
-0.328614
0.060533
0.017194
0.001507
0.149941
0.086470
0.042504
0.082091
-0.157431
-0.076267
0.027655
-0.210672
-0.036829
-0.147223
-1.194817
-0.204701
0.096184
0.332222
-0.033662
-0.272282
-0.783154
0.028666
-0.462274
-0.082165
-0.353867
0.605619
0.532854
0.336322
-0.080524
0.360426
-0.057577
0.317542
0.644641
0.065702
0.159458
-0.178494
0.282766
0.426206
0.194245
0.171334
-0.302854
0.203547
0.215241
-0.123650
-0.063547
-0.334126
0.088613
0.578267
-0.213072
0.092917
0.433038
0.331136
0.335925
0.384780
0.520699
0.810686
-0.009605
-0.164386
0.030334
-0.303645
0.042221
-0.062079
-0.836038
-0.073518
-0.139542
-0.046475
-0.311297
-1.559538
0.052634
-0.214045
-0.599404
0.114446
0.191571
0.094113
-0.084666
0.612211
-0.573765
-0.138360
0.420394
0.196431
0.569468
0.020852
0.288231
0.404096
-0.158556
-0.646472
0.111698
-1.379047
0.003753
1.021818
-0.123304
0.050119
0.372984
-0.286783
0.243117
0.393081
-0.359453
1.038767
0.263212
-0.306814
-0.107818
-1.277382
-0.021140
0.343903
0.486992
0.471258
0.437624
-0.012468
0.031130
0.176233
0.769681
0.535053
0.218239
0.091492
0.059624
-1.313580
0.308611
0.160658
0.155399
0.693439
0.345606
0.662512
0.100203
0.591978
0.107078
-0.155173
-1.119911
0.195433
-0.019860
0.077649
-0.340893
0.103465
-0.126456
-0.538337
-0.175675
-1.193550
-0.004611
-0.278837
-0.457949
1.816450
-2.220435
-0.380967
-0.058499
0.154603
0.109920
0.054461
0.161835
-0.438488
0.106595
0.217865
0.093342
0.020521
-0.021474
0.069894
-1.174936
-0.999744
-1.026894
-0.022447
0.120510
0.168634
2.168424
-0.041870
0.120119
-0.304490
0.032899
-0.467817
-0.554580
0.006524
0.065578
-0.114034
-1.270772
0.402529
0.013125
0.153330
-1.219033
-0.129806
-0.812822
1.801145
0.030895
-1.305054
0.984188
0.360631
0.091001
0.046946
-1.089882
-0.051114
-0.141802
-1.265470
4.800688
0.198987
0.546822
-0.019574
-0.057771
0.073691
1.893620
0.044957
-0.130232
-0.238858
-0.728530
-0.093628
0.009854
0.744871
1.931440
1.518130
0.108137
-0.885964
-1.053975
-1.011121
0.033890
0.060344
0.075073
0.039872
-0.871608
0.214012
0.074850
0.032942
3.895637
0.584647
0.007327
-1.217303
-0.816667
-0.459393
-0.403080
0.034204
-0.034193
0.052496
0.114310
biasvec 101
-4.201056
-3.902351
-4.057607
-3.817647
-3.853893
-3.825711
-4.026380
-3.899131
-4.074385
-4.990078
-3.949564
-4.001852
-4.059761
-5.225362
-6.227311
-4.264893
-3.931457
-3.949686
-4.058549
-3.914484
-3.961463
-3.953085
-3.935853
-3.583044
-3.874835
-3.855233
-3.914955
-3.910651
-4.085814
-3.638461
-4.604714
-3.910755
-4.002707
-3.951181
-4.818849
-4.025182
-3.975242
-3.501665
-3.955293
-3.823961
-3.715560
-3.859737
-2.828371
-3.928991
-3.523665
-4.004412
-4.031940
-3.884861
-5.315229
-3.983264
-4.304292
-4.181644
-4.057897
-4.870587
-4.389439
-4.347121
-3.982117
-3.863693
-4.158397
-3.945570
-4.025630
-5.449309
-7.976554
-3.957314
-2.165075
-4.060755
-3.998365
-3.972764
-5.196652
-3.880275
-3.970408
-3.889920
-3.821531
-3.996092
-4.442891
-4.603724
-4.606304
-5.465667
-3.973564
-3.968152
-4.352316
-4.315695
-4.036257
-4.072449
-4.024772
-3.897259
-3.910030
-3.982985
-4.089590
-4.064846
-6.218628
-4.313754
-4.003042
-3.861398
-4.469787
-3.857236
-4.471212
-4.065997
-3.712142
-3.990208
-3.915367
biasvec 6
-4.497477
-7.263912
-2.675211
-3.890699
-3.364716
-2.251124
