30 101 6
weigvec 3030
-0.297138
0.323428
0.282513
0.318876
0.029718
-0.161319
-0.279413
-0.002910
0.560676
0.766070
0.233420
-0.412929
-0.675011
-0.641918
-0.049277
0.445353
0.323025
-0.115676
-0.253093
-0.327369
-0.457812
-0.411332
-0.216683
0.062314
0.210549
0.356450
0.073231
0.086686
0.008737
0.249239
0.234322
0.198992
0.178625
0.023700
-0.013475
0.032628
-0.309451
-0.308189
-0.261037
-0.425405
-0.488618
-0.358531
-0.230086
-0.086436
0.074929
0.240978
0.109942
0.171449
0.145113
0.112499
0.266487
0.132225
0.003881
0.149426
0.357659
0.448961
0.111005
0.088987
-0.063657
-0.418885
0.100608
0.020303
-0.217790
-0.126813
-0.298749
-0.114247
0.014188
0.226123
-0.010309
-0.092925
-0.074437
0.191132
0.298574
0.225996
0.190648
-0.117372
-0.213284
-0.225886
-0.202801
0.225254
0.550321
0.461929
0.244650
0.175559
0.157812
0.288675
0.375951
0.164772
-0.433550
-0.946440
-0.137101
-0.098861
-0.074473
-0.071586
-0.100837
-0.002460
-0.002531
-0.081180
0.005727
0.014314
0.004721
-0.038862
-0.030020
-0.067625
0.103616
-0.030365
0.028581
0.125193
0.068318
-0.166263
-0.179240
0.712681
0.731236
-0.882734
-1.738500
0.255592
0.782625
-0.401720
0.168615
0.540695
0.121377
-0.253044
-0.805381
-0.715447
-0.105125
0.376264
0.447656
0.169091
0.094126
0.051567
0.028769
-0.070115
0.014895
0.053552
0.237953
0.262294
0.361867
0.297739
0.017737
-0.204883
-0.176299
0.006462
0.087649
0.212852
0.240944
0.413917
0.223301
0.093174
-0.190947
-0.365245
-0.082250
-0.096940
-0.130463
-0.197126
-0.084607
-0.118588
0.142961
0.058938
0.189108
0.192908
0.150271
0.260630
0.237565
0.135123
0.072326
0.180229
0.200016
0.218582
0.146742
0.116110
-0.058505
-0.364377
-0.180986
0.122906
0.079926
0.054545
-0.212193
-0.345371
-0.394955
0.193614
-0.041484
-0.044309
0.081232
0.128308
0.102557
-0.051429
0.022844
-0.015593
-0.098390
0.012826
-0.137692
-0.129298
0.050729
0.059724
0.123609
0.042662
-0.013130
-0.048052
-0.093973
-0.069856
-0.085074
0.003431
-0.021799
-0.007353
0.055585
0.132533
-0.025815
0.023093
-0.065708
-0.156195
0.033892
-0.087961
-0.151610
0.064142
0.005609
0.153138
0.031365
0.016640
-0.157508
-0.052604
0.095520
0.190326
0.133710
0.134919
0.013815
0.022460
-0.045393
-0.100530
-0.059732
0.024061
0.163351
0.230222
0.143800
0.041625
0.166912
0.217154
-0.016701
-0.236557
-0.245835
-0.454563
0.016413
-0.057201
0.051385
-0.050709
0.117238
0.125121
0.116617
0.029365
-0.083407
-0.088213
0.008723
-0.088660
0.019832
-0.011586
0.083073
0.137371
0.047109
0.010232
-0.032795
-0.086404
-0.091559
0.000287
-0.099935
-0.030240
-0.104449
0.035714
0.105173
0.051420
0.059883
-0.011424
0.262885
0.129314
0.066956
0.017702
-0.110686
0.108368
0.404409
0.171879
-0.320588
-0.830258
-1.400846
-1.241324
-0.432911
0.035538
0.086962
0.232639
0.371312
0.399625
0.470876
0.393364
0.150626
0.186431
-0.187553
-0.302230
-0.204074
-0.078369
0.321946
0.347710
0.146905
0.406949
0.043597
0.036838
0.022926
0.050443
0.063365
0.096911
-0.041526
0.033850
0.022839
0.028120
-0.014645
-0.074680
-0.056001
-0.043274
-0.012670
0.011902
-0.017776
-0.037264
0.035204
0.076261
0.019500
-0.129741
0.041439
-0.028811
-0.113137
-0.129696
-0.035380
0.000289
-0.029256
0.122681
0.015020
-0.010116
0.110801
0.063238
0.026094
-0.085279
-0.068264
0.066069
0.015887
0.042353
-0.108594
-0.023315
-0.047784
0.036864
0.067989
0.079884
-0.018734
0.024592
-0.122500
-0.114054
-0.163488
-0.120138
-0.118161
0.018059
0.077984
0.092325
0.045803
-0.023819
-0.023974
0.083163
-0.078718
0.051340
0.021394
0.072030
0.029897
0.053335
-0.104729
-0.149127
-0.046474
-0.103925
0.072550
0.095922
0.214127
0.171733
-0.007858
0.038836
0.125799
0.094302
-0.108006
-0.086257
-0.079617
0.083319
0.130071
0.072951
0.086631
0.089950
-0.178055
-0.350971
-0.260604
-0.086973
0.111578
-0.223542
0.003427
0.094264
-0.180039
-0.100272
0.112643
-0.198716
0.063519
-0.011301
-0.404333
-0.141502
-0.142243
-0.025529
-0.350677
-0.708577
0.298459
0.502631
-0.728252
-0.037313
-0.095831
0.033832
-0.064503
0.276679
-0.410083
-0.742063
0.249139
0.319460
0.170500
1.271356
-0.495275
-0.056879
-0.089365
-0.631846
-1.141724
-1.388483
-1.357236
-0.952958
-0.449310
0.161795
0.311801
0.111008
0.293793
0.281505
0.791382
0.210671
0.106831
-0.143617
0.113429
0.454166
0.365124
0.229045
0.321426
0.380883
0.521404
0.403837
0.337067
0.236914
0.296522
0.655811
0.026443
0.038099
0.091010
0.139975
0.230872
0.137653
-0.077556
-0.136520
-0.226169
-0.256015
-0.133892
-0.032851
-0.089656
0.095156
0.441800
0.827094
0.663129
0.128078
-0.453158
-0.529332
-0.354788
0.032921
0.416825
-0.006135
-0.625190
-0.319547
-0.262099
-0.107299
-0.029019
0.089560
-0.089433
-0.024291
-0.171637
-0.088709
-0.022739
-0.010470
0.150255
0.034924
0.001922
0.093298
-0.071049
0.031608
0.093330
0.025558
0.124260
-0.015130
0.009575
0.032111
-0.104041
-0.040441
-0.058673
0.038239
0.063061
0.023761
0.086246
0.150285
0.024432
-0.008664
-0.154135
-0.191247
0.403762
0.309509
0.135982
-0.160649
-0.082560
0.223562
0.218716
0.172876
-0.129836
-0.298396
-0.236366
-0.271946
-0.228284
-0.203338
-0.138111
0.030215
0.120147
-0.003947
-0.042328
0.101497
-0.096703
-0.044131
0.063747
0.029697
0.284033
0.215115
0.074392
0.101585
-0.006901
-0.032945
0.127308
-0.041655
0.004973
0.020765
-0.012998
0.094531
-0.087664
-0.012589
-0.032709
0.037859
-0.023028
0.021437
-0.095949
0.029653
0.062345
-0.120339
0.071479
-0.118512
-0.018448
-0.037250
-0.075736
-0.134624
-0.058846
-0.035056
-0.005563
-0.116208
0.056235
-0.057121
0.103997
0.118999
-0.058823
-0.093988
-0.052367
-0.149385
-0.029676
0.153782
0.201797
-0.015851
0.045762
-0.047684
-0.004756
0.151903
0.084327
0.096279
-0.132506
-0.188414
-0.075207
0.085817
0.298243
0.369414
0.321231
0.004902
-0.144957
-0.179208
-0.075617
0.083765
-0.325574
-0.738960
-0.368364
0.650082
0.404739
0.225804
0.104054
-0.085532
-0.377784
-0.387699
-0.294712
-0.047407
0.325910
0.427920
0.528434
0.569545
0.335034
-0.003392
-0.098630
-0.246528
-0.177301
-0.190115
-0.057105
0.020787
-0.007578
-0.003044
0.144048
-0.182000
-0.361772
-0.071572
-0.272313
-0.249241
-0.114724
0.086952
-0.047849
0.117777
0.036078
-0.055421
-0.051458
-0.094459
0.042978
-0.012716
0.111478
0.018241
-0.056054
-0.122434
0.011528
0.021372
0.136164
0.193238
0.191838
0.077935
0.066458
-0.143694
-0.130347
0.008540
0.035831
0.105189
0.050580
0.153043
-0.033008
-0.057815
-0.174190
-0.139558
-0.278981
-0.086096
-0.008980
0.150921
0.069963
0.099070
0.036832
-0.007404
0.080737
0.098318
0.027383
0.161333
0.165178
0.010399
-0.209296
-0.181732
-0.019896
0.015218
0.128632
-0.008353
-0.067299
-0.094013
-0.070443
0.008812
0.278427
0.317982
-0.048504
-0.125961
-0.105624
-0.034268
-0.196338
-0.203832
-0.147547
0.072355
-0.126783
0.097157
-0.093271
-0.090215
0.047236
-0.251049
-0.007923
-0.028364
-0.026851
0.143236
-0.005341
-0.070643
-0.037287
0.321671
0.063504
-0.151331
-0.234056
-0.382429
-0.329239
0.076482
0.436012
-0.424842
-0.555058
0.438649
0.991347
0.644073
0.038576
0.103332
0.121833
0.103784
0.041827
0.111807
-0.055253
0.007602
0.084369
0.014892
0.098988
0.122448
0.132874
0.058277
-0.063483
-0.121411
0.064253
0.054457
0.071104
0.144655
0.243893
0.135662
0.147154
0.020684
0.099700
0.078683
-0.444249
-0.697126
-0.426410
-0.257586
0.006699
0.101723
0.032878
-0.087167
0.061060
-0.060737
0.021309
0.139984
-0.043661
-0.059419
0.071207
-0.062711
0.141405
-0.004381
-0.066055
-0.105431
-0.108468
0.059718
-0.119850
-0.140726
-0.053083
-0.062239
-0.083190
0.046949
0.105330
0.264209
0.006632
0.020155
-0.107073
-0.101848
0.103372
0.192386
0.002928
0.056191
-0.042826
-0.085590
0.137677
0.211329
0.059421
0.042178
0.060925
0.213530
0.262325
0.041945
-0.198658
-0.345026
-0.924741
-0.931588
-0.376262
0.087070
0.304433
0.327346
0.192391
0.184973
0.485285
0.397753
0.114147
0.003322
-0.182665
-0.387013
-0.046416
-0.073048
-0.079509
0.087642
0.087824
0.083619
-0.020416
-0.048629
0.007605
-0.040902
0.013688
0.138895
0.155646
0.087337
-0.080442
-0.081775
0.057575
-0.104336
-0.018703
-0.037506
0.003540
0.008943
0.059492
0.032253
0.134600
0.115625
-0.012619
-0.122342
-0.093523
-0.179034
-0.258946
-0.462252
-1.025309
-1.318555
-1.022313
-0.583798
0.183053
0.332256
0.366881
0.343914
0.238675
0.224881
0.268196
0.119211
-0.149288
-0.038791
-0.011799
-0.148381
-0.024703
-0.006166
-0.037950
0.175156
-0.019695
0.117882
0.312715
0.270174
0.488116
0.398322
-0.029768
0.799848
-0.353918
0.288228
0.411477
0.332922
0.106319
-0.233799
-0.624454
-0.665932
-0.243074
0.323786
0.616491
0.424775
0.041722
-0.261070
-0.714746
-0.623913
-0.240941
0.094359
0.069218
0.083345
0.129581
0.259630
0.005134
0.090282
0.060929
0.076454
0.293475
0.336683
-0.016967
-0.257811
-0.486194
0.151378
-0.065336
-0.123682
-0.120862
0.028484
-0.076615
-0.019150
-0.201126
-0.005625
-0.155046
-0.045601
-0.127726
0.188000
-0.108549
-0.031976
-0.118459
-0.022864
-0.037067
-0.035266
-0.134203
-0.046719
-0.056009
-0.956799
0.413172
4.681228
-1.283950
-0.597522
0.603788
-0.803121
0.057161
0.116925
0.087019
0.167731
-0.006341
0.026324
-0.121392
-0.150532
-0.198242
-0.170964
-0.107010
-0.025730
-0.007203
0.088819
-0.000987
0.112394
0.179263
0.284971
0.416770
0.270426
0.062489
-0.269288
-0.244610
-0.114405
0.038736
-0.169586
-0.214798
-0.165601
-0.148401
0.249947
-0.077260
-0.136285
-0.101809
-0.086953
0.041066
0.116780
-0.011959
0.006510
0.087746
0.091355
0.053367
0.096871
-0.031818
0.117802
0.052496
0.101973
0.069465
0.040232
-0.081813
-0.078680
-0.046149
0.028812
0.040776
-0.030461
-0.179914
-0.047020
-0.197653
-0.174851
0.001500
0.178379
0.039102
0.057275
-0.007378
0.006063
-0.026552
0.108310
0.034305
0.086681
-0.106235
-0.091532
0.065891
-0.061520
-0.044414
-0.070700
-0.019643
0.055530
-0.043848
0.136865
0.076412
-0.136605
-0.043677
0.130488
0.025978
0.035152
-0.026307
0.217770
-0.125132
-0.224089
-0.113525
0.100617
-0.015374
0.069155
0.067825
-0.010390
-0.067404
-0.029395
0.114716
-0.077264
0.017519
-0.033407
-0.051525
-0.026426
-0.089658
-0.150530
-0.138659
-0.044345
0.029232
-0.001722
0.012618
-0.115155
-0.055372
0.020194
-0.114613
-0.051477
0.060445
0.006315
0.001406
-0.065093
0.063827
0.114125
-0.053912
-0.047667
-0.094586
-0.112063
0.084490
-0.070575
-0.064010
0.059596
0.039765
0.060116
-0.033176
-0.033799
-0.008787
-0.016102
-0.029688
-0.017860
0.076926
-0.087308
0.045620
-0.104663
-0.024375
0.011690
0.086270
0.075483
0.019062
0.043757
0.021701
0.064040
-0.144701
-0.167496
0.017784
-0.037517
0.013887
0.054473
0.017287
-0.123767
0.002016
0.013247
-0.087661
0.077114
-0.085422
-0.074006
0.040158
0.010789
-0.094964
-0.132547
0.059142
-0.119657
0.011501
0.145017
0.090139
-0.087570
-0.027521
0.089193
0.084361
-0.005866
0.018947
0.080325
-0.041484
0.203157
0.069448
-0.110816
-0.016764
0.101800
-0.031857
0.018283
-0.007293
-0.003665
0.080511
0.088903
-0.103633
-0.003142
-0.063746
0.052229
-0.098039
-0.119580
0.120651
0.190005
0.011834
0.281233
-0.157135
0.164296
-0.899428
-2.442626
-1.134557
1.878043
0.263677
0.444164
-0.265359
1.108552
0.068313
-0.073939
-0.097763
0.043551
0.058570
-0.037717
-0.057964
-0.028400
0.042655
-0.089289
0.053365
0.017803
0.004595
-0.028771
-0.009506
0.042943
-0.129574
-0.069371
-0.098657
-0.120636
-0.095159
-0.095631
-0.113321
0.051824
-0.079624
-0.181225
0.071361
0.011911
0.194721
0.155032
-0.094254
0.056090
0.019536
0.006501
0.003469
0.036090
0.031098
-0.019998
-0.128457
0.030896
-0.058763
0.003662
-0.032132
0.095048
-0.130882
-0.007209
-0.113156
0.059414
-0.011878
-0.119391
0.489164
1.060146
1.440228
0.389167
-0.929431
-0.723625
-0.497997
-0.151180
-0.501179
0.036598
0.040242
0.023242
-0.045898
0.024797
0.064582
0.009056
0.075517
-0.046162
0.057661
0.073324
0.040080
0.132087
0.041480
0.126020
0.086663
0.064019
-0.156784
-0.152753
-0.053666
-0.077863
0.047417
-0.133955
-0.410061
-0.418615
0.039261
0.040400
0.106800
0.068496
0.094944
0.254512
0.320880
0.213822
0.300301
0.268753
0.109352
-0.061275
-0.174661
-0.324373
-0.246290
-0.220479
0.043959
-0.021035
0.110867
0.091605
0.030830
-0.055464
0.039063
0.165666
0.278622
0.439449
0.253114
-0.389745
-0.484514
-0.313850
0.119783
-0.075450
-0.588662
-0.323406
0.234811
0.472450
-0.137946
-0.121237
0.182462
-0.273913
0.174129
-0.044763
0.059089
-0.061834
0.012081
0.082091
-0.034986
-0.046094
0.004119
-0.027463
-0.049434
-0.099448
0.098299
0.068938
-0.194287
-0.011299
0.302563
-0.467899
-0.405566
2.026259
0.555453
-3.777887
1.971011
1.953547
-1.009522
-0.537578
0.040814
-0.029080
0.093220
0.144106
0.014817
0.150563
0.019064
-0.005282
0.055888
-0.062396
-0.021124
-0.037938
0.073739
0.119092
0.011307
0.112456
-0.026699
0.005403
-0.093282
-0.063613
0.044427
0.173235
0.123294
0.056648
0.071911
0.055007
-0.072194
-0.131940
-0.082976
-0.186269
0.121643
-0.058031
0.010498
0.003532
0.038789
0.157374
-0.075107
0.126301
0.087536
-0.160592
0.076873
0.018898
0.118248
0.060740
-0.035542
-0.033454
0.045568
-0.032622
0.321317
-0.069010
-0.298855
-0.530603
0.723215
1.761865
0.354193
-1.592265
-1.122065
-0.211467
-0.056185
0.371098
0.103028
-0.051681
-0.011009
-0.004522
0.014699
0.157247
0.133500
0.092502
0.054533
0.102772
0.126249
0.349596
0.364988
0.246054
-0.123940
-0.321825
-0.292054
-0.266562
-0.339691
-0.290982
-0.017475
0.518115
1.057729
-0.016506
-0.949311
-0.074586
-0.193518
-0.439320
-0.208584
0.136553
-0.081875
0.105997
0.083938
0.115116
-0.015895
-0.015228
-0.070378
-0.013295
0.065330
0.015832
-0.083823
0.095125
0.056275
-0.036973
0.027692
-0.034772
-0.031668
-0.031931
-0.098460
-0.053553
0.070045
0.054239
0.007365
0.019191
0.027932
0.014552
0.072374
0.007039
-0.048760
-0.179554
0.068565
-0.059433
-0.020041
-0.053543
0.105429
-0.027190
-0.052093
-0.087748
-0.009379
0.113470
0.018669
0.001890
-0.043568
0.081141
-0.065876
-0.010360
-0.036203
0.029934
0.118383
-0.076559
-0.063989
0.060247
0.015560
0.005111
0.166502
0.093374
-0.085671
-0.063994
-0.171463
-0.104997
0.013077
0.099803
-0.052106
0.000886
-0.004207
0.018288
0.106257
0.138814
0.210406
0.321833
0.105994
-0.269316
-0.894838
-1.350448
-1.268636
-0.660398
-0.168458
0.135168
0.291050
0.667867
0.763076
0.502696
0.595726
0.348993
0.084034
-0.422264
-0.356126
-0.214449
0.048198
0.640604
0.024235
-0.100916
-0.014697
0.019572
0.094415
0.018108
0.074878
0.069006
0.033650
0.013970
-0.049489
-0.101873
-0.018102
-0.011737
0.013391
-0.028715
0.054153
-0.066246
0.006550
0.028859
0.065196
-0.105692
-0.089168
-0.168483
-0.158057
-0.035391
0.152615
0.123808
-0.007260
0.162036
0.108124
0.275727
0.089216
0.051158
0.166649
0.191428
0.113249
0.176597
0.047137
0.232077
0.016800
0.058563
0.177462
0.042578
0.223439
0.084391
0.080563
0.176471
-0.135106
0.328731
0.182402
-0.226290
-0.208129
0.576490
1.279901
1.449433
-0.426713
-1.148711
-1.514009
-1.597527
0.297680
-0.178206
0.158740
0.390162
0.459060
0.440557
0.328867
0.019242
-0.028987
-0.199609
-0.234790
-0.322433
-0.301350
-0.259116
-0.205024
-0.086390
0.203139
0.240361
0.081864
0.181156
0.251303
-0.070558
0.568923
0.002483
-0.730451
-0.194504
-0.515458
-0.401420
0.084781
0.346069
0.090671
0.072725
-0.031925
0.030738
-0.050547
0.038371
-0.091945
-0.105478
-0.003481
0.072010
-0.035647
0.056802
0.059647
0.002595
0.029807
0.078875
0.101542
0.049223
-0.093076
0.079740
0.066541
0.072040
-0.124675
-0.009872
-0.116354
0.002607
-0.028855
-0.125972
-0.022874
0.115920
0.097132
-0.020924
0.005489
0.088659
0.052916
-0.000474
-0.039586
0.001847
-0.021136
-0.304334
-0.134375
0.205674
0.535465
0.365146
-0.416317
-0.846815
-0.826030
-0.897282
-0.715415
-0.415562
-0.257365
0.034586
0.370604
0.552190
0.828758
0.676789
0.489191
0.141066
0.044241
0.731130
-0.076920
-0.384629
-0.243055
-0.043354
-0.105088
0.155697
0.154865
0.202553
0.130719
0.141746
0.049011
-0.055694
-0.200320
-0.036374
-0.000921
0.055766
0.228670
0.034465
-0.156363
-0.070094
0.123082
-0.034266
-0.409689
-0.536944
-0.072399
0.082298
-1.206401
-0.628680
0.936259
1.382462
-0.005599
0.221804
0.149731
-0.525497
-0.895876
-1.278592
-1.341952
-0.426771
0.159052
0.299575
0.249036
0.098114
0.339482
0.251778
0.142297
0.290787
0.138725
0.083705
0.036936
0.139340
-0.008561
0.189900
0.026711
0.048959
0.441958
0.877402
-0.000512
0.302134
0.160390
-0.211343
0.034824
-0.052055
-0.105654
0.069582
0.122432
-0.010427
0.099622
0.077068
-0.082595
-0.050042
0.091532
0.085099
0.114923
-0.067258
-0.007524
-0.006571
0.031688
-0.062779
0.101713
-0.067247
-0.083166
0.071916
0.023331
-0.065440
0.099305
0.071386
-0.111729
-0.134398
-0.139849
-0.137877
-0.127591
0.080007
0.042458
0.068647
0.026575
0.041686
0.062861
0.005766
0.076918
0.058173
0.116217
0.048303
-0.104453
-0.108811
-0.027843
-0.060090
0.053870
0.048644
0.039389
0.066253
-0.014593
-0.038923
0.023435
0.059341
0.085112
0.185460
0.127296
0.040449
-0.105358
-0.103094
0.093338
-0.038308
0.036398
0.130076
0.044081
0.173415
0.174783
0.146468
0.080021
0.033298
0.024799
-0.003591
0.018665
-0.145077
-0.376586
-0.073719
0.593959
0.695789
0.723459
0.128532
-0.696172
-0.767236
-1.040743
-0.907046
-0.740566
0.424976
0.627349
0.496949
-0.011371
0.083433
-0.054633
0.054857
0.064316
-0.072130
-0.020086
-0.038893
-0.103321
0.072584
0.008757
0.082929
-0.086137
0.010766
0.088934
0.066329
-0.019897
0.049078
0.020759
-0.056735
-0.064446
-0.033317
0.093302
0.023974
0.000551
-0.000389
-0.087977
-0.036636
-0.133966
0.012398
-0.054371
0.171435
0.062156
-0.004443
-0.043044
0.085721
0.135877
0.054950
0.185072
0.139945
0.196451
0.110390
0.073294
-0.010748
-0.076535
-0.079339
-0.059332
0.070663
0.041962
-0.104693
-0.094621
-0.011357
0.068229
0.020459
0.187334
-0.159111
-0.308377
-0.203271
-0.095153
0.049725
0.075567
0.086819
-0.021002
0.065493
-0.001393
-0.051620
-0.078473
0.050524
-0.053545
-0.036829
0.015607
0.048790
-0.089714
-0.077364
-0.105315
0.088326
0.130487
0.111229
0.082462
0.072735
-0.032824
0.050634
0.053271
0.067265
-0.025522
-0.061822
-0.062710
0.001614
-0.008166
-0.079077
-0.019839
-0.006123
-0.299340
0.102297
-0.325839
-0.005151
0.176820
-0.246013
-0.111526
0.219498
-0.424950
0.072759
0.018326
-0.611338
0.566244
-0.095010
-1.071571
1.160438
-0.394915
-1.110429
0.988140
0.401890
-1.700992
1.128334
-0.548767
0.458634
-0.182885
-0.521870
1.303048
0.442480
-2.032547
2.150161
0.114754
-0.078932
-0.119241
0.114153
-0.015529
-0.118468
-0.006296
-0.076606
0.003442
0.018919
-0.142126
0.081994
-0.064519
-0.139719
-0.001965
-0.081155
-0.143110
0.062392
0.185161
-0.096790
0.000797
-0.185165
0.056218
0.101190
0.120789
-0.048689
0.057539
-0.049478
0.031128
0.162462
0.197097
0.071456
0.044993
0.168450
0.010440
0.145220
0.021540
0.025025
0.103449
0.069697
-0.008602
-0.121566
-0.195268
0.326428
0.648797
0.569563
0.227328
-0.354885
-1.093720
-1.196880
-0.834761
-0.113567
0.140510
0.243934
0.149256
0.480904
0.032003
0.168480
-0.028772
0.108919
0.006672
0.045767
-0.000509
-0.049823
-0.064136
0.035780
0.093226
-0.078958
0.002268
-0.069761
-0.024587
-0.019553
-0.031728
0.115564
0.053433
0.102629
0.023025
-0.086994
-0.040502
-0.009424
0.065953
0.044986
0.084151
0.045414
-0.074255
-0.174243
-0.021643
-0.087231
0.069705
-0.019598
0.081218
-0.074139
-0.071089
-0.107530
0.063675
0.122108
0.030072
-0.037765
-0.063034
0.084103
0.064491
0.114192
0.098192
-0.036584
-0.159203
-0.117302
-0.137208
-0.095395
0.079141
0.065653
0.086989
0.114295
-0.028387
-0.032882
0.114023
0.148684
-0.054628
0.001492
0.025311
0.041701
0.159491
0.090162
-0.218798
-0.048354
0.094771
0.228716
0.236003
0.150892
0.135427
0.185796
0.197438
0.329145
0.209997
-0.000646
-0.288557
-0.272804
-0.326870
-0.357026
-0.418106
-0.410208
-0.242315
-0.046420
-0.053402
0.200941
0.480475
0.491320
0.189216
0.192600
-0.010294
0.124264
-0.106563
-0.226079
0.143703
-0.169469
-0.162018
0.258587
-0.131320
-0.227899
-0.074346
0.142528
-0.153057
0.262473
-0.014718
-0.123979
-0.087707
0.176154
0.247794
-0.242413
-1.282975
1.620715
0.853143
-1.609263
-0.042908
0.640243
0.412358
0.224008
-0.200089
0.131182
-0.246020
0.289023
0.106482
0.029215
-0.158375
0.088742
0.157759
0.060161
0.070030
0.027080
0.104737
-0.057886
-0.356753
-0.461625
-0.332523
-0.221863
0.112454
0.346160
0.298917
0.156408
0.078326
-0.036142
0.053533
0.124456
0.007916
0.109722
0.331993
0.329567
0.034805
-0.090001
-0.142746
-0.187303
-0.110851
0.058051
0.110745
0.086139
0.000325
0.084383
-0.048757
-0.066872
-0.059752
-0.012608
-0.067558
-0.074808
0.114774
0.001915
0.092765
-0.075379
-0.038499
0.082909
0.040880
0.124345
-0.008045
-0.149190
-0.030995
-0.058835
0.020871
0.026836
0.074183
-0.104522
-0.071645
-0.099237
-0.129097
-0.111365
-0.043864
-0.091765
-0.142485
-0.113591
-0.107756
-0.111452
-0.166888
-0.123501
-0.279950
-0.261390
-0.198667
-0.004904
-0.085581
-0.203808
-0.223144
-0.183455
-0.154074
-0.006856
0.156534
0.321823
0.511619
0.305189
0.174254
0.157720
0.123991
-0.157968
-0.041206
0.190690
0.004787
-0.006161
-0.062277
0.145559
0.290904
-0.022630
-0.554439
-1.029768
-1.359566
-0.918277
-0.054391
0.385312
0.317134
0.219931
0.227960
0.283120
0.274304
0.166754
0.089509
0.029445
-0.194038
-0.081154
-0.142774
0.042489
0.324988
0.505080
0.132704
0.175861
0.193195
0.117447
-0.148526
-0.090441
0.001309
0.097127
0.009050
-0.033919
-0.046858
-0.028666
-0.121436
-0.317710
-0.533418
-0.627780
-0.415181
0.019014
0.246740
0.278584
0.175790
0.077918
0.068605
0.117345
0.194447
0.114999
0.063592
0.194300
0.251492
0.262708
0.244905
0.039279
-0.112757
-0.415633
-0.013566
-0.075363
0.015268
0.077670
0.079178
0.182395
0.118531
-0.050402
0.054307
-0.109198
-0.146945
0.051304
0.551447
0.642869
0.188409
-0.084879
-0.692583
-0.735408
-0.072798
0.544667
0.593177
0.189322
-0.584863
-0.920891
-0.492134
-0.004404
-0.063772
0.100838
0.145784
0.207922
1.203344
-0.474801
0.462640
0.244889
0.337070
0.337930
0.232139
0.192376
0.287354
0.019387
0.109977
0.112235
0.099504
0.155979
0.117626
-0.148786
0.183639
-0.077262
-0.138626
0.041169
-0.378077
-0.446102
-0.251464
-0.608246
-0.585302
-0.112882
-0.354053
-0.633705
0.257564
-0.753718
-0.202260
-0.236960
0.085799
0.000129
-0.243925
-0.127818
0.288031
-0.205230
-0.125316
-0.114255
0.018608
-0.147832
-0.248334
0.547448
-0.360547
-0.838017
0.621270
1.013444
-0.833404
-1.188172
1.577061
0.581100
-0.949983
-0.685874
0.884534
0.649137
-0.539448
0.157749
0.065084
0.112141
0.361506
-0.013863
0.306132
0.093219
0.182264
0.336767
0.395422
0.374136
0.247357
0.094291
0.291932
0.167019
-0.019305
0.113571
0.061852
0.159644
-0.151792
-0.198099
-0.213242
-0.287079
-0.311900
-0.621605
0.045475
0.222754
0.212390
0.510010
-0.294051
-0.688134
-0.415624
-0.506986
0.077912
-0.046064
-0.023537
0.101465
-0.045470
-0.019713
-0.031064
0.037210
0.016228
0.066482
0.102793
0.127974
0.116184
0.005162
-0.226858
-0.223612
-0.158777
-0.181393
-0.031020
-0.139835
-0.107338
-0.112870
0.039335
0.004242
0.098626
0.187436
0.015552
-0.058841
0.054879
0.036592
0.046431
0.111758
-0.227592
-0.078560
0.147380
0.093038
0.102137
0.137946
-0.150880
-0.152656
-0.035123
0.112056
0.208872
-0.000262
-0.290814
-0.054040
0.117283
0.124285
0.015581
-0.005052
-0.616821
-0.973647
-1.266130
-0.149317
1.168926
1.123075
-0.379805
-0.305096
0.051776
0.501576
-1.189122
-0.257527
0.322447
0.596256
0.385143
0.226529
0.026727
-0.024557
-0.153848
-0.350461
-0.440281
-0.310660
0.079117
0.294451
0.150390
0.201197
0.041738
-0.001328
-0.143030
-0.080312
0.034265
0.174619
0.142895
0.215753
0.229415
0.167427
0.160712
-0.030631
-0.043303
-0.090471
-0.223337
0.104216
0.118580
0.351573
0.419122
0.460836
0.341935
0.232977
-0.125235
-0.454084
-0.332608
-0.218018
0.059372
0.038417
-0.090205
-0.248778
-0.295334
-0.262977
-0.144608
-0.072542
0.055800
0.082532
0.061625
0.186829
0.405994
0.277308
0.305475
0.090564
-0.154762
-0.472265
-0.074156
-0.005127
0.048701
-0.050066
-0.072261
-0.023801
-0.063066
-0.041993
0.021291
-0.077346
0.087960
0.074535
0.027833
-0.009598
-0.094891
0.088340
-0.034909
0.048179
0.073234
0.075039
-0.001972
0.070828
-0.021149
-0.018687
0.010539
-0.012069
0.024453
-0.172484
0.049276
-0.026364
0.029135
-0.032321
0.078777
-0.057525
0.065701
0.043288
-0.060924
0.003855
-0.007233
-0.053503
-0.060186
0.026288
-0.002478
0.019981
-0.078497
-0.021169
-0.057892
0.068848
-0.009654
-0.036182
0.022692
0.045237
-0.046436
0.076522
0.031047
0.014438
-0.011365
-0.079228
-0.116332
-0.074405
0.108603
0.056927
0.017095
0.055735
-0.043486
-0.047395
-0.002584
0.131389
-0.018355
-0.000227
-0.013961
0.004255
-0.101979
-0.077400
-0.055073
-0.031571
0.050492
-0.037276
-0.035870
0.002861
-0.151058
-0.030770
-0.008595
-0.066573
0.197679
0.147045
-0.088101
0.061241
-0.102053
-0.003757
-0.156146
-0.111714
-0.218781
-0.142159
-0.158389
-0.134379
-0.090056
0.097611
0.132057
0.211031
0.085337
-0.038912
-0.098070
-0.176461
-0.170403
-0.018832
0.182350
0.160718
0.049571
0.060460
0.013590
0.090192
0.007429
0.080759
0.341291
0.355592
0.046823
-0.083936
-0.218306
-0.267775
0.184269
0.337644
0.247329
0.105233
-0.091557
-0.244639
-0.137054
-0.032688
-0.035468
0.100176
0.032513
0.040304
0.018113
-0.138808
-0.084608
0.172697
0.331365
0.308478
0.094247
-0.128265
-0.052606
0.070010
0.015652
0.035307
0.166233
0.250569
-0.032369
-0.243292
-0.313148
-0.346022
0.176643
-0.043750
-0.034374
-0.020823
0.120722
-0.043420
-0.030256
0.002926
0.010499
0.012566
-0.136466
-0.141928
-0.051698
-0.172054
-0.148903
0.080042
-0.070770
0.002050
-0.004799
0.101674
0.041931
-0.142588
-0.033465
-0.023603
0.270257
0.279882
-0.110358
-0.140636
-0.052459
-0.061240
0.068756
-0.060248
0.046315
-0.058415
0.023997
0.084724
0.016662
-0.026332
-0.050747
0.001239
-0.025606
-0.018034
0.107717
0.045652
-0.108167
0.076366
-0.061414
0.095559
-0.086677
0.000953
0.063419
-0.021535
-0.051157
0.037824
0.134689
0.029511
-0.058625
-0.140555
-0.114687
0.010836
0.029855
-0.005608
-0.011399
-0.013478
-0.003522
0.063151
0.031083
0.001988
-0.044261
0.044178
-0.028649
-0.079165
-0.094759
-0.013781
-0.016046
-0.048471
-0.051027
-0.001885
0.029731
0.081783
-0.039463
-0.005919
-0.159726
0.043009
0.095308
-0.009064
-0.019111
-0.026824
-0.058894
0.059898
-1.542687
0.013083
-0.204925
-0.594062
-0.225292
-0.225219
-0.413873
-0.288819
-0.162265
-0.221045
0.214338
-0.104638
-0.295917
-0.136312
0.041218
-0.259151
-0.195435
-0.002267
0.042967
0.053690
-0.037933
0.417709
0.400132
0.098319
0.346457
0.888335
0.147772
0.651412
0.415901
0.874398
-2.051318
-1.264541
-0.599074
0.009825
0.491362
0.395430
0.090581
-0.015489
0.100746
0.175306
0.147698
-0.050485
-0.070593
-0.080526
-0.101979
0.062222
0.061810
-0.048204
0.031996
0.136221
0.140538
0.209693
0.091811
0.112305
0.331316
0.247245
0.246609
0.341654
0.194557
0.564025
0.040563
0.083628
-0.054900
0.021382
0.038625
-0.096734
0.054142
-0.039248
-0.083269
-0.031895
-0.053586
0.038476
-0.051041
0.077686
0.054836
0.072054
-0.054275
-0.091656
-0.014352
-0.066805
0.097202
-0.011937
-0.027172
0.033299
-0.004578
0.052400
0.056802
-0.042682
0.042021
-0.034286
-0.062975
-0.053613
-0.090487
-0.073927
-0.062346
-0.060202
-0.031450
-0.060060
0.013152
0.009659
-0.088273
0.003584
-0.133845
-0.070342
-0.104848
0.063362
0.221925
0.220381
-0.076931
0.496988
1.001368
1.169138
0.019505
-0.794278
-1.063296
0.171731
-0.235406
-0.008337
-0.573938
0.041744
0.709862
-0.563541
-0.321902
0.122581
-0.013593
-0.157044
-0.173879
-0.133715
0.204263
-0.230994
-0.187990
0.130279
0.036877
-0.172918
0.039008
-0.310881
-0.281975
0.018931
0.160802
-0.177991
-0.424839
0.007770
0.454864
-0.771813
0.693234
2.241516
-1.060403
-0.613177
0.587712
-0.328057
-0.702976
-0.043540
0.140184
0.373650
0.214389
0.111989
-0.068987
-0.063295
-0.028455
0.111013
0.300450
0.390338
0.235310
0.010705
-0.200410
-0.232379
0.179608
0.381876
0.265507
-0.105318
-0.381975
-0.252398
-0.197096
-0.011422
0.006172
0.130795
-0.063772
-0.086778
-0.224170
-0.224807
-0.075936
0.053466
-0.068522
-0.102428
0.053761
0.023810
0.130591
0.185961
0.130594
0.153436
-0.105786
-0.439959
-0.664121
-0.875234
-0.998645
-0.454940
0.162200
0.271718
0.193208
0.249785
0.304374
0.281778
0.090858
-0.042376
0.516134
0.688074
0.254939
0.018823
0.068369
-0.154419
0.086963
0.066175
-0.017616
0.044973
0.072177
0.074834
0.077308
-0.073523
-0.015701
0.011008
0.071069
-0.018180
0.094800
-0.067605
-0.049332
-0.065383
-0.065156
-0.052413
0.094306
0.033633
0.059421
0.088781
-0.028121
0.091312
0.078131
0.098168
-0.034210
-0.090205
-0.029807
0.007336
0.153519
0.110423
0.105619
0.143672
0.051731
0.053489
0.179045
0.073657
-0.054088
-0.073311
0.067464
-0.053992
0.074428
-0.013036
-0.007696
-0.131576
-0.036060
-0.048448
-0.106733
0.024656
-0.127925
-0.322879
-0.219920
-0.020682
0.078465
0.235233
-0.024371
0.015407
-0.010656
0.172233
0.016776
-0.067869
0.091388
0.016152
0.111800
0.010298
0.078856
0.062256
-0.057027
-0.080188
0.007281
-0.020131
-0.018919
-0.004606
0.017252
-0.017512
0.029114
-0.122035
-0.027046
0.108943
0.080769
-0.070849
-0.281784
-0.127413
0.000709
0.069794
0.083262
0.068563
0.144183
0.106462
-0.096784
0.037245
-0.070094
0.023596
-0.097316
0.060659
-0.027826
-0.056726
0.082404
0.067016
0.010115
-0.023563
0.080667
0.124228
0.071076
-0.100132
0.114808
0.091941
0.036739
0.120582
0.017002
-0.020849
0.004084
-0.108883
-0.008427
0.035907
-0.108050
-0.007061
-0.142120
-0.057534
weigvec 606
-0.009908
-0.529720
-0.847762
0.602130
-0.618669
0.111011
-0.035914
-0.487905
0.136590
0.059730
0.110326
0.083385
-0.181915
-0.826143
0.861898
0.721715
-0.211068
-0.389040
0.094983
-0.188518
0.555802
-0.179172
-0.230366
0.388387
-0.428260
-0.215123
-0.848758
-0.207698
-0.191523
-0.294446
0.346141
0.287303
0.166995
-0.215648
0.060315
-0.231416
-0.102374
1.620113
0.234158
1.214844
0.473890
0.460031
0.696483
-0.229629
1.679046
0.565143
-0.134519
-0.200991
0.423654
0.319491
-0.161145
0.538257
0.067620
0.117903
0.929811
-1.638414
-0.238399
-0.039487
1.072791
0.005022
0.294964
0.070917
-0.283887
-0.055168
-0.084226
0.085746
-0.085291
0.021518
-0.001850
-0.336205
-0.009689
0.137698
-0.690221
-0.545866
0.800019
-0.381369
-0.329174
-0.343374
0.007017
0.315421
-0.441555
-0.231129
-0.040193
-0.193971
-0.126354
-0.291098
-0.232819
-0.163498
-0.152104
0.026167
0.151321
-0.589223
0.001232
1.324817
-0.914379
-0.464122
-1.653444
-0.142568
0.207954
0.281439
-0.033512
-0.058587
0.385018
0.802622
0.330129
0.122978
-0.294020
0.067885
0.148895
-0.051633
0.986425
-0.183402
-0.055760
-0.188155
-0.449669
-0.035701
-0.342654
0.051819
0.085012
-0.086159
-0.523976
-0.451308
-0.049618
-0.241890
-0.394616
-0.230226
-0.033694
0.727905
0.065647
0.719924
0.890626
-1.167207
-0.157354
-0.192418
-0.218764
-0.032664
0.112256
-0.070927
-2.150140
-0.035011
-0.722028
-0.144637
-0.426741
2.596196
-0.013665
-0.845751
-0.773109
0.097743
-0.016176
0.644338
0.005825
-1.013966
-1.122787
-0.218954
0.811787
-1.139482
0.886392
-0.134551
0.096213
-0.624726
-0.165885
-0.139005
-0.069326
-1.055276
-0.087062
0.631165
0.069171
-0.094983
-0.008233
-0.543004
-0.129608
-0.004975
0.179264
0.859126
0.269152
-0.309469
-1.240730
-0.573725
-0.860312
-0.149857
-0.247873
0.351347
0.497564
-0.005719
-0.058770
-0.121925
0.014649
-0.111526
-0.159659
-0.043627
-0.095878
-1.092062
1.227146
0.066790
-0.861480
-0.485516
-0.078303
1.200886
0.007601
-0.183677
-0.014055
-0.121037
-0.305548
-0.322231
-0.102775
-1.324476
0.265296
0.440596
0.149343
0.001924
0.074513
-0.238903
-0.020879
-0.052406
0.181299
-0.747108
0.469273
0.556297
0.119062
-0.196512
-0.037913
0.517530
0.602374
0.150388
-0.098072
0.280384
-0.122065
-0.048727
-0.439976
0.048983
-0.480355
-0.441699
-0.600380
0.405809
0.238454
-0.002419
-0.143703
-0.061115
-0.095509
1.677664
-0.060617
1.124263
-0.037260
0.844571
0.191401
0.038226
0.241629
0.519234
0.063282
0.081096
0.105771
-0.050553
-0.042710
0.654958
0.023782
0.588731
0.958367
-0.846588
0.021386
0.019272
0.778303
-0.031989
-0.054791
-0.008319
0.464102
-0.146173
-0.338861
0.029305
-0.183720
-0.369895
-0.692358
-0.052329
0.149725
0.229068
-0.448820
0.171575
0.133079
-0.126138
-1.044396
1.399840
-0.177953
-0.958739
-0.084075
-0.160526
0.074416
0.006359
-0.091971
0.057236
0.061169
-0.112335
0.045641
-0.065797
0.978968
-0.669093
0.034266
1.290059
0.262352
0.046449
-0.596198
0.048116
-0.067922
-0.105500
0.126659
0.219544
0.005746
-0.216098
-0.049025
0.233514
-0.441901
0.042481
0.071233
-0.063529
0.570191
-0.011188
-0.002361
0.206067
0.008458
0.369417
0.371770
-0.049462
0.013036
-0.108290
-0.007613
0.312444
0.080495
-0.135406
-0.818151
-0.042720
-0.234996
0.181336
0.046372
0.434703
0.069322
-1.194247
-0.084679
0.173122
0.170380
0.015790
-0.038715
0.056366
-0.478820
-0.129006
-0.835066
-0.189180
-0.203007
-1.115422
0.170430
-0.421925
0.877703
0.025379
-0.015951
0.632043
-0.021055
1.022441
0.400086
0.102410
0.787774
-0.032908
0.115896
0.094104
-0.152881
-0.004246
0.106842
0.097867
0.135807
-0.703547
-0.025255
0.515190
0.160548
0.054338
-0.179546
-0.745169
0.104613
-0.111628
0.285206
0.397264
-0.139508
0.442403
-0.403004
0.123874
-0.288940
0.071390
0.670381
0.186053
-0.355029
0.094224
0.074946
-0.142095
-0.182548
0.272938
-0.141721
-0.026169
-0.076193
-0.705503
0.586064
0.038735
-0.317000
-1.058575
0.147621
0.244922
0.087920
-0.282514
-0.113559
-0.087767
1.089942
0.735262
0.413062
-0.249881
0.689800
0.053923
0.219777
0.410382
0.012823
0.643307
-0.119449
0.172952
0.352288
0.124653
-0.121307
-0.673793
0.163880
0.421533
-0.157321
0.315921
-0.747109
0.169800
0.386768
-0.696624
0.563899
0.219584
0.866845
0.243206
1.108665
0.982930
1.903918
-0.132909
-0.085912
0.036076
0.096194
0.016467
-0.119844
-0.726147
-0.161874
-0.287179
-0.110309
-0.390148
-1.949145
0.120664
0.329766
-0.679765
0.098456
0.154835
0.184775
-0.067173
1.206021
-0.740632
-0.090825
0.651010
-0.580478
1.454308
0.117300
0.219999
0.471527
-0.139229
-0.351124
0.081763
-1.898997
-0.129797
0.988792
-0.092435
0.144977
0.874957
-0.872538
0.556965
0.171357
-0.401382
1.263831
0.553426
0.462954
0.465955
-0.959610
-0.507841
0.282466
0.972757
0.763865
0.581286
0.016545
0.048884
0.154196
0.509857
0.319906
0.220785
0.054411
0.053509
-1.142898
1.267787
0.065816
-0.587958
0.192770
0.729208
1.319031
0.109922
0.267895
-0.054850
-0.005018
-0.940659
-0.127525
-0.136650
0.858494
-0.532061
0.182823
-0.054893
0.036797
-0.146391
-1.772090
0.013247
-0.071764
-0.131170
1.788554
-1.647449
-0.782681
-0.109187
0.164511
0.136012
-0.086566
-0.300845
-0.224433
0.117712
1.141393
0.041778
0.055593
-0.600051
-0.004563
-1.790418
-1.275596
0.657080
-0.188034
-0.001106
0.107421
0.269279
-0.059121
0.230203
0.077629
0.148700
-0.359630
0.092997
-0.287916
-0.310824
-0.168518
-0.972630
-0.631816
0.010180
0.154106
-1.968377
0.022418
-1.188549
0.408701
0.059802
-2.848150
-0.178914
0.222510
0.036814
0.049448
-1.724062
-0.031900
-0.078424
-0.143943
3.599054
0.307947
-1.747888
-0.061534
0.009040
-0.134617
2.691477
-0.139584
-0.040230
-0.472074
-1.322259
-0.099513
-1.458396
1.880508
2.700433
0.867168
0.086780
-0.605532
-0.658979
-0.445965
0.114463
0.052246
0.138088
0.098553
-0.431699
0.325355
0.064667
0.109029
1.785955
-1.759822
0.064709
-0.886974
2.093667
-0.214407
-0.638642
0.069537
0.191126
0.129792
0.049659
biasvec 101
-4.081042
-4.224165
-3.636069
-4.027393
-3.792892
-3.837472
-4.041422
-3.787357
-4.094269
-5.162611
-3.966790
-4.047925
-3.986606
-4.755066
-5.630411
-4.112565
-3.910886
-3.847676
-4.036708
-3.788427
-4.108433
-4.037123
-3.973666
-4.031395
-3.820002
-3.906836
-4.088436
-3.932009
-5.897616
-4.170980
-0.970639
-3.881099
-3.993522
-3.958079
-3.889215
-4.034762
-3.946195
0.068182
-3.911389
-4.757944
-3.801618
-4.012795
-2.391048
-3.906960
-4.032320
-3.979425
-4.053560
-3.909651
-4.837577
-4.044467
-4.629062
-4.222250
-4.054250
-6.019165
-3.703503
-5.821337
-3.961842
-3.892693
-4.262447
-3.957986
-4.005318
-3.999159
-4.482192
-3.916867
-4.851423
-4.062173
-3.982738
-4.002205
-4.110701
-3.767102
-4.063575
-3.878539
-5.385992
-3.892427
-4.479405
-5.109259
-4.485647
-4.704016
-3.982556
-3.999846
-3.695751
-3.809758
-4.011110
-4.087419
-4.016143
-3.805891
-3.847623
-3.943618
-4.113257
-4.076819
-4.678142
-5.645063
-4.028322
-5.258877
-3.469033
-3.894842
-5.695278
-4.070802
-3.847831
-3.994196
-3.966618
biasvec 6
-4.545357
-6.322949
-3.952908
-3.487232
-4.229010
-1.399666
