30 101 6
weigvec 3030
0.077907
0.026863
0.135629
0.214947
-0.007720
-0.128623
-0.119792
0.139306
0.478197
0.315127
0.105649
-0.038711
-0.491583
-0.423276
0.396102
0.416390
0.724097
0.090935
-0.786602
-1.208189
-0.318940
0.102910
0.197398
0.113226
-0.069483
0.094517
0.087852
-0.020037
0.007350
-0.035578
0.136734
0.115697
0.146279
-0.080441
-0.137000
0.003751
-0.176153
-0.088781
-0.042211
-0.108136
0.028219
0.237082
0.085474
-0.154744
-0.283866
-0.223652
-0.286102
0.113966
0.059136
-0.166129
0.100630
0.198034
0.262381
0.300099
0.161110
0.192562
-0.002165
0.000845
-0.082520
-0.228198
0.091030
0.148192
-0.054643
0.088009
0.097333
0.082928
-0.022647
-0.008952
-0.213705
-0.168539
-0.039217
0.309870
0.189554
-0.019851
0.110377
0.019066
0.057859
0.146824
0.023302
0.241287
0.457671
0.393363
0.211886
0.347322
0.489855
0.247518
-0.719486
-0.639916
-0.458669
-0.548998
-0.064747
-0.033938
-0.050621
-0.071885
0.058727
0.113259
0.089722
0.030626
0.046166
-0.035726
0.006992
-0.026953
-0.209513
-0.010377
0.009620
-0.043308
0.109013
-0.204139
-0.020895
-0.397340
-0.100143
0.620489
1.572818
0.521916
-0.684799
-1.286653
-1.223797
-0.068910
0.521441
0.363157
0.130727
-0.026103
-0.384356
-0.323156
0.146803
0.274939
0.282621
0.190814
0.364177
0.373311
0.047473
-0.402134
-0.315842
0.025153
0.374836
0.239762
0.197074
0.023545
-0.157091
-0.134685
0.092913
0.065527
0.113029
0.320823
0.259472
0.324234
-0.243966
-0.459893
-0.325777
-0.150014
-0.045049
-0.033849
0.023824
0.014412
0.093269
-0.022613
0.068155
-0.106571
0.035525
-0.002493
-0.015489
0.139983
0.101497
0.003325
-0.059278
0.031637
0.023076
0.036818
-0.081487
-0.010291
0.070128
0.020621
0.089035
0.115388
0.104808
0.203000
0.114048
-0.034747
-0.256248
-0.136011
-0.169203
-0.071313
0.133877
0.206533
0.099725
-0.155543
-0.129708
-0.154532
-0.200945
-0.126434
-0.347610
-0.319573
0.038906
0.290052
0.241708
0.059935
0.043314
-0.020375
-0.203502
-0.335398
-0.206626
0.054540
-0.041465
0.008488
0.168865
0.302844
0.168621
0.242182
0.130572
-0.057744
-0.152174
-0.198685
-0.278615
-0.170760
-0.245790
-0.043221
-0.096189
-0.103222
-0.239679
-0.011223
0.178021
0.242875
0.147412
0.296569
0.197286
0.074788
-0.221768
-0.301859
-0.126840
0.081366
0.116927
0.177763
0.173072
0.170282
0.284030
0.406257
0.174822
-0.044240
-0.014492
-0.246319
0.008758
-0.050499
0.018887
-0.081393
0.136271
0.180305
0.154586
0.029469
-0.114988
-0.128068
-0.033977
-0.127315
-0.048627
-0.068474
0.077017
0.176255
0.126678
0.115161
0.073932
-0.073847
-0.183425
-0.095505
-0.183018
0.007009
0.083771
0.200163
0.088183
0.009840
-0.000744
-0.084274
0.042525
0.449247
0.290913
0.125811
0.048238
0.045882
0.056084
0.120414
-0.115455
-0.430359
-0.740766
-0.616585
-0.440775
-0.236858
-0.182719
-0.090229
-0.103426
0.083211
0.055276
0.208409
0.111794
0.156210
-0.027422
0.364631
0.645390
0.727592
-0.006102
-0.098674
-0.107791
-0.498897
0.047681
0.063299
0.055179
0.072122
0.074199
0.106149
-0.024483
0.049187
0.031052
0.041317
-0.012775
-0.070440
-0.037258
-0.032255
-0.009559
0.010616
-0.011695
-0.029319
0.022120
0.052331
0.019306
-0.125804
0.002798
-0.060383
-0.120776
-0.146328
-0.052567
0.011775
-0.042823
0.071310
0.002048
0.009787
0.245928
0.258759
0.020236
-0.346945
-0.415594
-0.180446
-0.157922
-0.159241
-0.404843
-0.332448
-0.110577
0.444768
0.589402
0.384894
0.124206
0.029053
-0.111814
-0.255716
-0.486943
-0.446879
-0.395908
0.060897
0.327406
0.284064
0.063542
0.085485
0.203090
0.355128
-0.285512
-0.219548
-0.375617
-0.274590
-0.041334
0.109610
-0.128231
-0.256158
-0.170918
-0.168060
0.032457
0.018143
0.158812
0.196094
0.054852
0.119861
0.135443
0.130725
0.066839
0.168836
0.013409
0.043572
0.132817
0.153321
0.301492
0.367028
0.010065
-0.170817
-0.162860
-0.044566
-0.137299
0.006671
-0.027273
-0.214517
-0.082511
0.014074
-0.012897
-0.124170
-0.165096
-0.059914
-0.075209
0.024469
-0.038650
-0.042519
-0.053202
-0.217995
-0.103998
0.066797
-0.145177
-0.238185
-0.150072
0.103085
-0.332812
-0.177134
0.013489
-0.320995
-0.478700
0.036845
0.582743
1.294723
-0.689336
-0.534724
-0.490840
-0.435405
-0.719202
-0.928649
-0.911922
-0.467380
-0.059271
0.150035
0.428031
0.327831
-0.140935
-0.294124
-0.211384
0.125834
0.508558
0.462624
0.504446
0.610636
0.423152
0.423526
0.285319
0.019037
0.060187
-0.052209
0.292433
0.277423
0.287729
0.743278
0.216084
0.050403
0.063230
0.029309
-0.057769
-0.115489
-0.159049
-0.059501
-0.093801
-0.157160
-0.221246
-0.234685
-0.114128
0.196934
0.504384
0.666721
0.475650
-0.038760
-0.242754
-0.165265
0.142955
0.192202
-0.176629
-0.652206
-0.721422
-0.095268
-0.038247
0.193031
0.130838
0.120227
-0.107056
-0.051659
-0.234358
-0.122555
-0.024139
0.002238
0.137154
-0.018681
-0.029793
0.084917
-0.110540
0.005650
0.077349
0.040130
0.139485
-0.013532
0.027083
0.085685
-0.060334
-0.049576
-0.104335
-0.005075
0.023813
0.017540
0.146552
0.243301
0.048071
0.001043
-0.088606
-0.137595
0.064383
0.081407
0.116945
-0.054179
-0.039355
0.095324
0.040959
0.053283
-0.066317
-0.085098
0.016941
-0.020403
-0.039196
-0.076382
-0.101287
0.003456
0.070925
-0.032650
-0.084985
0.046045
-0.124194
0.090894
0.274512
0.098348
0.101078
0.099129
0.130075
0.065781
-0.072555
-0.072013
0.117543
-0.013683
0.013360
0.025385
0.003300
0.120285
-0.041766
0.023766
-0.015966
0.042738
-0.029803
0.019305
-0.067401
0.035052
0.051633
-0.113444
0.067718
-0.106207
-0.014971
-0.059354
-0.105525
-0.143927
-0.087764
-0.055068
0.011266
-0.064673
0.073704
-0.063372
0.040539
0.028321
0.036260
-0.034727
0.054256
-0.071388
-0.049866
0.076796
0.096684
-0.147123
0.002573
-0.116705
-0.051150
0.060910
-0.025800
0.130233
0.080537
0.053123
-0.001710
-0.001721
0.082354
0.033311
0.041924
0.124422
0.197765
-0.025724
-0.034009
0.009806
-0.053957
-0.219934
-0.211963
-0.066140
0.048197
0.019054
0.043713
0.073068
-0.094397
-0.131042
-0.195890
-0.118610
0.067517
0.053952
0.134757
0.131316
0.126794
0.041357
0.136939
-0.013377
0.090321
0.098277
-0.002553
0.002206
0.019268
0.054038
0.069133
-0.109433
-0.087758
-0.070676
-0.131688
-0.127023
-0.128541
0.028098
-0.067660
0.232744
0.239900
0.100441
-0.071382
-0.308624
-0.222745
-0.125226
0.140930
-0.025877
-0.179797
-0.262693
-0.035860
0.147011
0.266023
0.257313
0.276827
0.183037
0.123155
-0.237382
-0.251851
-0.071370
0.117527
0.345402
0.227436
0.120105
-0.264770
-0.223757
-0.145686
-0.036533
-0.176556
-0.082099
-0.114774
-0.004691
-0.042878
0.074902
0.023090
-0.043715
0.056609
0.048442
-0.059165
0.135878
0.215110
0.114313
-0.136373
-0.234038
-0.146719
-0.015961
0.202238
0.047952
-0.052560
0.014657
0.139886
0.119494
0.224374
0.280363
-0.040621
-0.129259
-0.105919
-0.015340
0.521785
0.502716
0.281108
0.063775
-0.188953
-0.212373
-0.203486
-0.076388
-0.021711
0.024657
0.101182
-0.032598
-0.112575
-0.072147
-0.114057
-0.109352
-0.155240
-0.088393
0.012345
0.054392
0.125715
0.133201
0.054091
-0.044878
-0.010825
-0.522500
-0.457529
0.296913
0.225028
0.064357
0.008960
0.107856
0.079521
-0.024098
-0.052228
0.071841
-0.088661
-0.108690
-0.026954
-0.039156
0.138475
0.188954
0.081793
-0.036298
-0.101820
-0.133446
0.086915
0.137066
0.144572
0.099521
0.037959
-0.003061
0.283526
0.133305
-0.013026
0.081236
-0.127763
-0.312236
-0.282244
-0.313325
-0.136311
0.005791
-0.049021
-0.179999
0.007305
-0.106421
-0.090971
0.065398
-0.055105
-0.011957
0.118417
0.013073
0.366967
0.245332
-0.060413
-0.282308
-0.214380
0.121059
-0.229343
-0.426585
-0.177044
0.075531
0.008926
0.048118
0.134949
0.418457
0.208138
0.168359
-0.023264
-0.147070
0.042843
0.267496
0.113856
0.238260
0.130125
-0.017436
0.033731
-0.176603
-0.171697
0.093601
0.030390
0.084154
-0.255618
-0.370925
-0.148205
-0.115074
-0.263262
-0.088406
0.034952
-0.058785
-0.068290
0.115038
0.266803
0.271520
0.185428
0.197422
-0.051556
-0.031318
-0.070801
-0.268035
-0.063704
-0.101389
-0.146939
0.030062
0.088352
0.101834
-0.063130
-0.163876
-0.134454
-0.186700
-0.060329
0.192247
0.227962
0.120353
-0.106203
-0.145340
0.000799
-0.093189
0.047370
0.043485
0.049131
0.059336
0.159310
0.137081
0.199364
0.194382
0.010880
-0.123533
-0.093272
-0.142602
-1.527828
-0.885490
-0.592814
-0.385916
0.005433
0.348641
0.184178
-0.088484
-0.136611
0.010315
0.253736
0.334856
0.274971
0.345547
0.665579
0.552620
0.303626
0.094341
-0.144278
-0.010227
-0.366202
-0.358449
-0.526371
-0.208239
0.244510
0.558916
0.115386
0.190287
0.144677
0.464408
-0.187984
0.101565
0.215383
0.507357
0.692401
0.349950
-0.454386
-1.263304
-1.275180
-0.200655
0.689967
0.433280
-0.064986
-0.375944
-0.575434
-0.228079
-0.061351
-0.046546
0.065907
0.136260
0.041559
0.154794
0.116517
0.031502
-0.018164
0.170155
0.094619
0.114840
0.006152
0.419833
-1.687558
-1.395804
-1.142630
-0.673928
0.277016
0.192365
-0.173687
-0.370856
-0.420875
-0.129655
-0.206355
-0.162475
0.446662
1.650109
0.426110
-0.746245
-0.388440
0.009470
0.132729
0.321843
0.513949
0.410813
0.699545
0.357730
0.596739
0.268738
0.253599
0.249609
0.395846
0.704945
0.005760
0.095767
0.048587
0.127131
-0.046051
0.053432
-0.080901
-0.114149
-0.154046
-0.161903
-0.129387
-0.014164
-0.014748
0.068353
0.026976
0.135752
0.153312
0.170646
0.216878
0.071408
-0.009952
-0.186450
-0.211810
-0.085606
0.234979
0.074470
0.022926
-0.033779
-0.201968
0.033267
-0.034462
-0.079128
-0.044274
-0.040243
0.050462
0.080539
-0.075259
-0.048823
0.059666
0.086474
0.049863
0.068388
-0.080362
0.054400
0.003919
0.070982
0.055244
0.054014
-0.043837
-0.035228
-0.028072
0.002819
-0.011221
-0.012790
-0.113773
-0.024499
-0.148836
-0.091734
0.015228
0.102029
0.034372
0.112822
0.030299
0.015775
-0.043460
0.071955
0.049020
0.119853
-0.077620
-0.064028
0.093226
-0.086752
-0.144109
-0.194414
-0.062865
0.069473
-0.045229
0.145193
0.002089
-0.259995
-0.050029
0.324954
0.236142
0.164503
-0.073852
0.137876
-0.111385
-0.200038
-0.179162
0.032802
-0.129738
-0.032666
-0.081454
-0.165298
-0.100605
0.000586
0.078942
-0.155310
-0.128776
-0.103226
-0.022806
-0.003984
-0.127289
-0.281275
-0.341446
-0.267830
-0.149903
-0.061984
0.003695
-0.204930
-0.410594
-0.349416
0.154231
0.640578
0.269704
-0.088018
-0.057359
0.082770
0.627997
0.620755
-0.066440
-0.048302
-0.101865
-0.122659
0.092102
-0.080438
-0.087532
0.051474
0.041649
0.057512
-0.044870
-0.049758
-0.030844
-0.031212
-0.036390
-0.000379
0.098950
-0.081445
0.043074
-0.105087
-0.019110
0.022330
0.109109
0.090862
0.002547
0.036133
0.010386
0.031950
-0.127680
-0.089620
0.004734
-0.020641
0.026079
0.048204
0.028228
-0.099557
0.010017
0.002904
-0.088553
0.062313
-0.080096
-0.067993
0.041194
0.026371
-0.049354
-0.102068
0.032088
-0.146557
-0.052023
0.073320
0.104389
0.060615
0.132093
0.117999
-0.027182
-0.067613
0.055996
0.071551
-0.096436
0.131758
0.033278
-0.034777
-0.182539
-0.223557
-0.199518
-0.138461
-0.111426
-0.096403
-0.111199
-0.037568
0.088713
0.249785
0.462266
0.412217
0.235811
0.180027
0.075666
0.026516
0.025530
0.006092
0.011225
-0.053295
-0.365545
-0.615383
-0.266111
0.003885
-0.244269
0.100986
0.137781
0.337678
0.061557
-0.053681
-0.078137
0.034611
0.057647
-0.013186
-0.029480
-0.005676
0.063283
-0.048039
0.071290
0.021270
0.015598
-0.032097
-0.047631
0.020443
-0.085873
-0.028262
-0.065696
-0.099923
-0.096164
-0.103192
-0.144961
0.024422
-0.033008
-0.130281
0.002266
-0.033123
0.125623
0.072283
-0.132156
0.181619
0.058371
0.075736
-0.100569
-0.063253
-0.252115
-0.177890
-0.180245
-0.177222
-0.173986
-0.072587
0.048788
0.105193
-0.118892
-0.013657
0.044111
0.203941
0.420170
0.598747
0.473313
0.391554
0.205056
-0.251394
-0.682484
-0.570461
-0.101871
0.114367
0.077916
0.178983
0.033140
0.082741
0.068912
0.105440
-0.087433
-0.177209
-0.016103
0.078351
0.054690
-0.147774
-0.146812
0.319270
0.353362
0.167753
-0.004205
-0.302530
-0.589621
0.398754
0.633285
0.768093
0.335742
0.039854
-0.799315
-1.370123
-0.526989
0.204370
0.133101
0.274316
0.067556
0.094248
0.027599
0.047056
0.053849
-0.012006
-0.049764
0.084612
0.086945
-0.051569
0.090585
-0.056810
-0.002046
-0.064006
0.076516
0.016153
0.059517
-0.033431
0.043014
0.095886
0.000411
-0.009613
0.032235
-0.076917
-0.109356
-0.177322
0.114587
0.005599
-0.119446
-0.052801
0.098411
0.201451
-0.102547
0.007321
-0.145087
-0.005596
-0.007001
-0.015754
-0.004174
-0.043531
-0.004291
0.130061
0.037963
-0.078646
-0.183305
-0.051308
-0.071041
0.026454
-0.109617
0.094289
-0.132685
-0.151855
0.087164
-0.507318
-0.217697
2.443707
0.436031
-3.707073
1.536459
1.459511
-0.768434
0.085901
0.196397
0.139047
0.189940
0.165585
-0.015587
-0.027232
-0.190106
-0.215304
-0.101958
-0.170250
-0.139474
-0.238592
-0.059848
0.134279
0.166661
0.306294
0.233928
0.193102
0.040558
0.056166
0.156428
0.241907
0.267645
0.237371
0.042886
-0.055691
-0.230123
-0.407513
-0.241593
-0.104517
-0.481529
-0.478798
-0.261068
-0.171232
0.017599
0.045292
0.030259
-0.025859
0.034581
0.000350
0.330726
0.352625
0.179587
0.365202
0.340798
0.379403
0.324175
0.394609
0.213680
0.224274
0.087189
0.597119
-0.077714
-0.410287
-0.529153
-0.627718
-0.149533
-0.087294
0.184882
-0.370554
0.102320
0.020084
-0.070528
-0.070943
-0.150072
-0.095816
0.020555
0.185378
0.391260
0.535183
0.322688
0.171334
-0.047804
-0.054659
-0.028464
-0.082808
-0.186582
-0.177957
-0.142714
0.033350
0.113935
0.108470
-0.040297
-0.167286
-0.257029
-0.309654
-0.471408
-0.091571
0.086579
0.177555
-0.098867
0.080227
0.056688
0.100886
-0.015756
-0.011004
-0.072051
-0.028376
0.054605
-0.003018
-0.094090
0.106105
0.049186
-0.048306
0.031373
-0.036847
-0.040228
-0.041599
-0.140190
-0.095587
0.057631
0.063416
0.041074
0.066911
0.070128
0.070985
0.121227
0.020695
-0.039318
-0.185010
0.010180
-0.131361
-0.112776
-0.142551
0.075887
-0.010412
-0.070973
-0.151776
-0.055677
0.138418
0.069552
0.039828
-0.036800
0.103087
-0.051225
-0.052404
-0.093562
0.081308
0.181992
-0.108361
-0.091431
0.149243
0.151015
0.057440
0.179060
0.209006
0.001203
-0.081790
-0.201955
-0.162887
0.353527
0.657991
0.252632
0.164378
-0.211334
-0.447594
-0.292216
-0.043008
0.580738
0.673015
0.047109
-0.810145
-1.484143
-0.937381
-0.416371
-0.566023
-0.494285
-0.275528
-0.057081
0.141043
0.222976
0.300557
0.419240
0.265777
0.342540
0.225342
0.124559
0.008774
0.113793
0.377078
-0.152099
-0.265197
-0.027175
-0.015618
0.113405
0.249740
0.385626
0.469945
0.348458
0.130053
-0.020620
-0.107162
0.040961
0.121005
0.204827
0.196358
0.216794
-0.008732
-0.126635
-0.140004
-0.023701
-0.210005
-0.354792
-0.573194
-0.481631
-0.009634
0.245478
0.103763
-0.192169
0.007239
-0.016327
0.086749
0.094841
0.160374
0.063169
-0.007523
0.086774
0.089322
0.090643
-0.072205
0.020209
0.187298
0.130622
-0.028279
0.025741
-0.025924
-0.028394
0.132689
0.050375
-0.008991
0.039634
0.359551
0.199542
0.028336
0.334515
0.218838
0.930831
0.596791
-0.060034
-2.843871
0.694371
0.326641
0.415848
0.397927
0.175971
0.123410
0.089236
-0.094924
0.139674
0.053841
0.098313
-0.073085
-0.196814
-0.288687
-0.149312
-0.447664
-0.510931
-0.349012
-0.365319
-0.290419
-0.166326
0.186240
0.322632
0.205467
0.231552
0.180726
-0.056770
-0.095950
0.010795
-0.302283
0.141406
0.129693
0.009624
0.023963
-0.123988
-0.100609
-0.215405
-0.175496
-0.035732
0.112456
0.042748
0.104537
0.120051
0.082096
0.089516
0.135881
0.163270
0.157066
0.040727
0.145072
0.067269
0.019856
-0.202332
-0.143793
-0.212395
-0.071699
-0.056967
-0.102637
-0.041602
0.092276
-0.407673
-0.369746
-0.237959
-0.086015
0.199402
0.181049
0.259939
0.392503
0.270318
0.191056
0.342847
0.317276
0.462088
-0.378391
-1.271928
-0.912819
-0.221525
0.003496
-0.052846
-0.073116
0.012488
0.138568
0.026579
0.125801
0.337361
0.315107
0.304737
0.119468
0.112590
0.405906
0.734665
-0.096418
0.345901
0.111480
0.199354
0.201993
0.230251
0.313032
0.448081
0.224284
0.239498
0.112642
0.155452
0.105552
0.193962
0.105821
0.164402
0.000091
-0.026417
-0.028490
0.360373
-0.612320
-0.035469
-0.248750
-0.420548
-0.470293
-0.305551
-0.428384
-0.025203
-1.430462
1.004093
0.088842
-0.587697
-1.199247
-0.999266
-0.274106
0.350954
0.313996
-0.206040
-0.253406
-0.024837
-0.101054
0.008968
0.075971
0.175946
0.101104
0.097346
-0.065208
-0.182985
-0.148407
-0.198681
0.063185
-0.070255
-0.028321
0.058061
0.448982
0.386163
0.295195
0.108621
0.423357
0.037180
-0.073048
-0.141527
0.043636
0.085185
-0.051459
0.072263
0.047850
-0.113888
-0.079963
0.083755
0.071073
0.072756
-0.103936
-0.008366
-0.003412
0.001881
-0.081554
0.113011
-0.053171
-0.090104
0.082397
0.079203
0.000206
0.119838
0.089655
-0.035637
-0.066154
-0.103246
-0.099631
-0.107177
0.087721
0.024509
0.046932
0.014307
0.057295
0.070083
0.004894
0.069456
0.034790
0.106797
0.044503
-0.139026
-0.107059
0.001813
-0.048520
0.066992
0.091988
0.092429
0.059182
-0.125428
-0.135763
-0.038153
-0.020021
0.055026
0.250971
0.176020
0.059595
-0.054928
-0.017656
-0.150120
0.118404
-0.038553
0.035328
0.002056
-0.105292
-0.033909
0.104779
0.080241
-0.173828
-0.051020
0.038128
-0.122945
-0.132896
0.115604
-0.050126
-0.045645
-0.181455
0.070726
0.119754
0.205676
-0.037120
-0.954462
-1.059817
2.022614
1.113240
-1.515841
0.831564
-0.100687
-0.080617
-0.016173
0.090166
0.087159
-0.071650
-0.062368
-0.080060
-0.102596
0.087747
0.028662
0.124903
-0.025740
0.057971
0.140770
0.102838
0.004267
0.046804
-0.024815
-0.113221
-0.080968
-0.005018
0.124276
0.043885
0.007037
-0.036508
-0.167446
-0.127746
-0.188827
0.001652
-0.037993
0.155768
-0.277282
-0.246661
-0.021750
0.128645
0.271425
0.341859
0.423389
0.325040
0.312480
0.221550
0.128891
-0.017360
-0.171714
-0.251991
-0.295828
-0.167059
-0.024872
-0.036836
0.015652
0.067329
0.210241
0.130279
0.067616
-0.345910
-0.533639
-0.377882
-0.267328
0.346411
0.321136
0.124308
-0.543777
-0.269365
-0.040898
0.017283
-0.133668
0.057560
0.262695
0.419826
0.339009
0.064653
-0.403407
-0.604762
-0.519577
-0.300510
-0.176732
0.201771
0.520794
0.570394
0.531190
0.515901
0.132740
0.031279
-0.258038
-0.555133
-0.530919
-0.106944
0.021779
0.143874
0.119528
0.481464
-0.311291
0.020496
-0.242674
-0.065226
-0.192305
-0.052644
-0.304183
0.002161
-0.090114
-0.261749
-0.056651
-0.255191
-0.180369
0.032383
-0.429050
-0.999122
1.532884
-1.119172
0.943902
-1.401559
-0.230107
0.961272
0.355246
0.014104
-0.424967
-0.061946
0.616051
0.543519
-0.330484
1.431513
0.047911
-0.054308
-0.093055
0.065604
-0.015135
-0.087675
-0.002110
-0.075278
-0.016340
0.001542
-0.124621
0.075515
-0.026192
-0.080908
-0.008091
-0.088660
-0.128461
0.024610
0.152891
-0.107171
-0.041454
-0.099652
0.185407
0.136256
0.074123
-0.030594
0.136262
-0.028530
-0.071375
0.060802
-0.265986
0.313718
0.434489
-0.013441
-0.591192
-0.756364
-0.554192
-0.227596
0.073404
0.324573
0.413562
0.461266
0.762898
0.302685
-0.179202
-0.785684
-0.843822
-0.712869
-0.523860
-0.499240
-0.147118
0.010124
0.255395
0.525659
0.691178
0.577345
0.013878
0.189252
0.157557
0.478178
0.073673
0.087514
0.003224
-0.093783
-0.115582
-0.002543
0.083790
-0.073195
-0.009081
-0.072314
-0.030655
-0.032246
-0.011183
0.130965
0.064567
0.108896
0.008633
-0.097153
-0.001150
0.082121
0.172967
0.097284
0.070691
-0.003735
-0.147683
-0.270951
-0.096649
-0.098201
0.096556
0.002351
0.080770
-0.051676
-0.019195
-0.061942
0.070999
0.105672
0.017922
-0.035448
-0.045379
0.088483
0.048179
0.091630
0.076531
-0.018325
-0.096299
-0.045984
-0.078021
-0.067850
0.090619
0.089570
0.080153
0.057402
-0.088606
-0.127390
-0.015031
0.023118
-0.122972
0.018821
0.087413
0.136013
0.021626
0.081784
-0.173136
-0.078474
-0.076179
0.131779
0.200860
0.239362
0.300255
0.341012
0.095843
-0.077065
-0.277984
-0.031866
0.141348
0.053585
-0.255473
-0.311989
-0.389015
-0.328194
0.066802
0.294747
0.113357
0.259935
0.374066
0.366589
0.067318
0.102228
-0.019023
-0.141141
-1.632995
-0.725721
-0.660975
-0.713189
-0.244297
-0.235347
-0.370029
-0.321726
-0.369267
-0.074241
-0.023546
-0.093157
0.226148
0.592600
0.040150
-0.240699
-0.044340
0.165605
0.150429
0.207117
0.334647
0.347607
0.581137
0.326396
0.162888
0.466691
0.436352
0.748526
0.529667
0.767725
0.026546
0.002693
-0.159282
0.046011
0.124617
0.025445
0.052065
0.030950
0.144693
0.030758
-0.119245
-0.053147
0.045456
-0.139124
-0.084009
0.088642
0.112167
0.087674
0.022505
-0.107476
0.028705
0.143981
0.063172
0.141863
0.206785
0.117318
-0.033121
-0.074525
-0.095929
-0.105546
-0.114257
0.110055
0.197632
0.158224
0.010557
0.042459
-0.227793
-0.293117
-0.233258
-0.175509
-0.239163
-0.219365
-0.032179
-0.052419
0.141121
0.059264
0.142164
0.286046
0.214618
0.331924
-0.012048
-0.311060
-0.260750
-0.081983
0.356359
0.374944
0.074731
-0.233038
-0.140968
-0.037719
0.116763
0.041650
0.077993
-0.037427
-0.197975
-0.263546
-0.246733
-0.171173
-0.100480
0.053699
-0.067595
-0.046522
0.056458
0.131897
0.049334
0.055824
0.039318
-0.015893
-0.025858
0.084108
0.139664
0.146771
0.242509
-0.030809
-0.264819
-0.229532
0.001543
-0.210590
-0.146418
-0.101275
0.039511
0.088520
0.069385
0.066081
0.024116
0.092380
0.026253
0.146200
0.234633
-0.038223
-0.313473
-0.310290
0.262477
0.544408
0.587287
0.369003
-0.772037
-1.354096
-0.603759
0.270979
0.445116
0.035177
-0.123362
-0.028735
-0.074971
-0.054155
-0.117565
-0.087631
0.217906
-0.101368
-0.117033
-0.081690
-0.043420
0.025487
-0.040968
-0.078726
-0.099135
-0.107649
-0.208271
-0.261787
-0.220686
-0.215138
-0.092436
0.187710
0.180155
0.122576
0.097294
0.060993
0.022505
-0.043958
0.022053
0.055422
0.018316
0.107472
0.133377
0.121031
0.093959
-0.031521
0.035980
-0.156463
-0.148660
-0.164209
-0.007660
0.095769
0.184210
0.158263
-0.021261
-0.139032
0.017971
0.006437
0.248682
0.451196
0.431070
0.099291
-0.368926
-0.280806
-0.151877
-0.187103
-0.108387
0.130384
0.184784
0.145772
-0.043915
-0.462821
-0.696789
-0.394497
0.128651
0.454706
0.158734
0.031940
0.079820
0.140586
0.465518
0.346486
0.414697
0.141804
-0.110085
-0.208639
-0.322274
-0.056654
-0.054310
-0.202998
-0.223665
-0.164794
-0.153433
0.000914
0.070839
-0.039666
-0.092966
0.155028
0.117317
-0.057083
-0.107241
-0.493249
-0.644311
-0.134068
-0.149814
0.139139
0.222595
0.122019
-0.389220
0.143081
-0.026837
-0.184124
-0.064187
-0.213615
-0.015678
-0.125036
-0.061233
-0.139892
-0.100036
0.095999
-0.103666
-0.331006
-0.042324
-0.162410
-0.262682
0.321837
-0.708974
-0.231490
0.999001
0.500018
-0.559951
-0.717426
0.674038
0.586355
-0.768164
0.492635
0.574056
0.238422
0.714714
0.305640
0.359011
0.293484
0.321555
0.260529
0.164809
-0.007611
-0.106812
-0.140999
-0.098860
-0.022011
-0.183989
-0.189368
-0.177691
-0.043607
-0.054103
0.234253
0.253244
0.259367
-0.108857
0.411116
-0.186805
-0.410573
-0.263270
-0.361122
-0.254696
-0.123295
-0.053620
-0.527305
0.066846
-0.061343
-0.036044
0.082362
-0.068023
-0.028567
-0.049556
-0.006380
-0.044522
-0.007377
0.022827
0.047637
0.040266
0.026573
-0.113217
-0.118501
-0.089458
-0.091716
0.086302
-0.080095
-0.131564
-0.083207
0.196707
0.092167
0.035137
0.133182
0.011756
-0.090184
-0.009776
-0.021217
0.266340
0.089305
-0.261300
-0.188090
-0.109238
0.021752
-0.109579
-0.088326
0.032587
0.184633
0.283069
0.187715
0.059612
-0.104357
-0.394091
0.109874
0.400450
0.470732
0.333827
-0.239344
-0.859408
-0.840178
-0.585566
0.166908
0.333633
0.223848
-0.056404
-0.072034
0.103853
0.082848
0.099714
0.128321
-0.132851
-0.090815
0.217217
0.831676
1.015332
0.528976
-0.564702
-1.417441
-1.169748
-0.276314
0.298752
0.133421
-0.320904
-0.456243
-0.312395
-0.205745
-0.117844
-0.088387
0.073731
0.158446
0.162935
0.221525
0.301588
0.071730
0.052302
0.072280
0.089217
0.576867
-0.060454
0.170485
-0.006909
0.088326
0.095350
0.100800
0.054789
0.098028
0.115018
0.090497
0.191573
0.040220
0.071535
-0.122116
-0.043465
0.039302
0.110183
0.302151
0.319154
0.275919
0.246400
0.166201
0.117402
0.465833
0.280828
-0.770950
-0.767413
-0.375575
-0.303408
-0.350098
-0.056411
0.008616
0.069303
-0.036220
-0.086943
-0.064052
-0.108203
-0.076666
0.008073
-0.058984
0.114982
0.093000
0.052625
0.018145
-0.072108
0.103939
-0.016086
0.060221
0.080862
0.099001
0.040726
0.089982
-0.034348
-0.092379
-0.095586
-0.114228
0.004571
-0.131633
0.082299
0.005166
0.014922
-0.047932
0.071651
-0.063579
0.061679
0.024647
-0.081788
-0.025466
-0.035629
-0.080660
-0.071366
0.032489
0.005596
0.032739
-0.061640
-0.020898
-0.075492
0.069815
-0.015218
-0.041071
0.032937
0.086144
0.035145
0.141294
0.014289
0.000163
0.034207
-0.055781
-0.137679
-0.107541
0.056353
0.039773
0.010282
0.051817
-0.036872
-0.041785
-0.018522
0.095871
-0.044136
-0.009764
0.005519
0.036778
-0.122808
-0.097321
-0.067533
-0.029358
0.040513
-0.064173
-0.105472
-0.091919
-0.206678
0.065851
0.159343
0.018614
0.173201
0.204041
0.027756
0.083626
-0.128667
-0.077550
-0.188575
-0.085150
-0.287567
-0.298744
-0.263742
-0.163016
-0.053932
0.195517
0.235618
0.322267
0.233022
0.060711
-0.154030
-0.320159
-0.224933
0.005489
0.227119
0.244419
0.095852
-0.000814
-0.008687
0.157210
0.148086
0.125758
0.293543
0.269205
-0.026597
-0.161416
-0.230415
-0.264105
0.208053
0.114198
-0.011860
-0.027226
-0.002402
0.006103
0.004348
-0.132587
-0.242304
0.065959
0.098524
0.100281
0.069086
-0.098044
-0.021631
0.056361
0.061909
0.181788
0.202506
0.083630
0.019027
-0.111918
0.004149
0.315266
0.658824
0.745573
-0.193801
-0.927719
-0.610977
0.045169
0.062268
-0.077279
-0.040318
-0.052524
0.074843
-0.051180
-0.039209
-0.030070
-0.017415
-0.003286
-0.101877
-0.073201
0.007679
-0.074104
-0.083745
0.062046
-0.107441
-0.023447
-0.032117
0.028508
-0.028090
-0.109879
0.059936
0.011083
0.147590
0.226900
0.056383
-0.034287
-0.045459
-0.076384
0.049144
-0.079826
0.014671
-0.085968
0.020717
0.090703
0.011659
-0.049110
-0.074191
-0.029577
-0.050709
-0.015158
0.112813
0.036411
-0.123299
0.059061
-0.074631
0.081593
-0.125442
-0.024099
0.078475
0.036314
0.019944
0.097954
0.163775
0.072077
-0.006769
-0.111363
-0.110596
-0.017205
0.031227
0.001035
-0.004299
-0.007587
0.006636
0.081494
0.051002
0.026280
-0.027959
0.038075
-0.036136
-0.070238
-0.083525
0.002774
0.003596
-0.037871
-0.048949
-0.005695
0.018005
0.053890
-0.076284
-0.025878
-0.158508
0.034719
0.067407
-0.044454
-0.041371
-0.025664
-0.051897
0.071268
-0.414412
0.090519
-0.166676
-0.056127
-0.256497
-0.012440
-0.151854
-0.041065
-0.244186
-0.025710
-0.093096
-0.194870
-0.129970
0.024390
-0.657000
0.441415
-1.477770
0.802259
-0.465663
1.530536
-0.646920
-0.435558
-0.454265
0.370900
0.031670
0.449875
0.402141
0.191514
-0.756474
1.812402
-1.637809
-0.572253
0.030826
0.170589
0.176541
0.190322
0.272601
0.275715
0.327278
0.207472
-0.143699
-0.399056
-0.312208
-0.294689
-0.014678
0.153078
0.110196
0.124010
0.071628
0.077538
-0.048910
0.017561
-0.000990
0.232507
0.297922
0.456650
0.198254
0.220479
0.132349
-0.269726
0.029304
0.079570
-0.055306
0.022356
0.042975
-0.095386
0.056232
-0.040643
-0.091456
-0.044352
-0.056007
0.031240
-0.068275
0.086483
0.087309
0.104791
-0.056236
-0.141935
-0.085641
-0.100656
0.090542
0.001380
-0.000055
0.071479
0.006677
0.061489
0.068934
-0.042940
0.047175
-0.014403
-0.122934
-0.036679
0.032562
-0.104143
0.009201
-0.011508
-0.144521
-0.239157
0.164526
0.118597
-0.060567
-0.123142
0.051731
-0.339696
-0.039251
-0.033518
0.001698
-0.025376
-0.043088
-0.054564
0.211320
0.392491
0.820382
-0.843135
-2.187156
1.712233
1.708496
-1.033192
-0.335918
0.226422
-0.169367
-0.098470
-0.174452
-0.124788
-0.127134
-0.074785
0.078906
-0.091565
-0.025485
0.027458
-0.112181
-0.065005
0.032653
0.149490
0.016751
-0.025337
-0.045703
-0.388736
-0.205064
-0.098726
0.191953
-0.553090
0.085381
0.128341
0.289596
1.366140
0.670928
-0.349467
-0.054117
-0.605420
-0.138524
0.255337
0.170889
0.216041
0.147635
0.208573
-0.161108
-0.309936
-0.005644
0.282844
0.355434
0.193094
-0.370919
-0.842747
-0.506977
0.059420
0.167112
0.193826
0.106385
0.243257
-0.297923
-0.325936
-0.462797
0.012990
0.317526
0.372535
0.052393
0.038089
-0.206073
-0.009917
-0.146608
0.078091
0.076345
-0.287091
-0.523331
-0.758998
-0.764091
-0.331261
0.027754
0.074688
0.088279
0.077873
0.182991
0.145325
0.045700
0.063121
0.063412
0.401700
0.234657
0.012311
0.019213
0.203986
-0.058742
0.138634
0.398404
0.504878
0.334474
0.133904
0.092036
-0.529845
0.089282
0.059679
-0.025668
0.048667
0.081403
0.093449
0.080811
-0.109813
-0.058540
-0.014914
0.081448
0.006996
0.104870
-0.077196
-0.061041
-0.097943
-0.109766
-0.058295
0.108392
0.034541
0.040315
0.105779
0.024327
0.144883
0.095559
0.125658
0.019504
-0.071089
-0.056594
-0.046849
0.298492
0.149269
0.157828
0.249230
0.178567
0.139373
0.096604
-0.096757
-0.224897
-0.185231
0.126869
0.148828
0.264557
0.197602
-0.087478
-0.424030
-0.238838
0.044565
0.072828
-0.141883
-0.593558
-0.589193
-0.371444
-0.015474
0.086000
0.521490
0.254149
0.170646
0.075243
-0.036506
0.031744
-0.033889
0.109027
0.032644
0.153338
0.078361
0.128614
0.106374
-0.004986
-0.040074
0.014736
-0.002638
0.032757
0.052634
0.062617
0.013422
0.039152
-0.114995
-0.061626
0.008923
-0.013693
-0.094372
-0.275893
-0.182792
-0.058780
0.045054
0.031485
0.024327
0.074528
0.066619
-0.078206
0.040798
-0.055133
0.055456
-0.076969
0.075169
-0.031530
-0.062718
0.083378
0.054062
-0.015964
-0.051516
0.035939
0.088220
0.075215
-0.074304
0.128527
0.087811
0.023692
0.107628
0.023323
-0.027848
-0.077793
-0.218759
0.007862
0.113642
-0.002029
0.100708
-0.140154
-0.134521
weigvec 606
0.094169
-0.150954
-0.014844
1.238737
-0.364792
-0.318085
-0.029667
-0.527119
0.155014
-0.388649
0.130169
0.549993
-0.293731
-0.106780
0.732684
0.546163
-0.145613
-0.139192
0.086355
-0.255830
-0.084247
-0.093589
-0.200231
0.663808
-0.429767
-0.299574
-0.362021
-0.288765
0.314583
0.162787
0.323698
0.092737
0.104599
-0.283116
0.690035
-0.219070
-0.116683
0.778517
0.168438
0.611603
0.921010
0.176486
0.916978
-0.147010
0.171001
0.527392
-0.202540
-0.362665
0.023754
0.663182
-0.484885
-0.844090
0.173418
-0.134279
-0.196184
0.161292
-0.207450
0.094591
2.116523
0.058344
0.524703
0.530626
-1.141609
-0.086836
0.200225
0.146268
0.079412
-0.234705
-0.253807
-0.163069
0.108390
-0.140309
0.040942
-0.185542
0.687249
0.782632
-0.167829
0.054145
-0.049867
0.926328
0.345270
0.511456
-0.000979
-0.244959
-0.130174
-0.353445
-0.335686
-0.075712
-0.171713
0.108210
-0.621838
-0.558284
-0.040240
1.445850
-0.000803
0.405317
-0.769505
-0.192096
0.513871
0.316942
0.004574
0.080668
0.049459
-0.202548
-0.727747
-0.077995
0.015314
0.043091
0.070054
-0.067555
0.242896
-0.173994
-0.072147
-0.096756
-0.455301
0.429963
0.043381
-0.028441
-0.010387
-0.081170
-0.111299
-0.104884
-0.096967
-0.236069
-0.145879
-0.230298
-0.077349
-0.093642
0.014936
0.124096
0.368187
0.778604
0.006779
-0.111653
-0.265176
-0.432613
0.005243
-0.051228
-0.374570
-0.050094
0.316357
-0.897306
-0.186205
2.103538
-0.076883
-0.166475
-0.367512
0.065692
-0.060810
0.969229
-0.164332
1.568831
0.081881
-0.198836
0.930633
-0.669874
0.367895
-0.128300
-0.025874
-0.788689
-0.152431
-0.236428
0.050203
-0.518880
-0.138975
0.260814
0.071976
-0.144472
0.025260
-0.547599
-0.139787
-0.020484
0.158320
0.773495
0.097317
0.001492
-0.644068
-0.572449
-0.037386
-0.199507
-0.148236
0.461118
-0.294309
0.017289
-0.066740
-0.191256
-0.006818
-0.279845
-0.174676
-0.037031
-0.126713
-0.938814
0.409933
0.039518
0.210277
-0.609615
-0.093761
0.563343
0.029179
-0.375489
-0.060208
-0.059180
0.030791
-0.370615
-0.050517
-0.033281
0.411150
0.216160
0.354775
-0.150666
0.135811
0.488176
-0.046974
0.262441
0.143016
-0.188910
-0.092700
-0.151556
0.152543
-0.140284
-0.062563
0.013524
0.118776
0.531283
0.017306
-0.029040
-0.082493
-0.032594
-0.167744
0.106159
0.104881
0.212626
0.207986
0.355701
0.125012
-0.151911
0.024624
-0.109223
-0.127970
0.066924
-0.051796
0.201073
0.130917
0.107164
-0.634773
-0.022236
-0.154428
0.026329
0.089507
0.152070
0.179789
-0.114651
0.483117
0.017271
0.119930
0.141754
-0.071189
0.446734
0.076138
0.132171
0.021083
-0.082882
-0.008728
0.248379
-0.594884
-0.124862
0.193909
-0.112421
0.020607
-0.042271
-0.250468
0.060632
0.594750
-0.091899
-0.109329
0.088282
0.004796
-0.015587
-0.475403
-0.226928
-0.044526
-0.007860
0.154780
-0.645093
0.123091
-0.026033
-0.021270
-0.023134
0.911393
0.048349
0.026753
-0.015334
-0.636215
0.207082
-0.009414
-0.150549
0.403041
0.401531
0.107108
0.049447
-0.040136
-0.060959
0.185443
0.171021
-0.061013
0.017125
0.526781
0.167683
-0.084099
-0.131409
0.019511
-0.286632
-0.530176
0.012669
-0.192409
-0.132288
-0.412460
0.212419
0.127703
-0.278636
-0.057433
-0.124921
0.284156
0.272929
0.050066
-0.284841
-0.111028
0.209496
-0.441995
-0.074288
-0.112220
-0.126636
0.089614
0.199756
-0.194936
0.162968
0.218075
-0.043632
-0.018822
0.167767
0.097968
-0.034825
0.276331
0.288026
-0.034280
-0.416921
0.483585
0.354647
0.299582
-0.021269
-0.103789
0.217083
-0.275418
-0.280135
-0.348782
0.219748
0.083223
-0.334833
0.165367
-0.014176
-0.279859
-1.145661
0.233553
0.328912
0.234435
-0.690617
-0.036245
0.374771
0.281202
0.064080
-0.173512
-0.545240
-0.035008
-0.410300
0.441886
0.118999
-0.045467
0.231290
0.246826
-0.236067
0.088038
0.029158
-0.179371
0.126955
0.131372
0.206472
0.098287
-0.234400
-0.008646
-0.189402
-0.186559
-0.081606
-0.078972
-1.109741
0.050897
0.077984
-0.397666
-1.231873
-0.200740
-0.413972
0.049627
-0.745126
-0.113443
-0.139361
0.578463
0.404243
0.636658
-0.214062
0.535923
0.072437
0.440414
0.376948
0.183377
0.805206
-0.133286
0.289778
0.548610
-0.676557
0.231270
-0.119056
0.246188
0.158734
-0.050492
0.069888
-0.179053
0.031785
0.345834
-0.394951
0.237158
0.422409
0.423541
0.384540
0.342928
0.247053
0.348128
-0.038127
-0.005828
0.206243
-0.406720
0.088487
-0.116018
-0.401964
-0.057249
-0.614552
0.504089
-0.102994
-1.368142
0.114475
-0.685671
-0.419968
0.119424
0.299396
0.007386
-0.238112
-0.088972
0.262319
-0.277413
0.528970
-0.321632
0.421829
0.131480
0.218393
-0.774179
-0.173597
-0.568836
0.038654
-1.015415
0.019656
0.439216
-0.110498
-0.050283
0.640173
-0.606363
0.290084
0.091110
-0.246707
0.228917
0.335634
-0.415906
-0.343324
-0.939254
-0.511750
0.209075
0.361333
0.155533
0.344928
-0.078727
0.075715
0.227933
0.642470
-0.016548
0.137738
0.151849
0.030680
-0.641616
0.723838
0.167446
-1.008127
0.595745
0.453648
0.357153
0.196716
0.554315
-0.032044
-0.122869
-0.961062
0.274091
-0.474920
-0.623809
-0.511542
0.149865
-0.288624
0.392350
-0.157686
-0.379074
-0.000260
-0.763625
0.069199
1.735666
-1.616627
-0.598236
0.018965
0.286943
0.074016
0.024360
-0.053977
-0.475175
0.156421
-0.083801
0.077940
0.171725
0.159270
0.087242
-0.964996
-1.151810
-1.912040
-0.092413
0.023714
0.152628
0.433584
-0.008389
0.141967
-0.156403
0.021878
-0.663176
-0.860177
0.034828
-0.496332
-0.434425
0.485726
-0.191998
0.109595
0.232723
-1.379104
0.338212
-1.383347
0.963598
-0.093320
-1.452186
1.549395
-1.375157
0.038662
0.053027
0.533077
-0.140464
-0.270412
-1.035153
4.092898
0.231680
-1.509924
-0.085807
-0.125088
-0.011008
2.047158
-0.009380
-0.208949
-0.163899
-1.001305
-0.081531
-0.442489
0.158900
2.305206
0.895322
0.175185
-0.807486
-1.125705
-0.162855
-0.013408
0.093375
0.159015
-0.043834
-0.212270
0.219462
0.054534
0.032875
3.925311
-0.782315
0.036151
-0.149015
0.932427
-0.799772
0.021700
0.047658
0.225336
0.072921
0.060139
biasvec 101
-4.148208
-3.908809
-4.163056
-3.961653
-3.946676
-3.858055
-3.935576
-3.802109
-4.028273
-4.537425
-3.976099
-3.845428
-4.057275
-5.068573
-6.676329
-4.024532
-3.884565
-3.928941
-4.064193
-3.897754
-3.978581
-3.935091
-3.973078
-3.920366
-3.820132
-3.822035
-3.893376
-3.882047
-4.143818
-3.999578
-6.594253
-3.877336
-4.037047
-3.907203
-3.954177
-4.036154
-3.953451
-4.312630
-3.959503
-4.516513
-4.073213
-3.988969
-2.767016
-3.922295
-4.070815
-4.013401
-4.032005
-3.823430
-5.166869
-3.998994
-3.437855
-4.710533
-4.020700
-4.955656
-5.754400
-4.806982
-3.972322
-3.870266
-3.995807
-3.933894
-4.212695
-4.106644
-7.299079
-3.946180
-5.153689
-4.040308
-4.001013
-3.968321
-4.688520
-3.875188
-3.934711
-3.861005
-4.119316
-3.977207
-4.183959
-4.136155
-5.498068
-4.866150
-3.996441
-3.939101
-4.427368
-4.200322
-4.021932
-4.057288
-3.985678
-3.853117
-3.860447
-3.994436
-4.084540
-4.069257
-6.862592
-4.450732
-4.003762
-3.653859
-2.767918
-3.964103
-4.445479
-4.047637
-3.793161
-4.008234
-3.957883
biasvec 6
-4.685907
-7.332047
-3.251066
-3.937110
-2.556545
-2.180666
