60 101 6
weigvec 6060
-0.053550
0.301779
0.105598
0.232642
0.196999
0.210129
0.139117
0.068015
0.210230
0.213643
0.140758
0.074209
0.082323
-0.081208
-0.104624
-0.061469
-0.054796
-0.101961
-0.083840
-0.235445
-0.175319
-0.224518
-0.125358
-0.173128
-0.181582
-0.146002
-0.135341
-0.139439
-0.022775
0.048035
0.068009
-0.071941
-0.054614
-0.112345
-0.183319
0.056846
-0.032914
-0.056472
-0.046849
-0.052400
0.012413
0.008294
-0.158276
-0.134791
-0.048221
-0.020337
-0.237807
-0.024998
0.113604
0.053009
0.110938
0.039967
0.155802
0.260315
0.145944
0.114061
0.034659
0.129599
0.165342
-0.107649
0.924419
-0.586229
-0.359693
0.408677
0.372726
0.215683
-0.007103
0.080627
0.030486
0.139512
0.127682
0.243305
0.155762
-0.001646
0.026841
-0.073354
0.196740
0.259548
0.157236
0.236820
0.111284
0.023937
0.065536
0.060121
0.021629
0.156727
0.111394
0.145252
0.177202
0.197384
-0.042239
0.112197
0.173163
0.185243
0.101646
0.027833
0.001581
-0.052230
0.040342
0.291740
0.302916
0.116960
0.057415
-0.190588
-0.162096
-0.063345
0.187785
-0.020063
-0.179031
-0.054276
0.337232
0.450063
0.527395
0.642761
0.378882
-0.228387
-0.437348
-0.349791
-0.644332
-3.760000
0.085865
0.053051
-0.039657
-0.040899
0.064226
0.136195
0.135393
-0.021486
0.130779
0.120496
0.077820
-0.028415
0.111542
0.106098
0.164595
0.118237
0.220403
0.245183
0.152350
0.099697
0.044737
0.058430
0.095545
0.052083
0.003340
0.177518
0.006218
0.100661
0.100493
0.153197
0.071587
0.049698
0.087765
0.068295
0.123349
-0.041026
0.019903
-0.124108
0.002953
-0.086922
-0.167978
-0.079829
-0.086499
-0.129462
-0.139595
-0.000823
0.015949
0.013409
-0.106882
-0.063177
-0.020058
-0.054341
0.020428
0.052907
-0.022743
-0.017651
-0.080567
-0.130739
-0.308676
-0.248539
-0.128551
0.166250
0.174630
0.159581
0.119587
-0.084635
-0.098885
-0.163421
-0.155421
0.099285
0.099878
0.142666
0.215326
0.057399
0.015823
-0.048013
-0.037191
-0.090268
-0.220444
-0.330395
-0.501656
-0.531628
-0.571246
-0.480363
-0.225907
0.018364
0.049827
0.163569
0.085787
0.028139
0.365790
0.268174
0.150241
0.087636
-0.135547
-0.026723
-0.099531
0.006199
0.053820
0.146290
0.087965
0.106823
0.073362
0.262728
0.196810
0.090042
-0.058945
-0.017688
0.234207
0.294728
0.076526
-0.120985
-0.016838
0.309484
0.490773
0.034858
-0.245319
0.437158
0.964470
-1.890611
-0.032241
0.240820
0.190155
-0.072124
0.040732
0.011848
0.005627
0.016066
0.022215
0.072371
0.155743
0.014315
0.086968
-0.021539
-0.007218
0.018493
-0.031902
0.014274
0.046814
0.014396
0.044191
0.198594
0.096055
0.173177
0.061953
0.027328
-0.012568
0.012595
0.121387
0.027368
0.081989
0.063863
-0.028901
0.015910
-0.026433
-0.235832
-0.676341
-0.861486
-0.776562
-0.421461
-0.286866
-0.159495
-0.073831
0.200985
0.239285
0.116994
0.031407
0.031238
0.112270
0.146030
0.222579
0.129622
0.250362
0.574183
0.566248
0.181120
-0.211474
0.307048
0.545814
-1.411728
-0.092764
0.202240
0.033230
0.012807
0.056618
0.060330
-0.084832
0.048415
0.037483
0.029024
-0.016281
0.024374
0.074884
-0.009495
-0.037756
0.080131
0.097855
-0.006954
-0.073909
-0.061085
0.019297
-0.113091
0.039088
0.077067
0.104526
-0.055956
-0.049786
0.006831
-0.016281
0.082167
-0.196608
-0.216814
0.148009
0.315739
0.064394
-0.239923
-0.068557
0.265358
-0.345256
-0.375078
0.022967
-0.092809
0.216499
0.716389
1.168460
0.830258
-0.155096
-0.399879
-0.423038
-0.789090
-1.428761
-1.138331
0.004503
1.102060
1.404281
1.227976
0.668994
-0.654888
-1.768250
-0.216000
0.905355
-0.481132
-0.280485
0.209442
0.242350
0.168886
-0.013649
0.060703
0.255379
0.031349
0.083376
0.054339
0.241564
0.278593
0.015140
0.001017
0.070345
0.068665
-0.023353
0.176199
0.029252
0.033828
0.017303
-0.125127
-0.005445
0.088354
0.080630
0.089352
0.033253
0.012432
0.022304
-0.100622
0.068266
0.079486
0.168950
0.100836
0.046484
-0.166008
-0.150639
0.156347
0.241223
0.037073
-0.096990
-0.125784
-0.059025
-0.088285
-0.011572
-0.186067
-0.018592
0.197675
0.020715
-0.185417
-0.476789
-0.833654
-1.163330
-0.950804
-0.165694
0.422253
0.222374
-0.172801
-0.123796
-0.059836
-0.046232
-0.082677
-0.104698
-0.186401
-0.186127
-0.128797
-0.114715
-0.095640
0.035348
0.051115
0.104304
0.072059
0.116373
0.226375
0.214432
0.240252
0.242591
0.148314
0.225855
0.243700
0.145729
0.043855
0.021174
-0.100733
0.034025
-0.035225
-0.028520
-0.022791
0.027030
0.028358
-0.132063
-0.155153
-0.129685
-0.075850
-0.136461
-0.026600
0.034656
-0.036035
-0.009224
0.018180
-0.045174
-0.001842
0.172278
0.100118
0.056792
0.061020
-0.008482
-0.243195
-0.541180
-0.483579
-0.234415
0.026822
0.012045
0.263721
0.235513
0.011123
-0.398441
0.462236
-0.132226
0.175489
-0.060383
0.048114
0.126081
0.033055
0.111417
-0.025982
-0.084576
-0.090155
-0.331441
-0.180987
-0.047737
-0.039695
0.187918
0.107090
0.181852
0.238271
0.041846
0.016697
-0.099800
0.007719
0.150468
0.126666
0.180541
0.214011
0.004250
-0.059726
-0.184574
-0.147812
0.009867
0.055101
0.330367
0.588974
0.376222
0.358918
0.123548
-0.076263
-0.408770
-0.632183
-0.630293
-0.405378
-0.150960
0.119678
0.243062
0.097096
-0.119794
-0.311168
-0.312444
-0.119679
-0.097556
0.020793
0.123726
0.129913
0.339268
0.222772
0.031776
-0.040946
0.094656
-0.014902
0.058011
-0.046329
-0.013307
0.014256
-0.010325
0.082312
-0.114490
-0.075948
-0.123798
-0.058275
-0.113682
-0.041720
-0.072830
0.104014
0.174966
0.011357
0.125099
-0.127176
-0.116153
-0.198474
-0.224918
-0.198400
-0.044892
0.053536
0.174074
0.122481
0.231652
0.059686
0.119298
0.036395
-0.014480
-0.122662
-0.036982
-0.128451
-0.084689
0.072004
0.114364
-0.059487
0.122393
-0.019907
-0.022147
0.055020
-0.044917
0.094565
0.035209
0.023969
-0.001589
0.005087
0.087939
0.035114
0.006679
0.035685
0.087309
-0.012717
0.096747
0.043651
-0.049775
-0.130957
-0.156790
-0.118876
-0.061573
0.009442
0.024595
0.086073
0.012915
0.073726
0.037092
0.078971
0.213723
0.137914
0.171743
0.157705
0.135301
0.052168
0.156038
-0.005344
0.081798
0.092067
-0.023478
-0.056385
-0.087551
-0.072676
-0.078851
-0.189915
-0.110997
-0.116944
-0.162599
-0.081248
-0.110008
-0.029860
-0.099387
0.011510
-0.060167
-0.113220
-0.073622
-0.129077
-0.039026
-0.159315
-0.012794
-0.044351
-0.052532
-0.112871
-0.020141
-0.068848
-0.016966
0.003774
-0.007879
-0.065216
0.072917
-0.023343
0.046555
0.162367
0.178548
0.227456
0.147377
0.185693
-0.005615
0.033189
-0.021277
-0.105962
-0.061824
-0.037040
-0.058998
0.038557
-0.048955
0.029398
-0.012244
-0.053988
0.047590
0.027764
-0.093810
0.021519
0.055064
0.029314
-0.079101
-0.074383
-0.009675
-0.045993
0.093235
0.033136
-0.010185
-0.043433
-0.033113
-0.071037
0.068658
0.044262
-0.120344
-0.086095
-0.044618
0.058450
0.082713
0.041888
-0.005445
0.085081
-0.012581
0.144327
-0.056762
-0.036032
0.071369
-0.092514
0.037758
-0.074619
-0.135660
-0.150032
-0.030288
0.160151
0.130260
0.081732
0.088487
0.111362
0.097253
0.005962
0.039589
0.024868
0.122859
-0.043898
-0.018735
0.033210
0.073180
0.072470
0.070439
0.067061
0.107268
0.088250
0.033908
0.146641
0.001552
0.026388
0.083282
-0.028735
-0.006718
-0.017568
-0.027040
-0.030800
-0.045421
-0.054052
0.079345
0.016245
0.039227
0.084459
0.062675
-0.083935
0.069237
-0.001646
-0.021101
0.033723
-0.047073
-0.082809
-0.022989
-0.066810
-0.008321
0.035526
-0.007364
-0.103025
0.056673
-0.086678
-0.036971
0.110132
-0.034194
-0.055441
0.051777
-0.117719
0.062725
-0.049906
-0.064417
-0.099408
-0.094501
0.073499
-0.135244
-0.158566
-0.056806
-0.030999
-0.030886
-0.028253
-0.136371
-0.007248
-0.050935
0.015538
-0.048595
0.188905
0.051078
0.059811
-0.098478
0.078700
0.051257
-0.004075
0.095057
-0.069046
-0.085901
0.085904
-0.036595
0.089682
-0.019744
-0.091094
0.027871
0.033692
-0.083032
-0.008912
0.059598
-0.004088
-0.056692
-0.043594
0.095314
0.046266
-0.065511
-0.060282
-0.076242
0.100123
0.082924
-0.054838
0.031640
-0.055674
-0.095662
0.046024
0.052092
0.065224
-0.030163
-0.039964
0.045435
-0.050882
-0.044749
0.082885
0.074786
0.004631
-0.169741
-0.143419
0.037120
-0.154156
-0.066636
-0.071568
-0.046096
-0.036528
0.088319
0.058905
0.092841
0.008962
-0.040641
-0.060616
0.058082
0.105661
-1.714826
-0.675630
-0.423950
-0.257963
0.004692
0.036312
0.185887
0.337926
0.578881
0.591022
0.481557
0.273829
0.139978
-0.009666
-0.047031
-0.182566
-0.092911
-0.102048
-0.001292
-0.124313
-0.154717
-0.118087
-0.079036
0.038727
-0.016060
-0.108359
-0.036321
-0.102177
0.120614
-0.155286
-0.036587
0.027373
0.016476
-0.095973
-0.181541
-0.085355
0.159671
-0.008466
-0.128855
-0.083754
0.128444
0.079802
-0.045001
0.102040
0.081591
0.028721
-0.024005
0.088733
0.134831
0.211377
0.129012
-0.134161
-0.210814
0.138452
0.287614
0.111353
-0.336064
0.216398
0.912333
-0.213988
-0.649978
-0.014737
0.007761
-0.045422
0.164930
0.079232
-0.016945
-0.031566
0.097943
0.098041
-0.019181
0.124913
0.052110
-0.014928
0.040816
0.031406
-0.074777
0.046244
-0.107216
-0.088350
-0.194651
-0.120877
0.052792
0.280630
0.537346
0.565181
0.539108
0.521681
0.301934
-0.022070
-0.217645
-0.204333
-0.323887
-0.327920
-0.461844
-0.067870
0.061415
-0.121106
-0.282235
-0.224515
-0.097150
-0.151615
-0.295151
-0.173736
-0.052717
0.006414
-0.148614
-0.056566
0.149770
-0.020380
-0.067821
-0.104346
0.000680
0.123090
0.380306
0.240677
0.184026
-0.021376
-0.097235
0.432027
-0.626995
0.067013
0.089013
0.045670
0.145499
0.183146
0.044571
0.103080
0.177853
0.072237
-0.083338
-0.114481
-0.294858
-0.163573
-0.179406
-0.049748
0.039488
0.220326
0.256451
0.371695
0.457250
0.485712
0.434350
0.394269
0.115720
-0.114692
-0.472821
-0.500157
-0.516251
-0.491688
-0.380976
-0.105566
-0.033975
0.003169
-0.175633
0.034937
0.036249
-0.037033
-0.310395
-0.295852
-0.068994
-0.123883
0.028156
0.060305
0.080443
0.051171
-0.114519
0.060472
0.037759
-0.120748
-0.047778
0.080528
0.003641
0.128115
0.101104
0.212916
-0.106178
0.023487
0.423949
0.210031
-0.051752
0.053112
0.046733
-0.024975
-0.062548
-0.018616
0.109044
-0.062121
0.000955
-0.091501
-0.132533
-0.124752
-0.141190
-0.096649
0.039357
0.169455
0.235427
0.154512
0.109502
-0.063963
-0.117395
-0.092599
-0.149561
-0.081577
0.036812
0.066812
0.200605
0.092325
0.088842
0.051250
-0.037915
-0.091087
-0.149722
-0.154232
0.059746
-0.106525
-0.122648
-0.000912
0.014368
0.071066
0.010320
0.021369
0.060361
0.065050
0.052568
0.052130
0.126689
-0.060587
0.066780
-0.117157
-0.100792
-0.114074
-0.007052
0.015785
-0.041170
-0.009906
-0.035901
-0.041479
-0.263529
-0.187914
0.234426
0.235275
0.295241
0.327725
0.205670
-0.079751
-0.187069
-0.368073
-0.557544
-0.393016
-0.426839
-0.296808
-0.180643
-0.164901
-0.177832
-0.118480
0.130057
0.071563
0.064392
0.002864
-0.040265
-0.179476
-0.244700
-0.154618
-0.101530
-0.159214
-0.182764
-0.132058
-0.221823
-0.107053
-0.202480
0.107647
0.126522
0.145037
0.055645
0.147779
0.299145
0.244249
-0.070709
0.024078
0.448522
-0.004736
0.179474
0.131338
0.153965
0.159650
0.246019
0.113931
0.017621
-0.189643
-0.365880
-0.128914
0.010239
0.123445
-0.119000
-0.065952
0.102769
0.163831
0.138267
0.504105
0.049365
0.059965
-0.068282
-0.027505
-0.067704
-0.170012
-0.129800
-0.004270
0.136373
0.020835
0.120786
0.071203
0.081651
0.041592
0.011775
0.021406
-0.146729
-0.126438
-0.200779
-0.265448
-0.251852
-0.180096
-0.135640
0.038125
-0.012763
-0.079807
0.050551
0.055278
0.217234
0.272097
0.180530
0.218225
0.099653
0.126722
-0.036669
0.074722
-0.035024
0.106879
0.003936
-0.170092
-0.142588
-0.161560
-0.347275
-0.220762
-0.182627
-0.009274
0.017837
0.132002
0.193039
0.254303
0.316767
0.165408
0.055168
0.096035
0.165137
0.067907
-0.179354
-0.181267
-0.120333
-0.172901
0.026585
0.186002
-0.020463
-0.108318
-0.106487
-0.069081
0.132502
0.073970
0.164479
0.142234
0.069374
0.136014
0.023076
0.048526
-0.003109
0.040943
-0.019133
0.078319
0.096268
-0.074183
-0.024872
0.034147
0.077153
0.069409
0.201738
0.021365
0.072620
0.062433
-0.063070
-0.145002
-0.257511
-0.231489
-0.100567
-0.011092
0.099116
0.352482
0.343889
0.038974
-0.068579
-0.504284
-0.601343
-0.584059
-0.122155
0.218771
0.528473
0.474977
0.392341
0.203209
-0.072380
-0.082098
0.024361
-0.081950
-0.123297
-0.115375
0.203076
0.027665
-0.197340
-0.160999
0.115438
-0.231477
0.257568
0.293687
0.247230
0.052460
-0.037926
-0.035471
-0.005679
0.058948
-0.022397
0.047027
-0.061740
-0.249625
-0.343814
-0.516167
-0.475778
-0.468988
-0.285286
-0.230459
-0.176844
-0.126000
-0.004113
0.139435
0.058597
0.075828
0.085723
0.207267
0.138606
0.165517
0.203330
0.147215
0.171613
0.060054
0.146841
0.165296
0.014756
0.187073
0.121450
0.154029
0.262345
0.204217
0.253943
0.075201
0.022862
0.009335
-0.033091
0.144610
-0.018788
-0.002424
-0.183920
-0.362957
-0.446556
-0.234580
-0.001169
0.054812
-0.091616
-0.251653
-0.094253
0.128808
0.134582
0.538697
-0.579673
-0.518641
-0.395433
-0.349678
-0.282852
-0.068249
0.068877
0.167913
0.243839
0.187737
0.234955
0.279684
0.318755
0.223001
0.146346
0.229196
0.289871
0.298355
0.061047
0.127223
0.107862
0.024040
-0.046308
0.042883
-0.038726
0.008073
0.118919
0.005665
0.118363
0.015190
0.130556
0.116536
0.029440
0.078046
0.013047
0.102409
0.029059
-0.005704
-0.022539
0.090672
0.064110
0.094478
-0.065263
-0.048574
0.053895
-0.003168
-0.050434
0.012642
-0.129084
-0.255287
-0.347616
-0.209039
0.083096
0.166797
-0.148176
-0.340522
-0.194858
-0.019278
-0.311839
0.298266
0.996840
-0.237653
-0.098460
0.275034
0.191806
0.133666
0.070470
0.108434
0.135664
0.094560
0.098133
0.374550
0.308848
0.114089
0.112259
0.074330
0.146386
0.195610
0.151108
0.188307
0.259244
0.179486
0.116159
0.140920
0.192781
0.193600
0.248382
0.070811
-0.062142
-0.240761
0.104604
0.079348
0.162367
-0.062453
-0.018089
-0.106297
0.017169
0.061225
0.081255
0.063227
-0.146496
-0.534833
-0.313814
-0.080186
-0.369333
-0.465618
-0.421701
-0.138233
0.074326
-0.271849
-0.638771
-0.706019
-0.557393
-0.206864
0.087654
-0.106291
-0.151537
0.204244
0.207905
-0.527107
-0.073211
0.058410
0.048380
0.128108
0.177527
0.112874
0.097314
-0.020744
-0.101478
-0.189028
-0.247616
-0.084182
-0.265685
-0.234797
-0.128935
-0.133447
-0.182333
-0.103513
-0.151819
-0.073387
0.061487
-0.038085
0.042496
0.128248
0.126308
0.200488
0.090624
0.202348
0.021808
-0.106980
-0.049250
-0.182552
-0.120674
-0.078218
-0.020647
-0.013289
0.110389
0.061722
-0.001228
-0.017432
-0.123767
-0.247134
-0.179649
-0.119796
-0.027151
-0.053134
0.020883
-0.105168
-0.043533
-0.031494
0.051073
-0.000266
0.192906
0.255687
0.264408
0.209630
0.187282
0.172706
0.075989
-0.013867
-1.140906
-0.908581
-0.537006
-0.314832
-0.257777
-0.407065
-0.217708
-0.080040
-0.070494
-0.228429
-0.091842
-0.031644
0.056503
-0.037477
-0.026110
-0.047241
-0.092322
0.145377
-0.054270
-0.054461
-0.156866
-0.017255
-0.045102
0.054403
0.076461
0.099596
0.001867
0.082929
0.130489
0.078613
0.171361
0.183037
0.178014
0.283094
0.078788
0.155727
0.382755
0.194817
0.011099
0.083369
0.477684
0.100283
0.290973
0.141971
0.155722
0.116875
0.172511
0.201477
0.236210
0.210986
0.051157
-0.145057
-0.080520
0.037962
0.033336
0.169815
0.163675
0.146220
0.176872
0.450157
0.018712
0.020746
-0.202513
-0.205825
-0.393016
-0.389699
-0.455601
-0.278429
-0.031771
0.098718
0.032115
0.134432
0.140522
0.084741
0.065144
0.044978
0.036124
0.062401
-0.033752
0.118005
0.088184
0.172059
0.097686
0.280975
0.045906
-0.081816
-0.218760
-0.395150
-0.502549
-0.468881
-0.266989
-0.034220
0.222010
0.084290
-0.028870
0.166788
0.302217
0.143888
0.039979
0.081017
0.222635
0.202925
0.163853
0.077650
0.244193
-0.006260
-0.117828
0.027699
0.091089
0.083199
0.230512
0.149950
0.162604
0.324869
0.381227
0.193468
0.063660
0.023533
0.297821
-0.512135
-0.596566
0.479006
0.049010
-0.165667
-0.163420
0.073530
-0.034088
0.049736
-0.042743
-0.046168
-0.007294
-0.054559
-0.120335
0.019873
-0.022595
-0.093675
-0.086287
-0.051797
0.040017
0.069950
-0.028556
-0.007730
-0.134229
-0.033143
-0.093039
-0.117175
-0.075040
0.117927
0.017758
-0.201496
-0.078249
0.006492
-0.047859
-0.118810
-0.106394
0.037822
-0.034491
-0.204514
-0.082943
-0.026423
0.006506
-0.151864
-0.021277
0.197800
0.197284
-0.021390
-0.297977
-0.269897
0.105019
-0.080647
-0.618500
-0.576646
0.401802
2.009875
2.349662
0.624438
-1.310776
-0.774948
0.932360
-0.923612
-0.195457
0.505378
0.006958
0.036175
0.187509
-0.010258
0.003911
0.096601
0.105015
0.059920
0.059468
0.078619
0.153206
-0.070558
-0.045774
0.023740
0.151127
0.129240
0.195580
-0.091446
-0.179116
0.012089
0.023249
-0.033505
0.181378
0.000320
-0.089606
0.141861
0.096525
0.067255
0.045094
0.037180
0.049733
0.049247
-0.101700
0.022548
0.059827
-0.051238
0.086666
0.138632
0.200802
0.127393
-0.182030
-0.052802
0.233861
0.134480
0.084550
0.157038
0.494037
0.895631
1.102056
1.179724
0.911150
0.048776
-0.984273
-1.612307
-1.692293
-1.084382
-0.307892
-0.474841
-0.142102
-0.147850
0.007135
-0.222869
-0.163371
0.055891
0.071084
-0.026755
-0.034812
-0.138804
-0.115547
-0.142761
-0.140230
-0.055204
-0.034242
-0.009542
0.025391
0.055724
0.022800
-0.137990
-0.179264
-0.113385
-0.065452
-0.084897
-0.155411
0.057593
0.027727
-0.147135
-0.207862
0.062306
0.073188
-0.125427
-0.221981
-0.201650
0.316258
-0.087550
-0.555721
0.001550
0.380769
0.186787
-0.426818
-0.137121
0.223964
0.117441
-0.271585
-0.097502
0.236058
0.151064
-0.215864
-0.332609
0.100064
0.588077
0.990171
0.913349
0.125622
-0.559540
-0.778575
-0.298161
0.066812
1.557829
0.910079
-0.059438
-0.020826
0.033112
-0.239582
-0.365903
0.143172
0.505216
0.619850
0.277240
-0.108684
-0.341653
-0.238835
0.108418
0.458771
0.629387
0.281255
-0.268662
-0.395248
-0.129859
0.219529
0.270089
0.397842
0.074786
-0.144441
-0.201334
-0.126067
0.082057
0.222727
0.183222
0.195702
0.103468
-0.078994
-0.135578
-0.085733
0.077660
-0.000374
0.078282
0.197060
0.098670
-0.130416
-0.300437
-0.065128
0.259199
0.244547
0.057591
-0.125009
-0.176843
-0.167094
0.056768
0.007699
-0.114252
-0.180324
-0.088145
-0.137783
-0.246871
-0.210032
-0.009204
-0.012405
-1.132802
-0.103580
-0.042906
-0.042510
0.131573
-0.118808
-0.103470
-0.294294
-0.240875
-0.085494
-0.157467
-0.107533
-0.097336
0.033647
-0.000171
0.005933
-0.132060
0.007960
-0.099946
0.014799
-0.104550
-0.190791
-0.077532
-0.107160
-0.142201
-0.033625
-0.017710
-0.028849
-0.067290
-0.018212
0.105468
0.215395
0.209693
0.141106
0.304956
0.045340
-0.117751
-0.143357
-0.296745
-0.240683
-0.192904
-0.242777
-0.104030
-0.193963
-0.214926
-0.052768
-0.087587
-0.142457
-0.020928
0.184545
0.077041
0.164653
0.040176
0.215090
0.272609
0.410166
0.264592
0.319071
0.215956
0.319029
0.141724
0.149178
-0.044134
0.030460
0.018740
-0.020281
-0.170982
-0.305212
-0.424377
-0.396200
-0.366967
-0.120433
-0.073174
0.129662
0.005822
0.203027
0.072674
0.103344
0.064790
0.082230
0.077607
0.141972
0.014853
-0.035786
-0.044389
-0.028883
0.043884
0.077050
0.079610
0.010556
0.169573
0.110898
0.139883
0.082689
0.052000
0.035262
0.089411
0.113597
-0.031998
0.119948
0.067878
0.067834
0.020205
-0.006618
0.125690
0.053750
0.122951
0.069900
-0.040038
-0.051071
-0.110004
-0.064565
-0.044224
0.097361
0.188345
0.100492
-0.076549
-0.049531
-0.214647
-0.161917
-0.144950
-0.197679
0.337578
0.109656
-0.009535
0.224747
0.234719
0.014549
-0.081736
-0.048705
0.106982
0.025255
0.007986
-0.071812
-0.148407
-0.079539
0.162465
0.210097
0.166732
0.151499
-0.047460
-0.074690
-0.039234
-0.085525
0.017100
0.058010
0.065286
0.057863
0.392994
0.235593
-0.120595
-0.619775
-0.213210
-0.076265
-0.072495
-0.791385
-0.300553
0.912442
1.079329
0.141699
0.408062
0.724603
0.679652
-0.798962
-1.081191
-0.390118
-0.249692
-0.725610
-0.452419
0.148464
0.248230
0.112096
-0.026838
-0.023570
0.201207
0.484911
0.633809
0.300220
-0.025039
-0.250105
-0.179459
-1.424325
-0.998870
-0.639796
-0.412392
-0.042814
0.093414
-0.032077
0.098151
0.092345
0.202477
0.070172
0.002707
-0.063990
0.151623
0.149823
0.205849
0.113606
-0.004536
0.059196
0.076569
0.000262
-0.029283
-0.019767
0.108547
-0.033970
0.004530
0.006920
0.120735
0.079480
0.044735
0.153600
0.149894
-0.002030
0.140016
0.201962
0.085807
0.047424
-0.009449
0.183645
0.168759
0.012083
0.083721
0.215818
0.135483
0.173056
0.224305
0.113776
0.054440
0.144717
0.205552
0.263325
0.073029
-0.113965
0.255786
0.552402
0.073420
-0.267799
0.257484
0.741249
-1.001344
-0.234103
0.447335
0.178517
-0.017020
-0.036070
0.072174
-0.111593
-0.084198
0.072969
0.170851
0.015718
-0.138303
-0.030437
-0.108916
0.128926
0.041925
0.056102
0.079641
-0.055742
0.101792
0.057892
-0.041192
0.050686
-0.090107
-0.047849
0.076709
0.260950
0.061810
0.046885
-0.025430
0.050929
-0.118581
-0.199279
-0.143391
-0.010295
0.291929
0.415689
0.307609
0.396848
0.415573
-0.263892
-0.729740
-1.192954
-1.192241
-1.000539
-0.621115
-0.132869
0.413368
0.745954
0.788905
0.509643
0.192096
0.145269
0.096521
0.023229
-0.367205
-0.574676
-0.348504
0.335245
-0.217639
-0.148265
0.536088
0.116395
-0.031928
0.094098
0.059257
-0.097352
-0.082753
0.036677
0.026464
0.076379
0.135364
0.297617
0.145429
0.012531
-0.048300
-0.126725
-0.162243
-0.037993
0.151131
0.277341
0.287643
0.300333
0.125533
-0.194231
-0.527250
-0.524216
-0.513290
-0.672340
-0.561356
-0.091861
0.308419
0.481458
0.530520
0.179622
0.194613
0.426519
0.159103
-0.309034
-0.370885
-0.218456
-0.139449
-0.411527
-0.229354
-0.074066
-0.218956
-0.409375
-0.313997
-0.120932
-0.087922
-0.018763
-0.074020
-0.149790
-0.021752
0.103278
0.200230
0.238660
0.042477
0.210926
0.115823
-0.151792
0.013344
-0.101323
-0.163096
-0.154913
-0.098964
-0.027098
-0.138811
0.049586
-0.015154
0.198048
0.218196
0.282895
0.305858
-0.004889
-0.119278
-0.228133
-0.303600
-0.318907
-0.218288
-0.251224
-0.164600
-0.084512
-0.065357
-0.002385
0.023502
0.170032
0.119780
0.041934
0.167719
0.045153
0.192363
0.162616
0.148772
0.124150
0.151738
0.282288
0.127485
-0.094782
0.115683
0.385566
0.189772
-0.105029
-0.277403
-0.182691
-0.270642
-0.438222
-0.419081
-0.231949
-0.211989
-0.253026
-0.008127
-0.036355
-0.128386
-0.179221
-0.021106
0.299374
0.140513
0.110162
0.411130
-0.608025
0.170871
0.034159
-0.145342
0.020084
0.049793
0.227832
0.090303
0.149351
0.172811
0.034087
-0.050255
-0.088826
-0.059749
-0.084867
0.046306
0.359050
0.344636
0.269351
0.156146
-0.087085
-0.289108
-0.574134
-0.663817
-0.671129
-0.531191
-0.422940
-0.063858
0.105969
0.029856
-0.044647
-0.119074
0.014255
0.146928
0.186239
0.274770
0.482815
0.459642
0.213402
0.229666
0.572775
-0.144298
0.193094
0.133340
0.075988
0.158752
-0.132070
-0.005710
-0.132149
-0.342012
-0.445324
-0.209003
-0.344574
-0.317124
-0.002190
0.168157
0.173163
0.069409
0.194967
0.274201
-0.060927
0.000292
0.015060
0.079773
-0.063469
0.039261
0.067591
0.134056
0.099817
0.101648
0.061644
0.016393
-0.032988
-0.034546
-0.088646
0.011653
0.078731
-0.045725
0.006268
-0.078094
0.021184
-0.004400
0.088456
-0.066330
-0.046226
0.051344
-0.048114
-0.172726
-0.142224
-0.073592
-0.105026
0.046642
-0.118157
-0.045749
-0.182324
-0.054968
-0.018089
0.128460
-0.005307
0.028110
0.237643
-0.092375
0.028919
0.152576
0.217988
0.575616
0.373889
0.162094
-0.272812
-0.799106
-0.964594
-0.657548
-0.170845
0.287675
0.601071
0.517086
0.277068
-0.331683
-0.655431
0.208798
-0.473911
0.520047
0.249360
0.158818
0.224174
0.257335
0.057981
-0.011586
-0.010065
-0.076699
-0.087007
-0.238177
-0.176982
0.068615
0.144099
0.370448
0.372895
0.498693
0.295594
0.003569
-0.398419
-0.567915
-0.727906
-0.574279
-0.466895
-0.443177
-0.152409
0.291263
0.946571
0.074017
-0.193495
0.231972
0.638177
0.122107
-1.019768
-0.918933
0.136911
0.301538
-0.472554
-0.656328
0.076330
0.286519
0.162632
-0.187694
-0.055782
0.008528
-0.006859
0.010575
0.111416
0.077070
0.129277
0.079013
0.058933
0.255427
0.489899
0.171768
-0.147625
-0.165608
0.508825
0.180814
-0.105045
-0.011065
0.102335
0.059892
0.071406
0.120778
0.034887
-0.016852
0.011983
-0.052328
0.169368
0.189193
0.146966
0.130754
0.089541
0.277024
0.097474
0.120335
0.142545
0.182696
0.110093
0.125118
-0.033150
-0.041127
-0.008514
-0.050618
-0.000211
-0.214363
-0.051721
-0.130631
-0.036380
-0.077890
0.027444
-0.121338
-0.017213
-0.056984
-0.169144
-0.086772
-0.025128
0.011376
0.025698
0.001667
-0.142134
-0.236220
-0.383689
-0.317056
-0.344358
-0.223294
-0.241266
-0.098991
0.140291
0.266373
0.210435
0.359110
0.254252
0.100764
0.031569
-0.119201
-0.262803
-0.271887
0.060211
0.025758
0.031109
0.081363
-0.019703
-0.022487
0.014527
0.139119
0.003935
0.015333
-0.001131
0.017981
-0.097363
-0.071695
-0.044152
-0.045502
0.024270
-0.047600
-0.024930
0.032655
-0.072238
0.070726
0.101741
-0.015820
0.117970
0.020324
-0.059762
0.110984
-0.047551
0.054429
0.021146
0.050470
-0.011365
0.036992
-0.017690
-0.022061
-0.069472
0.034731
0.050454
0.078680
0.005959
-0.000531
0.037420
0.035280
-0.012730
-0.008929
0.080872
0.034329
-0.027911
-0.022152
-0.152995
-0.060354
-0.151501
-0.223184
-0.065454
-0.077078
-0.083279
-0.064575
-0.126701
0.046575
-0.550412
-0.004866
-0.064455
-0.113729
-0.141650
-0.194033
-0.010578
0.054590
-0.007513
0.131808
0.110304
0.222851
0.328594
0.224428
0.167911
0.224454
0.163796
0.130479
-0.036386
-0.281477
-0.224899
-0.211695
-0.193335
-0.116661
-0.038071
-0.164037
-0.208053
-0.111432
-0.081141
-0.089468
-0.010232
-0.074663
-0.054889
-0.109226
-0.114253
-0.057070
0.120211
0.032254
0.007528
0.109749
0.029818
-0.069734
-0.063102
-0.029008
0.121778
0.214372
-0.078128
-0.072368
-0.044133
0.065952
0.074343
0.059885
0.273916
0.374610
0.502486
0.212378
-0.145236
0.007087
0.349618
-0.331185
-0.014735
-0.102563
-0.001538
-0.113336
-0.034057
0.029022
-0.024650
-0.048386
-0.060174
-0.015794
-0.049152
-0.048065
0.076397
0.035397
-0.095917
0.083046
-0.061727
0.090642
-0.079742
0.001734
0.039390
-0.049501
-0.086691
-0.008968
0.049686
-0.098510
-0.107217
-0.106181
-0.058202
0.064728
0.036138
0.025897
0.033321
0.033207
0.043315
0.116704
0.073328
0.026311
-0.024719
0.052493
-0.028867
-0.080263
-0.102680
-0.015731
-0.018611
-0.062618
-0.076312
-0.036074
0.005054
0.093643
0.032035
0.118530
0.002545
0.186988
0.193363
0.023725
-0.035439
-0.044035
-0.032542
-0.033302
0.301611
0.236070
0.046855
0.000278
-0.055696
-0.041567
0.000881
0.022916
0.026062
0.056012
0.021776
-0.093822
-0.017894
-0.014569
-0.050284
0.109945
0.099891
-0.115421
-0.100313
0.039875
-0.016032
0.035222
-0.006019
0.053884
-0.113127
-0.085028
-0.022642
0.069143
0.127391
0.265141
0.159192
0.184083
0.135296
0.029345
-0.072072
0.015445
0.204406
0.068268
-0.065783
-0.139584
0.067045
-0.240616
-0.115613
0.007070
0.045035
0.041066
0.171509
0.214273
0.070047
-0.382952
-0.810570
-0.966441
-0.747574
-0.184661
0.213211
0.584301
0.405770
-0.053612
-0.321717
0.195147
0.272388
0.310609
0.076252
0.060468
-0.006010
-0.211965
-0.087135
-0.152877
-0.153733
-0.061269
-0.007261
0.176879
0.136040
0.243424
0.177050
0.193052
0.061576
-0.099083
-0.242906
-0.468988
-0.321635
-0.307266
-0.164953
-0.008191
-0.022585
0.038312
0.088789
0.048245
0.207329
0.261174
0.318883
0.233417
0.274241
0.179229
0.027995
0.038890
-0.013227
0.058152
-0.122255
-0.163510
0.001621
-0.024877
-0.007915
0.054269
0.060852
0.109937
-0.018624
0.001748
0.022514
-0.114659
-0.300512
-0.304393
-0.103392
-0.064175
-0.143002
-0.126156
-0.047950
-0.076249
-0.162327
0.074955
0.094648
-0.093880
0.011468
0.063473
0.145373
0.020179
0.066683
-0.114131
0.015625
0.055288
0.081371
0.209254
0.165641
0.088698
0.170616
-0.038901
-0.040406
-0.022278
0.088957
0.000901
-0.054670
-0.046317
-0.026374
-0.020689
0.238287
0.245475
0.155591
-0.016554
0.068933
-0.070339
-0.123334
0.070818
-0.009898
0.186210
0.123933
0.079425
-0.136369
-0.070325
0.083103
0.054394
0.063924
0.081384
-0.070296
-0.172467
-0.197940
-0.158350
0.081915
0.112915
0.063972
-0.038992
-0.196600
-0.154411
-0.148111
-0.093520
-0.109788
-0.101451
-0.287782
-0.234065
-0.325409
-0.297930
0.257870
0.109096
0.049940
-0.089648
-0.002514
-0.234551
-0.348675
-0.371613
-0.242369
-0.272749
-0.271372
-0.082793
-0.037868
-0.019830
-0.011164
0.094546
-0.016032
0.065047
0.174302
0.152470
0.221469
0.340275
0.291659
0.220563
0.198812
0.197824
0.226410
0.117341
0.108498
-0.142463
-0.126302
-0.102749
-0.150755
-0.036782
-0.023680
0.034400
0.105501
-0.043110
-0.023327
0.096522
0.181305
0.021589
-0.016370
-0.191746
-0.059786
-0.076340
-0.172104
-0.159647
0.013266
-0.091459
-0.106648
-0.020846
-0.064155
-0.005868
-0.169755
-0.112153
0.084449
0.162698
0.088994
0.473662
-0.018835
-0.053703
-0.080454
-0.050896
-0.148277
-0.162923
-0.019999
-0.052914
-0.117288
-0.123448
0.002256
-0.120063
0.034619
0.011112
0.067747
-0.064404
-0.010585
-0.063909
-0.153237
-0.053649
-0.130982
-0.173435
-0.053404
-0.020999
-0.084554
0.000522
-0.076809
0.024431
-0.007212
0.140879
0.086025
0.094065
0.247289
0.185698
0.218710
0.142730
0.214439
0.133282
0.023249
0.056519
0.155154
0.091019
0.077191
0.092334
0.075751
-0.073933
-0.118092
-0.242286
-0.094429
0.071929
0.095678
0.066378
-0.009308
0.175077
0.272449
0.235834
0.069251
-0.019191
0.081829
-0.191759
-0.612434
0.085119
-0.098455
-0.099892
-0.262695
-0.164710
-0.245060
-0.157402
0.086778
0.111102
0.097319
0.118314
0.221855
0.249819
0.258398
0.232226
0.500284
0.507463
0.333533
0.290986
0.178438
0.059890
-0.088949
-0.251289
-0.218492
-0.300645
-0.354510
-0.255648
-0.304290
-0.316708
-0.220651
-0.266001
-0.297429
-0.262385
-0.531917
-0.486805
-0.299175
-0.145301
-0.306203
-0.361398
0.023079
-0.197557
0.235590
0.107844
0.014965
-0.037868
0.172935
0.278147
0.197141
0.241143
0.181186
0.219663
0.286345
0.453999
0.315668
0.126366
0.034315
0.168055
0.428601
0.258956
0.942981
-0.306089
-0.458178
-0.122636
0.130167
0.026018
0.073473
0.051946
-0.060599
-0.134059
0.071621
0.065371
0.228005
0.162706
0.106998
-0.040931
-0.156748
0.025976
0.206067
0.107481
0.141220
0.050816
-0.118377
-0.084905
0.039951
0.131600
0.142970
0.149291
0.005431
-0.051280
-0.144113
0.023387
0.069471
0.103827
0.033060
0.005121
0.000118
-0.054112
-0.065112
0.202658
0.037540
-0.093988
-0.063845
-0.084831
-0.124251
-0.049779
-0.111870
-0.120130
0.084191
0.284187
0.208239
0.184839
0.078113
0.056414
0.138778
0.402461
0.592160
0.311126
-0.756155
-1.976154
0.020444
0.139055
-0.029084
-0.080375
0.121755
0.081160
0.122524
0.094394
0.131142
-0.045943
-0.009446
-0.024967
0.010168
0.010308
0.130526
0.031096
0.014713
0.178535
0.060322
0.105311
0.015689
-0.078510
0.056516
0.074848
0.031178
0.006515
0.072693
-0.001110
-0.120693
-0.214956
-0.378685
-0.629098
-0.745877
-0.739982
-0.472227
-0.303047
-0.195636
-0.052861
0.294531
0.342682
0.191132
0.029710
-0.130889
0.118558
0.045190
0.191978
0.104425
-0.020974
-0.013305
-0.074781
0.088151
0.200956
0.276512
0.653345
0.707033
0.196724
-0.234689
0.087757
0.698522
-1.207340
-0.271742
0.055739
0.154807
-0.005882
-0.205162
-0.098463
-0.021462
-0.082786
0.072479
0.095081
0.006634
-0.114376
-0.041322
0.018752
-0.004093
-0.032906
0.016741
-0.011452
0.138512
-0.045481
-0.027203
-0.023401
-0.135493
-0.060302
0.047140
0.086254
0.100337
-0.007822
-0.019106
0.013656
-0.051304
0.017684
0.221563
0.071464
-0.206976
-0.165571
0.047917
0.138874
-0.063390
-0.229154
-0.009169
0.192906
-0.072814
-0.073567
0.191472
0.351845
0.342937
-0.127267
-0.625643
-0.948415
-0.514928
0.825090
2.081453
1.415091
-0.843040
-2.128959
-0.619915
1.350356
1.101060
-0.519961
-0.407978
-0.024796
-0.088411
0.084024
0.123293
0.271810
0.222044
0.311170
0.433115
0.264876
0.023867
-0.341133
-0.462096
-0.567209
-0.610790
-0.409289
-0.257443
0.054344
0.129545
0.257519
0.122849
0.110952
0.007496
0.031545
0.006631
0.009724
0.199500
0.205130
0.163307
0.167313
0.260687
0.061689
0.114418
0.122797
0.181503
0.057479
0.026163
-0.016993
-0.026320
-0.175125
-0.250786
-0.135048
-0.238918
-0.083388
-0.185356
-0.002498
-0.094948
0.006753
-0.079838
0.000190
-0.213287
-0.207423
-0.068529
-0.002374
0.019358
0.062477
0.165038
0.176266
-0.043905
0.249666
-0.380750
0.113249
0.270589
0.350669
0.389421
0.341843
0.295570
0.168277
0.138646
0.158136
-0.045954
-0.186154
-0.334153
-0.455505
-0.413654
-0.436004
-0.309439
-0.050941
-0.100072
-0.230251
-0.190862
-0.233635
-0.145226
-0.103808
-0.128765
-0.246373
-0.225585
-0.175570
-0.139348
-0.025466
0.070000
0.251891
0.149877
0.096061
-0.051634
0.104228
0.365779
0.085645
-0.093809
0.108991
0.253448
0.217541
-0.037858
-0.099120
-0.061901
-0.057170
-0.380972
-0.132239
0.060747
0.290733
0.083151
-0.189661
-0.077086
0.225090
0.611356
0.295848
-0.087358
0.041845
0.479873
-0.455274
-0.134856
0.003045
-0.188588
-0.211389
-0.053716
0.007813
-0.083038
-0.082562
-0.148196
-0.130543
-0.014167
-0.079778
0.104711
0.024305
0.255678
0.332309
0.374777
0.416831
0.338902
0.261434
0.156330
0.059664
-0.136626
-0.166398
-0.201979
-0.279845
-0.197362
-0.220440
-0.069749
-0.170770
-0.198283
0.034021
-0.005241
0.041427
-0.156653
-0.185063
-0.252925
-0.329778
-0.228692
-0.139802
0.075002
0.179212
0.208983
0.220224
0.098158
-0.034356
0.001990
0.028058
0.113404
0.089938
0.202392
-0.011004
-0.010591
0.174538
0.125262
0.179807
0.046021
0.132917
0.436326
-0.353250
-0.331778
-0.025868
0.082614
0.080580
-0.011484
-0.006503
-0.018273
-0.073039
-0.037116
-0.052757
0.044795
-0.048351
-0.079628
0.037544
-0.027205
0.008448
-0.122147
-0.058053
-0.027266
-0.079730
0.015351
0.028054
-0.100312
0.029174
-0.248111
-0.053028
0.092865
-0.126111
-0.129757
-0.051522
0.163827
-0.082601
-0.249107
-0.076896
0.443101
-0.020272
-0.463903
-0.075620
0.301924
-0.235722
-0.494848
-0.033790
0.115744
-0.032038
-0.358740
-0.132539
0.065129
-0.065282
-0.190667
-0.059488
0.285283
0.180083
-0.120202
-0.162220
0.205971
0.869509
1.193824
0.395324
-0.454837
0.501917
-0.450903
0.040544
0.062802
-0.056139
-0.191522
0.089381
0.129960
0.076995
-0.111772
-0.107294
0.039041
-0.121395
-0.068557
0.073263
-0.001809
0.072340
-0.067026
-0.163566
-0.170801
0.055452
0.025477
-0.048607
-0.071880
-0.046333
-0.295344
-0.046947
0.132728
0.180685
0.018373
0.015637
0.028756
-0.063401
-0.161386
-0.483940
0.518394
0.298949
-0.152611
-0.090050
0.267798
-0.065600
-0.417039
0.322238
0.581416
-0.194803
-1.104055
-0.344846
0.902617
0.612282
-0.445008
-0.327906
0.428269
0.586229
-0.327439
-0.870981
-0.649691
0.127438
0.382741
-0.005959
-0.230823
1.672958
0.129581
0.201318
0.113221
-0.015551
0.065732
-0.097537
-0.147957
-0.071285
-0.111250
-0.045493
-0.088502
-0.074649
-0.066206
-0.252020
-0.144050
-0.150025
-0.109692
0.003107
0.013551
0.045927
0.129447
0.245726
0.298580
0.228273
0.326647
0.250212
0.072739
0.008805
-0.069428
-0.077394
-0.147384
-0.059489
0.060911
0.001204
-0.042005
-0.051216
-0.047639
-0.194438
-0.200616
-0.254004
-0.284543
-0.149584
-0.106692
-0.014324
0.037950
-0.002292
-0.069483
-0.099148
0.067167
0.136084
0.270121
0.190269
0.287622
0.161291
0.124556
0.020932
0.046794
0.025935
0.141813
-0.097316
0.172354
-0.740739
0.020777
0.428498
0.188908
-0.205845
-0.402122
-0.048151
0.201293
0.046894
-0.144907
-0.169449
0.058887
0.208960
0.038861
-0.020465
-0.265040
-0.166731
0.107424
0.249776
0.022370
-0.275450
0.087612
0.138749
-0.187477
-0.355261
-0.001612
0.489768
0.160746
-0.040639
-0.438604
0.057573
0.065527
-0.056671
-0.062402
0.151814
0.125094
-0.214387
-0.562399
0.583486
0.145902
-0.249309
-0.353717
0.603757
0.618056
-0.355878
-0.812468
0.243684
1.447019
1.134035
-1.037664
-2.392456
-1.521303
0.949702
2.569288
2.247798
-0.122515
-2.765848
-2.533545
3.309440
-0.417500
0.321429
0.131293
-0.001010
-0.032265
-0.020607
-0.000426
0.055733
0.092256
-0.073312
0.032633
-0.031503
0.197003
0.114187
0.058411
-0.039448
0.053552
0.050554
-0.036065
-0.127783
-0.064679
-0.132991
0.082100
0.233725
0.111333
0.044688
-0.042313
0.086922
-0.032625
-0.191211
0.012476
0.052793
0.085311
0.083680
-0.041528
0.087505
0.172194
0.056148
0.002037
-0.096082
-0.058132
0.260988
0.284320
0.507587
0.450833
0.142995
-0.053340
0.001685
0.017571
-0.099117
-0.273664
-0.084595
0.185200
0.720244
0.930589
0.492571
-0.370777
-0.625093
-0.573853
-2.013137
0.136522
0.105510
0.023810
0.207343
0.082243
0.141413
0.102325
0.052695
0.087794
-0.070782
0.109233
-0.061637
0.007086
-0.010116
0.116756
0.114288
0.153636
0.226450
0.118406
0.147218
0.167511
0.092794
0.081063
-0.098941
-0.001943
-0.126723
-0.159693
-0.196620
-0.139950
-0.187153
-0.123700
-0.126549
-0.128644
-0.106280
-0.002540
0.025950
-0.083731
0.056331
0.070673
0.024130
0.040093
0.090859
0.049281
-0.001987
-0.078893
0.075777
0.026321
0.048032
0.114059
0.007066
-0.059297
-0.126175
-0.243557
-0.226355
-0.317272
-0.215815
-0.013018
-0.027162
-0.064918
-0.014425
0.002126
-0.077616
-0.157249
-0.092671
0.017089
0.124151
0.108134
-0.237646
-0.117090
0.087202
0.116906
-0.096873
-0.180460
-0.002293
0.056131
-0.009900
0.056820
-0.037424
-0.058794
-0.141275
0.055071
-0.021275
-0.103598
0.004795
0.157500
-0.008456
-0.036698
-0.214267
0.047732
0.058137
0.193876
-0.003263
0.039869
-0.282971
-0.049419
0.170132
-0.085898
-0.080455
0.009566
0.089787
-0.003331
-0.285054
-0.069612
0.241335
0.197197
-0.042541
-0.354316
-0.491072
-0.037531
0.669148
1.807862
1.745127
-0.654860
-3.406395
-3.022802
0.994942
4.039365
1.927543
-2.508446
-0.477857
-0.210741
0.106985
0.112997
0.064816
-0.003182
-0.042853
-0.028435
-0.022840
-0.039817
-0.024631
-0.040248
0.099418
0.077780
-0.052439
-0.002903
-0.125394
0.109245
0.055916
0.003557
-0.010684
-0.020373
-0.158234
-0.031458
-0.063733
0.014832
-0.089721
-0.126145
0.032811
-0.054292
0.030151
-0.041067
0.151105
0.140476
-0.098570
-0.283723
-0.093915
0.061722
0.062958
0.084895
0.079582
0.087609
0.027000
0.043796
-0.047510
0.020885
-0.009901
-0.038699
0.020374
0.148772
0.307303
0.380266
0.606225
0.496172
0.223961
-0.361790
-0.691898
-0.766473
-0.442079
0.036225
-0.466039
0.061976
-0.213059
0.082263
0.308343
0.358082
0.135023
0.062556
0.001849
0.029425
0.083857
0.308752
0.283326
0.091048
-0.035807
-0.137958
-0.198513
-0.165492
-0.011717
0.153507
0.255258
0.163999
0.243278
0.028370
0.165748
0.167873
0.116248
0.224923
0.178843
0.065276
-0.052493
-0.156473
-0.118258
-0.056688
-0.032125
-0.115376
-0.059706
-0.185564
-0.080960
-0.081438
0.008012
-0.102820
-0.177131
-0.115442
0.015084
-0.066413
0.063435
0.028141
0.162690
0.046592
-0.123517
-0.110537
-0.157399
0.008525
0.063297
-0.055962
-0.289608
-0.305166
-0.368077
-0.195878
0.100095
-0.133552
0.186562
0.051919
0.062201
0.165254
-0.017504
-0.082413
-0.108992
-0.004527
0.078526
0.095478
0.116015
0.101211
-0.054865
-0.009794
-0.212364
-0.061161
-0.016707
0.096508
0.181281
0.140294
0.308436
0.239844
-0.005574
-0.150103
-0.339927
-0.303787
-0.018935
0.205963
0.433726
0.512899
0.623231
0.578129
0.121910
-0.451003
-0.660181
-0.726042
-0.578730
-0.324867
0.008057
0.293666
0.229094
0.218519
0.094513
0.006941
-0.126431
-0.392397
-0.452826
-0.089302
0.012048
0.012042
0.173156
-0.099594
-0.105280
-0.011261
0.133358
0.039868
-0.074560
0.090963
-0.044989
-0.364213
-0.297816
-0.260243
-0.241653
-0.139252
-0.277220
-0.153687
-0.065999
0.023086
-0.028906
-0.000788
0.001394
-0.051497
0.049195
0.091789
-0.025094
0.114699
0.140209
0.081590
0.163621
0.122817
0.091584
0.065704
0.085131
-0.011990
0.035584
-0.020297
0.124008
0.121114
0.218117
0.187180
0.249977
0.136322
0.085822
-0.032179
0.111806
0.099110
0.039085
0.020090
0.024695
0.065035
0.038505
-0.204981
-0.076746
-0.084899
-0.084931
-0.247685
-0.236623
-0.109033
0.074876
0.040449
0.179071
0.176554
0.419284
0.417863
0.297733
0.100907
-0.040203
0.050899
-0.286914
0.343491
0.060798
-0.385864
-0.551305
-0.710582
-0.983674
-0.753151
-0.558726
-0.268338
-0.207110
-0.146026
0.187266
0.285277
0.275811
0.084059
0.061680
0.016257
0.061139
0.168749
0.030296
0.021263
-0.040601
0.012521
0.130526
0.186425
0.068642
0.144418
0.049365
0.075090
-0.040557
0.008635
0.153608
0.100060
-0.007294
-0.108468
-0.114312
0.064560
-0.000642
-0.032989
0.134785
0.117281
0.054108
-0.011127
-0.004086
0.007321
0.014885
0.031041
0.108357
0.211950
0.325001
0.187854
-0.006402
-0.118613
0.273175
0.529201
0.201980
-0.214763
0.108697
0.653479
-0.695180
0.105267
0.326036
0.172559
0.193295
0.090575
-0.087544
-0.286368
-0.251899
-0.487273
-0.579278
-0.695045
-0.627679
-0.491603
-0.384809
-0.184165
0.054114
0.155526
0.210046
0.159872
0.065452
0.126821
0.002460
0.040609
0.067044
0.015165
0.033725
0.092616
0.165847
0.131771
-0.037756
-0.081637
-0.046514
0.030704
0.094710
0.149924
0.088066
0.094565
-0.035253
-0.138934
0.018600
-0.153321
-0.028986
0.116599
0.174596
0.259667
0.164620
0.105611
0.020626
-0.012399
0.284357
0.225283
0.078664
0.089416
0.344253
0.542652
0.080313
-0.378942
0.400133
1.133317
-1.352113
0.180681
0.105020
0.152779
-0.000082
0.016130
-0.034034
0.003111
-0.154826
-0.030477
-0.054657
-0.114207
-0.044227
0.107379
0.031922
0.210698
0.234911
0.207574
0.155944
0.178146
0.119349
0.005612
-0.043315
-0.174779
-0.029280
-0.204567
-0.168862
-0.128286
-0.219326
-0.244853
-0.158860
-0.155495
0.037650
0.109183
0.051348
0.217214
0.156422
0.077746
0.127784
0.055427
0.032128
0.042669
-0.084272
0.096521
-0.051735
-0.046770
-0.096604
-0.082321
-0.108206
-0.083870
-0.287317
-0.146151
-0.166572
0.205269
0.117604
-0.169745
-0.179242
-0.043047
0.255459
0.114687
0.429831
-0.518469
-0.069544
-0.198261
-0.188271
-0.210110
-0.236974
-0.073313
-0.016925
0.015839
-0.015490
-0.138119
-0.261396
-0.225296
-0.399482
-0.266256
-0.352704
-0.102456
0.052344
0.027172
0.037211
-0.021935
0.007006
-0.059996
-0.084644
0.044456
-0.073803
0.151003
0.272136
0.691589
0.536245
0.367523
-0.065812
-0.216725
-0.391297
-0.730409
-0.674843
-0.298779
-0.065266
-0.063007
-0.120351
0.061902
0.065871
0.257606
0.072281
0.060750
0.213451
0.210175
0.458490
0.470541
0.226015
0.171465
0.165342
0.192071
0.253586
0.236425
0.013892
-0.199659
0.248343
0.610418
0.223631
-0.124569
0.254038
0.070329
0.037433
-0.096567
-0.033920
-0.088336
-0.046805
0.055604
0.277883
0.323340
0.335952
0.329574
0.256132
0.007138
-0.329391
-0.566673
-0.468314
-0.568287
-0.574759
-0.405922
-0.142566
-0.088257
0.136265
0.143588
0.119055
0.086309
0.034683
0.128062
-0.200588
-0.099654
0.037755
-0.023947
-0.112040
-0.228130
0.048080
0.144547
-0.210465
-0.196303
-0.012991
0.262033
-0.036721
0.033669
0.120700
0.224242
0.029988
-0.130924
-0.146601
-0.106405
0.041753
0.153516
0.039416
0.005138
0.110205
0.439689
0.225519
-0.086104
0.094069
0.676686
-0.203195
-0.153195
0.036454
0.000053
0.081563
0.088121
0.066529
-0.003406
0.235303
0.261727
0.170026
0.007185
-0.337499
-0.425618
-0.667655
-0.669516
-0.745101
-0.609673
-0.327987
-0.107320
0.018317
0.096132
0.189420
0.157716
0.136892
-0.064373
-0.016785
0.093017
0.262065
0.260118
0.084108
0.073941
0.065745
0.045203
0.017205
-0.050424
0.087545
0.080543
0.054852
0.190774
0.257003
0.122285
-0.022625
-0.115157
-0.201227
0.026896
0.089460
0.042167
0.151818
0.285856
0.159630
0.098726
-0.106783
0.128169
0.640657
0.757875
0.279558
-0.278827
0.004222
0.671611
-1.292109
-0.629458
-0.389645
1.395557
0.609490
-1.069355
-0.939555
0.435491
1.115051
0.095164
-0.756676
-0.727343
0.442350
0.850042
0.246177
-0.801791
-0.783954
0.111992
0.860001
0.411117
-0.487362
-0.751265
0.093168
0.599584
0.085409
-0.684692
0.120482
0.436264
0.327125
-1.040512
-0.198732
0.654270
0.269702
0.202939
-0.564855
-0.518500
1.270821
-0.788462
-1.104094
1.716778
1.080844
-2.150777
-0.849994
1.231173
1.875363
-0.734123
-2.328551
0.274944
2.352247
0.586357
-1.794830
-1.181400
1.305814
1.655313
-0.462991
-1.219483
0.138320
1.313799
-0.018792
-1.540779
0.650119
-0.128609
0.124919
0.113719
-0.020256
-0.026272
0.056714
0.011302
0.014053
0.058728
0.065202
0.082497
0.063291
0.040978
0.031841
0.017869
-0.045465
0.055106
0.085283
-0.031780
0.056939
-0.050561
0.092729
0.082022
-0.039520
0.104659
-0.019028
-0.075368
0.090793
0.062348
-0.095539
-0.094649
-0.011611
0.017527
-0.029259
-0.011320
0.139635
0.082785
0.086739
-0.062832
-0.094652
0.106926
0.102802
0.005815
0.046508
0.136506
0.139938
0.367714
0.452825
0.667075
0.656688
0.352931
0.071224
-0.371638
-0.808030
-1.177494
-0.677521
0.030696
0.326168
-0.160462
-0.075622
-0.160466
0.275161
0.102930
-0.561705
-0.243270
0.747607
0.527013
-0.590348
-0.783249
0.099469
0.719098
0.358070
-0.173877
-0.597861
-0.426148
0.305908
0.589251
0.067585
-0.391646
-0.324628
0.252321
0.125054
-0.078125
-0.470394
0.497197
0.262957
-0.200718
-0.506930
-0.118258
0.234370
0.976373
-0.948603
-0.909126
2.050697
-0.474827
-2.160914
0.690097
2.828794
-1.178195
-2.876976
0.840712
3.481103
-1.028499
-2.837052
0.063606
2.707417
0.616757
-2.321503
-0.827920
1.745482
0.962905
-1.143589
-0.895002
0.979901
0.963259
-0.422806
-0.435930
0.177165
-0.236362
0.232381
-0.013678
-0.022785
-0.019010
-0.062235
0.073140
-0.029572
-0.083442
-0.024462
0.060951
0.130303
0.017266
0.121621
0.059898
0.064047
-0.090351
-0.046351
-0.084611
0.043497
0.046612
0.073159
-0.041644
-0.010511
-0.005288
-0.048583
0.065770
0.060326
0.041512
0.037331
-0.069456
-0.070244
0.065759
-0.102064
-0.005772
-0.078079
-0.087809
0.008576
-0.098135
-0.101547
-0.057375
-0.068491
-0.090995
0.013874
0.100113
-0.041349
0.087578
0.093758
-0.021113
-0.002145
-0.077276
-0.042164
0.056540
-0.009627
-0.060039
-0.130243
-0.137110
-0.087358
0.026556
0.071602
0.128712
0.017436
-0.070798
0.045171
0.067144
-0.046514
-0.067781
-0.037439
-0.012475
-0.009082
-0.009759
0.152605
0.130800
0.047064
0.076602
-0.053062
0.089143
-0.007329
0.004703
0.020471
-0.007497
0.087908
-0.039243
-0.031276
0.079415
0.067057
-0.022104
0.093565
-0.014578
0.133869
0.101832
0.032476
-0.028659
-0.042355
-0.050534
-0.046954
-0.006535
-0.073870
0.049805
-0.037901
0.014535
0.014574
-0.037987
-0.025289
0.019802
-0.038354
0.067030
0.126996
-0.019370
0.081567
-0.020245
-0.029710
-0.062640
-0.031996
0.008021
-0.124409
-0.012378
0.038700
-0.040330
-0.120406
-0.247210
-0.328991
-0.012325
0.157880
0.008784
-0.004352
0.105751
0.116219
0.010310
0.043713
0.045731
0.023853
0.049963
-0.007651
-0.046329
0.088039
0.037788
0.014492
-0.013677
0.023900
-0.038964
0.077611
-0.015264
0.004035
0.060837
0.130923
-0.001660
-0.020074
-0.118217
-0.102742
-0.097732
0.020931
0.004384
0.224588
0.105282
-0.057947
-0.234538
-0.109011
-0.085016
-0.118007
-0.005286
0.392617
0.635996
0.755467
0.529770
0.138547
-0.115240
-0.516309
-0.968734
-0.925245
-0.624993
-0.087636
0.300992
0.946185
1.200411
0.591463
-0.080241
-0.506134
-0.661183
-0.730242
-0.523486
0.751290
-0.472544
0.280185
0.278605
0.096455
0.071375
0.101220
0.120121
0.083073
0.094052
0.030968
0.044572
-0.055499
0.046692
0.092713
0.238652
0.149221
0.128971
0.036173
0.066143
0.021124
-0.045784
-0.031092
-0.188443
-0.245621
-0.412720
-0.475171
-0.397966
-0.417290
-0.485676
-0.491717
-0.310036
-0.158213
0.059648
0.072711
0.205730
0.138596
0.225793
0.051365
0.003500
-0.165833
0.032309
0.036818
0.077897
0.182658
0.096406
0.020762
0.059602
-0.019787
0.083505
0.259935
0.300382
0.144612
-0.015891
0.236446
0.378727
0.152724
-0.385900
0.179705
0.803715
-1.094829
1.707075
-0.162124
-0.166179
-0.038126
0.102696
0.115490
0.328340
0.097797
-0.146909
-0.289080
-0.104492
-0.166930
-0.061625
-0.029943
-0.079019
-0.031433
0.020158
0.376165
0.411755
0.356174
0.156422
0.226872
0.145431
-0.034019
-0.029536
-0.115362
0.005805
-0.038770
-0.061851
-0.160313
-0.167804
-0.042378
-0.030851
0.027378
0.135889
0.125245
-0.033363
-0.044254
0.034352
0.035814
0.069734
-0.085161
0.036178
-0.186520
-0.275353
-0.156257
0.361645
0.195586
-0.331819
-0.520421
-0.368995
0.020363
0.452117
0.205055
-0.358946
-0.602644
-0.374329
-0.229257
-0.285256
-0.058948
0.062846
-0.119587
-0.167516
-0.073748
-0.027887
-0.063979
-0.050945
-0.066839
-0.004445
-0.037235
-0.065439
-0.043186
-0.036814
0.037893
-0.027686
0.034480
-0.040641
-0.162575
-0.052039
-0.022169
0.051229
-0.008676
-0.037418
-0.002420
-0.052543
-0.048084
-0.009453
-0.084347
0.077709
-0.140172
-0.156436
-0.171502
-0.082528
0.046617
-0.005678
-0.138672
-0.115103
-0.074046
0.128447
0.075690
-0.036633
0.075383
-0.153881
-0.403818
-0.510742
-0.629698
-0.388953
-0.066632
0.119594
0.455268
0.672808
0.495420
0.257513
-0.063619
-0.182847
-0.009981
0.445576
0.581198
0.232808
-0.045460
-0.360528
0.108512
0.000601
0.130638
0.113959
0.116443
0.203002
0.075876
0.186327
0.086216
0.156447
0.063534
0.163476
0.216171
0.066176
-0.021896
-0.124944
-0.109922
-0.215934
-0.133942
-0.119298
0.085872
-0.011333
0.123286
0.158845
0.247274
0.083267
-0.049614
-0.107279
-0.226281
-0.292448
-0.157868
-0.069355
-0.039107
-0.092351
0.024007
0.128574
0.086761
-0.050191
0.127952
0.236634
0.082037
0.019757
-0.191824
-0.064570
-0.102987
-0.209274
-0.301751
-0.259449
-0.310314
-0.263006
0.011786
0.046280
0.137261
-0.256741
-0.278577
0.087710
0.163086
0.160872
0.561091
-0.211956
0.072666
0.063365
0.173777
0.185749
0.124901
0.051527
0.088888
-0.071120
0.037800
-0.056025
0.060067
-0.059089
-0.069443
-0.116313
-0.167130
0.045311
-0.060395
-0.086398
-0.161666
-0.104582
-0.055951
0.015157
0.031735
0.154709
0.086384
-0.078871
0.104394
-0.095027
-0.155729
-0.164219
-0.103012
0.019040
-0.050844
-0.171275
-0.139381
0.065602
0.072409
0.020667
0.171518
0.010790
0.150004
0.175625
0.214335
0.153874
0.185922
0.157491
0.049947
0.131029
0.181594
0.108219
0.222156
0.319340
0.441492
0.187961
-0.008893
-0.335156
-0.138096
0.213552
-0.753225
0.251107
0.365209
0.003246
-0.103215
0.082291
-0.060322
-0.097188
-0.096355
0.112889
0.108646
-0.002977
-0.040982
-0.044263
0.133984
0.232783
0.220360
0.257312
0.141560
0.122746
-0.115179
-0.076202
-0.137637
-0.243639
-0.075650
0.237434
0.140734
0.343447
0.703510
0.512924
0.008657
-0.442132
-0.450729
-0.732566
-0.958537
-0.639718
-0.143397
0.268783
0.083933
-0.009291
0.333181
0.454169
0.108758
-0.052915
-0.014163
0.049759
-0.077355
-0.273615
-0.050038
-0.058929
-0.066192
-0.115575
-0.267204
-0.340402
-0.223371
-0.059994
0.223750
0.135861
-0.008175
-0.000312
0.366586
0.071591
0.074288
0.050545
-0.005434
-0.030433
0.083609
0.047590
0.106631
0.063816
-0.138802
-0.066198
-0.094079
-0.221917
-0.179178
-0.012507
-0.065405
-0.061287
0.053346
0.040373
-0.003691
0.032816
0.195142
0.042218
0.081898
0.087331
-0.021667
0.057477
0.118296
0.117223
0.176514
0.037462
0.163017
0.209925
0.104464
0.124062
0.098935
0.219096
0.021405
0.117615
0.039440
-0.006158
-0.136408
-0.129113
-0.137190
-0.171157
-0.213394
-0.152677
-0.130529
-0.058204
-0.200320
-0.123992
0.048101
0.051951
0.097005
-0.122948
-0.083444
-0.036321
-0.020254
-0.037617
0.298538
0.152925
0.212976
0.178241
0.146900
0.019526
0.039107
0.024704
-0.056099
-0.149781
-0.060797
-0.172424
-0.143969
-0.039965
0.023773
-0.087249
-0.025059
-0.025765
-0.102001
0.031179
-0.030482
0.000534
-0.095511
0.025378
-0.041642
-0.098865
0.006906
-0.025212
-0.126757
-0.062558
-0.125695
-0.068090
-0.037727
-0.031429
-0.073848
0.000165
-0.098878
-0.044257
0.037752
-0.075530
-0.050072
-0.100233
0.064104
0.080608
0.000243
0.146947
0.030285
0.147021
0.123676
0.005492
0.067241
0.062618
0.048055
-0.023759
0.074656
0.073468
0.033087
0.034091
0.060662
0.179092
0.015289
-0.525899
-0.097186
-0.186665
-0.236513
-0.093328
-0.242887
-0.326926
-0.135800
-0.063794
-0.000075
-0.109788
-0.028142
0.069375
0.166874
0.224151
0.143482
0.081240
0.150039
0.162050
0.200076
0.139985
0.127118
0.085888
0.047836
0.105588
0.109253
-0.000838
0.118993
0.094616
-0.018840
-0.028088
-0.033235
-0.146398
-0.198890
-0.344058
-0.239196
-0.201331
-0.065499
-0.008762
0.151824
0.046076
-0.079123
-0.306896
-0.143268
0.066050
0.148124
0.158509
0.172871
0.021635
0.038165
0.170120
0.258290
0.255021
0.478399
0.420843
0.068239
-0.211832
0.056983
0.593389
-0.538222
-0.069565
-0.076355
0.084734
0.039247
-0.105886
-0.058829
-0.118573
-0.075045
0.098812
0.146001
0.122698
0.017148
0.078510
0.087972
-0.074103
0.037445
0.020657
-0.017596
0.075631
0.004739
0.092325
0.021414
0.060594
0.110478
0.081936
-0.023639
0.111815
0.131573
0.143906
0.008987
0.151813
-0.025359
0.152471
0.031003
0.122555
0.018765
0.066140
0.010798
-0.066013
-0.013196
0.040644
0.037057
-0.110389
-0.096466
-0.049369
0.023870
-0.096127
0.051388
-0.149735
-0.071654
-0.110240
-0.072192
0.013226
-0.034556
-0.149621
-0.111303
-0.148747
-0.029420
-0.018431
-0.059257
0.459964
-0.977541
-0.220791
0.783691
0.607364
-0.266486
-0.856684
-0.345125
0.638650
0.739129
-0.027214
-0.748555
-0.485254
0.228137
0.619115
0.077241
-0.503751
-0.436656
0.306124
0.360563
0.023896
-0.531329
-0.219710
0.447940
0.332137
-0.507427
-0.557997
0.268735
0.712816
0.161955
-1.816222
0.759034
1.389923
-0.496897
-1.820306
0.970948
1.467236
-0.687049
-2.338217
1.496045
2.096365
-1.407355
-2.000988
0.645973
2.193367
-0.072747
-2.156340
-0.575564
1.804690
1.058008
-1.389729
-1.179177
1.023675
1.384591
-0.397469
-1.079018
0.204324
0.820672
-0.436210
0.040778
-0.137205
0.066728
-0.017590
0.052714
0.004412
0.059831
-0.041910
-0.048789
-0.021927
-0.064561
-0.072646
0.067709
-0.035065
-0.099520
0.008339
-0.083437
-0.000273
0.011536
-0.012115
-0.031748
0.006900
-0.099576
-0.001054
-0.071384
0.147155
0.167488
0.053888
0.077414
0.150239
0.033798
0.062055
0.089365
0.004844
0.110248
0.068234
0.077496
0.162789
-0.088393
-0.076588
0.012269
0.035530
0.022487
-0.080022
-0.021969
-0.149924
-0.188907
-0.512463
-0.513545
-0.506261
-0.266946
0.031573
0.657499
0.821515
0.853014
0.589143
0.036420
-0.331594
-0.297554
0.132635
-0.383593
-0.092993
-0.217689
-0.195366
-0.156819
-0.166536
-0.160219
-0.132090
-0.088011
0.007668
-0.084099
0.038838
-0.075204
-0.007313
0.007480
-0.027299
-0.007513
0.030114
0.040801
0.004878
0.026139
-0.002156
0.138830
0.125954
0.101246
0.084836
0.152647
-0.036113
0.081647
0.072648
0.069790
0.014023
0.223886
0.139728
0.017237
0.080666
0.061221
0.109962
0.051501
0.145093
0.122761
0.064543
0.078995
0.148478
-0.031789
0.093210
0.084906
0.046231
0.147129
0.014833
-0.012775
-0.199411
-0.427995
-0.341317
-0.389837
-0.446063
-0.140303
0.004393
0.102072
-0.007334
0.080651
-0.067578
0.243758
-0.052315
-0.049979
0.061071
0.042670
-0.053597
0.043734
0.134190
-0.019964
-0.008261
-0.070609
0.042052
0.084110
0.175464
0.098817
0.115910
-0.104213
-0.181879
-0.064451
0.070030
0.044904
0.032966
0.110045
0.084095
0.050326
-0.018730
0.031932
0.006948
-0.356709
-0.187098
-0.046291
0.191562
0.013776
-0.184649
0.388765
0.503459
0.094255
-0.379726
-0.352155
-0.252757
-0.671301
-0.638070
-0.577177
-0.110239
0.244572
0.737962
1.282467
1.154256
0.697362
0.192116
0.051951
-0.522365
-1.140023
-1.264789
-0.714395
-0.330998
-0.658746
-0.481173
1.802357
-0.239160
-0.153697
0.041066
0.213279
0.113258
-0.093714
-0.160285
-0.072693
-0.129937
-0.063769
0.128756
0.176904
0.043339
-0.029418
-0.118661
-0.075676
0.081544
0.035126
0.074166
-0.030527
-0.181672
-0.087175
0.035140
-0.011085
-0.089722
-0.008831
-0.063782
-0.004456
-0.141691
-0.085988
-0.086584
-0.080976
0.173887
0.050725
0.155842
0.093372
-0.441556
0.019296
0.383373
0.243099
-0.298311
0.877743
-0.119038
-0.319119
-0.165114
0.372398
0.072013
-0.597532
-0.680726
-0.290695
-0.539918
-0.839769
-0.472581
0.351013
1.000438
0.974184
0.327691
-0.527834
-0.354297
1.385528
-0.553666
0.328591
0.307006
0.249783
0.180440
0.145525
0.169677
0.054556
0.037824
0.068703
-0.023022
0.063677
0.072570
-0.056527
-0.099951
-0.148156
-0.390049
-0.358627
-0.611206
-0.470640
-0.027515
0.203991
0.572927
0.683205
0.506317
0.104881
-0.193866
-0.318394
-0.561487
-0.885048
-0.636665
-0.306795
-0.232135
-0.546227
-0.618815
0.022677
0.444460
0.066047
-0.278976
-0.168307
0.485013
0.025042
0.046515
0.001313
0.191767
0.263445
0.231388
0.336635
0.348331
0.281354
0.172271
0.124214
0.131694
0.119814
0.102155
-0.111277
-0.131705
0.040983
0.489827
-0.095943
0.009454
0.088695
0.060323
-0.099133
0.000695
-0.037198
0.070869
0.049548
0.126910
0.105480
-0.044430
0.053333
-0.043106
0.021381
0.053692
-0.024550
0.000652
-0.003087
0.115957
0.081318
0.054382
0.229909
0.235735
0.256117
0.211057
0.218327
0.056721
0.142716
-0.044328
0.109336
0.007621
0.025465
0.037212
-0.055081
-0.122945
-0.207847
-0.240292
-0.292412
-0.236022
-0.182282
-0.113370
-0.099371
-0.036411
0.028717
0.162484
0.071288
0.031925
0.033321
0.018804
-0.102530
-0.182898
-0.127652
-0.095324
-0.190770
-0.283754
-0.189545
-0.012308
0.049982
-0.107843
0.216087
-0.039986
-0.132558
0.140639
0.244523
0.261377
0.151560
0.165672
0.148559
0.212797
0.170489
0.264907
0.286620
0.159574
0.013252
-0.153243
-0.096485
-0.029013
-0.069117
-0.156861
-0.206958
-0.070181
-0.105922
-0.279052
-0.131410
-0.134705
-0.144575
-0.112917
0.053242
0.157409
0.164542
0.093468
0.046185
0.099488
0.019940
0.139165
0.122967
0.094143
0.052489
0.015211
0.122201
-0.088713
-0.103511
0.006961
-0.105338
-0.017164
-0.000482
0.065255
0.194868
-0.001844
-0.188812
-0.186124
-0.132108
0.069757
0.083274
-0.181083
-0.234973
-0.294057
-0.127114
0.058766
0.310170
-0.088959
0.120135
0.092653
-0.003679
0.087673
0.127169
0.087931
0.166802
0.174537
0.231438
0.164772
0.113260
0.125654
0.004401
0.041542
-0.083774
-0.052615
-0.146247
-0.044443
-0.166803
-0.205710
-0.151890
-0.229604
-0.077708
-0.056601
-0.064563
-0.169109
-0.143261
-0.175154
-0.258068
-0.147959
-0.111729
-0.101103
0.014965
-0.076679
-0.019509
0.095789
-0.053380
0.035674
0.086850
0.199680
0.217756
0.140335
0.058087
0.229801
0.166201
0.177788
0.129756
0.299703
0.084434
-0.212990
-0.287904
-0.409865
-0.492277
-0.301257
-0.192254
0.189036
0.206380
-0.029235
0.267828
0.546559
0.398676
0.316435
0.192255
-0.016310
-0.273395
-0.369341
-0.401788
-0.262878
-0.263756
-0.371035
-0.330154
-0.170477
0.074599
0.095806
0.126367
-0.026478
-0.079499
-0.127886
-0.236649
-0.148529
-0.082818
-0.125725
-0.075566
-0.087319
-0.158061
-0.132594
-0.127122
0.012700
-0.090988
0.001005
0.145630
-0.027961
0.038918
0.099554
0.142705
0.214410
0.126492
0.037870
0.053593
0.107259
0.032628
-0.054816
0.034316
0.110834
-0.062238
0.001901
-0.115814
-0.033487
0.174270
0.147789
0.112624
0.002078
0.095388
0.224928
0.091515
-0.025639
-0.041918
0.220165
-0.111227
-0.137814
0.227218
0.098772
0.112646
0.027317
0.088159
0.002667
0.084642
0.132721
0.083627
0.008599
0.009706
-0.149899
-0.285902
-0.221407
-0.232585
0.025186
0.249796
0.319042
0.312322
0.294474
0.130741
-0.022073
-0.300208
-0.311268
-0.492680
-0.392432
-0.107350
-0.099753
0.130228
0.144052
0.180688
-0.012251
-0.182686
-0.213456
-0.127972
-0.083524
-0.073721
0.173377
0.158450
0.263262
0.069109
0.094253
-0.033707
0.158921
0.028364
0.084581
0.131964
0.133314
0.066456
0.006454
-0.056216
0.081967
0.063555
0.081844
0.120520
-0.132794
-0.249199
-0.320665
-0.470878
weigvec 606
0.488357
-0.367366
-0.127052
-1.013928
-0.769497
0.646391
0.459650
0.806156
0.193205
-0.330000
-0.111412
0.038423
0.190597
0.078288
-0.106843
0.256854
0.159342
-0.186796
0.464977
-0.070538
-0.387314
0.461764
0.683274
-0.150741
-0.047050
1.028907
-0.145500
0.561453
0.049602
-0.209468
-0.571312
0.385058
-0.287387
0.330615
-1.505542
-0.049670
0.256083
0.488354
0.244177
1.017481
0.070745
0.234432
0.128310
0.387907
-0.091764
0.461880
0.391739
-0.367120
0.691828
0.009874
0.364584
-0.409857
-0.873811
1.400444
0.199120
0.106843
-0.291916
-1.163945
-0.871698
-0.175844
0.719508
-0.194290
0.322755
0.563468
0.726501
-0.065926
0.200388
0.109419
-0.488467
-0.859444
0.553306
0.418347
-0.219752
-0.860300
-0.578846
1.267048
-1.108889
-0.053929
-0.218004
0.625664
-1.096630
0.174023
0.724027
0.758722
-0.059683
0.180818
0.473837
0.078449
-0.442579
0.125776
-1.210016
0.269721
0.477345
0.505765
-0.084671
0.170523
0.511344
0.382486
0.384224
0.008525
-0.215946
-0.106981
0.089601
0.022056
0.917542
1.071204
-0.343163
-0.132570
-0.084920
0.213765
0.044141
-0.091384
-0.022241
-0.121888
-0.143996
0.493495
-0.024187
0.379788
0.103116
0.379212
0.160288
0.025043
-0.143031
-0.456301
-0.433120
0.043075
-0.065348
0.380445
-1.138866
-0.394439
-0.384143
-0.247927
-0.059940
-0.071012
-0.159577
0.510046
0.442371
-0.068793
-0.533549
0.083132
-0.519797
0.294080
-0.574516
0.034828
0.100852
-0.123912
0.033495
0.088157
-0.083194
-0.353568
-0.165722
-0.131413
-0.259790
0.671232
-0.396276
0.230724
0.170908
0.688535
-0.725864
-0.492174
0.147907
0.105279
0.605504
0.074719
1.581272
-0.009655
-0.298618
0.149722
0.021117
0.519749
0.652121
-0.228919
0.135805
0.242998
0.699256
-1.053140
0.176786
-1.465035
-0.121593
0.128857
-0.495436
0.815645
-0.378695
-0.074546
-0.639468
0.431182
0.399607
-0.262044
0.023085
0.718052
-0.113098
-0.997161
-0.215444
0.074578
-0.222164
-0.871886
0.375357
-0.075383
-0.207809
0.134676
0.019498
0.474477
-0.343800
-0.425619
0.437743
0.022321
0.062797
0.361177
-0.631008
0.054298
0.092770
0.224674
-0.283508
-0.074509
-0.003732
0.022583
-0.220397
-0.114590
-0.017733
0.349274
0.067712
0.020488
-0.163558
0.370831
0.497224
-0.132329
0.135350
0.084483
0.246781
-0.339711
-0.120679
0.916942
0.137284
0.031855
0.506264
0.245408
0.096720
0.079194
0.275096
0.489781
0.191121
0.419320
0.184146
0.035645
-0.066540
-0.389990
0.028597
-0.527717
0.125944
0.142675
0.406545
-0.025625
0.344025
1.211243
-0.151188
-0.218732
0.082988
0.038696
-0.562782
1.690392
-0.516465
-0.369120
-0.116258
0.216034
-0.004668
-0.298230
-0.889640
0.280695
0.054296
0.026480
-0.192218
-0.166628
0.350316
0.176086
0.095308
-0.110207
0.454606
0.482532
0.703939
-0.125602
0.251797
0.528457
-0.097558
0.110893
-0.655436
0.546852
-0.411564
0.166769
0.458123
-0.242477
-0.491245
0.166069
0.684713
-0.626567
-0.266827
0.041179
-0.999029
0.084652
0.037247
0.362429
-0.185834
-0.069206
0.170108
-0.503527
0.084986
-0.131679
-0.258466
-0.406246
0.199770
-0.561892
0.089007
-0.033299
-0.065667
-0.165682
-0.029828
-0.116304
-0.166501
-0.127577
0.103248
0.023920
0.006824
0.135658
0.171559
-0.042647
0.106000
0.149388
-0.300167
-0.425270
0.185549
-0.161299
-0.403129
0.491468
-0.009350
-0.104784
-0.186260
-0.113458
0.047689
0.027017
-0.026553
0.135998
0.148976
0.167087
-0.184584
0.102580
-0.777192
0.149766
-0.395882
-0.154704
-0.094611
0.407859
0.162397
0.086575
-0.288267
0.338758
0.049455
-0.233726
-0.088764
0.245938
-0.007056
-0.070950
0.379927
-0.974775
0.122158
-0.098044
-0.333893
0.158782
-0.210765
0.201732
0.115518
0.114059
-0.257884
0.033575
0.041385
-0.270366
0.090797
0.042111
-0.182011
-0.345712
-0.284020
-0.777448
0.216713
0.070425
-0.110128
-0.172956
0.165955
-0.187206
-0.018295
-0.304220
-0.006823
-0.267673
0.083161
-0.239436
0.092939
-0.511064
-0.080662
0.191724
0.514035
0.188995
0.067704
0.343518
0.011212
0.539146
-0.031379
0.011995
0.493227
0.311066
-0.249620
0.240974
0.320987
-0.078730
0.107728
-0.197122
0.450307
0.144509
0.334211
0.217820
-0.233024
-0.025217
0.347986
0.416995
0.447456
0.029745
-0.041107
0.576588
0.740103
-0.194421
-0.264010
0.277126
0.519571
0.055700
0.313697
0.920820
0.538217
-0.812727
-0.198615
0.561854
-0.314131
0.284423
0.437935
0.325333
0.377779
0.157151
0.044889
-0.298534
0.352842
0.545026
-0.222205
0.680527
0.234712
0.361012
-0.294790
-0.335468
0.102973
0.420514
-0.156575
-0.653120
0.363284
-1.104856
-0.013805
0.421995
0.480194
-1.230749
-0.071477
0.474123
-1.209595
0.585719
-0.550082
-1.344838
0.822437
-0.512321
0.435697
0.519340
0.237519
0.340550
-0.320892
0.340959
0.502427
0.336612
-1.096463
-0.609087
-1.251239
-0.145823
-0.142725
0.090369
0.374104
-0.356937
-0.314419
-0.100113
0.772783
0.206707
-0.133277
0.263397
0.762541
-0.312199
-1.456287
0.645122
-0.214234
-0.047368
0.166787
0.026730
-0.420716
-0.556393
-0.156653
0.514888
0.366589
-0.268801
0.275884
0.073837
0.242143
-0.190874
-0.824780
0.638116
-0.705262
-1.002378
-0.094744
-0.087959
0.197852
0.060889
0.153132
-0.650179
-0.559470
-0.784207
-0.162766
-0.861147
-0.798943
-0.063640
-0.420467
-0.339285
0.709244
-0.138480
-1.080570
-0.691639
0.352497
-0.389528
0.542996
1.009246
-0.865840
0.136673
-0.919343
0.567411
-0.743404
-0.852773
-0.817280
-0.784684
-0.462193
-1.086179
0.408773
0.029554
-0.413927
0.074062
-0.325100
-0.686473
0.329889
-0.652902
-0.186439
-0.750998
-0.026091
0.188103
0.501353
-0.789520
-0.670319
0.065242
0.820540
2.742208
-0.282506
0.612642
-0.817300
-0.016702
-0.078908
-0.625621
0.345859
-0.922184
-0.315208
-0.268145
-0.165852
-0.242297
-1.025143
-0.782484
-0.022452
2.647131
-0.918819
3.760261
-0.038808
0.081190
-0.641552
0.302358
0.440356
0.597727
-0.577261
-0.381366
-0.706565
0.028602
-0.016000
-0.350388
0.091126
3.485860
0.019521
-0.214843
-0.819731
1.525623
-0.774680
-0.337896
0.091759
-0.952768
-0.252387
-0.776393
biasvec 101
-4.494307
-3.872652
-3.956370
-4.883339
-4.665031
-3.449107
-5.921820
-5.145281
-4.868766
-4.009266
-4.052475
-3.907125
-3.973191
-3.957256
-5.012229
-4.719410
-4.825518
-4.017771
-4.827007
-4.431907
-4.047105
-4.269986
-4.496608
-5.063228
-3.952735
-5.944870
-4.355075
-2.224996
-4.017613
-4.269075
-4.759658
-4.171635
-4.199589
-4.110798
-5.624053
-4.171010
-5.403759
-5.137423
-4.768667
-4.741939
-5.175406
-4.242429
-4.067338
-4.855009
-4.054573
-4.293782
-4.156041
-3.970546
-4.667671
-3.919961
-5.899571
-4.577291
-4.923403
-3.502663
-4.278465
-5.014049
-4.621976
-6.626305
-5.331616
-4.393719
-3.515361
-4.367259
-4.050596
-2.891519
-4.266616
-4.008870
-4.319109
-4.049417
-4.829173
-5.329857
-4.152168
-5.446244
-5.012000
-5.007278
-3.445126
-5.228493
-3.327210
-3.974885
-3.962392
-3.706290
-5.500654
-3.581146
-4.271862
-4.769083
-4.571442
-4.847617
-3.952748
-4.037192
-5.261147
-3.991365
-3.318715
-3.961951
-3.995652
-3.985193
-5.611042
-4.281879
-4.275850
-4.117108
-4.761505
-4.032986
-4.089668
biasvec 6
-4.470330
-7.263932
-3.223508
-4.073760
-3.394217
-1.672244
